svm_type c_svc
kernel_type rbf
gamma 0.125
nr_class 10
total_sv 521
rho -0.920639 -0.467962 -0.016569 -0.594312 0.273067 -0.298734 -0.426486 0.36324 -0.949191 0.79223 0.923214 0.711912 0.954167 0.852455 0.810705 0.962497 -0.255047 0.457504 -0.181448 0.658386 0.198247 0.0514284 0.715481 -0.868125 -0.583859 0.292095 -0.280717 -0.416152 0.378619 -0.948361 0.760375 0.385045 0.236524 0.811004 -0.815692 -0.543424 -0.630804 0.106503 -0.970829 -0.149006 0.622898 -0.909296 0.693315 -0.879944 -0.975402
label 0 1 2 3 4 5 6 7 8 9
probA -3.53068 -10.2982 -9.514 -7.90144 -7.27628 -7.50278 -7.88007 -8.10445 20.4868 -2.9184 -4.02198 -3.00508 -3.83329 -3.05509 -2.97825 -3.765 9.31626 -12.6236 -3.2831 -9.51537 -2.46072 -4.63426 -19.1577 11.1631 -11.3575 -10.3937 -11.5438 -7.28024 -10.2403 30.8821 -6.33943 -2.11799 -2.52452 -4.42206 7.64656 -4.72825 -6.82433 -7.5594 36.2074 -5.17961 -4.75982 14.3393 -4.60179 10.3344 46.261
probB -1.06093 4.43164 -0.784348 3.51612 -1.16401 2.07687 2.46008 -1.90633 -24.1296 0.550087 0.563198 0.420423 1.03017 0.650512 0.599033 1.30805 -10.8454 -6.55559 0.141846 -4.8672 -0.0232324 -0.463691 -12.5245 -12.2385 6.09676 -1.11357 4.12963 2.42623 -1.77226 -34.6358 -2.52268 0.0323014 -0.157 -1.02671 -8.76529 1.4071 2.63296 -0.59382 -40.1079 0.281688 -1.37269 -16.2382 -1.21354 -12.2825 -50.3157
nr_sv 82 5 15 102 12 117 25 22 140 1
SV
0.0789233198938431 0.5365324667401298 0.9844667037145349 0.4113965874686075 1.274797077936406 0.698511718835968 0.5885143083121301 1.364938081220557 0.05044410483539232 43:0.46322543 44:0.45405295 55:0.98649631 56:0.96696237 67:0.99501248 68:0.99501248 79:0.94584838 80:0.9422336 91:0.98544374 92:0.97076102 103:0.94552145 104:0.94552145 115:0.47624878 116:0.47624878 127:0.050577908 128:0.050577908 170:0.026730764 171:0.13779504 172:0.28269162 173:0.46138043 174:0.64729903 175:0.35689579 182:0.02620146 183:0.13506652 184:0.27709395 185:0.45615095 186:0.83131635 187:0.9312994 188:0.63578294 197:0.090841552 198:0.37550399 199:1 200:0.7102623 211:0.079909432 212:0.079909432 223:0.0029830183 224:0.0029830183 235:0.11417426 236:0.11191345 247:0.77377478 248:0.87588411 249:0.11183268 259:0.65573121 260:0.86381819 261:0.47007608 262:0.33372235 263:0.19387728 264:0.058451342 271:0.24540519 272:0.52419703 273:0.4645109 274:0.33372235 275:0.26904607 276:0.12251747 287:0.12133668 288:0.12009146 313:0.49788863 314:1 315:0.97712255 316:0.88809212 317:0.90608143 318:0.79109848 319:0.26915713 325:0.48802978 326:0.98019867 327:0.97712255 328:0.88809212 329:0.94028909 330:0.89677877 331:0.64929873 332:0.3093399 341:0.17095388 342:0.50333629 343:0.64048114 344:0.30721115 391:0.26464141 392:0.42755908 393:0.16181134 403:0.26464141 404:0.60776682 405:0.72418759 406:0.77967232 407:0.59973365 408:0.19841535 415:0.1070467 416:0.42274369 417:0.68103365 418:0.76822204 419:0.79202407 420:0.40183352 431:0.39782526 432:0.39387668 457:0.41311117 458:0.43457242 459:0.05097569 460:0.0007012936 469:0.40493102 470:0.43457242 471:0.05097569 472:0.0007012936 487:0.17416683 488:0.1707181 499:0.7240654 500:0.70972795 511:0.99501248 512:0.99501248 523:0.71338953 524:0.71338953 535:0.15388101 536:0.15388101 601:1 602:0.99004983 613:0.99004983 614:0.99004983 695:0.99501248 696:0.97530991 707:0.99501248 708:0.99501248 719:0.97530991 720:0.97530991 
0.03719842023222005 0.2773983644694214 0.594703985290994 0.2040776793747697 0.6734614305504598 0.3604562727155337 0.2896067220738068 0.7257964194974356 0.02574892859899551 2:8.0333246e-05 3:7.8742542e-05 14:0.2607429 15:0.25739981 16:0.046958198 26:0.28457565 27:0.33561775 28:0.22052614 29:0.14829421 30:0.043840096 38:0.10304841 39:0.17989805 40:0.29958297 41:0.49872063 42:0.39120441 43:0.08779703 51:0.066550682 52:0.3071049 53:0.85114248 54:0.79794466 55:0.30042128 56:0.025256795 58:0.00528186 59:0.045233191 60:0.039160242 64:0.33849303 65:0.85346229 66:0.96073077 67:0.55238807 68:0.096550848 70:0.00528186 71:0.12648904 72:0.12562797 76:0.33652403 77:0.65126655 78:0.75529379 79:0.60196657 80:0.23776628 81:0.063946907 83:0.12483688 84:0.12473333 88:0.34186646 89:0.51407752 90:0.37975392 91:0.63131945 92:0.42403714 93:0.1324692 94:0.03610654 96:0.044822536 100:0.35387933 101:0.39042151 102:0.29585599 103:0.53842758 104:0.32129516 105:0.088688963 106:0.03610654 107:0.038268082 108:0.16761357 112:0.32185816 113:0.35380824 114:0.33293619 115:0.37024177 116:0.22879396 117:0.1720171 119:0.038268082 120:0.16626961 124:0.14359063 125:0.18055893 126:0.19513067 127:0.15889439 128:0.19537841 129:0.19344597 132:0.037887308 137:0.0049188475 138:0.0048214478 140:0.041764098 141:0.041764098 146:0.092958723 147:0.1398369 148:0.045949923 158:0.3221272 159:0.54064248 160:0.47875919 161:0.25845372 170:0.51510701 171:0.86074972 172:0.91420882 173:0.84110989 174:0.29025743 182:0.28398671 183:0.70793604 184:0.88025923 185:0.89800465 186:0.73371705 187:0.25052744 188:0.12219906 189:0.065291373 195:0.28180461 196:0.65397356 197:0.70947594 198:0.83061003 199:0.711786 200:0.31789155 201:0.19948258 202:0.22174818 203:0.23751166 204:0.096614397 208:0.38407136 209:0.78028326 210:0.97847967 211:0.88734498 212:0.58261403 213:0.32405297 214:0.27370508 215:0.3701017 216:0.24627195 220:0.097223989 221:0.50107374 222:0.93328845 223:0.86998808 224:0.77132667 225:0.45193231 226:0.083078239 227:0.27624202 228:0.24248663 232:0.00030300278 233:0.2271702 234:0.84571447 235:0.97099937 236:0.79680548 237:0.52978267 238:0.084051304 239:0.10446743 240:0.14219061 244:0.037814065 245:0.092996258 246:0.42987218 247:0.91866056 248:0.77425913 249:0.39796985 250:0.1448358 251:0.10446743 252:0.2320167 256:0.29033849 257:0.28831658 258:0.18654042 259:0.36414008 260:0.53576011 261:0.30871216 262:0.059580886 263:0.064432772 264:0.22840667 268:0.24970505 269:0.28865831 270:0.19465115 271:0.051204782 272:0.25133867 273:0.27878545 274:0.029581319 281:0.092945025 282:0.09110459 284:0.069890242 285:0.099275512 286:0.02899557 290:0.17630851 291:0.26075549 292:0.084132809 302:0.23391381 303:0.52047749 304:0.36360532 305:0.095159791 314:0.069421996 315:0.46730539 316:0.62341227 317:0.40510739 318:0.023874343 326:0.011881943 327:0.15302122 328:0.55958944 329:0.87847113 330:0.53449832 331:0.37780668 332:0.32740774 333:0.15612591 339:0.014677385 340:0.22698069 341:0.83702913 342:0.95072302 343:0.66425865 344:0.55568003 345:0.38446168 346:0.28927714 347:0.13469081 352:0.0055235863 353:0.30866138 354:0.77509848 355:0.71592018 356:0.64508719 357:0.72871924 358:0.67889133 359:0.56291976 360:0.21837979 364:0.00082479931 365:0.0054603364 366:0.62159611 367:0.85414347 368:0.60078239 369:0.41182813 370:0.39362467 371:0.42699011 372:0.21716548 378:0.30059146 379:0.73118919 380:0.7015199 381:0.39083261 382:0.43719046 383:0.44049902 384:0.27219363 391:0.29246271 392:0.48215771 393:0.46883254 394:0.5041967 395:0.49527446 396:0.38539991 400:0.11011243 401:0.36377975 402:0.26725756 403:0.069749263 404:0.19608312 405:0.42796822 406:0.55034826 407:0.74091676 408:0.59505596 412:0.11011243 413:0.36268636 414:0.37919088 415:0.1566606 416:0.19608312 417:0.42699409 418:0.42430902 419:0.37522971 420:0.21619195 425:0.21748986 426:0.30224252 427:0.085190376 428:0.09064147 429:0.29889058 430:0.28217121 431:0.074449344 434:0.26341376 435:0.25966951 446:0.46615108 447:0.68034913 448:0.21997681 449:0.1195502 458:0.3861934 459:0.55976788 460:0.70586664 461:0.39028272 470:0.012446794 471:0.11045832 472:0.64103079 473:0.89941964 474:0.36654003 475:0.0026904226 484:0.24023609 485:0.92840232 486:0.83400199 487:0.15999585 496:0.14233307 497:0.47396843 498:0.79910936 499:0.44673575 502:0.11781424 503:0.2635356 504:0.23221542 508:0.091485713 509:0.11703468 510:0.673081 511:0.82717531 512:0.28934478 514:0.11548136 515:0.26236241 516:0.23221542 520:0.069601732 521:0.069601732 522:0.28982032 523:0.88996361 524:0.85767142 525:0.11098522 526:0.0093192161 527:0.011198211 528:0.0020226667 532:0.032616386 533:0.032616386 534:0.038522922 535:0.45482713 536:0.56525848 537:0.11098522 538:0.0093192161 539:0.17971123 540:0.27913353 544:0.0080142351 545:0.31471187 546:0.50870169 547:0.36156555 549:0.3182487 550:0.49980331 551:0.44876857 552:0.45046661 556:0.0080142351 557:0.3114734 558:0.51611339 559:0.45817552 561:0.31577333 562:0.49370821 563:0.53180603 564:0.33755634 569:0.051845279 570:0.14906094 571:0.095444669 573:0.061764408 574:0.19069484 575:0.12637744 578:0.16763655 579:0.16763655 590:0.16763655 591:0.33611338 592:0.33444537 593:0.16514077 603:0.16596854 604:0.50209864 605:0.33360509 616:0.33360509 617:0.66727656 618:0.50292641 619:0.16763655 628:0.16847683 629:0.67055875 630:0.99754137 631:0.49545946 640:0.16514077 641:0.33695366 642:0.83821202 643:0.66811685 644:0.16596854 653:0.16514077 654:0.49791808 655:0.66806718 656:0.32865068 667:0.33695366 668:0.50209443 669:0.3336176 670:0.16514077 679:0.16514077 680:0.3336176 681:0.3336176 682:0.16514077 
0.02014638385912288 0.0910844810326987 0.1946208536339597 0.06337285760728249 0.2099518871070975 0.1312080522481317 0.08557131247688479 0.2472596363968482 0.008481505552193193 14:0.17831866 15:0.22186541 16:0.045249496 26:0.21977892 27:0.26764535 28:0.17888765 29:0.15136525 30:0.035699603 38:0.10179443 39:0.18779293 40:0.27231125 41:0.48142575 42:0.33504975 43:0.076673778 51:0.056608986 52:0.31460795 53:0.80922056 54:0.73103234 55:0.29095202 56:0.020849352 58:0.02192883 59:0.02192883 64:0.3891564 65:0.92480954 66:0.99358197 67:0.53019492 68:0.12138418 70:0.024957326 71:0.090998289 72:0.090063006 76:0.38143098 77:0.72905592 78:0.82079647 79:0.48318909 80:0.17389706 81:0.062093597 82:0.0029685274 83:0.090122974 84:0.089633107 88:0.32278885 89:0.48948868 90:0.41316934 91:0.29954444 92:0.16238262 93:0.15855561 94:0.034341393 95:0.052622678 96:0.052622678 100:0.33423602 101:0.37174251 102:0.28760828 103:0.31976619 104:0.14589106 105:0.11342487 106:0.034341393 107:0.14879259 108:0.22365655 112:0.25031266 113:0.30398407 114:0.33725862 115:0.3448463 116:0.19631325 117:0.1625416 119:0.094955482 120:0.22273817 124:0.081980198 125:0.14283746 126:0.20420875 127:0.14455654 128:0.16640668 129:0.16454779 132:0.034492632 137:0.0070435618 138:0.0069040899 140:0.019559801 141:0.019559801 158:0.17508895 159:0.39816169 160:0.47965857 161:0.25493061 170:0.47017247 171:0.79667191 172:0.94732339 173:0.92523452 174:0.30658214 182:0.29316868 183:0.69319434 184:0.8974407 185:0.90601148 186:0.78317833 187:0.2512777 188:0.13353414 189:0.071314626 195:0.31324959 196:0.67953943 197:0.71878088 198:0.84244918 199:0.76854169 200:0.32877115 201:0.2003246 202:0.30144227 203:0.2084589 208:0.41724156 209:0.86371788 210:0.88843754 211:0.86038498 212:0.63080347 213:0.3565884 214:0.35447251 215:0.36849251 216:0.18435369 220:0.10547136 221:0.5143369 222:0.78340905 223:0.73522821 224:0.76181151 225:0.45455247 226:0.14156554 227:0.26783744 228:0.18229224 232:0.00036695812 233:0.20363148 234:0.66739111 235:0.65745612 236:0.61151083 237:0.51694785 238:0.088980566 239:0.17199024 240:0.11340327 244:0.041606262 245:0.10164974 246:0.4640363 247:0.80079598 248:0.637762 249:0.43758649 250:0.21252039 251:0.17199024 252:0.20738022 256:0.24036292 257:0.26995124 258:0.19733843 259:0.39443463 260:0.61146333 261:0.42181929 262:0.12252233 263:0.086230884 264:0.20408009 268:0.19717326 269:0.26967369 270:0.23629289 271:0.054285314 272:0.30686194 273:0.33951341 274:0.035062886 281:0.12814006 282:0.12619284 284:0.081683 285:0.11641709 286:0.034368594 302:0.13035262 303:0.45580432 304:0.43044824 305:0.10854463 314:0.13547596 315:0.46532748 316:0.73952436 317:0.40913223 318:0.034007791 326:0.0077044901 327:0.10714057 328:0.53808448 329:0.86818919 330:0.55764373 331:0.39142378 332:0.33188968 333:0.15842111 339:0.015217614 340:0.22949702 341:0.82498781 342:0.90949255 343:0.60962963 344:0.55743771 345:0.40092076 346:0.36777675 347:0.18447531 352:0.0045267485 353:0.3372813 354:0.88133061 355:0.81653726 356:0.59143429 357:0.73323305 358:0.83474633 359:0.57218138 360:0.15108434 365:0.0044817066 366:0.26994186 367:0.34083196 368:0.22910443 369:0.36712594 370:0.46721769 371:0.43466959 372:0.14996621 380:0.11649455 381:0.33780719 382:0.45000224 383:0.44113227 384:0.21035145 392:0.11607355 393:0.33738618 394:0.45363308 395:0.5393865 396:0.32722738 400:0.084261617 401:0.34288927 402:0.2650398 403:0.061808832 404:0.19799577 405:0.42558196 406:0.56719723 407:0.80987527 408:0.57692875 412:0.084261617 413:0.34181473 414:0.35155867 415:0.1495673 416:0.19799577 417:0.42462077 418:0.42433007 419:0.41921931 420:0.25422688 425:0.19685256 426:0.28295914 427:0.086020731 428:0.095324052 429:0.30988515 430:0.2757843 431:0.061946848 446:0.43451474 447:0.78362242 448:0.48730535 449:0.26484542 458:0.42759888 459:0.77412354 460:0.83523652 461:0.4953326 470:0.083564396 471:0.17685202 472:0.5147423 473:0.73187042 474:0.3736898 475:0.0029164181 484:0.25369891 485:0.87125461 486:0.84611866 487:0.13117654 496:0.17965772 497:0.57184462 498:0.89071607 499:0.44673956 502:0.23671859 503:0.43666066 504:0.39439973 508:0.12340949 509:0.15230415 510:0.44022834 511:0.32678687 514:0.23203124 515:0.43502883 516:0.39439973 520:0.070079225 521:0.097926831 522:0.027296187 526:0.010527133 527:0.013337614 528:0.002959153 532:0.035904897 533:0.035904897 534:0.051829061 535:0.050802777 538:0.010527133 539:0.47021888 540:0.51458694 544:0.0048511302 545:0.35262731 546:0.59623866 547:0.43069554 549:0.3751646 550:0.58821416 551:0.77631498 552:0.71791107 557:0.3488292 558:0.59539791 559:0.53939723 561:0.37242686 562:0.58122091 563:0.72812 564:0.53004616 569:0.048996133 570:0.15872412 571:0.10755522 573:0.092090796 574:0.23362114 575:0.13872786 590:0.1680574 591:0.1680574 592:0.33194884 593:0.16721921 602:0.16472964 603:0.1680574 604:0.50167434 605:0.49505169 616:0.33277455 617:0.66561533 618:0.50083195 619:0.16472964 628:0.1680574 629:0.66888935 630:0.83118316 631:0.49751667 632:0.16472964 640:0.16472964 641:0.33611479 642:0.99834862 643:0.83034077 644:0.1680574 653:0.16472964 654:0.49667848 655:0.49667848 656:0.16472964 668:0.1680574 669:0.1680574 670:0.16472964 680:0.16472964 681:0.1680574 682:0.16472964 
0.007858838693922633 0.06264815350067664 0.02308931965963461 0.05291693290804265 0.1577486178326847 0.08410928448720539 0.07513651160663343 0.1611927441365721 0.006479730621415538 14:0.23244376 15:0.26911447 16:0.041853557 26:0.26741064 27:0.31110205 28:0.20455765 29:0.13449186 30:0.034817234 38:0.091409558 39:0.21213714 40:0.26115067 41:0.48717706 42:0.34786672 43:0.072951289 51:0.054344746 52:0.30492461 53:0.80370322 54:0.71375143 55:0.28517868 56:0.020388734 58:0.0042450356 59:0.011906241 60:0.0075095035 64:0.35849734 65:0.8623335 66:0.96075284 67:0.49698167 68:0.10993284 70:0.0042450356 71:0.064912719 72:0.064343057 76:0.35133803 77:0.67437619 78:0.85195321 79:0.59320287 80:0.20922926 81:0.053410814 83:0.064191355 84:0.064108134 88:0.2997287 89:0.49369802 90:0.47783836 91:0.42833187 92:0.16993036 93:0.11384777 94:0.031876666 96:0.017542083 100:0.31103113 101:0.38482712 102:0.30168122 103:0.3113578 104:0.11510351 105:0.088092753 106:0.043586127 107:0.073950872 108:0.16476718 112:0.28281023 113:0.33251256 114:0.34523743 115:0.32189629 116:0.19824267 117:0.1606237 118:0.011477598 119:0.073163308 120:0.16403422 124:0.1263292 125:0.17603152 126:0.18091134 127:0.13219319 128:0.17099578 129:0.16931613 132:0.033837476 140:0.036285525 141:0.036285525 146:0.019563993 147:0.019563993 158:0.23485336 159:0.44263643 160:0.4634598 161:0.25372989 170:0.49251139 171:0.79496323 172:0.89591875 173:0.87481759 174:0.2851021 182:0.27537902 183:0.68982129 184:0.87493566 185:0.83462531 186:0.71870264 187:0.25686562 188:0.12427168 189:0.066595657 195:0.28730705 196:0.62345579 197:0.6543043 198:0.80509896 199:0.7361602 200:0.30557607 201:0.18478173 202:0.27683602 203:0.28752684 204:0.093989077 208:0.3852105 209:0.8104832 210:1 211:0.96491101 212:0.57362341 213:0.31955661 214:0.33038183 215:0.45885164 216:0.28383715 220:0.097611457 221:0.51327902 222:0.87310551 223:0.96418608 224:0.83483268 225:0.41726924 226:0.13379662 227:0.36322269 228:0.28001976 232:0.00020713941 233:0.28345166 234:0.82812091 235:0.91829283 236:0.63934868 237:0.42386678 238:0.084354317 239:0.12621635 240:0.16723314 244:0.037725377 245:0.14810027 246:0.48616332 247:0.83693911 248:0.52832476 249:0.34891375 250:0.20613672 251:0.12621635 252:0.27699547 256:0.27708613 257:0.29061761 258:0.24642782 259:0.41969762 260:0.548421 261:0.37560173 262:0.11937095 263:0.062768878 264:0.27306242 268:0.23683797 269:0.29112312 270:0.22286389 271:0.053914033 272:0.26092245 273:0.28341895 274:0.02477299 281:0.11452311 282:0.11254685 284:0.071846452 285:0.096503226 286:0.024282452 290:0.11560711 291:0.11560711 302:0.20151055 303:0.50629235 304:0.39010603 305:0.10030994 314:0.091581197 315:0.40079471 316:0.74227059 317:0.43618579 318:0.03478329 326:0.0073787598 327:0.10482039 328:0.57615098 329:0.90647453 330:0.64562675 331:0.47835959 332:0.32940817 333:0.15706718 339:0.014574244 340:0.22300382 341:0.82826921 342:0.97288388 343:0.69223929 344:0.55435414 345:0.39747231 346:0.3659949 347:0.18546874 352:0.0036694767 353:0.32705285 354:0.77985743 355:0.71038971 356:0.57420218 357:0.72803751 358:0.81815673 359:0.61088939 360:0.20400928 365:0.0036329648 366:0.5025253 367:0.73031665 368:0.44335555 369:0.35838595 370:0.45240829 371:0.47316145 372:0.20284771 378:0.1673232 379:0.38434018 380:0.21271975 381:0.30967706 382:0.43864635 383:0.43692948 384:0.24305403 392:0.094428962 393:0.30967706 394:0.43864635 395:0.5443143 396:0.35577488 400:0.098649941 401:0.34516932 402:0.27511507 403:0.077126841 404:0.20326556 405:0.37928214 406:0.51133416 407:0.75504396 408:0.61588241 412:0.098648167 413:0.34422364 414:0.37551544 415:0.16841132 416:0.20326556 417:0.37928214 418:0.38146462 419:0.37799792 420:0.26501563 425:0.20211655 426:0.29146881 427:0.089476922 428:0.092401399 429:0.30768915 430:0.28081028 431:0.066319606 434:0.06268215 435:0.06268215 446:0.50449811 447:0.86525679 448:0.55012077 449:0.27812141 458:0.43342546 459:0.79147927 460:0.89382429 461:0.52022097 470:0.017723528 471:0.11608589 472:0.51850047 473:0.77054869 474:0.35934649 475:0.0031088103 484:0.23166302 485:0.85197073 486:0.79646935 487:0.14972335 496:0.19389437 497:0.55442097 498:0.9045473 499:0.51438317 502:0.15918169 503:0.29198386 504:0.25492919 508:0.13502375 509:0.16607114 510:0.60491483 511:0.83908718 512:0.34458579 514:0.15602969 515:0.2909899 516:0.25492919 520:0.082524033 521:0.11045209 522:0.17186217 523:0.46159558 524:0.34116564 526:0.011758021 527:0.013358928 528:0.0017974211 532:0.037837049 533:0.037837049 534:0.056321265 535:0.055206029 538:0.011758021 539:0.44935902 540:0.54340746 544:0.004336754 545:0.33219286 546:0.6007782 547:0.42450514 549:0.23816939 550:0.46719893 551:0.7762515 552:0.75226864 557:0.32901789 558:0.59969998 559:0.54980747 561:0.23816939 562:0.46262893 563:0.60779042 564:0.51487038 569:0.043289246 570:0.16970681 571:0.12391433 573:0.087260028 574:0.23492259 575:0.14473865 590:0.16847683 591:0.16847683 592:0.33277732 593:0.16763655 602:0.16514077 603:0.16847683 604:0.50292641 605:0.49628723 616:0.33360509 617:0.66727656 618:0.50292641 619:0.16763655 628:0.16847683 629:0.67055875 630:0.83241733 631:0.49629974 632:0.16514077 640:0.16514077 641:0.33695366 642:0.83569952 643:0.66727235 644:0.16847683 653:0.16514077 654:0.49791808 655:0.66723941 656:0.3311093 667:0.16596854 668:0.16847683 669:0.16847683 670:0.16514077 680:0.16514077 681:0.16847683 682:0.16514077 
0.01187302392535729 0.006169616793116718 0.1703749080750179 0 0.0007210023832076825 0 0.03314943236185568 0 0 14:0.24541625 15:0.24223714 16:0.045554125 26:0.27639464 27:0.28140878 28:0.17187786 29:0.14927112 30:0.040732225 38:0.10358532 39:0.17921739 40:0.24140659 41:0.48985499 42:0.38270999 43:0.078042266 51:0.080204784 52:0.30514295 53:0.83169021 54:0.7848337 55:0.31357755 56:0.023700676 58:0.0045874119 59:0.030060362 60:0.024968552 63:0.018572071 64:0.40867727 65:0.89516074 66:1 67:0.54808215 68:0.11421375 70:0.0045874119 71:0.10499709 72:0.10420581 76:0.38638195 77:0.69148733 78:0.81229919 79:0.62078589 80:0.2442464 81:0.057915821 83:0.10370142 84:0.10361148 88:0.33315807 89:0.5476841 90:0.44911522 91:0.59945882 92:0.36017787 93:0.12476417 94:0.035217417 96:0.035373078 100:0.34494222 101:0.42930194 102:0.33227648 103:0.49759482 104:0.24467159 105:0.088184577 106:0.035217417 107:0.037976969 108:0.16051814 112:0.31273216 113:0.3484579 114:0.36707308 115:0.36122826 116:0.21484428 117:0.16240194 119:0.037976969 120:0.15933204 124:0.13957935 125:0.17787169 126:0.19013818 127:0.15260408 128:0.17972098 129:0.17795451 132:0.037599092 137:0.0025157754 138:0.0024659597 140:0.037100102 141:0.037100102 146:0.021676559 147:0.05448942 148:0.032163123 158:0.25245601 159:0.47743406 160:0.48239905 161:0.25594786 170:0.5089458 171:0.79499353 172:0.86271881 173:0.8471032 174:0.28595866 182:0.27599841 183:0.70210685 184:0.86305414 185:0.84251998 186:0.71885296 187:0.24846311 188:0.11971368 189:0.064091475 195:0.32226373 196:0.70177005 197:0.72408981 198:0.83363119 199:0.71233899 200:0.29554418 201:0.17858084 202:0.22153165 203:0.23677099 204:0.094743313 207:0.077776002 208:0.45182261 209:0.76799285 210:0.94574095 211:0.92911359 212:0.55254206 213:0.30923942 214:0.27327492 215:0.38255229 216:0.26117823 220:0.094541547 221:0.4947096 222:0.90478933 223:0.89988516 224:0.79302887 225:0.40418203 226:0.082738461 227:0.29098086 228:0.25737885 232:0.00020734277 233:0.27420919 234:0.87609095 235:1 236:0.73363921 237:0.39033109 238:0.080059297 239:0.1284308 240:0.15221833 244:0.036902547 245:0.14210699 246:0.47504939 247:0.94135005 248:0.6358275 249:0.28197612 250:0.14329105 251:0.1284308 252:0.25766739 256:0.28573876 257:0.30564283 258:0.23844706 259:0.41017903 260:0.53437151 261:0.33157319 262:0.079870841 263:0.068196303 264:0.25371664 268:0.24601223 269:0.30635951 270:0.21841252 271:0.055661832 272:0.27188221 273:0.30012932 274:0.030492619 281:0.11553365 282:0.11366877 284:0.085538944 285:0.11573552 286:0.029888825 290:0.16061488 291:0.25119258 292:0.089713932 302:0.19456246 303:0.5116661 304:0.39765186 305:0.1013112 314:0.061727289 315:0.45126434 316:0.65758579 317:0.42538292 318:0.024284139 326:0.0072708488 327:0.12232669 328:0.58232096 329:0.91588505 330:0.63575953 331:0.46791905 332:0.33426201 333:0.15973767 339:0.013971137 340:0.23306595 341:0.82662667 342:0.97018655 343:0.68330647 344:0.56123495 345:0.40285175 346:0.37067465 347:0.13684589 352:0.0039463885 353:0.32817788 354:0.76776519 355:0.69769333 356:0.57851523 357:0.73711165 358:0.76594196 359:0.57520064 360:0.22538604 365:0.0039071212 366:0.64282358 367:0.77428761 368:0.44875433 369:0.36238182 370:0.40011325 371:0.43707511 372:0.22413174 378:0.30783179 379:0.63877284 380:0.41326494 381:0.37164949 382:0.44572285 383:0.45229157 384:0.25200452 391:0.19494324 392:0.1932319 393:0.3704693 394:0.48653051 395:0.50789871 396:0.36950785 400:0.091069579 401:0.34582053 402:0.26305476 403:0.06380139 404:0.20057959 405:0.38073156 406:0.51526133 407:0.71449059 408:0.58322166 412:0.091069579 413:0.34474221 414:0.3562216 415:0.15090735 416:0.20057959 417:0.38073156 418:0.37852902 419:0.32639331 420:0.21991839 425:0.20025234 426:0.28557294 427:0.085381142 428:0.097475482 429:0.31275973 430:0.27729762 431:0.062728838 434:0.26384213 435:0.26072239 446:0.44710669 447:0.65253194 448:0.22185026 449:0.11430847 458:0.33612121 459:0.53691004 460:0.55010959 461:0.33736973 470:0.024429408 471:0.11809349 472:0.47834111 473:0.73527714 474:0.3201207 475:0.0025742058 484:0.21697999 485:0.82614853 486:0.78084649 487:0.17469329 496:0.16645066 497:0.51172449 498:0.88868211 499:0.5285387 502:0.10860845 503:0.28825468 504:0.25876586 508:0.11786746 509:0.14250182 510:0.66749936 511:0.8903245 512:0.35260359 514:0.10645786 515:0.28672395 516:0.25876586 520:0.066766326 521:0.066766326 522:0.30533063 523:0.7609286 524:0.63887014 526:0.011877257 527:0.015117734 528:0.0033576016 532:0.028314929 533:0.028314929 534:0.037046519 535:0.2864095 536:0.28402853 538:0.011877257 539:0.17568511 540:0.26563485 544:0.0020903523 545:0.30519286 546:0.5064364 547:0.36149032 549:0.20417929 550:0.3849566 551:0.43579329 552:0.43275305 557:0.30194034 558:0.50591204 559:0.45608485 561:0.20417929 562:0.38134535 563:0.39767716 564:0.32302432 569:0.043764801 570:0.13909291 571:0.093440486 573:0.079049788 574:0.20135321 575:0.11988165 590:0.16847683 591:0.33695366 592:0.3336176 593:0.16514077 602:0.16514077 603:0.33028153 604:0.50209864 605:0.33360509 616:0.33360509 617:0.66727656 618:0.50292641 619:0.16763655 628:0.16847683 629:0.67055875 630:0.83241733 631:0.49629974 632:0.16514077 640:0.16514077 641:0.33695366 642:0.83569952 643:0.66727235 644:0.16847683 653:0.16514077 654:0.49791808 655:0.66723941 656:0.3311093 667:0.33444537 668:0.3336176 669:0.16847683 670:0.16514077 679:0.16514077 680:0.16514077 681:0.16847683 682:0.16514077 
0.05300454476552521 0.3414517805586619 0.6284528529908775 0.2477176073508277 0.8072531672961735 0.4334852949106435 0.354640577904938 0.8645148917338551 0.03136123185533606 2:0.085762555 3:0.084064343 14:0.25162914 15:0.24664655 16:0.010418967 17:0.010418967 26:0.24873135 27:0.26106361 28:0.039669853 29:0.12434988 30:0.11245329 38:0.044411238 39:0.15275319 40:0.16269022 41:0.19285143 42:0.20751775 43:0.094599351 51:0.10937743 52:0.3699844 53:0.55224864 54:0.41472134 55:0.19334143 56:0.068944215 58:0.11807294 59:0.11791456 64:0.49656134 65:0.97228552 66:0.55971392 67:0.28109995 68:0.22278009 70:0.11791456 71:0.11909962 72:0.10897899 76:0.50042364 77:1 78:0.53374333 79:0.26789629 80:0.29297701 81:0.078412426 83:0.10897899 84:0.10682106 88:0.49400122 89:0.9428838 90:0.51957177 91:0.26078396 92:0.22693628 93:0.18847207 95:0.10214254 96:0.10214254 100:0.49842396 101:0.87742887 102:0.49109302 103:0.52060002 104:0.22200042 105:0.10962146 107:0.16919582 108:0.16955518 112:0.36302476 113:0.47748329 114:0.36565734 115:0.43473005 116:0.2490491 117:0.14969542 119:0.066386084 120:0.16751229 124:0.1126353 125:0.13387455 126:0.12231863 127:0.09949011 128:0.15110581 129:0.14811371 146:0.041314432 147:0.22407102 148:0.18113732 158:0.2604451 159:0.55569145 160:0.56117583 161:0.33913337 170:0.35588469 171:0.60454317 172:0.59751688 173:0.60499169 174:0.32602002 182:0.13582041 183:0.60236099 184:0.58031559 185:0.54294535 186:0.635131 187:0.31148977 188:0.19604099 189:0.23629631 190:0.13118653 195:0.32387359 196:0.86090966 197:0.72299362 198:0.75564409 199:0.93820579 200:0.52696745 201:0.43520114 202:0.52009999 203:0.27025367 208:0.5302353 209:0.89666221 210:0.79642273 211:1 212:0.70669945 213:0.36063833 214:0.49207525 215:0.44002116 216:0.13061634 220:0.11304886 221:0.76463658 222:0.77372048 223:0.66397346 224:0.78678689 225:0.41383104 226:0.10025663 227:0.16795679 228:0.12802996 232:0.0019056017 233:0.45058985 234:0.95605602 235:0.88729505 236:0.64477496 237:0.43977289 238:0.11323774 239:0.3673997 240:0.27962479 244:0.1573879 245:0.2948456 246:0.53939034 247:0.95472297 248:0.64794644 249:0.21531101 250:0.11323774 251:0.36290701 252:0.3065425 256:0.40282862 257:0.40971531 258:0.19440013 259:0.41845502 260:0.58745625 261:0.25659131 262:0.02282734 264:0.13911334 268:0.24327376 269:0.35773889 270:0.12723989 271:0.11462495 272:0.2356184 273:0.25498761 274:0.02282734 290:0.20844758 291:0.3650344 292:0.15611927 302:0.20844758 303:0.40469626 304:0.35423322 305:0.1215324 314:0.074051066 315:0.30749951 316:0.35306821 317:0.13652625 318:0.015829238 326:0.0045823932 327:0.0046749637 328:0.0045823932 329:0.13824207 330:0.37845127 331:0.47384177 332:0.3815911 333:0.34115353 334:0.15789891 340:0.0021044349 341:0.13758824 342:0.46685639 343:0.76756251 344:0.83406486 345:0.87254789 346:0.74218855 347:0.2660571 352:0.0020627643 353:0.002093939 354:0.093944102 355:0.33477336 356:0.5273966 357:0.69364786 358:0.99675939 359:0.66839651 360:0.078847296 367:0.056735611 368:0.25273063 369:0.42090765 370:0.59470278 371:0.44392241 372:0.077286015 380:0.23389708 381:0.50570132 382:0.54908413 383:0.52713289 384:0.25154561 389:0.02288217 390:0.02288217 392:0.22926561 393:0.59854505 394:0.83176112 395:0.65413431 396:0.26978039 400:0.13824503 401:0.35513018 402:0.35146411 403:0.10277423 404:0.35423373 405:0.51769494 406:0.50950453 407:0.44643366 408:0.15984711 412:0.1355076 413:0.32566906 414:0.35100646 415:0.10073916 416:0.34721944 417:0.44273031 418:0.50523442 419:0.42137907 420:0.13881296 434:0.32879524 435:0.32461548 446:0.41228268 447:0.41263497 448:0.11653889 458:0.28956207 459:0.40610096 460:0.11423127 473:0.0038581682 474:0.0038581682 475:0.0037817714 484:0.10256283 485:0.10431372 486:0.0038581682 487:0.0037817714 490:0.32761294 491:0.3254328 496:0.16195288 497:0.158746 501:0.042930329 502:0.37054327 503:0.37187923 504:0.21534795 508:0.12792942 509:0.12792942 513:0.042080252 514:0.1508509 515:0.36534877 516:0.21108378 520:0.068991049 521:0.068991049 525:0.014933684 526:0.022836477 527:0.12873079 528:0.12090891 532:0.024182589 533:0.26810132 534:0.26136034 535:0.047250452 537:0.1367833 538:0.39557273 539:0.84100721 540:0.57532304 544:0.044714913 545:0.63453959 546:0.63560473 547:0.46826678 548:0.087931955 549:0.56382291 550:0.72327118 551:1 552:0.71916895 556:0.043829499 557:0.36672543 558:0.58313658 559:0.41683756 560:0.086190785 561:0.43293179 562:0.66821245 563:0.75018414 564:0.35430285 617:0.3361106 618:0.3361106 619:0.32945516 628:0.33779536 629:0.99835709 630:0.99667232 631:0.66556576 632:0.32945516 640:0.33443424 641:0.66886848 642:0.65400538 643:0.3361106 644:0.32945516 668:0.33779536 669:0.33443424 680:0.33443424 681:0.33443424 
0.01751581773137726 0.1239134686419342 0.2335227071427458 0.09546166912656116 0.2994440661972265 0.1672496173751113 0.1343673344312422 0.3227695368185558 0.01144531776592812 14:0.29905626 15:0.42809012 16:0.13224985 26:0.32543987 27:0.47084168 28:0.22800804 29:0.073767773 30:0.07043018 38:0.11346839 39:0.24983126 40:0.17027794 41:0.15443859 42:0.17475907 43:0.087550216 51:0.095152911 52:0.35896003 53:0.43172507 54:0.29209721 55:0.17390117 56:0.04043037 58:0.095707389 59:0.09549956 64:0.4582393 65:0.82521846 66:0.5012174 67:0.23504421 68:0.1631469 70:0.13956398 71:0.14042037 72:0.12735194 76:0.46016181 77:0.97278408 78:0.67614871 79:0.31888285 80:0.28106468 81:0.10545012 82:0.042988173 83:0.13850828 84:0.12568143 88:0.48397068 89:0.88734913 90:0.60178967 91:0.3588755 92:0.25080678 93:0.208894 95:0.1031133 96:0.1031133 100:0.50505122 101:0.68570064 102:0.59033511 103:0.57797019 104:0.23991231 105:0.15203311 107:0.22951838 108:0.22997578 112:0.34003553 113:0.40229043 114:0.53884217 115:0.54843449 116:0.26819031 117:0.19165332 119:0.12390209 120:0.22791348 124:0.094043405 125:0.15552771 126:0.2236799 127:0.1625453 128:0.14386655 129:0.1410178 146:0.11202576 147:0.15748624 148:0.044560293 158:0.31820668 159:0.56448448 160:0.57347938 161:0.32465677 170:0.44465791 171:0.76262527 172:0.79215697 173:0.77659799 174:0.35647024 182:0.23831726 183:0.65764077 184:0.73314356 185:0.67167144 186:0.68413184 187:0.27866517 188:0.19449547 189:0.086491463 195:0.34150888 196:0.75418278 197:0.55251956 198:0.60887259 199:0.77332833 200:0.42366057 201:0.26925366 202:0.43202128 203:0.31719874 208:0.42783025 209:0.66841306 210:0.64245625 211:0.81491165 212:0.63423349 213:0.38039733 214:0.47266996 215:0.39807974 216:0.11113659 220:0.11941974 221:0.49613943 222:0.71345263 223:0.70045949 224:0.79679078 225:0.48743385 226:0.2228579 227:0.24584864 228:0.10893594 232:0.0025148999 233:0.32700199 234:0.93023911 235:0.888346 236:0.69966573 237:0.53076155 238:0.10351448 239:0.36261013 240:0.29935641 244:0.21600165 245:0.33368232 246:0.51334605 247:0.9060882 248:0.70403351 249:0.3261631 250:0.10351448 251:0.36011144 252:0.32316557 256:0.31867819 257:0.32664905 258:0.3170595 259:0.42609695 260:0.65097732 261:0.35167295 262:0.020251576 263:0.11616005 264:0.23290236 268:0.10366755 269:0.29199077 270:0.20461013 271:0.11408115 272:0.24957488 273:0.26649144 274:0.020251576 290:0.13709457 291:0.24797718 292:0.10868699 302:0.19340162 303:0.69117443 304:0.59323656 305:0.13140307 314:0.065854463 315:0.53384681 316:0.76368325 317:0.25881099 318:0.024227501 326:0.010604301 327:0.15527688 328:0.25729981 329:0.14577209 330:0.39587626 331:0.56633088 332:0.50341867 333:0.19007584 339:0.015268194 340:0.015116651 341:0.14339725 342:0.49003671 343:0.85670694 344:0.90546409 345:0.57071336 346:0.34298909 347:0.15701074 352:0.00385694 353:0.0038957029 354:0.099979607 355:0.30204435 356:0.6955777 357:0.92543914 358:0.98111641 359:0.52912158 360:0.072622373 365:0.0038185628 366:0.0037429502 367:0.094027103 368:0.29506483 369:0.54056705 370:0.63718476 371:0.37139168 372:0.072622373 380:0.225028 381:0.50050754 382:0.55879298 383:0.5517836 384:0.269488 389:0.0055919521 390:0.0055919521 392:0.22057214 393:0.59888024 394:0.85963525 395:0.75673726 396:0.35495925 400:0.13950789 401:0.37371304 402:0.36961171 403:0.092191778 404:0.32789362 405:0.5488585 406:0.54128364 407:0.53936824 408:0.23682602 412:0.13674545 413:0.3608318 414:0.36949987 415:0.092082152 416:0.3214009 417:0.43185111 418:0.53680379 419:0.4532008 420:0.14975944 434:0.14800478 435:0.14800478 446:0.62321366 447:1 448:0.67874922 449:0.30533573 458:0.46614327 459:0.83995863 460:0.9041851 461:0.42814118 470:0.01703637 471:0.11804695 472:0.22381603 473:0.12037374 474:0.0069043469 475:0.0068017246 484:0.099080665 485:0.10245602 486:0.058015104 487:0.0068017246 490:0.15127132 491:0.15127132 496:0.16260587 497:0.16132752 498:0.097580779 501:0.033665637 502:0.45162256 503:0.45133539 504:0.29878533 508:0.10307155 509:0.13091416 510:0.045516099 513:0.032999013 514:0.29440389 515:0.44830992 516:0.29581977 520:0.07224188 521:0.07224188 525:0.013429176 526:0.026222242 527:0.11850076 528:0.10586589 532:0.027211458 533:0.23248327 534:0.38049212 535:0.1534659 537:0.11108042 538:0.34159312 539:0.8863408 540:0.64938232 544:0.00072234893 545:0.54031216 546:0.69816309 547:0.59879934 548:0.065575034 549:0.48516886 550:0.63437039 551:0.89733348 552:0.77851884 557:0.31012129 558:0.68503966 559:0.58576459 560:0.064276561 561:0.3795836 562:0.57230311 563:0.67535404 564:0.32978393 578:0.33387455 579:0.33387455 590:0.33387455 591:0.33723004 592:0.66442698 593:0.33387455 603:0.33055244 604:0.65788161 605:0.33387455 617:0.3355481 618:0.3355481 619:0.3289038 628:0.3355481 629:1 630:0.9933557 631:0.6644519 632:0.3289038 640:0.3289038 641:0.6710962 642:0.6644519 643:0.3355481 644:0.3289038 653:0.3289038 654:0.3289038 668:0.33723004 669:0.33387455 680:0.33387455 681:0.33387455 
0.01052701658111405 0.07420217573016977 0.1228334276711818 0.05612285754018289 0.1760570280407272 0.108965995147953 0.07611772650446655 0.202292228967253 0.007560891064190029 14:0.26628385 15:0.39669103 16:0.13178271 26:0.32229665 27:0.46792383 28:0.32482782 29:0.16802381 30:0.067328658 38:0.14217219 39:0.27426737 40:0.26587378 41:0.24377449 42:0.16731944 43:0.08216427 51:0.088473468 52:0.3456443 53:0.4199174 54:0.2765376 55:0.17047198 56:0.038590247 58:0.11790212 59:0.11790212 64:0.55193181 65:0.91938541 66:0.60509434 67:0.21835811 68:0.15436856 70:0.23639522 71:0.23758016 72:0.23287576 76:0.5572225 77:0.97968562 78:0.66706337 79:0.28986197 80:0.25646928 81:0.096160176 82:0.11614678 83:0.23522208 84:0.23056437 88:0.47815007 89:0.71459877 90:0.4149372 91:0.35000843 92:0.24000868 93:0.19602091 95:0.11196629 96:0.11196629 100:0.53442407 101:0.59316713 102:0.46607159 103:0.56131599 104:0.22087778 105:0.14622212 107:0.2494171 108:0.25000434 112:0.34381827 113:0.43652138 114:0.47071148 115:0.46581253 116:0.25834933 117:0.19497878 119:0.1347291 120:0.24776498 124:0.099213026 125:0.19060393 126:0.23084531 127:0.14085381 128:0.14956909 129:0.14660742 158:0.19146267 159:0.43496433 160:0.56020864 161:0.31423503 170:0.53164916 171:0.89137479 172:0.89996796 173:0.87675919 174:0.35991087 182:0.33777091 183:0.77007908 184:0.88649059 185:0.78197126 186:0.69196511 187:0.26341522 188:0.15926042 189:0.084321396 195:0.3468076 196:0.75835415 197:0.52134777 198:0.6391048 199:0.7845354 200:0.4136142 201:0.27993349 202:0.41367231 203:0.29805548 208:0.35483888 209:0.66121798 210:0.64820873 211:0.82809225 212:0.71615924 213:0.43225379 214:0.4602172 215:0.38355194 216:0.12376437 220:0.11079231 221:0.5798913 222:0.6426989 223:0.6017284 224:0.85322331 225:0.50533776 226:0.18627211 227:0.25113684 228:0.1214111 232:0.0010070658 233:0.24543455 234:0.75661127 235:0.78228477 236:0.72171825 237:0.56045789 238:0.10851641 239:0.26916754 240:0.20499205 244:0.17844673 245:0.24560501 246:0.4740756 247:0.87399354 248:0.73696646 249:0.35425076 250:0.10851641 251:0.26756876 252:0.22922 256:0.28273958 257:0.28609106 258:0.26595465 259:0.39315425 260:0.67069637 261:0.36372584 262:0.020258154 263:0.085764613 264:0.18568972 268:0.10365154 269:0.25974044 270:0.19953167 271:0.10681507 272:0.25284045 273:0.26986664 274:0.020258154 302:0.13039113 303:0.50004441 304:0.47508516 305:0.12601907 314:0.1340059 315:0.50807281 316:0.71770252 317:0.3904638 318:0.02946026 326:0.0061898297 327:0.12098725 328:0.35463705 329:0.27478672 330:0.48919725 331:0.55290053 332:0.38942174 333:0.18503736 339:0.013791504 340:0.013676814 341:0.13961175 342:0.59094246 343:0.85035351 344:0.76996436 345:0.53878447 346:0.42207716 347:0.15149085 352:0.0043181809 353:0.0043615794 354:0.10917702 355:0.41241059 356:0.88992538 357:0.98361456 358:0.96344268 359:0.57962819 360:0.11139339 365:0.0042752143 366:0.0041905594 367:0.18884225 368:0.47942841 369:0.51872314 370:0.54201926 371:0.42663783 372:0.11105476 380:0.21319828 381:0.47823984 382:0.54066712 383:0.5637589 384:0.28527103 392:0.20897667 393:0.46877006 394:0.73414821 395:0.83400729 396:0.4365388 400:0.13874338 401:0.37075062 402:0.36661587 403:0.09073543 404:0.32168061 405:0.47381226 406:0.46736437 407:0.49882563 408:0.32127154 412:0.13599608 413:0.36340926 414:0.36661587 415:0.09073543 416:0.31531091 417:0.46443015 418:0.46507227 419:0.3658718 420:0.14991137 446:0.55045953 447:0.97648433 448:0.59210995 449:0.31897635 458:0.54095114 459:0.9638726 460:1 461:0.63926227 470:0.068878546 471:0.18627623 472:0.43768361 473:0.31732718 474:0.0072010054 475:0.0070939738 484:0.10788927 485:0.11140965 486:0.061428001 487:0.0070939738 496:0.21283183 497:0.21156397 498:0.14744825 501:0.033666161 502:0.29264299 503:0.29120398 504:0.17776122 508:0.14673026 509:0.17954427 510:0.092155522 513:0.032999526 514:0.28684827 515:0.29120398 516:0.17776122 520:0.078156399 521:0.078156399 525:0.012992092 526:0.028351101 527:0.094797751 528:0.079697293 532:0.028324838 533:0.028324838 534:0.20522432 535:0.2011606 537:0.012734832 538:0.2487399 539:0.90877318 540:0.66577766 544:0.00062542516 545:0.29324178 546:0.49762985 547:0.41027966 548:0.047589273 549:0.39070853 550:0.56066384 551:0.84368779 552:0.80126064 557:0.2874352 558:0.49356613 559:0.40621594 560:0.046646942 561:0.38297199 562:0.47639718 563:0.60851043 564:0.34986133 590:0.3355481 591:0.3355481 592:0.66277835 593:0.33387455 602:0.3289038 603:0.3355481 604:0.99665289 605:0.66774909 616:0.33387455 617:0.65955516 618:0.3355481 619:0.3289038 628:0.3355481 629:1 630:0.99168215 631:0.33387455 640:0.3289038 641:0.6710962 642:0.6644519 643:0.33723004 644:0.33055244 653:0.3289038 654:0.3289038 655:0.33055244 656:0.32400706 668:0.33723004 669:0.33387455 680:0.33387455 681:0.33387455 
0.01475202670726209 0.1019887668468699 0.229153049983525 0.07534862844713222 0.2741212344421178 0.1438644724281797 0.1090922573778775 0.3070457890095297 0.008672962315561888 14:0.23902336 15:0.35929168 16:0.12149277 26:0.29672068 27:0.42399477 28:0.32655119 29:0.24811256 30:0.052939769 38:0.13814978 39:0.25655638 40:0.30827189 41:0.30941367 42:0.18016339 43:0.10758359 51:0.0746938 52:0.31343271 53:0.38154825 54:0.33351694 55:0.18681626 56:0.032360359 58:0.072343362 59:0.072343362 64:0.51581906 65:0.92147617 66:0.56539591 67:0.20064085 68:0.13873137 70:0.14504935 71:0.14577641 72:0.14288984 76:0.52128426 77:0.98378191 78:0.78839747 79:0.33061648 80:0.23146598 81:0.082976962 82:0.07126631 83:0.14432952 84:0.1414716 88:0.44331424 89:0.66460439 90:0.60310359 91:0.43569287 92:0.21852769 93:0.2200335 94:0.047043303 95:0.10224443 96:0.10224443 100:0.51811174 101:0.56815808 102:0.47269702 103:0.56238681 104:0.24793625 105:0.18060334 106:0.047043303 107:0.20588087 108:0.20547306 112:0.33616657 113:0.45057564 114:0.50268469 115:0.47137251 116:0.25700149 117:0.20220508 119:0.10199211 120:0.20486352 124:0.099836227 125:0.2207896 126:0.28321209 127:0.16449206 128:0.15951989 129:0.15673424 131:0.020187364 132:0.020187364 158:0.20837283 159:0.41627151 160:0.48914273 161:0.27867174 170:0.53143084 171:0.85094223 172:0.94830746 173:0.96003169 174:0.33802227 182:0.3212864 183:0.74293556 184:0.88908484 185:0.88387037 186:0.79499155 187:0.27467359 188:0.15025185 189:0.079580403 195:0.34087676 196:0.81434144 197:0.65402222 198:0.66580845 199:0.78763456 200:0.35446584 201:0.22719634 202:0.36773351 203:0.25987464 208:0.33719253 209:0.63666755 210:0.64251171 211:0.81233237 212:0.65994306 213:0.37240081 214:0.45267621 215:0.38139214 216:0.15915331 220:0.10783213 221:0.56097324 222:0.62401484 223:0.58578318 224:0.80556364 225:0.46286286 226:0.16592448 227:0.26979765 228:0.15686047 232:0.00086169488 233:0.23345876 234:0.73070408 235:0.75196077 236:0.67029971 237:0.55014075 238:0.13849561 239:0.27866359 240:0.18022436 244:0.12726363 245:0.19268533 246:0.46568813 247:0.84539528 248:0.68010888 249:0.34338595 250:0.17500349 251:0.27795145 252:0.20779605 256:0.23285443 257:0.27011755 258:0.27746593 259:0.38513538 260:0.68287346 261:0.3821626 262:0.05446262 263:0.12827149 264:0.20368141 268:0.10461504 269:0.25323667 270:0.21289548 271:0.098284321 272:0.27210152 273:0.30630482 274:0.036870861 285:0.018193216 286:0.017832966 302:0.13729362 303:0.51199505 304:0.49934118 305:0.12688223 314:0.14156257 315:0.52151437 316:0.90853135 317:0.52658398 318:0.040666053 326:0.0069875463 327:0.11754 328:0.50870839 329:0.55669866 330:0.29872299 331:0.45109183 332:0.38979617 333:0.18546901 339:0.015711484 340:0.13845029 341:0.24636751 342:0.3513939 343:0.74516696 344:0.67181645 345:0.47034101 346:0.42795788 347:0.18321271 352:0.0040083495 353:0.004048634 354:0.10462556 355:0.41566446 356:0.8011558 357:0.88606051 358:1 359:0.63146406 360:0.12748527 365:0.0039684657 366:0.0038898848 367:0.18926617 368:0.38245325 369:0.45477901 370:0.57234139 371:0.47488474 372:0.12683745 380:0.19945421 381:0.46366868 382:0.64806487 383:0.57248286 384:0.19000939 392:0.19550476 393:0.45448742 394:0.82424735 395:0.8177978 396:0.3299698 400:0.097637626 401:0.34542638 402:0.34210369 403:0.10601802 404:0.36990367 405:0.67600848 406:0.61950552 407:0.82121933 408:0.47552977 412:0.095704271 413:0.33858648 414:0.34210369 415:0.10601802 416:0.36515568 417:0.66761377 418:0.76093886 419:0.44118905 420:0.14908215 429:0.24835226 430:0.24580132 446:0.48842408 447:0.72359339 448:0.38907905 449:0.1488737 458:0.48040547 459:0.71564807 460:0.91956471 461:0.66993654 470:0.081818007 471:0.17165344 472:0.63918797 473:0.67716126 474:0.13376329 475:0.0056245779 484:0.19147796 485:0.37097209 486:0.18156449 487:0.0056245779 496:0.19509761 497:0.19464885 498:0.1407292 501:0.0033602984 502:0.21377159 503:0.21300396 504:0.13718048 508:0.13431543 509:0.16503157 510:0.1194919 513:0.00329376 514:0.20953862 515:0.21300396 516:0.13718048 520:0.073772544 521:0.10385096 522:0.029482823 524:0.20783982 525:0.21486066 526:0.024986662 527:0.077442166 528:0.063813471 532:0.031463227 533:0.031463227 534:0.13215835 535:0.12954144 536:0.20577178 537:0.21060613 538:0.23023698 539:0.67312918 540:0.45168939 544:0.00074012521 545:0.26504015 546:0.6109014 547:0.55416136 548:0.028210266 549:0.40196552 550:0.66569044 551:0.68081786 552:0.57704621 557:0.25979201 558:0.60665424 559:0.55154445 560:0.028210266 561:0.39579913 562:0.57315411 563:0.6498017 564:0.31607294 573:0.089037706 574:0.088484664 590:0.33499301 591:0.33499301 592:0.66168192 593:0.33332222 602:0.3283597 603:0.33499301 604:1 605:0.9867989 616:0.66332783 617:0.66999439 618:0.66332783 619:0.33332222 628:0.33499301 629:0.66998601 630:0.99168753 631:0.65679328 640:0.3283597 641:0.66998601 642:0.66335271 643:0.33667217 644:0.33000561 653:0.3283597 654:0.3283597 655:0.33000561 656:0.32347106 668:0.67166517 669:0.66831523 670:0.3283597 680:0.65836531 681:0.66831523 682:0.3283597 
0.01357193140854515 0.1261859758391367 0.1742234644167608 0.09929529730352871 0.2671391747081155 0.1503496915753194 0.1353806304094806 0.2839225659690011 0.01271351515940918 14:0.25472742 15:0.38133217 16:0.12799748 26:0.32253293 27:0.45433284 28:0.32240421 29:0.20878307 30:0.051598796 38:0.15690088 39:0.28344342 40:0.46351177 41:0.62689029 42:0.35060893 43:0.11103642 51:0.082099714 52:0.5418898 53:0.77969569 54:0.64957133 55:0.19430502 56:0.03481742 58:0.035030264 59:0.035030264 64:0.46648598 65:0.91631161 66:0.75166861 67:0.21526199 68:0.16411279 70:0.13500383 71:0.13535589 72:0.13267566 76:0.45543733 77:0.96901427 78:0.86814526 79:0.36594576 80:0.2560748 81:0.092853477 82:0.097993957 83:0.13465527 84:0.13198892 88:0.48294934 89:0.72570152 90:0.60641281 91:0.43214277 92:0.24041749 93:0.24212685 94:0.051337434 95:0.11052222 96:0.11052222 100:0.56406522 101:0.61825825 102:0.46079299 103:0.55282162 104:0.26325149 105:0.19429225 106:0.051337434 107:0.27008168 108:0.27008168 112:0.35920643 113:0.4844676 114:0.55535122 115:0.53336426 116:0.28994253 117:0.23604415 119:0.15736 120:0.26946923 124:0.10721124 125:0.23291999 126:0.31467089 127:0.19145134 128:0.1920873 129:0.18899924 132:0.04800083 158:0.16405136 159:0.38397447 160:0.47848967 161:0.25680927 170:0.46412935 171:0.79065525 172:0.94161726 173:0.92603699 174:0.31158992 182:0.29791633 183:0.69469768 184:0.94948796 185:0.95652244 186:0.80070651 187:0.25822089 188:0.13838338 189:0.073794203 195:0.32274222 196:0.79434049 197:0.74941618 198:0.7479979 199:0.73989162 200:0.33419197 201:0.21047097 202:0.33476712 203:0.23499448 208:0.41831452 209:0.7613153 210:0.60230816 211:0.75663365 212:0.62796846 213:0.35712252 214:0.45420577 215:0.38704673 216:0.18587162 220:0.10519235 221:0.52480506 222:0.58684488 223:0.54374514 224:0.76341713 225:0.44493094 226:0.15058549 227:0.28331916 228:0.18375304 232:0.00072495483 233:0.21237913 234:0.67962042 235:0.68907 236:0.64613704 237:0.53740971 238:0.13026737 239:0.21787434 240:0.13510198 244:0.12613648 245:0.18700029 246:0.43585432 247:0.78791034 248:0.661819 249:0.36401134 250:0.15539921 251:0.21787434 252:0.17774401 256:0.23173852 257:0.25780265 258:0.26363205 259:0.36059475 260:0.61589883 261:0.3338462 262:0.06720459 263:0.12494656 264:0.17422444 268:0.104509 269:0.2402267 270:0.19959164 271:0.077915122 272:0.26890298 273:0.28415393 274:0.017840209 284:0.04003894 285:0.057879149 286:0.017486949 302:0.12907825 303:0.53283321 304:0.5337196 305:0.13397057 314:0.1275444 315:0.53578901 316:0.94868009 317:0.54412526 318:0.046800284 326:0.0010220779 327:0.11594798 328:0.69173634 329:0.96028985 330:0.65753819 331:0.58292942 332:0.39524053 333:0.18805967 339:0.009415137 340:0.27740707 341:0.80537057 342:0.94210061 343:0.76908463 344:0.66442813 345:0.47719472 346:0.43350506 347:0.19357122 352:0.0055603816 353:0.27385775 354:0.40246918 355:0.44701011 356:0.69302971 357:0.88050749 358:1 359:0.64506871 360:0.14493633 365:0.0055050549 366:0.0053960475 367:0.096941925 368:0.27869288 369:0.45131663 370:0.56678718 371:0.48612338 372:0.14412646 380:0.20770243 381:0.59209238 382:0.65456431 383:0.50529294 384:0.23200824 392:0.20358964 393:0.58564223 394:0.73882827 395:0.6797899 396:0.37233409 400:0.10952012 401:0.34469614 402:0.35037782 403:0.11176264 404:0.34366417 405:0.62114117 406:0.66684024 407:0.97290394 408:0.62832822 412:0.10735148 413:0.3378707 414:0.35037782 415:0.11176264 416:0.34189089 417:0.61626929 418:0.52576278 419:0.43116665 420:0.25992469 428:0.11986838 429:0.37134761 430:0.24889498 446:0.46534009 447:0.71514796 448:0.41765669 449:0.16310495 458:0.45816177 459:0.70802673 460:0.89511779 461:0.63229353 470:0.10078707 471:0.19059463 472:0.63191585 473:0.96399296 474:0.45667047 475:0.0036214558 484:0.2644967 485:0.84383682 486:0.68701898 487:0.0036214558 496:0.19139471 497:0.33227888 498:0.32897825 501:0.013064453 502:0.31844189 503:0.31756597 504:0.23852715 508:0.12373207 509:0.15671502 510:0.1314396 513:0.012805759 514:0.31213632 515:0.31756597 516:0.23852715 520:0.061869868 521:0.092282823 522:0.032510137 525:0.011225968 526:0.027421039 527:0.050657852 528:0.034588416 532:0.038894743 533:0.038894743 534:0.11067451 535:0.108483 537:0.011225968 538:0.15678512 539:0.78660369 540:0.63687959 544:0.0027759267 545:0.30053063 546:0.64698537 547:0.57658354 548:0.030534585 549:0.47789833 550:0.78680437 551:0.94595295 552:0.87023863 557:0.29457972 558:0.64307197 559:0.57439204 560:0.030534585 561:0.47106874 562:0.64641072 563:0.72791779 564:0.664858 573:0.13065988 574:0.13006127 590:0.2537735 591:0.2537735 592:0.50125625 593:0.2525078 602:0.24874845 603:0.2537735 604:0.75754865 605:0.74754817 616:0.5025031 617:0.76006114 618:0.7550109 619:0.2525078 628:0.2537735 629:0.7575423 630:0.99880911 631:0.49881857 632:0.24874845 640:0.24874845 641:0.507547 642:0.50252195 643:0.2537735 644:0.2537735 653:0.24874845 654:0.24874845 655:0.24874845 656:0.24874845 668:0.50881904 669:0.5062813 670:0.24874845 680:0.49874375 681:0.5062813 682:0.24874845 
0.01115812519602304 0.0447666561467121 0.1516328646612193 0.03050869084118792 0.1434949349354229 0.06891174738473087 0.049614578807161 0.1416289931652654 0.003244576662057491 14:0.19601253 15:0.30311007 16:0.10792744 26:0.27551271 27:0.38456453 28:0.33518963 29:0.26537036 30:0.092423025 38:0.14697722 39:0.25413349 40:0.45282098 41:0.75671877 42:0.41785147 43:0.056631174 51:0.067373486 52:0.42960142 53:0.99601399 54:0.85618833 55:0.33148341 56:0.027218051 58:0.014167287 59:0.014167287 64:0.38703985 65:0.96122134 66:0.98456541 67:0.37194506 68:0.14631058 70:0.084896158 71:0.085038542 72:0.083354666 76:0.47524702 77:0.90391096 78:0.8183046 79:0.30970233 80:0.21341241 81:0.07274267 82:0.069328346 83:0.084755191 84:0.083076926 88:0.49644217 89:0.70135943 90:0.60252628 91:0.36905231 92:0.19937055 93:0.19439427 94:0.042766799 95:0.08330494 96:0.08330494 100:0.47669156 101:0.52432263 102:0.37160692 103:0.43478873 104:0.20709294 105:0.15180464 106:0.042766799 107:0.21198928 108:0.21198928 112:0.33347841 113:0.43825227 114:0.48848492 115:0.43546472 116:0.25437182 117:0.21194255 119:0.12702653 120:0.21161226 124:0.093549616 125:0.22789908 126:0.29657998 127:0.16489082 128:0.1827789 129:0.18025624 132:0.044514458 158:0.15027374 159:0.37997015 160:0.48055103 161:0.24991903 170:0.44619742 171:0.77792941 172:0.95101306 173:0.92612256 174:0.30709014 182:0.29401403 183:0.68490471 184:0.93226354 185:0.95023068 186:0.70700218 187:0.17760608 188:0.1357802 189:0.071916617 195:0.31658322 196:0.77148566 197:0.80585152 198:0.72205081 199:0.64250608 200:0.32859229 201:0.20455213 202:0.32319195 203:0.22662308 208:0.4137316 209:0.82214288 210:0.66938716 211:0.7389964 212:0.62607891 213:0.35074043 214:0.46365271 215:0.39901616 216:0.1998604 220:0.10282915 221:0.51078723 222:0.57496946 223:0.53577893 224:0.7645653 225:0.44772421 226:0.14921094 227:0.29698649 228:0.19774887 232:0.00080339612 233:0.20466825 234:0.66995599 235:0.6690944 236:0.62324102 237:0.50004021 238:0.086167091 239:0.18335072 240:0.127439 244:0.089552306 245:0.14949892 246:0.44530874 247:0.78383568 248:0.63827411 249:0.32561615 250:0.11014079 251:0.18335072 252:0.17116175 256:0.19515558 257:0.21854922 258:0.2458431 259:0.37349608 260:0.59842672 261:0.32109025 262:0.043158178 263:0.0865199 264:0.16777252 268:0.10450101 269:0.20593172 270:0.17615917 271:0.050832411 272:0.27793082 273:0.29516594 274:0.019395796 284:0.064517355 285:0.083899926 286:0.019011733 302:0.12339667 303:0.48556943 304:0.48097838 305:0.12624524 314:0.12721928 315:0.49376282 316:0.85182505 317:0.48741686 318:0.040811037 326:0.0062660248 327:0.11048887 328:0.60982225 329:0.95975897 330:0.57444922 331:0.39762319 332:0.34895557 333:0.16568502 339:0.01433217 340:0.23828151 341:0.81566881 342:1 343:0.55971078 344:0.58601772 345:0.42121536 346:0.38479096 347:0.17741668 352:0.0039300425 353:0.34829783 354:0.64583661 355:0.57211276 356:0.60633288 357:0.77456751 358:0.88125004 359:0.57091635 360:0.13082214 365:0.003890938 366:0.0038138922 367:0.083053596 368:0.24160114 369:0.39601417 370:0.49672115 371:0.42906602 372:0.12997358 380:0.17130944 381:0.40441692 382:0.47367675 383:0.45907013 384:0.21763546 392:0.16791728 393:0.40105227 394:0.54153101 395:0.61089809 396:0.34142516 400:0.098753169 401:0.31105793 402:0.34212366 403:0.12967427 404:0.27463047 405:0.45546636 406:0.51023463 407:0.85458756 408:0.57206473 412:0.096797725 413:0.30489857 414:0.34212366 415:0.12967427 416:0.27364188 417:0.45329197 418:0.40587521 419:0.37634031 420:0.23440286 428:0.10031402 429:0.34200334 430:0.23929045 446:0.52515321 447:0.78493658 448:0.41933097 449:0.15441175 458:0.51710409 459:0.77694268 460:0.96841319 461:0.69685982 462:0.12747232 470:0.1163093 471:0.22463113 472:0.72231008 473:0.90577889 474:0.45395585 475:0.003375848 484:0.28094054 485:0.88480781 486:0.87044251 487:0.11889483 496:0.185699 497:0.52188113 498:0.63974473 499:0.11882663 502:0.22454092 503:0.22388309 504:0.15529187 508:0.14070043 509:0.17484672 510:0.15056375 514:0.22009471 515:0.22388309 516:0.15529187 520:0.082675735 521:0.11207934 522:0.054429297 525:0.010902312 526:0.026127636 527:0.068174327 528:0.053081023 532:0.039932868 533:0.039932868 534:0.088825183 535:0.087066326 537:0.010902312 538:0.14486655 539:0.74452614 540:0.60679486 544:0.0049320239 545:0.22418226 546:0.55143139 547:0.49549187 549:0.30229764 550:0.6480618 551:0.90100021 552:0.83952754 557:0.21974315 558:0.54779392 559:0.49373301 561:0.299064 562:0.52153934 563:0.69919926 564:0.63533623 573:0.13624092 574:0.13624092 590:0.20180268 591:0.20180268 592:0.3986029 593:0.20079619 602:0.19780672 603:0.20180268 604:0.60240864 605:0.59445618 616:0.39959442 617:0.79926835 618:0.6013971 619:0.19780672 628:0.20180268 629:0.80319978 630:0.99808157 631:0.40060091 632:0.19780672 640:0.19780672 641:0.40360536 642:0.79621435 643:0.59447116 644:0.20180268 653:0.19780672 654:0.19780672 655:0.19780672 656:0.19780672 668:0.4046169 669:0.40259887 670:0.19780672 680:0.39660495 681:0.40259887 682:0.19780672 
0.05270118628060691 0.3412074536315765 0.6482983187451323 0.2599707027100366 0.8059685234601315 0.4404359720487211 0.364427977483348 0.8786491756293973 0.03243830392492142 17:0.10375126 18:0.10375126 25:0.13186591 26:0.42180809 27:0.59924798 28:0.41629666 29:0.43421767 30:0.3272629 31:0.21288301 32:0.071709285 37:0.131532 38:0.41751877 39:0.70182313 40:0.71070249 41:0.66875747 42:0.44837036 43:0.46499133 44:0.27161898 45:0.10247946 49:0.096360858 50:0.20303563 51:0.21094814 52:0.54487925 53:0.44604689 54:0.45052848 55:0.46999151 56:0.4096969 57:0.34112301 65:0.32563757 66:0.32867427 67:0.32409593 68:0.54071117 69:0.8037532 70:0.31838038 71:0.09082804 77:0.44311007 78:0.44311007 79:0.32747696 80:0.68928443 81:1 82:0.69035611 83:0.38175293 84:0.078395734 89:0.45297333 90:0.45297333 91:0.44325668 92:0.56573997 93:0.77058233 94:0.53117039 95:0.57568141 96:0.27422107 101:0.44365267 102:0.45189883 103:0.44295063 104:0.47766782 105:0.51074148 106:0.12696188 107:0.3618341 108:0.27261375 113:0.21605917 114:0.44099192 115:0.74571178 116:0.54170559 117:0.41458778 119:0.077144201 120:0.077144201 126:0.37475747 127:0.89466084 128:0.65778158 129:0.31326698 138:0.1559273 139:0.37806415 140:0.41231283 141:0.18641024 162:0.054260307 163:0.053185881 169:0.10433801 170:0.30634731 171:0.36254506 172:0.23547369 173:0.074433934 174:0.11524226 175:0.34098735 176:0.22356299 181:0.10419295 182:0.52285516 183:0.82099269 184:0.6981026 185:0.29975573 186:0.06590939 187:0.3788725 188:0.35304189 189:0.11438817 193:0.052965962 194:0.21647439 195:0.50944875 196:0.92111592 197:0.68088759 198:0.32820262 199:0.28771121 200:0.30418447 201:0.22069424 207:0.14506789 208:0.37158746 209:0.49535724 210:0.52996363 211:0.34489325 212:0.3606727 213:0.54927095 214:0.23888304 215:0.070060039 221:0.10675168 222:0.28543632 223:0.25933654 224:0.55357606 225:1 226:0.74120966 227:0.26364851 228:0.055168037 233:0.010556094 234:0.012158488 235:0.027818712 236:0.25852291 237:0.67005893 238:0.84315956 239:0.68673686 240:0.28421202 245:0.067743193 246:0.067743193 247:0.02753227 248:0.027952911 249:0.16500978 250:0.39788314 251:0.54852717 252:0.28530794 257:0.062279395 258:0.17278191 259:0.11189487 260:0.013220023 261:0.012958249 263:0.057698833 264:0.05655632 270:0.33094501 271:0.44996835 272:0.12149762 273:0.023726834 282:0.21803471 283:0.36354448 284:0.25999798 285:0.055122557 305:0.14438189 306:0.28948749 307:0.14223232 313:0.48755552 314:0.84655109 315:0.54006904 316:0.17758497 317:0.14438189 318:0.34463322 319:0.38685385 320:0.097711025 325:0.48173373 326:0.98395328 327:0.98607088 328:0.595246 329:0.16930504 330:0.28517758 331:0.38115006 332:0.097711025 337:0.09509371 338:0.26620472 339:0.57181608 340:0.80309691 341:0.72188664 342:0.49679121 343:0.17689811 351:0.14260348 352:0.37322341 353:0.67626301 354:0.85003198 355:0.43624029 356:0.33614206 357:0.35821152 358:0.1446381 365:0.12267674 366:0.35089502 367:0.25980329 368:0.4988716 369:0.77007634 370:0.60135634 371:0.26572322 372:0.11262249 380:0.18407842 381:0.4543444 382:0.76424443 383:0.62591527 384:0.18992069 389:0.048297364 390:0.048297364 393:0.11172997 394:0.32868514 395:0.58411915 396:0.36477138 401:0.048297364 402:0.10777366 403:0.058298584 407:0.28559734 408:0.28276267 414:0.18807996 415:0.41487145 416:0.22610981 426:0.12701861 427:0.35499587 428:0.33589241 429:0.11276945 449:0.23876294 450:0.25875075 451:0.019592026 457:0.4139348 458:0.71301095 459:0.39723648 460:0.15000492 461:0.27668553 462:0.29667335 463:0.2815485 469:0.40945734 470:0.70253774 471:0.39122099 472:0.25961814 473:0.1077443 474:0.29754624 475:0.29204238 481:0.18409677 482:0.18409677 484:0.1077443 485:0.10591239 486:0.015640172 487:0.015330476 499:0.15054818 500:0.1561309 501:0.5033989 502:0.48806711 511:0.35809673 512:0.51559105 513:0.66959519 514:0.90846137 515:0.4236297 516:0.079639224 523:0.62601734 524:0.77753855 525:0.95117753 526:0.44316016 527:0.6645932 528:0.42351621 535:0.5621423 536:0.87987274 537:0.86501592 538:0.079639224 539:0.58169424 540:0.49651352 546:0.052543981 547:0.23950936 548:0.40121859 549:0.37515786 551:0.15504589 552:0.15466301 558:0.052543981 559:0.23620341 560:0.18286912 561:0.043882539 570:0.05150354 571:0.14272356 572:0.14600471 573:0.070475088 602:0.250625 603:0.49628729 604:0.24566229 614:0.250625 615:0.74691229 616:0.750625 617:0.49503729 626:0.24566229 627:0.49132458 628:0.74566229 629:0.49503729 630:0.5 631:0.249375 632:0.25188126 633:0.249375 641:0.49628729 642:0.99754355 643:0.99258085 644:0.74814994 645:0.73952353 646:0.24566229 653:0.24566229 654:0.5 655:0.74193097 656:0.74326112 657:0.74689368 658:0.99628729 659:0.49503729 668:0.24689368 669:0.48766715 670:0.74691229 671:0.74816855 672:0.24689368 682:0.24566229 683:0.49255597 684:0.24200486 690:0.250625 691:0.24566229 702:0.50125 703:0.50125 704:0.24566229 714:0.24566229 715:0.49628729 716:0.24566229 
0.07842105966438462 0.5289475910680069 0.977175429648944 0.401478629691029 1.270151124739807 0.6926596590076178 0.576931139183014 1.359136166867219 0.05061567362887897 19:0.26124768 20:0.31034648 21:0.05298599 25:0.09771017 26:0.15864912 27:0.17657299 28:0.11452712 31:0.55790222 32:0.63326188 33:0.18224963 34:0.095189022 37:0.24830113 38:0.3080334 39:0.45333815 40:0.21563063 41:0.03462378 43:0.59643044 44:0.61613535 45:0.39478393 46:0.35975005 47:0.08997047 49:0.1481138 50:0.24758508 51:0.37868741 52:0.19613661 53:0.10124074 54:0.038248092 55:0.60199278 56:0.59620638 57:0.47963247 58:0.59435593 59:0.28519619 62:0.025236568 63:0.15705944 64:0.21812377 65:0.25909348 66:0.19465072 67:0.6054051 68:0.60143685 69:0.21424756 70:0.56963433 71:0.53908528 75:0.12135479 76:0.21587345 77:0.3648656 78:0.323338 79:0.71483982 80:0.60049113 82:0.57946164 83:0.57726867 88:0.14941933 89:0.26047198 90:0.40589015 91:1 92:0.68143542 94:0.51664123 95:0.50641105 100:0.030496697 101:0.077690149 102:0.31560732 103:0.90984027 104:0.65724373 105:0.11076895 106:0.5371646 107:0.5371646 113:0.022261666 114:0.10342764 115:0.38118734 116:0.35364766 117:0.18780552 118:0.40376615 119:0.27793968 126:0.019502022 127:0.067745136 128:0.090321999 129:0.16838181 130:0.12476864 139:0.009025855 140:0.009025855 163:0.0086600219 164:0.34701631 165:0.33367741 170:0.05217535 171:0.24339545 172:0.18743369 175:0.008488542 176:0.44160474 177:0.62416654 178:0.2935851 181:0.21379905 182:0.36819129 183:0.66531956 184:0.62221183 185:0.1125526 188:0.11577663 189:0.57521808 190:0.51202155 191:0.055384871 193:0.21181753 194:0.43290554 195:0.77496704 196:1 197:0.57586289 198:0.1147668 199:0.00020946837 200:0.00020532062 201:0.25235709 202:0.31242208 203:0.14743758 206:0.21380285 207:0.56449949 208:0.7899016 209:0.83627666 210:0.39679331 211:0.0031488136 212:0.003086463 213:0.082571453 214:0.19076347 215:0.18817045 219:0.16684649 220:0.47741427 221:0.70920842 222:0.51551117 223:0.15761802 224:0.0078372855 226:0.15218336 227:0.15144599 232:0.3086627 233:0.78645959 234:0.77512543 235:0.62479566 236:0.29345305 238:0.10433637 239:0.10433637 244:0.098259477 245:0.43265938 246:0.93790757 247:0.9820114 248:0.78465531 249:0.337661 250:0.072344654 251:0.072344654 257:0.10518365 258:0.53291831 259:0.96143971 260:0.93585881 261:0.60843128 262:0.18532112 263:0.023489901 270:0.11079319 271:0.5765204 272:0.89724008 273:0.60862693 274:0.16013041 283:0.11698729 284:0.56528598 285:0.44366822 307:0.33521618 308:0.6802734 309:0.66212273 314:0.67281231 315:0.8732279 316:0.55527416 319:0.32857845 320:0.67692122 321:0.6702835 325:0.050951066 326:0.80047008 327:0.959523 328:0.55527416 329:0.028299895 332:0.0079991719 333:0.0079991719 337:0.050951066 338:0.22401354 339:0.23087526 340:0.15942441 341:0.070339364 350:0.13869068 351:0.23549933 352:0.16593101 353:0.06944682 363:0.0072589863 364:0.37104932 365:0.3685124 366:0.052525686 367:0.051485608 376:0.37104932 377:0.37349081 378:0.59988704 379:0.83705354 380:0.31428088 388:0.12558186 389:0.3660952 390:0.59408447 391:0.82159269 392:0.52544148 393:0.12416799 403:0.082811351 404:0.20793717 405:0.12264817 415:0.049781607 416:0.14444774 417:0.092847209 427:0.034182173 428:0.14390753 429:0.14017363 451:0.98891322 452:0.97665289 453:0.36242466 457:0.29350455 458:0.68098297 459:0.38428188 460:0.064912328 463:0.99900446 464:0.99869151 465:0.36242466 469:0.46761475 470:0.84742059 471:0.84552861 472:0.064912328 475:0.29293119 476:0.29293119 481:0.17066259 482:0.46469434 483:0.45549277 487:0.036235835 488:0.036235835 499:0.017579167 500:0.017579167 511:0.0020550994 512:0.0020550994 522:0.072037296 523:0.071320513 534:0.071320513 535:0.071320513 679:0.50753116 680:0.50248114 682:0.50753116 683:0.50248114 691:0.50248114 692:0.99263041 693:0.50499983 694:0.9974813 695:0.50248114 704:1 705:0.99000033 706:0.49500017 716:0.50499983 717:0.50499983 
0.08168782079202139 0.5403119967374709 0.9718700582028774 0.4050024367659111 1.255750793765631 0.6891656012100239 0.5712402287646496 1.36349534709283 0.04952666713867394 31:0.20664504 32:0.2025532 37:0.11444251 38:0.11330379 43:0.63846536 44:0.6258229 45:0.070361645 46:0.14281534 47:0.07101902 49:0.11330379 50:0.11330379 55:0.85805242 56:0.85059126 57:0.06997478 58:0.49095498 59:0.41530492 67:0.84873691 68:0.84873691 70:0.51523857 71:0.6378937 72:0.29834159 79:0.60215329 80:0.59921644 82:0.16530916 83:0.41573489 84:0.29570737 91:0.82536216 92:0.80901889 103:0.86255089 104:0.84994144 115:0.85959621 116:0.85959621 127:0.98736281 128:0.99662643 129:0.15899175 139:0.70367706 140:0.91332099 141:0.49784486 169:0.012332605 170:0.07291231 171:0.059380146 175:0.060573684 176:0.23954049 177:0.26783815 178:0.088809017 181:0.19880834 182:0.7076603 183:0.7267117 184:0.31450133 185:0.094623671 187:0.059374245 188:0.23834105 189:0.68659088 190:0.62115208 191:0.14318769 193:0.18499785 194:0.7420827 195:1 196:0.7955652 197:0.69968549 198:0.44073207 199:0.11281283 200:0.092580755 201:0.41317966 202:0.81371753 203:0.49644075 205:0.052371024 206:0.18636163 207:0.5242277 208:0.72990049 209:0.92777104 210:0.87940327 211:0.44327621 212:0.46593316 213:0.32019258 214:0.43753557 215:0.56496838 216:0.12754791 220:0.17103022 221:0.52454552 222:0.72570975 223:0.69413735 224:0.7253074 225:0.51629624 226:0.2129038 227:0.21357563 228:0.12615676 234:0.079819252 235:0.32010889 236:0.4740196 237:0.36195717 238:0.12549823 247:0.036037572 248:0.036037572 259:0.026790393 260:0.026259907 271:0.26275536 272:0.26049352 273:0.091851669 283:0.37540965 284:0.49174287 285:0.38215263 313:0.25972826 314:0.38203491 315:0.12234109 319:0.29558876 320:0.43084076 321:0.19191122 322:0.053722578 325:0.53490012 326:0.95081256 327:0.65014439 328:0.29982555 329:0.067654193 331:0.29080374 332:0.42610322 333:0.36677254 334:0.18096206 335:0.01473901 337:0.30519638 338:0.81786634 339:0.89158588 340:0.68173075 341:0.47030299 342:0.28446655 343:0.11086678 344:0.13282068 345:0.24479178 346:0.17875637 347:0.01473901 349:0.091755311 350:0.26556736 351:0.41229566 352:0.60457612 353:0.68555432 354:0.66228424 355:0.54205923 356:0.36070228 357:0.1661732 364:0.21607565 365:0.45057338 366:0.57720409 367:0.69509606 368:0.74152042 369:0.41953452 370:0.032121996 378:0.066559672 379:0.21480334 380:0.37812975 381:0.26174774 382:0.031485938 415:0.10391231 416:0.10339405 417:0.050800038 427:0.14550607 428:0.20524783 429:0.15178946 457:0.36893337 458:0.36258647 463:0.93207901 464:0.91520461 465:0.078311628 469:1 470:0.99420726 471:0.047922885 475:0.99228746 476:0.97418953 477:0.078311628 481:0.93896937 482:0.98689225 483:0.046973948 487:0.48801161 488:0.48801161 499:0.028536199 500:0.028536199 643:0.25376558 644:0.49998125 645:0.25124057 646:0.25249992 647:0.25249992 648:0.24750008 655:0.50250626 656:0.99756212 657:0.50500615 658:0.24874068 659:0.25249992 660:0.24750008 667:0.25124057 668:0.50248114 669:0.49998125 670:0.24381529 716:0.25376558 717:0.25124057 
0.07621492833234668 0.524927713828317 0.9565142839147166 0.3941481732317556 1.210644551815348 0.667258835409123 0.5508880263783881 1.341940646779071 0.04797521749826 25:0.082794048 26:0.081154616 30:0.42161044 31:0.41326199 32:0.0094926268 33:0.0094926268 37:0.082794048 38:0.082794048 42:0.86718521 43:0.85001379 44:0.092661624 45:0.18227776 46:0.090920314 49:0.081154616 50:0.081154616 54:0.86874916 55:0.86874916 56:0.08152214 57:0.56355825 58:0.47249115 66:0.63241294 67:0.63241294 69:0.83448312 70:0.81795925 78:0.86203784 79:0.84496835 81:0.86032682 82:0.86032682 90:0.88590955 91:0.87563468 92:0.40766004 93:0.8265293 94:0.82216791 102:1 103:0.98420497 104:0.81231382 105:0.81231382 106:0.76011567 114:0.9133576 115:0.96079793 116:0.89426734 117:0.8408645 118:0.80510875 126:0.35190675 127:0.75734882 128:0.61142714 129:0.77191751 130:0.75663252 139:0.22891194 140:0.22543663 141:0.33565792 142:0.32901145 169:0.25258668 170:0.4204157 171:0.16803902 174:0.052982881 175:0.30492538 176:0.55193688 177:0.29870963 181:0.39284495 182:0.95217562 183:0.81963868 184:0.47551006 185:0.21346283 186:0.064862529 187:0.3132384 188:0.6971729 189:0.61783261 190:0.29750243 193:0.15315123 194:0.68780664 195:1 196:0.85041201 197:0.73243228 198:0.52584551 199:0.48386261 200:0.37432562 201:0.7225265 202:0.48907814 206:0.11210775 207:0.36888297 208:0.50750329 209:0.68719415 210:0.81922235 211:0.74009796 212:0.46541664 213:0.35575024 214:0.23433768 221:0.14831303 222:0.39051794 223:0.52281353 224:0.3994483 225:0.16514229 226:0.046133857 234:0.03215728 235:0.03215728 236:0.045544088 237:0.050316979 238:0.049415146 246:0.35779422 247:0.35354991 248:0.044642255 249:0.045544088 250:0.044642255 258:0.58277313 259:0.81207142 260:0.3080341 261:0.077585716 262:0.0094861623 270:0.24002445 271:0.66575462 272:0.78336544 273:0.42079916 274:0.15485199 283:0.2519528 284:0.51432909 285:0.40791135 286:0.14403454 313:0.38725369 314:0.55156572 315:0.16797054 318:0.25515676 319:0.47527645 320:0.2892314 321:0.0672632 325:0.57240894 326:1 327:0.69068393 328:0.3629773 329:0.10602779 330:0.25010431 331:0.46715851 332:0.41466507 333:0.19755214 334:0.0060380723 337:0.22522519 338:0.6262326 339:0.91827176 340:0.79245486 341:0.75176899 342:0.66674887 343:0.3931119 344:0.21521127 345:0.13057948 346:0.0059185105 350:0.049097036 351:0.31288145 352:0.47260046 353:0.63746776 354:0.83806142 355:0.82171012 356:0.47645066 357:0.041160091 365:0.14537505 366:0.30959067 367:0.50939103 368:0.38302814 369:0.040345067 370:0.0041645637 380:0.04520689 381:0.049455583 382:0.0042486934 390:0.028241583 391:0.028241583 392:0.04520689 393:0.04982579 394:0.048921638 402:0.083175455 403:0.20551856 404:0.12100159 405:0.044757074 406:0.043870824 414:0.053846109 415:0.24505832 416:0.41503134 417:0.34561652 418:0.11225979 427:0.067505403 428:0.2988597 429:0.34454623 430:0.11225979 457:0.42056265 458:0.41223495 462:0.32174074 463:0.31631297 464:0.046686325 469:0.42027137 470:0.42027137 474:0.33524406 475:0.3383292 476:0.046686325 481:0.38354067 482:0.38354067 486:0.055551864 487:0.055551864 501:0.011165677 502:0.010944582 513:0.50453837 514:0.49454784 524:0.50863334 525:0.99990067 526:0.72966385 536:0.6216622 537:0.95773649 538:0.94628435 546:0.16936324 547:0.16936324 548:0.1441807 549:0.42090768 550:0.41257315 558:0.16768224 559:0.17021217 560:0.16684175 561:0.14709687 562:0.14418415 571:0.083629426 572:0.081973452 573:0.069023381 574:0.067656626 630:0.25376558 631:0.49998125 632:0.25124057 633:0.25376558 634:0.25124057 642:0.50250626 643:0.99756212 644:0.50500615 645:0.49998125 646:0.25124057 654:0.25124057 655:0.50248114 656:0.49998125 657:0.24381529 690:0.25249992 691:0.50499983 692:0.24750008 702:0.24750008 703:0.50499983 704:0.5 715:0.24750008 716:0.24750008 
0.05385214061943725 0.3686935752115474 0.6884636453620714 0.2766574009334218 0.8715856334912051 0.4781364596169346 0.3931132984760634 0.9364638920076435 0.03442124113974215 17:0.15825907 18:0.15825907 25:0.065603571 26:0.066460689 27:0.0029676136 29:0.49586101 30:0.48917604 31:0.18475145 32:0.10342499 37:0.064304533 38:0.066460689 39:0.0029676136 41:0.6713621 42:0.66357121 43:0.19057589 44:0.31816246 45:0.16030977 53:0.76846246 54:0.78878376 55:0.12053154 56:0.53420373 57:0.4421406 65:0.75706362 66:0.75827101 67:0.42641922 68:0.76024351 69:0.76644615 70:0.053568142 77:0.66526005 78:0.66526005 79:0.63397075 80:0.88521744 81:0.95136573 82:0.18763015 83:0.066008682 84:0.064701623 89:0.6740471 90:0.67645622 91:0.66306149 92:0.76111388 93:0.84173837 94:0.13406201 95:0.21206192 96:0.21060866 101:0.65928625 102:0.66990586 103:0.65664083 104:0.68822202 105:0.67652298 107:0.2093016 108:0.2093016 113:0.47283906 114:0.73829678 115:0.88631777 116:0.65047706 117:0.62881991 125:0.1472832 126:0.5510447 127:0.69920836 128:0.63029005 129:0.61780947 138:0.14103865 139:0.14103865 140:0.29638552 141:0.29051669 161:0.017996915 162:0.16726356 163:0.1478471 169:0.31191225 170:0.56333243 171:0.33025883 172:0.078475275 173:0.01823062 174:0.24545884 175:0.43261076 176:0.26381801 181:0.30823678 182:0.84292302 183:0.92549335 184:0.67021241 185:0.32370423 186:0.12242985 187:0.35309661 188:0.42217661 189:0.15671362 193:0.057058395 194:0.30327251 195:0.71526117 196:0.9692533 197:0.7933789 198:0.50740018 199:0.25950361 200:0.24544124 201:0.24231308 207:0.14322705 208:0.44576529 209:0.66958951 210:0.67735775 211:0.42056466 212:0.33600855 213:0.59168557 214:0.3026547 221:0.13004183 222:0.30329704 223:0.28038312 224:0.40478506 225:0.96170155 226:0.92378032 227:0.4280914 228:0.10491162 233:0.014195323 234:0.014622052 235:0.020681897 236:0.13093579 237:0.4931123 238:0.86455791 239:0.92659631 240:0.4222557 245:0.13564985 246:0.13564985 247:0.059763756 248:0.020681897 249:0.069251703 250:0.31318686 251:0.61216351 252:0.34609152 257:0.17590858 258:0.46099124 259:0.310788 260:0.030037028 261:0.0040875589 269:0.049404892 270:0.5241041 271:0.66581473 272:0.29814914 273:0.075235575 282:0.21031784 283:0.46336321 284:0.32202621 285:0.070640913 305:0.14801487 306:0.35013752 307:0.1993446 313:0.52485201 314:0.7667673 315:0.3203083 316:0.074638708 317:0.14801487 318:0.40492433 319:0.45858648 320:0.16942665 325:0.5185349 326:1 327:0.86779812 328:0.57742516 329:0.32575866 330:0.28406038 331:0.45167015 332:0.16821459 337:0.10454176 338:0.33749087 339:0.77461054 340:0.85730339 341:0.91207638 342:0.62367897 343:0.18323744 351:0.2780892 352:0.52446065 353:0.82830952 354:0.94910456 355:0.40579762 356:0.33201321 357:0.44185706 358:0.13250729 365:0.14841894 366:0.3324057 367:0.22006352 368:0.42031993 369:0.87233762 370:0.68381932 371:0.27636875 372:0.061932895 380:0.091325531 381:0.4307633 382:0.7257551 383:0.79333557 384:0.44835758 389:0.055059763 390:0.055059763 393:0.094858664 394:0.26764619 395:0.55896901 396:0.38436707 401:0.055059763 402:0.19365889 403:0.13722347 414:0.24194251 415:0.65604408 416:0.41082997 417:0.14332252 426:0.1030097 427:0.51144258 428:0.54875947 429:0.14332252 449:0.21031113 450:0.21031113 457:0.23354865 458:0.23122481 461:0.24157448 462:0.24095543 463:0.20821849 469:0.23122481 470:0.23122481 473:0.031061911 474:0.23928041 475:0.20409549 485:0.010799734 486:0.010799734 500:0.013247175 501:0.012984864 511:0.22374336 512:0.57440156 513:0.3437147 523:0.66316514 524:0.9983476 525:0.77709164 527:0.17313292 528:0.17141022 535:0.48949554 536:0.91211031 537:0.89841377 539:0.17141022 540:0.17141022 547:0.068629726 548:0.29612995 549:0.29026619 559:0.079666204 560:0.079022559 561:0.071538511 571:0.064366654 572:0.065010299 573:0.031861505 629:0.49937578 630:0.74843945 631:0.24906367 632:0.2515668 633:0.24906367 641:0.49441927 642:0.99504975 643:0.99257152 644:0.9950249 645:0.74348294 654:0.49564912 655:0.73735185 656:0.74107851 657:0.49441927 690:0.49937578 691:0.49441927 702:0.49937578 703:0.50187891 704:0.24658545 714:0.2453556 715:0.49194104 716:0.24170273 
0.01495157188661052 0.1286769056454749 0.2360522721553974 0.1029322543642199 0.3121211605327132 0.1718707369508835 0.1365256685098833 0.3301661493619449 0.01268498517798223 17:0.13082626 18:0.13082626 25:0.098218232 26:0.49236854 27:0.65080907 28:0.25543624 29:0.42467723 30:0.42467723 31:0.27157503 32:0.046540407 37:0.097892135 38:0.48674624 39:0.65397481 40:0.3564591 41:0.59353672 42:0.59353672 43:0.56681174 44:0.29775304 45:0.20123451 49:0.064149244 50:0.20557575 51:0.27899963 52:0.13757313 53:0.44525245 54:0.59723787 55:0.58541177 56:0.52995278 57:0.44462815 65:0.43315983 66:0.4361629 67:0.42752629 68:0.62388857 69:0.72254996 70:0.10801217 77:0.59149253 78:0.59149253 79:0.43502608 80:0.67654786 81:0.82027588 82:0.22570778 89:0.60197005 90:0.60389324 91:0.59193535 92:0.63599387 93:0.76272761 94:0.16912139 95:0.2320367 96:0.22744206 101:0.58705105 102:0.73535191 103:0.73144279 104:0.58607848 105:0.57664894 107:0.23052158 108:0.23052158 113:0.28621091 114:0.73134367 115:1 116:0.58975297 117:0.57807508 119:0.078186406 120:0.078186406 126:0.56100101 127:0.80584481 128:0.58442594 129:0.57285353 138:0.12574357 139:0.23568215 140:0.38807208 141:0.38038773 162:0.053724576 163:0.052660758 169:0.1512438 170:0.47813009 171:0.42462383 172:0.0978299 174:0.12647394 175:0.33385023 176:0.2063661 181:0.20719738 182:0.79565948 183:0.98453872 184:0.66232413 185:0.27235156 186:0.079492331 187:0.35081737 188:0.40460327 189:0.22607315 193:0.092107541 194:0.36411787 195:0.74853893 196:0.92781624 197:0.73781182 198:0.44519403 199:0.24061915 200:0.32229404 201:0.31881278 207:0.17690003 208:0.45367133 209:0.62134055 210:0.69312312 211:0.45030622 212:0.34387061 213:0.62804745 214:0.28360331 221:0.12711272 222:0.3298722 223:0.3015859 224:0.38571143 225:0.97908809 226:0.88244451 227:0.39267397 228:0.099809839 233:0.01353035 234:0.01547454 235:0.022055705 236:0.12110138 237:0.57654675 238:0.91904638 239:0.89685853 240:0.42979761 245:0.10031366 246:0.1859538 247:0.10556333 248:0.022055705 249:0.08814568 250:0.3036688 251:0.67748161 252:0.43741703 257:0.091648031 258:0.43351341 259:0.35054818 260:0.013879147 261:0.0019566582 263:0.07608475 264:0.074971445 270:0.35436097 271:0.60141842 272:0.31212685 273:0.055798918 282:0.097689373 283:0.40343714 284:0.39212752 285:0.088130253 305:0.1099181 306:0.24314519 307:0.13058902 313:0.43388306 314:0.78563943 315:0.42331472 316:0.1233167 317:0.1099181 318:0.30956513 319:0.35191116 320:0.10854447 325:0.50496219 326:0.97755226 327:0.87339151 328:0.49415798 329:0.10839193 330:0.23941341 331:0.34711822 332:0.1096869 333:0.0011198036 337:0.083910181 338:0.3449952 339:0.62225352 340:0.67747043 341:0.59090076 342:0.44444066 343:0.15926448 344:0.0011198036 345:0.00109763 351:0.13044112 352:0.37028766 353:0.57365557 354:0.70876515 355:0.41881105 356:0.27600145 357:0.3944787 358:0.15293883 365:0.11172594 366:0.32386437 367:0.2572902 368:0.34687682 369:0.72579677 370:0.5683593 371:0.2242735 372:0.049214894 379:0.014449297 380:0.087919498 381:0.33291269 382:0.65192816 383:0.54227973 384:0.19935626 389:0.025031284 390:0.050188038 391:0.039107914 392:0.014594515 393:0.09302683 394:0.23253271 395:0.52282631 396:0.36618988 401:0.025031284 402:0.13503214 403:0.10885608 404:0.014305524 405:0.014022256 407:0.21556117 408:0.21342164 414:0.11825525 415:0.41934589 416:0.29836612 426:0.032749562 427:0.33303252 428:0.38572306 429:0.1301796 449:0.30958065 450:0.37694269 451:0.066028181 457:0.60142474 458:1 459:0.43073683 460:0.20045038 461:0.38268334 462:0.45004538 463:0.42516239 469:0.59513637 470:0.98570801 471:0.43073683 472:0.20045038 473:0.0817974 474:0.45557088 475:0.44785742 481:0.27823094 482:0.27823094 485:0.0095383483 486:0.030290689 487:0.029690893 500:0.0079255882 501:0.0077686511 512:0.32602729 513:0.31957152 523:0.55211721 524:0.86966208 525:0.55300561 527:0.3477346 528:0.34084899 535:0.65518711 536:0.91275545 537:0.90030998 539:0.34600026 540:0.34600026 546:0.05982533 547:0.1856707 548:0.44574857 549:0.43692216 551:0.16999844 552:0.16999844 558:0.05982533 559:0.079043649 560:0.054953497 561:0.053865344 570:0.058640709 571:0.058640709 602:0.250625 603:0.49628729 604:0.24566229 614:0.250625 615:0.50125 616:0.250625 626:0.24566229 627:0.49132458 628:0.24566229 629:0.250625 630:0.5 631:0.249375 632:0.25188126 633:0.249375 641:0.49628729 642:0.99754355 643:0.99258085 644:0.74939994 645:0.73456083 653:0.24566229 654:0.5 655:0.74193097 656:0.74200486 657:0.5 668:0.24566229 669:0.24566229 690:0.5 691:0.49503729 702:0.5 703:0.50250626 704:0.24689368 714:0.24566229 715:0.49255597 716:0.24200486 
0.04190940554476939 0.214333680381811 0.4430053786408928 0.1576931200480521 0.4887299953842257 0.2646328648539778 0.226502351429171 0.5466656997884994 0.01854210677423686 25:0.088248438 26:0.35616292 27:0.63261908 28:0.45886732 29:0.36501227 30:0.26659645 31:0.12814409 32:0.032441243 37:0.088006852 38:0.35301516 39:0.76459535 40:1 41:0.77072658 42:0.53968763 43:0.39961897 44:0.24740255 45:0.16217104 49:0.062702191 50:0.062702191 51:0.25451605 52:0.75560595 53:0.55258849 54:0.54428811 55:0.53351048 56:0.46637004 57:0.40010931 65:0.402321 66:0.40679826 67:0.39874312 68:0.53324306 69:0.59406172 70:0.06984358 77:0.52762419 78:0.52762419 79:0.40184023 80:0.57790567 81:0.70131684 82:0.14122197 89:0.54766088 90:0.54766088 91:0.53583382 92:0.6207639 93:0.6727814 94:0.14886494 95:0.29371677 96:0.29243011 101:0.5361193 102:0.66723693 103:0.53578554 104:0.57781723 105:0.60468774 106:0.030933137 107:0.29097025 108:0.29462163 113:0.26065066 114:0.65826932 115:0.90226796 116:0.59331577 117:0.58399075 119:0.063691897 120:0.1528302 126:0.50474712 127:0.750531 128:0.55237301 129:0.52458494 138:0.11745918 139:0.23102068 140:0.37194603 141:0.34773066 162:0.041246232 163:0.040429501 169:0.097985882 170:0.44956568 171:0.52837017 172:0.26791373 173:0.089122622 174:0.11089623 175:0.36890916 176:0.25562044 181:0.14363703 182:0.73993148 183:1 184:0.75366794 185:0.35358583 186:0.075697872 187:0.40366464 188:0.46361471 189:0.23052207 193:0.054095803 194:0.30564908 195:0.71121151 196:0.96028273 197:0.7638787 198:0.51700048 199:0.37684405 200:0.41285975 201:0.32238804 207:0.17898794 208:0.3800729 209:0.59036547 210:0.76782088 211:0.65997864 212:0.40127934 213:0.56581973 214:0.25943206 221:0.12508361 222:0.41809751 223:0.52645037 224:0.3481416 225:0.92631736 226:0.78421976 227:0.29009546 228:0.080079705 233:0.013594501 234:0.021159803 235:0.020740811 236:0.12991878 237:0.54303284 238:0.90741577 239:0.79154372 240:0.43309114 245:0.01939415 246:0.10075166 247:0.079746526 248:0.034471346 249:0.12843677 250:0.31099804 251:0.68438546 252:0.56396983 257:0.012482354 258:0.3112624 259:0.30151723 260:0.016940966 261:0.016937478 263:0.13261339 264:0.1312173 270:0.31810951 271:0.54923165 272:0.29815761 273:0.044979387 282:0.099544496 283:0.41817512 284:0.40633665 285:0.08582505 306:0.12539952 307:0.12291644 313:0.41092795 314:0.74149332 315:0.53293737 316:0.26741831 317:0.16459787 318:0.30142668 319:0.3417494 320:0.11874306 325:0.48631533 326:0.94678478 327:0.896604 328:0.63064763 329:0.26080074 330:0.22091885 331:0.37644409 332:0.17271337 333:0.016460037 337:0.078699964 338:0.3399343 339:0.6041387 340:0.75355455 341:0.64621521 342:0.50126239 343:0.20748265 344:0.05290163 345:0.016134106 351:0.10763403 352:0.27684602 353:0.56334929 354:0.76749992 355:0.55899482 356:0.3125351 357:0.41126948 358:0.14627731 365:0.10518466 366:0.3629737 367:0.39353524 368:0.3759682 369:0.7105175 370:0.47547871 371:0.18021325 372:0.039727816 380:0.071272974 381:0.32489147 382:0.53746212 383:0.45434999 384:0.18133023 390:0.026292255 391:0.025771633 393:0.073798486 394:0.23799151 395:0.48019545 396:0.31733496 402:0.10639584 403:0.10522045 407:0.16233671 408:0.16137113 414:0.11054154 415:0.34191511 416:0.2293034 426:0.032412079 427:0.26099733 428:0.30802376 429:0.093474868 450:0.06662487 451:0.06530561 457:0.45953975 458:0.54858775 459:0.15869271 460:0.095756835 461:0.27418608 462:0.34081095 463:0.3187318 469:0.45475107 470:0.54195045 471:0.15675829 472:0.17743736 473:0.29508963 474:0.34579251 475:0.3402385 481:0.21339282 482:0.21339282 484:0.080460474 485:0.079264584 486:0.022947345 487:0.022492958 500:0.047016578 501:0.046085587 512:0.28080257 513:0.27524231 523:0.23010301 524:0.90647713 525:0.66298101 527:0.37385176 528:0.37106259 535:0.37373656 536:0.99850507 537:0.99155464 539:0.37201341 540:0.37526034 547:0.16560929 548:0.62269993 549:0.61485815 551:0.13806833 552:0.27682873 559:0.096351112 560:0.096351112 561:0.048142835 571:0.072508719 572:0.073237444 573:0.071787246 602:0.20079619 603:0.40259887 604:0.19780672 614:0.20079619 615:0.60440155 616:0.80319978 617:0.3986029 627:0.39660495 628:0.79526735 629:0.3986029 630:0.20079619 631:0.20180268 632:0.40062094 633:0.20079619 641:0.40259887 642:0.60440155 643:0.80021031 644:0.80122185 645:0.59146671 653:0.19780672 654:0.40060091 655:0.79227788 656:0.7982123 657:0.40259887 668:0.19780672 669:0.19780672 690:0.40259887 691:0.3986029 702:0.40259887 703:0.4046169 704:0.19879823 714:0.19780672 715:0.39660495 716:0.19486176 
0.01188348640428649 0.07449858643587103 0.1420978699028298 0.05484716025512777 0.1775673794107822 0.09907165491553503 0.08737530132378822 0.1905814385759959 0.0062169269751784 25:0.1195264 26:0.44227835 27:0.65619538 28:0.44233725 29:0.3559308 30:0.24758906 31:0.11971661 32:0.065848292 37:0.11917042 38:0.43755278 39:0.77095594 40:0.77204075 41:0.73412991 42:0.49888934 43:0.39526585 44:0.28452006 45:0.10808422 49:0.082091847 50:0.20122285 51:0.23146291 52:0.59392398 53:0.49855266 54:0.50217839 55:0.51681065 56:0.4527892 57:0.37016424 65:0.35690987 66:0.36005245 67:0.35292293 68:0.50922016 69:0.78141778 70:0.2794117 71:0.038558697 77:0.488066 78:0.488066 79:0.35662291 80:0.56413828 81:1 82:0.46791759 83:0.27409123 89:0.50626161 90:0.50626161 91:0.495326 92:0.57520873 93:0.73994763 94:0.44736073 95:0.35779711 96:0.21747266 101:0.49744195 102:0.59838446 103:0.57088279 104:0.52288782 105:0.55962266 106:0.043818419 107:0.22061364 108:0.22061364 113:0.24272431 114:0.5932533 115:0.81590713 116:0.49121888 117:0.48137361 119:0.09411215 120:0.09411215 126:0.51405088 127:0.75169493 128:0.49865142 129:0.48877746 138:0.17261475 139:0.26954725 140:0.33558932 141:0.3289442 162:0.053833672 163:0.052767694 169:0.11036104 170:0.45009432 171:0.47528701 172:0.22259294 173:0.08447975 174:0.12326203 175:0.37978944 176:0.25404088 181:0.15932426 182:0.74878723 183:1 184:0.75107637 185:0.34346216 186:0.075458014 187:0.43566742 188:0.41300217 189:0.14229212 193:0.059531838 194:0.32145173 195:0.70743455 196:0.99618285 197:0.75604268 198:0.45989498 199:0.32366311 200:0.36241262 201:0.2703498 207:0.1689343 208:0.4275979 209:0.58728134 210:0.69703078 211:0.46582297 212:0.26722547 213:0.46439961 214:0.22647582 215:0.066468361 221:0.12139814 222:0.37917248 223:0.35180515 224:0.35374969 225:0.80722191 226:0.66681502 227:0.27339144 233:0.011568927 234:0.019795314 235:0.03962646 236:0.19978298 237:0.46078964 238:0.75925254 239:0.74755393 240:0.24907236 245:0.079617148 246:0.1485469 247:0.106798 248:0.039825088 249:0.12448473 250:0.37537851 251:0.62370356 252:0.33220783 257:0.074325454 258:0.33778368 259:0.26401991 260:0.019567045 261:0.019179591 263:0.084286161 264:0.083003937 270:0.45807227 271:0.60283149 272:0.19626888 273:0.037301551 282:0.26062803 283:0.48981844 284:0.38201544 285:0.07379016 305:0.11110567 306:0.24644525 307:0.13265968 313:0.43187762 314:0.78279897 315:0.52351492 316:0.24196271 317:0.19505577 318:0.32219126 319:0.36199193 320:0.10200515 325:0.50225149 326:0.97215696 327:0.96796478 328:0.66164852 329:0.24790549 330:0.25634914 331:0.36939981 332:0.11427108 337:0.083908709 338:0.34685156 339:0.62027158 340:0.8532217 341:0.73065549 342:0.4910698 343:0.18318832 344:0.012023053 351:0.12607214 352:0.37075136 353:0.59226987 354:0.77069468 355:0.47177128 356:0.26799971 357:0.35437847 358:0.14812912 359:0.055172606 365:0.10739444 366:0.36594004 367:0.30806783 368:0.3700145 369:0.64623493 370:0.42024439 371:0.14090576 380:0.10383091 381:0.33359912 382:0.55943945 383:0.46456511 384:0.13365602 389:0.040401216 390:0.081004944 391:0.03979972 393:0.077058895 394:0.26881757 395:0.52961901 396:0.3359979 401:0.040401216 402:0.16651695 403:0.12446299 407:0.21666049 408:0.21451005 414:0.15329553 415:0.38261524 416:0.22798949 426:0.067094312 427:0.29726488 428:0.33430706 429:0.11370692 449:0.24236366 450:0.29483021 451:0.051427649 457:0.42719569 458:0.636785 459:0.28501478 460:0.10639321 461:0.50061137 462:0.55307793 463:0.53117398 469:0.42261378 470:0.62797617 471:0.28074821 472:0.19623984 473:0.27931427 474:0.55625776 475:0.54626145 481:0.19192457 482:0.19192457 484:0.088455698 485:0.087092301 486:0.021006113 487:0.020590164 500:0.0043435721 501:0.48071643 502:0.47174161 503:0.23351218 512:0.2503355 513:0.71712014 514:0.47645887 515:0.23351218 523:0.40168361 524:0.87210494 525:0.87031239 526:0.23351218 527:0.20271824 528:0.19870415 535:0.57720702 536:1 537:0.98894987 539:0.20202427 540:0.20202427 546:0.043562898 547:0.2429303 548:0.43528673 549:0.42666747 551:0.13034106 552:0.13034106 558:0.043562898 559:0.30287773 560:0.26017744 561:0.048051134 570:0.042700294 571:0.23621822 572:0.23873078 573:0.2340036 602:0.250625 603:0.49628729 604:0.24566229 614:0.250625 615:0.74691229 616:0.750625 617:0.49503729 626:0.24566229 627:0.49132458 628:0.74566229 629:0.49503729 630:0.5 631:0.249375 632:0.25188126 633:0.249375 641:0.49628729 642:0.99754355 643:0.99258085 644:0.74939994 645:0.98518582 646:0.24566229 653:0.24566229 654:0.5 655:0.74193097 656:0.74200486 657:0.98891714 658:0.50125 659:0.24566229 668:0.24566229 669:0.49132458 670:0.49628729 671:0.24566229 690:0.5 691:0.49503729 702:0.5 703:0.50250626 704:0.24689368 714:0.24566229 715:0.49255597 716:0.24200486 
0.04761762920578783 0.3229010546285777 0.6337512315834196 0.2536243025717904 0.7831467147207495 0.4298022696327504 0.3495685815507742 0.8385027256818871 0.03146900516735411 14:0.2262791 15:0.32989322 16:0.10574716 26:0.42264723 27:0.5981837 28:0.31129106 29:0.22804566 30:0.11161947 31:0.002657339 32:0.002657339 38:0.24355036 39:0.55298226 40:0.55385756 41:0.66332852 42:0.50244635 43:0.055155404 44:0.169604 45:0.12577072 51:0.48853021 52:0.62591391 53:0.71507238 54:0.76902362 55:0.47899058 56:0.3242014 57:0.15300035 63:0.53972451 64:0.53972451 65:0.48825141 66:0.66535744 67:0.7946935 68:0.54615488 69:0.29577317 75:0.55956678 76:0.55956678 77:0.54841993 78:0.53445163 79:0.68979606 80:0.56798254 81:0.36505704 87:0.5343231 88:0.54855761 89:0.56419384 90:0.57758698 91:0.74355855 92:0.50942244 93:0.30715193 95:0.046202915 96:0.046202915 99:0.32513938 100:0.5324944 101:0.69835652 102:0.63436779 103:0.59398018 104:0.53838032 105:0.78325171 106:0.42225249 107:0.25220297 108:0.11509509 111:0.073751041 112:0.26031832 113:0.4260203 114:0.51066111 115:0.40897912 116:0.47282033 117:1 118:0.6650447 119:0.20464509 120:0.11417102 125:0.091785315 126:0.22323129 127:0.12884317 128:0.20549987 129:0.48952563 130:0.42104407 131:0.13757222 158:0.071303392 159:0.15998569 160:0.15306317 161:0.063559082 170:0.34494826 171:0.62672022 172:0.42122406 173:0.43282684 174:0.44508032 175:0.321524 176:0.16858573 182:0.27029538 183:0.75239462 184:0.69457148 185:0.55951967 186:0.76807807 187:0.83284056 188:0.53681625 189:0.29457127 195:0.38771339 196:0.52555847 197:0.32273558 198:0.5746686 199:0.85655608 200:0.85720448 201:0.37328616 207:0.098525588 208:0.25352355 209:0.1519288 210:0.51102549 211:0.75475307 212:0.4964901 213:0.2070644 219:0.015320734 220:0.017970795 221:0.057115864 222:0.36680573 223:0.72938023 224:0.86211595 225:0.53320496 226:0.10178372 231:0.077029481 232:0.077029481 233:0.026536715 234:0.16352317 235:0.73126516 236:1 237:0.81363294 238:0.48943127 239:0.25447612 240:0.19001168 243:0.12367468 244:0.40772557 245:0.34666949 246:0.065517317 247:0.19894393 248:0.51921721 249:0.78754159 250:0.6570886 251:0.32666079 252:0.29235312 255:0.05788177 256:0.33990109 257:0.49586355 258:0.18877998 259:0.003811002 260:0.31438651 261:0.68431116 262:0.45033309 263:0.072738977 264:0.22439209 268:0.099294482 269:0.28304773 270:0.18218191 272:0.18102669 273:0.3139098 274:0.17910317 275:0.0036136584 302:0.11497027 303:0.33995973 304:0.27673879 305:0.052967292 314:0.28745784 315:0.62610533 316:0.72694276 317:0.67612157 318:0.5566 319:0.39690125 320:0.12911655 326:0.16913279 327:0.39875827 328:0.70211743 329:1 330:0.90474146 331:0.72023737 332:0.46314496 333:0.10833531 339:0.011035193 340:0.11149102 341:0.44309866 342:0.65883952 343:0.60682808 344:0.64459074 345:0.26309289 351:0.0054218615 352:0.0108709 353:0.1024399 354:0.36570079 355:0.47903913 356:0.4099636 357:0.21622265 365:0.1024399 366:0.27125128 367:0.38171004 368:0.33955624 369:0.13560746 370:0.016398896 378:0.15726914 379:0.26554068 380:0.34563665 381:0.30424947 382:0.30814763 383:0.39533637 384:0.21089189 388:0.083647197 389:0.14565833 390:0.061393432 391:0.028991194 392:0.12290287 393:0.30072594 394:0.74152739 395:0.89054572 396:0.61264206 400:0.083561663 401:0.21496522 402:0.18252543 404:0.034543644 405:0.28915455 406:0.53322624 407:0.58361733 408:0.51284613 412:0.026581978 413:0.20786718 414:0.18026169 416:0.033859634 417:0.11600887 418:0.34043055 419:0.29845513 420:0.074096597 446:0.45392807 447:0.44978242 458:0.96855171 459:0.96833472 460:0.53323218 461:0.34452475 462:0.048511859 470:0.50443341 471:0.95929768 472:0.52843763 473:0.65015299 474:0.59297739 475:0.15911422 476:0.1254024 477:0.04629054 484:0.055148885 485:0.54557961 486:1 487:0.61553822 488:0.20555026 489:0.047225671 495:0.037082166 496:0.037082166 497:0.3610884 498:0.82241906 499:0.83269327 500:0.2014801 501:0.04629054 507:0.053795354 508:0.054339311 509:0.177577 510:0.4173589 511:0.57975272 512:0.39749032 513:0.19981758 519:0.016723159 520:0.03638442 521:0.03566396 522:0.17614446 523:0.33522112 524:0.7238648 525:0.7146669 533:0.39716558 534:0.39213465 535:0.030099671 536:0.5587076 537:0.76074671 538:0.52435767 539:0.85372882 540:0.47889162 545:0.64665899 546:0.65109082 547:0.14136085 548:0.29380594 549:0.78517057 550:0.71890985 551:0.84415969 552:0.62384557 557:0.50184335 558:0.61767476 559:0.1135378 561:0.2335245 562:0.46154782 563:0.37289882 564:0.14208367 590:0.33277732 591:0.66555463 592:0.33277732 602:0.6688991 603:0.99502076 604:0.66722268 605:0.66889074 606:0.32782291 614:0.33277732 615:0.66224344 616:0.65240839 617:0.991833 618:0.66226828 619:0.33277732 629:0.32782291 630:0.6688991 631:0.6688991 632:0.32946613 642:0.33277732 643:0.99016494 644:0.66060022 655:0.66722268 656:0.99504559 657:0.32946613 667:0.32782291 668:0.9917344 669:0.65738763 680:0.66226828 681:0.99672201 682:0.66224344 692:0.32782291 693:0.66224344 694:0.6688991 695:0.32946613 706:0.32946613 707:0.32294226 
0.07432200976292709 0.5104255418684331 0.9279047212318555 0.409392113203591 1.276744238558425 0.7419361666920163 0.5546673096792634 1.435609391732838 0.05037765173928611 40:0.065854908 41:0.1133051 42:0.046510613 52:0.065322246 53:0.69453631 54:0.62636927 55:0.17910901 65:0.79171494 66:1 67:0.80648571 77:0.21120784 78:0.69070807 79:0.686649 80:0.0060225272 90:0.057895139 91:0.063917667 92:0.0059032732 93:0.084008895 94:0.24567071 95:0.1584607 104:0.42632116 105:0.50967754 106:0.48428278 107:0.48107265 116:0.42632116 117:0.43027457 118:0.86732555 119:0.4762246 128:0.032300552 129:0.42175456 130:0.38174231 157:0.081202957 158:0.37316327 159:0.39856052 160:0.10806718 169:0.079595031 170:0.36979968 171:0.77360541 172:0.62721911 173:0.14177171 182:0.093776637 183:0.42087373 184:0.9605328 185:0.72615839 186:0.15156834 196:0.4401562 197:0.99773537 198:0.69327756 199:0.11718734 209:0.45048182 210:0.89013183 211:0.44437228 221:0.10924692 222:0.70402773 223:1 224:0.44236853 234:0.15202576 235:0.7331018 236:0.86181902 237:0.37800652 238:0.40928951 239:0.12142045 247:0.13420895 248:0.4170644 249:0.37838463 250:0.54284208 251:0.4420271 259:0.001234955 260:0.0063271136 261:0.0063660027 262:0.35988637 263:0.35208217 272:0.0012226669 273:0.0062399474 274:0.0049416627 301:0.12689674 302:0.30501577 303:0.21764352 304:0.041176379 313:0.12438402 314:0.30119707 315:0.38436546 316:0.17189101 317:0.036991008 326:0.058299327 327:0.19162024 328:0.22256335 329:0.098219595 330:0.0090034769 340:0.051695006 341:0.060396302 342:0.0090034769 354:0.00089374577 355:0.00089374577 366:0.016553747 367:0.10405272 368:0.086809737 378:0.015349913 379:0.1921532 380:0.39008587 381:0.46136432 382:0.29373777 383:0.0834502 391:0.2228547 392:0.72373624 393:1 394:0.84086111 395:0.40108206 403:0.13499063 404:0.42413841 405:0.55179073 406:0.60144998 407:0.31644124 416:0.26477768 417:0.31767258 418:0.054441512 535:0.0062644512 536:0.70712858 537:0.99973099 538:0.4879605 539:0.2420159 547:0.0062644512 548:0.70376078 549:0.99034092 550:0.75005537 551:0.2420159 560:0.26698978 561:0.52896184 562:0.25690504 589:0.99501248 590:0.99501248 591:0.97530991 601:0.97530991 602:0.99501248 603:0.97530991 679:0.99004983 680:0.99004983 691:0.99004983 692:1 693:0.98019867 704:0.98019867 705:0.96078944 
0.07016911699916982 0.5095440203780525 0.9246311051865523 0.3668918739412249 1.404740872105829 0.6539438835156525 0.5034630651941827 1.404049412822458 0.04887739973527468 40:0.002345809 41:0.15815994 42:0.15272881 52:0.0022993589 53:0.3214739 54:0.31610412 55:0.115481 65:0.16178 66:0.28005918 67:0.16131931 78:0.15275238 79:0.1498196 82:0.039212132 83:0.03843568 90:0.4873216 91:0.69642004 92:0.38632021 93:0.16864556 94:0.096160406 95:0.096160406 96:0.055820622 102:0.59303595 103:0.90386556 104:0.57470552 105:0.33774725 106:0.20540319 107:0.095383953 108:0.055820622 114:0.27626992 115:0.52260266 116:0.41265959 117:0.33105941 118:0.16366134 127:0.053698954 128:0.053698954 145:0.15641636 146:0.15488973 157:0.24483507 158:0.53278529 159:0.52971289 160:0.23975061 169:0.086667907 170:0.37235672 171:0.65258708 172:0.78949836 173:0.41777134 183:0.21489044 184:0.7294075 185:0.97166447 186:0.45401211 196:0.1511631 197:0.71493387 198:0.68406608 199:0.14715851 209:0.25976414 210:0.80968634 211:0.78124863 212:0.23472046 222:0.6516781 223:1 224:0.66809096 225:0.35946255 226:0.25147404 227:0.14807424 234:0.3147508 235:0.6536338 236:0.89118244 237:0.42222804 238:0.36995436 239:0.33461359 240:0.11682125 246:0.30634754 247:0.7085671 248:0.50192771 249:0.068049017 250:0.21464647 251:0.33034774 252:0.11682125 258:0.24418646 259:0.39481246 260:0.23819002 261:0.0029500951 262:0.0021617005 271:0.095176354 272:0.095176354 289:0.19087405 290:0.18842331 301:0.25603162 302:0.41409802 303:0.23933603 304:0.077449567 313:0.12131559 314:0.31018967 315:0.33806473 316:0.23161826 317:0.080721036 327:0.098063293 328:0.2001219 329:0.1150173 330:0.012833344 340:0.021356305 341:0.034202735 342:0.015437583 343:0.01151623 353:0.0036887093 354:0.08868306 355:0.1500078 356:0.064920605 366:0.15322025 367:0.30025241 368:0.36257695 369:0.43758197 370:0.28916727 371:0.076166009 378:0.080840013 379:0.31498308 380:0.56429068 381:0.8989938 382:0.89845421 383:0.56417252 384:0.12576224 390:0.051798816 391:0.44750847 392:0.64620576 393:0.68696852 394:0.78200977 395:0.56061746 396:0.12576224 402:0.050773131 403:0.29287906 404:0.42832703 405:0.48711943 406:0.22056371 415:0.10850526 416:0.10850526 510:0.17347542 511:0.17004038 522:0.22324534 523:0.28958842 524:0.39946123 525:0.77216871 526:0.95063408 527:0.73701683 528:0.27206556 534:0.21931508 535:0.60936363 536:0.91802343 537:0.80274829 538:0.99959211 539:0.73701683 540:0.27206556 547:0.48587722 548:0.5954699 549:0.56660837 550:0.45114284 559:0.23828973 560:0.23828973 577:0.33277732 578:0.32618788 589:0.33277732 590:0.33277732 601:0.32618788 602:0.32618788 667:0.6638949 668:0.6638949 669:0.32618788 679:0.99008278 680:1 681:0.98019867 691:0.32618788 692:0.66060022 693:0.64751946 
