svm_type c_svc
kernel_type rbf
gamma 0.125
nr_class 10
total_sv 640
rho -0.575571 0.786466 0.483424 -0.746633 -0.690031 -0.864495 -0.266517 -0.145415 -0.418867 0.941844 0.822568 -0.318545 -0.199372 -0.591131 0.354823 0.455133 0.193612 -0.45942 -0.959624 -0.95919 -0.979509 -0.857734 -0.816234 -0.896116 -0.901012 -0.875242 -0.949515 -0.659608 -0.577739 -0.743949 0.129998 -0.33665 0.604683 0.672999 0.480168 -0.447822 0.518182 0.603154 0.37859 0.779206 0.824142 0.703048 0.121972 -0.170666 -0.286558
label 0 1 2 3 4 5 6 7 8 9
probA -3.93847 -5.40826 -4.83879 -3.67664 -6.71565 10.7436 -4.1061 -6.49735 -5.88063 -5.11594 -4.44032 -2.88262 -3.25907 13.6726 -3.52326 -4.13522 -4.00534 -11.2078 -5.13768 -6.53701 50.7152 -6.39996 -27.2769 -8.23014 -4.79251 -4.38029 32.4775 -4.76139 -10.3592 -7.4047 -2.1281 1.97663 -2.89718 -2.91535 -2.73616 2.29777 -3.19227 -2.79342 -2.79171 6.81064 9.31382 7.53727 -4.43002 -3.72193 -3.03672
probB -0.457642 -0.25731 -0.313939 -0.207447 2.75435 -14.2906 0.193269 1.85223 1.39359 1.09773 0.228779 -0.0383135 0.359193 -15.8817 0.117437 0.444911 0.553025 4.35737 -0.680622 1.04126 -56.3894 1.0872 21.142 3.00235 0.474687 0.386683 -36.0213 0.579275 4.89719 2.6348 0.111986 -2.93106 0.0945609 0.0835467 0.0720759 -2.75701 -0.529317 0.0556085 -0.115863 8.63873 10.2927 8.65673 0.422638 0.228157 0.195191
nr_sv 49 13 447 85 3 4 1 15 13 10
SV
0.2996857315651881 1.221132722932756 0.9517275029228524 0.1719154589026272 0.2022898926632571 0.08181309701052565 0.4733023114873653 0.5318848394188184 0.3640465053501639 5:0.14386098 6:0.28435344 7:0.13862445 17:0.28546354 18:0.52370977 19:0.40138596 20:0.09365454 26:0.12483695 27:0.16000354 28:0.035491194 29:0.14161885 30:0.43391451 31:0.57263135 32:0.24326444 38:0.28192698 39:0.42467295 40:0.19495641 42:0.33585497 43:0.59849758 44:0.26407879 50:0.26065994 51:0.43977643 52:0.37022807 53:0.07116053 54:0.28608423 55:0.5518408 56:0.41122092 57:0.29936932 58:0.19301931 59:0.036571801 62:0.23472464 63:0.30500069 64:0.33780399 65:0.10612425 66:0.32243949 67:0.56510532 68:0.64702291 69:0.77132978 70:0.45952895 71:0.25922051 72:0.1486275 74:0.20200336 75:0.25567946 76:0.20769083 77:0.061940655 78:0.40389719 79:0.69072044 80:0.83532716 81:0.87045735 82:0.70517158 83:0.43453432 84:0.27948548 86:0.24860995 87:0.35569177 88:0.23189775 89:0.054089123 90:0.37195944 91:0.67497404 92:0.53675308 93:0.60033171 94:0.41725076 95:0.20227141 96:0.20109163 98:0.24081784 99:0.3418585 100:0.20413989 101:0.026575316 102:0.34607759 103:0.5427375 104:0.27822554 105:0.21483571 106:0.16555891 107:0.025824995 108:0.025313626 110:0.10105241 111:0.15555125 112:0.053953872 114:0.45118212 115:0.54917472 116:0.25411616 125:0.073428379 126:0.52565974 127:0.55386017 128:0.25670447 137:0.14722482 138:0.43022864 139:0.5331928 140:0.10379718 149:0.10934007 150:0.37835854 151:0.26544388 161:0.16759975 162:0.60017099 163:0.4915425 164:0.17158754 170:0.28757714 171:0.39421216 172:0.10592096 173:0.059239934 174:0.36062443 175:0.61289758 176:0.40043342 182:0.50144249 183:0.93082945 184:0.49852826 186:0.19573582 187:0.54822876 188:0.37276899 194:0.35678561 195:0.89299956 196:0.8545907 197:0.21237308 198:0.11967096 199:0.46000056 200:0.3985115 201:0.13184768 202:0.32356243 203:0.30570051 206:0.52203075 207:0.73046843 208:0.64006272 209:0.31671792 210:0.44973233 211:0.73676867 212:0.54906296 213:0.39384228 214:0.36901254 215:0.45003467 216:0.28430312 218:0.50501654 219:0.63228499 220:0.7128319 221:0.47785738 222:0.53395428 223:0.82160645 224:0.83336856 225:0.81856777 226:0.41350157 227:0.32374218 228:0.32021788 230:0.12515711 231:0.37816261 232:0.68891312 233:0.60344045 234:0.39141431 235:0.37441817 236:0.50217628 237:0.71077853 238:0.5342404 239:0.056702282 240:0.038658116 242:0.28592125 243:0.28449521 244:0.29126518 245:0.31372932 246:0.22061128 247:0.093030496 248:0.13477637 249:0.43198832 250:0.34575632 251:0.017686867 254:0.28025963 255:0.28449521 256:0.13977949 293:0.071338016 294:0.14303362 295:0.14090764 305:0.069925429 306:0.14232023 307:0.14090764 314:0.036831935 315:0.036648237 316:0.018006408 326:0.036102614 327:0.036648237 328:0.018006408 340:0.23342592 341:0.43931823 342:0.41277347 343:0.2962414 344:0.59131757 345:0.65554713 346:0.39969172 347:0.20250519 350:0.18616521 351:0.18523053 352:0.22929822 353:0.43110379 354:0.66751196 355:0.83096426 356:0.93716578 357:0.99076595 358:0.76562713 359:0.30781339 360:0.032667615 362:0.18247889 363:0.21138317 364:0.19016236 365:0.35435747 366:0.651177 367:0.81546939 368:0.90627172 369:0.88677805 370:0.51811019 371:0.1727731 372:0.032020753 375:0.030119052 376:0.18894242 377:0.35375809 378:0.46812429 379:0.44178125 380:0.55739472 381:0.57597676 382:0.49139061 383:0.27758637 384:0.074901677 386:0.07203565 387:0.07203565 388:0.10072808 389:0.22334112 390:0.38452689 391:0.28400499 392:0.27710243 393:0.36697228 394:0.3817799 395:0.2720898 396:0.073418524 398:0.070609249 399:0.07203565 400:0.070609249 425:0.10396731 426:0.20845576 427:0.20535739 437:0.041196135 438:0.082583946 439:0.081356392 449:0.040380397 450:0.082172131 451:0.081356392 458:0.21662002 459:0.21553963 460:0.10589992 470:0.21233066 471:0.21553963 472:0.10589992 482:0.068323842 483:0.068323842 484:0.19991612 485:0.19595752 487:0.061567322 488:0.15919081 489:0.25155081 490:0.15035159 491:0.010928491 494:0.15187895 495:0.15241747 496:0.33386968 497:0.19891904 498:0.23401548 499:0.42473857 500:0.61613994 501:0.66484083 502:0.43426029 503:0.069039827 504:0.037028584 506:0.28020657 507:0.45727382 508:0.42480457 509:0.18486985 510:0.59216692 511:0.90768136 512:0.96656229 513:0.82619686 514:0.58870275 515:0.37311257 516:0.20659567 518:0.34699377 519:0.69905934 520:0.52191294 521:0.17471578 522:0.3911623 523:0.68717297 524:0.71108742 525:0.53459292 526:0.49872853 527:0.3796373 528:0.3339193 530:0.23747215 531:0.50726229 532:0.50092746 533:0.085845543 534:0.15406517 535:0.35247115 536:0.25337962 537:0.16994525 538:0.1566928 539:0.16858399 540:0.12553567 542:0.087137138 543:0.21369237 544:0.17427926 546:0.22447904 547:0.33353638 548:0.26104985 557:0.017651333 558:0.29548012 559:0.35614501 560:0.25094847 569:0.035390893 570:0.21554625 571:0.2833708 572:0.097680067 581:0.11209826 582:0.22475841 583:0.22141772 593:0.10987856 594:0.22363742 595:0.22141772 602:0.33685666 603:0.33240615 604:0.10987856 614:0.33240615 615:0.33573567 616:0.10987856 626:0.11153916 627:0.22307833 628:0.33629757 629:0.22030789 630:0.22475841 631:0.4445044 632:0.44561423 633:0.5571534 634:0.33351598 635:0.10987856 638:0.11153916 639:0.22307833 640:0.4467269 641:0.33406675 642:0.44728599 643:0.7747239 644:0.77913021 645:0.77857112 646:0.55716455 647:0.22030789 650:0.11209826 651:0.22419651 652:0.66206655 653:0.43953897 654:0.4450663 655:0.77250701 656:0.77802318 657:1 658:0.77027619 659:0.10824268 662:0.22197682 663:0.32963568 664:0.44561423 665:0.44617613 666:0.33406675 667:0.44008974 668:0.44008974 669:0.55603524 670:0.44232056 671:0.11042933 674:0.33685666 675:0.33573567 676:0.21975712 677:0.22030789 678:0.21812124 679:0.10987856 680:0.11042933 681:0.10824268 682:0.11042933 683:0.10824268 686:0.22141772 687:0.33351598 688:0.10987856 713:0.11209826 714:0.22475841 715:0.22141772 
0.2104839065658297 0.913642512690954 0.7482996717613415 0.1266877131892488 0.1623095254111174 0.06781652234852963 0.3809556439318271 0.4243103070257887 0.2908283994781245 5:0.2290479 6:0.54998548 7:0.31596552 17:0.2267745 18:0.92620171 19:0.76879825 20:0.14202703 26:0.082862806 27:0.1392149 28:0.055236248 30:0.6076272 31:0.94756344 32:0.37650542 38:0.24900799 39:0.55769884 40:0.33244401 41:0.055235525 42:0.4581072 43:0.85886234 44:0.4015375 50:0.16449612 51:0.6379278 52:0.74694804 53:0.2220554 54:0.45753456 55:0.79767103 56:0.34526652 57:0.17211326 58:0.11101232 59:0.050258086 62:0.1353416 63:0.47243713 64:0.69353196 65:0.22207369 66:0.22733858 67:0.39977045 68:0.37584031 69:0.44253679 70:0.42008093 71:0.33111325 72:0.21607093 74:0.21303224 75:0.45769699 76:0.45891213 77:0.097180432 78:0.11769173 79:0.19514353 80:0.19797659 81:0.62205929 82:0.76319057 83:0.72871844 84:0.46719288 86:0.27788739 87:0.5433326 88:0.53784627 89:0.16694102 90:0.353665 91:0.59028431 92:0.3897534 93:0.37138115 94:0.4547021 95:0.576351 96:0.30718596 98:0.25221137 99:0.4726837 100:0.63343954 101:0.16486671 102:0.55256861 103:0.86949723 104:0.66353932 105:0.16420995 106:0.14503189 107:0.16459744 108:0.033089929 110:0.054455433 111:0.23689625 112:0.27537996 113:0.040703624 114:0.7244392 115:0.87846524 116:0.519195 126:0.83024188 127:0.8967952 128:0.42032713 138:0.52253544 139:0.72735355 140:0.27062264 149:0.059974762 150:0.32764945 151:0.26415238 161:0.059379488 162:0.55934332 163:0.57568449 164:0.17733565 170:0.071709151 171:0.17965313 172:0.10580654 174:0.29192972 175:0.62813283 176:0.41626637 182:0.21548876 183:0.71933605 184:0.49813467 185:0.10580569 186:0.1199559 187:0.50401963 188:0.38302591 194:0.14235255 195:0.78641671 196:1 197:0.4253558 198:0.11980596 199:0.38961466 200:0.281034 201:0.13423087 202:0.35744042 203:0.35379444 206:0.2344708 207:0.61063303 208:0.81943065 209:0.42538909 210:0.059527235 211:0.18996107 212:0.23071174 213:0.28249609 214:0.57126436 215:0.64313586 216:0.38702713 218:0.23233379 219:0.56040237 220:0.78695279 221:0.4378582 222:0.14462861 223:0.10069217 224:0.11621332 225:0.63181685 226:0.70262661 227:0.59653371 228:0.4554259 230:0.10845635 231:0.37678556 232:0.53859869 233:0.43247791 234:0.31909234 235:0.10069217 236:0.11621332 237:0.52941069 238:0.51552673 239:0.23174161 240:0.070374772 242:0.24833609 243:0.33650408 244:0.33156511 245:0.15485493 246:0.17100911 247:0.028382725 248:0.10712669 249:0.2772864 250:0.34055935 251:0.15662512 254:0.13710994 255:0.33433491 256:0.3294389 293:0.10244283 294:0.20540485 295:0.20235186 305:0.10041432 306:0.20438036 307:0.20235186 314:0.028440183 315:0.057022923 316:0.028016764 326:0.028440183 327:0.057308752 328:0.056739939 339:0.056173963 340:0.18464127 341:0.47819069 342:0.43889547 343:0.29137805 344:0.4268653 345:0.62763536 346:0.63830672 347:0.28597073 350:0.13315201 351:0.26112111 352:0.31007641 353:0.47819069 354:0.58861286 355:0.29283859 356:0.4268653 357:0.89670021 358:1 359:0.62918032 360:0.048653124 362:0.13051542 363:0.25984779 364:0.34002522 365:0.49159649 366:0.60497402 367:0.40883171 368:0.39923958 369:0.80907873 370:0.78967897 371:0.34459126 372:0.047689728 376:0.21228658 377:0.49013452 378:0.58551547 379:0.41778145 380:0.40535676 381:0.54261682 382:0.55517943 383:0.39460393 384:0.10526557 386:0.076975172 387:0.18090765 388:0.17834929 389:0.27459119 390:0.54645977 391:0.40950882 392:0.39733016 393:0.52222734 394:0.54418614 395:0.38679024 396:0.10318117 398:0.075450961 399:0.1798735 400:0.17834929 426:0.14825685 427:0.14678167 437:0.04396732 438:0.088164573 439:0.086854192 449:0.043096709 450:0.087724803 451:0.086854192 458:0.11544101 459:0.23145402 460:0.1137158 470:0.11544101 471:0.23261422 472:0.23030536 483:0.22800815 484:0.22574501 485:0.21128879 488:0.01388022 489:0.17994094 490:0.17658434 491:0.023485266 494:0.019690683 495:0.097272866 496:0.2894529 497:0.21447665 498:0.10537765 500:0.01388022 501:0.31402147 502:0.31916691 503:0.15193273 504:0.049889696 506:0.10406279 507:0.50500843 508:0.59495927 509:0.30947269 510:0.10329103 511:0.082388859 512:0.062487444 513:0.27510354 514:0.52468777 515:0.42380566 516:0.24543674 518:0.18463044 519:0.80584957 520:0.81282639 521:0.3950182 522:0.059803985 523:0.2457323 524:0.18471885 525:0.22843592 526:0.39032728 527:0.4300369 528:0.37953348 530:0.098671294 531:0.49567146 532:0.87721259 533:0.3901146 534:0.13712402 535:0.3774335 536:0.30361819 537:0.12176678 538:0.042922985 539:0.17794744 540:0.13242932 543:0.23603297 544:0.33352056 545:0.096314531 546:0.25080784 547:0.37357165 548:0.31108272 558:0.31355761 559:0.36041733 560:0.27658142 570:0.19957729 571:0.27561027 572:0.15023578 581:0.14521532 582:0.29115853 583:0.28683092 593:0.14233986 594:0.28970637 595:0.28683092 602:0.14449105 603:0.28970637 604:0.14233986 614:0.14449105 615:0.29115853 616:0.28826866 627:0.28539321 628:0.43204623 629:0.28683092 630:0.28970637 631:0.43132197 632:0.28970637 633:0.43204623 634:0.28970637 635:0.14233986 639:0.29115853 640:0.57509958 641:0.29115853 642:0.28970637 643:0.43132197 644:0.43421187 645:0.5743861 646:0.43637385 647:0.42773307 651:0.43132197 652:0.71892363 653:0.57509958 654:0.42490042 655:0.28898211 656:0.4256139 657:0.57798945 658:0.57797503 659:0.42490042 662:0.14449105 663:0.2875444 664:0.57010496 665:0.43564958 666:0.28539321 667:0.28898211 668:0.28899656 669:0.42988426 670:0.43564958 671:0.28539321 674:0.14449105 675:0.29043427 676:0.2875444 677:0.14305334 678:0.1402207 679:0.14305334 680:0.28327404 681:0.1402207 682:0.14305334 683:0.1402207 687:0.2875444 688:0.28471175 702:0.14521532 703:0.14233986 714:0.29115853 715:0.28970637 
0.1043209285601709 0.4214167275758483 0.3516646441998649 0.06062979123627146 0.08066129487756379 0.03189601941800233 0.174455448193986 0.1991610495349633 0.1376905387560227 5:0.23268565 6:0.50257069 7:0.26596063 17:0.23037615 18:0.89051433 19:0.69274995 20:0.14754799 26:0.085018407 27:0.20269503 28:0.11534647 30:0.62270788 31:0.84735755 32:0.30946249 38:0.25548625 39:0.54807131 40:0.40210663 41:0.057528877 42:0.46538284 43:0.88878832 44:0.42580524 50:0.16877588 51:0.57253547 52:0.68615219 53:0.23127495 54:0.46538283 55:0.89926493 56:0.43965151 57:0.17630753 58:0.14087166 59:0.053972113 62:0.1462837 63:0.43974926 64:0.63701 65:0.23129397 66:0.34700976 67:0.43293546 68:0.35503069 69:0.60558036 70:0.4703105 71:0.27045211 72:0.13532312 74:0.26968223 75:0.48137778 76:0.4825953 77:0.10183201 78:0.11946269 79:0.19911207 80:0.21158135 81:0.65129027 82:0.70762801 83:0.57066056 84:0.44045386 86:0.32912486 87:0.56398604 88:0.55968358 89:0.17632737 90:0.47904822 91:0.80113334 92:0.47812876 93:0.43275079 94:0.3805016 95:0.34311352 96:0.34084528 98:0.26235706 99:0.49107305 100:0.61625914 101:0.13027583 102:0.59793286 103:1 104:0.75721467 105:0.29095623 106:0.13439153 107:0.037288801 108:0.036550434 110:0.058272849 111:0.25107658 112:0.24784632 114:0.65362114 115:0.92842176 116:0.44770529 126:0.84114425 127:0.83165823 128:0.34616723 138:0.54637627 139:0.75450215 140:0.27233004 149:0.064475105 150:0.35476198 151:0.28646261 161:0.063835183 162:0.60179298 163:0.53288788 164:0.19126395 170:0.077182325 171:0.31054146 172:0.22873832 174:0.31179414 175:0.58874341 176:0.3596152 182:0.23193573 183:0.812154 184:0.61684288 185:0.11408437 186:0.1289527 187:0.5145506 188:0.38193036 194:0.15321743 195:0.76969282 196:0.99999558 197:0.45863773 198:0.12895274 199:0.49291214 200:0.39334296 201:0.1444029 202:0.41666721 203:0.4122073 206:0.25096725 207:0.51903987 208:0.80499449 209:0.4586738 210:0.096151974 211:0.20385111 212:0.37023668 213:0.54823101 214:0.64366626 215:0.61402926 216:0.30993696 218:0.38611543 219:0.60263317 220:0.84987585 221:0.3259439 222:0.043372146 223:0.11342863 224:0.32646786 225:0.60973989 226:0.54729952 227:0.54544093 228:0.38651323 230:0.24940105 231:0.40951529 232:0.54499024 233:0.32318216 234:0.19586893 235:0.11342863 236:0.13095192 237:0.38008027 238:0.2888468 239:0.098044046 240:0.078738574 242:0.27495877 243:0.27611162 244:0.27064424 245:0.17374282 246:0.19199047 247:0.032015211 248:0.12069051 249:0.31028698 250:0.22086006 251:0.018923198 254:0.15707611 255:0.27381739 256:0.26839544 293:0.079781947 294:0.1599685 295:0.15759085 305:0.078202159 306:0.15917063 307:0.15759085 314:0.041434242 315:0.041434242 316:0.020357662 326:0.04102299 327:0.041641932 328:0.040817367 339:0.020459705 340:0.14364868 341:0.37470791 342:0.345415 343:0.22931736 344:0.33683722 345:0.63582751 346:0.62811973 347:0.22265449 350:0.10448325 351:0.20438759 352:0.24157478 353:0.37470791 354:0.46324404 355:0.23046681 356:0.44836055 357:0.91987632 358:1 359:0.47913759 360:0.02594057 362:0.10241435 363:0.20339353 364:0.26327487 365:0.36236708 366:0.45407119 367:0.32118638 368:0.42271039 369:0.70988311 370:0.65778648 371:0.25282636 372:0.025426912 376:0.14329499 377:0.36169314 378:0.43815294 379:0.32834556 380:0.31832759 381:0.42711838 382:0.43145284 383:0.30307159 384:0.080370303 386:0.080563189 387:0.1615302 388:0.15912931 389:0.21580818 390:0.42947693 391:0.32184388 392:0.31202428 393:0.4099408 394:0.4229095 395:0.29707037 396:0.078778864 398:0.078967931 399:0.16072457 400:0.15912931 426:0.11667958 427:0.1155186 437:0.050862714 438:0.10199109 439:0.1004752 449:0.049855565 450:0.10148235 451:0.1004752 458:0.26637088 459:0.26637088 460:0.1308709 470:0.26372711 471:0.26770611 472:0.26240517 483:0.13153427 484:0.24580246 485:0.24336269 487:0.00800944 488:0.12186364 489:0.25549049 490:0.14491858 491:0.018195044 494:0.023377741 495:0.1091687 496:0.32989464 497:0.24703451 498:0.12137055 499:0.00800944 500:0.27786926 501:0.53135168 502:0.52422942 503:0.12248945 504:0.046075823 506:0.11718413 507:0.56161443 508:0.65932985 509:0.35207639 510:0.11896725 511:0.090988023 512:0.22195322 513:0.520459 514:0.60510997 515:0.42763289 516:0.23563812 518:0.20689859 519:0.7855317 520:0.85049836 521:0.4375623 522:0.088025254 523:0.36128892 524:0.2710122 525:0.24980777 526:0.42914922 527:0.44096682 528:0.37484057 530:0.16106115 531:0.58939528 532:0.91195135 533:0.32328576 534:0.10987059 535:0.44270968 536:0.40295115 537:0.13659816 538:0.062062553 539:0.1998793 540:0.13735842 542:0.048783047 543:0.31268011 544:0.31080998 546:0.21350547 547:0.37091236 548:0.28162794 558:0.35151164 559:0.34921823 560:0.24518855 570:0.22820902 571:0.31224772 572:0.16955203 581:0.16974144 582:0.34033371 583:0.33527518 593:0.16638033 594:0.33863629 595:0.33527518 602:0.33863629 603:0.50922856 604:0.33527518 614:0.33527518 615:0.50922856 616:0.5024895 627:0.16974144 628:0.50501662 629:0.33527518 630:0.16974144 631:0.33527518 632:0.3377897 633:0.50753113 634:0.33863629 635:0.16638033 639:0.34033371 640:0.67223093 641:0.34033371 642:0.33695575 643:0.33527518 644:0.50753113 645:0.8436529 646:0.84366979 647:0.49997498 651:0.50417003 652:0.83944521 653:0.5024895 654:0.33028358 655:0.3377897 656:0.33527518 657:0.67224778 658:0.83613419 659:0.33028358 662:0.16889485 663:0.33610916 664:0.50001242 665:0.33948712 666:0.16889485 667:0.3377897 668:0.33780659 669:0.33610916 670:0.33948712 671:0.16721432 674:0.16889485 675:0.33948712 676:0.33610916 677:0.16721432 678:0.16390325 679:0.16721432 680:0.33111757 681:0.16390325 682:0.16721432 683:0.16390325 687:0.33610916 688:0.3327981 714:0.17059227 715:0.16889485 
0.07774214817735978 0.3883407488590946 0.3334735250580565 0.0532852474472739 0.04591238884649863 0.03003546894925484 0.1608994050801558 0.1817820337950204 0.1294416120943472 5:0.20276868 6:0.41142498 7:0.20578171 17:0.30239348 18:0.85172794 19:0.67736295 20:0.12987654 26:0.074270981 27:0.17744745 28:0.10113343 29:0.099624803 30:0.71437899 31:0.91045781 32:0.34126403 38:0.22318662 39:0.47972163 40:0.3520234 41:0.050441789 42:0.47616828 43:0.84643839 44:0.37234813 50:0.2220808 51:0.57554184 52:0.67369728 53:0.20278055 54:0.40554744 55:0.78527673 56:0.46931628 57:0.30564932 58:0.26979366 59:0.050889705 62:0.22222929 63:0.47784575 64:0.6092798 65:0.20279582 66:0.30239388 67:0.37787616 68:0.47807337 69:0.76516788 70:0.64526579 71:0.36296517 72:0.14016622 74:0.25890051 75:0.39277441 76:0.3903414 77:0.089416264 78:0.10408183 79:0.17371749 80:0.54555336 81:0.85579152 82:0.99285893 83:0.62915876 84:0.40726897 86:0.28545369 87:0.44102352 88:0.38977387 89:0.11595508 90:0.31381321 91:0.59301207 92:0.51909414 93:0.63136294 94:0.48635849 95:0.29918977 96:0.29726183 98:0.22648394 99:0.37950211 100:0.45129113 101:0.076216637 102:0.49066253 103:0.83940073 104:0.45513199 105:0.27123446 106:0.13232221 107:0.031368196 108:0.030747064 110:0.052849817 111:0.21964559 112:0.21682832 114:0.64140466 115:0.78029156 116:0.36203944 126:0.64632422 127:0.79078383 128:0.36947013 138:0.41529919 139:0.56987698 140:0.15151694 149:0.05986315 150:0.33051696 151:0.26707796 161:0.089276513 162:0.58861702 163:0.49460869 164:0.17632976 170:0.071682777 171:0.28850966 172:0.21253342 173:0.02941332 174:0.39619743 175:0.65134292 176:0.40780157 182:0.21540967 183:0.75452164 184:0.57308108 185:0.10600377 186:0.19668297 187:0.55318178 188:0.37762139 194:0.21434275 195:0.78707843 196:0.99964001 197:0.42614712 198:0.11972684 199:0.4566656 200:0.39218044 201:0.1327 202:0.46954798 203:0.444709 206:0.42653507 207:0.67347495 208:0.83592839 209:0.42617938 210:0.08927258 211:0.1885758 212:0.3157579 213:0.45521599 214:0.63720798 215:0.59699124 216:0.28753356 218:0.47918567 219:0.681732 220:0.83088406 221:0.45830128 222:0.030552483 223:0.096363861 224:0.51016287 225:0.87874331 226:0.73733092 227:0.49671213 228:0.32958936 230:0.22906186 231:0.38067433 232:0.66310149 233:0.45527183 234:0.18385951 235:0.096363861 236:0.38008585 237:0.76280409 238:0.67181851 239:0.062882825 240:0.044737163 242:0.23743209 243:0.23847522 244:0.3640386 245:0.29335121 246:0.18021884 247:0.01998246 248:0.1034894 249:0.43021023 250:0.34369321 251:0.017786354 254:0.13099322 255:0.23639934 256:0.23171832 293:0.087832508 294:0.17610973 295:0.17349216 305:0.086093308 306:0.17523136 307:0.17349216 314:0.044770619 315:0.044770619 316:0.021996906 326:0.044326252 327:0.044995033 328:0.044104071 339:0.022107166 340:0.1886861 341:0.44375847 342:0.38129884 343:0.25314026 344:0.6130826 345:0.81606869 346:0.53307265 347:0.24983475 350:0.23082378 351:0.33316917 352:0.2905473 353:0.44315289 354:0.54134609 355:0.25440913 356:0.68563871 357:1 358:0.93555582 359:0.3247445 360:0.015841436 362:0.22625316 363:0.33316917 364:0.29657305 365:0.43638423 366:0.50124291 367:0.24937149 368:0.54972826 369:0.77490008 370:0.56307093 371:0.19961486 372:0.015527754 376:0.19538523 377:0.43564907 378:0.4835026 379:0.24054559 380:0.47133241 381:0.59435729 382:0.5993619 383:0.32629056 384:0.082889231 386:0.088698871 387:0.088698871 388:0.12388396 389:0.27508759 390:0.47392861 391:0.23578246 392:0.22723917 393:0.45222649 394:0.46437289 395:0.31982957 396:0.081247914 398:0.086942516 399:0.088698871 400:0.086942516 426:0.12880098 427:0.12751939 437:0.06486399 438:0.13005311 439:0.12812008 449:0.063579597 450:0.12940447 451:0.12812008 458:0.33917032 459:0.33917032 460:0.16663726 470:0.33580403 471:0.34087048 472:0.33412079 483:0.16748353 484:0.41929887 485:0.31072268 486:0.15380385 487:0.010214294 488:0.17586136 489:0.35032766 490:0.18207257 491:0.017208819 494:0.059897276 495:0.27521854 496:0.52218947 497:0.31382989 498:0.15380385 499:0.010214294 500:0.45792342 501:0.7489239 502:0.61781111 503:0.089529882 504:0.046542553 506:0.20259374 507:0.61488217 508:0.7094165 509:0.29244175 510:0.027652156 511:0.11465305 512:0.36598267 513:0.82245519 514:0.90123639 515:0.55134425 516:0.29049746 518:0.28578016 519:0.86781189 520:0.80622467 521:0.41245828 522:0.083372973 523:0.42761057 524:0.34194421 525:0.64351453 526:0.78091543 527:0.56846582 528:0.47520395 530:0.20374871 531:0.62637979 532:0.89606786 533:0.27111036 534:0.19181711 535:0.61087557 536:0.45351664 537:0.34477787 538:0.26037134 539:0.27043921 540:0.18197066 542:0.062198498 543:0.39895125 544:0.39650092 546:0.35006207 547:0.52143053 548:0.40788131 558:0.42421978 559:0.5490631 560:0.39022004 570:0.2670628 571:0.37285891 572:0.15038944 581:0.144185 582:0.28909273 583:0.28479582 593:0.14132994 594:0.28765087 595:0.28479582 602:0.28765087 603:0.4325586 604:0.28479582 614:0.28479582 615:0.4325586 616:0.42683418 627:0.144185 628:0.57316582 629:0.42898082 630:0.144185 631:0.28479582 632:0.28693175 633:0.57530175 634:0.42898082 635:0.14132994 639:0.144185 640:0.57031076 641:0.43327773 642:0.42755331 643:0.28479582 644:0.57458262 645:0.86009756 646:0.71664604 647:0.28336831 651:0.28479582 652:0.56959164 653:0.42683418 654:0.28765087 655:0.42826169 656:0.57244669 657:0.99933773 658:0.99075825 659:0.13922582 662:0.14346587 663:0.28550424 664:0.42473005 665:0.2883736 666:0.28765087 667:0.42826169 668:0.28694609 669:0.5717276 670:0.56892936 671:0.14203836 674:0.28765087 675:0.4325586 676:0.42683418 677:0.14203836 678:0.28055576 679:0.28336831 680:0.28126418 681:0.13922582 682:0.14203836 683:0.13922582 686:0.14132994 687:0.42968924 688:0.42402163 714:0.14490773 715:0.14346587 
0 0 0 0 0.06173667515209308 0 0 0 0 5:0.16413438 6:0.29932019 7:0.16355711 17:0.24477757 18:0.57178228 19:0.43080778 20:0.053049653 26:0.060000123 27:0.10144817 28:0.040627317 29:0.080643196 30:0.49620581 31:0.60357823 32:0.22557211 38:0.18030239 39:0.3046485 40:0.20120016 42:0.3853245 43:0.68513832 44:0.30149178 50:0.17940911 51:0.4238357 52:0.46081927 53:0.081459052 54:0.32827694 55:0.63551446 56:0.47537863 57:0.34358903 58:0.22146334 59:0.041886167 62:0.16561666 63:0.37199443 64:0.44190451 65:0.12209966 66:0.24477763 67:0.30618303 68:0.57789499 69:0.81159064 70:0.52742657 71:0.29783143 72:0.11730901 74:0.18823353 75:0.32748149 76:0.33682543 77:0.10277398 78:0.084687064 79:0.13924308 80:0.53534105 81:0.88584493 82:0.80946948 83:0.46118052 84:0.28106455 86:0.2248331 87:0.41224997 88:0.36959894 89:0.12397972 90:0.25448567 91:0.42147573 92:0.36312105 93:0.4523878 94:0.39096531 95:0.18781445 96:0.18596545 98:0.18538202 99:0.33300389 100:0.39072989 101:0.06122038 102:0.39708572 103:0.56431196 104:0.22956931 105:0.16020453 106:0.10372372 107:0.023296519 108:0.022835217 110:0.043610273 111:0.17894802 112:0.17663518 114:0.51841567 115:0.5716942 116:0.23309485 126:0.52116626 127:0.57987111 128:0.23882024 138:0.33622621 139:0.45999844 140:0.12132138 149:0.063650169 150:0.25496097 151:0.18752259 161:0.094924307 162:0.49954484 163:0.40023801 164:0.092724544 170:0.076198683 171:0.19111521 172:0.11264103 173:0.031274089 174:0.39110563 175:0.56686903 176:0.3418909 182:0.22898046 183:0.57373352 184:0.37976539 186:0.20820598 187:0.58575903 188:0.40202682 194:0.22784643 195:0.72385805 196:0.8331118 197:0.22584691 198:0.1273021 199:0.48481004 200:0.42082937 201:0.14024034 202:0.50776526 203:0.47183248 206:0.47185398 207:0.73396369 208:0.77506022 209:0.33852272 210:0.094921149 211:0.21172704 212:0.35784093 213:0.48700682 214:0.6698993 215:0.62516376 216:0.30048312 218:0.52737598 219:0.74279072 220:0.88265677 221:0.50618352 222:0.032163421 223:0.11248725 224:0.56440615 225:0.91848592 226:0.75116307 227:0.51779172 228:0.33860593 230:0.2412634 231:0.40453052 232:0.72578444 233:0.50299034 234:0.19375607 235:0.10148028 236:0.40899061 237:0.801782 238:0.70580364 239:0.060141129 240:0.041038965 242:0.25976908 243:0.26085633 244:0.41615719 245:0.3323322 246:0.18991944 247:0.021035919 248:0.10898152 249:0.45832254 250:0.36701104 251:0.018723916 254:0.14858582 255:0.25869266 256:0.2535702 293:0.0720244 294:0.14440982 295:0.1422634 305:0.070598221 306:0.14368958 307:0.1422634 314:0.037272682 315:0.037272682 316:0.018313214 326:0.036902731 327:0.03745951 328:0.036717762 339:0.018404547 340:0.15512805 341:0.36331094 342:0.31196825 343:0.20711242 344:0.50706253 345:0.66135328 346:0.41518735 347:0.19691131 350:0.18902041 351:0.26221022 352:0.22801863 353:0.36281676 354:0.41838784 355:0.30605696 356:0.76242174 357:1 358:0.73842424 359:0.25617053 360:0.011667073 362:0.18527756 363:0.26221022 364:0.23304338 365:0.35771225 366:0.4101032 367:0.28837513 368:0.64204731 369:0.79960604 370:0.44135461 371:0.16190138 372:0.01143605 376:0.16048234 377:0.35710492 378:0.39570272 379:0.19686466 380:0.38579014 381:0.48836605 382:0.49184357 383:0.26743032 384:0.066981688 386:0.072726486 387:0.072726486 388:0.10180479 389:0.22541919 390:0.38786728 391:0.19296648 392:0.1860266 393:0.37020526 394:0.38137026 395:0.26213484 396:0.065655362 398:0.071286405 399:0.072726486 400:0.071286405 426:0.10538143 427:0.10433287 437:0.049839079 438:0.099910041 439:0.098424947 449:0.048852199 450:0.099411827 451:0.098424947 458:0.26089676 459:0.26089676 460:0.12818499 470:0.25830725 471:0.26220451 472:0.25701251 483:0.12882752 484:0.32375306 485:0.23716721 487:0.0078524463 488:0.13519836 489:0.31287189 490:0.18266056 491:0.013220097 494:0.062224904 495:0.22921731 496:0.45237612 497:0.24075156 499:0.0078524463 500:0.3988038 501:0.69388317 502:0.53984133 503:0.083859361 504:0.045140071 506:0.17232216 507:0.59995281 508:0.67269775 509:0.33163969 510:0.021563649 511:0.088621032 512:0.32617719 513:0.74372151 514:0.75660321 515:0.3780777 516:0.16436753 518:0.23207467 519:0.89768652 520:0.851536 521:0.4256384 522:0.064799031 523:0.26455389 524:0.19839343 525:0.36452364 526:0.63420321 527:0.39285987 528:0.31838888 530:0.22728759 531:0.66241797 532:0.8701243 533:0.21018189 534:0.14906402 535:0.34462306 536:0.26409495 537:0.20653708 538:0.20889054 539:0.22251891 540:0.15186535 542:0.1058747 543:0.36735563 544:0.36430625 546:0.27283952 547:0.34078068 548:0.25266963 558:0.33209649 559:0.36636742 560:0.2410205 570:0.20855881 571:0.29163163 572:0.11737621 581:0.11246901 582:0.22550177 583:0.22215004 593:0.11024197 594:0.22437707 595:0.22215004 602:0.22437707 603:0.33684608 604:0.11024197 614:0.22215004 615:0.33797077 616:0.33350554 627:0.22103653 628:0.44765181 629:0.3329446 630:0.11246901 631:0.22215004 632:0.33628514 633:0.55899612 634:0.33461904 635:0.11024197 639:0.11246901 640:0.44541361 641:0.33740983 642:0.22326357 643:0.33461904 644:0.67313122 645:0.78114615 646:0.55900731 647:0.22103653 651:0.22215004 652:0.44430007 653:0.3329446 654:0.21884265 655:0.33239201 656:0.55676908 657:1 658:0.77282379 659:0.10860068 662:0.11190807 663:0.22270263 664:0.33130331 665:0.22494083 666:0.22326357 667:0.22215004 668:0.22215004 669:0.4459662 670:0.44378348 671:0.11079456 674:0.22437707 675:0.22550177 676:0.22103653 677:0.11079456 678:0.21884265 679:0.11024197 680:0.11079456 681:0.10860068 682:0.11079456 683:0.10860068 686:0.11024197 687:0.22326357 688:0.21884265 714:0.11303276 715:0.11190807 
0.2325182172163563 0.6961097756385707 0.5347110229191535 0.09002165894373267 0.09530163038707185 0.04820613777736703 0.2724610031282447 0.3243297853215327 0.2137652901176989 5:0.14307573 6:0.31816917 7:0.17252201 17:0.21337233 18:0.55627749 19:0.4339403 20:0.091827807 26:0.052392771 27:0.088679777 28:0.035568476 29:0.0702966 30:0.43338561 31:0.57177061 32:0.24142119 38:0.15744166 39:0.26630445 40:0.17587815 42:0.33590363 43:0.59755445 44:0.26310891 50:0.15666153 51:0.37037591 52:0.40276506 53:0.071315686 54:0.28615856 55:0.5543403 56:0.41583284 57:0.2996895 58:0.18540167 59:0.029740941 62:0.1396304 63:0.32006687 64:0.38489486 65:0.10689563 66:0.21337232 67:0.26696802 68:0.57015336 69:0.77059383 70:0.45815745 71:0.23709202 72:0.080248574 74:0.16006595 75:0.25459249 76:0.26556786 77:0.06304232 78:0.073810966 79:0.12147547 80:0.59831778 81:0.90262182 82:0.70299942 83:0.37336373 84:0.21694478 86:0.19757533 87:0.33498461 88:0.29713654 89:0.081736864 90:0.22180287 91:0.36770314 92:0.38193432 93:0.60095636 94:0.41658509 95:0.16242987 96:0.16079433 98:0.16133417 99:0.29107958 100:0.34176107 101:0.053725191 102:0.3462197 103:0.5435567 104:0.20027087 105:0.21501411 106:0.16567651 107:0.025127784 108:0.024630221 110:0.036922572 111:0.15503973 112:0.15304964 114:0.45234652 115:0.55001582 116:0.25489633 126:0.45575459 127:0.55755366 128:0.26027011 138:0.29304576 139:0.40230302 140:0.10709382 149:0.070103043 150:0.38637288 151:0.31207029 161:0.10454727 162:0.65270695 163:0.54330603 164:0.20405672 170:0.083942817 171:0.21057827 172:0.1241279 173:0.03444419 174:0.42798667 175:0.7251049 176:0.47513508 182:0.25225032 183:0.63215886 184:0.41843947 186:0.22953924 187:0.64598653 188:0.44179033 194:0.25100219 195:0.7975413 196:0.91793823 197:0.24887767 198:0.14021034 199:0.53426469 200:0.47588631 201:0.15453858 202:0.56661252 203:0.52425457 206:0.52504018 207:0.81375041 208:0.85527168 209:0.3730436 210:0.10454594 211:0.22087375 212:0.41198397 213:0.5048404 214:0.7631218 215:0.75149358 216:0.34590999 218:0.58617947 219:0.82363139 220:0.97518502 221:0.56176781 222:0.035734275 223:0.11270056 224:0.68925911 225:0.91938409 226:0.64646354 227:0.63052498 228:0.42833152 230:0.26913321 231:0.44578247 232:0.80233804 233:0.55822416 234:0.21506323 235:0.11270056 236:0.51047313 237:0.82665127 238:0.62228474 239:0.10600203 240:0.084779931 242:0.28052718 243:0.28175781 244:0.45425705 245:0.36882153 246:0.21080469 247:0.023371175 248:0.1210363 249:0.51029811 250:0.40871723 251:0.020801872 254:0.15494884 255:0.2793088 256:0.27377812 293:0.070564139 294:0.14148198 295:0.13937907 305:0.069166875 306:0.14077634 307:0.13937907 314:0.036038607 315:0.036038607 316:0.017706829 326:0.035680905 327:0.036219249 328:0.03550206 339:0.017795231 340:0.15174147 341:0.35610509 342:0.30622916 343:0.20330229 344:0.49778916 345:0.65308228 346:0.40824295 347:0.19297673 350:0.18556128 351:0.25890519 352:0.22478229 353:0.35562519 354:0.410691 355:0.29599297 356:0.76857636 357:0.98998315 358:0.74031691 359:0.24828773 360:0.0097104577 362:0.18188692 363:0.25890519 364:0.22967611 365:0.35055679 366:0.40255877 367:0.27865501 368:0.73487972 369:0.89360276 370:0.45084692 371:0.15613181 372:0.0095181778 376:0.15699858 377:0.34996561 378:0.38832627 379:0.19319482 380:0.46164322 381:0.57352479 382:0.48668234 383:0.25873395 384:0.059931074 386:0.076057325 387:0.076057325 388:0.10425784 389:0.22097414 390:0.3806369 391:0.18936931 392:0.18251473 393:0.36321881 394:0.37636505 395:0.25361067 396:0.058744359 398:0.074551289 399:0.076057325 400:0.074551289 426:0.10344279 427:0.10241351 437:0.046655764 438:0.09352842 439:0.092138183 449:0.045731918 450:0.093062029 451:0.092138183 458:0.24400164 459:0.24400164 460:0.11988401 470:0.24157983 471:0.24522471 472:0.24036893 483:0.12048493 484:0.30227841 485:0.22184273 487:0.0073527784 488:0.12650884 489:0.29518256 490:0.17329568 491:0.012377657 494:0.056378809 495:0.21143507 496:0.41974153 497:0.22519548 499:0.022104447 500:0.49104931 501:0.75237595 502:0.47525593 503:0.078507745 504:0.048328848 506:0.27146283 507:0.56835118 508:0.63402737 509:0.21047782 510:0.020015029 511:0.096734002 512:0.5672485 513:0.96002969 514:0.68225306 515:0.33393326 516:0.15123356 518:0.32364693 519:0.84361147 520:0.80056034 521:0.29702085 522:0.060145411 523:0.24558788 524:0.39329213 525:0.61300203 526:0.56764022 527:0.34303828 528:0.27023594 530:0.20866144 531:0.61264244 532:0.80562855 533:0.19523288 534:0.13833678 535:0.37913318 536:0.24514791 537:0.19627294 538:0.20258739 539:0.18694539 540:0.11760295 542:0.098344426 543:0.33945739 544:0.33665997 546:0.25312988 547:0.37551736 548:0.29373524 558:0.30790338 559:0.39598787 560:0.28146623 570:0.19461537 571:0.27163125 572:0.10865395 581:0.10114956 582:0.20280613 583:0.19979173 593:0.099146661 594:0.20179463 595:0.19979173 602:0.20179463 603:0.30294418 604:0.099146661 614:0.19979173 615:0.30395568 616:0.29993985 627:0.1987903 628:0.40259786 629:0.29943537 630:0.10114956 631:0.19979173 632:0.3024397 633:0.50273591 634:0.30094129 635:0.099146661 639:0.10114956 640:0.40058492 641:0.3034512 642:0.20079319 643:0.30094129 644:0.60538388 645:0.70252765 646:0.50274598 647:0.1987903 651:0.19979173 652:0.40309483 653:0.29943537 654:0.19681722 655:0.29893839 656:0.60238959 657:1 658:0.69504288 659:0.097670559 662:0.10064507 663:0.20028871 664:0.39910882 665:0.3034512 666:0.20079319 667:0.19979173 668:0.29943537 669:0.50172697 670:0.39911886 671:0.099643635 674:0.20179463 675:0.20280613 676:0.29793696 677:0.1987903 678:0.19681722 679:0.099146661 680:0.099643635 681:0.097670559 682:0.099643635 683:0.097670559 686:0.099146661 687:0.20079319 688:0.19681722 714:0.10165657 715:0.10064507 
0 0 0 0 0.0431696411941123 0 0 0 0 5:0.14301374 6:0.31726752 7:0.17169786 17:0.21327988 18:0.55524059 19:0.43296637 20:0.091723482 26:0.052365024 27:0.088627616 28:0.035544545 29:0.070266143 30:0.43313683 31:0.57140071 32:0.24123231 38:0.15735829 39:0.26614782 40:0.17577464 42:0.33574259 43:0.59758207 44:0.26329085 50:0.15657859 51:0.37016426 52:0.40253104 53:0.071267666 54:0.28603458 55:0.55407194 56:0.41571946 57:0.29973723 58:0.1855799 59:0.029905264 62:0.13881213 63:0.31912027 64:0.38328271 65:0.10682365 66:0.21327988 67:0.266846 68:0.57007063 69:0.77059711 70:0.45815665 71:0.23738814 72:0.080600776 74:0.15928068 75:0.24666049 76:0.25648956 77:0.062996227 78:0.073779577 79:0.12141805 80:0.59823255 81:0.90265817 82:0.70293979 83:0.3724174 84:0.21606864 86:0.19761806 87:0.32800195 88:0.28953699 89:0.081671004 90:0.22170855 91:0.36753289 92:0.38185458 93:0.60093079 94:0.41646292 95:0.16099468 96:0.15937788 98:0.16142973 99:0.29114308 100:0.34177783 101:0.053681902 102:0.3460602 103:0.54308992 104:0.20000813 105:0.21492413 106:0.16561303 107:0.02492658 108:0.024433001 110:0.036976132 111:0.15507073 112:0.15307916 114:0.45216136 115:0.54955129 116:0.25455758 126:0.45562435 127:0.55731925 128:0.2601611 138:0.29292114 139:0.40219665 140:0.10711171 149:0.070162077 150:0.38683892 151:0.31247245 161:0.10463531 162:0.65352948 163:0.54403512 164:0.20437704 170:0.084012503 171:0.21075099 172:0.1242289 173:0.034473198 174:0.42850643 175:0.72603101 176:0.4757909 182:0.25245976 183:0.63267731 184:0.41878267 186:0.22976047 187:0.64572857 188:0.44141284 194:0.25121062 195:0.79819703 196:0.91869181 197:0.24907999 198:0.14032844 199:0.53392382 200:0.47522134 201:0.15467528 202:0.56711998 203:0.52485698 206:0.53050505 207:0.81938038 208:0.85729471 209:0.37334685 210:0.10463399 211:0.22106149 212:0.41115142 213:0.50480779 214:0.76387258 215:0.75121875 216:0.34522375 218:0.59159179 219:0.68027826 220:0.82823245 221:0.56200245 222:0.035747227 223:0.11274295 224:0.68968485 225:0.91935387 226:0.64629209 227:0.62992036 228:0.42715195 230:0.26914638 231:0.29714715 232:0.65384967 233:0.55845732 234:0.21515151 235:0.11274295 236:0.51163866 237:0.82648358 238:0.62244804 239:0.10551982 240:0.084290115 242:0.28023586 243:0.28146543 244:0.45404529 245:0.36897586 246:0.21089122 247:0.02337961 248:0.12108177 249:0.51108598 250:0.40943898 251:0.020809329 254:0.15476571 255:0.27901852 256:0.27349358 293:0.070481326 294:0.14131594 295:0.1392155 305:0.069085702 306:0.14061112 307:0.1392155 314:0.036023049 315:0.036023049 316:0.017699177 326:0.035665502 327:0.036203613 328:0.035486734 339:0.017787557 340:0.15157688 341:0.35567821 342:0.305837 343:0.20304195 344:0.49717532 345:0.65263716 346:0.4077025 347:0.1926892 350:0.18533961 351:0.25885523 352:0.22478693 353:0.35519863 354:0.41016508 355:0.29589783 356:0.76781157 357:0.98997827 358:0.73991003 359:0.24757775 360:0.009477166 362:0.18166964 363:0.25885523 364:0.22966981 365:0.35014002 366:0.40204326 367:0.27858025 368:0.73442161 369:0.89483702 370:0.45168504 371:0.15138283 372:0.0092895056 376:0.15682721 377:0.34954932 378:0.38783447 379:0.19295015 380:0.4613371 381:0.57392726 382:0.48108795 383:0.25355533 384:0.060801519 386:0.075966277 387:0.075966277 388:0.10414455 389:0.22070785 390:0.38015483 391:0.18912948 392:0.18228586 393:0.36276331 394:0.37018548 395:0.2485346 396:0.059597568 398:0.074462044 399:0.075966277 400:0.074462044 426:0.10331032 427:0.10228237 437:0.046814333 438:0.093846265 439:0.092451304 449:0.045887347 450:0.09337829 451:0.092451304 458:0.24484373 459:0.24484373 460:0.12029774 470:0.24241355 471:0.24607101 472:0.24119848 483:0.12090074 484:0.30334994 485:0.22260639 487:0.0073731637 488:0.12694423 489:0.2948871 490:0.17260209 491:0.012419604 494:0.056198073 495:0.21185139 496:0.42087801 497:0.22597069 499:0.021767268 500:0.49067942 501:0.7522396 502:0.47457784 503:0.078894054 504:0.049734486 506:0.27207353 507:0.57009921 508:0.6360161 509:0.21124141 510:0.020092587 511:0.096701334 512:0.56766392 513:0.95937502 514:0.68968377 515:0.3335059 516:0.15337037 518:0.32465629 519:0.84661207 520:0.80348391 521:0.29815943 522:0.060378476 523:0.24653369 524:0.39515045 525:0.61522826 526:0.57447 527:0.35058629 528:0.27092914 530:0.20927276 531:0.61477101 532:0.80850125 533:0.19598126 534:0.13894868 535:0.38094405 536:0.24608648 537:0.19777135 538:0.21074357 539:0.19226336 540:0.11621576 542:0.098721413 543:0.34067381 544:0.33786735 546:0.25418955 547:0.37732776 548:0.29522699 558:0.30887986 559:0.39773976 560:0.2828588 570:0.19507172 571:0.27237722 572:0.10902191 581:0.10114956 582:0.20280613 583:0.19979173 593:0.099146661 594:0.20179463 595:0.19979173 602:0.20179463 603:0.30294418 604:0.099146661 614:0.19979173 615:0.30395568 616:0.29993985 627:0.1987903 628:0.40259786 629:0.29943537 630:0.10114956 631:0.19979173 632:0.3024397 633:0.50273591 634:0.30094129 635:0.099146661 639:0.10114956 640:0.40058492 641:0.3034512 642:0.20079319 643:0.30094129 644:0.60538388 645:0.70252765 646:0.50274598 647:0.1987903 650:0.10114956 651:0.30094129 652:0.49873012 653:0.29943537 654:0.19681722 655:0.29893839 656:0.60238959 657:1 658:0.69504288 659:0.097670559 662:0.19979173 663:0.29943537 664:0.40158636 665:0.3034512 666:0.20079319 667:0.19979173 668:0.29943537 669:0.50172697 670:0.39911886 671:0.099643635 674:0.20179463 675:0.20280613 676:0.29793696 677:0.1987903 678:0.19681722 679:0.099146661 680:0.099643635 681:0.097670559 682:0.099643635 683:0.097670559 686:0.099146661 687:0.20079319 688:0.19681722 714:0.10165657 715:0.10064507 
0.001584432442304473 0.04798174996627021 0.009398748796593609 0 0 0.0008236914732515333 0 0.007545027982982235 0 5:0.14304698 6:0.28708378 7:0.14210379 17:0.2846743 18:0.59869376 19:0.40436669 20:0.094159481 26:0.126518 27:0.16232905 28:0.036130285 29:0.14162732 30:0.50748255 31:0.64775035 32:0.24570088 38:0.23148822 39:0.37788133 40:0.19791148 42:0.35530936 43:0.61469251 44:0.2649284 50:0.21035061 51:0.44671836 52:0.375224 53:0.072441608 54:0.28610141 55:0.55387517 56:0.41455608 57:0.29976172 58:0.19513644 59:0.039618876 62:0.23416378 63:0.35876146 64:0.43192086 65:0.14489557 66:0.21332971 67:0.40448993 68:0.65086061 69:0.77086051 70:0.45785777 71:0.31768509 72:0.16092926 74:0.20252443 75:0.27848771 76:0.31638832 77:0.09945446 78:0.073756954 79:0.36871934 80:0.84080403 81:0.86967014 82:0.70275435 83:0.49099218 84:0.33500125 86:0.25763106 87:0.41262851 88:0.28717939 89:0.083330234 90:0.22164049 91:0.53081878 92:0.54171121 93:0.60138138 94:0.41609352 95:0.20002594 96:0.19872306 98:0.25831241 99:0.39015266 100:0.27991141 101:0.05504797 102:0.3463389 103:0.52515073 104:0.28133201 105:0.21484876 106:0.16514848 107:0.025464664 108:0.024960429 110:0.10093883 111:0.19519992 112:0.093501093 114:0.452319 115:0.49913674 116:0.20421854 126:0.45349979 127:0.5051341 128:0.20809882 137:0.07375691 138:0.36658834 139:0.47201713 140:0.10477273 149:0.10511676 150:0.37408857 151:0.26538074 161:0.16342181 162:0.62695868 163:0.48789423 164:0.17127538 170:0.28792695 171:0.39472839 172:0.10608444 173:0.059202428 174:0.39181817 175:0.64183353 176:0.39895939 182:0.42946094 183:0.86094177 184:0.49920139 186:0.19591886 187:0.54863292 188:0.37271997 194:0.2859281 195:0.896385 196:0.8556268 197:0.21270004 198:0.11959761 199:0.46034919 200:0.39588907 201:0.13192063 202:0.32977199 203:0.31007387 206:0.5252285 207:0.80595237 208:0.8210088 209:0.4254258 210:0.089176309 211:0.41400467 212:0.52388017 213:0.35463622 214:0.4791633 215:0.51493862 216:0.34748147 218:0.50843664 219:0.65251182 220:0.74011587 221:0.47048729 222:0.031487207 223:0.36364474 224:0.85738116 225:0.7936833 226:0.38696491 227:0.38220683 228:0.37672147 230:0.12546156 231:0.37906844 232:0.54420351 233:0.46782349 234:0.18882426 235:0.17756863 236:0.52562409 237:0.71510268 238:0.53872613 239:0.050764726 240:0.032066152 242:0.24003598 243:0.23898791 244:0.28828632 245:0.3236438 246:0.18508529 247:0.055946907 248:0.1418797 249:0.44482494 250:0.35540575 251:0.018328318 254:0.23528295 255:0.23898791 256:0.13203735 293:0.070517051 294:0.14138757 295:0.13928606 305:0.069120719 306:0.1406824 307:0.13928606 314:0.034291189 315:0.033951687 316:0.016806251 326:0.03395168 327:0.034291189 328:0.016806251 338:0.016805927 339:0.016805927 340:0.23149619 341:0.43669934 342:0.41134726 343:0.29496073 344:0.58888997 345:0.65716373 346:0.397849 347:0.20153341 350:0.1858597 351:0.18492969 352:0.22738275 353:0.42851329 354:0.41134726 355:0.47324505 356:0.94252802 357:0.99198242 358:0.70643434 359:0.23212994 360:0.02999068 362:0.18217943 363:0.18492969 364:0.1566134 365:0.35069843 366:0.29119294 367:0.46787013 368:0.91929956 369:0.81991242 370:0.43910358 371:0.1661874 372:0.029396825 376:0.15602553 377:0.3501222 378:0.39052557 379:0.29462649 380:0.56280908 381:0.57648755 382:0.49001099 383:0.26910833 384:0.068980719 386:0.076128225 387:0.076128225 388:0.10357606 389:0.22130616 390:0.38279264 391:0.28879249 392:0.28174737 393:0.36497387 394:0.37836164 395:0.26377963 396:0.067614809 398:0.074620785 399:0.076128225 400:0.074620785 426:0.10412742 427:0.10309134 437:0.047512021 438:0.095244877 439:0.093829126 449:0.04657122 450:0.094769928 451:0.093829126 458:0.24820348 459:0.24574618 460:0.1216482 470:0.24574603 471:0.24820348 472:0.1216482 482:0.12164053 483:0.12164053 484:0.30483891 485:0.2252443 487:0.087044399 488:0.19909588 489:0.28924658 490:0.17275897 491:0.012612582 494:0.092738826 495:0.16913821 496:0.38025317 497:0.22864843 499:0.2499095 500:0.71751567 501:0.75380676 502:0.47421818 503:0.078065467 504:0.050154357 506:0.31222523 507:0.62974692 508:0.59720178 509:0.20961587 510:0.019742791 511:0.39715688 512:0.87017359 513:0.95620428 514:0.67026235 515:0.40510818 516:0.23131584 518:0.37511127 519:0.98507562 520:0.79950683 521:0.29232168 522:0.059328082 523:0.39672729 524:0.54815623 525:0.61352372 526:0.55671837 527:0.41277639 528:0.35277461 530:0.25310678 531:0.65271468 532:0.75602753 533:0.19311042 534:0.13728182 535:0.31758191 536:0.28378135 537:0.19586631 538:0.19034911 539:0.17685148 540:0.12004685 542:0.097275288 543:0.33530017 544:0.29330419 546:0.25059594 547:0.31399835 548:0.23330967 558:0.30890277 559:0.339398 560:0.22260779 569:0.019742868 570:0.2184109 571:0.29406661 572:0.10860854 581:0.11209826 582:0.22475841 583:0.22141772 593:0.10987856 594:0.22363742 595:0.22141772 602:0.22419651 603:0.22197682 604:0.10987856 614:0.22197682 615:0.22419651 616:0.10987856 626:0.10987856 627:0.11209826 628:0.33463697 629:0.22030789 630:0.22475841 631:0.4445044 632:0.44561423 633:0.5571534 634:0.33351598 635:0.10987856 639:0.11209826 640:0.33573567 641:0.22363742 642:0.22363742 643:0.55219632 644:0.77913021 645:0.77857112 646:0.55716455 647:0.22030789 650:0.11209826 651:0.33685666 652:0.66481226 653:0.33184705 654:0.11209826 655:0.44395644 656:0.77802318 657:1 658:0.77027619 659:0.10824268 662:0.22197682 663:0.44006501 664:0.5571534 665:0.44617613 666:0.22252759 667:0.33184705 668:0.44008974 669:0.55603524 670:0.44232056 671:0.11042933 674:0.33685666 675:0.33573567 676:0.21975712 677:0.22030789 678:0.21812124 679:0.10987856 680:0.11042933 681:0.10824268 682:0.11042933 683:0.10824268 686:0.22141772 687:0.33351598 688:0.10987856 713:0.11209826 714:0.22475841 715:0.22141772 
0.2117465066329154 0.8955542780656771 0.7146753499204771 0.1198927788889709 0.1472269357117708 0.06337199292965205 0.3506310808170694 0.4106301654056171 0.2751180150272 5:0.007454779 6:0.0073071645 17:0.1980627 18:0.32675276 19:0.27542395 20:0.1416936 26:0.083746609 27:0.082195236 29:0.36792881 30:0.57873344 31:0.53747961 32:0.44973492 33:0.17438238 37:0.17126681 38:0.40848296 39:0.2501135 40:0.0053459462 41:0.4313774 42:0.50904411 43:0.40191707 44:0.57532377 45:0.35025154 49:0.26520185 50:0.68748536 51:0.59347762 52:0.073439432 53:0.44340986 54:0.44251301 55:0.33764372 56:0.55178913 57:0.39704631 58:0.036439801 61:0.093555867 62:0.58854126 63:0.70520025 64:0.25589447 65:0.37752796 66:0.45235242 67:0.55741971 68:0.76582981 69:0.50283372 70:0.036439801 74:0.25581462 75:0.6110628 76:0.35245725 77:0.37550001 78:0.37550001 79:0.72284126 80:0.89611349 81:0.5370104 82:0.14468098 83:0.16691144 84:0.064528983 86:0.083139518 87:0.31758266 88:0.23444314 89:0.36511766 90:0.39318272 91:0.7378448 92:1 93:0.623633 94:0.28704486 95:0.30995286 96:0.13280014 99:0.068137414 100:0.068137414 101:0.19771009 102:0.37980897 103:0.56342749 104:0.74583389 105:0.55320786 106:0.17555247 107:0.24209048 108:0.067542894 113:0.19603903 114:0.33935529 115:0.33571536 116:0.37182523 117:0.37182523 125:0.17284628 126:0.24620346 127:0.24230695 128:0.26112053 129:0.26112053 138:0.094168189 139:0.092303534 140:0.077095616 141:0.077095616 150:0.077256925 151:0.076693544 161:0.0070099992 162:0.2648026 163:0.52365388 164:0.2621488 169:0.0068054342 170:0.20895418 171:0.20014234 173:0.028715695 174:0.26612391 175:0.53188919 176:0.56431858 177:0.070921122 181:0.20333284 182:0.62203161 183:0.65264656 184:0.29790856 185:0.12844684 186:0.12342636 187:0.26337861 188:0.39963954 189:0.13668563 193:0.20511354 194:0.68600663 195:1 196:0.65474627 197:0.35712774 198:0.32329298 199:0.44505068 200:0.6250008 201:0.44641721 202:0.064860746 205:0.010328106 206:0.43075505 207:0.66800479 208:0.54156994 209:0.37815099 210:0.41214895 211:0.57206722 212:0.76322458 213:0.70947663 214:0.28128491 215:0.054349663 218:0.15590534 219:0.3611476 220:0.27858719 221:0.29031521 222:0.37896043 223:0.59328758 224:0.6093094 225:0.5547976 226:0.37039163 227:0.30336725 228:0.17709911 230:0.06025357 231:0.19094983 232:0.13730929 233:0.24828339 234:0.30501922 235:0.40190147 236:0.45517245 237:0.45939779 238:0.49042941 239:0.52644397 240:0.24676321 243:0.02976182 244:0.02976182 245:0.090886732 246:0.26031509 247:0.35059673 248:0.2716374 249:0.28100233 250:0.28861474 251:0.23416148 252:0.088328184 257:0.170781 258:0.30743005 259:0.3043426 260:0.22534498 261:0.27769284 262:0.076692743 263:0.00018958457 269:0.16919863 270:0.28038492 271:0.27880324 272:0.21007785 273:0.2583152 274:0.093945282 275:0.0041551075 282:0.15737832 283:0.19869188 284:0.062088453 285:0.032606456 286:0.016910916 287:0.0040728308 293:0.18369789 294:0.36080303 295:0.17679824 305:0.18369789 306:0.48849524 307:0.43282403 308:0.2200969 313:0.0969589 314:0.20232912 315:0.10344068 317:0.0854989 318:0.28170145 319:0.73222361 320:0.63591496 321:0.10201591 325:0.15080649 326:0.38189274 327:0.33009655 328:0.15073419 329:0.047959035 330:0.10112175 331:0.40878056 332:0.41516058 333:0.10201591 337:0.05278134 338:0.34928151 339:0.43586679 340:0.30075448 341:0.37213067 342:0.30520418 343:0.40361068 344:0.49333216 345:0.30302858 350:0.20212452 351:0.20011835 352:0.19292875 353:0.32826717 354:0.38544038 355:0.70663464 356:0.7143441 357:0.56476621 358:0.23694146 359:0.077617415 362:0.20212452 363:0.46062842 364:0.45380322 365:0.40516517 366:0.29089033 367:0.76822761 368:0.9534469 369:0.5348922 370:0.36510933 371:0.30525896 372:0.12873573 374:0.099308746 375:0.28999262 376:0.45605936 377:0.45170022 378:0.30744629 379:0.56120433 380:0.8636565 381:0.77469144 382:0.624026 383:0.54937658 384:0.22233999 387:0.089077847 388:0.17792518 389:0.087088038 390:0.095597154 391:0.27231287 392:0.45634013 393:0.50206668 394:0.42369571 395:0.28935934 396:0.091750773 401:0.038190956 402:0.038190956 404:0.29841836 405:0.59149558 406:0.39554704 407:0.10183208 413:0.038190956 414:0.19804103 415:0.33961407 416:0.63293274 417:0.75359438 418:0.66288753 419:0.20623174 426:0.15668483 427:0.33288926 428:0.36845092 429:0.44475728 430:0.47081122 431:0.20214808 437:0.16124538 438:0.16870328 439:0.0099748505 449:0.30208701 450:0.50822833 451:0.32625669 452:0.15674431 457:0.071418589 458:0.20341883 459:0.12938646 461:0.27403649 462:0.33456517 463:0.47852884 464:0.39995364 469:0.25489049 470:0.52780732 471:0.3014397 473:0.002810547 474:0.002810547 475:0.24181168 476:0.35548147 477:0.11307602 481:0.18433475 482:0.5276044 483:0.52250385 485:0.02618109 486:0.02618109 487:0.22348969 488:0.48453269 489:0.34018832 490:0.111711 493:0.0022388895 494:0.22290046 495:0.22066553 497:0.057821823 498:0.057821823 499:0.39208137 500:0.6470634 501:0.38700589 502:0.111711 506:0.0078735844 507:0.10007401 508:0.13012455 509:0.29682435 510:0.25934262 511:0.45788111 512:0.55645532 513:0.3597404 514:0.5788108 515:0.69426106 516:0.14350063 518:0.0038684856 519:0.091525167 520:0.13429348 521:0.28026984 522:0.26608968 523:0.41094834 524:0.52264481 525:0.40102845 526:0.87518237 527:1 528:0.52654983 531:0.019450877 532:0.053495294 533:0.1532185 534:0.35941223 535:0.35854907 536:0.29390517 537:0.19731705 538:0.31699485 539:0.69922251 540:0.37795034 545:0.31951749 546:0.52429106 547:0.45295217 548:0.30844375 549:0.39714847 550:0.18409499 551:0.088929544 557:0.18150829 558:0.4506651 559:0.48369636 560:0.39717544 561:0.46020429 562:0.24431637 563:0.14134402 570:0.067729518 571:0.10573339 572:0.14027618 573:0.18425004 574:0.24005982 575:0.13854522 594:0.16624724 595:0.50124584 596:0.32836519 602:0.16708055 603:0.16377214 606:0.16624724 607:0.99916668 608:0.83124863 609:0.16377214 613:0.16624724 614:0.50040835 615:0.32754428 617:0.16624724 618:0.16624724 619:0.66085966 620:0.82635187 621:0.32836519 625:0.16624724 626:0.49877074 627:0.49544574 629:0.50041252 630:0.66416808 631:0.66334717 632:0.83457363 633:0.65594631 638:0.32836519 639:0.32510603 641:0.33084029 642:0.66583889 643:0.8271193 644:1 645:0.98679901 650:0.16624724 651:0.16791805 652:0.16459305 653:0.16708055 654:0.49544574 655:0.66334717 656:0.83044435 657:0.81724335 658:0.16708055 659:0.3349986 660:0.33001938 663:0.16459305 664:0.16133389 665:0.16377214 666:0.16708055 667:0.49709993 668:0.83375276 669:0.82055177 670:0.33085269 671:0.49709993 672:0.33001938 679:0.16377214 680:0.49544574 681:0.48887816 682:0.16708055 683:0.16377214 689:0.33332779 690:0.33332779 691:0.16377214 692:0.50207916 693:0.49213733 701:0.33001938 702:0.3349986 703:0.32836519 704:0.49709993 705:0.49709993 714:0.16459305 715:0.16133389 716:0.16377214 717:0.16377214 
0.1405708207042914 0.6187237877417464 0.5080822534357455 0.08642811170690975 0.1054318068396099 0.04581212453037753 0.2464427038180663 0.2944438802773791 0.1976384885988966 17:0.19482261 18:0.32327519 19:0.24739492 20:0.11435681 25:0.073613769 26:0.072156119 29:0.37017782 30:0.57919966 31:0.51073165 32:0.41956602 33:0.16583658 37:0.24045416 38:0.23612958 41:0.355889 42:0.41926344 43:0.3930756 44:0.54863659 45:0.34190765 49:0.30677926 50:0.36273567 51:0.075716493 53:0.29846287 54:0.29605488 55:0.30762873 56:0.50008895 57:0.36499324 61:0.14066857 62:0.33072646 63:0.26800742 65:0.32261172 66:0.31807668 67:0.47158334 68:0.83143738 69:0.53946204 74:0.35981884 75:0.44765128 76:0.087760973 77:0.3785843 78:0.37669785 79:0.62132477 80:0.9834021 81:0.63152417 82:0.095578967 83:0.15972407 84:0.064843701 86:0.17239334 87:0.25615437 88:0.087760973 89:0.35887733 90:0.3778442 91:0.71633341 92:1 93:0.64840484 94:0.16411251 95:0.22854954 96:0.091958427 101:0.26604188 102:0.41672061 103:0.58009488 104:0.72973994 105:0.55630726 106:0.13469307 107:0.1618078 108:0.026577818 113:0.34118381 114:0.42594002 115:0.3362497 116:0.2947773 117:0.3904322 118:0.09479214 125:0.24231373 126:0.27894165 127:0.11131115 128:0.10279199 129:0.19758413 130:0.092915129 137:0.081256177 138:0.081256177 149:0.0014975429 150:0.054569488 151:0.05202105 161:0.01209564 162:0.17167628 163:0.49595779 164:0.33244956 169:0.12804931 170:0.12804931 173:0.041529011 174:0.20434865 175:0.54032968 176:0.52442505 177:0.12011194 181:0.51123595 182:0.77593128 183:0.41408523 184:0.1355565 185:0.12287372 186:0.17795062 187:0.29732478 188:0.40282428 189:0.20872259 193:0.56361715 194:0.89168499 195:0.80659294 196:0.40603625 197:0.37249773 198:0.34851576 199:0.45426892 200:0.81458838 201:0.4950593 205:0.18126734 206:0.55211237 207:0.60283584 208:0.31422319 209:0.5075304 210:0.46690626 211:0.52685101 212:0.93437026 213:0.89385998 214:0.30700428 215:0.14966253 218:0.29784023 219:0.3902817 220:0.10852051 221:0.37070114 222:0.4834872 223:0.59757722 224:0.83446258 225:0.72392891 226:0.42878171 227:0.26171964 228:0.10977238 230:0.11110499 231:0.17823107 232:0.10852051 233:0.30011677 234:0.28129893 235:0.55373272 236:0.64623301 237:0.52163275 238:0.37658831 239:0.2963077 240:0.10845599 245:0.21134501 246:0.26311865 247:0.43532663 248:0.3962439 249:0.38774673 250:0.22513965 251:0.038913202 257:0.33970652 258:0.38457963 259:0.32039829 260:0.3318658 261:0.37458445 262:0.14693972 263:0.010631252 269:0.26476582 270:0.35808494 271:0.26721336 272:0.16861309 273:0.26922558 274:0.14567987 275:0.010631252 281:0.089499907 282:0.22598289 283:0.17194038 284:0.036287749 293:0.21125376 294:0.31799749 295:0.10662946 305:0.2129067 306:0.4018307 307:0.37996343 308:0.16238803 313:0.21408675 314:0.21196185 317:0.1026095 318:0.31640292 319:0.56318801 320:0.34802764 325:0.24757213 326:0.36812115 327:0.24242487 328:0.11935454 330:0.092123667 331:0.18750063 332:0.18563961 337:0.10518608 338:0.28414199 339:0.31930195 340:0.37189535 341:0.40915014 342:0.26460924 343:0.36019481 344:0.33319373 345:0.084268428 349:0.0043255869 350:0.0044129696 351:0.10780434 352:0.32303441 353:0.40788099 354:0.35038377 355:0.78940017 356:0.79301628 357:0.43481828 358:0.28002059 359:0.1406162 362:0.1042718 363:0.30603943 364:0.41003085 365:0.4167659 366:0.39190415 367:0.82642496 368:1 369:0.55988414 370:0.36459397 371:0.32238484 372:0.18702222 374:0.10220708 375:0.29997945 376:0.41003085 377:0.41624038 378:0.30782808 379:0.58541453 380:0.8590825 381:0.70672788 382:0.58692335 383:0.52766176 384:0.19109678 389:0.0024068857 390:0.0024068857 391:0.18616213 392:0.42640717 393:0.49009345 394:0.45144353 395:0.20956036 396:0.005684729 401:0.1068747 402:0.10602213 403:0.0023829367 404:0.5051909 405:0.89206114 406:0.75914351 407:0.36755386 408:0.10759719 413:0.10446781 414:0.28697019 415:0.37678211 416:0.65984196 417:0.8733272 418:0.84126015 419:0.56487595 420:0.17671759 425:0.042203202 426:0.18171006 427:0.36932132 428:0.48214363 429:0.46408188 430:0.35489249 431:0.23536595 432:0.067751721 437:0.26264224 438:0.25775678 449:0.51060301 450:0.8278353 451:0.39068603 452:0.23472496 457:0.16898864 458:0.16576489 461:0.48733212 462:0.59834425 463:0.6091985 464:0.45726113 469:0.23033278 470:0.22978455 471:0.0061222484 474:0.035823354 475:0.29285212 476:0.44209209 477:0.21812657 481:0.22031487 482:0.22643712 483:0.0060010197 485:0.05197795 486:0.050948717 487:0.52749418 488:0.5915387 489:0.26888945 497:0.1104889 498:0.10899457 499:0.69974627 500:0.83415312 501:0.41242595 506:0.037041382 507:0.13900368 508:0.13769335 509:0.25975635 510:0.27651811 511:0.5722256 512:0.9685519 513:0.59546359 514:0.65847329 515:0.89883344 516:0.47386355 518:0.036307913 519:0.13625123 520:0.13769335 521:0.21878788 522:0.25711719 523:0.53053284 524:0.6887144 525:0.40469232 526:0.7523667 527:1 528:0.71322453 533:0.42475524 534:0.53256967 535:0.49165761 536:0.43701477 537:0.23988822 538:0.27368871 539:0.5130497 540:0.23462132 545:0.85255864 546:0.95293482 547:0.68541909 548:0.55415472 549:0.66032297 550:0.59585669 551:0.48343459 552:0.19351387 557:0.44277727 558:0.68999098 559:0.474105 560:0.48779572 561:0.72913424 562:0.5919352 563:0.55133387 564:0.38799773 569:0.036412478 570:0.036412478 571:0.12301703 572:0.24136324 573:0.27072623 574:0.24070822 575:0.34630214 576:0.19063282 595:0.20140029 596:0.19939633 607:0.59820892 608:0.5903119 617:0.2003958 618:0.1964277 619:0.39680862 620:0.40079662 621:0.1974123 629:0.40079161 630:0.5932512 631:0.3968235 632:0.40079161 633:0.38993097 641:0.3968235 642:0.59721931 643:0.79264753 644:0.79661563 645:0.5932512 653:0.2003958 654:0.5932512 655:0.79561615 656:0.99601196 657:0.7866954 665:0.1964277 666:0.2003958 667:0.59621983 668:1 669:0.98416678 679:0.1964277 680:0.5942358 681:0.58635867 689:0.40179609 690:0.39979213 691:0.1964277 692:0.19939633 693:0.20140029 694:0.1974123 701:0.39384 702:0.39979213 703:0.1964277 705:0.1974123 706:0.19350327 
0.05968039833086425 0.2272011655607498 0.1823524994674053 0.0324820537453944 0.0423254608544987 0.01757591078864486 0.09448981059734536 0.1172240793737121 0.0834705365789067 17:0.18539615 18:0.26941928 19:0.18010551 20:0.091934467 25:0.10789518 26:0.10647011 29:0.3565321 30:0.5197856 31:0.43548793 32:0.34838278 33:0.15344967 37:0.31396781 38:0.31068423 39:0.094226862 41:0.34509172 42:0.4082666 43:0.3834418 44:0.51748987 45:0.32633089 49:0.21887525 50:0.37289805 51:0.20617987 53:0.36831012 54:0.36269345 55:0.29864081 56:0.4807649 57:0.3514997 61:0.01553232 62:0.31829583 63:0.29914427 64:0.042647004 65:0.38814969 66:0.38575295 67:0.47109471 68:0.81281822 69:0.52409645 74:0.25775283 75:0.34203854 76:0.20219773 77:0.36311634 78:0.40185217 79:0.6358639 80:0.98414086 81:0.64673073 82:0.066477334 83:0.072801144 84:0.0073078882 86:0.083834609 87:0.1612443 88:0.15805144 89:0.35077801 90:0.36593063 91:0.70156867 92:1 93:0.65115448 94:0.13331425 95:0.14008846 96:0.020248493 101:0.18710645 102:0.34463207 103:0.51189259 104:0.70674118 105:0.53094001 106:0.11852103 107:0.13146163 108:0.012684364 113:0.21607674 114:0.34708331 115:0.28917679 116:0.31682736 117:0.409166 118:0.12611394 119:0.029169714 125:0.19504701 126:0.26552486 127:0.12980534 128:0.12218782 129:0.2249203 130:0.12437159 131:0.029462875 132:0.028879471 137:0.085911281 138:0.085911281 143:0.028879471 144:0.028307619 150:0.047887338 151:0.046939105 161:0.0073985877 162:0.15086822 163:0.48929393 164:0.34179141 169:0.13122314 170:0.13107916 173:0.036682149 174:0.23083257 175:0.58761033 176:0.57359794 177:0.13519717 181:0.45791957 182:0.75329408 183:0.44711808 184:0.14909762 185:0.069312362 186:0.16668834 187:0.33929986 188:0.45686468 189:0.21960401 193:0.449318 194:0.93191043 195:0.90637778 196:0.44417571 197:0.34279704 198:0.35212409 199:0.51615273 200:0.74299044 201:0.4828976 205:0.12288183 206:0.58708767 207:0.74955143 208:0.4276691 209:0.47304353 210:0.50347023 211:0.61572306 212:0.89075552 213:0.8121907 214:0.31255962 215:0.14451461 218:0.34038306 219:0.35535092 220:0.21155378 221:0.36839373 222:0.45199238 223:0.62353146 224:0.77908016 225:0.71401498 226:0.44443963 227:0.30847542 228:0.14363372 230:0.10559182 231:0.17521428 232:0.18323211 233:0.29932083 234:0.28307099 235:0.46257392 236:0.59635254 237:0.48809634 238:0.31437717 239:0.34388836 240:0.14247444 243:0.052662605 244:0.051619816 245:0.12560686 246:0.2493625 247:0.37692139 248:0.42709473 249:0.39882147 250:0.15214257 251:0.039821376 257:0.36533307 258:0.45293192 259:0.30731351 260:0.40771419 261:0.45418622 262:0.17356834 263:0.0029508536 269:0.43458576 270:0.53911127 271:0.41447337 272:0.20245734 273:0.33408539 274:0.1876648 275:0.015545854 276:3.140414e-05 281:0.121366 282:0.37745801 283:0.2960858 284:0.042958901 286:0.015454845 287:0.015238025 288:3.0782296e-05 293:0.2019673 294:0.30457947 295:0.1024812 305:0.25850479 306:0.46855531 307:0.36334358 308:0.15425089 313:0.1994336 314:0.19745414 317:0.15197294 318:0.35744902 319:0.58478978 320:0.37726416 325:0.27759057 326:0.37727901 327:0.20383985 328:0.10027645 330:0.095702765 331:0.22494659 332:0.22241603 337:0.17575289 338:0.31169592 339:0.2704407 340:0.33279738 341:0.37518981 342:0.31935137 343:0.32064715 344:0.20886629 345:0.026832231 349:0.038120312 350:0.045748234 351:0.093784185 352:0.2780203 353:0.3741407 354:0.4010025 355:0.7349913 356:0.65128155 357:0.29847947 358:0.25677203 359:0.1302365 362:0.1596737 363:0.43883704 364:0.47360263 365:0.42355715 366:0.30355971 367:0.81245927 368:1 369:0.49757651 370:0.34836627 371:0.37703487 372:0.2410583 374:0.15844574 375:0.43402476 376:0.53640326 377:0.41710227 378:0.32208122 379:0.60168576 380:0.89180355 381:0.65144376 382:0.49866797 383:0.57671746 384:0.24726914 387:0.19289373 388:0.19097918 390:0.096604298 391:0.29342681 392:0.48042844 393:0.44681187 394:0.36530902 395:0.2036428 396:0.0075148597 401:0.059796357 402:0.059713201 403:0.0085483688 404:0.25079717 405:0.53755526 406:0.49650659 407:0.20920418 413:0.11393247 414:0.28678035 415:0.37643633 416:0.52829168 417:0.70369715 418:0.62953701 419:0.31431369 420:0.10433798 425:0.053233418 426:0.22274019 427:0.36696899 428:0.37165648 429:0.35803896 430:0.38853595 431:0.30808986 432:0.10227195 437:0.12959711 438:0.13050924 439:0.0030619677 449:0.33111963 450:0.66585633 451:0.40379298 452:0.2282668 457:0.29597376 458:0.29299711 461:0.3090524 462:0.54685486 463:0.59057056 464:0.45097561 469:0.44705331 470:0.44701383 471:0.1441985 473:0.0051715939 474:0.018300041 475:0.25968187 476:0.42494655 477:0.2014708 481:0.29692567 482:0.44112417 483:0.14134318 485:0.047292603 486:0.047292603 487:0.39858448 488:0.45691952 489:0.19876951 497:0.10315579 498:0.10315579 499:0.57413969 500:0.69665816 501:0.31456925 506:0.017428806 507:0.17547217 508:0.18112184 509:0.38923041 510:0.36463197 511:0.66755358 512:0.91245472 513:0.57357169 514:0.66154386 515:0.89403324 516:0.45048362 518:0.017428806 519:0.17324145 520:0.19958254 521:0.35826279 522:0.37241038 523:0.64880072 524:0.78218563 525:0.57204599 526:0.76009125 527:1 528:0.68424835 531:0.061744625 532:0.061402946 533:0.26429491 534:0.56304356 535:0.51220559 536:0.45112007 537:0.30701412 538:0.30260522 539:0.53636994 540:0.22913588 545:0.6949707 546:0.98682264 547:0.74642766 548:0.60934789 549:0.71730105 550:0.46236435 551:0.2443089 557:0.45143301 558:0.8776349 559:0.70090847 560:0.58529399 561:0.81850891 562:0.68752656 563:0.31142271 564:0.16120351 569:0.11709708 570:0.11709708 571:0.13604253 572:0.21315996 573:0.21196737 574:0.22589992 575:0.30525612 576:0.15801147 595:0.16847825 596:0.16680186 601:0.16680186 602:0.16680186 607:0.50042226 608:0.49381613 613:0.33443982 614:0.33112036 615:0.16514215 619:0.33194401 620:0.33528011 621:0.16514215 625:0.16763796 626:0.33278011 627:0.16187212 629:0.50291806 630:0.66390048 631:0.49875832 632:0.66887964 633:0.33112036 637:0.1643185 638:0.1643185 641:0.49958197 642:0.67055602 643:0.82987869 644:1 645:0.82989537 646:0.16514215 653:0.16763796 654:0.66141712 655:0.66556018 656:0.83321482 657:0.98511194 658:0.16187212 665:0.1643185 666:0.16763796 667:0.49875832 668:0.83653427 669:0.82328924 679:0.1643185 680:0.49709862 681:0.49050913 689:0.3361162 690:0.33443982 691:0.1643185 692:0.16680186 693:0.16847825 694:0.16514215 701:0.32946066 702:0.33443982 703:0.1643185 705:0.16514215 706:0.16187212 
0.05006369136450887 0.1899204512368722 0.1226719179478398 0.01813285809155827 0.02339162093411665 0.009972199255304518 0.05956637568044999 0.06235131115539698 0.04536887881460051 17:0.18393171 18:0.26974559 19:0.18671074 20:0.096657349 25:0.11305229 26:0.11165518 29:0.35461812 30:0.52202215 31:0.44221648 32:0.35767361 33:0.15260718 37:0.31743318 38:0.31303778 39:0.042073208 41:0.3458579 42:0.4106858 43:0.3851549 44:0.52499892 45:0.32277596 49:0.22222504 50:0.38010231 51:0.1581366 53:0.37057203 54:0.36492036 55:0.29930345 56:0.4928132 57:0.36146815 58:0.030365602 61:0.060395598 62:0.31603195 63:0.29498968 64:0.041448449 65:0.39049727 66:0.38807724 67:0.46473547 68:0.83863429 69:0.53666349 70:0.030365602 74:0.31434998 75:0.33732826 76:0.19815019 77:0.36244442 78:0.39985412 79:0.6397516 80:0.99092674 81:0.6455103 82:0.056710976 83:0.10724374 84:0.050960592 86:0.14686277 87:0.22084347 88:0.21647048 89:0.35038088 90:0.36294757 91:0.69137277 92:1 93:0.65831988 94:0.12683956 95:0.17719522 96:0.060108461 99:0.061187328 100:0.059975738 101:0.23378804 102:0.38277058 103:0.54928779 104:0.71472239 105:0.53873355 106:0.11596197 107:0.12510984 108:0.0089667293 113:0.24205 114:0.38513393 115:0.37307907 116:0.35828601 117:0.45103356 118:0.10265494 125:0.17636591 126:0.26866312 127:0.17690703 128:0.16266425 129:0.26559686 130:0.10089441 137:0.08767912 138:0.08767912 150:0.028466788 151:0.027903107 161:0.009188208 162:0.18233675 163:0.50089544 164:0.32439905 169:0.13019684 170:0.13005649 173:0.037606905 174:0.25623751 175:0.59958328 176:0.53208134 177:0.12368943 181:0.48481278 182:0.76421889 183:0.42797432 184:0.14409865 185:0.067666414 186:0.14193608 187:0.31164009 188:0.4175138 189:0.20873434 193:0.47166482 194:0.93128543 195:0.82049712 196:0.43703129 197:0.37627886 198:0.35365115 199:0.43484682 200:0.74083174 201:0.52981339 202:0.15748566 205:0.12184818 206:0.6033644 207:0.71670956 208:0.42068535 209:0.50844374 210:0.48826488 211:0.50742085 212:0.88900477 213:0.81770367 214:0.33654884 215:0.13872719 218:0.31170751 219:0.33573883 220:0.19840299 221:0.39129704 222:0.47704935 223:0.60227006 224:0.77711484 225:0.72424141 226:0.33916768 227:0.28405307 228:0.12755654 230:0.08409316 231:0.15313769 232:0.1616488 233:0.3349047 234:0.3125426 235:0.4310782 236:0.58891416 237:0.55416983 238:0.33225784 239:0.31521992 240:0.12643266 243:0.041940415 244:0.041109939 245:0.21641882 246:0.38726369 247:0.48615173 248:0.43050813 249:0.40243489 250:0.17877506 251:0.035372872 257:0.38153563 258:0.45472418 259:0.37080657 260:0.36403913 261:0.44753768 262:0.20443545 263:0.0015113457 269:0.35613347 270:0.45564363 271:0.35406687 272:0.1992482 273:0.41034916 274:0.25030775 275:0.0072504369 281:0.098692893 282:0.31595275 283:0.25006232 284:0.03510753 285:0.03991769 286:0.047137596 287:0.0071068687 293:0.099114812 294:0.19872644 295:0.097639184 305:0.27622061 306:0.55352626 307:0.51153696 308:0.144671 313:0.14703112 314:0.1451706 317:0.17359887 318:0.44853801 319:0.73427859 320:0.36879074 325:0.29744695 326:0.39078934 327:0.20278724 328:0.089031166 330:0.097047134 331:0.22608023 332:0.28715103 333:0.18958365 337:0.15221427 338:0.33150995 339:0.29403478 340:0.30867377 341:0.37156003 342:0.29327591 343:0.24647151 344:0.56350554 345:0.39404753 346:0.17855279 349:0.0046822816 350:0.0095299151 351:0.09064738 352:0.25717912 353:0.36523043 354:0.38004063 355:0.63709059 356:0.78518408 357:0.64345081 358:0.24861676 359:0.11782052 362:0.094474746 363:0.2733872 364:0.36131883 365:0.48266577 366:0.33372198 367:0.75060752 368:0.95490772 369:0.45618353 370:0.31898987 371:0.34537297 372:0.21774619 374:0.094474746 375:0.27156624 376:0.36528796 377:0.47677987 378:0.38908657 379:0.55258994 380:0.84179095 381:0.70798891 382:0.54618833 383:0.52794086 384:0.22476701 387:0.17876383 388:0.17691172 389:0.08502129 390:0.18271836 391:0.27924348 392:0.46113077 393:0.51822349 394:0.42070634 395:0.18617622 396:0.008136167 401:0.076482235 402:0.075800366 404:0.19700176 405:0.47130044 406:0.47057206 407:0.19593541 413:0.12390238 414:0.28803494 415:0.34519166 416:0.50283109 417:0.63433084 418:0.56375096 419:0.29581796 420:0.097436318 425:0.046481167 426:0.20803205 427:0.34436737 428:0.35680405 429:0.35438747 430:0.37642685 431:0.28996037 432:0.09550695 437:0.015802558 438:0.015821397 439:1.8465939e-05 449:0.28554281 450:0.61169513 451:0.39297245 452:0.22409892 457:0.34716755 458:0.34463453 461:0.2646382 462:0.58901193 463:0.55664563 464:0.42085427 469:0.44965145 470:0.45083517 471:0.21706402 473:0.011838972 474:0.011838972 475:0.23296768 476:0.39471549 477:0.19721002 481:0.22685315 482:0.44391717 483:0.21276586 485:0.046093169 486:0.046093169 487:0.3509 488:0.6316379 489:0.41813353 490:0.19377442 497:0.10247934 498:0.10247934 499:0.55793737 500:0.8940511 501:0.51467896 502:0.19377442 506:0.02958772 507:0.13688959 508:0.12430452 509:0.40873432 510:0.39102702 511:0.74703567 512:0.9388029 513:0.59756239 514:0.65923742 515:0.88025646 516:0.44056369 518:0.02958772 519:0.13582723 520:0.15448045 521:0.37690248 522:0.398975 523:0.73940198 524:0.89593891 525:0.63923888 526:0.77153699 527:1 528:0.66474119 531:0.081881894 532:0.081301848 533:0.25302313 534:0.49235424 535:0.49562912 536:0.48940337 537:0.32804129 538:0.32215997 539:0.54633747 540:0.21973849 545:0.59702508 546:0.83200461 547:0.68451506 548:0.66307993 549:0.76832546 550:0.45613443 551:0.21444274 557:0.36676108 558:0.75545292 559:0.65778999 560:0.62477451 561:0.86041252 562:0.69507406 563:0.28310514 564:0.12266174 569:0.141493 570:0.141493 571:0.11900987 572:0.19720307 573:0.20077032 574:0.23946213 575:0.27749928 576:0.12023288 595:0.16805601 596:0.16638382 607:0.49916811 608:0.49257854 613:0.33443565 614:0.33112452 615:0.16390669 619:0.3311121 620:0.49506809 621:0.16472828 625:0.33112452 626:0.33443565 627:0.16390669 629:0.50165766 630:0.66223662 631:0.49750834 632:0.83609331 633:0.65897478 637:0.16390669 638:0.16390669 641:0.49832993 642:0.66887548 643:0.82779885 644:1 645:0.99005 653:0.16721783 654:0.65975948 655:0.66389216 656:0.83112663 657:0.81791479 665:0.16390669 666:0.16721783 667:0.49750834 668:0.83443776 669:0.82122592 679:0.16390669 680:0.49585279 681:0.48927982 689:0.33443565 690:0.33112452 691:0.16390669 692:0.16638382 693:0.16805601 694:0.16472828 701:0.33112452 702:0.33443565 703:0.16390669 705:0.16472828 706:0.16146644 713:0.16390669 714:0.16390669 
0.02023266449008661 0.1091947441469956 0.113293510643101 0.02050600426560889 0.02346858202417167 0.01094292796041635 0.04864752763534358 0.06110661883228865 0.04686034096322633 17:0.19828296 18:0.28906672 19:0.19575577 20:0.10048771 25:0.06908671 26:0.067754773 29:0.38274512 30:0.56083551 31:0.46636028 32:0.37744345 33:0.16304243 37:0.27041223 38:0.26603616 39:0.0018035227 41:0.37099397 42:0.44029727 43:0.41468066 44:0.55767767 45:0.34207471 49:0.22111842 50:0.35001548 51:0.12929251 53:0.43351801 54:0.42663902 55:0.27094756 56:0.48258956 57:0.34338101 58:0.044232571 61:0.058711454 62:0.32375663 63:0.29796853 65:0.54034152 66:0.53492313 67:0.38267635 68:0.78371306 69:0.49832476 70:0.044232571 74:0.26166304 75:0.35191482 76:0.16072981 77:0.4703425 78:0.55190513 79:0.66068406 80:0.96298009 81:0.60809666 82:0.059067352 83:0.14560987 84:0.086447681 86:0.089493755 87:0.20646175 88:0.15931924 89:0.37944044 90:0.38483037 91:0.72716899 92:1 93:0.64464487 94:0.13196053 95:0.21788372 96:0.10622914 101:0.25796545 102:0.42938524 103:0.60953609 104:0.75571897 105:0.56549366 106:0.11048099 107:0.13026245 108:0.019389759 113:0.23529442 114:0.40660082 115:0.40172629 116:0.40547858 117:0.50430304 118:0.10812252 125:0.16244711 126:0.25087895 127:0.16812703 128:0.19516468 129:0.30350292 130:0.106193 137:0.079001896 138:0.079001896 161:0.0065931873 162:0.14596685 163:0.44925116 164:0.30622397 169:0.11385906 170:0.11385906 173:0.031426679 174:0.22350396 175:0.56301896 176:0.48646238 177:0.11335519 181:0.52202919 182:0.77502366 183:0.39618855 184:0.13091157 185:0.061913405 186:0.11532821 187:0.2793056 188:0.37826244 189:0.18366187 193:0.51782118 194:0.95085942 195:0.86116261 196:0.39777086 197:0.3466866 198:0.32900603 199:0.34311158 200:0.63200844 201:0.43505356 202:0.14941024 205:0.11164564 206:0.56315735 207:0.60773054 208:0.31155639 209:0.48021996 210:0.46441076 211:0.41703584 212:0.77476477 213:0.71150764 214:0.31560775 215:0.076087335 218:0.40642439 219:0.40353063 220:0.17058218 221:0.3274603 222:0.46469135 223:0.5854557 224:0.83320704 225:0.73070816 226:0.38999055 227:0.21360185 228:0.066037374 230:0.19419505 231:0.32980844 232:0.26617707 233:0.26005655 234:0.23366157 235:0.36533185 236:0.64652403 237:0.73526593 238:0.43995345 239:0.24445 240:0.066037374 243:0.096852362 244:0.094934556 245:0.20512955 246:0.29772818 247:0.39413088 248:0.33023872 249:0.36459407 250:0.22036694 251:0.033753198 257:0.39004729 258:0.44938558 259:0.36169651 260:0.28490946 261:0.36652162 262:0.17903283 263:0.0015884106 269:0.35645259 270:0.44028399 271:0.33174309 272:0.16131316 273:0.35110079 274:0.22536913 275:0.0097306744 281:0.10595295 282:0.30079948 283:0.22118714 284:0.028507687 285:0.037264683 286:0.04696327 287:0.0095379941 305:0.21472144 306:0.44273059 307:0.38646855 308:0.16744398 313:0.151165 314:0.14966463 317:0.21046967 318:0.53665237 319:0.74197965 320:0.5310671 321:0.11110939 325:0.28536413 326:0.39427538 327:0.22008228 328:0.10711743 330:0.099981167 331:0.42475781 332:0.54170625 333:0.21889376 337:0.18217263 338:0.31925859 339:0.29227761 340:0.3649363 341:0.43127235 342:0.34056017 343:0.28617023 344:0.65060249 345:0.45346441 346:0.2041001 349:0.0048328684 350:0.0049304988 351:0.10219152 352:0.30821051 353:0.42392734 354:0.44042331 355:0.73630108 356:0.90621212 357:0.73509261 358:0.27797274 359:0.07090944 362:0.12897298 363:0.35144362 364:0.43604119 365:0.43417639 366:0.27162053 367:0.794485 368:0.95925396 369:0.56723079 370:0.34145668 371:0.33541867 372:0.18055626 374:0.12861688 375:0.34889106 376:0.46035493 377:0.42959949 378:0.32385801 379:0.56754845 380:0.83249529 381:0.73972799 382:0.67057343 383:0.55398163 384:0.19158899 387:0.2192218 388:0.21704594 389:0.09949301 390:0.20001538 391:0.27543862 392:0.41515122 393:0.47742133 394:0.47211794 395:0.22137072 396:0.010814272 401:0.094242093 402:0.093388237 403:0.00013074208 404:0.28751989 405:0.60375359 406:0.54246673 407:0.22574437 413:0.15317088 414:0.34698527 415:0.40802737 416:0.56708629 417:0.88491222 418:0.79696957 419:0.34077351 420:0.11258719 425:0.05793435 426:0.24874705 427:0.40689962 428:0.40965507 429:0.49966527 430:0.524987 431:0.33402575 432:0.11035782 449:0.14037644 450:0.40347522 451:0.31425971 452:0.17497674 457:0.1871703 458:0.18470859 461:0.1376903 462:0.39812189 463:0.54331053 464:0.40093024 469:0.26594513 470:0.26579296 471:0.062224795 473:0.0046282756 474:0.0046282756 475:0.30700805 476:0.43376851 477:0.18119561 481:0.19984944 482:0.26207423 483:0.060992661 485:0.062282213 486:0.061779888 487:0.33346292 488:0.5073597 489:0.30496951 490:0.09996963 497:0.1081432 498:0.10733265 499:0.67686826 500:0.89941618 501:0.49254408 502:0.09996963 506:0.0053992677 507:0.084935885 508:0.085173388 509:0.10776542 510:0.13787011 511:0.74778676 512:1 513:0.71748284 514:0.50513382 515:0.67610891 516:0.34179955 518:0.0053992677 519:0.084184394 520:0.091278092 521:0.086804151 522:0.1114494 523:0.59105798 524:0.82560519 525:0.57510281 526:0.61543409 527:0.79175745 528:0.52374401 531:0.04610719 532:0.046001341 533:0.20913927 534:0.41688649 535:0.46044529 536:0.36942095 537:0.22327769 538:0.25797455 539:0.43991901 540:0.17834172 545:0.72913078 546:0.92827484 547:0.56606803 548:0.34906093 549:0.43104072 550:0.28697291 551:0.20101217 557:0.53762386 558:0.86073428 559:0.53829133 560:0.500135 561:0.53701523 562:0.39867871 563:0.25500832 564:0.13266618 569:0.17830007 570:0.17830007 571:0.098860021 572:0.15485761 573:0.18894486 574:0.21632433 575:0.24995882 576:0.13003922 595:0.20140029 596:0.19939633 607:0.79860472 608:0.7907077 609:0.1964277 613:0.40179609 614:0.39384 619:0.59323632 620:0.7897231 621:0.39384 625:0.39979213 626:0.39979213 629:0.60119242 630:0.79363213 631:0.39582403 632:0.80158822 633:0.5932954 637:0.1964277 638:0.1964277 641:0.59720443 642:0.80158822 643:0.79561615 644:0.99801592 645:0.99005983 653:0.19939633 654:0.5902677 655:0.79561615 656:0.9960319 657:0.98019867 665:0.19939633 666:0.20140029 667:0.59621983 668:1 669:0.98416678 678:0.1974123 679:0.1964277 680:0.5942358 681:0.58635867 689:0.40179609 690:0.39979213 691:0.1964277 692:0.39979213 693:0.40179609 694:0.39384 701:0.39384 702:0.39979213 703:0.1964277 704:0.1964277 705:0.3978081 706:0.38993097 
0.02884432463379787 0.07957915812112597 0.07794340956919174 0.01288326406975048 0.02114874699625665 0.01002694277266136 0.04498454056355408 0.05550101076184896 0.04110612774258581 17:0.17764333 18:0.26219076 19:0.17183072 20:0.083239755 25:0.064427868 26:0.063196181 29:0.34900695 30:0.56530616 31:0.47613436 32:0.34059156 33:0.14101128 37:0.24212759 38:0.23805181 39:0.0043960125 41:0.34523952 42:0.46071133 43:0.44987555 44:0.560238 45:0.30952071 49:0.20377393 50:0.32055273 51:0.12141905 53:0.36172189 54:0.35614047 55:0.26847253 56:0.47465128 57:0.34327998 58:0.049011892 61:0.059220452 62:0.31422838 63:0.28674005 65:0.38116221 66:0.37695832 67:0.42879907 68:0.80995993 69:0.48855046 70:0.049011892 74:0.33475411 75:0.33922495 76:0.14878522 77:0.36101455 78:0.39392523 79:0.62885491 80:0.97055838 81:0.62927393 82:0.051400172 83:0.11260292 84:0.06126351 86:0.16619396 87:0.27482985 88:0.22896974 89:0.35307094 90:0.36239927 91:0.6953289 92:1 93:0.65378408 94:0.12041746 95:0.18116747 96:0.078329175 99:0.081469212 100:0.079856014 101:0.23621484 102:0.38196836 103:0.54832195 104:0.69429949 105:0.51876874 106:0.10181708 107:0.11888274 108:0.016727743 113:0.21502622 114:0.36220472 115:0.35784706 116:0.37141384 117:0.46314962 118:0.09734123 125:0.15012678 126:0.23892962 127:0.16027045 128:0.18081206 129:0.27834153 130:0.095598256 137:0.075129515 138:0.075129515 161:0.0077621181 162:0.27077694 163:0.60998037 164:0.34270644 169:0.12956311 170:0.12956311 173:0.034931431 174:0.41586773 175:0.81807127 176:0.67440915 177:0.14401005 181:0.52881386 182:0.72297155 183:0.35815283 184:0.0777767 185:0.069510594 186:0.18810548 187:0.39304548 188:0.59948239 189:0.20713565 193:0.52781809 194:0.91167848 195:0.86757158 196:0.29083823 197:0.37946995 198:0.35931493 199:0.37790305 200:0.62647756 201:0.40086687 202:0.096909524 205:0.12969652 206:0.61972501 207:0.67780645 208:0.28741939 209:0.50301164 210:0.48369269 211:0.56273066 212:0.97257146 213:0.73313671 214:0.33939451 215:0.08450887 218:0.33109992 219:0.36744446 220:0.12228312 221:0.38229728 222:0.49974279 223:0.66599385 224:0.90756316 225:0.83945202 226:0.50660918 227:0.32365523 228:0.094322859 230:0.083504263 231:0.23998278 232:0.16528209 233:0.33627453 234:0.30325057 235:0.51368094 236:0.74555429 237:0.70431846 238:0.49804831 239:0.36274227 240:0.094322859 243:0.044426095 244:0.0435464 245:0.23378961 246:0.38548968 247:0.46630179 248:0.44258805 249:0.41806469 250:0.18630301 251:0.042325919 257:0.40438099 258:0.48107499 259:0.39297588 260:0.41223157 261:0.50333935 262:0.24121635 263:0.0025421114 269:0.37484726 270:0.47010171 271:0.35884367 272:0.23199836 273:0.48456022 274:0.29379196 275:0.012214443 281:0.10820745 282:0.33450189 283:0.2565161 284:0.032785752 285:0.041829629 286:0.053992719 287:0.011972581 305:0.19279488 306:0.43285647 307:0.33704409 308:0.14207634 313:0.15934253 314:0.15776099 317:0.18897728 318:0.51226253 319:0.69742664 320:0.42507457 321:0.099272255 325:0.28034786 326:0.34816145 327:0.13143639 328:0.046841591 330:0.08648039 331:0.37572569 332:0.45721845 333:0.099272255 337:0.17473517 338:0.31015755 339:0.22292533 340:0.27833998 341:0.39885461 342:0.3175501 343:0.25832982 344:0.39774195 345:0.22105544 346:0.093995709 349:0.003449198 350:0.0035188764 351:0.091272776 352:0.22777322 353:0.39227606 354:0.40731871 355:0.66053258 356:0.8240093 357:0.47451775 358:0.2016384 359:0.051529366 362:0.093993051 363:0.36406279 364:0.5518204 365:0.48248893 366:0.25261039 367:0.73955955 368:0.94891394 369:0.50960409 370:0.35800833 371:0.35155422 372:0.16250839 374:0.093993051 375:0.36220912 376:0.54616862 377:0.55461508 378:0.38425579 379:0.53682332 380:0.83300884 381:0.77045401 382:0.66519725 383:0.54284715 384:0.17294912 387:0.18186873 388:0.26502299 389:0.26663659 390:0.27448962 391:0.24857237 392:0.43994221 393:0.53284928 394:0.4356118 395:0.19353338 396:0.010233988 401:0.078762551 402:0.078018625 404:0.1925243 405:0.4746993 406:0.48424659 407:0.20185396 413:0.13242435 414:0.30873236 415:0.36370633 416:0.5053633 417:0.72825707 418:0.66085002 419:0.30405922 420:0.10060605 425:0.052599223 426:0.2261453 427:0.36289877 428:0.36925622 429:0.44743197 430:0.46917943 431:0.29803845 432:0.098613915 449:0.21473579 450:0.40781666 451:0.25265719 452:0.055304947 457:0.19441466 458:0.19150001 461:0.21088198 462:0.40384058 463:0.60190745 464:0.39974772 469:0.28368866 470:0.28327494 471:0.046750089 473:0.019713669 474:0.019713669 475:0.43710882 476:0.62124712 477:0.21075271 481:0.23266579 482:0.27941587 483:0.045824376 485:0.04294397 486:0.04294397 487:0.38389431 488:0.56697401 489:0.33542135 490:0.097080812 497:0.10605079 498:0.10546171 499:0.58718349 500:0.83761865 501:0.36341512 502:0.097080812 506:0.024971193 507:0.15444897 508:0.14745509 509:0.21421184 510:0.19508519 511:0.6808507 512:0.97178913 513:0.6463727 514:0.57724948 515:0.77676567 516:0.38889725 518:0.024971193 519:0.1537737 520:0.17341423 521:0.18102441 522:0.19753272 523:0.71711834 524:1 525:0.68684739 526:0.78803643 527:0.99276649 528:0.59823266 531:0.071583025 532:0.11818867 533:0.24215783 534:0.46598436 535:0.54417092 536:0.46004024 537:0.27579148 538:0.38306145 539:0.59239685 540:0.20519029 545:0.63806451 546:0.85626178 547:0.6426289 548:0.40263104 549:0.49612061 550:0.34700717 551:0.2489152 557:0.42144009 558:0.78468997 559:0.62027915 560:0.5908466 561:0.63207298 562:0.45564751 563:0.31066315 564:0.17102404 569:0.20800276 570:0.20800276 571:0.1139392 572:0.19230341 573:0.2306046 574:0.24665777 575:0.30451161 576:0.16763754 594:0.16652547 595:0.50208473 596:0.32891474 606:0.16652547 607:1 608:0.82358201 609:0.16404623 613:0.33555926 614:0.32891474 619:0.49793188 620:0.82856957 621:0.32891474 625:0.33388565 626:0.33388565 629:0.50208473 630:0.66280039 631:0.3305717 632:0.50208473 633:0.32891474 637:0.16404623 638:0.16404623 641:0.49875417 642:0.66944491 643:0.66445735 644:0.83263982 645:0.66280039 653:0.16652547 654:0.49296097 655:0.49709717 656:0.664474 657:0.65456487 665:0.16652547 666:0.16819908 667:0.33388565 668:0.66778796 669:0.65787882 678:0.16486851 679:0.16404623 680:0.49627492 681:0.48969636 689:0.33472036 690:0.33140641 691:0.16404623 692:0.33388565 693:0.33555926 694:0.32891474 701:0.33140641 702:0.33472036 703:0.16404623 704:0.16404623 705:0.3322287 706:0.32565013 713:0.16404623 714:0.16404623 
0.07502357879460042 0.3565893369628558 0.2588280635923103 0.03935833248982859 0.04051211169790619 0.01581758281593346 0.1233639200214637 0.1290950355027999 0.08802411475765597 17:0.17150945 18:0.256359 19:0.17244259 20:0.083668953 25:0.025527201 26:0.025057398 29:0.34236282 30:0.5684602 31:0.48592154 32:0.3450194 33:0.14120396 37:0.19844074 38:0.19509218 39:0.0035580301 41:0.34436302 42:0.46912712 43:0.45871725 44:0.56950282 45:0.30916599 49:0.20274385 50:0.28298891 51:0.081445839 53:0.39534967 54:0.3890504 55:0.29345833 56:0.50037475 57:0.35610941 58:0.052138284 61:0.06084702 62:0.29199593 63:0.25723843 65:0.49480372 66:0.48831423 67:0.45682308 68:0.83420236 69:0.50883324 70:0.052138284 74:0.33323052 75:0.3442854 76:0.14835201 77:0.44103999 78:0.50572499 79:0.6324099 80:0.96981636 81:0.63842194 82:0.046894155 83:0.096505247 84:0.049819049 86:0.15482964 87:0.26842788 88:0.21804281 89:0.35320888 90:0.44074356 91:0.69529473 92:1 93:0.65405222 94:0.11372724 95:0.16299291 96:0.060814897 99:0.070982207 100:0.069576666 101:0.25489265 102:0.39821439 103:0.55028836 104:0.69018899 105:0.51592582 106:0.10124724 107:0.11224309 108:0.010778116 113:0.21321291 114:0.36501715 115:0.36061311 116:0.4311541 117:0.52284357 118:0.17396211 125:0.12997746 126:0.23519968 127:0.15988273 128:0.17310743 129:0.33903602 130:0.17223547 137:0.072044993 138:0.072044993 161:0.007004958 162:0.2260223 163:0.50280934 164:0.28050059 169:0.11252931 170:0.11252931 173:0.031355046 174:0.33885617 175:0.67833163 176:0.54625687 177:0.12393677 181:0.45458629 182:0.61708001 183:0.30646878 184:0.066173067 185:0.060640359 186:0.14970165 187:0.33393819 188:0.51174733 189:0.17814204 193:0.4503202 194:0.68745037 195:0.6483688 196:0.24659 197:0.32544574 198:0.30960709 199:0.45166458 200:0.61623962 201:0.45514802 202:0.083667668 205:0.10931673 206:0.439941 207:0.49319846 208:0.24367994 209:0.45467106 210:0.43920433 211:0.60628288 212:1 213:0.77117248 214:0.29150047 215:0.071110061 218:0.27574025 219:0.318217 220:0.10117304 221:0.366202 222:0.44902885 223:0.60930185 224:0.91613533 225:0.75073554 226:0.37915087 227:0.25632693 228:0.11417843 230:0.07364191 231:0.19735355 232:0.14520737 233:0.30264332 234:0.34029285 235:0.46546686 236:0.71400277 237:0.65306017 238:0.348794 239:0.28885401 240:0.11417843 243:0.033320758 244:0.044256723 245:0.1990578 246:0.32311941 247:0.39380318 248:0.35390248 249:0.32904186 250:0.13680541 251:0.035319675 257:0.3590001 258:0.41159678 259:0.34405048 260:0.34640893 261:0.42363462 262:0.19639243 263:0.0025129741 269:0.33433006 270:0.41659618 271:0.32832726 272:0.18915143 273:0.39509881 274:0.24240869 275:0.011997815 281:0.085656726 282:0.27980829 283:0.21944939 284:0.027490069 285:0.034867224 286:0.046814274 287:0.011760243 305:0.21341985 306:0.47286563 307:0.38796273 308:0.12608341 313:0.20962281 314:0.20754222 317:0.20919386 318:0.61325306 319:0.75032889 320:0.34168163 325:0.34468576 326:0.41991213 327:0.1657303 328:0.051227202 330:0.14683574 331:0.42085914 332:0.52645259 333:0.1079727 337:0.20743273 338:0.37787967 339:0.26628098 340:0.30418118 341:0.43252 342:0.34425775 343:0.27272366 344:0.40613948 345:0.31985141 346:0.10184772 349:0.004049238 350:0.004131038 351:0.10064885 352:0.25048765 353:0.42538876 354:0.44137442 355:0.70690845 356:0.88550901 357:0.50757882 358:0.21674164 359:0.05557859 362:0.1011975 363:0.40877744 364:0.61572478 365:0.5127487 366:0.20478455 367:0.80025017 368:0.9581612 369:0.54463213 370:0.31838852 371:0.31128897 372:0.17615238 374:0.1011975 375:0.40663706 376:0.61864829 377:0.61298287 378:0.3059649 379:0.58087546 380:0.90439116 381:0.75034778 382:0.57234621 383:0.52704376 384:0.18926513 387:0.19988143 388:0.39502235 389:0.3915671 390:0.29307024 391:0.26669059 392:0.47878892 393:0.49661642 394:0.39684873 395:0.21813081 396:0.012853099 401:0.094641814 402:0.093816373 403:0.0072588507 404:0.19765541 405:0.50518078 406:0.5256391 407:0.2185785 413:0.15008714 414:0.34188632 415:0.40227505 416:0.53791744 417:0.77901408 418:0.73849922 419:0.3288631 420:0.1090133 425:0.056320633 426:0.24513104 427:0.39416018 428:0.3996357 429:0.48257007 430:0.50601363 431:0.32235118 432:0.10685469 449:0.19379655 450:0.37859898 451:0.27416103 452:0.084167677 457:0.1655597 458:0.16250191 461:0.1906187 462:0.46127945 463:0.58932878 464:0.35323247 469:0.32075688 470:0.31932457 471:0.011025747 473:0.032650295 474:0.084166413 475:0.46007719 476:0.70163634 477:0.2419983 481:0.30501831 482:0.31604405 483:0.010807422 485:0.076681515 486:0.075998298 487:0.45822149 488:0.63306199 489:0.35933278 490:0.087091429 497:0.13686604 498:0.13560259 499:0.61899895 500:0.86918577 501:0.4032688 502:0.087091429 506:0.017389975 507:0.13604562 508:0.11771496 509:0.14707934 510:0.16681821 511:0.66211006 512:0.99950891 513:0.67979335 514:0.38820924 515:0.58487511 516:0.19828449 518:0.017389975 519:0.13557276 520:0.13634765 521:0.11606925 522:0.14782522 523:0.71556635 524:1 525:0.67302333 526:0.51642943 527:0.7155067 528:0.40206342 531:0.063782566 532:0.11024068 533:0.23126572 534:0.41003952 535:0.50800759 536:0.4686808 537:0.27495296 538:0.30571526 539:0.50949419 540:0.19974384 545:0.58876609 546:0.76277092 547:0.56898959 548:0.40054093 549:0.49032282 550:0.33548157 551:0.241246 557:0.38229087 558:0.71431611 559:0.56802927 560:0.55535387 561:0.60618382 562:0.44624522 563:0.29976049 564:0.16745184 569:0.18840426 570:0.18840426 571:0.10924425 572:0.16931087 573:0.20687974 574:0.23563317 575:0.29382484 576:0.16413607 594:0.16638382 595:0.33360165 596:0.16390669 606:0.33360165 607:0.83442112 608:0.49585279 613:0.33527383 614:0.32863497 618:0.16390669 619:0.66472617 620:0.99177148 621:0.32863497 625:0.33360165 626:0.33360165 629:0.50165766 630:0.66223662 631:0.49419721 632:0.66556435 633:0.49175695 637:0.16390669 638:0.16390669 641:0.49832993 642:0.66887548 643:0.66389216 644:0.99998758 645:0.82862044 653:0.16638382 654:0.49254166 655:0.49667434 656:0.83029263 657:0.82039192 665:0.16638382 666:0.16805601 667:0.33360165 668:0.66721994 669:0.65731923 678:0.16472828 679:0.16390669 680:0.49585279 681:0.48927982 689:0.33443565 690:0.33112452 691:0.16390669 692:0.16721783 693:0.16721783 694:0.16390669 701:0.33112452 702:0.33443565 703:0.16390669 704:0.16390669 705:0.16721783 706:0.16390669 713:0.16390669 714:0.16390669 
0.1180057049646459 0.4662290103545273 0.3890016155396066 0.06573155385729453 0.08249718256900404 0.03667354306349175 0.1917968205671404 0.2270754994029535 0.1539845245817388 17:0.17169749 18:0.25681384 19:0.16744476 20:0.078461317 25:0.061482605 26:0.060265168 29:0.34416448 30:0.56140943 31:0.47300215 32:0.3408847 33:0.13963285 37:0.23026819 38:0.22613592 41:0.34640161 42:0.46169821 43:0.45056444 44:0.55810022 45:0.30949912 49:0.20659713 50:0.2848106 51:0.083024032 53:0.3238728 54:0.32167327 55:0.2603923 56:0.4549066 57:0.32986539 58:0.039051116 61:0.05840513 62:0.29887622 63:0.25992165 65:0.34364918 66:0.33859539 67:0.41483293 68:0.78640541 69:0.47013349 70:0.039051116 74:0.26314016 75:0.34740642 76:0.15815884 77:0.36129812 78:0.35948242 79:0.61483395 80:0.9642304 81:0.61640194 82:0.07329399 83:0.15429569 84:0.081321536 86:0.083479515 87:0.21313981 88:0.15668009 89:0.34600965 90:0.35993205 91:0.69388163 92:1 93:0.65298505 94:0.14036966 95:0.22118325 96:0.097030714 101:0.25239587 102:0.39956321 103:0.5679952 104:0.70763708 105:0.52984317 106:0.12269806 107:0.13840724 108:0.015398116 113:0.40207083 114:0.48997837 115:0.33303139 116:0.34950812 117:0.36873239 118:0.091483881 125:0.31235825 126:0.35274679 127:0.19876108 128:0.16426295 129:0.25574683 130:0.089672379 137:0.073684179 138:0.15504416 139:0.079748942 140:0.071481332 141:0.071481332 161:0.0078397959 162:0.26747949 163:0.58675355 164:0.32345756 169:0.12914266 170:0.12914266 173:0.037336985 174:0.42536797 175:0.80115443 176:0.65015672 177:0.14972234 181:0.60639379 182:0.87282872 183:0.43653854 184:0.14135305 185:0.0724145 186:0.20139944 187:0.3914361 188:0.60673898 189:0.21593177 193:0.60261214 194:0.94673819 195:0.83203319 196:0.4298805 197:0.38629205 198:0.36997231 199:0.37395986 200:0.621559 201:0.40381991 202:0.096452487 205:0.12774036 206:0.52476074 207:0.56378481 208:0.33648014 209:0.52541342 210:0.50961839 211:0.48958161 212:0.90150239 213:0.72414124 214:0.30585851 215:0.14267327 218:0.43876735 219:0.43535932 220:0.17005469 221:0.34956455 222:0.5224823 223:0.5846791 224:0.88774137 225:0.67550435 226:0.34168345 227:0.27310102 228:0.11269667 230:0.2093801 231:0.34867059 232:0.2733987 233:0.30084619 234:0.27248447 235:0.4390592 236:0.6774205 237:0.60990487 238:0.33792493 239:0.30518921 240:0.11151428 243:0.10442571 244:0.10235795 245:0.21145834 246:0.28653531 247:0.41491833 248:0.40332932 249:0.41264769 250:0.17928361 251:0.036435784 257:0.42805395 258:0.54687526 259:0.37234782 260:0.34231246 261:0.38863936 262:0.20976938 263:0.010362752 269:0.3529363 270:0.48837938 271:0.34601144 272:0.16261184 273:0.29746029 274:0.20794495 275:0.010362752 281:0.11567755 282:0.30094662 283:0.21502643 284:0.059624443 285:0.028903924 305:0.21261395 306:0.47238265 307:0.38445433 308:0.12232303 313:0.15167829 314:0.15017282 317:0.20840391 318:0.6333217 319:0.77218808 320:0.34270407 325:0.29427841 326:0.41114097 327:0.23182584 328:0.11094282 330:0.16727659 331:0.44886551 332:0.55637092 333:0.11029643 337:0.18134312 338:0.33463935 339:0.30486517 340:0.37200455 341:0.43475347 342:0.34161885 343:0.29569571 344:0.43348552 345:0.32677005 346:0.10410353 349:0.0083944321 350:0.0085640109 351:0.10999497 352:0.31802656 353:0.42737203 354:0.44092628 355:0.72197611 356:0.90751551 357:0.52983332 358:0.2794021 359:0.14870425 362:0.21904044 363:0.42488452 364:0.4216989 365:0.42087016 366:0.45648989 367:0.83069475 368:1 369:0.52211947 370:0.37837607 371:0.41437524 372:0.26836076 374:0.21686638 375:0.41863447 376:0.5298583 377:0.42087016 378:0.30324513 379:0.59270507 380:0.85753857 381:0.64655468 382:0.53950611 383:0.62652099 384:0.27506961 387:0.1081594 388:0.1060177 389:0.0038971858 390:0.0038971858 391:0.20247834 392:0.48830339 393:0.49529107 394:0.39632741 395:0.21657043 396:0.0082814521 401:0.11402082 402:0.18708095 403:0.16305977 404:0.5893822 405:0.90056963 406:0.78747871 407:0.38141467 408:0.11060185 413:0.1100007 414:0.37678948 415:0.55467772 416:0.65476186 417:0.815753 418:0.87476323 419:0.58724074 420:0.18307301 425:0.042566203 426:0.26100107 427:0.42889445 428:0.49465952 429:0.47620314 430:0.36946374 431:0.24742304 432:0.071036131 449:0.17240804 450:0.30627124 451:0.21232075 452:0.074030571 457:0.19218637 458:0.18959617 461:0.16964276 462:0.37892661 463:0.49673898 464:0.28117805 469:0.26801538 470:0.26787771 471:0.060766 473:0.032108167 474:0.074029497 475:0.37322809 476:0.56430899 477:0.19124666 481:0.20329395 482:0.26405995 483:0.059562753 485:0.039346069 486:0.038566964 487:0.33860537 488:0.5196759 489:0.31896358 490:0.10565878 497:0.088075141 498:0.08696904 499:0.69621274 500:0.92965794 501:0.51450641 502:0.10565878 506:0.035308519 507:0.1119085 508:0.11101856 509:0.12190656 510:0.12774223 511:0.7109555 512:1 513:0.73881431 514:0.50927256 515:0.67549946 516:0.33715138 518:0.034727248 519:0.10981045 520:0.11691271 521:0.095005518 522:0.12190571 523:0.54889727 524:0.79353924 525:0.58199974 526:0.59546893 527:0.76743924 528:0.51630623 531:0.0058941493 532:0.0057774373 533:0.20751482 534:0.32117393 535:0.3804703 536:0.44428556 537:0.22678517 538:0.24101272 539:0.42016758 540:0.17560735 545:0.49787864 546:0.60576645 547:0.40596653 548:0.47041705 549:0.49291413 550:0.3517165 551:0.27379455 552:0.12718906 557:0.30660338 558:0.49449024 559:0.35778224 560:0.36892111 561:0.54556683 562:0.34912792 563:0.32058129 564:0.2050478 570:0.022350644 571:0.091772713 572:0.17945811 573:0.1948345 574:0.17118781 575:0.18610337 576:0.07631703 594:0.19939633 595:0.39979213 596:0.1964277 606:0.39979213 607:0.99998006 608:0.5942358 613:0.40179609 614:0.39384 618:0.1964277 619:0.79463161 620:0.98815477 621:0.1974123 625:0.39979213 626:0.39979213 629:0.40179609 630:0.5942358 631:0.39582403 632:0.60119242 633:0.39384 637:0.1964277 638:0.1964277 641:0.39979213 642:0.60018793 643:0.79561615 644:0.99699656 645:0.79363213 653:0.2003958 654:0.5932512 655:0.79561615 656:0.9960319 657:0.98019867 665:0.1964277 666:0.2003958 667:0.59621983 668:1 669:0.98416678 679:0.1964277 680:0.5942358 681:0.58635867 689:0.60119242 690:0.59720443 691:0.1964277 692:0.60119242 693:0.59323632 694:0.1974123 701:0.59323632 702:0.60119242 703:0.39384 704:0.39979213 705:0.59720443 706:0.19350327 714:0.1974123 715:0.19350327 716:0.1964277 717:0.1964277 
