svm_type c_svc
kernel_type rbf
gamma 0.125
nr_class 7
total_sv 504
rho -0.287464 -0.309813 0.340208 0.953839 -0.136273 -0.565939 -0.0237881 0.575596 0.973118 0.156836 -0.333323 0.588553 0.979628 0.179717 -0.312058 0.916019 -0.455461 -0.759695 -0.962346 -0.984768 -0.465604
label 1 2 3 4 6 7 8
probA 5.75403 3.25783 -0.74369 -19.6615 -5.28027 4.64246 3.7718 7.17597 -58.0817 5.80382 1.7918 4.03767 -39.1167 7.24038 1.88339 -28.9684 4.15437 6.32912 -24.0486 25.7777 3.22975
probB -2.53735 -1.82185 0.410264 -13.9154 0.582366 -4.05758 0.0822474 5.75764 -52.1205 1.78004 -1.09865 3.68854 -32.9178 2.01888 -1.19025 -23.0147 -2.71565 -6.82598 17.938 -31.7341 -2.59683
nr_sv 4 2 2 8 484 3 1
SV
0.7078526849900585 0.6860015730496012 1.33149384654592 1.944729477340231 0.8584997194482734 0.4307094609313418 7:0.34853806 8:0.61882289 9:0.2694465 18:0.11540708 19:0.57590723 20:1 21:0.53824963 29:0.094980094 30:0.44177981 31:0.46164847 32:0.7278475 33:0.54569356 34:0.2694465 41:0.28589246 42:0.51309827 43:0.53441231 44:0.33994393 45:0.27216129 46:0.26677213 53:0.38041305 54:0.37992749 55:0.29999779 56:0.11199628 62:0.13644454 63:0.13644454 64:0.19043628 65:0.37992749 66:0.37756833 68:0.12982495 69:0.12982495 70:0.25960868 71:0.25960868 72:0.12755213 74:0.41001757 75:0.41001757 76:0.26950005 77:0.28495687 78:0.28116707 80:0.32408683 81:0.32150324 82:0.51664064 83:0.51664064 84:0.38329574 86:0.2708577 87:0.41003121 88:0.40191205 89:0.094035026 90:0.092173008 91:0.12982495 92:0.38819275 93:0.387542 94:0.25703196 95:0.52423429 96:0.51087657 99:0.1350869 100:0.132412 103:0.12853638 104:0.25901208 105:0.25642849 107:0.53813893 108:0.52748306 116:0.064105918 117:0.062836536 119:0.5443376 120:0.54162271 131:0.4058819 132:0.4058819 143:0.13371989 144:0.13371989 151:0.25985153 152:0.5838741 153:0.51326163 163:0.25470612 164:0.69929614 165:0.63868514 176:0.18735605 177:0.25023083 178:0.1235562 188:0.061623654 189:0.12480108 190:0.12232985 214:0.15129181 215:0.15129181 216:0.074333385 218:0.30717612 219:0.30717612 226:0.30108199 227:0.30108199 228:0.22337275 230:0.61589196 231:0.98257669 232:0.91389864 233:0.029379452 234:0.00093392511 235:9.4291236e-05 236:1.5156645e-07 238:0.14979018 239:0.30221294 240:0.29772286 242:0.30260286 243:0.94829287 244:0.99286217 245:0.057760303 246:0.0016983555 247:0.00014258544 248:4.7104082e-05 249:7.5591876e-08 251:0.28981109 252:0.28833181 255:0.027721239 256:0.083302671 257:0.056616572 258:0.0016647259 259:0.00013976206 260:4.6171359e-05 261:7.4095056e-08 263:0.26609315 264:0.26609315 275:0.1908097 276:0.1908097 287:0.062863242 288:0.062863242 295:0.037511349 296:0.075210724 297:0.074092834 307:0.036768574 308:0.074835609 309:0.074092834 317:0.20080177 318:0.60341184 319:0.39861399 329:0.20080177 330:0.60341184 331:0.60343192 332:0.19880376 342:0.39661598 343:0.59148317 344:0.19486718 350:0.2045877 351:0.61467951 352:0.81204746 353:0.40199707 356:0.162497 357:0.52894381 358:0.77050183 359:0.60437039 360:0.19911294 362:0.21045761 363:0.62054943 364:0.81821994 365:0.6105063 366:0.20049103 368:0.15927934 369:0.51847002 370:0.75524487 371:0.60437039 372:0.19911294 374:0.011769249 375:0.60230992 376:1 377:0.81525723 378:0.81625869 379:0.8163201 380:0.40613938 386:0.0057825214 387:0.56402583 388:0.96004899 389:0.81525723 390:0.81983523 391:0.82038114 392:0.61482404 393:0.20255695 399:0.18361292 400:0.56918095 401:0.78547299 402:0.80360141 403:0.80413651 404:0.60264971 405:0.19854606 439:0.26098496 440:0.25753685 441:0.085130132 450:0.086416709 451:0.43123877 452:0.34653317 453:0.085130132 461:0.11871881 462:0.38340989 463:0.35014877 464:0.34223382 473:0.3573466 474:0.53153865 475:0.49918858 476:0.25454969 485:0.47549106 486:0.47979277 487:0.32262694 488:0.083862709 494:0.053149225 495:0.056042762 496:0.2436798 497:0.4775861 498:0.47193534 500:0.33388011 501:0.4475207 502:0.28036462 503:0.06206685 504:0.0031989702 506:0.15971409 507:0.16260762 508:0.24131722 509:0.36164921 510:0.35144018 512:0.8334773 513:0.93822324 514:0.6092739 515:0.06206685 516:0.0031989702 518:0.10550716 519:0.15986716 520:0.16212196 521:0.12290123 522:0.11521014 523:0.33388011 524:0.99834307 525:0.99666949 526:0.32564472 531:0.052620381 532:0.051578428 535:0.33056621 536:0.66611989 537:0.65947549 548:0.16486578 549:0.16160121 608:0.99501248 609:0.99501248 610:0.97530991 620:0.97530991 621:0.99501248 622:0.97530991 695:0.99501248 696:0.97530991 707:0.99501248 708:0.99501248 719:0.97530991 720:0.97530991 
0.6911240549688485 0.6669152298321234 1.294372847670768 1.901971029960929 0.8335125427045263 0.418045747791833 20:0.3395896 21:0.3395896 22:0.11396187 32:0.40019256 33:0.4006821 34:0.3888303 44:0.061739077 45:0.30176679 46:0.30617631 47:0.017533416 56:0.0039373924 57:0.63892298 58:0.63857406 59:0.37741882 69:0.99619067 70:0.99384601 71:0.8272614 80:0.058920599 81:0.74208175 82:0.86439826 83:0.61573113 86:0.29117392 87:0.28598681 88:0.028637953 92:0.074777403 93:0.36839029 94:0.51000189 95:0.14782942 98:0.52377437 99:0.5223162 100:0.028637953 104:0.015542818 105:0.13215543 106:0.1229746 110:0.45942328 111:0.45942328 164:0.40238195 165:0.40238195 166:0.19770014 176:0.39838814 177:0.4043989 178:0.39639126 189:0.83351176 190:0.82798268 191:0.27233344 201:0.98896942 202:1 203:0.7092235 213:0.16319155 214:0.44018675 215:0.43147047 242:0.25402421 243:0.37804047 244:0.1955222 245:0.074921173 246:0.0070430361 247:0.00060243506 254:0.24899419 255:0.37055477 256:0.1955222 257:0.074921173 258:0.0070430361 259:0.00060243506 306:0.45341853 307:0.9023367 308:0.97547493 309:0.67282167 310:0.22166457 318:0.44444025 319:0.90561251 320:1 321:0.74669495 322:0.29407506 330:0.034609785 331:0.14674321 332:0.13200172 333:0.31458756 334:0.25014308 341:0.13106784 342:0.20879247 343:0.19078993 344:0.16666912 345:0.24134181 346:0.17916642 351:0.029591641 352:0.10873291 353:0.25254041 354:0.25738009 355:0.19790969 356:0.067681424 362:0.0064828621 363:0.12544349 364:0.19613761 365:0.22402881 366:0.16833685 367:0.042256858 374:0.01299822 375:0.10118647 376:0.16996057 377:0.096655238 379:0.098354851 380:0.17500165 381:0.07512909 386:0.41433021 387:0.81073562 388:0.86048315 389:0.89651485 390:0.85502428 391:0.72473996 392:0.59122498 393:0.27053126 398:0.39986604 399:0.78842209 400:0.82861463 401:0.88803763 402:0.85502428 403:0.72473996 404:0.55046396 405:0.2298092 452:0.12107769 453:0.12107769 463:0.13981184 464:0.71957174 465:0.57369984 466:0.26948953 474:0.13057671 475:0.6833494 476:1 477:0.85317976 478:0.26711588 485:0.37459738 486:0.6345865 487:0.66723639 488:0.82887043 489:0.42302666 490:0.019136551 491:0.0094022582 495:0.13401808 496:0.39665605 497:0.76068116 498:0.75914941 499:0.63429557 500:0.25535027 501:0.24635774 502:0.24471459 503:0.079487701 506:0.14986573 507:0.70455557 508:0.80913145 509:0.77725245 510:0.4985333 511:0.12077187 512:0.14951983 513:0.61435612 514:0.45846756 515:0.1516449 518:0.57575943 519:0.9856329 520:0.9800413 521:0.39410287 523:0.12822643 524:0.70790724 525:0.81041999 526:0.69587109 527:0.080127877 530:0.43369791 531:0.73391415 532:0.44070556 533:0.028553212 534:0.11898761 535:0.39279423 536:0.72571519 537:0.9058789 538:0.40906446 542:0.14796003 543:0.14796003 545:0.027987821 546:0.11663149 547:0.25932901 548:0.47163701 549:0.33632228 594:1 595:0.99004983 606:0.99004983 607:0.99004983 621:1 622:0.99004983 633:0.99004983 634:0.99004983 
0.5849693090821649 0.575750159411004 1.100429594856257 1.631445458067835 0.7079008207342637 0.3560261398418215 8:0.20161184 9:0.19761966 19:0.30846077 20:0.87402306 21:0.55436341 31:0.38467987 32:0.99874533 33:0.99131677 43:0.077579479 44:0.54407072 45:0.53138332 55:0.0065670985 56:0.16365679 57:0.31245255 58:0.19586749 68:0.060391906 69:0.62265078 70:0.55750502 71:0.088640893 73:0.16859635 74:0.16859635 81:0.8611179 82:0.85935389 83:0.5463842 85:0.3380378 86:0.35006207 87:0.34333492 93:0.60601285 94:0.8071807 95:0.79119745 97:0.16608628 98:0.34669008 99:0.3400297 105:0.15652947 106:0.37553697 107:0.33370938 117:0.034391462 118:0.034391462 152:0.022007199 153:0.021571427 164:0.044124709 165:0.043904636 175:0.15895323 176:0.18063278 177:0.043468864 187:0.31870321 188:0.772237 189:0.47291157 199:0.15658672 200:0.72513684 201:1 202:0.37336062 212:0.14867398 213:0.74161191 214:0.68622195 215:0.096446295 225:0.30161902 226:0.4123632 227:0.19337603 229:0.15339369 230:0.49626614 231:0.47063895 232:0.13121096 238:0.096929734 239:0.095010397 241:0.15035629 242:0.49017611 243:0.56744346 244:0.34252547 245:0.25488377 246:0.14148302 247:0.059481463 248:0.00039263314 249:2.5432378e-05 254:0.092717801 255:0.25922191 256:0.33804133 257:0.25374889 258:0.17138255 259:0.089654678 260:0.0007423575 261:5.1506005e-05 270:0.029307482 271:0.029990931 272:0.00072765784 273:5.0486118e-05 296:0.20680355 297:0.20270856 307:0.022548234 308:0.22935178 309:0.21788205 319:0.25290193 320:0.25243556 321:0.2249211 330:0.082012038 331:0.33556654 332:0.29031329 333:0.21587864 340:0.046791529 341:0.16404224 342:0.19716819 343:0.1630997 344:0.29777416 345:0.2009065 351:0.13951911 352:0.27968047 353:0.26905021 354:0.24365231 355:0.091863846 356:0.022742406 361:0.039373488 362:0.13186034 363:0.27675598 364:0.27834927 365:0.27800523 366:0.13759842 373:0.039373488 374:0.41420971 375:0.68211197 376:0.30805465 377:0.044767529 381:0.041700771 382:0.040875041 386:0.28155846 387:0.67740517 388:0.70758053 389:0.74069287 390:0.92489209 391:0.99668007 392:0.83886108 393:0.46138234 394:0.14775687 398:0.084173576 399:0.32481344 400:0.6574054 401:0.73809274 402:0.91481912 403:0.99336148 404:0.94131946 405:0.67168931 406:0.14693114 414:0.20448445 415:0.61488916 416:0.81715294 417:0.40674006 440:0.09592527 441:0.094025823 451:0.26827122 452:0.56360129 453:0.32318036 463:0.67915862 464:0.97743528 465:0.79457897 474:0.37779518 475:0.91288708 476:1 477:0.60465935 484:0.10963104 485:0.46524726 486:0.72621527 487:0.75591203 488:0.6447887 489:0.1333304 495:0.33134426 496:0.65969806 497:0.67926966 498:0.69461552 499:0.36390481 500:0.12180285 501:0.00044279594 502:0.00044279594 505:0.12869239 506:0.35473558 507:0.66410125 508:0.66076144 509:0.66177577 510:0.3303875 513:0.075289009 514:0.075289009 515:0.0086779628 517:0.16775462 518:0.39160396 519:0.6102654 520:0.43610609 521:0.10682687 525:0.31629646 526:0.31390429 527:0.19286456 529:0.038288747 530:0.27944176 531:0.27614535 536:0.25131794 537:0.48781946 538:0.41894388 539:0.18289277 548:0.24769961 549:0.36904825 550:0.22996427 560:0.06722822 561:0.06722822 595:0.49750624 596:0.49750624 607:0.99501248 608:0.99501248 609:0.49255597 619:0.49750624 620:0.99506223 621:0.97535868 632:0.49255597 633:0.48280271 
0.5957451893191608 0.5783007967416918 1.116911633208989 1.64766370376388 0.7186002577147427 0.3609218294171807 8:0.36320353 9:0.36189907 10:0.14608365 19:0.40897294 20:0.94651455 21:0.691781 22:0.41655029 31:0.42512193 32:0.62729245 33:0.80488942 34:0.2675595 43:0.020074614 44:0.28945465 45:0.31319726 46:0.052649052 55:0.0066136853 56:0.048022687 57:0.32688505 58:0.27645743 59:0.066068034 69:0.31293136 70:0.72127198 71:0.44714201 74:0.14748478 75:0.14456439 81:0.19257688 82:1 83:0.79143507 86:0.16418728 87:0.16402109 93:0.25341246 94:0.80944647 95:0.80530035 98:0.1611007 99:0.1611007 105:0.14743416 106:0.44520754 107:0.41806126 117:0.022144372 118:0.044399742 119:0.021814685 152:0.090816833 153:0.090816833 154:0.044620542 164:0.089915438 165:0.091272054 166:0.089464746 175:0.04540614 176:0.36676669 177:0.31811607 178:0.043956229 187:0.04540614 188:0.67130649 189:0.76963045 190:0.31110523 200:0.30140528 201:0.93604317 202:0.83414829 203:0.10970764 213:0.43547126 214:0.81871446 215:0.4039962 218:0.1532327 219:0.15019849 225:0.091325401 226:0.29613346 227:0.29210531 230:0.41010052 231:0.7262263 232:0.44090157 233:0.12065812 242:0.30266693 243:0.56941013 244:0.48495239 245:0.36564612 246:0.2147402 247:0.10528403 248:0.036007395 249:0.0029095808 255:0.07840115 256:0.298506 257:0.36004815 258:0.21354862 259:0.10528403 260:0.036007395 261:0.0029095808 296:0.30006407 297:0.29828731 298:0.11865536 307:0.029924145 308:0.35766536 309:0.36006788 310:0.20704908 319:0.16688167 320:0.28943326 321:0.23545308 322:0.086643408 329:0.02125163 330:0.078366528 331:0.20818017 332:0.26037357 333:0.21538804 340:0.057266951 341:0.15686234 342:0.15543101 343:0.12710551 344:0.2557768 345:0.21112307 351:0.084860594 352:0.17041544 353:0.17115577 354:0.14887821 355:0.06249402 362:0.077400994 363:0.16072595 364:0.16946722 365:0.16879796 366:0.055854421 374:0.19272088 375:0.58812859 376:0.82938572 377:0.68851333 378:0.38239497 379:0.12598467 381:0.021280826 382:0.020859438 386:0.11406224 387:0.50659909 388:0.91694319 389:1 390:0.87672849 391:0.58497055 392:0.50577567 393:0.40535141 394:0.15066675 399:0.079832657 400:0.27967336 401:0.48500369 402:0.49245141 403:0.4753543 404:0.50577567 405:0.40493002 406:0.15024536 440:0.20564178 441:0.20348996 442:0.041913799 451:0.10867017 452:0.66597819 453:0.55028109 454:0.19979207 463:0.51679425 464:1 465:0.88871166 466:0.1568155 473:0.11752139 474:0.48805965 475:0.89978688 476:0.93089862 477:0.53979778 484:0.21947868 485:0.6816483 486:0.82535902 487:0.86094734 488:0.51789662 489:0.13227478 495:0.33088383 496:0.65914884 497:0.66821637 498:0.6861451 499:0.34559156 502:0.00094491758 503:0.00092620695 506:0.35650428 507:0.68041147 508:0.66202161 509:0.65093305 510:0.21406508 513:0.069142451 514:0.14547237 515:0.074818482 518:0.35195462 519:0.47445822 520:0.47389226 521:0.3489908 522:0.11308042 523:1.776256e-07 525:0.44662857 526:0.51941028 527:0.26779456 530:0.12422925 531:0.12700167 532:0.46906554 533:0.471359 534:0.11308042 535:1.776256e-07 536:0.13926383 537:0.63166012 538:0.70100269 539:0.38291634 544:0.22670872 545:0.22445854 548:0.13650622 549:0.37971796 550:0.43339296 551:0.12170321 595:0.49750624 596:0.49750624 607:0.99501248 608:0.99501248 609:0.49255597 619:0.49750624 620:0.99506223 621:0.97535868 632:0.49255597 633:0.48280271 664:0.5 665:1 666:0.99009934 667:0.49009934 676:0.49009934 677:0.98019867 678:0.99009934 679:0.49009934 
-1.291867755675333 0.9774864498315373 1.588191079647949 1.981441557513197 1.16015536501309 0.667062019298854 34:0.22503232 35:0.22379845 40:0.055109529 41:0.054562544 43:0.063431807 44:0.06280379 45:0.031087887 46:0.55066941 47:0.54944779 48:0.32139826 51:0.062509792 52:0.17300509 53:0.1088516 54:0.094989527 55:0.18904018 56:0.12607741 57:0.031087887 58:0.68563393 59:0.68323652 60:0.59798519 63:0.25129406 64:0.30363591 65:0.23286553 66:0.15779411 67:0.18951001 68:0.12497721 69:0.044772023 70:0.571668 71:0.64539783 72:0.39585786 75:0.52027467 76:0.53153817 77:0.16966444 78:0.13531503 79:0.1451764 80:0.030625048 81:0.098286019 82:0.37718557 83:0.49184505 84:0.11690921 87:0.98199451 88:0.99621497 89:0.23094572 90:0.11480342 91:0.050668411 92:0.005664161 93:0.055405667 94:0.14467242 95:0.13165972 99:0.9792659 100:0.98735099 101:0.54298483 102:0.041961382 104:0.0027829415 105:0.0084189933 106:0.008307392 111:0.38561544 112:0.70359956 113:0.547776 123:0.053279053 124:0.21898612 125:0.21464991 165:0.22771109 166:0.22545096 177:0.34185128 178:0.99483712 179:0.64657454 189:0.11188006 190:0.77881825 191:0.88537985 192:0.223042 202:0.21408863 203:0.44536955 204:0.22670125 215:0.0079197459 216:0.0077629244 219:0.0064409781 220:0.0063134381 231:0.073428592 232:0.071986296 233:0.00012936598 243:0.24927663 244:0.24797367 245:0.0028849882 255:0.36428477 256:0.39909064 257:0.35934029 267:0.17785108 268:0.36018648 269:0.35305431 307:0.28325262 308:0.65834148 309:0.67258177 310:0.29560709 317:0.05217444 318:0.24260696 319:0.5680216 320:0.75216009 321:0.78352527 322:0.70793716 323:0.32842861 328:0.05217444 329:0.13063241 330:0.26458896 331:0.40387327 332:0.65282513 333:0.73903858 334:0.69830177 335:0.32626449 340:0.051656587 341:0.10409255 342:0.12881733 343:0.025252936 353:0.025763079 354:0.025252936 375:0.37234541 376:0.43336113 377:0.063524586 379:0.036607358 380:0.14716433 381:0.10909631 382:0.036062345 387:0.37234541 388:0.43897071 389:0.24384407 390:0.35492351 391:0.40654152 392:0.3030359 393:0.2099058 394:0.036062345 399:0.19316957 400:0.8156542 401:0.9969374 402:0.59950166 403:0.41888374 404:0.32875967 405:0.13506142 411:0.18934455 412:0.56455857 413:0.75792177 414:0.59500941 415:0.28395861 416:0.06252863 451:0.15542731 452:0.16086841 453:0.010415078 454:0.0034313013 461:0.26484746 462:0.4735469 463:0.44241203 464:0.31359164 465:0.087267442 466:0.0069491189 472:0.39321215 473:0.78893804 474:0.66048643 475:0.53057895 476:0.43506768 477:0.20770988 478:0.043057462 479:0.043057462 483:0.12772446 484:0.77568069 485:0.78448291 486:0.65390147 487:0.74289784 488:0.49546418 489:0.12217045 490:0.1726615 491:0.17180463 492:0.085045452 495:0.41714792 496:0.70306691 497:0.73355038 498:0.63031441 499:0.74474421 500:0.49114055 501:0.11198444 502:0.46638729 503:0.34907769 504:0.12683037 507:0.38239595 508:0.63656998 509:0.69033983 510:0.65702362 511:0.63408713 512:0.1501796 513:0.71571772 514:0.78296177 515:0.56838956 516:0.041784921 519:0.20566621 520:0.80960419 521:1 522:0.8346544 523:0.26248563 524:0.67404147 525:0.99297875 526:0.96986075 527:0.36693573 531:0.11078657 532:0.55984518 533:0.8357578 534:0.42701435 535:0.65440609 536:0.74329496 537:0.93986437 538:0.44162855 543:0.009047189 544:0.26197194 545:0.31804039 546:0.42989696 547:0.52420197 548:0.67088374 549:0.36372788 555:0.00015431523 556:0.0075061834 557:0.070986174 558:0.22985907 559:0.26216792 560:0.098595022 619:0.99501248 620:0.99501248 621:0.97530991 631:0.97530991 632:0.99501248 633:0.97530991 663:0.99501248 664:0.99501248 665:0.97530991 675:0.97530991 676:0.99501248 677:0.97530991 
-1.2878234826849 0.9775279931276369 1.580821047527497 1.977766627491444 1.156975703475759 0.6669746802693556 18:0.19636316 19:0.19636316 27:0.032973521 28:0.066112321 29:0.032482609 30:0.59007375 31:0.59007375 32:0.387849 33:0.0336154 39:0.26845218 40:0.29758439 41:0.098266838 42:0.78351344 43:0.78744082 44:0.78886708 45:0.084756614 46:0.050380661 50:0.056110454 51:0.80966651 52:0.74262724 53:0.096964223 54:0.78351344 55:0.78744082 56:0.78853009 57:0.29390939 58:0.27655878 59:0.11960995 62:0.22444322 63:0.86704929 64:0.887024 65:0.22546607 66:0.60122724 67:0.73045696 68:0.64737283 69:0.36305379 70:0.69271458 71:0.480847 74:0.17856056 75:0.44651427 76:0.60404176 77:0.26603644 78:0.20863107 79:0.40513012 80:0.25952382 81:0.11960995 82:0.86192586 83:0.77187003 86:0.012208848 87:0.092579405 88:0.17112879 89:0.079115831 90:0.068964074 91:0.068964074 94:0.82604716 95:0.82192723 99:0.012208848 100:0.049327737 101:0.036629291 105:0.14253386 106:0.84071218 107:0.75847072 117:0.18004384 118:0.6575748 119:0.64205669 129:0.037014397 130:0.31891259 131:0.29096846 141:0.012235299 142:0.012235299 162:0.0066646697 163:0.0066646697 174:0.078967994 175:0.2758856 176:0.39302921 177:0.1954584 183:0.0041439102 184:0.0040618553 186:0.084366338 187:0.27867796 188:0.48940479 189:0.52482561 190:0.29294084 194:0.078956018 195:0.18339584 196:0.10486907 198:0.026592862 199:0.026726159 200:0.18785461 201:0.55423327 202:0.48892195 203:0.096996243 206:0.33804888 207:0.63681781 208:0.40116668 209:0.14656758 210:0.013230115 211:0.020028083 212:0.0196315 213:0.18723663 214:0.33165205 215:0.23090052 218:0.3572484 219:0.85772191 220:0.87474126 221:0.50754487 222:0.061738489 223:0.0065983552 224:0.006467699 225:0.04433732 226:0.18177225 227:0.17999424 230:0.099284561 231:0.50243233 232:1 233:0.65784124 234:0.088534159 238:0.049563971 239:0.049563971 243:0.099284561 244:0.40114208 245:0.56884628 246:0.48856448 247:0.1458141 250:0.0052007557 251:0.0052007557 257:0.26738428 258:0.50395916 259:0.45654709 260:0.26043407 261:0.041067388 262:0.0017134158 263:0.0017134158 270:0.14508322 271:0.36364205 272:0.34299807 273:0.12423763 284:0.082340626 285:0.081523362 316:0.23270495 317:0.73289475 318:1 319:0.84339105 320:0.44164084 321:0.096292089 328:0.23040102 329:0.72064077 330:0.98019867 331:0.84339105 332:0.63860789 333:0.29130416 340:0.11404854 341:0.11404854 344:0.19306684 345:0.19115058 353:0.031820849 354:0.063801201 355:0.031347099 364:0.34577092 365:0.64950918 366:0.57174878 367:0.094831677 376:0.41999454 377:0.72625561 378:0.5704791 379:0.093574598 388:0.080263672 389:0.31856578 390:0.39530379 391:0.15625386 401:0.19618504 402:0.43232207 403:0.6965763 404:0.84633209 405:0.5788972 406:0.19072067 414:0.15547066 415:0.53265235 416:0.84028901 417:0.88683683 418:0.38625015 428:0.34216888 429:0.72156734 430:0.37860188 459:0.15368108 460:0.40670203 461:0.34979755 462:0.19623446 463:0.0022948942 464:0.00075606473 471:0.46258391 472:0.71059471 473:0.65464386 474:0.19623446 475:0.0022948942 476:0.00075606473 483:0.30584449 484:0.61244783 485:0.45192526 486:0.12142083 487:0.12142083 495:0.15139307 496:0.15139307 497:0.1592272 498:0.68534395 499:0.52051957 500:0.23982578 508:0.0079171024 509:0.48799709 510:0.8767465 511:0.83818777 512:0.23744541 520:0.0077603333 521:0.32225981 522:0.64151234 523:0.46823456 526:0.058532124 527:0.057373111 537:0.17158561 538:0.34747538 539:0.17240692 548:0.08298083 549:0.77194427 550:0.79913346 551:0.51305477 560:0.08298083 561:0.59351224 562:0.78470329 563:0.39291863 572:0.040770522 573:0.25077644 574:0.20919456 594:0.99004983 595:0.99004983 606:0.99004983 607:1 608:0.98019867 619:0.98019867 620:0.96078944 626:0.99501248 627:0.97530991 638:0.99501248 639:0.99501248 650:0.97530991 651:0.97530991 
-1.254936062462757 -0.9768339699909173 1.515954069416343 1.93054180825492 1.125253947866516 0.6556323197526541 32:0.39170679 33:0.38395048 39:0.15430761 40:0.15290684 44:0.49494464 45:0.57161367 46:0.082678158 51:0.30017555 52:0.66886703 53:0.37230446 56:0.1914953 57:0.46743402 58:0.2952873 63:0.14369898 64:0.96279211 65:0.81503723 69:0.57960551 70:0.57796017 71:0.26686237 76:0.90479425 77:0.89497374 81:0.80110553 82:0.80110553 83:0.70984324 87:0.29885939 88:0.99650305 89:0.99353674 93:0.85155122 94:0.87361098 95:0.85631232 99:0.66118473 100:0.84089691 101:0.83200195 105:0.41494679 106:0.62934545 107:0.61688358 111:0.60097732 112:0.75248285 113:0.62150298 118:0.20579041 119:0.20171549 123:0.23390791 124:0.45172804 125:0.3267035 176:0.25998643 177:0.25483835 183:0.65787055 184:0.64916438 188:0.66725818 189:0.85889174 190:0.20802823 195:0.81620265 196:0.99256475 197:0.4672976 200:0.40381375 201:0.98621574 202:0.76011063 207:0.21494615 208:0.78430438 209:0.56185908 213:0.54818615 214:0.81819725 215:0.26842676 220:0.10423313 221:0.10423313 225:0.20613798 226:0.36918301 227:0.3618727 232:0.0077017434 233:0.0077017434 238:0.096611603 239:0.094698565 244:0.00059959685 245:0.00059959685 307:0.20195312 308:0.44982101 309:0.30029725 310:0.14924533 316:0.11760139 317:0.32113202 318:0.38819176 319:0.38556411 320:0.44383486 321:0.36443567 322:0.14924533 327:0.42477619 328:0.80246423 329:0.691314 330:0.53809706 331:0.36889224 332:0.22959414 333:0.062868391 339:0.41636506 340:0.67130164 341:0.6869418 342:0.43047673 343:0.098510802 381:0.23513762 382:0.23117719 387:0.15098375 388:0.46903003 389:0.6497996 390:0.84356748 391:0.84886863 392:0.77153116 393:0.99700259 394:0.64533972 395:0.034779852 399:0.32084761 400:0.63796814 401:0.75766972 402:0.83680323 403:0.84532566 404:0.75625382 405:0.99304217 406:0.64067669 407:0.034091165 411:0.16650033 412:0.47514406 413:0.74505637 414:0.65086356 415:0.3291019 451:0.56217536 452:0.89274272 453:0.52092376 454:0.13777267 460:0.13371076 461:0.4020937 462:0.57690127 463:0.86645287 464:0.90783885 465:0.71062751 466:0.13777267 471:0.087770789 472:0.45251574 473:0.63092547 474:0.669528 475:0.61676564 476:0.51630101 477:0.18594736 483:0.086032811 484:0.31249222 485:0.57557206 486:0.5071391 487:0.1300416 501:0.0021383535 502:0.0021383535 508:0.066511936 509:0.065194911 513:0.040728817 514:0.040728817 515:0.02107752 519:0.17638375 520:0.33122008 521:0.24010114 525:0.62921264 526:0.62499085 527:0.16745299 531:0.50585371 532:0.73428951 533:0.41358569 534:0.28559998 535:0.26920611 536:0.25599963 537:0.83575674 538:0.80634333 539:0.39143705 543:0.77389043 544:0.93933954 545:0.86066737 546:0.29890061 547:0.27261025 548:0.2509305 549:0.50821891 550:0.64817393 551:0.2405378 555:0.43564091 556:0.7564337 557:0.67871115 558:0.24069085 559:0.11007672 596:0.50125 597:0.50125 598:0.49132458 608:0.99508711 609:1 610:0.49132458 620:0.49875 621:0.49875 
-1.252031696571663 -0.9781804729682569 1.520679155704193 1.929045018917457 1.125194146771469 0.6563025810058716 20:0.027362581 21:0.026820766 31:0.10789791 32:0.15534356 33:0.046506166 43:0.10789791 44:0.27151582 45:0.23554079 46:0.060605431 51:0.058652313 52:0.058652313 56:0.22696678 57:0.43803435 58:0.28951802 63:0.11759862 64:0.36327043 65:0.24080718 68:0.083371687 69:0.5474778 70:0.4723997 71:0.13360417 75:0.057779094 76:0.82730065 77:0.76175921 78:0.14462152 81:0.39778662 82:0.63411083 83:0.51117034 88:0.9964587 89:0.99358065 90:0.60637706 93:0.12601347 94:0.66221043 95:0.65700598 100:0.94845339 101:0.94845339 102:0.92679292 106:0.2797647 107:0.2797647 112:0.71085377 113:0.95332703 114:0.93444989 124:0.23419528 125:0.47429553 126:0.46490385 163:0.071589137 164:0.29357635 165:0.21759157 175:0.23528694 176:0.62179251 177:0.37885224 182:0.256795 183:0.25444416 187:0.16511537 188:0.77432252 189:0.79319133 190:0.15560624 194:0.39556045 195:0.72828307 196:0.43941626 200:0.5625569 201:1 202:0.51101965 206:0.13601771 207:0.59539747 208:0.8597279 209:0.41715699 212:0.12310847 213:0.51018757 214:0.55466241 215:0.09074217 219:0.12511289 220:0.58436909 221:0.64338192 222:0.063525005 225:0.25447785 226:0.44948285 227:0.3374292 232:0.19747538 233:0.29817839 234:0.13279518 237:0.084154481 238:0.46809215 239:0.46486531 244:0.005525923 245:0.069477918 246:0.068102163 250:0.21781138 251:0.21781138 256:1.3515412e-05 257:9.841957e-05 258:9.6470732e-05 268:8.1962442e-08 269:1.9813528e-06 270:1.9421194e-06 307:0.57895184 308:0.78829606 309:0.28882091 316:0.21493292 317:0.53680841 318:0.53756836 319:0.88915529 320:1 321:0.49806696 326:0.46743238 327:0.69878655 328:0.59212054 329:0.64565975 330:0.538865 331:0.63168817 332:0.51643574 333:0.2051027 338:0.49826888 339:0.76085376 340:0.79552993 341:0.54478342 342:0.31664239 343:0.10446188 350:0.18203265 351:0.38824131 352:0.20489238 353:0.0020626052 364:0.0020626052 365:0.0020217629 380:0.10929181 381:0.32803426 382:0.37195629 383:0.1523119 389:0.11150284 390:0.33925855 391:0.56656777 392:0.66943001 393:0.55360691 394:0.59049033 395:0.26260359 400:0.10964328 401:0.44583132 402:0.56171366 403:0.67590299 404:0.56501076 405:0.54924607 406:0.52197969 407:0.19845364 412:0.10747219 413:0.32770834 414:0.55333212 415:0.55431705 416:0.22213795 451:0.2970892 452:0.45241042 453:0.15495884 460:0.26455575 461:0.65757636 462:0.66737787 463:0.70927099 464:0.73287105 465:0.31382478 470:0.26752386 471:0.50731279 472:0.63679897 473:0.78559989 474:0.66082902 475:0.80825176 476:0.72382661 477:0.30761064 482:0.26521731 483:0.50022841 484:0.69081247 485:0.64430681 486:0.38791507 487:0.12731288 494:0.074209294 495:0.14879056 496:0.073104462 524:0.12838816 525:0.41217136 526:0.74478923 527:0.45439481 533:0.12463027 534:0.37096276 535:0.61457764 536:0.75292572 537:0.66831374 538:1 539:0.61363465 544:0.24371165 545:0.62361079 546:0.74399885 547:0.73983695 548:0.6177526 549:0.63258468 550:0.73952291 551:0.3583037 556:0.23888584 557:0.48910005 558:0.73902599 559:0.60729531 560:0.23842526 595:0.50753116 596:0.50248114 607:0.9999625 608:0.99011171 619:0.50248114 620:0.50753116 621:0.49748137 632:0.49748137 633:0.48763057 
-0.6024019761673014 -0.3947713274309905 -0.3755476199184377 1.790744666740565 0.4942176823370959 0.2174218400648645 46:0.16029876 47:0.15712463 51:0.14828396 52:0.28435517 53:0.1341567 58:0.5086489 59:0.50550628 60:0.1719347 63:0.68590419 64:0.81570014 65:0.38535372 70:0.80022948 71:0.79471771 72:0.51666593 75:0.97245022 76:1 77:0.5664228 82:0.66213151 83:0.76330629 84:0.34130963 87:0.73421627 88:0.86814237 89:0.58457804 93:0.17679179 94:0.4243788 95:0.42289209 99:0.37364345 100:0.60210271 101:0.59167364 104:0.026869082 105:0.25631705 106:0.27800622 107:0.22115251 111:0.074294645 112:0.38847402 113:0.39701408 114:0.012725288 116:0.026869082 117:0.10748102 118:0.18090706 119:0.072498858 124:0.087212252 125:0.12622439 126:0.038496719 129:0.053070784 130:0.052544035 137:0.025514362 138:0.025261122 176:0.12657606 177:0.59245379 178:0.46095207 188:0.12406968 189:0.58687358 190:0.71132681 191:0.30832528 201:0.15262679 202:0.55787362 203:0.49913102 204:0.095002372 207:0.041861718 208:0.0410328 214:0.1064254 215:0.20340421 216:0.10625534 219:0.14227046 220:0.14060847 221:0.028662495 226:0.0056124165 227:0.011366344 228:0.011141275 231:0.22862453 232:0.22780796 233:0.086131158 243:0.22993842 244:0.49223112 245:0.35556395 255:0.098891812 256:0.84187306 257:0.97412383 258:0.23631255 268:0.47630837 269:0.80130518 270:0.635497 271:0.15524989 281:0.31621342 282:0.46988897 283:0.15370897 317:0.16947196 318:0.51171747 319:0.72749321 320:0.74736409 321:0.63079056 322:0.24542784 328:0.081732826 329:0.58670623 330:0.99618155 331:1 332:0.95096591 333:0.82448836 334:0.39079032 335:0.039282835 339:0.0036616995 340:0.10680236 341:0.49621774 342:0.88444742 343:0.70071072 344:0.2610029 345:0.23546614 346:0.14372279 347:0.038895853 351:0.12096729 352:0.42965322 353:0.5251267 354:0.4539369 355:0.3603957 356:0.17212502 357:0.042178386 363:0.30147939 364:0.5826753 365:0.49306836 366:0.4571987 367:0.18885764 375:0.18226945 376:0.40384064 377:0.30772212 378:0.086700582 392:0.024271973 393:0.024271973 401:0.21219058 402:0.29219896 403:0.27114862 404:0.23618792 405:0.072698493 406:0.024030463 413:0.40495603 414:0.87146154 415:0.84376072 416:0.48437724 417:0.15351045 418:0.023554627 425:0.18894844 426:0.59360095 427:0.83840956 428:0.4308254 429:0.079687613 461:0.17809921 462:0.33228115 463:0.2070687 464:0.14969806 465:0.097531041 472:0.36714615 473:0.78968297 474:0.59791265 475:0.51923275 476:0.63176318 477:0.38813098 478:0.19064947 483:0.31661012 484:0.88051929 485:0.91867582 486:0.83731156 487:0.70641902 488:0.58242546 489:0.47974329 490:0.1887572 495:0.59483819 496:0.99095617 497:0.99235819 498:0.74320302 499:0.65509582 500:0.38504331 501:0.093670773 502:0.088102778 503:0.086938773 504:0.028738059 507:0.35173352 508:0.68935175 509:0.61253641 510:0.47995435 511:0.26067969 514:0.23374549 515:0.22968607 516:0.028738059 519:0.097363007 520:0.24373011 521:0.2113111 522:0.065214007 525:0.28534853 526:0.42859266 527:0.24658257 536:0.10878953 537:0.60588019 538:0.49076371 539:0.24828646 546:0.071818982 547:0.36212233 548:0.50754653 549:0.642195 550:0.52880624 551:0.10267234 557:0.0017184726 558:0.14744352 559:0.43382922 560:0.54204035 561:0.53559756 562:0.20979835 569:0.0016844446 570:0.074127069 571:0.21742743 572:0.31890294 573:0.10557432 608:0.99004983 609:0.99004983 618:1 619:0.99004983 620:0.99004983 621:1 622:0.98019867 630:0.99004983 631:0.99004983 633:0.98019867 634:0.96078944 
-0.6364431406796781 -0.4096324293405079 -0.4034785034905004 1.879864023745584 0.52603452148791 0.2313350114603109 45:0.011506867 46:0.023013733 47:0.011279015 57:0.011279015 58:0.49387376 59:0.48236689 60:0.23145705 64:0.065208007 65:0.22447324 66:0.23871195 67:0.077887906 70:0.99795183 71:0.99210238 72:0.69553134 76:0.53907403 77:0.69675119 78:0.53689495 79:0.23562757 81:0.055519246 82:0.72752387 83:0.90928294 84:0.45946816 88:0.94178988 89:0.94178988 90:0.91776529 91:0.15461621 93:0.22319155 94:0.45841014 95:0.40067563 100:0.92435689 101:0.93776602 102:0.91919701 105:0.16545703 106:0.22208114 107:0.10857108 112:0.57350939 113:0.81875047 114:0.80263817 117:0.054692672 118:0.054692672 124:0.11919676 125:0.35711721 126:0.35024641 137:0.004977452 138:0.004977452 176:0.11426901 177:0.22911079 178:0.11256776 188:0.11426901 189:0.6038039 190:0.74425114 191:0.25414168 201:0.36727369 202:0.88526117 203:0.77269305 204:0.25414168 209:0.37218097 210:0.55352949 211:0.18794029 214:0.25750263 215:0.51679516 216:0.25745259 220:0.00088352271 221:0.36926785 222:0.55542081 223:0.54793739 226:0.0016513161 227:0.0033442682 228:0.0032780472 232:0.011747003 233:0.011747003 234:0.35807226 235:0.35286868 244:0.15331332 245:0.15331332 246:0.021436511 256:0.40891215 257:0.94354477 258:0.67739297 268:0.26136803 269:0.92965413 270:0.92177938 281:0.26136803 282:0.26136803 305:0.01961597 306:0.039330265 307:0.019323926 316:0.029502227 317:0.28078845 318:0.65559788 319:0.82651009 320:0.8462544 321:0.54552902 322:0.12204665 326:0.098870181 327:0.48265248 328:0.69715912 329:0.89084918 330:0.9599145 331:0.99892024 332:0.85049627 333:0.88574926 334:0.58289237 335:0.12204665 338:0.4951847 339:0.95318005 340:0.89885892 341:0.78555979 342:0.87399073 343:0.92596192 344:0.83365531 345:0.87066346 346:0.57626904 347:0.12204665 350:0.38846697 351:0.66978643 352:0.60769944 353:0.38339062 354:0.38147845 355:0.18742974 365:0.37579897 366:0.38147845 367:0.18742974 380:0.0041453903 381:0.0083115595 382:0.0040836735 391:0.054237749 392:0.12124598 393:0.070012126 394:0.012353986 401:0.40273965 402:0.82965223 403:0.65104006 404:0.39471088 405:0.17813732 406:0.012190223 413:0.40273965 414:0.82737895 415:0.74515779 416:0.50149678 417:0.15949529 425:0.19787589 426:0.59461953 427:0.50590122 428:0.11085598 449:0.12610846 450:0.25284904 451:0.12423095 460:0.12610846 461:0.66012164 462:0.70995288 463:0.37582519 464:0.0053425691 465:0.0026579616 470:0.11932641 471:0.46015872 472:0.70595428 473:0.84231245 474:1 475:0.4801153 476:0.030822283 477:0.0040236893 478:0.0013256252 482:0.3597766 483:0.78357143 484:0.78418462 485:0.76276627 486:0.49200522 487:0.10763588 488:0.030211961 489:0.0039440149 490:0.0012993761 494:0.23568896 495:0.55260137 496:0.5374572 497:0.43283406 498:0.29029405 499:0.015256335 502:0.15928188 503:0.15717746 504:0.051955818 508:0.37620153 509:0.52847579 510:0.5267747 511:0.015256335 513:0.10622348 514:0.37069199 515:0.26497531 516:0.051955818 520:0.099462727 521:0.23848993 522:0.23376751 524:0.13613727 525:0.59322739 526:0.55742295 527:0.36798787 535:0.10366489 536:0.65094693 537:0.88847827 538:0.72385874 539:0.20772613 545:0.017268861 546:0.21206754 547:0.50623718 548:0.71619558 549:0.88342462 550:0.40033469 557:0.017268861 558:0.2107785 559:0.39714693 560:0.57253153 561:0.33683309 569:0.0084846161 570:0.080820981 571:0.13629658 572:0.062859224 594:0.99501248 595:0.97530991 606:0.99501248 607:0.99501248 618:0.97530991 619:0.97530991 642:0.99501248 643:0.97530991 654:0.99501248 655:0.99501248 666:0.97530991 667:0.97530991 
-0.5481989941400975 -0.3687211075763275 -0.3454942904992896 1.649987507721397 0.4541254288591206 0.1994559473678675 39:0.11742784 40:0.11584334 41:0.018379453 46:0.18243974 47:0.17882719 50:0.18879924 51:0.57602237 52:0.38028897 53:0.036851033 54:0.027051874 58:0.61594356 59:0.61236687 60:0.21388077 62:0.18879924 63:0.58566836 64:0.60036389 65:0.17182223 66:0.082110943 70:0.998488 71:0.99157154 72:0.64271439 75:0.42007896 76:0.51211878 77:0.48836094 78:0.25713425 81:0.072295126 82:0.77768085 83:0.85299994 84:0.42457727 87:0.34171719 88:0.86071703 89:0.77583878 90:0.17382718 92:0.003086598 93:0.084703482 94:0.39492312 95:0.39032917 99:0.76660374 100:0.93533937 101:0.88537881 104:0.003086598 105:0.012285198 106:0.15514119 107:0.14441792 111:0.46249635 112:0.67590665 113:0.66328074 117:0.0060965303 118:0.0060360197 123:0.037707214 124:0.28822442 125:0.28327513 175:0.075055592 176:0.37115852 177:0.63951788 178:0.34121844 187:0.073569392 188:0.36575863 189:0.80837878 190:0.88547024 191:0.51139688 194:0.031069634 195:0.18598963 196:0.15185237 201:0.26680499 202:0.89673608 203:0.74211444 204:0.11472604 206:0.031069634 207:0.34168616 208:0.3398278 214:0.1276874 215:0.24479603 216:0.12749443 219:0.33676018 220:0.33615108 226:0.0063682362 227:0.01289704 228:0.012641662 243:0.17143717 244:0.17143717 245:0.0093725372 255:0.33393454 256:0.63854897 257:0.49097774 267:0.15946529 268:0.55555913 269:0.62025134 270:0.069679451 280:0.069331923 281:0.13901137 282:0.068299705 316:0.1081043 317:0.40310728 318:0.57918324 319:0.56744023 320:0.56318525 321:0.38821723 322:0.097752592 327:0.032315653 328:0.17289759 329:0.43059593 330:0.71987035 331:1 332:0.85272415 333:0.49944926 334:0.29552779 335:0.057063962 339:0.03167576 340:0.24854721 341:0.34641859 342:0.44146153 343:0.61155341 344:0.53119709 345:0.30671685 346:0.21342081 347:0.056687949 351:0.31265318 352:0.59402936 353:0.52008305 354:0.29710814 355:0.50217967 356:0.522231 357:0.14622414 363:0.30646223 364:0.50664163 365:0.51469017 366:0.19077271 367:0.022114317 380:0.030726577 381:0.030726577 391:0.12319461 392:0.245495 393:0.12229713 394:0.06068996 400:0.36623163 401:0.68060061 402:0.49953842 403:0.36765075 404:0.33692486 405:0.18374055 406:0.060087587 412:0.36417318 413:0.67858292 414:0.56875458 415:0.46253608 416:0.30313516 417:0.089896506 424:0.10138854 425:0.41512267 426:0.46787942 427:0.15414529 460:0.23428227 461:0.46532193 462:0.26458778 463:0.12728047 464:0.033796064 471:0.40298611 472:0.75262669 473:0.63912282 474:0.3652988 475:0.14271953 476:0.035074042 482:0.094240297 483:0.58974952 484:0.74297397 485:0.68820064 486:0.65220483 487:0.40699239 488:0.16466415 489:0.0092527954 494:0.094240297 495:0.32994951 496:0.64252876 497:0.95508213 498:0.82844247 499:0.52942657 500:0.16284381 501:0.0090695778 502:0.16660088 503:0.16396464 504:0.032803884 507:0.1019363 508:0.64108616 509:0.93627156 510:0.78451805 511:0.12163957 513:0.14400598 514:0.5087769 515:0.35819753 516:0.032803884 519:0.070559287 520:0.36899701 521:0.46226655 522:0.21126981 524:0.14400598 525:0.72292084 526:0.77068751 527:0.58046859 531:0.1052268 532:0.22837276 533:0.22626825 535:0.20887871 536:0.70789001 537:0.92525686 538:0.93252204 539:0.37914173 543:0.034667512 544:0.070209127 545:0.068818893 546:0.21946333 547:0.45326662 548:0.64855443 549:0.75701762 550:0.39799646 556:0.0019423488 557:0.066984702 558:0.21640482 559:0.39550943 560:0.50151234 561:0.23103624 569:0.003836453 570:0.066260884 571:0.061225669 619:0.99004983 620:0.99004983 629:0.99501248 630:0.97530991 631:0.99004983 632:1 633:0.98019867 641:0.99501248 642:0.99501248 644:0.98019867 645:0.96078944 653:0.97530991 654:0.97530991 
-0.6426570392066185 -0.4257405881211835 -0.4012755671761792 1.891753605386717 0.5297690272622881 0.2335215533570524 27:0.19090032 28:0.18779863 29:0.03358126 38:0.24380909 39:0.55617112 40:0.43194691 41:0.03358126 42:0.018961642 45:0.0033109954 46:0.0032671782 50:0.5032954 51:0.62368525 52:0.61024939 53:0.22804032 54:0.13157803 55:0.038665292 56:0.028663471 57:0.011676665 58:0.14025228 59:0.13321191 62:0.39058719 63:0.6455151 64:0.87628603 65:0.69103296 66:0.31763133 67:0.057422643 68:0.047947785 69:0.01055666 70:0.42861764 71:0.42487149 72:0.12928025 74:0.12868097 75:0.53873809 76:0.97075562 77:0.7325487 78:0.35533582 79:0.038329733 80:0.028283511 82:0.61335733 83:0.61335733 84:0.4474588 87:0.23025001 88:0.47705726 89:0.49787309 90:0.16892617 91:0.0094748577 94:0.5475783 95:0.63532637 96:0.54881208 99:0.022042304 100:0.13648808 101:0.17976167 102:0.044195096 105:0.071566364 106:0.33240607 107:0.45738186 108:0.23063353 112:0.022042304 113:0.066682684 114:0.043756441 117:0.070856038 118:0.1819234 119:0.18049919 130:0.035338566 131:0.034638815 160:0.031084993 161:0.093410794 162:0.061707191 172:0.031084993 173:0.093410794 174:0.093413902 175:0.030775692 176:0.21274646 177:0.21063486 185:0.06139789 186:0.091564183 187:0.030166293 188:0.31938562 189:0.79325104 190:0.46967801 194:0.064942462 195:0.064942462 196:0.031907828 200:0.10452756 201:0.73600489 202:1 203:0.46967801 206:0.09685029 207:0.2807893 208:0.34925701 209:0.16723023 213:0.15551605 214:0.72240093 215:0.65471361 216:0.092202615 218:0.031907828 219:0.53521476 220:0.74866381 221:0.34161743 222:0.16115704 226:0.12977527 227:0.22128136 228:0.12652281 231:0.45549394 232:0.94791269 233:0.73816222 234:0.15955749 238:0.0057146329 239:0.037285166 240:0.03654687 243:0.13521114 244:0.68423977 245:0.95377458 246:0.40469159 251:0.0028501019 252:0.0027936661 256:0.13521114 257:0.67689537 258:0.87629484 259:0.47673239 260:0.14062027 269:0.13160265 270:0.46896361 271:0.54530595 272:0.2118128 283:0.06978282 284:0.06978282 303:0.096473121 304:0.36856549 305:0.62132171 306:0.34766391 315:0.19342982 316:0.46552218 317:0.64041607 318:0.5263024 319:0.57087141 320:0.71933517 321:0.28551085 327:0.095036823 328:0.28750672 329:0.62961684 330:0.71095649 331:0.85749908 332:0.92414348 333:0.64984827 334:0.21528954 341:0.17264702 342:0.44218815 343:0.73765714 344:0.90851753 345:0.63985333 346:0.21387093 353:0.056879451 354:0.11404401 355:0.080266892 364:0.20377884 365:0.5057946 366:0.58161011 367:0.17717887 376:0.19974375 377:0.4957792 378:0.57998861 379:0.17555737 388:0.034885468 389:0.13954275 390:0.10327226 393:0.045843891 394:0.045388872 400:0.03419469 401:0.25944124 402:0.46705023 403:0.79762389 404:0.980264 405:0.57587042 406:0.25502419 407:0.022637134 413:0.11888194 414:0.35724171 415:0.79044288 416:1 417:0.77164073 418:0.25411187 419:0.022188889 427:0.21371199 428:0.64220721 429:0.42424223 447:0.099085929 448:0.29775446 449:0.19669666 459:0.52478672 460:0.71783094 461:0.43662281 462:0.098100008 463:0.13328841 464:0.067156945 465:0.0010862358 470:0.092331424 471:0.55892101 472:0.71140989 473:0.43072668 474:0.68109036 475:0.45864112 476:0.1986978 477:0.0021998598 482:0.13769612 483:0.3239841 484:0.32123023 485:0.80940204 486:0.93161895 487:0.86516845 488:0.53188052 489:0.16715842 494:0.045364698 495:0.091873216 496:0.38252924 497:0.69742003 498:0.74516023 499:1 500:0.83499788 501:0.16500212 508:0.16152589 509:0.37181069 510:0.54312605 511:0.77718324 512:0.49254979 514:0.096124627 515:0.096124627 520:0.012041048 521:0.21961389 522:0.38781554 523:0.27468329 526:0.42973603 527:0.42504302 528:0.18986169 537:0.45919449 538:0.92641703 539:0.70417371 540:0.18797723 547:0.0012736511 548:0.27882406 549:0.89116133 550:0.98693381 551:0.57116051 559:0.0012736511 560:0.27515692 561:0.59337953 562:0.56430549 563:0.15453473 571:0.00062577611 572:0.091792392 573:0.091154163 593:0.99004983 594:0.99004983 605:0.99004983 606:1 607:0.98019867 618:0.98019867 619:0.96078944 631:0.99501248 632:0.99501248 633:0.97530991 643:0.97530991 644:0.99501248 645:0.97530991 
-0.5259644287354838 -0.349160754011345 -0.3294087977150609 1.658876059709791 0.4340931053236237 0.191491945892241 39:0.185255 40:0.21967021 41:0.067638258 45:0.061215623 46:0.29716519 47:0.23127745 51:0.40077962 52:0.43451336 53:0.40819961 57:0.060003472 58:0.81802046 59:0.74989779 60:0.17097321 63:0.25963088 64:0.36592551 65:0.3586797 70:0.97688698 71:1 72:0.49302156 75:0.25807226 76:0.2548395 77:0.11406231 81:0.077456684 82:0.61013382 83:0.70828079 84:0.31864589 87:0.53718146 88:0.52746697 89:0.092473831 92:0.023721588 93:0.17281925 94:0.35347204 95:0.32772922 99:0.60149909 100:0.60149909 104:0.023721588 105:0.094416057 106:0.17157411 107:0.098535913 111:0.39214069 112:0.39214069 117:0.046853975 118:0.04638893 123:0.11404314 124:0.11404314 175:0.039176661 176:0.19406452 177:0.63704703 178:0.47691543 187:0.038400911 188:0.19022179 189:0.79189932 190:0.92029435 191:0.45825917 195:0.35927615 196:0.43682791 197:0.1765212 201:0.15791245 202:0.79660534 203:0.66742615 204:0.034371503 207:0.35571018 208:0.43862879 209:0.43147899 214:0.17442491 215:0.24473238 216:0.068915294 220:0.25342216 221:0.24990928 227:0.034543791 228:0.033859778 231:0.090106525 232:0.088322296 243:0.52599278 244:0.51898786 255:0.60718878 256:0.87036652 257:0.59881845 258:0.084688444 267:0.16966817 268:0.68551488 269:0.59544195 270:0.084688444 316:0.18020675 317:0.62913681 318:0.83382917 319:0.82103639 320:0.84029795 321:0.72439094 322:0.29196352 328:0.23363138 329:0.67512164 330:0.90834649 331:0.89157534 332:0.84029795 333:0.77160445 334:0.43384073 335:0.092789222 339:0.14694797 340:0.67165299 341:0.96714085 342:0.88666502 343:0.71749035 344:0.34953142 345:0.046278624 346:0.14000274 347:0.09186825 351:0.17669024 352:0.7388524 353:1 354:0.97336466 355:0.81606584 356:0.34953142 363:0.02974227 364:0.46723202 365:0.84664603 366:0.47800833 367:0.098342252 376:0.058745795 377:0.058162718 380:0.030781609 381:0.030781609 387:0.065419462 388:0.064770146 391:0.17020881 392:0.2922638 393:0.12251617 394:0.060798657 399:0.098210967 400:0.47102949 401:0.84339337 402:0.85668622 403:0.71270118 404:0.47068173 405:0.2071757 406:0.060195206 411:0.03214219 412:0.39821487 413:0.82669306 414:0.85668622 415:0.71101178 416:0.43590029 417:0.11270605 460:0.25322363 461:0.48075366 462:0.29065991 463:0.16996572 464:0.062709691 471:0.27228411 472:0.66267426 473:0.67679911 474:0.38939629 475:0.19401809 476:0.062709691 483:0.31553713 484:0.594758 485:0.87606084 486:0.63996268 487:0.39274445 488:0.085423485 490:0.044588691 491:0.044588691 495:0.18698914 496:0.76043978 497:0.95773962 498:0.87782839 499:0.48332441 500:0.085423485 502:0.2373349 503:0.23440561 504:0.088069879 507:0.39444796 508:0.81496454 509:0.92699686 510:0.46235609 511:0.09078563 513:0.14377499 514:0.43815505 515:0.33882712 516:0.087195749 519:0.32439836 520:0.5697848 521:0.40133103 524:0.14377499 525:0.72176126 526:0.67361478 527:0.48722257 531:0.19777512 532:0.19777512 535:0.24643219 536:0.81468281 537:0.99317243 538:0.85659336 539:0.28116025 543:0.03636926 544:0.03636926 545:0.064401508 546:0.22363699 547:0.51383388 548:0.76889723 549:0.84895359 550:0.42029849 556:0.0034493046 557:0.063126273 558:0.21920868 559:0.42623613 560:0.58985685 561:0.27620497 618:0.50125 619:0.49132458 630:0.50125 631:1 632:0.49875 642:0.49132458 643:0.99007459 644:0.49875 
-0.5933893143024174 -0.3868254462171283 -0.3730373085366925 1.772404859393706 0.4905801926691596 0.216033674285167 39:0.09532807 40:0.093440447 42:0.13715807 43:0.13444216 45:0.1838139 46:0.33967422 47:0.15305086 50:0.35046508 51:0.44579315 52:0.18876852 53:0.085414115 54:0.36041776 55:0.31535297 57:0.18325056 58:0.716185 59:0.52265294 62:0.60499335 63:0.7338652 64:0.72179737 65:0.084571297 66:0.35676092 67:0.35506108 70:0.90142119 71:0.89837539 74:0.25133852 75:0.53999385 76:0.5299147 78:0.042424019 79:0.041583967 81:0.17894722 82:0.8314683 83:0.8297165 92:0.0073417255 93:0.18695221 94:0.48848514 95:0.47767959 99:0.24569326 100:0.5061504 101:0.25529974 104:0.0072931861 105:0.012208108 106:0.096810913 107:0.08542573 111:0.49261806 112:0.99993868 113:0.99013529 116:0.0024027778 117:0.0048175996 118:0.0023670051 123:0.24203536 124:0.86319738 125:0.85349129 175:0.089174748 176:0.33762349 177:0.3713999 178:0.12235961 187:0.087994622 188:0.33645508 189:0.95801946 190:0.79054241 191:0.19166631 194:0.0076550974 195:0.0076550974 200:0.15164174 201:0.59095744 202:1 203:0.55477626 206:0.19005224 207:0.47756629 208:0.3678518 214:0.44687239 215:0.44305812 218:0.17878544 219:0.47566614 220:0.47190436 226:0.083762444 227:0.083762444 231:0.10213928 232:0.10213928 243:0.014978656 244:0.014978656 255:0.030032393 256:0.41169255 257:0.37410277 267:0.014755653 268:0.40963997 269:0.40904824 280:0.18658376 281:0.18658376 316:0.21315694 317:0.68313299 318:0.87567174 319:0.9587077 320:0.80951545 321:0.33565477 322:0.079931859 327:0.098483053 328:0.39101043 329:0.75710226 330:0.8635992 331:0.94320078 332:0.93102027 333:0.76790792 334:0.24301898 339:0.096915474 340:0.25494817 341:0.50815996 342:0.3946866 343:0.13003154 344:0.34680362 345:0.5847657 346:0.23981356 351:0.50196259 352:0.99902754 353:0.65712387 354:0.3085122 355:0.033002805 363:0.49993006 364:0.99103737 365:0.82482532 366:0.30718212 367:0.032349306 375:0.19619408 376:0.58956567 377:0.38946721 380:0.05298144 381:0.051932337 390:0.093251222 391:0.2926685 392:0.30378998 393:0.15763097 400:0.4147803 401:0.83328732 402:0.69835675 403:0.51278402 404:0.48878288 405:0.20877452 412:0.41445877 413:0.82738638 414:0.71142393 415:0.50906321 416:0.32641366 417:0.051159166 424:0.19581387 425:0.53051636 426:0.33080568 460:0.18564939 461:0.34068448 462:0.16060004 463:0.058440182 464:0.0046887478 471:0.43123317 472:0.7075547 473:0.47268496 474:0.25143482 475:0.11004001 476:0.0046887478 482:0.19352727 483:0.62190936 484:0.71156446 485:0.60979336 486:0.5781102 487:0.37458152 490:0.026203503 491:0.025684639 494:0.19160643 495:0.33563002 496:0.51376967 497:0.66610057 498:0.78581205 499:0.44759902 502:0.15343498 503:0.15039677 507:0.099937056 508:0.1829454 509:0.41711285 510:0.4557146 511:0.12257048 513:0.39953081 514:0.62467913 515:0.35194623 519:0.0042890933 520:0.048152746 521:0.043778298 524:0.44832456 525:0.99333412 526:0.89598998 527:0.44565267 531:0.077006727 532:0.23218011 533:0.15210074 534:0.081979018 535:0.41816385 536:0.89213353 537:0.96720553 538:0.73731999 539:0.14454184 543:0.077006727 544:0.28302093 545:0.3814304 546:0.42381839 547:0.57949444 548:0.75764384 549:0.6264791 550:0.14454184 556:0.15676079 557:0.29913274 558:0.33600137 559:0.43631634 560:0.38091731 561:0.10838749 568:0.0045677674 569:0.098824337 570:0.093321034 618:0.99501248 619:0.97530991 630:0.99501248 631:0.99501248 642:0.97530991 643:0.97530991 676:1 677:0.99004983 688:0.99004983 689:0.99004983 
-0.649518148882427 -0.4180811755864683 -0.4053019613665996 1.903539846274852 0.5363257574848415 0.2363498193920086 5:0.098296394 6:0.096734308 7:0.019024113 16:0.17390967 17:0.33111543 18:0.21539481 19:0.019024113 28:0.59756562 29:0.64993072 30:0.40170908 40:0.80933851 41:0.79554656 42:0.22396494 46:0.086568376 47:0.085709149 51:0.035205646 52:0.71786918 53:0.71786918 58:0.4475621 59:0.44670288 60:0.22011146 63:0.23004596 64:0.87848812 65:0.82325041 66:0.13843172 70:0.63581922 71:0.99862243 72:0.75492988 75:0.5138554 76:0.95852882 77:0.75460148 78:0.40048821 82:0.47626587 83:0.91658478 84:0.90558334 87:0.56740611 88:0.66085649 89:0.39249676 90:0.33450466 91:0.036353094 93:0.012032051 94:0.21759421 95:0.48818825 96:0.46444515 99:0.24928501 100:0.35582343 101:0.14091117 102:0.073440569 103:0.036353094 105:0.011912628 106:0.02400499 107:0.12025619 108:0.094580007 112:0.012828887 113:0.012701555 118:0.0059412746 119:0.0058236295 172:0.00085647142 173:0.00083951215 184:0.04412798 185:0.043254187 189:0.17659524 190:0.41299571 191:0.23578948 196:0.12828854 197:0.12574825 201:0.17309842 202:0.54001692 203:0.44505415 204:0.23460761 208:0.29413892 209:0.29162784 210:0.082211138 214:0.13928425 215:0.38747628 216:0.26533013 219:0.079995689 220:0.36972765 221:0.53978022 222:0.37075953 226:0.010943618 227:0.044436872 228:0.043998011 231:0.45640102 232:0.68381051 233:0.7188933 234:0.72714946 235:0.23840099 239:0.010943618 240:0.010943618 243:0.37187536 244:0.8952697 245:1 246:0.76311222 247:0.57096386 248:0.25042579 249:0.043332008 256:0.41650137 257:0.78484329 258:0.95679307 259:0.79053333 260:0.24807142 261:0.043332008 269:0.24084503 270:0.69663151 271:0.73733376 272:0.28166324 282:0.10515553 283:0.3850721 284:0.27782391 329:0.23773711 330:0.80282486 331:1 332:0.93808528 333:0.99362594 334:0.60238627 335:0.10591157 340:0.22209854 341:0.57756049 342:0.91271938 343:0.98386379 344:0.91950995 345:0.99362594 346:0.7104374 347:0.2139627 352:0.21871725 353:0.45696263 354:0.6546696 355:0.30016153 358:0.10591157 359:0.10591157 364:0.050321187 365:0.050321187 376:0.046210397 377:0.15339554 378:0.34187962 379:0.23270651 380:0.10382695 381:0.31200128 382:0.20610811 388:0.19465257 389:0.41170431 390:0.63205004 391:0.79763495 392:0.93937886 393:0.81328919 394:0.51102609 395:0.10279385 400:0.14660753 401:0.32248852 402:0.61294946 403:0.91889897 404:0.93585804 405:0.8091464 406:0.50484785 407:0.1007584 413:0.11019378 414:0.3815584 415:0.59357424 416:0.32134929 426:0.074828964 427:0.39404306 428:0.31711069 437:0.45823462 438:0.45218047 439:0.14947058 448:0.23501874 449:0.80559284 450:0.68939579 451:0.14947058 460:0.44139402 461:0.64144308 462:0.56628394 472:0.20595051 473:0.38223402 474:0.35357059 475:0.26030071 476:0.13065373 477:0.048781779 478:0.0042567023 483:0.13793764 484:0.54732095 485:0.67314482 486:0.53426713 487:0.30727446 488:0.13065373 489:0.048781779 490:0.0042567023 495:0.41519575 496:0.81647273 497:0.85771886 498:0.48594992 499:0.17459807 502:0.083916623 503:0.16825388 504:0.082667267 507:0.3365945 508:0.58051595 509:0.405629 514:0.49563178 515:0.57671968 516:0.25008616 519:0.19765581 520:0.19765581 524:0.099132093 525:0.52613899 526:1 527:0.9032336 528:0.40842612 531:0.030350001 532:0.030350001 535:0.033707192 536:0.26634443 537:0.65572398 538:0.94857835 539:0.80828749 540:0.15845408 547:0.033039744 548:0.16390131 549:0.36200974 550:0.45316978 551:0.15845408 581:0.99501248 582:0.99501248 583:0.97530991 593:0.97530991 594:0.99501248 595:0.97530991 703:1 704:0.99004983 715:0.99004983 716:0.99004983 
-0.6446348801679113 -0.4160792988914956 -0.4030891764177771 1.883181075783763 0.5318248999335408 0.2345250749103167 4:0.039934674 5:0.12040555 6:0.078877442 16:0.24859535 17:0.32688797 18:0.18789668 28:0.43858179 29:0.43262218 30:0.21501653 39:0.14697447 40:0.60728004 41:0.48185487 42:0.067273134 51:0.59256091 52:0.81857778 53:0.6335223 57:0.027462011 58:0.041227345 59:0.013492761 63:0.5896998 64:1 65:0.83776673 69:0.02718944 70:0.33717193 71:0.30774497 72:0.096783083 75:0.1447863 76:0.75396796 77:0.63356081 82:0.54262693 83:0.54070089 84:0.31704451 88:0.3725455 89:0.42693668 90:0.11460792 94:0.5462403 95:0.54528855 96:0.46493832 100:0.11518528 101:0.34358188 102:0.25537698 103:0.012845161 105:0.047825475 106:0.39204204 107:0.47108505 108:0.36776502 113:0.12764721 114:0.15278467 115:0.025754709 117:0.047825475 118:0.14324505 119:0.26589825 120:0.12116209 126:0.012909548 127:0.012653922 130:0.047349604 131:0.046412019 183:0.0031434558 184:0.0031434558 187:0.084219418 188:0.36327058 189:0.39582531 190:0.11677414 195:0.14824947 196:0.14550098 197:0.0062088337 199:0.082551762 200:0.36078357 201:0.83874983 202:0.72055901 203:0.15919584 207:0.42334589 208:0.68734707 209:0.33571885 210:0.068414935 212:0.11677414 213:0.46944672 214:1 215:0.70458799 216:0.060169253 219:0.27416591 220:0.81648851 221:0.60928482 222:0.15712555 226:0.48079143 227:0.66208529 228:0.18080936 232:0.49587517 233:0.65573334 234:0.36910719 238:0.060169253 239:0.1218556 240:0.1194427 244:0.21617649 245:0.86896984 246:0.80955137 247:0.15996579 257:0.48311679 258:0.87751113 259:0.56588402 260:0.12044852 261:0.024066735 270:0.28303649 271:0.42728773 272:0.19423033 273:0.048740284 283:0.024066735 284:0.072320839 285:0.047775162 328:0.23295382 329:0.76204151 330:0.96769968 331:0.87754815 332:0.86097016 333:0.53032561 334:0.079951646 339:0.13396522 340:0.36583656 341:0.75459161 342:0.95153523 343:0.87754815 344:0.99678378 345:0.80119673 346:0.32464592 347:0.079951646 351:0.30574145 352:0.69899379 353:0.87645331 354:0.90871654 355:0.42337118 356:0.18333994 357:0.42480395 358:0.32143971 359:0.079951646 363:0.16991396 364:0.56181745 365:0.87404901 366:0.90871654 367:0.66970205 368:0.2111511 376:0.12081543 377:0.50637911 378:0.83269766 379:0.65644106 380:0.20697003 389:0.076059153 390:0.076059153 393:0.07174264 394:0.071030564 401:0.076059153 402:0.36379208 403:0.70697855 404:0.94886536 405:0.75773593 406:0.38869111 407:0.035425608 414:0.28203544 415:0.70131118 416:1 417:0.93317188 418:0.38726339 419:0.034724134 427:0.20673309 428:0.62123551 429:0.41038832 436:0.16043496 437:0.48372147 438:0.316885 448:0.55716303 449:0.87490346 450:0.63855911 460:0.56337097 461:0.83224357 462:0.58806764 471:0.050949765 472:0.56636978 473:0.75160924 474:0.29661016 475:0.14250492 476:0.041676501 483:0.56325279 484:0.90339869 485:0.77828519 486:0.41004555 487:0.14250492 488:0.041676501 495:0.50553453 496:0.70670477 497:0.5880248 498:0.22291121 499:0.05356453 507:0.16710704 508:0.16710704 509:0.027808173 510:0.081893346 511:0.081087336 512:0.026714641 514:0.072633404 515:0.072633404 516:0.035686577 521:0.00080870797 522:0.054104751 523:0.079481699 524:0.026185656 526:0.4068524 527:0.40388934 528:0.10723861 537:0.37425122 538:0.85514507 539:0.52119482 540:0.21825338 548:0.22763825 549:0.78741569 550:0.93260717 551:0.62778142 552:0.14449259 560:0.22463072 561:0.59741735 562:0.62958999 563:0.18114123 572:0.07425284 573:0.07425284 581:1 582:0.99004983 593:0.99004983 594:0.99004983 642:0.99004983 643:0.99004983 654:0.99004983 655:1 656:0.98019867 667:0.98019867 668:0.96078944 
-0.03919414147039391 -0.02472697375130448 -0.01536168547341231 -0.09480403498746251 0.0285316911361503 0.01207199847265925 33:0.066455209 34:0.20855802 35:0.14057884 38:0.010887974 39:0.010887974 45:0.13324353 46:0.77803811 47:0.6445931 48:0.2476346 50:0.010887974 51:0.0109974 52:0.010779637 54:0.1728198 55:0.16939773 57:0.13126307 58:0.95932103 59:0.88730743 60:0.49651047 63:0.010779637 64:0.010566186 65:0.020346696 66:0.36685255 67:0.36472145 69:0.11881072 70:0.68093187 71:0.81153236 72:0.2439478 77:0.019943804 78:0.36170228 79:0.36129939 81:0.41114595 82:0.6602578 83:0.56969899 86:0.50494878 87:0.54259312 88:0.26855305 92:0.15136674 93:0.49793376 94:0.52503999 95:0.2323412 98:0.50027655 99:0.58671961 100:0.57666742 101:0.30005132 102:0.29941599 103:0.034094851 104:0.25300258 105:0.32899318 106:0.25830219 111:0.30811437 112:0.30284094 113:0.84504929 114:0.84442654 115:0.53397867 116:0.13758059 117:0.19411369 118:0.056678017 125:0.54021767 126:0.8136678 127:0.79815222 128:0.068538076 129:0.067261687 138:0.26942683 139:0.26409182 176:0.016160612 177:0.46063667 178:0.78978785 179:0.34649711 182:0.36555128 183:0.36555128 188:0.015840611 189:0.4578652 190:0.99573127 191:0.56374474 192:0.17588544 194:0.45241717 195:0.61326267 196:0.68021405 197:0.69764822 198:0.85183987 199:0.28534058 201:0.28382007 202:0.66112654 203:0.58533329 204:0.20450559 206:0.08514583 207:0.53521252 208:0.67304767 209:0.68956937 210:0.91699183 211:0.74844146 215:0.028620154 216:0.028053437 222:0.57211144 223:0.56643299 230:0.31748355 231:0.31748355 242:0.31748355 243:0.76680722 244:0.81317508 245:0.72820395 246:0.65929556 255:0.63180808 256:0.80695104 257:1 258:0.93245609 259:0.33397562 269:0.31616967 270:0.68349157 271:0.67067934 281:0.035909611 282:0.34392396 283:0.33783562 317:0.22255115 318:0.45715116 319:0.48034019 320:0.62959494 321:0.75553979 322:0.50095266 323:0.13119577 326:0.11175886 327:0.27538188 328:0.36352241 329:0.52284089 330:0.55608316 331:0.48034019 332:0.62682872 333:0.74999347 334:0.76424879 335:0.26569948 338:0.2240779 339:0.66848138 340:0.88659002 341:1 342:0.88224056 343:0.56747262 344:0.47792808 345:0.4581035 346:0.47864451 347:0.26043828 350:0.11009498 351:0.43538136 352:0.69304028 353:0.66084913 354:0.49500492 355:0.25013455 363:0.088200586 364:0.24867098 365:0.27855772 366:0.28398636 367:0.17628625 375:0.098200678 376:0.25630561 377:0.26188842 378:0.13778843 379:0.033333667 387:0.25046929 388:0.53864168 389:0.67549039 390:0.28741521 399:0.23590169 400:0.51855812 401:0.57481883 402:0.40596569 403:0.15650391 404:0.023257514 413:0.26288374 414:0.5296608 415:0.54836019 416:0.089595916 425:0.12916124 426:0.45869994 427:0.51985873 428:0.065024813 461:0.084829338 462:0.14930343 463:0.117728 464:0.18123831 465:0.38707318 466:0.2559367 470:0.14828209 471:0.31568533 472:0.27387219 473:0.27964906 474:0.2174294 475:0.13075557 476:0.18076613 477:0.50473543 478:0.48025087 479:0.11508717 482:0.14828209 483:0.31416257 484:0.3734528 485:0.27869022 486:0.21501791 487:0.12816644 488:0.10387123 489:0.38363723 490:0.50889603 491:0.19911027 492:0.027006412 495:0.23551548 496:0.23260851 497:0.38013396 498:0.5794279 499:0.34105094 501:0.087081258 502:0.29224761 503:0.23188215 504:0.026471649 507:0.26024548 508:0.55898216 509:0.6749112 510:0.67908332 511:0.45666958 513:0.42220095 514:0.50388522 515:0.33538703 518:0.15530793 519:0.56092669 520:0.73658216 521:0.5312154 522:0.33161495 523:0.11443999 524:0.392866 525:0.84363162 526:0.66113806 527:0.18872328 530:0.15265475 531:0.44123298 532:0.65082191 533:0.21040227 535:0.15411839 536:0.81684888 537:0.77477931 538:0.49417441 543:0.021106031 544:0.020688103 546:0.21333228 547:0.67635328 548:0.868708 549:0.84221759 550:0.13112847 558:0.29736244 559:0.59845167 560:0.72313489 561:0.4344976 570:0.1651495 571:0.29357997 572:0.12588738 608:0.49750002 609:0.49750002 620:0.49750002 621:1 622:0.99004983 633:0.99004983 634:0.98029669 
-0.02914426073372817 -0.01669832492435649 -0.01088818910131601 -0.06911134109467935 0.02773967158942021 0.009763829410470019 42:0.65322213 43:0.65262857 44:0.30621631 47:0.35503352 48:0.34800338 54:0.64703615 55:0.65634617 56:0.61396754 58:0.048795447 59:0.40382897 60:0.35503352 65:0.37937936 66:0.37186715 67:0.33713333 68:0.30165735 70:0.85673116 71:0.85310689 72:0.83033085 76:0.006966271 77:0.39334682 78:0.39313922 81:0.086184315 82:0.97078898 83:0.98420083 84:0.66167754 86:0.53199479 87:0.52278047 88:0.0068283296 89:0.38576495 90:0.38562701 92:0.0017090399 93:0.08877251 94:0.35401093 95:0.52755174 96:0.17673636 98:0.99966588 99:0.99568239 100:0.065992971 104:0.0016751987 105:0.0050847547 106:0.046763736 107:0.040886854 110:0.91914195 111:0.98513492 112:0.064686222 172:0.25512285 173:0.45015675 174:0.30996836 175:0.20469143 176:0.36053837 177:0.54570708 178:0.27474642 184:0.25181876 185:0.44687578 186:0.6478114 187:0.60020214 188:0.3553873 189:0.68571319 190:0.91277951 191:0.66500021 192:0.17011116 197:0.1716164 198:0.5522751 199:0.54564829 200:0.16214543 201:0.23153241 202:0.82757437 203:0.9471913 204:0.49922437 207:0.059143519 208:0.20647375 209:0.3129395 210:0.16256716 214:0.39872302 215:0.73643413 216:0.72522018 219:0.057972399 220:0.20371964 221:0.37170953 222:0.29895007 226:0.19590242 227:0.3967443 228:0.38888823 233:0.22928295 234:0.22796189 242:0.30251045 243:0.48733829 244:0.3845357 245:0.19650676 254:0.29652035 255:0.47963623 256:0.43530488 257:0.39905771 258:0.42527328 259:0.22641294 268:0.19490907 269:0.38980657 270:0.45877335 271:0.26185365 282:0.034738938 283:0.034738938 316:0.36408731 317:0.82406938 318:0.81967999 319:0.61463283 320:0.54871516 321:0.42763918 322:0.1341457 328:0.35881209 329:0.81337725 330:0.97734704 331:0.83938563 332:0.54778774 333:0.48529322 334:0.4151217 335:0.19943588 336:0.040775735 340:0.055603103 341:0.24712105 342:0.60121721 343:0.39051189 344:0.036417491 345:0.15523229 346:0.31254728 347:0.34279025 348:0.18377693 351:0.13652857 352:0.58109548 353:0.69596263 354:0.42964596 355:0.12375981 358:0.031549927 359:0.1428773 360:0.14142848 363:0.17439946 364:0.6236492 365:0.75847317 366:0.47476329 374:0.037250015 375:0.15958417 376:0.18699209 377:0.34366248 378:0.22220487 380:0.020967127 381:0.020828504 382:0.0068620582 386:0.17340583 387:0.42867031 388:0.41710965 389:0.16190125 391:0.05053455 392:0.083114862 393:0.044982116 394:0.013758513 398:0.13345975 399:0.30682381 400:0.38005169 401:0.33705823 402:0.50214739 403:0.3961133 404:0.17488562 405:0.054148317 406:0.0067598954 412:0.16412395 413:0.33171188 414:0.49726747 415:0.45620727 416:0.14307462 417:0.016119194 426:0.11902809 427:0.11902809 460:0.059364986 461:0.10765577 462:0.094731587 463:0.013067651 472:0.05818948 473:0.10552404 474:0.3743147 475:0.32469059 476:0.05013134 479:0.14303209 480:0.14019987 484:0.091579704 485:0.38432356 486:0.73053478 487:0.54097653 488:0.18655926 490:0.11482683 491:0.40160797 492:0.39790392 495:0.10496601 496:0.28769337 497:0.61529799 498:0.63219802 499:0.48433416 500:0.13372647 502:0.41586594 503:0.55436352 504:0.48442106 507:0.21039114 508:0.56527987 509:0.81010433 510:0.61229751 513:0.42839403 514:0.86232637 515:0.57021591 516:0.1791466 518:0.25918007 519:0.58020964 520:0.58402968 521:0.7635197 522:0.43032495 524:0.42772515 525:0.99863837 526:0.97372708 527:0.61988225 528:0.088019126 530:0.26304501 531:0.47221654 532:0.56976903 533:0.32582906 535:0.40071788 536:0.96424208 537:0.99251728 538:0.71867399 539:0.14216777 542:0.12835316 543:0.25917615 544:0.12823252 546:0.18598205 547:0.70890314 548:0.92757734 549:0.68223109 550:0.13576153 558:0.18349791 559:0.43890183 560:0.50923012 561:0.13070098 570:0.059330329 571:0.059330329 634:0.99501248 635:0.99501248 636:0.48887409 646:0.98513657 647:1 648:0.98019867 659:0.49132458 660:0.4815957 
-0.02330311930720599 -0.01436024148793598 -0.006139573465421206 -0.08137668168724156 0.02051030887210311 0.006173498290148119 29:0.040707611 30:0.040707611 41:0.063438819 42:0.56558255 43:0.49220062 45:0.23674705 46:0.49941021 47:0.26266316 53:0.045576356 54:0.58538386 55:0.58367882 57:0.23205915 58:1 59:0.84288882 60:0.44447036 63:0.02062757 64:0.10168399 65:0.10224455 66:0.25509698 67:0.25419899 69:0.12906611 70:0.7734121 71:0.90823498 72:0.43932104 75:0.095618996 76:0.50496378 77:0.40163958 81:0.36058739 82:0.55960299 83:0.55445313 86:0.25149477 87:0.50515114 88:0.57402082 89:0.51066195 92:0.14516223 93:0.44724231 94:0.50302459 95:0.25239619 98:0.50425016 99:0.699072 100:0.84052769 101:0.17744323 103:0.0054932339 104:0.1875819 105:0.35606729 106:0.315193 110:0.2477505 111:0.6241184 112:0.61418313 115:0.0054932339 116:0.043533912 117:0.11510332 118:0.070259929 128:0.0054385753 129:0.0053308843 172:0.1250935 173:0.71967275 174:0.6493648 175:0.16686538 176:0.42828103 177:0.69203704 178:0.36905712 184:0.12261648 185:0.7136501 186:1 187:0.63753147 188:0.4248454 189:0.96815581 190:0.7998248 191:0.45600643 197:0.15286579 198:0.66941326 199:0.51145887 200:0.10343941 201:0.43434607 202:0.78948083 203:0.45236174 207:0.12795345 208:0.36110104 209:0.22932369 219:0.12795345 220:0.58311828 221:0.5400075 231:0.040034911 232:0.57540977 233:0.53366713 242:0.28394651 243:0.69846729 244:0.65800486 245:0.24666201 254:0.278324 255:0.68719408 256:0.81618209 257:0.49717971 258:0.44441622 259:0.21029067 260:0.0098886072 268:0.25027195 269:0.48968987 270:0.44198027 271:0.21029067 272:0.0098886072 316:0.40577908 317:1 318:0.99290596 319:0.77061062 320:0.79586113 321:0.61732053 322:0.1760234 328:0.39774411 329:0.9840537 330:0.99438675 331:0.86674368 332:0.8610738 333:0.85706907 334:0.42854677 335:0.19353404 340:0.13569785 341:0.22938739 342:0.286227 343:0.12866609 344:0.15384984 345:0.3829413 346:0.54625345 347:0.31339551 351:0.49609083 352:0.83858648 353:0.43522316 354:0.16144623 355:0.034436591 358:0.12136012 359:0.11895703 363:0.49369663 364:0.77517584 365:0.57964345 366:0.065679076 375:0.19713209 376:0.51017691 377:0.3096324 387:0.238536 388:0.48179795 389:0.24309643 391:0.068876738 392:0.067824895 399:0.23624421 400:0.47955154 401:0.51214307 402:0.65873757 403:0.6745927 404:0.35196687 405:0.015600144 412:0.24321579 413:0.48597876 414:0.64569369 415:0.67354086 416:0.35059988 417:0.01529124 460:2.3230502e-06 461:2.3114639e-06 462:1.135679e-06 472:2.2770507e-06 473:0.16105401 474:0.37564727 475:0.21034624 477:0.25589606 478:0.32282053 479:0.13469879 484:0.23893696 485:0.70483857 486:0.68244506 487:0.53217405 489:0.25317497 490:0.5811827 491:0.48800271 492:0.1490023 495:0.41514531 496:0.7688596 497:0.65582746 498:0.74538209 499:0.47359998 501:0.10019806 502:0.45913494 503:0.5416704 504:0.14769029 507:0.56632673 508:0.94303094 509:0.60907393 510:0.11916754 513:0.35015995 514:0.44672167 515:0.40376992 518:0.11307918 519:0.74132342 520:0.89899535 521:0.57400627 524:0.28561412 525:0.66722605 526:0.61244305 527:0.21159631 530:0.14336439 531:0.60910039 532:0.89592544 533:0.43719069 535:0.33216173 536:0.78457813 537:0.72134183 538:0.54473922 542:0.029685526 543:0.29129407 544:0.28847754 546:0.095707449 547:0.55753402 548:0.72698321 549:0.49093925 550:0.1478202 558:0.093812315 559:0.3821342 560:0.54945518 561:0.16586541 621:0.49750624 622:0.99501248 623:0.49750624 633:0.49750624 634:0.99501248 635:0.99506223 636:0.49255597 646:0.49255597 647:0.97535868 648:0.48280271 
-0.001543125923680426 -0.00318489773064967 -0 -0.01034216210619076 0.003832571375905576 0.001074978105039756 29:0.074937258 30:0.074937258 41:0.53509947 42:0.5358526 43:0.52524201 46:0.080679441 47:0.49912563 48:0.4101604 51:0.030641123 52:0.030034388 53:0.45105039 54:0.53435383 55:0.52377292 58:0.57750944 59:0.99676647 60:0.98531496 63:0.061282247 64:0.18717946 65:0.5422244 66:0.40748863 70:0.65061863 71:0.98686706 72:0.97544751 75:0.030034388 76:0.15562228 77:0.57306523 78:0.54050993 81:0.020890115 82:0.33227549 83:0.47393989 84:0.37761184 89:0.8651759 90:0.86360282 93:0.041884943 94:0.18757134 95:0.51168705 96:0.37114779 100:0.086782769 101:0.90191583 102:0.81999586 105:0.020579102 106:0.083920186 107:0.083094924 112:0.57058946 113:1 114:0.4342245 124:0.56405709 125:0.56405709 161:0.0037514399 162:0.036939212 163:0.033113116 172:0.24086894 173:0.57915453 174:0.39932733 175:0.20841745 176:0.44192354 177:0.53236126 178:0.23450135 184:0.2377377 185:0.74780471 186:0.68410464 187:0.4699126 188:0.43525425 189:0.6542506 190:0.91723603 191:0.74957777 192:0.19194365 195:0.19410306 196:0.19025956 197:0.24010805 198:0.58688008 199:0.34149535 201:0.21353291 202:0.67307381 203:0.99769966 204:0.57964028 207:0.38820611 208:0.64593558 209:0.45109647 210:0.18388427 215:0.38484942 216:0.38102963 219:0.19025956 220:0.45760054 221:0.63869545 222:0.37148326 231:0.10829349 232:0.15577668 233:0.43453928 234:0.43355658 243:0.10721595 244:0.15269209 245:0.2992402 246:0.29825751 256:0.057159649 257:0.10426054 258:0.052203014 268:0.056027812 269:0.056637392 270:0.0045798677 305:0.15750844 306:0.47331485 307:0.31267189 316:0.37551427 317:0.92303652 318:1 319:0.87677185 320:0.63754022 321:0.4179488 322:0.15115434 328:0.36997841 329:0.80075049 330:0.93007017 331:0.90770736 332:0.63445238 333:0.47754118 334:0.44964656 335:0.22946009 336:0.030742352 339:0.087532796 340:0.24507544 341:0.32594293 342:0.31327664 343:0.045038084 345:0.15505562 346:0.35286655 347:0.24960539 348:0.052077678 351:0.21018422 352:0.60275171 353:0.59115428 354:0.18624382 355:0.0053139914 358:0.0034467059 359:0.021234567 360:0.020981107 363:0.19898206 364:0.53195231 365:0.52460681 366:0.14176727 375:0.3800201 376:0.7990029 377:0.7486934 378:0.31941558 380:0.0471596 381:0.089138767 382:0.041296222 383:0.0073410402 387:0.29529544 388:0.61886165 389:0.68255042 390:0.35439472 391:0.49077245 392:0.42452015 393:0.27211711 394:0.13505211 395:0.0073410402 400:0.3260058 401:0.60159008 402:0.68986159 403:0.61237015 404:0.44008085 405:0.35552395 406:0.11865236 412:0.30972271 413:0.57787498 414:0.68081355 415:0.57904846 416:0.29011719 417:0.090507561 449:0.029259285 450:0.029259285 460:0.086725528 461:0.17516284 462:0.12160415 463:0.057791822 472:0.085008248 473:0.58673804 474:0.49924499 475:0.20243873 479:0.15004441 480:0.14707333 483:0.2418134 484:0.57209812 485:0.76926714 486:0.56301863 487:0.29116895 490:0.15004441 491:0.30008881 492:0.29711773 495:0.2418134 496:0.71072332 497:0.59621074 498:0.40898247 499:0.14305847 502:0.28366212 503:0.38628101 504:0.29414666 507:0.23426558 508:0.767905 509:0.75761013 510:0.41131975 513:0.14617503 514:0.70773132 515:0.65847846 516:0.37240385 519:0.3813928 520:0.76622385 521:0.79509485 522:0.40628775 524:0.12710179 525:0.71344723 526:1 527:0.9481026 528:0.36769413 531:0.24261756 532:0.59927298 533:0.74093044 534:0.43368375 535:0.34512197 536:0.57611793 537:0.77644066 538:0.95941998 539:0.42985244 544:0.59895305 545:0.90920738 546:0.74252266 547:0.37751079 548:0.44303977 549:0.65167554 550:0.37286968 556:0.27529183 557:0.46945521 558:0.30787426 559:0.24259346 560:0.20837212 561:0.081761079 634:0.50499983 635:0.50499983 636:0.49500017 646:0.49500017 647:1 648:0.49500017 659:0.50499983 660:0.50499983 671:0.49500017 672:0.49500017 
-0.03173510012693197 -0.01818732016238919 -0.01341445478401044 -0.05458782984648668 0.0275236061265487 0.0105052354601621 30:0.55950876 31:0.55950876 32:0.27490041 39:0.19783266 40:0.19391531 42:0.5539554 43:0.56231331 44:0.55117876 46:0.33348834 47:0.32688483 51:0.19783266 52:0.52672791 53:0.33281259 55:0.27627835 56:0.27080767 58:0.33065061 59:0.43038374 60:0.10903432 63:0.19391531 64:0.72572258 65:0.72572258 66:0.65735871 70:0.04733721 71:0.10903432 72:0.11013014 76:0.38628682 77:0.72299826 78:0.70868194 84:0.10794941 86:0.31381563 87:0.31381563 88:0.30760167 89:0.20508444 90:0.20508444 98:0.30760167 99:0.31381563 100:0.30760167 101:0.64808002 102:0.98481595 103:0.86485106 113:0.45585147 114:1 115:0.98680015 125:0.019104512 126:0.12635556 127:0.12385355 161:0.31986606 162:0.31664593 173:0.31986606 174:0.8158253 175:0.78065465 176:0.45340069 177:0.25682816 178:0.085119368 183:0.1435611 184:0.1407184 185:0.15940175 186:0.51446678 187:0.84028738 188:0.66519835 189:0.60678411 190:0.61818857 191:0.30088518 195:0.39960411 196:0.970258 197:0.5734442 198:0.21098834 199:0.16049493 200:0.33834751 201:0.53917468 202:0.70172437 203:0.3631749 204:0.18355279 207:0.28356349 208:0.85135678 209:0.72059556 210:0.45636315 213:0.10450945 214:0.14206121 215:0.18355279 216:0.18539753 220:0.033328891 221:0.2460481 222:0.24117602 228:0.18172641 230:0.053823311 231:0.0544122 232:0.089081455 233:0.4178358 234:0.32771037 242:0.053289092 243:0.054587652 244:0.089081455 245:0.53319072 246:0.61899698 247:0.44247713 255:0.027062028 256:0.057211033 257:0.19833248 258:0.61129699 259:0.43822724 305:0.1807141 306:0.17893279 317:0.1807141 318:0.46604105 319:0.62427564 320:0.57260677 321:0.35364374 322:0.11650975 327:0.31631276 328:0.59465964 329:0.51296471 330:0.62766725 331:0.78229366 332:0.60567582 333:0.89532363 334:0.79965415 335:0.20906341 339:0.52447809 340:0.99657146 341:0.82988561 342:0.55690279 343:0.36998237 344:0.37811192 345:0.73365759 346:0.91922157 347:0.41221446 348:0.15389955 351:0.26721678 352:0.76044738 353:0.71891464 354:0.22609522 357:0.15040877 358:0.35253039 359:0.26292119 360:0.22896862 363:0.093292481 364:0.142446 365:0.099341821 366:0.032641213 369:0.11288942 370:0.18259389 371:0.15751951 372:0.26080887 374:0.34199046 375:0.79691928 376:0.81752796 377:0.59933116 378:0.23387501 379:0.039633923 380:0.15648821 381:0.26605844 382:0.22628395 383:0.16794451 384:0.056788212 386:0.33878916 387:0.70097828 388:0.94697916 389:0.69051633 390:0.39380422 391:0.21908813 392:0.23744738 393:0.27063045 394:0.15030555 395:0.036046549 399:0.35644863 400:0.70976821 401:0.71788555 402:0.63841281 403:0.36018 404:0.20384808 405:0.11655026 412:0.12213578 413:0.38721073 414:0.49500371 415:0.22049453 416:0.04180715 425:0.24123793 426:0.23884354 462:0.24803329 463:0.24565938 471:0.074229649 472:0.15782539 473:0.23034773 474:0.51405725 475:0.451573 476:0.12687164 477:0.1078871 478:0.38283945 479:0.26950793 483:0.074229649 484:0.15782539 485:0.22744155 486:0.42887234 487:0.44663611 488:0.12435941 489:0.1078871 490:0.38259352 491:0.41461468 492:0.14770152 495:0.036470851 496:0.41383364 497:0.41100594 498:0.17139837 502:0.24528172 503:0.68837617 504:0.55309433 507:0.38924192 508:0.94141342 509:0.6833747 510:0.26706286 513:0.36147157 514:0.61401547 515:0.65750405 516:0.68430465 518:0.1426786 519:0.52937472 520:0.81244863 521:0.67541997 522:0.13789212 523:0.11800634 524:0.47795939 525:0.83466375 526:0.72287805 527:0.61774704 528:0.25440059 530:0.13985337 531:0.27279865 532:0.39662656 533:0.2530366 534:0.5047391 535:0.60479455 536:0.70863373 537:0.82932493 538:0.47379475 539:0.11654005 544:0.1341035 545:0.75901272 546:0.97884555 547:0.86766563 548:0.58482609 549:0.3481805 556:0.1341035 557:0.50254566 558:0.86711698 559:0.61428478 560:0.11172052 569:0.22229498 570:0.21966598 621:0.99501248 622:0.97530991 633:0.99501248 634:0.99501248 635:0.99004983 636:0.99004983 645:0.97530991 646:0.97530991 647:0.99004983 648:1 660:0.98019867 
-0.02111875502339767 -0.01443658480548918 -0.01297367288106787 -0.08532255723160695 0.01561290329826761 0.00649828775905255 18:0.23411484 19:0.23411484 30:0.46940319 31:0.63002771 32:0.62303921 33:0.15744394 38:0.3755467 39:0.3755467 40:0.093518854 42:0.23062932 43:0.4670737 44:0.648106 45:0.18710039 46:0.058085188 47:0.056935025 50:0.65520033 51:0.73002007 52:0.6507231 56:0.029069211 57:0.029069211 58:0.51738042 59:0.51507433 60:0.1357265 62:0.27596792 63:0.96647317 64:0.93193248 65:0.36886402 70:0.99558183 71:0.99444879 72:0.66097148 75:0.88909202 76:0.96844194 77:0.94551402 78:0.030083616 82:0.88219012 83:0.98058871 84:0.96117175 87:0.27390721 88:0.5834966 89:0.81785274 90:0.5201409 91:0.015003828 94:0.34384548 95:0.61495319 96:0.51949199 101:0.70016753 102:0.68819163 103:0.014706733 106:0.08328431 107:0.16698608 108:0.082044368 112:0.11710239 113:0.48714572 114:0.58115002 115:0.094415752 124:0.11478361 125:0.11710239 126:0.20919936 127:0.092546194 162:0.13151732 163:0.13151732 174:0.1678719 175:0.29968691 176:0.47686947 177:0.45279167 178:0.11013124 186:0.035634706 187:0.16656328 188:0.59397836 189:0.97619467 190:0.65164114 191:0.13753511 194:0.14376978 195:0.43203 196:0.28397568 200:0.13415124 201:0.59908155 202:1 203:0.65271659 204:0.11626876 206:0.14092295 207:0.44439811 208:0.43004277 209:0.0022518185 214:0.39378555 215:0.61450924 216:0.2190359 219:0.29045992 220:0.36730906 221:0.1517248 222:0.004732726 223:0.0046856346 226:0.02267628 227:0.10322524 228:0.10118124 231:0.26972539 232:0.3662658 233:0.36053497 234:0.09777898 235:0.0046856346 244:0.2098496 245:0.47189687 246:0.4673193 247:0.11827266 256:0.091220003 257:0.46301007 258:0.55928092 259:0.23713816 268:0.089413726 269:0.091220003 270:0.20827923 271:0.11651181 305:0.20982785 306:0.53409425 307:0.32310988 315:0.10377599 316:0.33076101 317:0.52112488 318:0.92030509 319:0.73190505 320:0.49774656 321:0.22801643 322:0.036779449 326:0.0097162511 327:0.1232572 328:0.33722338 329:0.46688582 330:0.68604539 331:0.72335889 332:0.55064293 333:0.41114475 334:0.1916964 335:0.024884402 338:0.0095238564 339:0.34485608 340:0.55676066 341:0.24989154 344:0.05497669 345:0.22127427 346:0.20178949 347:0.03669614 351:0.32576063 352:0.55093751 353:0.38440048 358:0.011693917 359:0.01157785 363:0.16005421 364:0.42272353 365:0.69086739 366:0.52407066 367:0.26116804 370:0.0090617282 371:0.008882294 375:0.087225664 376:0.41402395 377:0.68878921 378:0.68802543 379:0.36455739 380:0.06199395 381:0.20447893 382:0.15942014 383:0.057472805 388:0.23702869 389:0.57969084 390:0.47585848 391:0.3758167 392:0.47647926 393:0.35397432 394:0.29637286 395:0.096885381 400:0.16198113 401:0.84712729 402:0.99924284 403:0.70658321 404:0.45094177 405:0.43631383 406:0.23503479 407:0.038808036 412:0.15877368 413:0.47051976 414:0.93689173 415:0.67162492 416:0.29396255 417:0.086860234 449:0.14257812 450:0.20315365 451:0.060975524 459:0.27602118 460:0.58321546 461:0.53066573 462:0.46809861 463:0.30710009 464:0.22550357 465:0.056713242 470:0.2780819 471:0.71511195 472:0.80628175 473:0.58512544 474:0.39074474 475:0.30467191 476:0.22548693 477:0.056713242 482:0.29231497 483:0.61530196 484:1 485:0.39049174 494:0.017060711 495:0.31594063 496:0.76081966 497:0.62228057 502:0.096589387 503:0.096589387 504:0.022795357 507:0.1310659 508:0.45879147 509:0.45840858 510:0.57650432 511:0.25270899 514:0.50466547 515:0.50147976 516:0.21707716 520:0.0072902789 521:0.66308006 522:0.77452677 523:0.41229629 524:0.10521467 525:0.52274674 526:0.98275338 527:0.80016107 528:0.31513201 532:0.00060720749 533:0.38898412 534:0.53043716 535:0.32731261 536:0.56211748 537:0.71579504 538:0.94441379 539:0.72449484 540:0.1198664 544:0.11765913 545:0.44844605 546:0.5437288 547:0.37924858 548:0.45116198 549:0.60794145 550:0.45858071 551:0.12422031 556:0.11532932 557:0.32025584 558:0.49653446 559:0.31800558 560:0.23103826 561:0.088700087 606:1 607:0.99004983 618:0.99004983 619:0.99004983 621:1 622:0.99004983 633:0.99004983 634:0.99004983 
-0.01590988732893965 -0.009550057552303591 -0.00827548786088232 -0.03507287091547556 0.02479243410287268 0.006229515690156264 31:0.38630521 32:0.38630521 33:0.18980124 41:0.053257436 42:0.46257446 43:0.78368297 44:0.38824157 45:0.38055387 53:0.066388329 54:0.4762406 55:0.47491542 56:0.19075263 57:0.18697547 63:0.2379902 64:0.2379902 65:0.012870883 66:0.46707041 67:0.46576633 71:0.9750846 72:0.9749313 75:0.2379902 76:0.24038205 77:0.43641777 78:0.43641777 79:0.37287779 83:0.96548332 84:0.97993342 88:0.23562216 89:0.42888514 90:0.43698066 91:0.42832786 95:0.0075883672 96:0.48525008 99:0.31168047 100:0.30890416 101:0.031330046 102:0.055450073 103:0.054352088 111:1 112:0.98358152 113:0.16945102 123:0.82174529 124:0.95986626 125:0.13538599 135:0.21829456 136:0.21829456 170:0.060857239 171:0.16284457 172:0.14180592 173:0.04024105 174:0.36289294 175:0.66819768 176:0.30486924 177:0.078733037 182:0.060857239 183:0.16284457 184:0.20367901 185:0.37275208 186:0.75347994 187:1 188:0.87069529 189:0.37269447 195:0.12020289 196:0.1996459 197:0.32826518 198:0.45058168 199:0.66090346 200:0.73765213 201:0.68887952 202:0.4002145 203:0.14294454 207:0.071225065 208:0.11458072 209:0.16739416 210:0.23319814 211:0.23088355 212:0.10443888 213:0.39239058 214:0.5280493 215:0.45537486 216:0.31980342 219:0.071225065 220:0.11458072 221:0.2634717 222:0.24291562 223:0.18882221 226:0.1505331 227:0.36235425 228:0.31847296 232:0.091818062 233:0.14012902 234:0.24000803 235:0.18694807 255:0.20011094 256:0.20630109 257:0.0088839349 267:0.19867072 268:0.20900346 269:0.063523326 279:0.07093743 280:0.13428129 281:0.06226548 314:0.1472423 315:0.42307909 316:0.67110129 317:0.68751802 318:0.62303994 319:0.80888922 320:0.47590667 321:0.1519432 326:0.1472423 327:0.42307909 328:0.77306824 329:1 330:0.85370181 331:0.85389527 332:0.74015558 333:0.2994902 339:0.29082737 340:0.54047793 341:0.50256646 342:0.40298426 343:0.29422387 344:0.31880638 345:0.33867229 346:0.33169018 347:0.14952772 351:0.18706302 352:0.58907168 353:0.80478529 354:0.40183169 355:0.088940011 356:0.048854591 357:0.22821222 358:0.40755691 359:0.43728882 360:0.29288124 363:0.18629953 364:0.53644965 365:0.79151768 366:0.57058161 367:0.16207184 370:0.15165079 371:0.41332754 372:0.33601067 376:0.29332251 377:0.61266208 378:0.48476724 379:0.16240672 380:0.055783183 381:0.19278106 382:0.23829259 383:0.16950996 384:0.072399238 387:0.0027070913 388:0.030555132 389:0.041820023 390:0.1779498 391:0.3111903 392:0.26403176 393:0.28363556 394:0.24787422 395:0.12357412 396:0.027401628 399:0.23714686 400:0.59360246 401:0.54606041 402:0.46095956 403:0.42529645 404:0.29294679 405:0.24124471 406:0.10908722 411:0.23449338 412:0.58639863 413:0.59373071 414:0.5659454 415:0.42039815 416:0.15738951 423:0.088934797 424:0.37288796 425:0.39596103 426:0.11255251 458:0.0066874682 459:0.058285811 460:0.12546008 461:0.10446922 462:0.05409564 463:0.21147778 464:0.21019981 470:0.0066874682 471:0.058285811 472:0.12448864 473:0.11503329 474:0.17413963 475:0.35258488 476:0.21295453 477:0.14547631 483:0.031972461 484:0.10125761 485:0.46327292 486:0.50165514 487:0.3483262 488:0.20873775 489:0.14259568 495:0.27738497 496:0.49034756 497:0.56775113 498:0.60228493 499:0.2822142 503:0.29117294 504:0.28828999 507:0.27463181 508:0.38936887 509:0.59070156 510:0.41790132 511:0.12826191 514:0.38090712 515:0.81050962 516:0.55983056 520:0.42443343 521:0.98579682 522:0.70394777 523:0.2714237 524:0.093970739 525:0.43422512 526:0.83570489 527:0.90308691 528:0.68174585 531:0.38828177 532:0.9539488 533:1 534:0.70512736 535:0.30898904 536:0.35645048 537:0.52269004 538:0.67092553 539:0.48560583 540:0.12586395 543:0.49130218 544:0.78162859 545:0.81763147 546:0.4478181 547:0.3730413 548:0.33681997 549:0.37720578 550:0.19844832 555:0.20812916 556:0.38101557 557:0.34168742 558:0.36773764 559:0.35374203 560:0.155096 568:0.035978417 569:0.092292716 570:0.055199201 606:0.50376252 607:0.99503735 608:0.49132458 618:0.49875 619:1 620:0.50125 631:0.49132458 632:0.49132458 
-0.0007461840972787471 -0.001540495581170186 -0 -0 0.0210519406447979 0 29:0.38320376 30:0.38282785 31:0.12577605 41:0.38066292 42:0.38557462 43:0.35933159 47:0.040660157 48:0.039855032 53:0.62407079 54:0.61171336 55:0.22893083 59:0.73295773 60:0.71844419 64:0.058587361 65:0.95667403 66:0.88030336 70:0.12951268 71:0.98731806 72:0.96299646 75:0.095607928 76:0.27026725 77:0.70869943 78:0.67394408 82:0.13715571 83:0.64811182 84:0.63669478 87:0.32630791 88:0.44106601 89:0.87314407 90:0.5556426 94:0.0088396594 95:0.072791383 96:0.062685394 99:0.22613182 100:0.37409147 101:0.9815204 102:0.6128847 111:0.31563492 112:0.43112271 113:0.54872809 114:0.34942646 123:0.31250211 124:0.35950746 125:0.37668123 126:0.022990638 136:0.15585653 137:0.15277037 160:0.22736397 161:0.22487175 172:0.356404 173:1 174:0.70965528 175:0.23715139 176:0.037756919 183:0.14012372 184:0.32893733 185:0.82406208 186:0.87134052 187:0.43593323 188:0.18343911 189:0.27147404 190:0.50711162 191:0.55793467 192:0.21515249 195:0.14012372 196:0.3024467 197:0.48644788 198:0.44384379 199:0.19484569 200:0.14279749 201:0.26609849 202:0.50187528 203:0.87797216 204:0.5799341 208:0.19982402 209:0.5238441 210:0.32478708 214:0.097244898 215:0.6918108 216:0.5917535 221:0.040558114 222:0.040558114 227:0.018602375 228:0.018602375 231:0.057945248 232:0.11618095 233:0.29667104 234:0.18221694 243:0.056797855 244:0.11560149 245:0.29667104 246:0.18221694 255:0.23501263 256:0.23501263 267:0.23501263 268:0.23737455 269:0.23267422 280:0.23267422 281:0.22806696 304:0.24483566 305:0.24233739 316:0.3313771 317:0.67035595 318:0.63088552 319:0.56242439 320:0.26916882 327:0.13445059 328:0.53292043 329:0.8697749 330:0.94065861 331:0.69869784 332:0.67785061 333:0.62260657 334:0.47873466 335:0.32241185 336:0.060031916 339:0.13445059 340:0.55446371 341:0.90915695 342:0.85532803 343:0.55249004 344:0.66957085 345:0.61994835 346:0.51273526 347:0.43161432 348:0.14815371 352:0.24366128 353:0.43868786 354:0.19547735 358:0.086475612 359:0.2334166 360:0.14522007 369:0.042690131 370:0.057831692 371:0.015523483 375:0.11297818 376:0.37336809 377:0.5161142 378:0.2900507 379:0.043401319 380:0.15758816 381:0.18331608 382:0.11202949 383:0.030892504 387:0.11074107 388:0.3659749 389:0.5161142 390:0.2900507 391:0.29279072 392:0.26364381 393:0.26388562 394:0.13862707 395:0.015064695 399:0.14441639 400:0.43133824 401:0.44873917 402:0.32466993 403:0.27394863 404:0.25733811 405:0.1804765 406:0.042118617 411:0.14441639 412:0.4296501 413:0.51574049 414:0.42270395 415:0.21766994 416:0.063211307 424:0.24206401 425:0.33881408 426:0.09760941 448:0.020899309 449:0.020485475 460:0.020899309 461:0.29151607 462:0.28122727 463:0.01263159 471:0.080260904 472:0.29782598 473:0.58590612 474:0.46289656 475:0.14671825 483:0.080260904 484:0.29480963 485:0.52850906 486:0.45724772 487:0.14381303 491:0.077502116 492:0.075967471 496:0.14340511 497:0.43030905 498:0.29455273 502:0.2573031 503:0.4536802 504:0.31113423 507:0.12347744 508:0.65210789 509:0.7474871 510:0.55436936 513:0.25536854 514:0.64821304 515:0.59138092 516:0.44723731 519:0.22983595 520:0.7184808 521:1 522:0.44495485 523:0.10035993 524:0.43424072 525:0.70463775 526:0.62637459 527:0.40275648 528:0.13491231 531:0.10425247 532:0.60061496 533:0.74263495 534:0.32831621 535:0.46155139 536:0.6225354 537:0.77496236 538:0.59733286 539:0.12360085 543:0.21801078 544:0.92100171 545:0.92202738 546:0.65851298 547:0.35738128 548:0.47948102 549:0.41018662 550:0.11278288 555:0.21532116 556:0.53232402 557:0.84845857 558:0.46099951 559:0.23395836 560:0.087967439 568:0.12566288 569:0.18368223 570:0.058449691 592:0.50499983 593:0.49500017 604:0.50499983 605:0.50499983 616:0.50499983 617:1 618:0.49500017 628:0.49500017 629:0.50499983 630:0.49500017 
-0.01130110681435448 -0.005694154641559744 -0.003756366829298198 -0.01273712600675141 0.02388400944807862 0.004108362980401107 29:0.33869412 30:0.33869412 40:0.030324526 41:0.47026562 42:0.44284006 43:0.38482108 52:0.060801055 53:0.5413069 54:0.49596191 55:0.37818122 59:0.25121346 60:0.2462391 64:0.029873053 65:0.97679699 66:0.94592908 67:0.78456086 71:0.56663904 72:0.55541884 76:0.0059908089 77:0.61392116 78:1 79:0.87619402 83:0.55915254 84:0.55915254 88:0.0058721829 89:0.10522945 90:0.2042184 91:0.09714511 95:0.061706359 96:0.061706359 99:0.012116199 100:0.45042994 101:0.42963455 111:0.02429313 112:0.45967411 113:0.45919066 123:0.011935812 124:0.15290298 125:0.15242434 171:0.045970796 172:0.15226182 173:0.59713603 174:0.55384219 175:0.16509226 183:0.045060513 184:0.37485363 185:0.81559491 186:0.67107274 187:0.56390688 188:0.26036454 189:0.32300841 190:0.30696899 191:0.12526403 196:0.45234445 197:0.86029491 198:1 199:0.39423881 200:0.25520898 201:0.32019588 202:0.51847298 203:0.76083615 204:0.41776503 208:0.22224795 209:0.65305499 210:0.86955695 211:0.22095102 213:0.088915339 214:0.30354039 215:0.84631267 216:0.62926902 221:0.020015105 222:0.22135536 223:0.21697223 227:0.20731593 228:0.20731593 231:0.097264814 232:0.28986702 233:0.18966466 243:0.097264814 244:0.48433307 245:0.43762807 255:0.11180345 256:0.53353188 257:0.43277482 267:0.11124583 268:0.11124583 279:0.054657812 280:0.054657812 303:0.091220872 304:0.27411986 305:0.27276176 306:0.08986277 315:0.23240908 316:0.664179 317:0.96967009 318:0.65098338 319:0.11319627 327:0.1383925 328:0.44486949 329:1 330:0.99151822 331:0.66699158 332:0.45799053 333:0.41483833 334:0.2898458 335:0.091727755 340:0.089171178 341:0.31502258 342:0.64885116 343:0.56848282 344:0.45799053 345:0.43354228 346:0.39601637 347:0.27680279 348:0.089628079 352:0.07282027 353:0.17338349 354:0.19643485 355:0.024322776 357:0.10315098 358:0.28706627 359:0.29323383 360:0.10973757 364:0.0089654459 365:0.0088939229 366:0.026047338 367:0.023841152 369:0.069173194 370:0.10294711 371:0.060768989 372:0.03969431 375:0.26911868 376:0.40099082 377:0.13172048 378:0.0052828162 379:0.063971613 380:0.22700916 381:0.27945365 382:0.18760464 383:0.07494699 384:0.019718118 387:0.26895223 388:0.51160003 389:0.41747387 390:0.41663977 391:0.38179531 392:0.33161958 393:0.30887021 394:0.16542092 395:0.033480498 399:0.31492057 400:0.69000076 401:0.72017619 402:0.51578363 403:0.40509738 404:0.28006348 405:0.12510017 411:0.31095868 412:0.48155296 413:0.4358542 414:0.43140203 415:0.1690022 423:0.11256469 424:0.11256469 447:0.051797095 448:0.15565092 449:0.15487976 450:0.051025937 459:0.14751702 460:0.25137084 461:0.30153737 462:0.16971495 471:0.093824541 472:0.22737237 473:0.63153356 474:0.49283713 475:0.23443001 484:0.13354783 485:0.50782808 486:0.62768988 487:0.23210319 491:0.054149934 492:0.053077694 497:0.34116135 498:0.35608712 499:0.10098338 502:0.12887842 503:0.42837232 504:0.29356353 508:0.39983949 509:0.87073645 510:0.60682583 511:0.2185729 513:0.2200645 514:0.60658074 515:0.68584576 516:0.55182497 519:0.36688135 520:0.8948979 521:0.9084282 522:0.63113333 523:0.11526109 524:0.34936475 525:0.59374573 526:0.57505834 527:0.62782123 528:0.37898883 531:0.49540883 532:0.9029815 533:0.73769738 534:0.30592653 535:0.34591487 536:0.42164842 537:0.55321023 538:0.40933478 539:0.11258822 543:0.4552844 544:0.89529931 545:0.83048253 546:0.34919489 547:0.32603207 548:0.30490819 549:0.16334053 555:0.31934738 556:0.64011119 557:0.60691426 558:0.28023711 559:0.11792968 567:0.076486758 568:0.076486758 593:0.5 594:0.49009934 605:1 606:0.98019867 617:0.99009934 618:0.99009934 629:0.49009934 630:0.49009934 
-0.02064526108327928 -0.00780674847089404 -0.003679916402234536 -0.02274239757109425 0.01048701570114919 0.004446040649544739 41:0.48405813 42:0.47447314 52:0.090025265 53:0.71090426 54:0.68003374 58:0.0174893 59:0.017142989 64:0.088835296 65:0.56940224 66:0.55291138 70:0.12807418 71:0.20327698 72:0.074394292 76:0.014705268 77:0.029484247 78:0.17394238 79:0.17394238 82:0.10989052 83:0.75196985 84:0.63527364 90:0.34875665 91:0.3505048 92:0.34356434 95:0.84801654 96:0.99710499 102:0.17135271 103:0.34702589 104:0.34015432 107:0.42083705 108:0.69952935 171:0.097401902 172:0.21546074 173:0.11807286 174:0.034237345 175:0.20199372 176:0.16609133 183:0.097401902 184:0.30032482 185:0.42758948 186:0.27182127 187:0.31443388 188:0.51904098 189:0.36641673 190:0.12560742 195:0.059287991 196:0.15443055 197:0.46151882 198:0.36425351 199:0.11631951 200:0.4228038 201:0.79191893 202:0.6956513 203:0.1423106 209:0.091744917 210:0.091744917 213:0.42203546 214:1 215:0.71501478 216:0.1423106 218:0.057307924 219:0.12351695 220:0.066069595 221:0.060789442 222:0.27042061 223:0.20975403 226:0.42979587 227:0.9543239 228:0.52412726 230:0.057307924 231:0.12351695 232:0.12401334 233:0.060789442 234:0.34694565 235:0.3186493 236:0.21149645 239:0.47022323 240:0.55862287 243:0.11319242 244:0.12155771 245:0.038725731 246:0.13083336 247:0.31385491 248:0.20879383 251:0.088979185 252:0.17840438 256:0.011362073 257:0.011625078 258:0.0058165004 268:0.0055824658 269:0.011394886 270:0.005701326 305:0.18197877 306:0.43060483 307:0.33541542 308:0.17017533 315:0.39775847 316:0.80381247 317:0.68357725 318:0.73331933 319:0.72507972 320:0.26630901 327:0.39582587 328:0.8902806 329:1 330:0.79600729 331:0.57581579 332:0.48856294 333:0.17398437 334:0.024009703 339:0.14747546 340:0.41018509 341:0.51025992 342:0.33752902 343:0.32170088 344:0.40406867 345:0.26180735 346:0.098536228 347:0.0099784145 351:0.025820967 352:0.038311725 353:0.021048931 357:0.087871208 358:0.11768028 359:0.030186838 362:0.095835613 363:0.41993491 364:0.62985563 365:0.57879357 366:0.47050119 367:0.19803687 370:0.020006846 371:0.01980827 374:0.095800496 375:0.39414372 376:0.59805147 377:0.63815501 378:0.60442745 379:0.34063419 380:0.096597902 382:0.14594056 383:0.21940628 384:0.073701384 387:0.23340985 388:0.5287478 389:0.851477 390:0.85980987 391:0.76680306 392:0.65650627 393:0.51029107 394:0.53959929 395:0.41611745 396:0.1332939 400:0.36834876 401:0.78182422 402:0.90405099 403:0.88109585 404:0.67823736 405:0.51029107 406:0.53787476 407:0.39615806 408:0.11508234 412:0.14316573 413:0.44092467 414:0.56988351 415:0.56840169 416:0.29291053 449:0.1284077 450:0.53038963 451:0.49756625 452:0.22963868 459:0.17330508 460:0.27980207 461:0.29229399 462:0.69974432 463:0.60769601 464:0.36395211 471:0.17218148 472:0.27654678 473:0.33752517 474:0.42315099 475:0.44410223 476:0.18888372 483:0.057269322 484:0.42693405 485:0.63776445 486:0.40903296 487:0.1141743 488:0.056096641 495:0.42602295 496:0.99067557 497:0.92080662 498:0.49067828 506:0.29351736 507:0.86457831 508:0.99983309 509:0.70032839 510:0.1375869 515:0.028450212 516:0.028450212 518:0.29060408 519:0.58218375 520:0.71465836 521:0.13557695 522:0.36001528 523:0.25736264 524:0.12739455 526:0.18120986 527:0.47492696 528:0.29022743 531:0.14493516 532:0.15482985 533:0.46599969 534:0.59094209 535:0.46716154 536:0.2040191 537:0.15151498 538:0.34858886 539:0.57309566 540:0.38337974 544:0.15329367 545:0.36103704 546:0.53635737 547:0.40280203 548:0.12160084 549:0.14851479 550:0.27755403 551:0.43431739 552:0.21826872 556:0.075720874 557:0.097129102 558:0.064331992 559:0.06875516 560:0.026234895 594:0.5 595:0.49009934 606:1 607:0.98019867 618:0.99009934 619:0.99009934 630:0.49009934 631:0.49009934 
-0.01801341675660466 -0.01141481314422845 -0.007655194858822103 -0.04709075012517346 0.0163691803417367 0.00555974152158704 41:0.52299451 42:0.52299451 43:0.27951518 53:0.53827361 54:0.54631045 55:0.53549278 59:0.22989507 60:0.22989507 63:0.065788625 64:0.064485923 65:0.02051133 66:0.25639196 67:0.25131506 71:0.63776937 72:0.63776937 75:0.49102321 76:0.48679206 78:0.45240987 79:0.45156825 83:0.40124324 84:0.63621549 87:0.48548935 88:0.48548935 90:0.99797249 91:0.99208192 92:0.69065642 96:0.072269002 101:0.035350614 102:0.5734618 103:0.98560719 104:0.68262048 113:0.034650625 114:0.16041544 115:0.15971545 174:0.0028657521 175:0.0028514591 176:0.001400992 183:0.058956144 184:0.065065082 185:0.19256286 186:0.23257616 187:0.27728345 188:0.26136046 189:0.36623967 190:0.31206884 191:0.10879363 195:0.057788734 196:0.065065082 197:0.18874986 198:0.22521746 199:0.27443199 200:0.25618518 201:0.3630055 202:0.56646924 203:0.88422433 204:0.51662786 213:0.090639601 214:0.41921002 215:0.88564908 216:0.7817926 219:0.062494948 220:0.070789279 221:0.089147995 222:0.49584684 223:0.41139443 227:0.1865414 228:0.49207279 231:0.061257465 232:0.069387557 233:0.087382747 234:0.49012186 235:0.49406118 236:0.20466874 247:0.20466874 248:0.20061602 255:0.025986524 256:0.025986524 267:0.025986524 268:0.026247693 269:0.025727954 280:0.025727954 281:0.025218507 315:0.065909081 316:0.32574903 317:0.52573526 318:0.48557722 319:0.29813849 320:0.10852191 327:0.28276203 328:0.761563 329:0.96423814 330:1 331:0.71581246 332:0.48209972 333:0.29462606 334:0.1879012 335:0.056012037 339:0.21255897 340:0.4650414 341:0.7395485 342:0.61191296 343:0.42621581 344:0.37357782 345:0.31550949 346:0.32146488 347:0.27771703 348:0.099957077 351:0.027415501 352:0.080968168 353:0.083593744 354:0.041596251 355:0.0085418425 357:0.064888489 358:0.24297282 359:0.31685912 360:0.15738728 363:0.24594229 364:0.48237515 365:0.51170787 366:0.42050998 367:0.18107292 369:0.03161158 370:0.11138463 371:0.13596991 372:0.13630265 375:0.21448998 376:0.42908578 377:0.44395893 378:0.40323341 379:0.18107292 380:0.1083718 381:0.2029224 382:0.17941276 383:0.18379315 384:0.076872057 388:0.020633546 389:0.064975699 390:0.14231284 391:0.22614911 392:0.27314623 393:0.22049164 394:0.18966559 395:0.087839263 399:0.098151207 400:0.34100685 401:0.40143935 402:0.33646437 403:0.30221342 404:0.25262125 405:0.15558561 406:0.037076001 411:0.098151207 412:0.31871246 413:0.41844733 414:0.37311569 415:0.24531145 416:0.089650066 424:0.17146526 425:0.23147377 426:0.060706345 459:0.060871766 460:0.16346141 461:0.22933928 462:0.23255019 463:0.147568 464:0.052015524 471:0.13285372 472:0.23401803 473:0.42509581 474:0.51501103 475:0.30227017 476:0.052015524 483:0.071265722 484:0.29982038 485:0.68033484 486:0.62903018 487:0.41010038 495:0.3841628 496:0.73051468 497:0.59924542 498:0.49804074 499:0.25286327 503:0.36394358 504:0.36147363 507:0.49944887 508:0.73095692 509:0.59638208 510:0.11315285 511:0.053261562 513:0.10299015 514:0.42056575 515:0.7857264 516:0.58255108 519:0.2423812 520:0.36873906 521:0.1238558 522:0.37907129 523:0.37459447 524:0.28284074 525:0.57882593 526:0.60915225 527:0.74548025 528:0.46250668 532:0.11004054 533:0.47956419 534:0.8454522 535:0.73174159 536:0.62401608 537:0.55778374 538:0.5881112 539:0.2966155 543:0.11598997 544:0.61125206 545:0.99652113 546:1 547:0.72283431 548:0.51446347 549:0.35887975 550:0.093794815 555:0.11598997 556:0.49693725 557:0.79228414 558:0.68770214 559:0.38796115 560:0.1629118 568:0.21756297 569:0.27920788 570:0.062653132 604:0.50627499 605:0.50627499 606:0.49625007 616:0.49625007 617:0.50627499 618:1 619:0.50374993 630:0.50374993 631:0.50374993 
