svm_type c_svc
kernel_type rbf
gamma 0.125
nr_class 5
total_sv 399
rho -0.977473 -0.983773 -0.979586 -0.968975 -0.19969 -0.0296917 0.144037 0.171357 0.334046 0.172915
label 4 6 7 8 9
probA -115.171 -79.0332 -40.8695 -16.5373 5.03047 4.47955 4.89708 5.70861 5.88073 4.63524
probB 108.452 73.1189 34.7988 11.7001 -1.3994 -0.467996 1.36861 1.65572 2.85916 0.947858
nr_sv 387 3 2 3 4
SV
0.02227796641509973 0.01220905309536855 0.01529468467035771 0.02402188321314098 22:0.89147562 23:0.88272138 24:0.2207875 27:0.076989321 28:0.076605335 29:0.037638084 33:0.031793094 34:1 35:0.97620528 36:0.44268169 39:0.07546483 40:0.076605335 41:0.037638084 44:0.015350324 45:0.12663576 46:0.4012806 47:0.59011313 48:0.2175004 56:0.015350324 57:0.093574097 58:0.12584715 59:0.062173223 69:0.030319373 70:0.030018441 99:0.045443576 100:0.044992529 110:0.40267635 111:0.53123369 112:0.2090198 113:0.022439463 122:0.40103879 123:0.51050648 124:0.52490874 125:0.021995132 135:0.31679329 136:0.31052037 154:0.083596597 155:0.081941273 166:0.2313309 167:0.23049493 168:0.062456963 171:0.44448436 172:0.58379322 173:0.14707125 178:0.16512093 179:0.22883961 180:0.062456963 183:0.4386392 184:1 185:0.7207195 186:0.13936757 196:0.42864986 197:0.98071745 198:0.80412505 199:0.36581668 209:0.40734832 210:0.78700918 211:0.82102289 212:0.54972731 213:0.20762811 222:0.12513272 223:0.46933728 224:0.67806534 225:0.63136055 226:0.29785595 227:0.098353314 236:0.21848705 237:0.51180443 238:0.49277182 239:0.29191557 240:0.090892912 250:0.19719963 251:0.28797141 252:0.090892912 254:0.015499283 255:0.015499283 266:0.015499283 267:0.015655053 268:0.015345062 279:0.015345062 280:0.01504121 298:0.10301997 299:0.10098004 304:0.36296922 305:0.3593666 310:0.20655634 311:0.20552614 315:0.38176544 316:0.95007529 317:0.72415522 318:0.17922961 322:0.2034862 323:0.2034862 327:0.37471699 328:0.79140285 329:0.82618756 330:0.20701037 332:0.0050370539 333:0.0050370539 340:0.088682987 341:0.21714071 342:0.28779895 343:0.16998429 344:0.025286389 345:0.020048353 346:0.0099489963 353:0.10763558 354:0.32929406 355:0.4390913 356:0.37802163 357:0.17787189 358:0.0098502484 365:0.039850585 366:0.12851154 367:0.28502719 368:0.43801401 369:0.47374171 370:0.25947528 371:0.089202113 376:0.032591286 377:0.19716575 378:0.21625822 379:0.13266458 380:0.1606844 381:0.39389509 382:0.45828588 383:0.37528876 384:0.19650066 387:0.026291144 388:0.15687564 389:0.29178622 390:0.28520119 391:0.12698787 394:0.19650066 395:0.37182712 396:0.19650066 398:0.052503182 399:0.1778266 400:0.22051208 401:0.24323483 402:0.16087894 403:0.036847761 410:0.052503182 411:0.1507106 412:0.19351602 413:0.06488158 423:0.10370228 424:0.10267299 448:0.027124076 449:0.026854859 454:0.1391576 455:0.13775321 456:0.033524825 459:0.063797646 460:0.1039526 461:0.071977186 462:0.013393526 465:0.084412073 466:0.30815286 467:0.2239117 468:0.067217694 471:0.062534368 472:0.090334313 473:0.071437401 474:0.013128316 476:0.090536163 477:0.43855819 478:0.42805421 479:0.3543521 480:0.033025705 487:0.090536163 488:0.45449835 489:0.6205054 490:0.52511404 491:0.16507266 498:0.088295545 499:0.35900462 500:0.53875668 501:0.62837335 502:0.26444702 509:0.26329743 510:0.43712843 511:0.35045915 512:0.44552608 513:0.26623693 520:0.26759344 521:0.84539437 522:0.7370289 523:0.49721234 524:0.085686018 526:0.0054871026 527:0.0054871026 528:0.0053784507 531:0.26907849 532:0.78501644 533:0.90403324 534:0.89279161 535:0.31188881 538:0.0053784507 539:0.0054871026 540:0.0053784507 542:0.14272763 543:0.6675079 544:0.7743768 545:0.83968655 546:0.38688146 547:0.073876154 554:0.141311 555:0.40187677 556:0.6545919 557:0.25211993 567:0.15489155 568:0.15349601 586:0.99501248 587:0.97530991 592:0.99004983 593:0.99004983 598:0.99501248 599:0.99501248 604:0.99004983 605:1 606:0.98019867 610:0.97530991 611:0.97530991 617:0.98019867 618:0.96078944 666:1 667:0.99004983 670:0.99501248 671:0.99501248 672:0.97530991 678:0.99004983 679:0.99004983 682:0.97530991 683:0.99501248 684:0.97530991 
0.01849817655988694 0.01157813966076107 0.01553139805618359 0.02416238446153116 3:0.34095635 4:0.34095635 15:0.78497066 16:0.88682759 17:0.67344394 27:0.43722909 28:0.98580252 29:0.98747382 30:0.016827808 34:0.48233099 35:0.48233099 40:0.30152943 41:0.33396412 42:0.033739966 46:0.48233099 47:0.4871785 48:0.47753172 53:0.016912158 54:0.016577275 59:0.47753172 60:0.46807596 81:0.00020191996 82:0.00020191996 93:0.00040485204 94:0.040256744 95:0.039621136 98:0.31889403 99:0.31889403 105:0.00019891376 106:0.068386464 107:0.13414804 108:0.12097652 110:0.63938652 111:0.64259146 112:0.62986729 118:0.027778533 119:0.13276056 120:0.12042371 122:0.31414631 123:0.63621347 124:0.6236156 147:0.058437979 148:0.058437979 159:0.29882537 160:0.41931954 161:0.17596474 171:0.23800144 172:0.78514571 173:0.69773526 174:0.13939946 184:0.42100387 185:0.96453242 186:0.68854094 187:0.13387046 197:0.4098623 198:0.80908733 199:0.65226753 200:0.37892125 210:0.26016859 211:0.64111282 212:0.903414 213:0.39379381 223:0.12538474 224:0.65483654 225:0.94780591 226:0.41808323 236:0.13038988 237:0.69778282 238:0.99878134 239:0.43388479 249:0.14366449 250:0.71913716 251:1 252:0.41678884 254:0.11368335 255:0.11368335 256:0.11143227 262:0.14366449 263:0.56321265 264:0.41398611 266:0.11143227 267:0.11368335 268:0.11143227 291:0.33111758 292:0.99501248 293:0.65730547 303:0.33111758 304:0.99501248 305:0.99504559 306:0.32782291 316:0.65401079 317:0.97534237 318:0.32133158 322:0.019944986 323:0.019747024 328:0.022682789 329:0.13286182 330:0.15115817 331:0.04105484 333:0.21950213 334:0.29350157 335:0.14673272 336:0.009848582 341:0.086477483 342:0.17381513 343:0.23329939 344:0.3695703 345:0.43602976 346:0.35704439 347:0.21842543 348:0.009653567 354:0.20649908 355:0.48641749 356:0.60023128 357:0.46333978 358:0.21619624 359:0.070662152 365:0.15775439 366:0.37660412 367:0.38196887 368:0.49075959 369:0.36532465 370:0.091343309 375:0.041986311 376:0.17797674 377:0.29097571 378:0.31774663 379:0.26829445 380:0.083584834 381:0.14056604 382:0.12756722 383:0.018093422 386:0.0013813744 387:0.24226843 388:0.70727414 389:0.57487247 390:0.37089889 391:0.049618003 393:0.018003181 394:0.036096602 395:0.017735148 398:0.2060871 399:0.76138615 400:0.95134162 401:0.83983859 402:0.329037 410:0.20065228 411:0.55061958 412:0.83075484 413:0.51285279 414:0.10732609 466:0.21361329 467:0.21149309 477:0.26386802 478:0.58338649 479:0.41146849 480:0.10547954 487:0.088192252 488:0.34926851 489:0.51965458 490:0.56052466 491:0.49205019 492:0.10339091 498:0.27573781 499:0.5432685 500:0.53377282 501:0.51881979 502:0.25354475 503:0.083152927 509:0.27956735 510:0.64416095 511:0.5513674 512:0.53537239 513:0.25934426 519:0.10452872 520:0.39418903 521:0.56355236 522:0.55683361 523:0.45599466 524:0.088899103 530:0.10938123 531:0.60762401 532:1 533:0.73332541 534:0.42315038 535:0.090133765 542:0.15788179 543:0.66812386 544:0.94082022 545:0.72440592 546:0.21764089 554:0.047540186 555:0.32444448 556:0.52602655 557:0.27448542 558:0.070990639 580:0.99004983 581:0.99004983 592:0.99004983 593:1 594:0.98019867 605:0.98019867 606:0.96078944 610:0.99004983 611:0.99004983 622:0.99004983 623:1 624:0.98019867 635:0.98019867 636:0.96078944 677:1 678:0.99004983 683:1 684:0.99004983 689:0.99004983 690:0.99004983 695:0.99004983 696:0.99004983 
0.0148249054544974 0.009828478616423057 0.01288485518641395 0.02184818021412494 22:0.18192919 23:0.2735783 24:0.18012347 27:0.32125609 28:0.31489479 33:0.028592409 34:0.23759565 35:0.30217071 36:0.26995781 39:0.52303117 40:0.5213206 41:0.029269926 44:0.020880706 45:0.12817477 46:0.13456218 47:0.17240618 48:0.088055496 51:0.48509808 52:0.5149593 53:0.029269926 55:0.037795575 56:0.13873724 57:0.17743375 58:0.14799044 59:0.053418902 66:0.029933945 67:0.181875 68:0.22966078 69:0.20084795 70:0.066504947 78:0.12033671 79:0.23177972 80:0.24754239 81:0.11114429 87:0.2217 88:0.2217 89:0.050868942 90:0.13966575 91:0.18645918 92:0.095770422 99:0.66732254 100:0.69702824 101:0.47946326 102:0.10073061 103:0.058976573 111:0.98140239 112:1 113:0.48803812 114:0.040746766 123:0.7558969 124:0.7689656 125:0.013068699 135:0.26408578 136:0.26408578 166:0.067640739 167:0.13562053 168:0.13360474 171:0.10472188 172:0.10264825 178:0.066301362 179:0.13494412 180:0.13360474 183:0.55839331 184:0.70461753 185:0.14830803 195:0.44766921 196:1 197:0.81196216 198:0.25975643 208:0.43134454 209:0.82988964 210:0.78564333 211:0.38427182 221:0.26155605 222:0.77225327 223:0.89678194 224:0.52088483 225:0.12957739 234:0.12697627 235:0.51310099 236:0.90708714 237:0.67500172 238:0.28011732 248:0.39133998 249:0.6820429 250:0.7062036 251:0.42910403 261:0.13900824 262:0.57092042 263:0.42633768 310:0.31758199 311:0.47761145 312:0.32055886 315:0.34160336 316:0.84292035 317:0.752293 318:0.49694839 322:0.31129345 323:0.47751833 324:0.32055886 327:0.37479623 328:0.91174457 329:0.95032354 330:0.49694839 339:0.15490047 340:0.46101939 341:0.34747957 342:0.10093606 352:0.14050409 353:0.30147293 354:0.34058071 355:0.17735529 365:0.10043013 366:0.32920748 367:0.39658121 368:0.22124375 369:0.053445838 378:0.058724475 379:0.22652239 380:0.37443631 381:0.25662761 382:0.081776195 388:0.02219941 389:0.021759832 392:0.15228792 393:0.25090167 394:0.22065767 395:0.12042886 399:0.27513123 400:0.31503229 401:0.085816712 405:0.048786156 406:0.17009487 407:0.11978211 411:0.27344916 412:0.31855607 413:0.085377134 423:0.18641788 424:0.18641788 454:0.33219302 455:0.45430331 456:0.24263656 459:0.19114697 460:0.25574652 461:0.08183307 462:0.030290992 465:0.1421429 466:0.61334095 467:0.59652838 468:0.38259297 471:0.19114697 472:0.25441807 473:0.14661095 474:0.030290992 476:0.14373749 477:0.7167652 478:0.70728076 479:0.56207462 480:0.13718509 483:0.12322867 484:0.18800655 485:0.063495195 487:0.13852927 488:0.71636478 489:0.99731344 490:0.8540896 491:0.2779686 498:0.14094993 499:0.7002808 500:0.98211802 501:0.99017594 502:0.42268443 510:0.5666293 511:0.97627943 512:0.97655667 513:0.41249947 519:0.08190371 520:0.08190371 521:0.28903937 522:0.70623303 523:0.84431972 524:0.41448714 531:0.24653222 532:0.53853086 533:0.57689915 534:0.57179799 535:0.28050946 543:0.55877189 544:0.98243082 545:0.86992183 546:0.28556517 555:0.39047278 556:0.75734708 557:0.41837501 567:0.12555123 568:0.12555123 598:1 599:0.99004983 605:1 606:0.99004983 610:0.99004983 611:0.99004983 617:0.99004983 618:0.99004983 663:0.99004983 664:0.99004983 675:0.99004983 676:1 677:0.98019867 682:1 683:0.99004983 688:0.98019867 689:0.96078944 694:0.99004983 695:0.99004983 
0.01637629449438772 0.008594060370432383 0.01353363063345729 0.01708169480114699 28:0.17054445 29:0.17054445 33:0.46852759 34:0.75162046 35:0.27748725 40:0.34194376 41:0.34365776 42:0.33685288 45:0.71539422 46:0.99717806 47:0.9268437 52:0.16800538 53:0.34024682 54:0.33350948 56:0.023881713 57:0.29666512 58:0.76072054 59:0.64011552 68:0.023408824 69:0.11244331 70:0.11197042 87:0.25554666 88:0.25301658 89:0.12524325 94:0.051604066 95:0.051604066 96:0.050582237 98:0.30521929 99:0.68664966 100:0.50792596 101:0.12524325 106:0.050582237 107:0.051604066 108:0.050582237 110:0.85876443 111:0.97715571 112:0.72810703 122:0.54899497 123:0.72997221 124:0.34700577 134:0.19457972 135:0.19457972 172:0.1132068 173:0.1132068 176:0.01256942 177:0.11725481 178:0.16549657 179:0.090230192 184:0.27950305 185:0.71066308 186:0.56052333 187:0.13239466 188:0.012320529 189:0.11493301 190:0.17794154 191:0.15129151 196:0.16300337 197:0.59130331 198:0.9734892 199:0.79978403 200:0.26573191 202:0.059852225 203:0.059852225 209:0.14087299 210:0.54924232 211:0.80736753 212:0.82205525 213:0.57314189 214:0.15109753 223:0.26318493 224:0.66754286 225:0.99109658 226:0.8223911 227:0.35653686 237:0.44298088 238:0.84563744 239:0.69859452 240:0.35474976 250:0.17693144 251:0.53525545 252:0.35122872 316:0.14579801 317:0.59517597 318:0.76587305 319:0.64702864 320:0.66961958 321:0.67993542 322:0.50679415 323:0.16683973 328:0.19341882 329:0.79073409 330:0.96129971 331:0.77129115 332:0.65636022 333:0.67693507 334:0.50679415 335:0.16683973 340:0.046677855 341:0.43404328 342:0.74681473 343:0.36989686 344:0.1264059 345:0.014161544 346:0.0046655938 353:0.046677855 354:0.21323063 355:0.35155973 356:0.35308562 357:0.2312336 358:0.058894103 366:0.020696 367:0.1328209 368:0.31047961 369:0.37081244 370:0.23001603 371:0.045545786 376:0.020064941 377:0.068275905 378:0.068096463 379:0.047657066 380:0.026434331 381:0.14348665 382:0.20692459 383:0.096687855 384:0.026010879 387:0.024920353 388:0.10558292 389:0.12751759 390:0.10141328 391:0.027421385 394:0.032376799 395:0.058649749 396:0.02575271 398:0.20456526 399:0.30551715 400:0.1626725 401:0.14924921 402:0.059004357 410:0.20456526 411:0.27903201 412:0.17583534 413:0.068499395 422:0.1481312 423:0.20104106 424:0.051862175 460:0.089992007 461:0.16105673 462:0.10978677 463:0.077572549 464:0.056373309 465:0.087335752 466:0.14269261 467:0.070108387 472:0.089992007 473:0.16060355 474:0.18316256 475:0.10011836 476:0.056373309 477:0.31950216 478:0.37274515 479:0.24937962 485:0.11399929 486:0.13478086 487:0.02209937 488:0.38055572 489:0.73189476 490:0.61991069 491:0.24656814 499:0.37776831 500:0.88101971 501:0.87559958 502:0.49251524 510:0.25133192 511:0.75039172 512:0.87821833 513:0.62449014 514:0.12269286 519:0.18011683 520:0.29377122 521:0.47738005 522:0.606004 523:0.61760994 524:0.49518945 525:0.12134373 530:0.17966766 531:0.56394871 532:0.84477368 533:0.81662249 534:0.7119236 535:0.24123883 542:0.50985201 543:0.93631081 544:1 545:0.80439881 546:0.34380622 554:0.32902714 555:0.54689268 556:0.70263401 557:0.33603422 566:0.090142152 567:0.18073614 568:0.08880011 663:0.99501248 664:0.99501248 665:0.97530991 670:0.99501248 671:0.99501248 672:0.97530991 675:0.97530991 676:0.99501248 677:0.97530991 682:0.97530991 683:0.99501248 684:0.97530991 
0.02063585016884159 0.01523106293335918 0.01934652856117227 0.02961640352746213 23:0.48992996 24:0.4802287 35:0.98231571 36:0.97741639 39:0.66948242 40:0.66948242 41:0.60548198 47:0.96771513 48:0.96771513 51:0.65725087 52:0.6700027 53:0.65673576 64:0.051253785 65:0.050238892 93:0.056016914 94:0.054907704 98:0.029849039 99:0.029849039 105:0.99556986 106:0.99446065 107:0.46162546 110:0.9726827 111:0.9726827 112:0.49278939 117:0.93022749 118:0.99917018 119:0.92556482 122:0.93347564 123:0.97711167 124:0.95776356 130:0.46393936 131:0.45475275 135:0.46555934 136:0.45634065 166:0.0055309948 167:0.029243862 168:0.023297132 178:0.0055309948 179:0.029326484 180:0.0264989 183:0.31150028 184:0.45765925 185:0.15304775 190:0.0027175137 191:0.028745781 192:0.025974187 195:0.30840851 196:0.86799799 197:0.81444242 198:0.25801022 208:0.44250972 209:0.84094157 210:0.78311972 211:0.5211101 212:0.12897721 221:0.26257067 222:0.77595258 223:0.93933475 224:0.69371232 225:0.14376746 234:0.12897721 235:0.52397645 236:0.96953344 237:0.73370347 238:0.15902332 248:0.43419577 249:0.75580633 250:0.47634596 251:0.15201592 254:0.090056935 255:0.090056935 256:0.044247186 261:0.19736366 262:0.35991366 263:0.19691244 266:0.089163082 267:0.090508347 268:0.088716162 274:0.044896529 275:0.044007518 279:0.044468976 280:0.043588431 310:0.51931892 311:0.77447307 312:0.25515415 315:0.10353891 316:0.42919632 317:0.91742838 318:1 319:0.82200775 320:0.61292489 321:0.20193127 322:0.61810525 323:0.89268669 324:0.56859306 327:0.24435173 328:0.60694829 329:0.94545707 330:0.98372316 331:0.81790797 332:0.61292489 333:0.20193127 334:0.35622466 335:0.95240533 336:0.59047684 339:0.13875234 340:0.47895227 341:0.88750313 342:0.40871535 343:0.035945142 344:0.18044732 345:0.2122713 346:0.20752508 347:0.13185003 348:0.03148002 352:0.16725698 353:0.36295839 354:0.3805371 355:0.34356591 356:0.26631224 357:0.24676707 358:0.10570278 365:0.15576463 366:0.43740924 367:0.52666663 368:0.36493221 369:0.15234705 376:0.080910937 377:0.24732483 378:0.24284416 379:0.32745382 380:0.34992371 381:0.20862753 382:0.035424699 386:0.01675985 387:0.10415141 388:0.28377374 389:0.32761595 390:0.28048106 391:0.02945338 392:0.12170366 393:0.29342562 394:0.2228681 398:0.39345981 399:0.6903249 400:0.54946588 401:0.38933061 402:0.15889131 405:0.21120918 406:0.22499078 407:0.20910761 410:0.37385004 411:0.57966613 412:0.70227959 413:0.1525815 418:0.20910761 419:0.20496701 423:0.23045789 424:0.22589451 455:0.02511254 456:0.024615278 459:0.063489957 460:0.17460925 461:0.19931242 462:0.13485044 463:0.09294432 464:0.069303346 465:0.022832345 466:0.28116186 467:0.40214948 468:0.21712985 471:0.14755081 472:0.2586701 473:0.32268237 474:0.15914438 475:0.092480758 476:0.13567558 477:0.27384901 478:0.55312734 479:0.58465173 480:0.30746393 483:0.082396335 484:0.20946379 485:0.28574032 486:0.078258229 487:0.091731888 488:0.45494895 489:0.54129343 490:0.54362549 491:0.36243351 492:0.089032764 498:0.18392358 499:0.45867546 500:0.5440039 501:0.63252768 502:0.26661855 509:0.27865036 510:0.55423616 511:0.46034735 512:0.45456753 513:0.26839265 520:0.28488127 521:0.74038574 522:0.64833021 523:0.45660825 524:0.089020801 530:0.099758065 531:0.38333093 532:0.83436698 533:0.92155452 534:0.72142805 535:0.089838123 537:0.020703239 538:0.020703239 542:0.24774212 543:0.69603714 544:0.92231645 545:0.89537093 546:0.3491904 549:0.020703239 550:0.02091131 551:0.020497239 554:0.14599881 555:0.42254984 556:0.67585989 557:0.25478277 562:0.020497239 563:0.020091366 567:0.047251072 568:0.046315438 598:0.99501248 599:0.97530991 607:0.99501248 608:0.99501248 609:0.97530991 610:0.99501248 611:0.99501248 619:0.97530991 620:0.99501248 621:0.97530991 622:0.97530991 623:0.97530991 665:0.99501248 666:0.97530991 677:0.99501248 678:0.99501248 681:0.99004983 682:0.99004983 689:0.97530991 690:0.97530991 693:0.99004983 694:1 695:0.98019867 706:0.98019867 707:0.96078944 
0.02181041013864673 0.01190665767975237 0.01506492921947998 0.02268028429223497 15:0.70124787 16:0.8418568 17:0.34454032 27:0.6942877 28:1 29:0.9412101 30:0.053944254 33:0.19999314 34:0.74133352 35:0.53062112 40:0.53885153 41:0.64233884 42:0.1081589 45:0.33594998 46:0.86963347 47:0.82379847 53:0.05421465 54:0.053141128 56:0.023112535 57:0.15683491 58:0.55339939 59:0.47893948 68:0.022654876 69:0.04576741 70:0.045309751 81:0.003259404 82:0.0065351458 83:0.0032108778 93:0.003259404 94:0.22854183 95:0.22443086 96:0.038748898 106:0.2204372 107:0.22941993 108:0.18007373 119:0.14132484 120:0.13852642 159:0.11206825 160:0.24336231 161:0.12869426 171:0.11177385 172:0.65279587 173:0.68302537 174:0.1443009 178:0.02001525 179:0.019816095 184:0.40451534 185:0.96074007 186:0.69955368 187:0.129521 190:0.019816095 191:0.019816095 197:0.43580685 198:0.95043239 199:0.6332771 200:0.23891666 210:0.3801136 211:0.61958807 212:0.73815902 213:0.49946161 214:0.12361911 223:0.11862953 224:0.6102136 225:0.9271702 226:0.70263577 227:0.14861792 236:0.12361911 237:0.5100854 238:1 239:0.72577391 240:0.13466167 250:0.44884478 251:0.72133987 252:0.26999834 263:0.13533667 264:0.13265682 292:0.26835892 293:0.26569534 303:0.019522808 304:0.42307089 305:0.42268431 306:0.13251224 315:0.01913623 316:0.28521815 317:0.41734382 318:0.12988832 328:0.013826864 329:0.17987459 330:0.24261353 331:0.076308713 341:0.15013801 342:0.38308968 343:0.38682461 344:0.18894722 345:0.034066095 346:0.011323995 354:0.20373237 355:0.48213643 356:0.53468513 357:0.30549357 358:0.064124506 365:0.047430216 366:0.19462864 367:0.28179705 368:0.52953512 369:0.51411406 370:0.22817804 371:0.032560807 376:0.11486866 377:0.25673362 378:0.25117803 379:0.27621914 380:0.17179958 381:0.25778857 382:0.25899161 383:0.065284826 387:0.2433073 388:0.53213233 389:0.37962345 390:0.23484785 391:0.12882321 394:0.032724019 395:0.03207604 398:0.6758323 399:1 400:0.6474762 401:0.4414311 402:0.055597547 410:0.67411821 411:0.85186612 412:0.72111612 413:0.17050327 422:0.28952169 423:0.58049462 424:0.28521128 436:0.18898599 437:0.18711023 447:0.14033146 448:0.47035233 449:0.46711755 450:0.093318894 459:0.13755271 460:0.37281648 461:0.46335662 462:0.091471056 465:0.11342409 466:0.25705298 467:0.14078485 477:0.53197391 478:0.66864739 479:0.39173392 488:0.28698426 489:0.69716291 490:0.74031972 491:0.31681423 498:0.13281438 499:0.5504064 500:0.69621776 501:0.5597236 502:0.27717668 509:0.13281438 510:0.6667382 511:0.94069923 512:0.81918305 513:0.27686425 520:0.25376575 521:0.64308765 522:0.78504127 523:0.92558604 524:0.39593962 531:0.37171661 532:0.86217568 533:0.73960027 534:0.64727251 535:0.38633841 542:0.4005404 543:0.89373229 544:1 545:0.72981792 546:0.12472723 554:0.39769532 555:0.65088602 556:0.73228742 557:0.22783295 566:0.14083637 567:0.25288773 568:0.10983259 580:0.99004983 581:0.99004983 592:0.99004983 593:1 594:0.98019867 605:0.98019867 606:0.96078944 610:1 611:0.99004983 622:0.99004983 623:0.99004983 670:0.99004983 671:0.99004983 676:1 677:0.99004983 682:0.99004983 683:1 684:0.98019867 688:0.99004983 689:0.99004983 695:0.98019867 696:0.96078944 
0.02423899263619935 0.01371229122420027 0.01884658579943319 0.02785210267318028 22:0.73533512 23:0.73533512 24:0.36128822 27:0.34775643 28:0.34087039 34:0.99592431 35:0.99410972 36:0.89714504 39:0.34775643 40:0.34775643 45:0.11668308 46:0.43247111 47:0.73253657 48:0.52866698 51:0.34087039 52:0.34087039 56:0.028160326 57:0.15801149 58:0.2860592 59:0.24202186 68:0.027880823 69:0.056182304 70:0.10626854 71:0.049643769 81:0.013905213 82:0.021722161 83:0.0079320516 93:0.0079320516 94:0.0080922896 95:0.0079320516 110:0.096235391 111:0.096235391 122:0.30027756 123:0.30124474 124:0.2952797 134:0.20000186 135:0.29932 136:0.29339307 166:0.053868519 167:0.053868519 168:0.026466928 171:0.17606399 172:0.17257769 178:0.053333852 179:0.054138536 180:0.053066521 183:0.29383538 184:0.59790118 185:0.51790593 186:0.21028587 191:0.026599594 192:0.026072886 195:0.17257769 196:0.41892136 197:0.6203387 198:0.63924829 199:0.51535874 200:0.2774583 209:0.20534462 210:0.53253523 211:0.66874356 212:0.77452685 213:0.51698159 214:0.17751264 223:0.15491107 224:0.59136031 225:1 226:0.749622 227:0.19704746 237:0.54500793 238:0.7425034 239:0.19704746 266:0.10643447 267:0.10643447 268:0.10432693 278:0.10432693 279:0.10643447 280:0.10432693 315:0.23619256 316:0.2324316 317:0.045342018 327:0.4088546 328:0.9167439 329:0.83795668 330:0.32645977 339:0.17104327 340:0.67586516 341:0.99327113 342:0.98597376 343:0.62208008 344:0.25262971 345:0.0074708039 353:0.33125253 354:0.81091123 355:0.76126142 356:0.57514774 357:0.29287064 358:0.038450155 366:0.052938971 367:0.20428118 368:0.49400086 369:0.46215687 370:0.18244603 371:0.024025556 377:0.065888716 378:0.13932016 379:0.12636715 380:0.078436597 381:0.16888265 382:0.1765117 383:0.024025556 387:0.019159977 388:0.090241054 389:0.13561148 390:0.13110155 391:0.099108189 392:0.015376459 398:0.0068628451 399:0.17984834 400:0.24285362 401:0.13187438 402:0.067226457 403:0.02044193 410:0.33108632 411:0.91079092 412:0.94508542 413:0.29913612 422:0.31780342 423:0.73575781 424:0.87412547 425:0.23611487 454:0.069034432 455:0.069034432 459:0.30759864 460:0.30353468 461:0.10033495 466:0.26632475 467:0.26426015 468:0.15952977 471:0.30353468 472:0.30657501 473:0.10033495 477:0.33307155 478:0.6310376 479:0.47158537 480:0.15817639 483:0.10033495 484:0.10033495 488:0.34870945 489:0.79265727 490:0.76670045 491:0.42113025 499:0.34705263 500:0.80914378 501:0.80811493 502:0.56748995 503:0.11074407 510:0.338532 511:0.79462219 512:0.80318552 513:0.57779103 514:0.1132683 521:0.33300539 522:0.77884154 523:0.78254133 524:0.5609612 525:0.1132683 531:0.11130202 532:0.44434058 533:0.65943205 534:0.6636716 535:0.55129122 536:0.10914423 542:0.11562759 543:0.65170424 544:0.86012193 545:0.6650211 546:0.3266448 547:0.10736243 554:0.20723287 555:0.77967336 556:1 557:0.48082778 566:0.089791375 567:0.39555909 568:0.54224645 569:0.14778266 598:0.99501248 599:0.99501248 600:0.97530991 603:0.99501248 604:0.99501248 605:0.97530991 610:0.97530991 611:0.99501248 612:0.97530991 615:0.97530991 616:0.99501248 617:0.97530991 657:0.99501248 658:0.99501248 659:0.97530991 669:0.97530991 670:0.99501248 671:0.97530991 687:0.99004983 688:0.99004983 699:0.99004983 700:1 701:0.98019867 712:0.98019867 713:0.96078944 
0.01800941552143596 0.0128002544220322 0.01561367026102698 0.02551592386400602 15:0.037480193 16:0.036738036 21:0.49102104 22:0.49102104 23:0.17541173 26:0.24560786 27:0.52992702 28:0.52260757 33:0.99563464 34:0.9943965 35:0.79179208 38:0.24074449 39:0.52672877 40:0.52186541 44:0.11744928 45:0.6814612 46:0.91909914 47:0.74094814 55:0.066810043 56:0.22289434 57:0.31319248 58:0.33126146 59:0.12809788 66:0.010164929 67:0.13028336 68:0.18825621 69:0.21472973 70:0.037866174 77:0.0056707207 78:0.037478389 79:0.084686485 80:0.10693668 81:0.065162127 82:0.076194901 83:0.075859137 88:0.0024517524 89:0.018762053 90:0.037539508 91:0.052863717 92:0.029891696 94:0.31885353 95:0.31851776 96:0.21173788 99:0.022853687 100:0.025305439 101:0.012929446 102:0.024242887 103:0.016675715 106:0.23956602 107:0.31879744 108:0.29619309 110:0.17038395 111:0.42919217 112:0.2545908 113:0.049982337 114:0.0047945426 119:0.085616536 120:0.083921215 122:0.17038395 123:0.40505701 124:0.42685402 125:0.044691698 135:0.33653587 136:0.33319561 165:0.35311023 166:0.3504068 167:0.13315694 170:0.14224811 171:0.59720372 172:0.44849792 177:0.34771685 178:0.35256316 179:0.21308913 182:0.13943141 183:0.72062714 184:0.91816297 185:0.5335819 186:0.19088413 190:0.079932187 191:0.078349424 195:0.15943374 196:0.54529142 197:0.69171171 198:0.59907785 199:0.52398832 200:0.32301605 209:0.20001891 210:0.48838863 211:0.59848373 212:0.7115398 213:0.54208489 214:0.15116425 223:0.11184661 224:0.38528975 225:0.71240734 226:0.85259277 227:0.51902486 237:0.2793778 238:0.84487287 239:0.84836089 240:0.3199315 250:0.1719645 251:0.49487432 252:0.31651577 309:0.18953997 310:0.18859463 311:0.09266118 315:0.25619421 316:0.25322542 321:0.18578683 322:0.18859463 323:0.09266118 327:0.36213821 328:0.8297178 329:0.80674275 330:0.33583562 339:0.1046833 340:0.56924756 341:0.97085993 342:0.99492309 343:0.83305076 344:0.46052658 353:0.33415228 354:0.83753185 355:0.99500696 356:0.80485437 357:0.45033722 358:0.10341083 367:0.16200018 368:0.43207818 369:0.58444583 370:0.39020921 371:0.07619789 376:3.5394405e-05 377:3.5394405e-05 381:0.20734001 382:0.30095201 383:0.094498489 387:3.5394405e-05 388:0.0086165644 389:0.0085241986 390:0.0028201777 394:0.017938223 395:0.017938223 398:0.17322392 399:0.35901619 400:0.19368945 401:0.01720228 402:0.0056185799 410:0.17322392 411:0.35886502 412:0.36296306 413:0.019936804 414:0.0027436703 423:0.34214527 424:0.3445092 425:0.0056458089 447:0.090110659 448:0.088326349 453:0.0016604636 454:0.0016604636 458:0.023454082 459:0.20412708 460:0.20276155 465:0.22505569 466:0.22343022 467:0.060090657 470:0.02298966 471:0.20144166 472:0.20097724 476:0.26821855 477:0.57866373 478:0.40275023 479:0.14092458 487:0.18232231 488:0.54061471 489:0.61919836 490:0.42644157 491:0.079265209 498:0.09834956 499:0.57588532 500:0.56363997 501:0.54343 502:0.086474861 509:0.09978891 510:0.49950848 511:0.68883673 512:0.5817373 513:0.1851311 520:0.10159491 521:0.50586732 522:0.69763795 523:0.69273823 524:0.29063146 526:0.148189 527:0.148189 528:0.072808901 531:0.10159491 532:0.61080842 533:0.80562048 534:0.70123587 535:0.29446178 538:0.14671817 539:0.1489318 540:0.14598276 542:0.051932173 543:0.55043451 544:1 545:0.90818547 546:0.39778493 551:0.073173857 552:0.071724917 554:0.051932173 555:0.44494799 556:0.74984038 557:0.59749654 558:0.097815413 567:0.14986436 568:0.24778867 569:0.09698321 591:0.99501248 592:0.97530991 597:1 598:0.99004983 603:0.99501248 604:0.99501248 609:0.99004983 610:0.99004983 615:0.97530991 616:0.97530991 670:0.99004983 671:0.99004983 676:0.99501248 677:0.99501248 678:0.97530991 682:0.99004983 683:1 684:0.98019867 688:0.97530991 689:0.99501248 690:0.97530991 695:0.98019867 696:0.96078944 
0.01651373559961833 0.0117679130775088 0.01485424614548977 0.0231978927991732 14:0.58747718 15:0.6608592 16:0.28864198 21:0.30563398 22:0.30563398 26:0.58164623 27:0.66380395 28:0.65211281 33:0.80721135 34:0.80336174 35:0.60367655 39:0.36201777 40:0.35627362 44:0.1232928 45:0.65692485 46:0.88426567 47:0.59768481 55:0.058416246 56:0.20685269 57:0.28669627 58:0.19261964 66:0.015113141 67:0.079637036 68:0.13794485 69:0.15775365 70:0.039750149 77:0.021418694 78:0.038110557 79:0.032008601 80:0.051683213 81:0.025066989 88:0.12261508 89:0.15316215 90:0.04458873 91:0.021766468 92:0.0063980866 99:0.063671442 100:0.42468387 101:0.36683131 102:0.19460566 103:0.0094500358 111:0.77808452 112:1 113:0.44304307 114:0.1544924 123:0.70701155 124:0.85187026 125:0.17045068 135:0.33387885 136:0.33387885 158:0.1187301 159:0.26327097 160:0.14167877 165:0.21915133 166:0.21697616 170:0.1187301 171:0.68602146 172:0.69516343 173:0.14167877 177:0.21915133 178:0.22024983 179:0.10821416 183:0.41701194 184:0.81315168 185:0.65896889 186:0.36188712 189:0.10767444 190:0.21588859 191:0.10607137 196:0.26258638 197:0.63224003 198:0.83530927 199:0.4686953 200:0.11540255 209:0.11782169 210:0.59377199 211:0.82871179 212:0.60255168 213:0.12467307 222:0.11540255 223:0.46696975 224:0.71863982 225:0.65593224 226:0.39879456 236:0.24366086 237:0.66467389 238:0.96483364 239:0.42436437 249:0.13572269 250:0.70956793 251:1 252:0.43086604 255:0.033930761 256:0.033258887 262:0.14373861 263:0.71684353 264:0.71390759 267:0.033761531 268:0.033761531 275:0.13973871 276:0.28017785 279:0.01658787 280:0.01658787 302:0.083635948 303:0.82734203 304:0.81134159 305:0.35835335 309:0.27613631 310:0.27339554 314:0.081979845 315:0.92352105 316:0.91166991 317:0.40827579 321:0.27613631 322:0.27752045 323:0.13635262 327:0.11112864 328:0.26628914 329:0.45472979 330:0.29691699 333:0.13567256 334:0.27202517 335:0.13365265 340:0.12631892 341:0.47534813 342:0.7234185 343:0.4332018 344:0.10721949 353:0.098312797 354:0.51564261 355:0.74154643 356:0.50893062 357:0.096204445 366:0.10721949 367:0.43103582 368:0.61661828 369:0.43979539 370:0.17943703 380:0.19289112 381:0.41429709 382:0.32102558 383:0.097868993 393:0.07308766 394:0.18668162 395:0.16354314 396:0.05942847 399:0.59339746 400:0.58708325 401:0.26908374 406:0.014771922 407:0.086858639 408:0.089559979 411:0.5824985 412:0.59065225 413:0.26908374 419:0.020719363 420:0.038427283 423:0.042131138 424:0.042131138 446:0.14515895 447:0.30339291 448:0.26859795 449:0.043040273 453:0.026991222 454:0.026991222 458:0.14290647 459:0.29800718 460:0.2996904 461:0.043040273 465:0.34883983 466:0.34428793 467:0.11687159 471:0.031092447 472:0.030476776 476:0.36497147 477:0.80102919 478:0.5846729 479:0.11634245 487:0.38905267 488:0.87505751 489:0.85105696 490:0.47319926 498:0.39910824 499:0.9158468 500:0.89910105 501:0.61909318 502:0.11595515 509:0.39800369 510:0.92638054 511:0.92578512 512:0.6525817 513:0.12761068 520:0.38409984 521:0.90873376 522:0.92249884 523:0.65909779 524:0.12920741 531:0.12203858 532:0.8570111 533:0.87302811 534:0.75284051 535:0.12920741 543:0.49378614 544:0.83778364 545:0.84342051 546:0.23115545 555:0.36683835 556:0.61236652 557:0.36049766 567:0.12137257 568:0.12137257 591:0.99501248 592:0.99501248 593:0.97530991 597:0.99501248 598:0.97530991 603:0.97530991 604:0.99501248 605:0.97530991 609:0.99501248 610:0.99501248 621:0.97530991 622:0.97530991 664:0.99004983 665:0.99004983 676:0.99004983 677:1 678:0.98019867 683:0.99004983 684:0.99004983 689:0.98019867 690:0.96078944 695:0.99004983 696:1 708:0.98019867 
0.02186411122271422 0.01426279213208707 0.01856009345741975 0.02692405974156375 10:0.28983818 11:0.28983818 15:0.31876812 16:0.37208211 17:0.052783504 22:0.76805323 23:0.76805323 24:0.57247729 27:0.31876812 28:0.66705341 29:0.5493097 34:0.8233341 35:1 36:0.86631443 40:0.55330717 41:0.60412353 42:0.055935611 45:0.094617206 46:0.44024277 47:0.56574949 48:0.2958547 52:0.055656631 53:0.11159224 54:0.054828012 56:0.045276481 57:0.16207673 58:0.2542153 59:0.17654237 65:0.08049008 66:0.07889627 68:0.044827094 69:0.09905111 70:0.12927133 71:0.03050501 76:0.080088634 77:0.24147225 78:0.16057871 80:0.010474898 81:0.027607497 82:0.027060832 87:0.0582318 88:0.35822774 89:0.40045716 90:0.31717291 92:0.010370931 93:0.096242477 94:0.11730652 95:0.031475375 99:0.16686437 100:0.38258384 101:0.41341137 102:0.15661793 105:0.068107953 106:0.15481728 107:0.11507273 110:0.11991159 111:0.25894486 112:0.31381083 113:0.17124047 118:0.095059584 119:0.094433206 122:0.11872142 123:0.20087484 124:0.19848853 135:0.059210829 136:0.058038376 154:0.018445354 155:0.018445354 159:0.067494817 160:0.067494817 166:0.036983165 167:0.037168544 168:0.036432558 171:0.067494817 172:0.46045345 173:0.38802944 178:0.018170738 179:0.036799631 180:0.03607095 184:0.53523606 185:0.94971112 186:0.42850141 196:0.14188198 197:0.69781239 198:0.95977133 199:0.5086126 200:0.12836517 209:0.14188198 210:0.65055923 211:0.90902486 212:0.66977722 213:0.13828091 222:0.11950062 223:0.50717957 224:0.97203686 225:0.71860893 226:0.144445 236:0.43004706 237:0.99960502 238:0.72038131 239:0.13924349 249:0.43096193 250:0.98153066 251:0.54782789 254:0.032254154 255:0.032254154 262:0.40590596 263:0.40315896 266:0.032254154 267:0.032578313 268:0.031933219 279:0.031933219 280:0.031300899 292:0.18898555 293:0.18898555 304:0.56980329 305:0.56980329 306:0.37327704 316:0.39662452 317:0.56602352 318:0.36957211 328:0.046811981 329:0.25791463 330:0.20877447 340:0.022999877 341:0.32763023 342:0.6954973 343:0.47642783 344:0.12616051 345:0.039074799 353:0.092133445 354:0.54019144 355:0.82712722 356:0.53657355 357:0.14604227 358:0.019488069 365:0.076289067 366:0.25212453 367:0.69558821 368:0.86058323 369:0.35451111 370:0.059071111 376:0.090556118 377:0.41158247 378:0.491793 379:0.5001748 380:0.42750339 381:0.20672156 382:0.039968931 387:0.17968958 388:0.45095699 389:0.5129145 390:0.58454037 391:0.2353645 398:0.64537161 399:0.9208689 400:0.45945241 401:0.4500842 402:0.26629561 410:0.64348396 411:0.83312253 412:0.90988893 413:0.08787978 423:0.54456875 424:0.53378556 436:0.078565097 437:0.078565097 447:0.090351171 448:0.33913439 449:0.24866477 450:0.15517878 454:0.11673714 455:0.11673714 456:0.04606043 459:0.090351171 460:0.25719875 461:0.3365456 462:0.15363856 466:0.35412693 467:0.35079587 468:0.18382052 472:0.089452162 473:0.08768089 477:0.29573546 478:0.52927942 479:0.40251269 480:0.13639276 488:0.31017459 489:0.70306772 490:0.59139616 491:0.2880038 497:0.081885624 498:0.08026418 499:0.31452082 500:0.72616385 501:0.71749306 502:0.49728997 503:0.094414242 508:0.081477218 509:0.34148179 510:0.44763773 511:0.59647371 512:0.70981492 513:0.51726474 514:0.10140292 519:0.088580518 520:0.52407674 521:0.89784343 522:0.70788723 523:0.57719454 524:0.39320425 525:0.10140292 531:0.37210263 532:0.90947783 533:0.99224938 534:0.82197866 535:0.28178339 542:0.19081869 543:0.57085308 544:0.74631733 545:0.73100424 546:0.27751091 554:0.18888135 555:0.38500547 556:0.47419797 557:0.091148147 567:0.092054704 568:0.090231898 580:0.99004983 581:0.99004983 586:0.99004983 587:0.99004983 592:0.99004983 593:1 594:0.98019867 598:0.99004983 599:1 600:0.98019867 605:0.98019867 606:0.96078944 611:0.98019867 612:0.96078944 641:0.99501248 642:0.97530991 653:0.99501248 654:0.99501248 665:0.97530991 666:0.97530991 682:1 683:0.99004983 694:0.99004983 695:0.99004983 
0.01544755060820034 0.01084804848277988 0.01348518865545795 0.02077767359948161 15:0.046251007 16:0.046251007 21:0.50504665 22:0.50504665 23:0.24814184 27:0.58170896 28:0.5720266 29:0.091353221 33:0.6918287 34:0.68978337 35:0.58427752 39:0.52968425 40:0.57880998 41:0.090446502 44:0.082351531 45:0.27092871 46:0.4702095 47:0.33119752 51:0.23904726 52:0.23904726 55:0.049295643 56:0.1532832 57:0.17703876 58:0.1097334 66:0.016951762 67:0.070680159 68:0.10321718 69:0.11725001 70:0.029104325 77:0.03342105 78:0.055887577 79:0.038688318 80:0.042485966 81:0.021455593 88:0.08465134 89:0.13886953 90:0.087687925 91:0.02959057 92:0.0058008404 94:0.015364026 95:0.030728052 96:0.015059798 99:0.077062718 100:0.19313507 101:0.15883761 102:0.10048533 103:0.0058008404 106:0.015059798 107:0.030728052 108:0.030423824 111:0.35744867 112:0.38464514 113:0.24601405 114:0.030596799 119:0.015059798 120:0.015059798 122:0.53084835 123:1 124:0.71192951 125:0.15070057 134:0.52557946 135:0.8470156 136:0.83645141 171:0.28732865 172:0.3998807 173:0.11366079 183:0.28732865 184:0.63237573 185:0.57406574 186:0.22795762 195:0.16854525 196:0.51181513 197:0.57109424 198:0.58192434 199:0.60218089 200:0.2481865 209:0.11186947 210:0.34929546 211:0.73010081 212:0.79839951 213:0.56770452 214:0.14965129 223:0.23318769 224:0.62587443 225:0.98036354 226:0.82323757 227:0.35174074 237:0.4519657 238:0.84697664 239:0.71112777 240:0.35156166 250:0.17613535 251:0.70936471 252:0.5277815 263:0.17613535 264:0.17613535 266:0.04528165 267:0.04528165 268:0.022247988 278:0.044832211 279:0.045508625 280:0.044607494 315:0.52820246 316:0.67839654 317:0.15442224 327:0.52820246 328:0.99819452 329:0.79321277 330:0.31893048 339:0.36372257 340:0.83046955 341:0.78659956 342:0.7827302 343:0.76344642 344:0.29974646 353:0.15826927 354:0.472564 355:0.8792307 356:0.84991012 357:0.51222275 358:0.11950259 367:0.29824401 368:0.68800398 369:0.78877224 370:0.47527322 371:0.077129048 381:0.27552535 382:0.39778459 383:0.17146324 384:0.047425874 394:0.045040376 395:0.092944085 396:0.046955153 410:0.38504162 411:0.77201326 412:0.37930909 422:0.38504162 423:0.775883 424:0.76818204 447:0.12326778 448:0.12326778 453:0.12683684 454:0.12683684 455:0.023342241 459:0.39996647 460:0.39694057 461:0.2434738 465:0.50166865 466:0.49664198 467:0.24438342 471:0.2717802 472:0.39750108 473:0.24105722 476:0.40238995 477:0.77018585 478:0.60527553 479:0.21902149 483:0.027745896 484:0.027745896 487:0.42289184 488:0.95613469 489:0.80084072 490:0.39199204 498:0.43074198 499:0.99281667 500:0.97664418 501:0.67631292 502:0.1309689 509:0.4297367 510:0.99898968 511:1 512:0.70923219 513:0.1390356 520:0.40239864 521:0.96339444 522:0.98323828 523:0.70724656 524:0.1390356 531:0.13039646 532:0.66180882 533:0.81013327 534:0.68463465 535:0.13854903 543:0.4576172 544:0.60779872 545:0.6286745 546:0.13133534 554:0.092840639 555:0.6163674 556:0.63891507 557:0.2332781 566:0.091141312 567:0.39927523 568:0.39743547 591:0.99004983 592:0.99004983 597:0.99501248 598:0.99501248 599:0.97530991 603:0.99004983 604:1 605:0.98019867 609:0.97530991 610:0.99501248 611:0.97530991 616:0.98019867 617:0.96078944 671:0.99501248 672:0.97530991 683:0.99501248 684:0.99501248 695:0.97530991 696:0.97530991 699:1 700:0.99004983 711:0.99004983 712:0.99004983 
0.01466853891146855 0.01153925279083922 0.0168677906890786 0.0277558396199365 11:0.039356154 12:0.03857685 23:0.078909582 24:0.078516019 35:0.077736715 36:0.077736715 66:0.018631925 67:0.018262988 77:0.055802848 78:0.074065836 79:0.036894913 88:0.25005999 89:0.40846783 90:0.27834235 91:0.054880508 99:0.15802096 100:0.71653017 101:0.65594243 102:0.44377493 103:0.017991088 111:0.61680786 112:1 113:0.77419179 114:0.20105169 123:0.45646265 124:0.72162188 125:0.37754723 135:0.22333602 136:0.25889978 137:0.034859551 155:0.088374029 156:0.086624106 167:0.088374029 168:0.088374029 179:0.086624106 180:0.086624106 183:0.29279483 184:0.38515274 185:0.094353025 195:0.29279483 196:0.56857557 197:0.47878219 198:0.41636844 199:0.21320064 207:0.19311467 208:0.47807266 209:0.46433324 210:0.52245258 211:0.71456302 212:0.53116036 213:0.13747861 222:0.21213199 223:0.55028091 224:0.88339932 225:0.89115993 226:0.45897656 236:0.41520267 237:0.87216048 238:0.73236599 239:0.2725646 249:0.15197267 250:0.42453727 251:0.26954025 255:0.044719649 256:0.043834141 267:0.044719649 268:0.044719649 279:0.043834141 280:0.043834141 298:0.18880608 299:0.37855856 300:0.18599513 310:0.21845993 311:0.41413807 312:0.39244574 321:0.040341207 322:0.079482989 323:0.43179066 324:0.39474064 327:0.51610527 328:0.68920392 329:0.17433595 332:0.021902669 333:0.075347152 334:0.086637649 335:0.055782059 336:0.0095605321 339:0.51538019 340:0.99736999 341:0.91187747 342:0.54305481 343:0.25773876 344:0.032894861 345:0.05677392 346:0.053076708 347:0.013006186 351:0.23558401 352:0.76426499 353:0.83206834 354:0.66623803 355:0.70598262 356:0.48758171 357:0.11326905 366:0.26434963 367:0.63476782 368:0.72509078 369:0.49772897 370:0.22919005 378:0.0014093168 379:0.0014093168 380:0.25455986 381:0.45651051 382:0.41694807 383:0.21251381 393:0.057851884 394:0.2703657 395:0.21042031 399:0.21031742 400:0.20615285 411:0.21031742 412:0.21031742 423:0.20615285 424:0.20615285 442:0.039637278 443:0.15062615 444:0.10879114 454:0.41128116 455:0.64572064 456:0.39766267 465:0.36656019 466:0.85742598 467:0.88948659 468:0.51634513 471:0.33265098 472:0.44207673 473:0.21938337 476:0.24835733 477:0.73245994 478:0.85465707 479:0.60666025 480:0.11924828 483:0.33045168 484:0.44427603 485:0.32879809 486:0.12679709 487:0.50973383 488:0.62377585 489:0.61391847 490:0.48239366 491:0.11764549 495:0.10886901 496:0.21828373 497:0.10724816 498:0.38166241 499:0.7570165 500:0.75382694 501:0.24662909 509:0.35940164 510:0.60936747 511:0.62293398 512:0.37286832 520:0.33746198 521:0.81293062 522:0.72253641 523:0.3607467 531:0.2021964 532:0.82195624 533:0.87405499 534:0.66176981 535:0.1158727 543:0.63082005 544:1 545:0.89858968 546:0.18678074 555:0.4266924 556:0.70485814 557:0.49297073 567:0.1101784 568:0.22090907 569:0.10853806 586:0.99004983 587:0.99004983 598:0.99004983 599:1 600:0.98019867 611:0.98019867 612:0.96078944 616:1 617:0.99004983 628:0.99004983 629:0.99004983 665:1 666:0.99004983 670:1 671:0.99004983 677:0.99004983 678:0.99004983 682:0.99004983 683:0.99004983 
0.01601273414256961 0.01031897440208015 0.01302330621063663 0.01962526419282717 34:0.23500472 35:0.23342291 36:0.15204933 45:0.00089945929 46:0.23373655 47:0.23678134 48:0.15204933 57:0.0008816488 58:0.080096416 59:0.080078606 80:0.13530603 81:0.20863763 82:0.072480103 87:0.15768188 88:0.15985609 89:0.0021742142 92:0.13408369 93:0.52588391 94:0.38923104 95:0.084006936 99:0.63230827 100:0.63791081 101:0.3180026 102:0.0042944247 105:0.31505388 106:0.46295411 107:0.22916698 110:0.17707779 111:0.99915666 112:0.81874281 113:0.48625984 114:0.0042518007 118:0.14516004 119:0.14228568 122:0.22416923 123:0.71693046 124:0.88406958 125:0.16825745 134:0.046158972 135:0.39684872 136:0.39244476 171:0.27603334 172:0.51565085 173:0.23595303 178:0.088199245 179:0.088198328 180:0.086362505 183:0.27312804 184:0.63350832 185:0.7486485 186:0.34159989 190:0.086452783 191:0.088198328 192:0.086362505 196:0.25540995 197:0.65999061 198:0.71428977 199:0.5051185 200:0.12995449 209:0.11361861 210:0.37013859 211:0.92998147 212:0.70550576 213:0.14562038 223:0.42404743 224:1 225:0.72903972 226:0.1379 236:0.43979185 237:0.9632312 238:0.63821439 239:0.11513668 249:0.3804274 250:0.6131971 251:0.23085049 262:0.11571381 263:0.11342252 315:0.30237921 316:0.81518062 317:0.50601507 321:0.34998716 322:0.87896053 323:0.7008912 324:0.26029961 327:0.29720052 328:0.87193227 329:0.93993364 330:0.297432 333:0.37437419 334:0.89256312 335:0.71623976 336:0.26029961 340:0.20798802 341:0.57392496 342:0.49813556 343:0.23755686 344:0.1241278 345:0.096488158 346:0.052962308 347:0.015348554 353:0.066665322 354:0.20133765 355:0.34013824 356:0.28602429 357:0.1390369 358:0.036993632 365:0.0057483296 366:0.046033416 367:0.17348314 368:0.26708082 369:0.10526439 376:0.0057483296 377:0.028857047 378:0.051262584 379:0.062684846 380:0.05997902 381:0.026149074 388:0.0057483296 389:0.022879354 390:0.03434763 391:0.016903937 398:0.076095578 399:0.076095578 401:0.011353881 402:0.011241189 410:0.15257259 411:0.15333736 412:0.15030108 422:0.074962662 423:0.15181542 424:0.14880928 465:0.080711701 466:0.32896093 467:0.24593157 468:0.089735016 477:0.30658088 478:0.66767811 479:0.51929581 480:0.089735016 487:0.10704838 488:0.43317914 489:0.54700915 490:0.56689263 491:0.34591832 498:0.11169694 499:0.55607849 500:0.761728 501:0.64930721 502:0.21647016 509:0.11421258 510:0.56831186 511:0.78241845 512:0.76826799 513:0.31937325 519:0.065847494 520:0.18189656 521:0.57519224 522:0.7924812 523:0.78746234 524:0.32846378 531:0.31425167 532:0.77946724 533:0.80226891 534:0.79858674 535:0.33586145 542:0.10162454 543:0.68835608 544:0.92678032 545:0.93116577 546:0.3394528 554:0.20375847 555:0.53890898 556:0.83331526 557:0.33772634 566:0.10011154 567:0.31353301 568:0.30951835 604:0.99004983 605:0.99004983 609:1 610:0.99004983 616:0.99004983 617:1 618:0.98019867 621:0.99004983 622:0.99004983 629:0.98019867 630:0.96078944 663:0.99004983 664:0.99004983 669:0.99004983 670:0.99004983 675:0.99004983 676:1 677:0.98019867 681:0.99004983 682:1 683:0.98019867 688:0.98019867 689:0.96078944 694:0.98019867 695:0.96078944 
0.01829538032057295 0.01214592901078893 0.01466969036755835 0.02408855181475812 22:0.03158153 23:0.33771716 24:0.30007374 27:0.1051854 28:0.1051854 29:0.051680171 34:0.063321363 35:0.3697744 36:0.36851426 39:0.10414139 40:0.10571264 41:0.10361939 46:0.031111342 47:0.36308086 48:0.36183324 52:0.051939219 53:0.050910754 77:0.0056423574 78:0.0055863546 88:0.092155809 89:0.10019579 90:0.011256994 91:0.0027861247 99:0.066865108 100:0.36090257 101:0.29371082 102:0.14321411 103:0.0027309558 110:0.31883139 111:0.62474059 112:0.50177614 113:0.42155253 114:0.13075856 122:0.63926093 123:0.87526875 124:1 125:0.19662818 134:0.31408461 135:0.7200985 136:0.7075031 166:0.18550703 167:0.55745093 168:0.36641555 171:0.31338254 172:0.46307194 173:0.15397255 178:0.18183374 179:0.55559586 180:0.55192257 183:0.31027209 184:0.60723642 185:0.75222161 186:0.43598139 191:0.18183374 192:0.18183374 196:0.30146968 197:0.73949581 198:0.86555574 199:0.57608054 200:0.14362267 209:0.1443587 210:0.43397238 211:0.86695728 212:0.86683294 213:0.41134561 223:0.43086785 224:0.85556116 225:0.89824037 226:0.50219041 227:0.11519139 236:0.13250027 237:0.5196936 238:0.70141409 239:0.31471323 250:0.19786341 251:0.19557104 304:0.19627538 305:0.19627538 310:0.002701665 311:0.0081185372 312:0.0053363589 315:0.26763218 316:0.75190805 317:0.58787657 318:0.19432241 321:0.032230369 322:0.097987432 323:0.070173889 324:0.023054754 327:0.26372619 328:0.63755361 329:0.90806434 330:0.35338543 332:0.038418563 333:0.18045667 334:0.20300583 335:0.12926405 336:0.017664899 340:0.15764804 341:0.39626771 342:0.47222435 343:0.35808606 344:0.25763041 345:0.25349161 346:0.24896469 347:0.094778861 353:0.073819935 354:0.27653952 355:0.54136739 356:0.67970036 357:0.41094456 358:0.11297629 365:0.021898371 366:0.065587529 367:0.29278524 368:0.59111404 369:0.87633858 370:0.77554334 371:0.31257013 377:0.021681021 378:0.043689158 379:0.054066506 380:0.11094515 381:0.56499374 382:0.99904653 383:0.64113152 390:0.010813139 391:0.010599024 394:0.50560336 395:0.50178104 399:0.076664637 400:0.075146575 410:0.076664637 411:0.15332927 412:0.15181121 422:0.075146575 423:0.15181121 424:0.15029315 448:0.058624315 449:0.058624315 454:0.11924883 455:0.23909539 456:0.11747344 459:0.077094249 460:0.19493206 461:0.19340549 462:0.058040993 465:0.11989235 466:0.62038518 467:0.61530244 468:0.36226602 471:0.07556768 472:0.13571856 473:0.19223299 474:0.056891705 476:0.11758117 477:0.59723466 478:0.85112272 479:0.85231781 480:0.35755511 487:0.2416953 488:0.71795488 489:0.82882596 490:0.83385461 491:0.35881356 498:0.38483392 499:0.75312057 500:0.73840012 501:0.71145375 502:0.34576734 509:0.390747 510:0.89956928 511:0.88651844 512:0.73722439 513:0.23573371 520:0.38582714 521:0.90369739 522:0.90551199 523:0.63582231 524:0.12407218 531:0.12295541 532:0.84158675 533:0.87535755 534:0.7510186 535:0.12693416 542:0.097687268 543:0.57771907 544:0.80625194 545:0.82700663 546:0.23045102 554:0.20164547 555:0.55408513 556:0.77983324 557:0.3433183 566:0.10189969 567:0.32115339 568:0.31717978 592:0.99004983 593:0.99004983 598:0.99501248 599:0.99501248 600:0.97530991 604:0.99004983 605:1 606:0.98019867 610:0.97530991 611:0.99501248 612:0.97530991 617:0.98019867 618:0.96078944 658:0.99501248 659:0.97530991 664:0.99004983 665:0.99004983 670:0.99501248 671:0.99501248 676:0.99004983 677:1 678:0.98019867 682:0.97530991 683:0.97530991 689:0.98019867 690:0.96078944 
0.02705749229094027 0.009217700938237476 0.01597901990567606 0.01806543309993031 23:0.0061662455 24:0.0060441456 28:0.16965383 29:0.16629446 35:0.0061662455 36:0.0061662455 40:0.21710943 41:0.21663723 47:0.0060441456 48:0.0060441456 52:0.21327786 53:0.21327786 80:0.031068589 81:0.26535887 82:0.22965102 88:0.023718465 89:0.023483049 92:0.030453389 93:0.68690401 94:0.64345203 99:0.05595465 100:0.091184217 101:0.047320404 102:0.011711878 105:0.61971499 106:0.61971499 110:0.15227468 111:0.69902321 112:0.54830001 113:0.068607512 114:0.011479967 117:0.20668552 118:0.20668552 122:0.46636423 123:0.9781255 124:0.99061968 125:0.02132826 134:0.30787016 135:0.70490058 136:0.69569595 167:0.11518243 168:0.11290166 172:0.15294477 173:0.14991626 179:0.11518243 180:0.11518243 184:0.60688336 185:0.74148075 186:0.15345712 191:0.11290166 192:0.11290166 196:0.44772297 197:0.87455897 198:0.81709606 199:0.36700857 209:0.40672153 210:0.78208255 211:0.74753586 212:0.53528761 213:0.15172938 222:0.12152096 223:0.37792153 224:0.69134818 225:0.73129485 226:0.31808031 236:0.27966407 237:0.83392771 238:0.55360819 249:0.23233915 250:0.23233915 266:0.057317179 267:0.057317179 268:0.056182223 278:0.056182223 279:0.057317179 280:0.056182223 311:0.10259569 312:0.10056416 316:0.46924686 317:0.780282 318:0.46614447 319:0.1535737 321:0.046291272 322:0.22871837 323:0.34081828 324:0.21972774 328:0.61929869 329:1 330:0.67920316 331:0.1535737 332:0.030900874 333:0.17047196 334:0.31866214 335:0.43144347 336:0.21769621 340:0.18688921 341:0.61405946 342:0.59711137 343:0.32117059 344:0.12154111 345:0.15292703 346:0.22874416 347:0.15003075 353:0.21021752 354:0.47233155 355:0.60652922 356:0.42209427 357:0.19345816 358:0.029987616 365:0.0056581572 366:0.094215412 367:0.31354658 368:0.47688336 369:0.29263612 370:0.035705555 376:0.00059162822 377:0.0064946094 378:0.011579176 379:0.024740865 380:0.16729113 381:0.18832473 382:0.035705555 388:0.00058575607 389:0.0011803498 390:0.0038160682 391:0.0025950682 401:0.00029213854 402:0.00028635381 410:0.15778702 411:0.15778702 412:0.15466263 422:0.15466263 423:0.15778702 424:0.15466263 455:0.14189201 456:0.13908236 460:0.24536601 461:0.37895525 462:0.20147134 463:0.066375774 465:0.12103588 466:0.47401749 467:0.60682966 468:0.37114592 472:0.24402513 473:0.37492589 474:0.26817983 475:0.066375774 476:0.12857034 477:0.5011113 478:0.71837029 479:0.84546907 480:0.36833627 484:0.10808694 485:0.17479542 486:0.065387568 487:0.41147302 488:0.66718543 489:0.52166883 490:0.61656942 491:0.35592652 498:0.42287765 499:0.96687134 500:0.81278374 501:0.5258677 502:0.12477051 509:0.43092938 510:0.99204975 511:0.97833314 512:0.68234496 513:0.13266074 520:0.42737418 521:0.99770304 522:1 523:0.7060243 524:0.13818069 525:0.11634778 526:0.11404394 531:0.41376776 532:0.97585159 533:0.98942252 534:0.71063669 535:0.13931094 537:0.11576749 538:0.11576749 542:0.11300198 543:0.70413615 544:0.82549263 545:0.69201495 546:0.13931094 549:0.056879414 550:0.056879414 554:0.24182408 555:0.5544241 556:0.68708303 557:0.13474777 566:0.12627126 567:0.28390904 568:0.27914286 599:0.99501248 600:0.97530991 605:0.99501248 606:0.99501248 607:0.97530991 611:0.99501248 612:0.99501248 617:0.97530991 618:0.99501248 619:0.97530991 623:0.97530991 624:0.97530991 669:0.99501248 670:0.97530991 681:0.99501248 682:0.99501248 687:1 688:0.99004983 693:0.97530991 694:0.97530991 699:0.99004983 700:0.99004983 
0.02057208073427216 0.01435179601107796 0.01593006223741375 0.02781911284743887 27:0.30229047 28:0.29643825 29:0.0033133004 33:0.059735058 34:0.12007046 35:0.059735058 39:0.29637131 40:0.29938353 41:0.0066432088 45:0.059735058 46:0.12007046 47:0.11887574 52:0.0033299084 53:0.0032639718 55:0.004995544 56:0.0075121118 57:0.0049459611 58:0.059140684 59:0.05796962 66:0.010758877 67:0.026571843 68:0.018270989 69:0.0074126976 77:0.025963913 78:0.058402601 79:0.042661223 80:0.023877437 81:0.0024178918 83:0.048070864 84:0.047751987 88:0.04238899 89:0.14676587 90:0.12480553 91:0.083506435 92:0.010440904 95:0.047434701 96:0.048070864 99:0.077903032 100:0.56320485 101:0.55918579 102:0.28736632 103:0.061372622 108:0.015784929 111:0.37493067 112:0.94581948 113:0.79816012 114:0.32925554 123:0.53355124 124:0.87450807 125:0.62493547 126:0.12899333 135:0.37374748 136:0.45087537 137:0.075600649 171:0.56780826 172:0.70082118 173:0.18552009 177:0.0021984179 178:0.0044078554 179:0.0043423396 183:0.56029397 184:0.95046059 185:0.88347834 186:0.439093 187:0.10023722 189:0.0021548863 190:0.0043858712 191:0.0043423396 196:0.45661833 197:0.81117193 198:0.65320735 199:0.56571181 200:0.46761997 201:0.18625524 209:0.11724553 210:0.41051584 211:0.47632503 212:0.55572073 213:0.55748393 214:0.44752169 215:0.24745815 224:0.18532166 225:0.45947161 226:0.56889116 227:0.91903699 228:0.60950452 238:0.12280112 239:0.66186848 240:0.79007095 252:0.17938639 267:0.057124275 268:0.056555879 279:0.056555879 280:0.056555879 315:0.28088747 316:0.65727834 317:0.65505161 318:0.32589228 321:0.16860894 322:0.33252034 323:0.32214488 327:0.27625059 328:0.76995791 329:0.93293468 330:0.45668218 331:0.083261338 332:0.004447528 333:0.17431922 334:0.33539235 335:0.32760505 340:0.15373125 341:0.35277717 342:0.46647349 343:0.50539282 344:0.42702185 345:0.17791514 346:0.014310971 347:0.0053520495 353:0.075220105 354:0.31859826 355:0.41542013 356:0.5049881 357:0.51277736 358:0.34406423 359:0.12765708 368:0.16432759 369:0.41835544 370:0.41057731 371:0.32721468 372:0.16836482 382:0.071066942 383:0.24055794 384:0.16725541 399:0.011110781 400:0.011110781 411:0.10347516 412:0.10277889 413:0.02194559 423:0.090535443 424:0.10255668 425:0.021727771 459:0.15631584 460:0.15553622 461:0.076418766 465:0.12949882 466:0.23999901 467:0.10940069 471:0.15322058 472:0.15553622 473:0.076418766 476:0.13167508 477:0.39197422 478:0.36969982 479:0.23761098 487:0.26489446 488:0.53001345 489:0.52476254 490:0.38807401 491:0.12567156 498:0.12883546 499:0.52454464 500:0.53045448 501:0.52343171 502:0.1277835 509:0.12883546 510:0.51728244 511:0.51410787 512:0.39047117 513:0.12821149 520:0.12280178 521:0.62250786 522:0.75184094 523:0.63439725 524:0.12502779 531:0.11628397 532:0.67063076 533:0.91567767 534:0.86023992 535:0.37291864 543:0.44578733 544:0.98223494 545:1 546:0.43425777 555:0.57753166 556:0.91971088 557:0.76320522 558:0.077983722 567:0.24511041 568:0.4723462 569:0.24267759 605:1 606:0.99004983 609:0.99501248 610:0.99501248 611:0.97530991 617:0.99004983 618:0.99004983 621:0.97530991 622:0.99501248 623:0.97530991 659:0.99004983 660:0.99004983 671:0.99004983 672:1 676:0.99501248 677:0.99501248 678:0.97530991 684:0.98019867 688:0.97530991 689:0.99501248 690:0.97530991 
0.01830423741543043 0.01387887906670412 0.0175082963818956 0.02626797490449839 21:0.019591658 22:0.061768141 23:0.041341333 33:0.055619252 34:0.097472227 35:0.080873178 44:0.05127725 45:0.086545005 46:0.11277987 47:0.079653947 55:0.055956629 56:0.12531734 57:0.10435826 58:0.048122941 66:0.049788471 67:0.13045671 68:0.14234117 69:0.089716329 70:0.015775802 77:0.029604975 78:0.13855515 79:0.13235383 80:0.11059765 81:0.018040667 88:0.035920878 89:0.16128267 90:0.1831186 91:0.14241788 92:0.024098103 100:0.15169661 101:0.24540578 102:0.22488344 103:0.087058444 111:0.50418658 112:0.65539929 113:0.27350954 114:0.14119489 123:0.96016036 124:0.98769766 125:0.29412424 126:0.034859256 135:0.58612774 136:0.71667998 137:0.12796713 166:0.20434593 167:0.20029961 178:0.20434593 179:0.20434593 183:0.69706309 184:0.90674457 185:0.33029454 186:0.11141093 190:0.20029961 191:0.20029961 195:0.69011367 196:0.89989135 197:0.57046269 198:0.60872808 199:0.64030592 200:0.2671137 207:0.20717838 208:0.44411831 209:0.4576787 210:0.4899192 211:0.63541883 212:0.65360546 213:0.72518017 214:0.60414793 215:0.15709284 223:0.25503269 224:0.52394459 225:0.71696146 226:0.99760733 227:0.78516798 228:0.23044219 237:0.14767141 238:0.62211151 239:0.94150873 240:0.46553963 251:0.23044219 252:0.23044219 309:0.072774657 310:0.1459141 311:0.071691184 321:0.072774657 322:0.1466455 323:0.14518998 327:0.5842978 328:0.9977165 329:0.53263157 330:0.1161167 334:0.14374172 335:0.14231503 339:0.5788592 340:0.99233537 341:0.87098297 342:0.56428632 343:0.53806701 344:0.20837072 351:0.09900165 352:0.51109483 353:0.73068139 354:0.54640398 355:0.55572539 356:0.52819439 357:0.48330471 358:0.36253855 359:0.079453897 367:0.21599056 368:0.41413617 369:0.49266397 370:0.54333326 371:0.33022402 372:0.079453897 381:0.096333209 382:0.34389318 383:0.34788926 384:0.10045586 395:0.0205861 396:0.0205861 453:0.141452 454:0.28361302 455:0.13934605 465:0.43194655 466:0.57123149 467:0.42457674 471:0.048324204 472:0.04784337 476:0.43382334 477:0.71857361 478:0.71186553 479:0.4189887 483:0.04784337 484:0.04784337 487:0.42819112 488:1 489:0.86003513 490:0.42704366 498:0.2751891 499:0.84423396 500:0.99131838 501:0.70790412 502:0.13986658 509:0.13342384 510:0.67860416 511:0.69621116 512:0.69432372 513:0.13805073 520:0.12836008 521:0.66473396 522:0.80102767 523:0.67076176 524:0.1331942 532:0.51472713 533:0.909799 534:0.9186747 535:0.39235541 543:0.24512263 544:0.75241883 545:0.88886707 546:0.50953581 555:0.45365677 556:0.70497015 557:0.7203964 558:0.12456647 567:0.20678966 568:0.33095334 569:0.22177808 597:0.99004983 598:0.99004983 609:0.99004983 610:1 611:0.98019867 616:0.99004983 617:0.99004983 622:0.98019867 623:0.96078944 628:0.99004983 629:1 630:0.98019867 641:0.98019867 642:0.96078944 659:0.99501248 660:0.97530991 671:0.99501248 672:0.99501248 683:0.97530991 684:0.97530991 687:1 688:0.99004983 699:0.99004983 700:0.99004983 
0.02062349450177273 0.01534293086732563 0.01705063683856486 0.0260760627536342 15:0.27688292 16:0.27140027 27:0.4634578 28:0.45624812 29:0.085064536 33:0.26079212 34:0.25759989 35:0.09760758 39:0.3577504 40:0.45723369 41:0.097513393 44:0.14472424 45:0.40062446 46:0.30898167 47:0.09760758 52:0.012448856 53:0.012202353 55:0.13398858 56:0.32448806 57:0.29872869 58:0.15579428 66:0.045688893 67:0.27080506 68:0.27371842 69:0.22950544 70:0.045760833 77:0.043218566 78:0.22689135 79:0.27300195 80:0.26715825 81:0.041914157 88:0.29341561 89:0.41769455 90:0.26538975 91:0.31313133 92:0.13435593 99:0.29195219 100:0.83495105 101:0.69466395 102:0.24419274 103:0.12952506 111:0.72935119 112:1 113:0.93025839 114:0.14677505 123:0.52109859 124:0.73017345 125:0.40722856 126:0.033988186 135:0.21610564 136:0.24262286 137:0.02599214 159:0.18761419 160:0.22092002 161:0.035033578 171:0.57598648 172:0.73940249 173:0.25633672 174:0.01747256 176:0.00021754721 177:0.027154253 178:0.027015598 179:0.013168658 183:0.38347545 184:0.8545785 185:0.7896223 186:0.22825958 188:0.00021323949 189:0.026616563 190:0.027015598 191:0.013168658 196:0.40079224 197:0.64578826 198:0.65170984 199:0.4099338 200:0.09463657 209:0.11327383 210:0.54417318 211:0.72555664 212:0.56426701 213:0.35607449 214:0.080162583 222:0.1037657 223:0.39875491 224:0.574323 225:0.53576377 226:0.46957178 227:0.3629143 228:0.13752547 236:0.090821558 237:0.34363503 238:0.4861482 239:0.39115981 240:0.2415885 250:0.071812369 251:0.21223173 252:0.23739512 303:0.41807038 304:0.87216399 305:0.45330591 315:0.44584766 316:0.92785777 317:0.68622592 318:0.22608067 320:0.26035033 321:0.75907928 322:0.75132048 323:0.23237923 327:0.1859609 328:0.72074489 329:0.81304916 330:0.27768776 332:0.25519505 333:0.7440485 334:0.75132048 335:0.23237923 340:0.083584672 341:0.28848594 342:0.44353447 343:0.3269737 344:0.088905912 353:0.072828583 354:0.35180631 355:0.56491001 356:0.58754027 357:0.42456039 358:0.11439608 366:0.072828583 367:0.3413356 368:0.55892002 369:0.65891668 370:0.75478308 371:0.75149179 372:0.3474374 380:0.095624537 381:0.44111507 382:0.7249437 383:0.95714746 384:0.70153185 394:0.12910166 395:0.4103068 396:0.69176372 399:0.0018517426 400:0.0018333633 411:0.20727856 412:0.20524381 413:0.00091436709 423:0.20429259 424:0.20520696 425:0.00089626141 447:0.073185643 448:0.07173647 459:0.073185643 460:0.073185643 465:0.27032476 466:0.26652446 467:0.076851174 471:0.07173647 472:0.07173647 476:0.29646404 477:0.56141423 478:0.36641495 479:0.076851174 487:0.3011695 488:0.6931644 489:0.59046001 490:0.2904861 498:0.09907021 499:0.5988764 500:0.59774863 501:0.49065604 502:0.095581332 509:0.10004446 510:0.49929329 511:0.59689102 512:0.59292773 513:0.097098393 520:0.12022398 521:0.422228 522:0.59855498 523:0.69246664 524:0.29133274 531:0.11962436 532:0.61304812 533:0.79441728 534:0.60695964 535:0.29419769 543:0.52487665 544:1 545:0.96793082 546:0.40900336 555:0.52086853 556:0.79416839 557:0.59206592 558:0.10022425 567:0.23160752 568:0.34711888 569:0.11322408 592:0.99004983 593:0.99004983 604:0.99004983 605:1 606:0.98019867 608:0.99501248 609:0.99501248 610:0.97530991 617:0.98019867 618:0.96078944 620:0.97530991 621:0.99501248 622:0.97530991 664:1 665:0.99004983 671:0.99501248 672:0.99501248 676:0.99004983 677:0.99004983 683:0.97530991 684:0.99501248 
0.02384318991310329 0.01486612255614091 0.01903033667004705 0.02840032362621243 15:0.42276989 16:0.42276989 27:0.42276989 28:0.4270188 29:0.41856326 34:0.036232352 35:0.7373755 36:0.68725959 40:0.41856326 41:0.41027515 46:0.21558726 47:0.91708553 48:0.91280241 58:0.17650668 59:0.83163902 60:0.82807335 69:0.18576063 70:0.18576063 81:0.37245239 82:1 83:0.9882107 88:0.037039372 89:0.14890106 90:0.11038378 91:0.036487928 93:0.18299501 94:0.99190745 95:0.984569 99:0.020355631 100:0.16905465 101:0.25780694 102:0.18464819 103:0.036487928 110:0.53605541 111:0.79854495 112:0.57060231 113:0.19469954 114:0.10892055 122:0.53128475 123:0.78874736 124:0.8246133 125:0.046340251 135:0.29219256 136:0.28640676 159:0.15092989 160:0.15092989 171:0.30261631 172:0.69624327 173:0.5699324 174:0.11849776 178:0.15802559 179:0.47486888 180:0.31213391 183:0.14868283 184:0.53689733 185:0.80291319 186:0.58175173 187:0.45535733 188:0.11221743 190:0.15489647 191:0.47328862 192:0.4701595 197:0.23126774 198:0.57377691 199:0.68949471 200:0.60051855 201:0.25179352 203:0.15489647 204:0.15489647 210:0.11286714 211:0.45243085 212:0.61720219 213:0.87096357 214:0.47920658 224:0.13089246 225:0.74088779 226:1 227:0.41147053 237:0.15867108 238:0.57266793 239:0.40831288 254:0.1048187 255:0.1048187 266:0.1048187 267:0.10587214 268:0.10377573 279:0.10377573 280:0.10172084 303:0.14135048 304:0.56681897 305:0.56542661 306:0.28059653 315:0.16104776 316:0.78911027 317:0.85922064 318:0.48334186 327:0.019307249 328:0.36654717 329:0.71449397 330:0.49095756 331:0.28842334 332:0.071850717 333:0.054043165 334:0.14759441 335:0.092475754 336:0.038460239 341:0.14418125 342:0.36044667 343:0.43615221 344:0.34393747 345:0.2906566 346:0.25698519 347:0.20029524 348:0.038460239 354:0.07091454 355:0.33256207 356:0.50293851 357:0.47126031 358:0.37053601 359:0.15892308 365:0.037005038 366:0.21138726 367:0.29753568 368:0.34914445 369:0.34549003 370:0.16187918 371:0.0049396937 376:0.069476518 377:0.16185397 378:0.20238579 379:0.29892255 380:0.15891937 381:0.0049150569 382:0.0098547506 383:0.0048418812 387:0.032307002 388:0.13370285 389:0.15502336 390:0.18301471 391:0.099572132 398:0.23108365 399:0.40942024 400:0.20799006 401:0.12327429 402:0.026801599 410:0.23108365 411:0.37575962 412:0.41041168 413:0.053533647 423:0.29136657 424:0.28683633 447:0.1030811 448:0.23025993 449:0.16901439 450:0.08387446 459:0.1030811 460:0.2294191 461:0.27191065 462:0.1257058 467:0.081994482 468:0.080370883 472:0.14367813 473:0.18348864 474:0.041003025 477:0.080787893 478:0.25648299 479:0.25595008 480:0.16810253 488:0.15988169 489:0.40187536 490:0.41592037 491:0.41563514 492:0.16647893 498:0.088308267 499:0.24308088 500:0.39366436 501:0.39706594 502:0.40702038 503:0.24409342 509:0.092451639 510:0.44745751 511:0.50472256 512:0.48749053 513:0.31309631 514:0.077384291 520:0.29173221 521:0.68385618 522:0.65327205 523:0.61901391 524:0.24854585 531:0.30613028 532:0.89559772 533:0.88322596 534:0.76749848 535:0.27510135 542:0.15076519 543:0.73338627 544:0.87752423 545:0.88933831 546:0.29370082 554:0.14929665 555:0.4336526 556:0.72843842 557:0.29383807 567:0.15130017 568:0.14979845 593:1 594:0.99004983 605:0.99004983 606:0.99004983 610:0.99501248 611:0.99501248 612:0.97530991 622:0.97530991 623:0.99501248 624:0.97530991 658:1 659:0.99004983 665:0.99501248 666:0.99501248 667:0.97530991 670:0.99004983 671:0.99004983 677:0.97530991 678:0.99501248 679:0.97530991 
0.02109949776908122 0.01443871927295681 0.01816043910606367 0.03157793484727938 26:0.32690972 27:0.32690972 34:0.064552771 35:0.063912058 38:0.32690972 39:0.33019522 40:0.32365691 45:0.0021933576 46:0.099265396 47:0.098149689 48:0.031875342 51:0.32365691 52:0.31724808 57:0.0021715877 58:0.06611641 59:0.097948104 60:0.031244168 70:0.10655629 71:0.10444633 82:0.99904769 83:0.99101742 84:0.29160387 94:0.8806803 95:0.99693774 96:0.5846694 100:0.06689524 101:0.06598439 102:0.020482009 107:0.29306554 108:0.28726245 111:0.6027666 112:0.68648467 113:0.24623324 114:0.035629756 123:0.8692659 124:0.91137839 125:0.39212851 126:0.022702497 135:0.53028809 136:0.71050648 137:0.18450453 138:0.007405156 170:0.061815175 171:0.1239402 172:0.060894867 182:0.061815175 183:0.18606522 184:0.24319136 185:0.27372634 186:0.41624488 187:0.45817587 188:0.20002045 195:0.12209497 196:0.24074936 197:0.2683062 198:0.41156349 199:0.59270945 200:0.79266826 201:0.63852297 202:0.18100254 210:0.077500737 211:0.2765186 212:0.58455086 213:0.87288057 214:0.73773299 215:0.23307431 225:0.36291236 226:1 227:0.66728194 228:0.030680861 238:0.39819856 239:0.46095677 240:0.06151551 251:0.030834649 252:0.030224082 255:0.051767953 256:0.050742879 267:0.4707734 268:0.4686836 269:0.20484091 279:0.41070858 280:0.46765853 281:0.20484091 314:0.20475675 315:0.57570488 316:0.36537848 317:0.087895645 326:0.20475675 327:0.7862934 328:1 329:0.9009678 330:0.88486817 331:0.81027485 332:0.29499984 333:0.059936388 334:0.059341495 339:0.39009038 340:0.81330547 341:0.81307215 342:0.9045327 343:0.95625006 344:0.78859066 345:0.57723909 346:0.20007946 347:0.029595831 354:0.16963456 355:0.4865131 356:0.74473031 357:0.76972836 358:0.42994652 359:0.08809585 366:0.044014448 367:0.10296297 368:0.096225442 369:0.20002913 370:0.23121733 371:0.062625231 376:0.014375272 377:0.043269928 378:0.072187256 379:0.10164461 380:0.072650869 381:0.0074598054 382:0.0034690949 383:0.0034690949 388:0.0288226 389:0.05743118 390:0.078859596 391:0.035732704 400:0.014161252 401:0.042840816 402:0.042272922 411:0.25050836 412:0.36520474 413:0.32598572 423:0.24554796 424:0.36439633 425:0.32598572 458:0.079991073 459:0.32157013 460:0.23838734 461:0.078800161 466:0.22278135 467:0.22057015 470:0.079991073 471:0.31837841 472:0.31997028 473:0.078800161 477:0.35423209 478:0.69841855 479:0.46674284 480:0.11000661 483:0.15799531 484:0.15642714 488:0.3476411 489:0.80656855 490:0.80245735 491:0.58342517 492:0.10782834 499:0.35833082 500:0.82168765 501:0.80036154 502:0.56097726 503:0.11871756 510:0.22922473 511:0.69624841 512:0.81865393 513:0.58931519 514:0.11552746 520:0.11584223 521:0.34868801 522:0.45753156 523:0.57285497 524:0.45794215 525:0.11552746 532:0.46445388 533:0.69039669 534:0.57577049 535:0.22823513 543:0.2397879 544:0.94367131 545:0.92887163 546:0.57881698 555:0.30587824 556:0.78455284 557:0.95680647 558:0.35694424 567:0.067000603 568:0.43011356 569:0.48467068 570:0.11642894 603:0.99501248 604:0.99501248 605:0.97530991 610:0.99004983 611:0.99004983 615:0.97530991 616:0.99501248 617:0.97530991 622:0.99004983 623:1 624:0.98019867 635:0.98019867 636:0.96078944 658:0.99004983 659:0.99004983 670:0.99004983 671:1 672:0.98019867 683:0.98019867 684:0.96078944 689:1 690:0.99004983 701:0.99004983 702:0.99004983 
0.02180524633040528 0.0161929647005746 0.01923702806888312 0.02911958254929219 15:0.73210945 16:0.73210945 17:0.35970337 22:0.10811247 23:0.10811247 27:0.72484296 28:0.73577917 29:0.72120976 34:0.21676685 35:0.2178534 36:0.21353961 40:0.36150639 41:0.35434809 44:0.00013798176 45:0.00041602364 46:0.10677542 47:0.21569111 48:0.21142014 56:0.00027665515 57:0.00055469704 58:0.00054919144 68:0.00013592748 69:0.00041120968 70:0.00040575873 77:0.50416657 78:0.50083331 79:0.16500212 88:0.16749581 89:0.83750828 90:0.67334574 91:0.33083131 99:0.037623391 100:0.58044572 101:0.83750828 102:0.82915843 103:0.16254556 110:0.074685692 111:0.29872068 112:0.59008581 113:0.63111031 114:0.32754767 122:0.074685692 123:0.25850482 124:0.33391583 125:0.12796363 135:0.12833148 136:0.12686732 159:0.1767889 160:0.1767889 166:0.16654432 167:0.16654432 171:0.1767889 172:0.66363805 173:0.62799046 174:0.15146726 178:0.16654432 179:0.16821812 180:0.16488718 184:0.48025347 185:0.94681439 186:0.86931475 187:0.39364701 191:0.16488718 192:0.16162219 197:0.43799441 198:0.84494275 199:0.77576871 200:0.64059986 201:0.25587327 210:0.13034127 211:0.38814282 212:0.76599981 213:0.77275391 214:0.42818742 215:0.15283148 224:0.25281342 225:0.63901104 226:0.83986228 227:0.60932572 228:0.15283148 238:0.45031943 239:0.65455693 240:0.20396875 251:0.050124679 252:0.050124679 303:0.34144094 304:0.65663646 305:0.61947257 315:0.33523078 316:0.90492605 317:0.80585904 318:0.099593875 321:0.018302613 322:0.06289715 323:0.043970256 324:0.012808589 328:0.25757992 329:0.58747331 330:0.72287757 331:0.39039404 333:0.055183527 334:0.098893207 335:0.080614485 336:0.012808589 341:0.30078601 342:0.68134385 343:0.80546789 344:0.72215454 345:0.3404765 346:0.089104389 347:0.053821936 354:0.12519648 355:0.46152235 356:0.89030228 357:0.86362838 358:0.41510349 359:0.099985784 365:0.0099468671 366:0.046255027 367:0.076658983 368:0.32730478 369:0.68510667 370:0.75082561 371:0.79612157 372:0.30423399 376:0.024413419 377:0.064400573 378:0.067426082 379:0.063765345 380:0.023854618 382:0.37960992 383:0.92568841 384:0.61461392 387:0.024413419 388:0.098021409 389:0.10276311 390:0.097807443 391:0.029250448 395:0.30423399 396:0.30423399 398:0.33027591 399:0.68662075 400:0.39799261 401:0.10708899 402:0.057540622 410:0.33027591 411:0.66552666 412:0.68309153 413:0.023691894 423:0.65234835 424:0.64587352 447:0.12218211 448:0.153659 449:0.09119476 454:0.10202082 455:0.10202082 459:0.1209694 460:0.15395824 461:0.15152674 465:0.11413185 466:0.56536064 467:0.44661509 468:0.2149131 472:0.060331981 473:0.059137328 476:0.11927916 477:0.58846992 478:0.80902569 479:0.67448044 480:0.21291306 487:0.11464027 488:0.58480381 489:0.81599129 490:0.8163594 491:0.3370988 498:0.11701008 499:0.58264791 500:0.80718684 501:0.81176095 502:0.35076057 509:0.30247775 510:0.77050484 511:0.81158588 512:0.80736851 513:0.33711915 520:0.11649183 521:0.76894229 522:0.99415053 523:0.90403805 524:0.34408796 531:0.11602876 532:0.57377156 533:0.80038848 534:0.89795026 535:0.34256397 542:0.11244703 543:0.57055634 544:0.79033838 545:0.79667784 546:0.33853889 554:0.11244703 555:0.44995247 556:0.67871782 557:0.33580152 567:0.22015984 568:0.21795539 592:1 593:0.99004983 598:0.99004983 599:0.99004983 604:0.99004983 605:0.99004983 610:0.99004983 611:1 612:0.98019867 623:0.98019867 624:0.96078944 653:0.99501248 654:0.99501248 655:0.97530991 659:0.99501248 660:0.97530991 665:0.97530991 666:0.99501248 667:0.97530991 671:0.99501248 672:0.99501248 683:0.97530991 684:0.97530991 
0.01766761226927976 0.01279588615887583 0.01559617772092626 0.02462565012619915 21:0.72198628 22:0.71875736 23:0.38881354 27:0.46885781 28:0.46031423 32:0.18023171 33:1 34:0.93123079 35:0.54945155 39:0.46221933 40:0.46589778 41:0.037021144 43:0.045510623 44:0.34527677 45:0.520531 46:0.60246321 47:0.15745716 51:0.094305455 52:0.1313266 53:0.036288076 54:0.051496192 55:0.24046789 56:0.30714995 57:0.28512614 58:0.072901824 65:0.047570178 66:0.25458874 67:0.34660898 68:0.33460784 69:0.1338317 77:0.15422735 78:0.3065297 79:0.35067693 80:0.15143328 88:0.19430204 89:0.35763337 90:0.32072184 91:0.14375573 94:0.15222418 95:0.22852655 96:0.074791483 99:0.17875056 100:0.44917122 101:0.4630195 102:0.23189399 106:0.15071329 107:0.97282692 108:0.81156033 111:0.7919442 112:0.85755249 113:0.48641324 114:0.056824478 119:0.74252318 120:0.89553452 123:0.60713122 124:0.712762 125:0.19917766 131:0.2848494 132:0.57112661 135:0.22706855 136:0.22706855 171:0.42082039 172:0.41537213 183:0.56398416 184:0.95195158 185:0.49268534 186:0.1025981 195:0.14350542 196:0.70219901 197:0.88616177 198:0.57875899 199:0.17828986 208:0.12131874 209:0.44999236 210:0.60892074 211:0.46228914 212:0.38961743 213:0.19735595 222:0.17446626 223:0.35437604 224:0.5105276 225:0.72276378 226:0.54975307 227:0.14850444 236:0.12220923 237:0.51798908 238:0.98226578 239:0.72521572 240:0.14850444 250:0.44850207 251:1 252:0.54878032 255:0.24478767 256:0.24138075 263:0.50416899 264:0.56929524 267:0.24307996 268:0.24466052 269:0.072008839 275:0.10444285 276:0.17084765 279:0.084113298 280:0.15612214 281:0.070582968 303:0.43915897 304:0.65492857 305:0.2157696 315:0.51480366 316:0.72955332 317:0.43697958 327:0.26676542 328:0.81478746 329:0.54276504 330:0.10232113 339:0.02377701 340:0.26084494 341:0.71390856 342:0.74551239 343:0.26749699 352:0.065771036 353:0.37479369 354:0.71394634 355:0.66669146 356:0.48414182 357:0.22452322 366:0.26615619 367:0.52592764 368:0.59271609 369:0.53417329 370:0.35372397 371:0.064032438 380:0.11141967 381:0.40206848 382:0.44299595 383:0.16717194 384:0.012693799 389:0.073161845 390:0.071713144 394:0.089932842 395:0.10160879 396:0.012693799 399:0.63599193 400:1 401:0.72440258 402:0.14487499 411:0.63019674 412:0.98693186 413:0.89848253 414:0.14342629 423:0.16274465 424:0.3382733 425:0.17205295 447:0.15179761 448:0.18847425 449:0.038145107 453:0.29085478 454:0.28872719 455:0.09011283 459:0.26544043 460:0.30361451 461:0.077252 464:0.23017079 465:0.62719059 466:0.51177363 467:0.18067735 471:0.22334901 472:0.29983043 473:0.075722308 475:0.12272403 476:0.59790689 477:0.57613322 478:0.52953871 479:0.088771225 486:0.12112182 487:0.61448164 488:0.7333051 489:0.60211845 490:0.1114049 497:0.12217273 498:0.61014772 499:0.8488602 500:0.85103738 501:0.36089079 509:0.36774297 510:0.72733196 511:0.84776032 512:0.35775758 520:0.35889225 521:0.720089 522:0.72357063 523:0.3592696 531:0.22942323 532:0.7015175 533:0.82682278 534:0.47508923 543:0.50110295 544:0.81966356 545:0.9918225 546:0.32056858 555:0.2696618 556:0.48967301 557:0.58136413 558:0.20281158 568:0.056482593 569:0.055364162 592:0.99501248 593:0.97530991 597:0.99501248 598:0.99501248 599:0.97530991 604:0.99501248 605:0.99501248 609:0.97530991 610:0.99501248 611:0.97530991 616:0.97530991 617:0.97530991 677:0.99501248 678:0.97530991 683:0.99004983 684:0.99004983 689:0.99501248 690:0.99501248 695:0.99004983 696:1 701:0.97530991 702:0.97530991 708:0.98019867 
0.03316701598974747 0.009900312851271888 0.04054899366703927 0.01883662348122308 34:0.66687443 35:0.65366943 39:0.33305425 40:0.3297403 45:0.033339678 46:0.97746942 47:0.92543472 51:0.3297403 52:0.3297403 57:0.066846473 58:0.99568095 59:0.99435066 69:0.032843315 70:0.099358053 71:0.098040973 93:0.12224358 94:0.2450999 95:0.12042361 105:0.12224358 106:0.36857205 107:0.36612714 118:0.36369442 119:0.36129792 122:0.32534888 123:0.32211161 134:0.32211161 135:0.32211161 175:0.00049103699 176:0.011007679 177:0.13186767 178:0.2229332 179:0.099756645 183:0.45371681 184:0.58237916 185:0.14824297 187:0.00048131381 188:0.010789712 189:0.13126168 190:0.23387483 191:0.21185321 195:0.44771239 196:0.83601338 197:0.6871634 198:0.2475177 202:0.20001332 203:0.19802811 208:0.40906618 209:0.66060999 210:0.62056058 211:0.36368686 212:0.11811574 221:0.12472731 222:0.49085776 223:0.7240559 224:0.73724267 225:0.37354645 235:0.35796701 236:0.74632556 237:0.96475709 238:0.59614942 239:0.15003352 248:0.13173277 249:0.58485285 250:1 251:0.58011777 262:0.42731209 263:0.42432633 265:0.13137969 266:0.13137969 267:0.1287782 277:0.1287782 278:0.13137969 279:0.1287782 316:0.30928238 317:0.64249015 318:0.69761255 319:0.93520347 320:0.9832332 321:1 322:0.66700947 323:0.19204945 327:0.28478323 328:0.777315 329:0.82406097 330:0.69761255 331:0.92745406 332:0.96731174 333:0.98405898 334:0.87444647 335:0.46817791 339:0.28005739 340:0.6715962 341:0.93820241 342:0.71090635 343:0.70117771 344:0.35567781 345:0.041076579 346:0.29241551 347:0.27947161 352:0.1426294 353:0.27206256 354:0.28878054 355:0.21904885 356:0.12867998 357:0.060059718 358:0.040846741 359:0.0088108619 365:0.057376175 366:0.26308322 367:0.42569684 368:0.40796266 369:0.19457671 370:0.022460142 376:0.033446131 377:0.10042587 378:0.18755921 379:0.3323114 380:0.43409612 381:0.34589002 382:0.1623345 383:0.019650887 387:0.048801146 388:0.18325711 389:0.19944047 390:0.19894606 391:0.12571442 392:0.083624818 393:0.20019536 394:0.18134738 395:0.039400274 398:0.13280068 399:0.2302013 400:0.21322725 401:0.21505078 402:0.098354014 406:0.019749387 407:0.019358323 409:0.17874172 410:0.34961924 411:0.39595416 412:0.22645505 413:0.080307037 421:0.17520239 422:0.25166284 423:0.29643909 424:0.047358854 460:0.088924364 461:0.1549457 462:0.11326818 463:0.10174396 464:0.05457551 465:0.018040216 466:0.099002387 467:0.097042008 471:0.21052914 472:0.34773061 473:0.25489757 474:0.13390546 475:0.11217333 476:0.073252805 477:0.14270125 478:0.5292556 479:0.37890006 483:0.20636038 484:0.30924199 485:0.25236729 486:0.13125396 487:0.092001912 488:0.14332012 489:0.71885891 490:0.85451807 491:0.66562751 499:0.41058435 500:0.6923391 501:0.70927739 502:0.85514926 503:0.42024685 510:0.39129125 511:0.9278126 512:0.80966261 513:0.69846788 514:0.28027073 520:0.12560875 521:0.37844378 522:0.76608722 523:0.90035564 524:0.653049 525:0.1354921 531:0.12560875 532:0.63056539 533:0.75027652 534:0.75478025 535:0.50646443 536:0.12615405 542:0.36499808 543:0.60378654 544:0.61331472 545:0.75071762 546:0.36954941 553:0.14280937 554:0.64905385 555:0.76283882 556:0.59881626 557:0.24563514 565:0.13998155 566:0.40769572 567:0.52827265 568:0.12096116 682:1 683:0.99004983 694:0.99004983 695:0.99004983 698:1 699:0.99004983 710:0.99004983 711:0.99004983 
0.01669809206467853 0.01342161283240392 0.01776693028418151 0.01931204944187589 27:0.14041298 28:0.14041298 33:0.30046187 34:0.30046187 39:0.28152978 40:0.28294095 41:0.27733835 45:0.78286846 46:0.77929554 47:0.59346081 51:0.1383225 52:0.28013265 53:0.27458565 56:0.036949815 57:0.51150557 58:0.81120999 59:0.58757046 67:0.0040675875 68:0.040366291 69:0.12914864 70:0.12044289 79:0.0039870439 80:0.0080546314 81:0.0079740878 87:0.22053206 88:0.33162785 89:0.21834319 98:0.18233094 99:0.73748635 100:0.6643189 101:0.43559195 110:0.56921088 111:0.92124079 112:0.81872798 113:0.22889975 122:0.68508239 123:0.99453057 124:0.99108545 125:0.013624245 134:0.29585429 135:0.51350696 136:0.50353819 171:0.09799454 172:0.09799454 175:0.00044671875 176:0.013652984 177:0.44420694 178:0.42815047 179:0.14082383 183:0.23558596 184:0.58011147 185:0.4431203 186:0.10133294 187:0.00043787313 188:0.013382637 189:0.43824169 190:0.44351426 191:0.28235353 195:0.13486693 196:0.47665428 197:0.77146281 198:0.57300895 199:0.37526595 200:0.092880096 202:0.14152971 203:0.13872723 208:0.10133294 209:0.39844089 210:0.57853654 211:0.56584739 212:0.58284955 213:0.40522265 214:0.10633246 222:0.092880096 223:0.37338965 224:0.56638483 225:0.63367587 226:0.71415059 227:0.37483383 236:0.094165327 237:0.41530272 238:0.73800597 239:1 240:0.48392243 250:0.13440473 251:0.71722286 252:0.75722091 263:0.16023255 264:0.32126827 315:0.041822912 316:0.36644888 317:0.60746157 318:0.70248492 319:0.71756652 320:0.63385205 321:0.65163135 322:0.33976369 323:0.021391304 327:0.069817668 328:0.58265265 329:0.86502964 330:0.77027428 331:0.70896585 332:0.7380584 333:0.65163135 334:0.36169652 335:0.042889833 339:0.027440423 340:0.35405698 341:0.8599176 342:0.92795235 343:0.56217199 344:0.13845468 346:0.021498528 347:0.021072829 352:0.061493563 353:0.26521388 354:0.41733072 355:0.42837787 356:0.42537495 357:0.26525685 358:0.056416646 365:0.0066843387 366:0.070077274 367:0.28761652 368:0.42755215 369:0.39538895 370:0.30427994 371:0.13183937 376:0.0040936133 377:0.030965157 378:0.036212831 379:0.025759188 380:0.074552455 381:0.25157493 382:0.32783933 383:0.24682934 384:0.10011378 388:0.016456633 389:0.036213789 390:0.041408225 391:0.01965643 394:0.043653607 395:0.14604729 396:0.10268582 400:0.012199681 401:0.022959581 402:0.014590118 407:0.0016821017 408:0.003372635 410:0.045227049 411:0.045227049 412:0.048364161 413:0.0040326673 422:0.044331494 423:0.045227049 424:0.044331494 459:0.074570599 460:0.16739182 461:0.12373907 462:0.087604321 463:0.096527197 464:0.061219578 465:0.020169106 466:0.013549238 471:0.074570599 472:0.16739182 473:0.18479594 474:0.087196878 475:0.095302826 476:0.081489782 477:0.25304524 478:0.24977338 479:0.086205459 484:0.147289 485:0.18113674 486:0.063471438 487:0.048499463 488:0.19768882 489:0.43227924 490:0.34905496 491:0.085939835 499:0.19709433 500:0.39088042 501:0.3833827 502:0.18569388 509:0.095523498 510:0.29202334 511:0.38969145 512:0.39028593 513:0.19377432 519:0.13642473 520:0.30221872 521:0.54999736 522:0.57627637 523:0.48147865 524:0.19260889 530:0.068041833 531:0.50678779 532:0.89473892 533:0.75520977 534:0.67168382 535:0.28310613 542:0.21221049 543:0.80969345 544:0.88127899 545:0.81201355 546:0.28544587 554:0.24029624 555:0.57346261 556:0.8599376 557:0.28872622 566:0.095147677 567:0.28941647 568:0.28560087 664:1 665:0.99004983 671:0.99004983 672:0.99004983 676:0.99004983 677:0.99004983 683:0.99004983 684:1 696:0.98019867 
0.01196927646888431 0.01009013533116941 0.01730334514295926 0.01867638967496427 40:0.022759574 41:0.022759574 42:0.011182338 52:0.022533675 53:0.022873657 54:0.022420728 65:0.01123839 66:0.011015855 76:0.076228242 77:0.076228242 87:0.018184893 88:0.24763381 89:0.22793193 90:0.15056311 94:0.21518577 95:0.21304996 98:0.072297103 99:0.31580026 100:0.47076601 101:0.39801598 102:0.14906871 106:0.32304764 107:0.32412626 108:0.21198207 110:0.67976327 111:0.94730384 112:0.59186778 113:0.31953215 118:0.10572606 119:0.31984394 120:0.20987806 122:0.75402123 123:0.93511732 124:0.33921334 125:0.073975357 134:0.40543239 135:0.42091214 136:0.015173232 184:0.15361871 185:0.27650574 186:0.12045371 196:0.15361871 197:0.52289579 198:0.59631249 199:0.22961241 209:0.39481802 210:0.63094049 211:0.59030038 212:0.36097366 213:0.11872857 222:0.11394518 223:0.46523145 224:0.75218765 225:0.79546403 226:0.2829331 236:0.38836822 237:0.81482057 238:0.84565186 239:0.43862032 249:0.26964355 250:0.86643404 251:0.80106819 252:0.20324336 254:0.08019964 255:0.078611581 262:0.15476639 263:0.36005751 264:0.20122608 266:0.16080128 267:0.15999928 278:0.15841122 279:0.15841122 309:0.19849047 310:0.39797587 311:0.19553533 318:0.29654086 319:0.73995149 320:0.74382668 321:0.86946779 322:0.89048725 323:0.58153888 328:0.16868983 329:0.51162932 330:0.78462275 331:0.88304758 332:0.81890582 333:0.83168139 334:1 335:0.60619654 340:0.16639947 341:0.62273715 342:0.91883878 343:0.82265211 344:0.51905929 345:0.31104063 346:0.14412 347:0.031855473 353:0.15775124 354:0.36879809 355:0.43062407 356:0.29542452 357:0.081751817 358:0.027352177 364:0.0080015612 365:0.078020689 366:0.17212403 367:0.36050066 368:0.37945023 369:0.25697351 370:0.064111554 375:0.0080015612 376:0.024085101 377:0.064566489 378:0.097779852 379:0.060448235 380:0.16530127 381:0.2881838 382:0.19371085 383:0.07043241 387:0.0080015612 388:0.016083539 389:0.031727883 390:0.015647513 393:0.08107886 394:0.15373907 395:0.072529732 398:0.060937687 399:0.060937687 400:0.0079219444 401:0.0077650794 406:0.0025107046 407:0.0025107046 410:0.27858183 411:0.27763804 412:0.12036179 422:0.2133345 423:0.27641927 424:0.11916715 453:0.03738331 454:0.14789321 455:0.10832165 462:0.082435902 463:0.20421975 464:0.20346461 465:0.45899652 466:0.59690625 467:0.35415535 472:0.22093668 473:0.32382894 474:0.29330455 475:0.24411498 476:0.50422658 477:0.81988801 478:0.8357723 479:0.45067839 484:0.21874379 485:0.31959865 486:0.40158208 487:0.44876711 488:0.60179676 489:0.64248957 490:0.49764902 491:0.097475037 497:0.10909574 498:0.52327616 499:0.71548617 500:0.60886806 501:0.29859852 502:0.097887436 508:0.11047854 509:0.54209565 510:0.7378525 511:0.72220586 512:0.30320771 519:0.11047854 520:0.50504312 521:0.71374355 522:0.72607445 523:0.30652572 530:0.10762486 531:0.63736726 532:0.89229758 533:0.80240892 534:0.30058789 542:0.40986308 543:0.93240919 544:1 545:0.47688622 554:0.46834195 555:0.79235244 556:0.688745 557:0.091443822 566:0.16622884 567:0.29364186 568:0.18828024 652:0.99004983 653:0.99004983 664:0.99004983 665:1 666:0.98019867 677:0.98019867 678:0.96078944 682:0.99501248 683:0.99501248 684:0.97530991 694:0.97530991 695:0.99501248 696:0.97530991 
0.02164630114610393 0.01654149307592827 0.02088635472712611 0.0304981796609068 22:0.052788733 23:0.052264783 33:0.035776546 34:0.095432175 35:0.071794928 36:0.026066409 41:0.10427927 42:0.25896674 43:0.15212104 44:0.037031246 45:0.084327521 46:0.092459789 47:0.082511933 48:0.02555026 53:0.1022144 54:0.25846517 55:0.2564003 56:0.068281075 57:0.073263205 58:0.059458094 59:0.011534518 66:0.1022144 67:0.12106344 68:0.068466032 69:0.05588546 70:0.012141806 77:0.030243737 78:0.18425357 79:0.18931359 80:0.093683958 81:0.018291968 82:0.015097116 89:0.2526341 90:0.38579556 91:0.28600276 92:0.055428798 93:0.030269908 94:0.11282263 95:0.081582757 100:0.15417868 101:0.54562191 102:0.47286451 103:0.28169045 105:0.01487235 106:0.20647221 107:0.22161072 108:0.14041764 111:0.17641236 112:0.66500396 113:0.74019159 114:0.57615185 115:0.082723012 118:0.10718383 119:0.17565094 120:0.13975956 123:0.51334904 124:0.89168917 125:1 126:0.37300813 135:0.33342597 136:0.6465993 137:0.70654882 138:0.068723213 185:0.075219589 186:0.21981705 187:0.14173424 197:0.073730142 198:0.50824733 199:0.5625256 200:0.14173424 210:0.28561052 211:0.5639572 212:0.68114309 213:0.41078393 223:0.1311008 224:0.69261221 225:1 226:0.43806799 229:0.12427575 230:0.12181493 236:0.14504959 237:0.72404022 238:0.9982798 239:0.41834086 241:0.12427575 242:0.12427575 249:0.14504959 250:0.70411533 251:0.80390319 252:0.2454971 253:0.12181493 254:0.12181493 262:0.13526 263:0.38323059 264:0.24306044 267:0.071133876 268:0.071133876 269:0.034949822 279:0.070427843 280:0.071490436 281:0.070074831 309:0.34738522 310:0.83736885 311:0.48853406 318:0.15758922 319:0.51638479 320:0.6769585 321:0.82877328 322:0.99659682 323:0.66743934 324:0.24365027 329:0.020920459 330:0.48003573 331:0.81401517 332:0.81830789 333:0.80934067 334:0.90391045 335:0.65422315 336:0.23882567 340:0.024557441 341:0.054223282 342:0.36655523 343:0.67316883 344:0.64125445 345:0.15419415 351:0.020245363 352:0.051460302 353:0.047118504 354:0.063000643 355:0.10309151 356:0.13175382 357:0.068565098 362:0.061205278 363:0.087231755 364:0.046693149 365:0.035995169 366:0.0085342196 367:0.03235319 368:0.11804158 369:0.11993051 370:0.040359409 373:0.61265889 374:0.69427041 375:0.16896145 376:0.052871851 377:0.0066869238 380:0.019433424 381:0.061587557 382:0.042783987 383:0.0013812679 385:0.60897896 386:0.66760862 387:0.33415333 388:0.026511921 393:0.0013743788 394:0.0027556468 395:0.001353917 397:0.23479797 398:0.42020957 399:0.18174021 411:0.18353018 412:0.36890486 413:0.18353018 423:0.18353018 424:0.36890486 425:0.3652342 453:0.10344642 454:0.32121462 455:0.21656416 462:0.10488518 463:0.36594086 464:0.36752153 465:0.60691057 466:0.82766309 467:0.49595126 468:0.10265685 473:0.2058573 474:0.5274257 475:0.6152 476:0.69962332 477:0.94497399 478:1 479:0.60136368 480:0.10062411 484:0.34776208 485:0.66569887 486:0.54551856 487:0.62288247 488:0.58402219 489:0.72466366 490:0.55365316 491:0.10853639 495:0.34892522 496:0.8090431 497:0.69380701 498:0.45685915 499:0.43684656 500:0.44183712 501:0.44242541 502:0.10853639 506:0.34069473 507:0.80232707 508:0.81019304 509:0.57339065 510:0.52882316 511:0.63845609 512:0.53988326 513:0.10819356 517:0.3445416 518:0.78873227 519:0.78570559 520:0.57417326 521:0.37588203 522:0.68899087 523:0.73192688 524:0.31733018 529:0.3409581 530:0.55833042 531:0.52462125 532:0.26980531 533:0.70172528 534:0.6534842 535:0.36814315 541:0.071035114 542:0.16122746 543:0.088406423 544:0.69166749 545:0.84849305 546:0.65499412 547:0.068348474 555:0.13245448 556:0.59436943 557:0.86748055 558:0.39590952 567:0.06365807 568:0.33242533 569:0.42151459 570:0.089891579 607:1 608:0.99004983 619:0.99004983 620:0.99004983 654:0.99501248 655:0.97530991 661:1 662:0.99004983 666:0.99501248 667:0.99501248 673:0.99004983 674:0.99004983 678:0.97530991 679:0.97530991 682:0.99501248 683:0.99501248 684:0.97530991 694:0.97530991 695:0.99501248 696:0.97530991 
0.01890702007327657 0.01531450361364877 0.02320928330195384 0.03017595696126801 22:0.40348294 23:0.39549345 33:0.544245 34:0.94713499 35:0.79897639 40:0.14155425 41:0.13875128 44:0.059740774 45:0.62609144 46:1 47:0.90070124 52:0.30907117 53:0.30740435 56:0.059147822 57:0.11918805 58:0.22771352 59:0.10754186 64:0.30460139 65:0.30460139 69:0.029499239 70:0.028915115 95:0.039106375 96:0.03871726 107:0.03871726 108:0.03871726 110:0.23058813 111:0.22687065 112:0.042000414 122:0.22973967 123:0.23058813 124:0.042000414 134:0.18402177 135:0.18402177 165:0.20074573 166:0.4024977 167:0.19775701 177:0.20074573 178:0.40451523 179:0.40050024 190:0.39650529 191:0.39256981 196:0.45338817 197:0.59421994 198:0.14246508 208:0.44887688 209:0.73514105 210:0.63967273 211:0.50578853 212:0.52073183 213:0.26553319 221:0.36578133 222:0.63237278 223:0.5222887 224:0.65516465 225:0.85825164 226:0.84681728 227:0.38732404 235:0.12532135 236:0.38304174 237:0.65585294 238:0.91623364 239:1 240:0.4816377 250:0.35179127 251:0.83026905 252:0.47781262 254:0.2479474 255:0.24303771 266:0.2479474 267:0.2479474 278:0.24303771 279:0.24303771 307:0.17850039 308:0.60058708 309:0.90513406 310:0.57758715 311:0.093919913 317:0.23737154 318:0.66170953 319:0.9163172 320:0.91417499 321:1 322:0.82513268 323:0.33609397 328:0.16279653 329:0.50368857 330:0.758526 331:0.72580557 332:0.82256092 333:0.98326475 334:0.80879396 335:0.32943886 340:0.37826553 341:0.62106038 342:0.57094933 343:0.26050379 344:0.076611003 345:0.035899172 346:0.0088851045 352:0.21603841 353:0.51612966 354:0.66115667 355:0.74455451 356:0.69927886 357:0.31418955 358:0.0087091677 365:0.28072548 366:0.66581925 367:0.76285243 368:0.79255459 369:0.89036454 370:0.65891934 371:0.22644035 376:0.072536514 377:0.200191 378:0.16544958 379:0.26952077 380:0.48476639 381:0.75909441 382:0.85731561 383:0.60599988 384:0.19907188 386:0.0048365473 387:0.063331914 388:0.23039277 389:0.23486587 390:0.19243693 391:0.022968946 394:0.25344708 395:0.45000339 396:0.19711079 398:0.23871198 399:0.38756795 400:0.24845813 401:0.26116662 402:0.097394968 410:0.23377918 411:0.32270369 412:0.2851699 413:0.097394968 422:0.11252052 423:0.22560506 424:0.11084531 451:0.039347124 452:0.10229716 453:0.077274412 454:0.02691495 455:0.011874265 461:0.11892909 462:0.26357858 463:0.26253726 464:0.1977557 465:0.33554493 466:0.28336272 467:0.092644324 472:0.15318208 473:0.33050659 474:0.35073128 475:0.24341742 476:0.35871538 477:0.62919275 478:0.49808196 479:0.18293954 484:0.22017439 485:0.33875799 486:0.29911674 487:0.2805247 488:0.65424654 489:0.65237745 490:0.45641225 491:0.088885651 496:0.14290167 497:0.14290167 498:0.27196696 499:0.64007233 500:0.64867297 501:0.468409 502:0.091825396 509:0.26831867 510:0.62675113 511:0.62919347 512:0.45150585 513:0.091825396 520:0.27087856 521:0.71167244 522:0.62730316 523:0.44367411 524:0.087683363 530:0.096165129 531:0.47220772 532:0.89981866 533:0.80113697 534:0.61116024 535:0.08650714 542:0.35800777 543:0.90096819 544:1 545:0.78145204 546:0.25177033 554:0.2599289 555:0.53816386 556:0.69870905 557:0.25177033 566:0.087522233 567:0.16267215 568:0.073661846 665:0.99501248 666:0.97530991 671:1 672:0.99004983 677:0.99501248 678:0.99501248 683:0.99004983 684:0.99004983 689:0.97530991 690:0.97530991 
0.02577768620263982 0.0116369087153064 0.01889305790371959 0.0203929549899007 46:0.21920216 47:0.21702107 58:0.21702107 59:0.21702107 69:0.039150373 70:0.038375144 81:0.39666847 82:0.39511413 83:0.038375144 93:0.71637512 94:0.99743675 95:0.86850809 98:0.030698859 99:0.092558985 100:0.060635213 105:0.35485868 106:0.91648121 107:0.90385866 110:0.14709655 111:0.20664878 112:0.12218681 118:0.079195722 119:0.077627542 121:0.054537562 122:0.22452127 123:0.28444757 124:0.090275196 133:0.053457646 134:0.16226076 135:0.16118085 172:0.15908233 173:0.21537599 174:0.060261928 175:0.043183682 176:0.040810468 184:0.38213806 185:0.6284963 186:0.35106331 187:0.14120316 188:0.06296404 189:0.041817672 190:0.030105115 191:0.028860494 196:0.25623371 197:0.49911902 198:0.4710152 199:0.55766817 200:0.49211828 201:0.15990258 202:0.030053759 203:0.028860494 210:0.19653028 211:0.52650089 212:0.90355586 213:0.70969805 214:0.15041804 223:0.10863019 224:0.48534275 225:1 226:0.73471652 227:0.13740864 237:0.44107535 238:0.76319626 239:0.31911158 249:0.021639246 250:0.18214008 251:0.17896842 316:0.3653882 317:0.69278247 318:0.69192451 319:0.70157269 320:0.33771141 328:0.51934473 329:1 330:0.91352977 331:0.76857551 332:0.70548875 333:0.74934347 334:0.71076628 335:0.34483996 340:0.25610441 341:0.73673014 342:0.98011815 343:0.9818944 344:0.81736912 345:0.80785242 346:0.74751687 347:0.36294146 354:0.14324415 355:0.3215893 356:0.36370009 357:0.2178056 358:0.090720722 359:0.017743058 365:0.024362871 366:0.096953553 367:0.15972932 368:0.29442247 369:0.23469685 370:0.067450845 376:0.025352736 377:0.12329331 378:0.16908169 379:0.16858065 380:0.1187717 381:0.036622689 382:0.013206671 387:0.030273688 388:0.13219359 389:0.17351391 390:0.17152922 391:0.095397132 392:0.023283622 398:0.0869483 399:0.14728016 400:0.14150716 401:0.15538546 402:0.073578887 409:0.029812792 410:0.14253938 411:0.17286696 412:0.14501686 413:0.054354249 421:0.029222459 422:0.081660457 423:0.11104258 424:0.029378966 477:0.12210005 478:0.24542723 479:0.12210005 488:0.23020678 489:0.46407012 490:0.35834061 491:0.24298519 499:0.33974359 500:0.68375094 501:0.57219596 502:0.34747172 503:0.11849145 509:0.10873616 510:0.43680027 511:0.7734397 512:0.78517772 513:0.56837452 514:0.11142232 520:0.10873616 521:0.54586369 522:0.758684 523:0.76028932 524:0.54530538 525:0.18944828 526:0.28488523 527:0.18756793 530:0.11358331 531:0.45051682 532:0.76747488 533:0.75481462 534:0.75642209 535:0.42791366 536:0.10576934 537:0.18756793 538:0.28488523 539:0.2811151 542:0.56414347 543:1 544:0.88255184 545:0.64700365 546:0.31908708 550:0.093547166 551:0.091694808 553:0.10806902 554:0.66270782 555:0.99297867 556:0.75857396 557:0.21130975 565:0.10592911 566:0.32749131 567:0.43181148 568:0.10435203 669:0.99004983 670:0.99004983 675:1 676:0.99004983 681:0.99004983 682:1 683:0.98019867 687:0.99004983 688:0.99004983 694:0.98019867 695:0.96078944 
0.01034882396999378 0.009093439605593237 0.01697786929210902 0.01862424781929978 22:0.34267298 23:0.3358876 33:0.11043719 34:0.90849157 35:0.78225185 39:0.36077724 40:0.36077724 44:0.012338149 45:0.23386004 46:0.99758187 47:0.94542497 51:0.36077724 52:0.36440311 53:0.35718745 56:0.037200293 57:0.14608413 58:0.35309366 59:0.26421067 64:0.35718745 65:0.35011466 68:0.024369841 69:0.049107984 70:0.036282418 88:0.20553368 89:0.20281819 90:0.067042595 94:0.40462443 95:0.40268624 99:0.2048497 100:0.40631354 101:0.2718923 102:0.067042595 106:0.71096644 107:0.7150135 108:0.60586635 110:0.23744935 111:0.51820672 112:0.4275256 113:0.20146384 118:0.30217584 119:0.6119707 120:0.59985287 122:0.4301402 123:0.5756561 124:0.36788393 125:0.066044461 134:0.27043322 135:0.34894659 136:0.076958697 165:0.0067881515 166:0.013610329 167:0.0066870891 177:0.0067881515 178:0.013678551 179:0.013542786 183:0.2119212 184:0.2119212 190:0.013407697 191:0.01327462 195:0.3829762 196:0.8222188 197:0.69007614 198:0.25158427 207:0.16766789 208:0.60085303 209:0.94619716 210:0.63903458 211:0.60426027 212:0.50934364 213:0.14161361 221:0.26335015 222:0.50001666 223:0.59827046 224:0.79661236 225:1 226:0.56458555 235:0.12081261 236:0.52759822 237:0.900755 238:0.96651065 239:0.43368243 249:0.17289674 250:0.60657917 251:0.68765723 252:0.25313344 262:0.069726467 263:0.25454201 264:0.24950174 309:0.20247685 310:0.40596862 311:0.19946236 317:0.29014238 318:0.58230947 319:0.73533865 320:0.73167789 321:0.84723058 322:0.90299632 323:0.57670622 327:0.15245046 328:0.42796698 329:0.70908715 330:0.72557811 331:0.73424689 332:0.7339979 333:0.63198675 334:0.89491731 335:0.56870739 339:0.21035062 340:0.75694193 341:0.95387348 342:0.80053873 343:0.57604971 344:0.2925913 345:0.0095241744 351:0.058558848 352:0.33142967 353:0.49646939 354:0.49692678 355:0.54436082 356:0.42830867 357:0.10900005 365:0.19244358 366:0.4085466 367:0.55652443 368:0.63192006 369:0.46402518 370:0.1905516 376:0.011640244 377:0.058434899 378:0.069830348 379:0.15410434 380:0.39722419 381:0.50092503 382:0.29205064 383:0.071925021 387:0.012648656 388:0.049776734 389:0.071565056 390:0.078314705 391:0.030531261 393:0.053982124 394:0.12590715 395:0.070850745 398:0.020252534 399:0.045570811 400:0.050154597 401:0.060874877 402:0.035223507 410:0.025492677 411:0.038310169 412:0.039841211 413:0.012274831 422:0.010589253 423:0.017942468 424:0.0072076116 453:0.017382508 454:0.041488552 455:0.023628712 461:0.067173064 462:0.13239309 463:0.16345956 464:0.16355481 465:0.23149639 466:0.35396093 467:0.18533377 471:0.20301284 472:0.30244768 473:0.26993708 474:0.17601689 475:0.16460046 476:0.26745191 477:0.63069863 478:0.61798808 479:0.41395794 483:0.20099785 484:0.29846375 485:0.36951553 486:0.17401339 487:0.12945643 488:0.53633935 489:0.73333408 490:0.69866783 491:0.27093068 496:0.10024517 497:0.098260184 498:0.10545251 499:0.53585583 500:0.74464532 501:0.74352345 502:0.31318475 509:0.10545251 510:0.52937954 511:0.73878726 512:0.74201731 513:0.31483836 520:0.38286792 521:0.79714061 522:0.72810195 523:0.73362816 524:0.31168798 531:0.28889698 532:0.87421172 533:0.88982472 534:0.81527669 535:0.30815589 538:0.069416705 539:0.069416705 540:0.068042162 542:0.32034679 543:0.71203328 544:0.69382651 545:0.69552092 546:0.30429469 550:0.068042162 551:0.069416705 552:0.068042162 554:0.42611079 555:0.6250413 556:0.50860198 557:0.099905183 566:0.21199818 567:0.31772963 568:0.10363783 664:0.99501248 665:0.99501248 666:0.97530991 676:0.97530991 677:0.99501248 678:0.97530991 682:0.99501248 683:0.99501248 684:0.97530991 694:0.97530991 695:0.99501248 696:0.97530991 
