svm_type c_svc
kernel_type rbf
gamma 0.125
nr_class 6
total_sv 336
rho 0.325498 0.333818 0.337095 0.977954 0.499208 0.00901196 0.0117028 0.962041 0.20628 0.00333306 0.957649 0.19787 0.960984 0.195493 -0.936682
label 1 4 5 6 7 8
probA 1.82411 1.7898 3.46442 7.432 3.12349 3.45558 -0.742181 -17.0383 5.40793 0.520018 -37.4631 4.99178 8.03987 -3.21478 -39.0977
probB 1.13097 1.09666 3.19325 13.2829 2.43039 -0.0279952 0.0687895 -11.4204 1.45213 0.505929 -31.7377 1.39737 13.1705 0.386398 33.4178
nr_sv 1 2 2 3 325 3
SV
1.325832846110287 1.334991961650684 1.341940952779867 1.980197770978908 1.501589808152211 25:0.19273657 26:0.18892013 37:0.48268822 38:0.4740817 43:0.48884566 44:0.61328892 45:0.24018189 49:0.42890055 50:0.47742807 51:0.047566606 55:0.48399366 56:0.93382215 57:0.76748743 61:0.047329366 62:0.094895972 63:0.046624724 68:0.92721741 69:0.92243765 80:0.96995952 81:0.95075303 91:0.095855535 92:0.84872549 93:0.84872549 102:0.23952928 103:0.57974577 104:0.68118245 105:0.67735773 114:0.70053857 115:1 116:0.99140681 117:0.38239608 126:0.45624252 127:0.82953817 128:0.88876278 129:0.07164551 139:0.21808755 140:0.21376912 169:0.29546021 170:0.39306455 171:0.20830826 172:0.10580722 181:0.91059224 182:1 183:0.26308285 184:0.2722148 185:0.27503596 186:0.22606713 187:0.58466154 188:0.5939642 189:0.23413732 193:0.65230648 194:0.9545341 195:0.40008979 196:0.26508288 197:0.27396749 198:0.22395231 199:0.57884159 200:0.79882814 201:0.61225645 205:0.19819596 206:0.39738539 207:0.19524521 211:0.15598302 212:0.70017665 213:0.54273097 224:0.17564212 225:0.17564212 236:0.0077623851 237:0.0077623851 248:0.00016643184 249:0.00016643184 313:0.42454463 314:0.82385982 315:0.79912392 316:0.39563394 325:0.42454463 326:0.82385982 327:0.99698119 328:0.99558838 329:0.98104749 330:0.78336242 331:0.78888724 332:0.39545094 333:0.018655305 337:0.20858921 338:0.61648769 339:0.7993383 340:0.98369054 341:0.97714034 342:0.78151138 343:0.78467256 344:0.59498786 345:0.20233348 355:0.38471064 356:0.56455101 357:0.18004111 402:0.054148073 403:0.054148073 414:0.054148073 415:0.05469227 416:0.053609291 427:0.053609291 428:0.052547756 457:0.076159212 458:0.074651159 469:0.076159212 470:0.076159212 475:0.095075145 476:0.095075145 477:0.093192531 481:0.074651159 482:0.074651159 487:0.093192531 488:0.095075145 489:0.093192531 512:0.11526552 513:0.11298311 523:0.14127105 524:0.51435904 525:0.36570035 534:0.0040889968 535:0.65510669 536:0.90289642 537:0.66940575 546:0.2093643 547:0.90113033 548:1 549:0.59684001 558:0.20482816 559:0.57524131 560:0.73174896 561:0.15750704 571:0.18087571 572:0.17729413 613:0.49626248 614:0.49626248 619:0.99501248 620:0.98513657 625:0.49626248 626:0.50125 627:0.49132458 631:0.99501248 632:1 633:0.49132458 638:0.49132458 639:0.4815957 643:0.48887409 644:0.98019867 645:0.4815957 678:0.49626248 679:0.49626248 690:0.49626248 691:0.50125 692:0.49132458 703:0.49132458 704:0.4815957 
-0.6634855587109696 0.9914910351704976 1.006750727983072 1.988007809811217 1.185254980717892 39:0.12328793 40:0.12084667 50:0.41259815 51:0.5346624 52:0.32539264 62:0.8211011 63:0.90019081 64:0.66944725 69:0.19954601 70:0.19756049 74:0.40850294 75:0.77618702 76:0.76394184 81:0.39660639 82:0.60830181 83:0.20941124 87:0.43904434 88:0.59358597 89:0.15543585 93:0.19707028 94:0.83906605 95:0.71864035 99:0.085783356 100:0.25942915 101:0.1869326 102:0.0081367544 105:0.14974026 106:0.99648792 107:0.99355172 112:0.02457402 113:0.049357087 114:0.024615422 117:0.1989974 118:0.62197472 119:0.52024605 125:0.016314294 126:0.016152368 129:0.09875372 130:0.14800591 131:0.048276928 171:0.087695083 172:0.14168274 173:0.11172759 174:0.054894513 183:0.17539017 184:0.23008193 185:0.19960222 186:0.32875469 187:0.35193021 188:0.2922585 189:0.15102243 194:0.0089849775 195:0.094943582 196:0.17811621 197:0.19737878 198:0.26983109 199:0.41988746 200:0.76910641 201:0.89203136 202:0.41202286 203:0.074944893 206:0.090280911 207:0.16754767 208:0.075736778 211:0.13902174 212:0.57222684 213:0.9893126 214:0.78207593 215:0.22672433 218:0.081295934 219:0.39036492 220:0.30447136 224:0.107707 225:0.43299567 226:0.60470797 227:0.27747142 231:0.46486594 232:0.57942268 233:0.19138183 237:0.12934575 238:0.26190291 239:0.25802567 243:0.23227285 244:0.70265154 245:0.65791312 246:0.11526542 250:0.13053507 251:0.1292577 256:0.34811605 257:0.69919345 258:0.51703448 259:0.24978135 262:0.0012139533 263:0.0012139533 269:0.23110861 270:0.48152308 271:0.33583687 272:0.083120182 282:0.082705618 283:0.1658258 284:0.081474292 315:0.26489353 316:0.52715787 317:0.33477922 318:0.071078979 327:0.39859079 328:0.92891983 329:0.99968445 330:0.67192175 331:0.52317332 332:0.43267812 333:0.17600718 339:0.13104988 340:0.65782619 341:0.99038699 342:0.66789582 343:0.57683517 344:0.69160631 345:0.5172541 346:0.21293043 347:0.049155555 355:0.2528496 356:0.62931869 357:0.56560827 358:0.33871119 359:0.14870607 368:0.013332911 369:0.053599977 370:0.13855924 371:0.097579279 389:0.041491432 390:0.040669847 401:0.082982864 402:0.29360756 403:0.46695275 404:0.4857242 405:0.2800673 406:0.10120985 413:0.040669847 414:0.25129042 415:0.4661434 416:0.51432034 417:0.40959893 418:0.15168701 426:0.040669847 427:0.29399509 428:0.50413612 429:0.30128803 430:0.049477639 459:0.027852071 460:0.030218867 461:0.0028610829 471:0.31300754 472:0.30972788 473:0.0043311794 474:0.0014269294 482:0.14222129 483:0.45184237 484:0.45187294 485:0.0042454163 486:0.0013986743 494:0.13940512 495:0.28162641 496:0.27881024 537:0.45790397 538:0.60853177 539:0.30198774 546:0.0071931468 547:0.021615496 548:0.38249623 549:0.97431435 550:0.88419443 551:0.45260035 558:0.0071931468 559:0.021615496 560:0.38006178 561:0.67855577 562:0.69422233 563:0.14763029 571:0.014207629 572:0.14169715 573:0.24860253 574:0.11871482 615:1 616:0.99004983 627:0.99004983 628:0.99004983 634:0.99501248 635:0.97530991 646:0.99501248 647:0.99501248 658:0.97530991 659:0.97530991 
-0.6623472873993168 0.9920903325008299 0.9969972053283018 1.935409114137766 1.185711431313207 3:0.022818315 4:0.022818315 14:0.11966984 15:0.18846849 16:0.06788818 17:0.022591269 26:0.35960938 27:0.40513334 28:0.30470958 29:0.022143932 38:0.46161698 39:0.50236963 40:0.54312258 41:0.10001082 50:0.4297762 51:0.5340857 52:0.48927726 53:0.10101595 54:0.049755386 56:0.24912028 57:0.38085006 58:0.13242639 62:0.20603329 63:0.50246344 64:0.47375217 65:0.049755386 66:0.048770164 68:0.49824055 69:0.67381387 70:0.55045801 71:0.24908862 75:0.33276053 76:0.45912618 77:0.12585787 80:0.37151919 81:0.66449987 82:1 83:0.49570492 87:0.12649189 88:0.32029122 89:0.25372792 92:0.12239892 93:0.24788398 94:0.72348752 95:0.48051197 100:0.12846384 101:0.16047959 102:0.032606254 105:0.28212585 106:0.43606855 107:0.43194177 113:0.032606254 114:0.031960607 117:0.21430078 118:0.31875582 119:0.23916869 129:0.074013624 130:0.110927 131:0.036182438 182:0.090001079 183:0.090001079 184:0.19870641 185:0.26465997 186:0.1483748 187:0.20981339 188:0.33518982 189:0.20455098 194:0.17910886 195:0.26481863 196:0.28074185 197:0.26272196 198:0.20411374 199:0.41209256 200:0.8578468 201:0.87400537 202:0.31134432 206:0.089107781 207:0.431949 208:0.33774121 209:0.13124884 210:0.20007201 211:0.20079042 212:0.57712406 213:0.94976408 214:0.77476806 215:0.31134432 219:0.45745408 220:0.57098661 221:0.16844632 224:0.11277387 225:0.31315925 226:0.5567691 227:0.35417619 231:0.20033114 232:0.60486378 233:0.5151557 236:0.023901245 237:0.048405133 238:0.11438239 239:0.06693574 244:0.40645343 245:0.84220749 246:0.43223752 250:0.022052325 251:0.022052325 256:0.14311906 257:0.72425802 258:0.97083536 259:0.49283692 260:0.1011546 269:0.14311906 270:0.53564911 271:0.69690217 272:0.30601431 283:0.20281624 284:0.20080321 328:0.29559507 329:0.79752902 330:0.87595708 331:0.66575132 332:0.42970409 333:0.13766066 340:0.29234127 341:0.78902963 342:0.99972551 343:0.95086187 344:0.84593629 345:0.53579368 346:0.12566521 353:0.25928475 354:0.46428479 355:0.4091178 356:0.54645785 357:0.46770482 358:0.12483716 368:0.031371358 369:0.031371358 376:0.0038512941 377:0.0038512941 388:0.0077218929 389:0.019333786 390:0.011458223 400:0.0037939558 401:0.058106708 402:0.18249534 403:0.38791683 404:0.43522444 405:0.22185949 406:0.092506453 413:0.041930827 414:0.16856719 415:0.38623532 416:0.47635291 417:0.35257479 418:0.092506453 427:0.17009834 428:0.42581995 429:0.25400963 435:0.19667801 436:0.19667801 446:0.19667801 447:0.78967453 448:0.58514889 449:0.19472103 458:0.28669025 459:0.67907513 460:0.82800915 461:0.19086529 470:0.13423746 471:0.52405294 472:0.68990801 473:0.37032969 474:0.19687804 475:0.014487062 476:0.00077910378 482:0.044225225 483:0.089565538 484:0.34050902 485:0.36299667 486:0.19687804 487:0.014487062 488:0.00077910378 514:0.070703508 515:0.069303485 525:0.070350873 526:0.21211229 527:0.14105438 537:0.59411637 538:0.6603044 539:0.38072162 547:0.020547557 548:0.32732445 549:1 550:0.91962329 551:0.41196371 559:0.020547557 560:0.32428514 561:0.66255038 562:0.66815015 563:0.16886434 571:0.01009552 572:0.17069275 573:0.16039632 579:0.99004983 580:0.99004983 591:0.99004983 592:1 593:0.98019867 604:0.98019867 605:0.96078944 656:0.99501248 657:0.99501248 658:0.97530991 668:0.97530991 669:0.99501248 670:0.97530991 
-0.6658969741622354 -0.9914910351704976 1.004211465922573 1.961669678593047 1.199257301791218 14:0.14462762 15:0.1417638 22:0.15315365 23:0.15315365 26:0.42712062 27:0.42137863 28:0.070393982 33:0.043694022 34:0.36256419 35:0.31558876 36:0.15162974 38:0.28567009 39:0.47253513 40:0.18413647 45:0.22367068 46:0.38402044 47:0.41611152 48:0.14862727 51:0.25604529 52:0.31693925 53:0.10215838 56:0.12797373 57:0.36954858 58:0.36444721 59:0.11558657 63:0.11474893 64:0.36695136 65:0.2837091 68:0.33510495 69:0.39490096 70:0.31491814 76:0.26239518 77:0.38126825 78:0.13513131 79:0.1632528 80:0.44879549 81:0.42837217 82:0.12591039 88:0.072737155 89:0.38051622 90:0.30320063 91:0.43352513 92:0.50808815 93:0.39269686 101:0.39834293 102:0.63747345 103:0.65729549 104:0.44746508 105:0.16385878 113:0.1673616 114:0.85528542 115:0.95459058 116:0.5506895 126:0.44119457 127:0.82026224 128:0.51828347 138:0.054537398 139:0.21207814 140:0.15442123 158:0.27335439 159:0.27201553 170:0.77479041 171:0.77081562 172:0.40636937 182:0.49470574 183:1 184:0.73190442 195:0.8213176 196:0.96530462 197:0.32800168 207:0.31352751 208:0.94430443 209:0.76764094 220:0.58439341 221:0.86961807 222:0.28245804 232:0.14162148 233:0.68121788 234:0.533947 245:0.61881495 246:0.74551624 247:0.25089396 257:0.23985193 258:0.77726914 259:0.6468039 270:0.54974447 271:0.58007524 272:0.031934625 282:0.15090252 283:0.18283714 284:0.031302277 302:0.50186803 303:0.49688678 310:0.12156974 311:0.12156974 312:0.059730203 314:0.53500773 315:0.53752335 316:0.28029958 321:0.26507389 322:1 323:0.72275695 324:0.1197598 326:0.2465801 327:0.52753589 328:0.27539249 333:0.26507389 334:0.87883667 335:0.93356471 336:0.058840936 346:0.52356382 347:0.51836723 402:0.63162872 403:0.62555353 414:0.63162872 415:0.63489323 416:0.32158918 426:0.30073233 427:0.6223215 428:0.31522128 446:0.031431676 447:0.030809287 454:0.33205811 455:0.33205811 456:0.16314831 458:0.063020904 459:0.062706586 465:0.16053079 466:0.8527944 467:0.68506581 468:0.32711441 470:0.062084197 471:0.062084197 477:0.57565916 478:0.93028787 479:0.83088401 480:0.16071935 488:0.25184075 489:0.78846163 490:1 491:0.47978885 500:0.61660575 501:0.75813054 502:0.62634423 511:0.21479413 512:0.694475 513:0.71211285 514:0.24434365 523:0.50909579 524:0.65026543 525:0.54236933 534:0.13681302 535:0.70487948 536:0.55879985 537:0.20404951 546:0.3656841 547:0.6386346 548:0.59804097 558:0.22688349 559:0.50039031 560:0.49315067 571:0.12721549 572:0.12469645 598:0.99501248 599:0.99501248 600:0.97530991 602:0.99501248 603:0.99501248 604:0.97530991 610:0.97530991 611:0.99501248 612:0.97530991 614:0.97530991 615:0.99501248 616:0.97530991 
-0.6690949874884484 -0.9920903325008299 1.079325578168914 1.976168720798699 1.201151754739558 58:0.24814638 59:0.24323275 69:0.16828893 70:0.834958 71:0.65346814 81:0.45823116 82:0.99838671 83:0.99167183 93:0.34745261 94:0.68319952 95:0.55453643 105:0.11961067 106:0.17926499 107:0.058473094 125:0.24759326 126:0.24269058 137:0.24759326 138:0.24759326 181:0.00045760064 182:0.028440574 183:0.29810854 184:0.26771945 185:0.034515216 186:0.10371866 187:0.14998859 188:0.22290241 189:0.24333984 190:0.099891509 193:0.00045760064 194:0.028440574 195:0.29810854 196:0.28557635 197:0.13352174 198:0.10371866 199:0.14998859 200:0.22290241 201:0.79487566 202:0.87451844 203:0.22066151 206:0.01420177 207:0.16086623 208:0.27992156 209:0.13087783 210:0.068173136 211:0.14169748 212:0.15378341 213:0.54505011 214:1 215:0.69136534 226:0.46624617 227:0.46185488 325:0.24912728 326:0.74909435 327:0.9949912 328:0.99501131 329:0.99501248 330:0.99501248 331:0.91826188 332:0.83594495 333:0.55960907 334:0.1438706 337:0.24912728 338:0.74909435 339:0.99973923 340:0.99999763 341:1 342:1 343:0.96465405 344:0.88122109 345:0.91777754 346:0.64549374 347:0.1438706 350:0.49228569 351:0.97994307 352:0.98019635 353:0.98019867 354:0.98019867 355:0.94555262 356:0.86377175 357:0.90249621 358:0.68107891 359:0.18601663 370:0.041725631 371:0.041311487 380:0.0073069733 381:0.0097106066 382:0.0048189499 391:0.089584869 392:0.12631253 393:0.06884015 394:0.0072223411 402:0.12014049 403:0.24591822 404:0.19609798 405:0.093342058 406:0.0023558009 412:0.22117039 413:0.49741794 414:0.39107327 415:0.23158232 416:0.16978224 417:0.028882563 424:0.22117039 425:0.49634929 426:0.53957125 427:0.12581645 428:0.036205319 469:0.00014506265 470:0.00030237535 471:0.00015585508 472:2.1372708e-06 473:7.1977277e-07 474:1.1602405e-08 481:0.00014506265 482:0.00030237535 483:0.00030176415 484:1.3561034e-05 485:1.4339015e-06 486:1.7564014e-08 487:5.786555e-09 494:0.00028652221 495:0.00029578882 496:1.3292508e-05 497:1.4055084e-06 498:1.7216223e-08 499:5.6719735e-09 501:0.057630868 502:0.17376068 503:0.11383029 513:0.40917921 514:0.52183215 515:0.28766173 524:0.44647782 525:0.94257108 526:0.7610046 527:0.34338455 535:0.39705593 536:0.9877778 537:0.98963005 538:0.67199062 539:0.11334076 546:0.38341294 547:0.90854575 548:0.95022725 549:0.70185245 550:0.14394645 556:0.016937935 557:0.45380894 558:0.81197714 559:0.78905358 560:0.64405052 561:0.12801261 568:0.016937935 569:0.44803705 570:0.57766882 571:0.39409548 572:0.12361405 618:0.99004983 619:0.99004983 630:0.99004983 631:1 632:0.98019867 643:0.98019867 644:0.96078944 700:0.99004983 701:0.99004983 712:0.99004983 713:1 714:0.98019867 
-0.5512568697070931 -0.8208155389385582 -0.8505373580105978 1.63749637129469 0.990096768324313 40:0.14423251 41:0.14279738 52:0.14279738 53:0.14279738 57:0.1306218 58:0.12932533 69:0.75434027 70:0.75304379 71:0.37094761 81:0.92863577 82:1 83:0.7977728 92:0.14297219 93:0.44844502 94:0.6819762 95:0.42200386 104:0.1416771 105:0.20747039 106:0.16652073 116:0.038110921 117:0.076412874 118:0.037543524 170:0.31093432 171:0.44348665 172:0.13448156 182:0.43015972 183:0.78056331 184:0.70045526 185:0.46711827 186:0.28902249 187:0.33214554 188:0.24964354 189:0.084634067 194:0.1992637 195:0.64745772 196:0.77637762 197:0.53594466 198:0.3760644 199:0.33103572 200:0.47199098 201:0.82777924 202:0.51560909 208:0.083627573 209:0.16767433 210:0.13758261 211:0.18806348 212:0.38737038 213:0.91002109 214:0.82998961 215:0.34309436 225:0.17123795 226:0.51779034 227:0.33980746 238:0.00011845104 239:0.00011610555 314:0.27495924 315:0.57018182 316:0.29464319 326:0.35304093 327:0.87971506 328:0.97560148 329:0.67190499 330:0.56549858 331:0.54953466 332:0.30288073 333:0.091380683 338:0.1207897 339:0.58326144 340:0.99152065 341:0.84533003 342:0.65457918 343:0.56759606 344:0.51123549 345:0.43490149 346:0.15017759 352:0.092078607 353:0.18461876 354:0.20249855 355:0.3359328 356:0.50294915 357:0.46401961 358:0.18306027 369:0.03223156 370:0.03223156 380:0.0018475949 381:0.0018110101 390:0.043511386 391:0.15529556 392:0.11394725 393:0.036956147 400:0.22379069 401:0.42836802 402:0.38570838 403:0.35113423 404:0.22545127 405:0.036919562 412:0.22379069 413:0.42649435 414:0.38559904 415:0.3156251 416:0.1523677 424:0.10995387 425:0.33041276 426:0.21827074 458:0.03357628 459:0.032911425 470:0.03357628 471:0.03357628 482:0.032911425 483:0.032911425 501:0.097175107 502:0.097175107 513:0.44945793 514:0.4444161 515:0.19193656 524:0.43913809 525:0.78381884 526:0.58504345 527:0.19003151 534:0.11413025 535:0.5233164 536:1 537:0.87834195 538:0.40081297 544:0.085625001 545:0.23468162 546:0.46654828 547:0.71965159 548:0.94668255 549:0.60731881 550:0.13577045 556:0.085625001 557:0.23292763 558:0.34662999 559:0.52515254 560:0.34568051 568:0.042069668 569:0.14446278 570:0.1015559 616:0.99004983 617:0.99004983 628:0.99004983 629:1 630:0.98019867 641:0.98019867 642:0.96078944 688:0.99501248 689:0.97530991 700:0.99501248 701:0.99501248 712:0.97530991 713:0.97530991 
-0.3786525263645695 -0.5635971659374974 -0.598116245043597 1.15300321341157 0.6765344143527213 57:0.12111284 58:0.11871464 69:0.69819983 70:0.69339142 71:0.22373304 81:0.94928605 82:1 83:0.67232059 92:0.098621324 93:0.54712782 94:0.75186467 95:0.44413513 103:0.011715118 104:0.12062024 105:0.27051199 106:0.23393387 115:0.011483143 116:0.034854949 117:0.046163677 118:0.011312181 181:0.14352749 182:0.28705498 183:0.14068545 186:0.10753442 187:0.36322702 188:0.53204263 189:0.27635002 193:0.14068545 194:0.28705498 195:0.28421294 198:0.10540509 199:0.36005151 200:0.70856281 201:0.80993919 202:0.52565382 206:0.14068545 207:0.14068545 211:0.09966927 212:0.2995074 213:1 214:0.89105293 215:0.093988642 225:0.26945942 226:0.37004463 227:0.098593495 237:0.0022966702 238:0.0046512483 239:0.0045591474 325:0.063247199 326:0.64320862 327:1 328:0.72190664 329:0.6007949 330:0.59842241 331:0.55528754 332:0.44083543 333:0.1475798 337:0.061994821 338:0.6363275 339:0.98846823 340:0.85861745 341:0.597165 342:0.59842241 343:0.62907317 344:0.47896999 345:0.25929963 346:0.10913698 350:0.14528513 351:0.41368664 352:0.26551024 355:0.10844463 356:0.2552847 357:0.27286548 358:0.12566919 369:0.017633447 370:0.017633447 391:0.098914407 392:0.098260441 393:0.032372409 401:0.14271113 402:0.31774751 403:0.30506517 404:0.16447874 405:0.064907086 412:0.071533953 413:0.2861376 414:0.42743226 415:0.31144052 416:0.13014115 417:0.031890447 424:0.070117486 425:0.21282862 426:0.35199859 427:0.13919106 469:0.09256601 470:0.22495833 471:0.20173754 472:0.064884916 473:0.028174842 474:0.0006625554 475:1.1426147e-06 481:0.090733081 482:0.22109569 483:0.25927115 484:0.10108964 485:0.028174842 486:0.0006625554 487:1.1426147e-06 494:0.0026013288 495:0.056394368 496:0.053259121 513:0.32310095 514:0.31883217 515:0.10539161 524:0.45344155 525:0.87733544 526:0.57741113 527:0.10539161 535:0.3998647 536:1 537:0.96637633 538:0.50992186 545:0.1671772 546:0.49902672 547:0.8514056 548:0.94615459 549:0.71927988 550:0.14619158 556:0.08379757 557:0.33519238 558:0.57663209 559:0.66081306 560:0.49076633 561:0.12025987 568:0.082138267 569:0.24931546 570:0.41234442 571:0.16305365 615:0.99501248 616:0.99501248 617:0.97530991 627:0.97530991 628:0.99501248 629:0.97530991 700:0.99501248 701:0.99501248 702:0.97530991 712:0.97530991 713:0.99501248 714:0.97530991 
-0.4120315567082044 -0.6193352284353185 -0.634883441037292 1.227837657576945 0.742785422869082 38:0.60818784 39:0.59614492 50:0.6051545 51:0.6051545 57:0.21310315 58:0.21310315 62:0.29732728 63:0.29732728 69:0.71254895 70:0.71254895 71:0.4209132 81:0.97641534 82:1 83:0.98019867 92:0.11188914 93:0.68466752 94:0.89824993 95:0.65391521 104:0.14869514 105:0.34201035 106:0.36204111 107:0.0941428 116:0.073790904 117:0.1105932 118:0.036073559 182:0.06332651 183:0.092191291 184:0.090507158 185:0.14831971 186:0.24330728 187:0.32828684 188:0.28050811 189:0.10533154 194:0.063010668 195:0.090978804 196:0.088714996 197:0.14538279 198:0.24069295 199:0.32742553 200:0.5666436 201:0.92374541 202:0.52734448 206:0.03095869 207:0.03095869 210:0.043280349 211:0.1758624 212:0.44938061 213:0.96633954 214:0.78777047 215:0.25266961 225:0.17461011 226:0.50797714 227:0.32676591 238:0.077571145 239:0.076035134 326:0.5009094 327:0.99998141 328:0.71216627 329:0.44129743 330:0.49311077 331:0.4506066 332:0.21708153 333:0.054427334 338:0.49597172 339:0.99009299 340:0.85743085 341:0.56550864 342:0.500788 343:0.46825061 344:0.37041828 345:0.25594863 346:0.063498999 350:0.1235917 351:0.37139462 352:0.36955458 353:0.12175166 354:0.095172316 355:0.27099321 356:0.36417753 357:0.2623708 358:0.081778973 359:0.0089814004 369:0.0089366055 370:0.017918006 371:0.0088035567 391:0.068802917 392:0.081873653 393:0.027293462 401:0.12804006 402:0.27362767 403:0.25473883 404:0.16413967 405:0.040905736 412:0.06418008 413:0.25672192 414:0.36066133 415:0.29112015 416:0.13548108 417:0.013342733 424:0.062909229 425:0.19094929 426:0.31581223 427:0.12488186 470:0.097919602 471:0.097204164 472:0.0045102466 473:0.00021428198 482:0.095980664 483:0.097204164 484:0.0045102466 485:0.00021428198 501:0.033640481 502:0.033640481 513:0.3858549 514:0.38352626 515:0.14857743 524:0.43197779 525:0.92396293 526:0.6715856 527:0.26376741 535:0.42875755 536:1 537:0.97604032 538:0.65809561 539:0.1135555 545:0.15748623 546:0.48105467 547:0.85549755 548:0.9287893 549:0.70832279 550:0.13927157 556:0.07893997 557:0.31576185 558:0.55452377 559:0.64979356 560:0.49505909 561:0.13823335 568:0.077376854 569:0.23486308 570:0.41711865 571:0.18227884 615:0.99004983 616:0.99004983 627:0.99004983 628:1 629:0.98019867 640:0.98019867 641:0.96078944 700:0.99501248 701:0.99501248 702:0.97530991 712:0.97530991 713:0.99501248 714:0.97530991 
-0.008053139708218717 -0.01381512168676586 -0.01653513629282677 -0.01640781480709702 0.02216101592736334 45:0.10444836 46:0.10238014 57:0.60269008 58:0.59075602 69:0.97185224 70:0.95260828 80:0.17487606 81:1 82:0.91541772 92:0.5039345 93:0.89459411 94:0.88782666 104:0.66625684 105:0.84507604 106:0.66613768 115:0.33743523 116:0.84518393 117:0.83647153 118:0.15907998 127:0.82996036 128:0.9939915 129:0.83294367 139:0.65746845 140:0.8267636 141:0.4895049 188:0.43793976 189:0.71209959 190:0.27187455 194:6.1814844e-05 195:6.1199776e-05 200:0.43793976 201:0.99903189 202:0.75414518 206:6.1199776e-05 207:6.1199776e-05 212:0.1587494 213:0.98874796 214:0.8245881 225:0.079734862 226:0.079734862 327:0.13247342 328:0.509984 329:0.77130611 330:0.84915189 331:0.95134196 332:0.86569605 333:0.39208189 334:0.025866713 338:0.42720906 339:0.91684998 340:0.86867818 341:0.88535448 342:0.84915189 343:0.95134196 344:1 345:0.64577574 346:0.14460975 350:0.41874975 351:0.76884487 352:0.84571806 353:0.87144654 354:0.77948042 355:0.89353331 356:0.98019867 357:0.63298853 358:0.14174629 471:0.17124567 472:0.35913211 473:0.35905882 474:0.30096929 475:0.13245725 476:0.0042323956 477:0.00017495933 482:0.3216667 483:0.83502158 484:0.77919065 485:0.61380103 486:0.33166736 487:0.21779539 488:0.068312859 489:0.043994031 490:0.042951396 494:0.31529727 495:0.65063227 496:0.77390083 497:0.60498736 498:0.3250999 499:0.21348275 500:0.066960174 501:0.32129783 502:0.31493571 512:0.16841406 513:0.75751304 514:0.57743404 524:0.5070066 525:0.81790338 526:0.79905756 536:0.66949401 537:0.82941415 538:0.65050129 547:0.32975443 548:0.82515148 549:0.82464961 550:0.16388208 559:0.8370586 560:0.99493741 561:0.81523173 571:0.79360336 572:0.958662 573:0.49462261 615:0.99004983 616:0.99004983 627:0.99004983 628:1 629:0.98019867 640:0.98019867 641:0.96078944 715:1 716:0.99004983 
-0.0005734954300623064 -0 -0.002170782574513737 -0.001408168040348772 0.003432681288495455 27:0.2023206 28:0.19831438 39:0.70300946 40:0.69148246 46:0.22102779 47:0.22045749 48:0.028090225 51:0.92069337 52:0.99745734 53:0.24084542 58:0.60145387 59:0.59873931 60:0.35116502 63:0.53588979 64:0.95125639 65:0.59297506 69:0.077344742 70:0.62130223 71:0.63163522 72:0.4271065 75:0.11548762 76:0.68858856 77:0.58241498 81:0.31289131 82:0.47519118 83:0.53148421 84:0.1051149 88:0.53809192 89:0.55551697 90:0.2102062 92:0.079691877 93:0.39531447 94:0.46988799 95:0.30328904 100:0.199132 101:0.50556597 102:0.38852641 104:0.31247525 105:0.3909613 106:0.39365135 107:0.074341919 113:0.32031366 114:0.38598185 115:0.32902876 116:0.57939462 117:0.41392387 118:0.23136201 125:0.094617835 126:0.27413553 127:0.69985323 128:0.70498566 129:0.29836011 130:0.07402457 138:0.06825641 139:0.63282359 140:0.6116249 141:0.045545122 171:0.073100577 172:0.071653088 177:0.12205366 178:0.12084222 182:0.00016298933 183:0.27417565 184:0.26990633 189:0.18323305 190:0.61359254 191:0.42870811 192:0.14100724 194:0.00016298933 195:0.35785469 196:0.36097086 197:0.13161712 198:0.041388697 199:0.020831736 200:0.0016662196 201:0.063307979 202:0.48746857 203:0.55061404 204:0.28272128 207:0.22636415 208:0.43003149 209:0.33754337 210:0.041388697 211:0.041198287 212:0.0016662196 213:0.0033568029 214:0.0033234387 215:0.14171404 216:0.13890792 219:0.068617216 220:0.44343199 221:0.3690497 222:0.039811819 223:0.040382507 224:0.00094676474 225:0.0032903338 226:0.0032576302 232:0.41402322 233:0.41111688 234:0.1652599 244:0.18191394 245:0.51307137 246:0.3616108 257:0.60852131 258:0.76950298 259:0.25115378 269:0.27658102 270:0.83760589 271:0.88168043 272:0.16194997 282:0.46428884 283:0.73188745 284:0.26705842 318:0.13569036 319:0.42743929 320:0.60104288 321:0.5644818 322:0.2524784 326:0.15584258 327:0.42257444 328:0.51925461 329:0.51308369 330:0.66014661 331:0.69166665 332:0.71747817 333:0.66393934 334:0.60927967 335:0.29442644 338:0.15584258 339:0.4201597 340:0.54776408 341:0.65080137 342:0.97352715 343:0.87998492 344:0.705918 345:0.61165475 346:0.60114409 347:0.29248637 351:0.29620856 352:0.29315338 353:0.14787742 354:0.45945583 355:0.62098961 356:0.62500473 357:0.62344034 358:0.3093792 366:0.29904449 367:0.60398741 368:0.61262881 369:0.61109539 370:0.30325308 392:0.078711586 393:0.078711586 403:0.070585597 404:0.22879983 405:0.22740214 406:0.077928393 414:0.058399862 415:0.27744707 416:0.29400819 417:0.22582789 418:0.076385307 426:0.057243467 427:0.20825917 428:0.20710277 462:0.024456638 463:0.073492504 464:0.049712297 465:0.0011756415 466:2.357768e-05 470:0.048457776 471:0.17215292 472:0.22418204 473:0.20079769 474:0.1572614 475:0.14615666 476:0.10599394 477:0.025406307 478:0.035472883 479:0.035449305 482:0.048457776 483:0.17084969 484:0.23715784 485:0.26999883 486:0.2617451 487:0.14518082 488:0.13520781 489:0.27109335 490:0.45156103 491:0.31623095 492:0.12111917 495:0.10470932 496:0.10375934 497:0.10478676 498:0.13262317 499:0.1305274 500:0.13520781 501:0.38749314 502:0.76532662 503:0.50895229 504:0.20687799 510:0.12999706 511:0.12794279 513:0.46885381 514:0.83873826 515:0.65612713 516:0.084741879 524:0.11419621 525:0.5796639 526:0.69773545 527:0.45890486 536:0.487656 537:0.59798655 538:0.57418705 539:0.11363275 547:0.44364829 548:1 549:0.82393027 550:0.34293554 559:0.51512567 560:0.80343067 561:0.73130939 562:0.11415571 571:0.21692995 572:0.36043994 573:0.14066831 616:0.50249998 617:0.49750002 627:0.50249998 628:0.99500004 629:0.49750002 630:0.49999375 631:0.49009321 632:0.49750002 633:0.49750002 639:0.49750002 640:0.49750002 642:0.49999375 643:0.49999375 644:0.49750002 645:0.50249998 646:0.49254981 654:0.49009321 655:0.49009321 657:0.49254981 658:0.48279667 680:0.49750002 681:0.49750002 692:1 693:1 694:0.49254981 704:0.49750002 705:0.99004983 706:0.48279667 
-0.01145561116083073 -0.02040362445117732 -0.02365103871232797 -0.01660127759406911 0.03672863765800369 57:0.36196055 58:0.35479326 69:0.86789224 70:0.85070682 80:0.16478372 81:1 82:0.91242472 92:0.47170446 93:0.89912843 94:0.89278639 104:0.75605552 105:0.93143926 106:0.77076712 115:0.16571042 116:0.93246412 117:0.75466367 118:0.29472442 127:0.51236088 128:0.82980557 129:0.80349178 139:0.59553042 140:0.92801354 141:0.91287008 188:0.3842951 189:0.38137055 200:0.62208148 201:0.9973203 202:0.70392449 212:0.23307789 213:0.99995937 214:0.84584236 225:0.14461796 226:0.14461796 237:0.00080155813 238:0.00080155813 326:0.11876847 327:0.47278532 328:0.71564985 329:0.75841476 330:0.81600165 331:0.84240724 332:0.7201057 333:0.29633577 337:0.17838211 338:0.65173164 339:1 340:0.99927149 341:0.75841476 342:0.81600165 343:0.84568678 344:0.8475598 345:0.53658173 346:0.11284832 349:0.17484991 350:0.52240979 351:0.99149785 352:0.98634108 353:0.71586712 354:0.77840342 355:0.82894106 356:0.83077699 357:0.52646912 358:0.11112111 470:0.18418248 471:0.4427725 472:0.38518894 473:0.23218302 474:0.10593392 475:0.0039078847 476:0.00019897444 477:2.4708936e-06 481:0.11508303 482:0.73442278 483:0.99009702 484:0.76189803 485:0.2554052 486:0.16992989 487:0.054829515 488:0.0020519862 489:0.00010049961 493:0.11280424 494:0.53934481 495:0.98274797 496:0.75185928 497:0.25034784 498:0.16656505 499:0.053743818 500:0.0020113542 501:0.14733974 502:0.14442221 512:0.16605541 513:0.60881316 514:0.43399056 524:0.50680043 525:0.79928631 526:0.76635313 536:0.86250242 537:0.99990364 538:0.81254932 547:0.14506521 548:1 549:0.86258814 550:0.33998786 559:0.4239911 560:0.79871437 561:0.79292613 571:0.40983988 572:0.72234418 573:0.71130124 615:0.99501248 616:0.97530991 627:0.99501248 628:0.99501248 639:0.97530991 640:0.97530991 715:0.99501248 716:0.99501248 717:0.97530991 
-0.009888168656835828 -0.01599299459483208 -0.01924283101759375 -0.01718110743804815 0.02826127699940712 27:0.26592485 28:0.26065919 39:0.8808262 40:0.86817266 41:0.11880286 46:0.10570704 47:0.1036139 51:0.86383019 52:0.99521626 53:0.35690616 58:0.63635595 59:0.62375526 63:0.25422288 64:0.75284293 65:0.64162372 70:0.96063957 71:0.94161764 76:0.70362342 77:0.82690877 78:0.13954362 81:0.2992724 82:0.84204174 83:0.83907134 88:0.56226544 89:0.84758494 90:0.55794816 93:0.72992303 94:0.75147882 95:0.60065833 100:0.13803764 101:0.83837174 102:0.69601247 104:0.17121304 105:0.92464733 106:0.74149432 107:0.28477423 113:0.67759159 114:0.79158771 115:0.26572016 116:0.62464194 117:0.94689212 118:0.82189942 125:0.25702778 126:0.77497951 127:0.6295963 128:0.44971092 129:0.78472741 130:0.77233953 138:0.47885324 139:0.70610457 140:0.22523951 141:0.26302133 142:0.25781316 171:0.22957009 172:0.2250243 183:0.84052181 184:0.82935334 185:0.12909718 189:0.52942026 190:0.7277364 191:0.19688706 195:0.88125621 196:0.99293089 197:0.4150815 201:0.52289458 202:0.87592424 203:0.74053686 207:0.27377228 208:0.79981289 209:0.64883549 214:0.54509502 215:0.54117686 220:0.59368983 221:0.70379881 222:0.11044863 226:0.005368776 227:0.005368776 232:0.44900452 233:0.68286661 234:0.4481068 244:0.11180269 245:0.69152027 246:0.57067524 257:0.60674723 258:0.7354714 259:0.24307239 269:0.25379563 270:0.80348735 271:0.64384477 282:0.55132474 283:0.81331642 284:0.27049566 327:0.39249062 328:0.9975536 329:0.96361008 330:0.72909479 331:0.78340604 332:0.82807069 333:0.82550854 334:0.50817454 335:0.095413634 339:0.39249062 340:0.99249664 341:0.99083855 342:0.84293812 343:0.76789356 344:0.81167379 345:0.82550854 346:0.57717138 347:0.16372565 351:0.18426272 352:0.56036776 353:0.54660055 354:0.17104928 358:0.06763061 359:0.066959348 459:0.0020832955 460:0.0020420434 471:0.58733863 472:0.9975248 473:0.50116236 474:0.25245623 475:0.15297626 476:0.070626231 477:0.0029029699 478:0.00025506029 483:0.58521388 484:0.99056358 485:0.75006014 486:0.29879426 487:0.15297626 488:0.070626231 489:0.0029029699 490:0.00025506029 495:0.28652163 496:0.6949254 497:0.44903984 498:0.04542047 502:0.256465 503:0.25138665 513:0.28654627 514:0.54069211 515:0.39188394 525:0.72835052 526:0.722477 527:0.56391791 536:0.12412877 537:0.83071184 538:0.73054001 539:0.28786348 548:0.33151405 549:0.65007638 550:0.64535186 560:0.20514337 561:0.45350606 562:0.44694735 573:0.093228298 574:0.091382254 615:0.49875 616:1 617:0.50125 618:0.49132458 627:0.49875 628:0.99007459 629:0.99503735 630:0.49132458 640:0.49378736 641:0.48400971 692:0.49875 693:0.49875 704:0.49875 705:0.50376252 706:0.49378736 714:0.50125 715:0.50125 716:0.49132458 717:0.49378736 718:0.48400971 
-0.01005245022177297 -0.01703824951398801 -0.01910488984563154 -0.01665088359795716 0.02759610549661878 26:0.22466459 27:0.34211107 28:0.11512088 38:0.33884149 39:0.69176963 40:0.56865238 46:0.24066829 47:0.23590274 50:0.11191605 51:0.80198279 52:0.91184741 53:0.11422242 58:0.74970235 59:0.73485725 63:0.6197542 64:0.75505349 65:0.37104944 70:0.99501248 71:0.99501248 75:0.25812082 76:0.8084138 77:0.65747107 81:0.28615183 82:0.94506305 83:0.94222288 88:0.68099091 89:0.80959709 90:0.26867713 93:0.70430116 94:0.84279099 95:0.71424793 100:0.40416102 101:0.81324608 102:0.66763116 105:0.7290665 106:0.72010371 107:0.41352671 112:0.13315294 113:0.78756884 114:0.7941708 115:0.12270074 116:0.40119522 117:0.86471454 118:0.90315956 119:0.13694739 125:0.6201129 126:0.73239932 127:0.36871725 128:0.63615204 129:0.9479758 130:0.9352676 137:0.23705397 138:0.58949398 139:0.58228634 140:0.23349089 141:0.47286898 142:0.46350555 170:0.20798459 171:0.37871108 172:0.16734588 182:0.33730042 183:0.76730676 184:0.63206766 189:0.29680864 190:0.48613473 191:0.18762283 194:0.1267552 195:0.87975302 196:0.99290197 197:0.11741502 201:0.29093144 202:0.49936225 203:0.39122514 207:0.56913003 208:0.67432252 209:0.34081848 210:0.17894174 211:0.25608435 212:0.20503793 213:0.13017845 214:0.28791976 215:0.20141784 219:0.21239271 220:0.62609094 221:0.53557623 222:0.17539846 223:0.25101354 224:0.20503793 225:0.13017845 226:0.088091746 227:0.0015898238 232:0.50974778 233:0.61847156 234:0.20253875 244:0.30705211 245:0.61417036 246:0.50647163 256:0.10144374 257:0.64377423 258:0.63145412 259:0.11007056 269:0.57417449 270:0.69773529 271:0.33946938 281:0.23934812 282:0.60445698 283:0.59745559 314:0.09314277 315:0.09314277 326:0.09314277 327:0.70920298 328:1 329:0.78203669 330:0.82075375 331:0.87510226 332:0.90101948 333:0.89795755 334:0.56559477 335:0.11639906 339:0.61259109 340:0.98884171 341:0.97008785 342:0.80450174 343:0.85777407 344:0.8950742 345:0.89795755 346:0.59564505 347:0.14644934 351:0.21660718 352:0.43430011 353:0.21338232 354:0.45335951 355:0.89864944 356:0.89696618 357:0.66744316 358:0.25027041 359:0.02945524 366:0.44438239 367:0.88085499 368:0.89343183 369:0.66744316 370:0.22081517 471:0.61810527 472:0.81564009 473:0.44711347 474:0.19822958 475:0.13462542 476:0.045342008 477:0.002765348 478:0.00019916089 483:0.61419685 484:0.80768813 485:0.53012373 486:0.19822958 487:0.13462542 488:0.045342008 489:0.002765348 490:0.00019916089 495:0.33020834 496:0.4132186 497:0.081366548 498:0.00040118094 499:0.00039718913 502:0.30670641 503:0.30063321 510:0.00039718913 511:0.00039718913 513:0.33357106 514:0.80151909 515:0.62775924 525:0.83742781 526:0.99498123 527:0.81889566 537:0.81643577 538:0.84220905 539:0.50165887 548:0.27848008 549:0.76525951 550:0.93097575 551:0.1652741 560:0.29992015 561:0.59308756 562:0.58706508 572:0.023854792 573:0.1552172 574:0.15214369 615:0.50125 616:0.99508711 617:0.49875 627:0.50125 628:1 629:0.49875 639:0.49132458 640:0.49132458 643:0.50376252 644:0.99503735 645:0.50125 646:0.49132458 655:0.49875 656:0.97533429 657:0.50125 658:0.49132458 704:0.50125 705:0.50125 706:0.49132458 714:0.50376252 715:0.49875 716:0.49132458 717:0.50125 718:0.49132458 
-0.01218350034265155 -0.02540999765910299 -0.01526496491498544 -0.1104725567503986 0.03656861808377741 38:0.13321878 39:0.13058087 50:0.13321878 51:0.13321878 56:0.058452789 57:0.29293849 58:0.22984258 62:0.13058087 63:0.13058087 68:0.057295346 69:0.81055505 70:0.73834416 80:0.15129716 81:1 82:0.86966508 92:0.44692509 93:0.89117366 94:0.88513676 104:0.72036614 105:0.86226163 106:0.71792522 115:0.17709461 116:0.95639986 117:0.7664653 118:0.27019564 127:0.50990477 128:0.86548754 129:0.85848737 139:0.33496452 140:0.68974698 141:0.67409687 182:0.034256188 183:0.033654716 188:0.32496844 189:0.32250075 194:0.038156488 195:0.042076339 196:0.011674382 197:0.00012569418 200:0.52631858 201:0.92172365 202:0.59316488 206:0.029773869 207:0.041397249 208:0.011598301 209:0.00012569418 212:0.19736314 213:1 214:0.86993051 225:0.27693096 226:0.27693096 237:0.00016374389 238:0.00016374389 326:0.32451571 327:0.59522547 328:0.51694923 329:0.49910394 330:0.52424382 331:0.5351907 332:0.468559 333:0.20089417 338:0.45711421 339:0.99699417 340:0.9868907 341:0.69595315 342:0.52424382 343:0.53915441 344:0.53659869 345:0.36546679 346:0.097167374 350:0.1310928 351:0.53164781 352:0.77248122 353:0.6123918 354:0.5040813 355:0.52847844 356:0.52597333 357:0.35880527 358:0.095807152 470:0.61460319 471:0.96971882 472:0.50906915 473:0.14045403 474:0.11573453 475:0.10236048 476:0.055736296 477:0.0038160355 482:0.61093629 483:0.99024886 484:0.7838089 485:0.29871442 486:0.11573453 487:0.13199438 488:0.10495419 489:0.007728288 494:0.24030407 495:0.42273117 496:0.26990783 497:0.15572287 498:0.099038705 499:0.12938072 500:0.10287595 501:0.097436594 502:0.09550722 512:0.13264208 513:0.49736079 514:0.35749679 524:0.43112162 525:0.69575084 526:0.63288838 536:0.76538945 537:0.8738905 538:0.7067143 547:0.10475067 548:0.79341426 549:0.74492857 550:0.304166 559:0.54297736 560:0.76565156 561:0.60310091 571:0.75239053 572:0.95770224 573:0.63342546 615:0.99501248 616:0.99501248 617:0.97530991 627:0.97530991 628:0.99501248 629:0.97530991 715:1 716:0.99004983 
-0.001266462376955555 -0.004249340453288134 -0.003526651929958738 -0.006315302875441262 0.008544355207824313 26:0.14170457 27:0.14170457 38:0.35204536 39:0.58669662 40:0.37053892 45:0.028649668 46:0.18921099 47:0.15738199 50:0.20617577 51:0.58504475 52:0.60602777 53:0.038922342 57:0.028649668 58:0.72499204 59:0.68255387 63:0.20617577 64:0.32742811 65:0.2284212 66:0.069753108 69:0.13884738 70:1 71:0.88240252 76:0.11755036 77:0.35470825 78:0.23510719 81:0.52418945 82:0.87075575 83:0.86521561 89:0.26108288 90:0.51123842 91:0.31296849 93:0.68482804 94:0.83575991 95:0.56042924 101:0.093833233 102:0.73255105 103:0.69568912 104:0.33511056 105:0.63435972 106:0.708664 107:0.1247202 114:0.51440316 115:0.64253319 116:0.66977202 117:0.70791539 118:0.6210662 126:0.12731721 127:0.4655192 128:0.60026971 129:0.44908966 130:0.30432465 139:0.21419149 140:0.33082492 141:0.12296631 170:0.077237606 171:0.077237606 182:0.23431156 183:0.53166927 184:0.37978455 185:0.0034869498 186:0.00024886463 188:0.05810988 189:0.40296435 190:0.48695185 191:0.1412438 194:0.15396368 195:0.75303859 196:0.74653404 197:0.15319287 198:0.00024886463 200:0.056959227 201:0.39782421 202:0.61302121 203:0.4512196 207:0.30167436 208:0.86754182 209:0.72762815 210:0.13498441 214:0.35447907 215:0.35166823 220:0.43718669 221:0.9667464 222:0.52707154 226:0.0045179308 227:0.0045179308 233:0.38936027 234:0.71593385 235:0.32480761 245:0.10285974 246:0.55124642 247:0.5820872 248:0.083270515 258:0.34702726 259:0.45245326 260:0.2581029 270:0.091144473 271:0.57493894 272:0.52836396 273:0.12187552 283:0.37172432 284:0.48170971 285:0.24797062 314:0.09011907 315:0.19726725 316:0.32198163 317:0.21270113 326:0.21440085 327:0.66073961 328:1 329:0.98650542 330:0.74328538 331:0.64833963 332:0.65798796 333:0.59493101 334:0.33959996 335:0.062934323 338:0.12182083 339:0.454295 340:0.92822876 341:0.98012955 342:0.74118481 343:0.64833963 344:0.6540896 345:0.59493101 346:0.40412747 347:0.12618411 358:0.063249783 359:0.061997353 404:0.041501332 405:0.04067955 416:0.041294343 417:0.041294343 428:0.020288926 429:0.020288926 459:0.1390842 460:0.35684731 461:0.21560172 470:0.17415093 471:0.59430755 472:0.70000484 473:0.53957195 474:0.20321516 475:0.12269193 476:0.13320137 477:0.073147697 478:0.0014003193 482:0.17070251 483:0.44620932 484:0.69506172 485:0.53251169 486:0.20108595 487:0.12026247 488:0.13320137 489:0.073147697 490:0.11814695 491:0.11580748 501:0.14464862 502:0.52690841 503:0.37469054 513:0.63880912 514:0.8972194 515:0.67535532 525:0.79451794 526:0.94996252 527:0.60300527 536:0.2710254 537:0.60102073 538:0.76510949 539:0.16342798 548:1 549:0.98970544 550:0.60526337 560:0.72226275 561:0.86531903 562:0.34112813 572:0.25416204 573:0.25416204 604:0.49875 605:0.49875 615:0.50125 616:0.99007459 617:0.50376252 618:0.49378736 627:0.50125 628:0.50125 629:0.49378736 630:0.48400971 639:0.49132458 640:0.49132458 692:0.50125 693:0.49132458 703:0.49875 704:1 705:0.50125 715:0.49875 716:0.99508711 717:0.98511194 
-0 -0 -0 -0.002447853133910955 0.007160395264747954 57:0.054613022 58:0.52532483 59:0.46139109 69:0.13002148 70:0.59565492 71:0.57623368 80:0.10489568 81:0.1946703 82:0.40991267 83:0.33691771 91:0.2032444 92:0.34130184 93:0.24271308 94:0.10493314 102:0.097058401 103:0.49453782 104:0.42676499 105:0.23704859 106:0.033818837 114:0.49804304 115:0.68865312 116:0.54595722 117:0.065526902 125:0.19601924 126:0.92887086 127:0.74606492 128:0.4342011 137:0.39302103 138:0.87765724 139:0.9923403 140:0.12007865 181:0.06977676 182:0.13990328 183:0.06873792 187:0.051638713 188:0.24964358 189:0.37307487 190:0.17319713 193:0.06977676 194:0.14060455 195:0.13920899 199:0.051638713 200:0.24964358 201:0.63237803 202:0.88687107 203:0.59030185 206:0.13782039 207:0.13645246 212:0.13161196 213:0.41853547 214:0.99325749 215:0.70245907 226:0.10993636 227:0.10993636 325:0.18116199 326:0.54120421 327:0.99779252 328:0.98310654 329:0.7089446 330:0.72579266 331:0.72701263 332:0.66482588 333:0.42885866 334:0.12633416 337:0.18116199 338:0.54120421 339:0.9922601 340:0.98760083 341:0.84718596 342:0.72821285 343:0.73063095 344:0.70651591 345:0.61385141 346:0.43452312 347:0.16091087 350:0.3553444 351:0.70831366 352:0.69554685 353:0.6965255 354:0.71379327 355:0.71616348 356:0.69252596 357:0.60169633 358:0.42914477 359:0.16091087 469:0.0030486861 470:0.094431749 471:0.22899698 472:0.16393058 473:0.036693928 474:0.0021020646 475:4.4438622e-05 476:3.8450754e-07 481:0.0030486861 482:0.094431749 483:0.22751073 484:0.2009147 485:0.078532587 486:0.015551688 487:0.0010710983 488:2.2359827e-05 489:0.12978415 490:0.26021884 491:0.12785191 494:0.044013489 495:0.14184228 496:0.12373148 497:0.041010198 498:0.015243744 499:0.0010498891 500:2.1917072e-05 501:0.42554989 502:0.55303527 503:0.40284081 512:0.42805914 513:0.86783907 514:0.84630856 515:0.3977137 523:0.38778293 524:0.95103964 525:1 526:0.57801694 534:0.10954542 535:0.72952371 536:0.78899775 537:0.67370073 538:0.13509388 546:0.41377577 547:0.64434196 548:0.69427975 549:0.1199749 557:0.070107651 558:0.53998441 559:0.60485934 560:0.41799868 569:0.14717756 570:0.41025525 571:0.50318881 572:0.093963629 615:0.99501248 616:0.99501248 617:0.97530991 627:0.97530991 628:0.99501248 629:0.97530991 713:0.99501248 714:0.99501248 715:0.97530991 
-0.006373833319850048 -0.009936528034989888 -0.01298289711926734 -0.009123944019845133 0.021935015142557 38:0.34279775 39:0.58221725 40:0.29597993 47:0.28880179 48:0.28308313 50:0.33878748 51:1 52:0.77955585 53:0.08272573 58:0.10366737 59:0.39246916 60:0.39041641 63:0.52936759 64:0.80763326 65:0.29828689 68:0.025075612 69:0.025075612 70:0.10161461 71:0.3867505 72:0.38469775 75:0.10751113 76:0.53515828 77:0.50831647 78:0.083297991 80:0.1037535 81:0.1026946 82:0.049528389 88:0.35648853 89:0.53798371 90:0.32509645 91:0.26284214 92:0.39267216 93:0.23390945 94:0.049036799 100:0.083297991 101:0.37784481 102:0.51011533 103:0.75625281 104:0.58421193 105:0.26040565 113:0.14385792 114:0.61319834 115:0.93292995 116:0.73066346 117:0.076046282 126:0.30140467 127:0.80783185 128:0.60219665 138:0.053276664 139:0.39089111 140:0.45125754 141:0.18306613 182:0.21333666 183:0.4936273 184:0.27535143 185:0.030240975 188:0.034971728 189:0.10915005 190:0.39950924 191:0.48373784 192:0.15635035 194:0.21095612 195:0.97147105 196:0.75082685 197:0.15630926 200:0.034279242 201:0.10698873 202:0.39474116 203:0.52912747 204:0.4129178 207:0.59384333 208:0.81522487 209:0.35077519 215:0.31348441 216:0.31037295 219:0.11343048 220:0.61391623 221:0.59409282 222:0.12571395 232:0.51400644 233:0.7808471 234:0.51739712 244:0.13167454 245:0.67205177 246:0.6782346 247:0.14030346 257:0.27099146 258:0.84760595 259:0.69833256 260:0.14030346 270:0.57501182 271:1 272:0.57611613 282:0.14430283 283:0.68764231 284:0.83257228 285:0.25902443 316:0.16843581 317:0.16843581 327:0.41459859 328:1 329:0.99233447 330:0.98621394 331:0.84062162 332:0.83783164 333:0.79732881 334:0.75129893 335:0.46239639 336:0.12874222 339:0.40638899 340:0.81509811 341:0.98259301 342:0.98291187 343:0.83500615 344:0.83783164 345:0.79732881 346:0.78458922 347:0.59967442 348:0.2637956 356:0.0034936372 357:0.022508177 358:0.064906458 359:0.18106232 360:0.147869 368:0.0034936372 369:0.022201189 370:0.037669817 371:0.04558338 372:0.014889781 381:0.0069004986 382:0.0068320083 460:0.036650637 461:0.036650637 471:0.046718154 472:0.17015787 473:0.17727282 474:0.099488902 475:0.015261309 476:0.0013305262 477:4.6556926e-05 479:0.12005009 480:0.11767294 483:0.045793073 484:0.13086361 485:0.1765398 486:0.098770392 487:0.015261309 488:0.0013305262 489:4.6556926e-05 490:0.51808143 491:0.63471588 492:0.29055565 500:0.1820836 501:0.5480762 502:0.87700602 503:0.81685207 504:0.45810625 512:0.52215855 513:0.88116061 514:0.88201518 515:0.51838072 516:0.16656296 523:0.42318795 524:0.90999105 525:1 526:0.52274545 534:0.10343716 535:0.74719649 536:0.86063107 537:0.60084808 546:0.20739281 547:0.5640559 548:0.69382575 549:0.13124575 558:0.10189719 559:0.30854649 560:0.30446022 604:0.50374993 605:0.50374993 616:0.50374993 617:0.5088127 618:0.49873753 627:0.50627499 628:0.50627499 629:0.9949876 630:0.48886187 639:0.49625007 640:0.50627499 641:0.49625007 690:0.50627499 691:0.50627499 692:0.49625007 702:0.49625007 703:0.50627499 704:0.49625007 715:0.50627499 716:0.50627499 717:0.49625007 
-0.02038023685157307 -0.01556696566531495 -0.01152873077792602 -0.003404808342971715 0.03252699262818477 37:0.20622089 38:0.20417406 45:0.30199906 46:0.30199906 49:0.20622089 50:0.20725458 51:0.10182927 57:0.8883247 58:0.88607635 59:0.596497 61:0.10132139 62:0.20315066 63:0.099812914 68:0.086442876 69:0.89441848 70:1 71:0.7581597 80:0.34640276 81:0.59845218 82:0.67614334 83:0.16426481 91:0.28777526 92:0.62858539 93:0.63549741 94:0.28034105 102:0.10734334 103:0.60951955 104:0.5804856 105:0.35825449 114:0.46741585 115:0.67919191 116:0.62817997 117:0.09278003 125:0.12200609 126:0.72554792 127:0.6953013 128:0.44619366 137:0.16260971 138:0.52630308 139:0.64149305 140:0.11608899 181:0.61571741 182:0.60983992 189:0.65417721 190:0.64657063 193:0.84911949 194:1 195:0.69217712 201:0.65194443 202:0.65576911 203:0.26734536 205:0.29094573 206:0.98774452 207:0.68592542 213:0.26601197 214:0.53335733 215:0.26205157 325:0.32615653 326:0.70226089 327:0.75432462 328:0.75465204 329:0.71976887 330:0.70253135 331:0.73561956 332:0.73038037 333:0.75195247 334:0.39206458 337:0.45014571 338:0.95086074 339:1 340:0.75842751 341:0.74018376 342:0.70666894 343:0.73561956 344:0.73374784 345:0.87088454 346:0.58230944 347:0.068198575 349:0.13728726 350:0.75488727 351:0.98504811 352:0.74340964 353:0.72552714 354:0.69267596 355:0.70915347 356:0.71921866 357:0.48474141 358:0.20554195 359:0.066848153 469:0.10148937 470:0.10391684 471:0.0033893409 472:0.018493596 473:0.055524514 474:0.070595946 475:0.05678706 476:0.068018678 477:0.066159978 478:0.023422799 481:0.10148937 482:0.10510177 483:0.05356031 484:0.018493596 485:0.055524514 486:0.072526541 487:0.05678706 488:0.067574834 489:0.41871335 490:0.37219576 491:0.11460095 493:0.049864223 494:0.10302062 495:0.052499745 496:0.00033773989 497:0.036503625 498:0.07109042 499:0.052228771 500:0.1431076 501:0.76732642 502:0.61626397 503:0.24091954 512:0.57656447 513:0.84137102 514:0.80727726 515:0.12420755 523:0.4209205 524:0.99108869 525:1 526:0.42083216 534:0.13120085 535:0.82039297 536:0.84552101 537:0.56343625 546:0.51209084 547:0.77799329 548:0.80123963 549:0.13381251 557:0.16933707 558:0.79653224 559:0.76548563 560:0.50878693 569:0.33952294 570:0.71124798 571:0.82745988 572:0.12053366 626:1 627:0.99004983 638:0.99004983 639:0.99004983 713:0.99501248 714:0.99501248 715:0.97530991 
-0.008875018732139748 -0.01376269449362807 -0.02711907593518587 -0 0.02353214388996861 45:0.0098981162 46:0.0098981162 57:0.63580679 58:0.63580679 59:0.34969485 69:0.82056427 70:0.81868492 71:0.73037096 80:0.11236667 81:0.30954785 82:0.52381731 83:0.37539768 91:0.22652578 92:0.40170834 93:0.28721415 94:0.092798353 102:0.10576825 103:0.41236179 104:0.43632953 105:0.27193528 114:0.46319519 115:0.53796701 116:0.44854662 117:0.078165448 125:0.46638601 126:0.8195927 127:0.6614956 128:0.2068359 137:0.85187898 138:1 139:0.98299937 181:0.23203087 182:0.55235647 183:0.3753271 184:0.091688832 185:0.031056167 186:0.00055293421 187:3.7465256e-05 188:0.12195973 189:0.64887385 190:0.52416161 193:0.22917714 194:0.54950275 195:0.57937804 196:0.10148667 197:0.061828564 198:0.001042016 199:7.5875155e-05 200:0.12195973 201:0.99849123 202:0.96114635 203:0.68710674 206:0.39174604 207:0.42943867 208:0.099477096 209:0.060604276 210:0.0010213827 211:7.4372726e-05 212:0.040033936 213:0.34269449 214:0.94903727 215:0.68028692 325:0.37227336 326:0.79285017 327:0.824256 328:0.83514215 329:0.85918408 330:0.84113165 331:0.837443 332:0.82966598 333:0.67588477 334:0.27122162 337:0.36811603 338:0.78869285 339:1 340:0.83514215 341:0.85918408 342:0.86376173 343:0.84340527 344:0.84006989 345:0.78628302 346:0.4646216 347:0.10620077 350:0.36734628 351:0.77847932 352:0.81727023 353:0.82850935 354:0.8466581 355:0.82670472 356:0.82343539 357:0.77071357 358:0.45542148 359:0.10409786 474:0.033863364 475:0.052191695 476:0.020027234 477:0.0016652615 486:0.033863364 487:0.052191695 488:0.037101632 489:0.21235796 490:0.2106927 491:0.063623242 498:0.016637903 499:0.049997107 500:0.03636697 501:0.73325793 502:0.72633688 503:0.37883054 512:0.34997319 513:0.86343767 514:0.83796248 515:0.3123493 523:0.48977509 524:1 525:0.84877949 526:0.34239532 534:0.15776419 535:0.80360153 536:0.98591719 537:0.66300655 546:0.59848503 547:0.76512164 548:0.77668408 549:0.16031375 557:0.22893638 558:0.66383447 559:0.7217312 560:0.29685935 569:0.2994162 570:0.44673113 571:0.44073185 614:0.99501248 615:0.97530991 626:0.99501248 627:0.99501248 638:0.97530991 639:0.97530991 713:0.99501248 714:0.99501248 715:0.97530991 
-0.005557211050182803 -0.009765651385917107 -0.03601885546567311 -0 0.02016616475997179 46:0.25468709 47:0.24964395 57:0.11603737 58:0.88717279 59:0.75586591 69:0.2950761 70:0.99733905 71:0.99270906 80:0.089790832 81:0.29892011 82:0.61103082 83:0.47939595 91:0.090326257 92:0.20350665 93:0.23781094 94:0.15804879 102:0.097091386 103:0.23573146 104:0.23517155 105:0.13992154 106:0.031595683 113:0.095284586 114:0.33503091 115:0.28484498 116:0.2033418 117:0.029121589 125:0.33816558 126:0.47744556 127:0.37904728 128:0.046993174 137:0.50288943 138:0.66672756 139:0.2565459 181:0.078698227 182:0.3065367 183:0.43897709 184:0.28217483 185:0.070168518 189:0.53522307 190:0.87851066 191:0.34017597 193:0.078698227 194:0.3065367 195:0.43897709 196:0.4323822 197:0.17661454 198:0.00023338126 201:0.53522307 202:1 203:0.80318755 206:0.15544173 207:0.40567171 208:0.42382046 209:0.17311734 210:0.00022876 213:0.18614561 214:0.98246114 215:0.78954584 325:0.22530022 326:0.70254558 327:0.97136665 328:0.99501248 329:0.94112445 330:0.88613277 331:0.89685827 332:0.95163292 333:0.88091006 334:0.41824906 335:0.037190228 337:0.22530022 338:0.70254558 339:0.97136665 340:0.99740765 341:0.9742687 342:0.91799654 343:0.89685827 344:0.95163292 345:0.97941254 346:0.67218939 347:0.17053436 350:0.44832689 351:0.93261678 352:0.97765765 353:0.95497689 354:0.89981899 355:0.87821395 356:0.9100358 357:0.96001887 358:0.65887914 359:0.16715756 469:0.015396889 470:0.050454211 471:0.034363141 472:0.01752739 473:0.052670025 474:0.069665371 475:0.066075861 476:0.046061591 477:0.01459704 478:2.7404788e-05 481:0.015396889 482:0.050608952 483:0.050301009 484:0.01752739 485:0.052670025 486:0.070287024 487:0.06974075 488:0.063062097 489:0.11855615 490:0.25116965 491:0.14426872 494:0.049606828 495:0.049304983 497:0.03461943 498:0.068895248 499:0.068359791 500:0.061813384 501:0.37365096 502:0.51718909 503:0.37545772 512:0.4306261 513:0.83699112 514:0.75427586 515:0.32907279 523:0.42928185 524:1 525:0.99770285 526:0.56065269 534:0.26805717 535:0.83768544 536:0.9905812 537:0.71170386 538:0.13999974 545:0.12364549 546:0.64834449 547:0.68456793 548:0.68592138 549:0.13760172 557:0.35095043 558:0.60532846 559:0.62413921 560:0.12974227 569:0.31657817 570:0.5621378 571:0.35319786 616:0.99501248 617:0.97530991 628:0.99501248 629:0.99501248 640:0.97530991 641:0.97530991 713:1 714:0.99004983 
-0 -0 -0.06673647000712325 -0.1450792553069535 0 57:0.24079247 58:0.7219148 59:0.47159547 69:0.52420294 70:0.99896243 71:0.82556553 80:0.064475387 81:0.42880499 82:0.7121671 83:0.54594714 92:0.24198387 93:0.34132547 94:0.37302026 95:0.091090035 103:0.14406873 104:0.31827949 105:0.287902 106:0.12047097 114:0.12001365 115:0.30340514 116:0.28310649 117:0.15243822 125:0.050385833 126:0.21075546 127:0.24895758 128:0.2154187 129:0.046448402 137:0.14710428 138:0.22615175 139:0.26345484 140:0.039429455 181:0.19524035 182:0.41631196 183:0.21871034 184:0.0016090778 185:0.00011856862 186:8.0899616e-06 187:5.8986915e-07 188:0.092997042 189:0.51622961 190:0.42034365 193:0.19524035 194:0.41631196 195:0.41603766 196:0.026236565 197:0.0002246088 198:1.515908e-05 199:1.1946112e-06 200:0.092997042 201:0.79495717 202:0.96916168 203:0.72012879 206:0.38563127 207:0.40779957 208:0.025717046 209:0.00022016125 210:1.485891e-05 211:1.1709563e-06 213:0.27320838 214:0.99022029 215:0.74600929 226:0.030697387 227:0.030697387 325:0.18184004 326:0.54585737 327:0.8606737 328:0.9977142 329:0.85970848 330:0.71244095 331:0.71238929 332:0.72625775 333:0.59765193 334:0.23368383 337:0.18184004 338:0.54585737 339:0.85799214 340:0.99924922 341:0.99737529 342:0.72994565 343:0.71591632 344:0.72625775 345:0.67953372 346:0.45023026 347:0.13474408 350:0.35916351 351:0.7143216 352:0.71464175 353:0.7154334 354:0.71549176 355:0.70174023 356:0.70198681 357:0.66607805 358:0.44196188 359:0.13270994 469:0.00017439997 470:0.043210521 471:0.17582666 472:0.17658288 473:0.087630369 474:0.025961168 475:0.03874089 476:0.012804286 477:2.4079367e-05 481:0.00017439997 482:0.043210521 483:0.17494818 484:0.21590043 485:0.13133492 486:0.025961168 487:0.039104335 488:0.025881422 489:0.098015362 490:0.19647375 491:0.096532382 494:0.0043000202 495:0.086222246 496:0.12486905 497:0.042839146 498:0.01275536 499:0.038330017 500:0.025368936 501:0.44526844 502:0.5413944 503:0.30317951 512:0.13197913 513:0.60666718 514:0.67031265 515:0.4165439 524:0.53765262 525:0.65926641 526:0.62286325 527:0.11491411 535:0.42318146 536:0.82072907 537:0.67197346 538:0.25809278 546:0.43549595 547:0.9981694 548:0.84680682 549:0.41156791 557:0.14362297 558:0.72289034 559:0.86739477 560:0.70820638 561:0.13492139 569:0.28171198 570:0.5713385 571:0.70945936 572:0.14088172 616:1 617:0.99004983 628:0.99004983 629:0.99004983 713:0.99501248 714:0.99501248 715:0.97530991 
-0.006797283582584667 -0.01341131761852487 -0.006751608273082713 -0 0.02529003856256231 46:0.19629384 47:0.19240696 57:0.22983951 58:0.62341111 59:0.52807023 68:0.1052395 69:0.5296213 70:0.70909328 71:0.61390289 80:0.33621958 81:0.52922674 82:0.49397281 83:0.087942967 91:0.15955203 92:0.63949157 93:0.56343369 94:0.30947457 103:0.66947125 104:0.91427066 105:0.6876764 115:0.91447705 116:0.98128859 117:0.59271131 126:0.46208227 127:0.86603386 128:0.96252307 129:0.15483655 138:0.78076937 139:1 140:0.98440592 189:0.49839177 190:0.84152897 191:0.33933036 201:0.49839177 202:1 203:0.83917762 213:0.15088501 214:0.9832077 215:0.82556982 282:0.048099296 283:0.048099296 284:0.047146866 326:0.080458804 327:0.15952871 328:0.41519205 329:0.67742554 330:0.70705821 331:0.74989658 332:0.7706748 333:0.74584803 334:0.36770839 335:0.0094309076 337:0.17289727 338:0.60246414 339:0.84547673 340:0.99864548 341:0.88107075 342:0.70705821 343:0.74989658 344:0.7735213 345:0.77554533 346:0.56473505 347:0.1754977 349:0.16947368 350:0.51166894 351:0.8045195 352:0.95343858 353:0.83223747 354:0.6741188 355:0.71898454 356:0.75820455 357:0.7601885 358:0.55355255 359:0.17202261 470:0.18700965 471:0.56290373 472:0.43789525 473:0.18422544 474:0.10617031 475:0.050895205 476:0.0025756972 477:0.00013067723 478:6.9421082e-06 481:0.12748351 482:0.59076292 483:0.89521624 484:0.82403914 485:0.34434 486:0.11509593 487:0.078951398 488:0.026699172 489:0.36314137 490:0.50247858 491:0.31642937 493:0.12495917 494:0.39575842 495:0.79849409 496:0.62805198 497:0.15823257 498:0.11281688 499:0.077388056 500:0.16130335 501:0.86630597 502:0.83485882 503:0.49567946 512:0.48552712 513:0.82448187 514:0.8417216 515:0.1757007 523:0.14779913 524:0.76663739 525:0.80067368 526:0.48439039 535:0.5192279 536:0.81164071 537:0.72312956 547:0.57611649 548:0.76739362 549:0.5327592 558:0.1688647 559:0.41231378 560:0.53280714 561:0.1197503 570:0.2735519 571:0.37734143 572:0.37187479 615:0.99501248 616:0.99501248 617:0.97530991 627:0.97530991 628:0.99501248 629:0.97530991 714:0.99501248 715:0.99501248 716:0.97530991 
-0 -0 -0 -0 0.001170053780923106 38:0.130116 39:0.12809763 46:0.15340504 47:0.15340504 48:0.086158115 50:0.16904929 51:0.25915276 52:0.11178366 57:0.045981161 58:0.27437206 59:0.22687162 60:0.15101273 62:0.099912501 63:0.30412946 64:0.28600188 65:0.049529676 69:0.19573205 70:0.26964667 71:0.23201854 72:0.063570405 75:0.14506962 76:0.34694146 77:0.20033029 80:0.13244572 81:0.33774408 82:0.34509853 83:0.12742834 88:0.20054558 89:0.29869761 90:0.097174642 92:0.37401559 93:0.42695522 94:0.31756993 100:0.049740697 101:0.24773962 102:0.24611624 103:0.19635732 104:0.52737266 105:0.49602264 106:0.14735078 113:0.19681362 114:0.39443135 115:0.67987393 116:0.5733627 117:0.49345078 125:0.047655998 126:0.39942099 127:0.97414114 128:0.87257506 129:0.55149371 138:0.15290302 139:0.48427314 140:0.71998735 141:0.32539511 182:0.28883784 183:0.28621976 190:0.22881651 191:0.22813488 192:0.15713789 194:0.4462434 195:0.72883404 196:0.45462913 202:0.22428564 203:0.22813488 204:0.15713789 206:0.15428872 207:0.86359528 208:0.86627909 209:0.13572844 219:0.40501466 220:0.93881777 221:0.53370463 232:0.53641769 233:0.79895045 234:0.26750744 244:0.13341934 245:0.67322418 246:0.6683952 247:0.1313941 257:0.53396605 258:0.90360815 259:0.5328073 269:0.13291275 270:0.72362143 271:0.75455185 272:0.22825602 282:0.21890228 283:0.45979521 284:0.33259571 316:0.093465301 317:0.092537619 326:0.20789404 327:0.63049833 328:1 329:0.89493124 330:0.68701229 331:0.67325889 332:0.71054162 333:0.72880967 334:0.72615046 335:0.5203394 336:0.15591386 338:0.20789404 339:0.62879066 340:0.94630085 341:0.9794948 342:0.68609842 343:0.65992747 344:0.69647195 345:0.72418447 346:0.72615046 347:0.5203394 348:0.15591386 350:0.053093911 351:0.37819638 352:0.64016737 353:0.31492157 460:0.29280458 461:0.28989838 470:0.11552437 471:0.41046472 472:0.78089853 473:0.63450857 474:0.24192677 475:0.088190569 476:0.060704113 477:0.020686438 478:0.27900149 479:0.27897606 480:0.12055696 482:0.11552437 483:0.40755851 484:0.72225264 485:0.68314786 486:0.23906384 487:0.088190569 488:0.060704113 489:0.15545645 490:0.74156911 491:0.58203099 492:0.27498837 495:0.22817932 496:0.27993099 497:0.053387761 501:0.58949821 502:0.89227769 503:0.75861042 504:0.15137346 512:0.26505081 513:0.82896735 514:1 515:0.44213778 524:0.59845718 525:0.76393571 526:0.64517896 535:0.18900188 536:0.61581136 537:0.65292355 538:0.2378984 547:0.32304619 548:0.47145636 549:0.46615791 559:0.25811037 560:0.35294303 561:0.28576888 571:0.12127737 572:0.18081931 573:0.11705344 604:0.49750002 605:0.49750002 614:0.49999375 615:0.49009321 616:0.49750002 617:0.50249998 618:0.49254981 626:0.49999375 627:0.49999375 629:0.49254981 630:0.48279667 638:0.49009321 639:0.49009321 702:0.49750002 703:1 704:0.49750002 714:0.49750002 715:1 716:0.99004983 
-0.002898848047722597 -0.008049521319330131 -0.09036221848619913 -0.2089389119802208 0.01149546931879527 57:0.2403754 58:0.77480193 59:0.52384417 69:0.47176944 70:0.99966922 71:0.8761654 80:0.09572615 81:0.38708362 82:0.79241367 83:0.6293693 91:0.032640445 92:0.16067943 93:0.25062777 94:0.24781548 95:0.059606955 102:0.039892611 103:0.18572322 104:0.17655453 105:0.15880999 106:0.031972617 114:0.1952063 115:0.30489343 116:0.23508299 117:0.063830266 125:0.14418468 126:0.29653917 127:0.28461343 128:0.1284947 137:0.15386083 138:0.20626721 139:0.14753522 181:0.059473593 182:0.29533917 183:0.30856827 184:0.10360932 185:0.029151598 186:0.001536143 187:8.4258642e-05 188:0.073529192 189:0.42088361 190:0.34477023 193:0.058295937 194:0.29297795 195:0.34378763 196:0.15244837 197:0.056022872 198:0.002944076 199:0.00016296994 200:0.073529192 201:0.69825661 202:0.97569204 203:0.76237979 206:0.12411104 207:0.22183339 208:0.14942969 209:0.054913545 210:0.0028857794 211:0.00015974292 212:7.3380691e-06 213:0.27188065 214:0.99108845 215:0.78189131 226:0.023288628 227:0.023288628 325:0.16057162 326:0.73928219 327:0.98955242 328:0.74393654 329:0.66276902 330:0.66424311 331:0.66432552 332:0.66432938 333:0.55569463 334:0.22265267 337:0.15739209 338:0.73120619 339:0.9998496 340:0.85551618 341:0.66276902 342:0.66683706 343:0.66761435 344:0.66765742 345:0.62829654 346:0.44233352 347:0.14657069 350:0.16357577 351:0.4765083 352:0.62375953 353:0.63914123 354:0.6536328 355:0.6543947 356:0.65443692 357:0.61585543 358:0.43459119 359:0.14466474 470:0.11350021 471:0.16966326 472:0.11045598 482:0.11239289 483:0.16970161 484:0.16554452 489:0.10277635 490:0.14921377 491:0.045517896 494:0.0018985642 495:0.056987105 496:0.053997715 501:0.49347143 502:0.5373258 503:0.27605664 512:0.44398662 513:0.97680844 514:0.82947281 515:0.4016287 523:0.14636512 524:0.73709261 525:0.8676913 526:0.69326042 527:0.12596184 534:0.14219068 535:0.72639411 536:0.73541632 537:0.72989794 538:0.14378225 546:0.55844925 547:0.98503466 548:0.86212568 549:0.2862254 557:0.43795028 558:0.84550078 559:0.83238282 560:0.41813579 569:0.59584021 570:0.73203222 571:0.40759719 615:1 616:0.99004983 627:0.99004983 628:0.99004983 713:1 714:0.99004983 
-0.003428719356005105 -0.005810527000072382 -0 -0 0.006516982935867106 38:0.34146096 39:0.33806337 50:0.33806337 51:0.33806337 58:0.73166611 59:0.71717815 69:0.27651514 70:1 71:0.90828322 80:0.13195503 81:0.45060818 82:0.72404564 83:0.58368718 91:0.080071364 92:0.26272008 93:0.27513667 94:0.22400448 95:0.044822791 102:0.10367132 103:0.42556422 104:0.36924301 105:0.29579506 106:0.04254289 114:0.31477123 115:0.55128091 116:0.52505907 117:0.15658415 125:0.1830631 126:0.49954472 127:0.58893807 128:0.28161447 137:0.23215892 138:0.44555464 139:0.39150538 182:0.80000969 183:0.99833181 184:0.28548923 185:0.081772909 186:0.0047707925 187:0.00017381475 189:0.18297947 190:0.18297947 194:0.79327061 195:0.99172618 196:0.51141938 197:0.15607865 198:0.0093009607 199:0.00035201205 201:0.52199756 202:0.91141194 203:0.8507911 206:0.22584972 207:0.58606005 208:0.5012926 209:0.15298809 210:0.0091167894 211:0.00034504174 213:0.33230508 214:0.90620107 215:0.89590088 226:0.047732694 227:0.047732694 315:0.11295074 316:0.11071417 326:0.49194495 327:1 328:0.84634959 329:0.68118389 330:0.67183868 331:0.65910327 332:0.67215732 333:0.68477671 334:0.3406843 338:0.4862006 339:0.87912407 340:0.91668812 341:0.68118389 342:0.68628246 343:0.66240721 344:0.67215732 345:0.7857136 346:0.65705578 347:0.30923626 350:0.081200131 351:0.33983913 352:0.56517603 353:0.64324988 354:0.67269316 355:0.64929067 356:0.64960287 357:0.67451495 358:0.64684359 359:0.30587177 425:0.020355808 426:0.020153264 459:0.055750241 460:0.054646312 470:0.10575063 471:0.21654048 472:0.16586874 474:0.023922955 475:0.047608466 476:0.023753769 477:7.0564861e-05 478:3.5194489e-06 482:0.10365663 483:0.21537161 484:0.16476481 486:0.023922955 487:0.047608466 488:0.035920495 489:0.01188465 490:0.089069201 491:0.087302063 498:0.011753936 499:0.035320725 500:0.035209221 501:0.42900582 502:0.51523516 503:0.2294695 512:0.43179221 513:1 514:0.80250731 515:0.36881331 523:0.14060865 524:0.71443918 525:0.86054039 526:0.70830227 527:0.13831339 534:0.1291746 535:0.65990025 536:0.6857855 537:0.69325204 538:0.13921174 546:0.37012745 547:0.75270467 548:0.77400847 549:0.26370448 557:0.26623795 558:0.63080807 559:0.74373455 560:0.37069918 569:0.40703209 570:0.6523447 571:0.5051937 603:0.99501248 604:0.97530991 615:0.99501248 616:0.99501248 627:0.97530991 628:0.97530991 713:1 714:0.99004983 
-0.01459939124108797 -0.01372578109928436 -0.009559378080429832 -0.0333590722148981 0.02018685557250965 57:0.29803269 58:0.29803269 59:0.209552 69:0.59883497 70:0.59447144 71:0.37595436 80:0.43117034 81:0.72936819 82:0.51628997 83:0.16475075 92:0.74371345 93:0.73449924 94:0.38462459 103:0.33134421 104:0.6435034 105:0.76976495 106:0.14501954 115:0.83285031 116:0.82908847 117:0.65203395 126:0.32683731 127:0.99189034 128:0.99669371 129:0.32684042 138:0.64726577 139:0.98050519 140:0.81021061 181:0.07590588 182:0.73985278 183:0.99953451 184:0.64395545 185:0.56846113 186:0.26208704 193:0.074402843 194:0.72925107 195:0.99053544 196:0.91130312 197:0.61332807 198:0.52892352 199:0.46594429 200:0.40654332 201:0.61947938 202:0.52818923 203:0.28870227 207:0.37515249 208:0.69584132 209:0.60118336 210:0.52087742 211:0.46354115 212:0.39849323 213:0.60721286 214:0.52818923 215:0.28870227 325:0.14717769 326:0.5893765 327:1 328:0.81275222 329:0.52041574 330:0.26257604 337:0.14426337 338:0.5805689 339:0.98839641 340:0.97839331 341:0.65730247 342:0.53377494 343:0.54838235 344:0.59167799 345:0.62082864 346:0.46163841 347:0.15328615 351:0.2855653 352:0.53226084 353:0.50468153 354:0.5206069 355:0.53752365 356:0.57996198 357:0.60853541 358:0.46163841 359:0.15328615 470:0.018619024 471:0.074849878 472:0.055487937 473:0.018341823 482:0.018619024 483:0.074106961 484:0.074477491 485:0.018341823 489:0.38614528 490:0.38614528 491:0.18972267 495:0.036775585 496:0.036410572 501:0.93027174 502:0.92315637 503:0.56528292 512:0.46229549 513:1 514:0.9031554 515:0.37178465 524:0.73900517 525:0.76922933 526:0.4841363 535:0.25777516 536:0.54480393 537:0.69356398 538:0.14832227 547:0.63642475 548:0.64815634 549:0.51475406 558:0.26179652 559:0.76640146 560:0.76299468 561:0.24866273 570:0.52247731 571:0.77745685 572:0.63899122 615:0.99501248 616:0.99501248 617:0.97530991 627:0.97530991 628:0.99501248 629:0.97530991 714:1 715:0.99004983 
-0.007466081065097887 -0.00110083246289796 -0.01822676878817887 -0 0.003780416642750144 57:0.61677328 58:0.61677328 59:0.30303588 69:0.99720208 70:0.99284467 71:0.77078788 80:0.31513681 81:0.69394705 82:0.78878202 83:0.46172142 91:0.11130177 92:0.65321573 93:0.53725568 94:0.30562343 103:0.43545462 104:0.66910565 105:0.65858076 106:0.097303628 114:0.19899835 115:0.62524108 116:0.7482552 117:0.32949797 125:0.056681598 126:0.39819501 127:0.4841227 128:0.40517342 137:0.09745451 138:0.24176071 139:0.33808258 140:0.096317136 181:0.12548835 182:0.73229547 183:0.76418168 184:0.16379856 185:0.001649501 186:0.00012346158 187:1.0129697e-05 188:0.12705894 189:0.56653254 190:0.43707067 193:0.12300352 194:0.7267527 195:1 196:0.52376985 197:0.031175032 198:0.00088569687 199:6.6754748e-05 200:0.12705894 201:0.83923857 202:0.79440044 203:0.53595206 206:0.22226357 207:0.71242519 208:0.51605966 209:0.030557725 210:0.00086815889 211:6.5432915e-05 212:0.046780728 213:0.29104934 214:0.7840702 215:0.53063252 325:0.1896668 326:0.67692762 327:0.88654789 328:0.82976086 329:0.85315458 330:0.85378313 331:0.84049752 332:0.80327382 333:0.62389386 334:0.23354168 337:0.18591115 338:0.67072303 339:0.99492047 340:0.93834043 341:0.85683175 342:0.85802222 343:0.84539678 344:0.84414855 345:0.75775559 346:0.41616419 347:0.085891764 350:0.1693513 351:0.6559086 352:0.90429179 353:0.83986534 354:0.84103224 355:0.8286568 356:0.82743328 357:0.74275102 358:0.40799057 359:0.084256645 474:0.011929762 475:0.035849083 476:0.024272942 477:0.0005793262 486:0.011929762 487:0.035849083 488:0.036441306 489:0.14199866 490:0.14141934 491:0.030805625 499:0.023563209 500:0.03571972 501:0.57305006 502:0.56730284 503:0.27889921 512:0.44077196 513:0.86447638 514:0.6843328 515:0.24593728 523:0.14013799 524:0.85912683 525:0.7257464 526:0.43400788 535:0.57332801 536:0.85296101 537:0.84866901 538:0.14193483 546:0.30783241 547:0.88359586 548:1 549:0.41534922 557:0.17936287 558:0.82112991 559:0.78045706 560:0.59143827 569:0.3596248 570:0.69663639 571:0.84816023 572:0.1555385 627:1 628:0.99004983 639:0.99004983 640:0.99004983 713:0.99501248 714:0.99501248 715:0.97530991 
-0 -0.002088853293809565 -0 -0 0.001194822182666017 45:0.30059836 46:0.30059836 57:0.7478723 58:0.7478723 59:0.59373039 69:0.80966211 70:1 71:0.86942807 80:0.30618118 81:0.66748185 82:0.61116493 83:0.27874477 91:0.11240976 92:0.64307937 93:0.53093909 94:0.31224024 103:0.49593041 104:0.71765927 105:0.66310613 106:0.098714182 114:0.12596401 115:0.63417901 116:0.73279266 117:0.47148788 126:0.40389987 127:0.57202824 128:0.61011493 129:0.12364877 137:0.024666132 138:0.32354725 139:0.45052951 140:0.23001735 181:0.020395393 182:0.72082845 183:0.99501248 184:0.32180428 185:0.022454971 186:0.0011392612 187:1.1821265e-05 189:0.33514984 190:0.33514984 193:0.020395393 194:0.72082845 195:0.99501248 196:0.57381527 197:0.17196673 198:0.011781578 199:0.00057423711 200:5.8957084e-06 201:0.42262147 202:0.42598978 203:0.41755461 206:0.45110668 207:0.85793661 208:0.56245297 209:0.16856156 210:0.011548287 211:0.00056286646 212:5.7789656e-06 213:0.08573957 214:0.41928667 215:0.41098424 325:0.23117493 326:0.79218633 327:0.99621106 328:0.90584959 329:0.93527794 330:0.9373358 331:0.90016062 332:0.90015917 333:0.93672574 334:0.46638134 337:0.23117493 338:0.78977719 339:0.99940954 340:0.94190618 341:0.93797457 342:0.94192994 343:0.90554695 344:0.90416178 345:0.94072931 346:0.70598503 347:0.2326026 350:0.45660788 351:0.86095823 352:0.86495379 353:0.91940143 354:0.92327848 355:0.88761592 356:0.88625818 357:0.92210162 358:0.69200559 359:0.22799676 469:0.08349677 470:0.53922673 471:0.4497089 472:0.14865359 474:0.031473316 475:0.094577707 476:0.063671399 477:0.0012145404 478:3.241679e-05 481:0.08349677 482:0.53320567 483:0.53687935 484:0.14865359 486:0.031473316 487:0.094577707 488:0.095179019 489:0.22850313 490:0.227321 491:0.11006008 494:0.23131955 495:0.22968266 499:0.06216489 500:0.093294348 501:0.63219069 502:0.62675524 503:0.35392205 512:0.42004435 513:0.81913673 514:0.65807455 515:0.24160737 523:0.13234103 524:0.82306039 525:0.69892408 526:0.41451129 535:0.51267255 536:0.78089838 537:0.80815233 538:0.13495896 546:0.13423231 547:0.6369842 548:0.76677133 549:0.51084518 558:0.6263344 559:0.74216541 560:0.64872767 561:0.11926465 569:0.18858657 570:0.86421051 571:0.99598327 572:0.27864602 614:0.99501248 615:0.99501248 616:0.97530991 626:0.97530991 627:0.99501248 628:0.97530991 713:0.99501248 714:0.99501248 715:0.97530991 
-0.01143181164111124 -0.02163040029836512 -0.01523429793113718 -0.006545009897033376 0.03496741698819041 46:0.31777459 47:0.31148223 57:0.036208099 58:0.70973973 59:0.66019481 68:0.049061457 69:0.14546083 70:0.74540787 71:0.72190808 79:0.080146689 80:0.30861848 81:0.28519583 82:0.22838801 83:0.092805765 91:0.30274511 92:0.47799398 93:0.43082675 94:0.11083415 102:0.2662401 103:0.59849175 104:0.62245551 105:0.2658268 113:0.14030658 114:0.68663071 115:0.65036794 116:0.48211575 125:0.58919439 126:0.86614698 127:0.69860362 128:0.1288628 136:0.12934123 137:0.72243071 138:1 139:0.56893528 181:0.36442996 182:0.99501248 183:0.62333015 189:0.16920771 190:0.68050157 191:0.50116956 193:0.36442996 194:0.99501248 195:0.99404286 196:0.26169576 201:0.16920771 202:0.85257898 203:0.84918313 206:0.71980812 207:0.97435949 208:0.25651384 214:0.83905884 215:0.83574164 325:0.22146394 326:0.71984479 327:0.99343505 328:0.99501012 329:0.99501243 330:0.99501247 331:0.99501248 332:0.99501248 333:0.99501248 334:0.73713682 335:0.23731773 337:0.22146394 338:0.71984479 339:0.99343505 340:0.99998635 341:0.9999988 342:0.99999997 343:1 344:1 345:1 346:0.99149312 347:0.48899939 350:0.4633528 351:0.95154242 352:0.9801853 353:0.98019749 354:0.98019864 355:0.98019867 356:0.98019867 357:0.98019867 358:0.97186024 359:0.47931656 469:0.016833764 470:0.05284174 471:0.073948327 472:0.037896175 473:7.2319144e-07 474:1.7714628e-08 475:1.6778164e-09 476:1.3255509e-10 477:6.3164466e-12 478:4.3598862e-13 481:0.016833764 482:0.05284174 483:0.073948327 484:0.0573678 485:0.018900621 486:3.2666233e-08 487:3.1353987e-09 488:2.5628173e-10 489:0.14332738 490:0.42324318 491:0.2743731 494:0.033249407 495:0.0706249 496:0.056231841 497:0.018526364 498:3.2019399e-08 499:3.0733136e-09 500:0.14562305 501:0.72643582 502:0.8521398 503:0.56161447 511:0.12493032 512:0.67772515 513:0.9791359 514:0.99175527 515:0.41712851 523:0.36625841 524:0.76575824 525:0.94020348 526:0.41758875 534:0.22395149 535:0.57914524 536:0.72650308 537:0.37712292 545:0.10578727 546:0.54303101 547:0.5618919 548:0.4492559 557:0.41967522 558:0.63102523 559:0.53054796 560:0.10498274 568:0.11003052 569:0.5323953 570:0.74120339 571:0.41304005 615:0.99004983 616:0.99004983 627:0.99004983 628:1 629:0.98019867 640:0.98019867 641:0.96078944 712:0.99501248 713:0.99501248 714:0.97530991 
-0.0129421900974219 -0.0181865498533859 -0.03189100940964536 -0.02628205308943598 0.0557579697812141 38:0.011082022 39:0.010971754 50:0.010971754 51:0.010971754 58:0.3134539 59:0.3072471 69:0.10416791 70:0.5195205 71:0.450632 80:0.083706952 81:0.22184489 82:0.54762796 83:0.48027864 92:0.40352454 93:0.43286133 94:0.26646767 95:0.035143502 103:0.32035601 104:0.63616845 105:0.55049831 106:0.16369376 115:0.83178045 116:0.82494452 117:0.59675195 126:0.15772275 127:1 128:0.85372694 129:0.32924585 138:0.35841153 139:0.86377611 140:0.78536797 182:0.74656424 183:0.83407384 184:0.097153788 194:0.74074632 195:0.99382164 196:0.4878892 197:0.16612592 198:0.10312293 199:0.071785924 200:0.11980456 201:0.44068707 202:0.57731116 203:0.2490346 206:0.28656024 207:0.64114064 208:0.48278202 209:0.16612592 210:0.10300146 211:0.071785924 212:0.11743227 213:0.43495833 214:0.64092639 215:0.48880026 226:0.39890453 227:0.39593691 316:0.14069456 317:0.20982126 318:0.069126697 326:0.41793775 327:0.72150747 328:0.51466994 329:0.36704669 330:0.13999635 338:0.41274584 339:0.92101006 340:1 341:0.85323007 342:0.64016892 343:0.51997557 344:0.51836843 345:0.53504925 346:0.36427011 347:0.093889774 350:0.064196203 351:0.34613103 352:0.51356849 353:0.4955443 354:0.50294469 355:0.50967936 356:0.51836843 357:0.52634181 358:0.47310674 359:0.25742496 370:0.16216543 371:0.16029697 460:0.17353737 461:0.25880054 462:0.085263175 470:0.18495222 471:0.33237446 472:0.41073303 473:0.43320777 474:0.17267616 482:0.18128992 483:0.325793 484:0.32430345 485:0.42803184 486:0.16925695 490:0.1272944 491:0.12477381 501:0.50501779 502:0.7964752 503:0.45653362 512:0.16697578 513:0.83913206 514:0.96608491 515:0.62107719 524:0.56169703 525:0.77900272 526:0.80265098 527:0.16375607 535:0.21477166 536:0.60401279 537:0.67428562 538:0.29733926 547:0.47373777 548:0.50485198 549:0.41233644 558:0.11160028 559:0.55666936 560:0.44918458 561:0.17917794 570:0.40162856 571:0.6728228 572:0.52379631 605:0.99501248 606:0.97530991 617:0.99501248 618:0.99501248 629:0.97530991 630:0.97530991 714:1 715:0.99004983 
-0.0009564151840772092 -0.001111571922251644 -0.0008979222239353527 -0 0.01350052578452573 27:0.039714546 28:0.039714546 38:0.17502747 39:0.4782512 40:0.29879624 41:0.078442653 50:0.17329025 51:0.86158323 52:0.68645361 53:0.14139319 58:0.10566904 59:0.30118439 60:0.24548773 63:0.71963667 64:1 65:0.33991477 69:0.042144204 70:0.17210994 71:0.32110774 72:0.29766577 75:0.29203941 76:0.71229723 77:0.48765571 78:0.070200483 81:0.21972492 82:0.24214122 83:0.16063875 84:0.051144843 88:0.21115728 89:0.35460124 90:0.21201427 92:0.18982543 93:0.36522529 94:0.31903919 95:0.094806173 101:0.28674615 102:0.35775719 103:0.072364358 104:0.49741486 105:0.49327963 106:0.351701 113:0.14316694 114:0.43791991 115:0.43464332 116:0.5422005 117:0.56994501 118:0.19561456 126:0.38742246 127:0.61307794 128:0.49229509 129:0.33592138 138:0.16632759 139:0.55426748 140:0.54864014 141:0.06983183 171:0.13330174 172:0.13330174 182:0.20738552 183:0.68205596 184:0.60082789 185:0.39273439 186:0.079856864 187:0.046178516 188:0.030382261 189:0.058786569 190:0.17715362 191:0.11891623 194:0.20532076 195:0.92246912 196:0.98327212 197:0.53269018 198:0.11260997 199:0.063139135 200:0.045508871 201:0.058786569 202:0.32287447 203:0.4413182 204:0.36529543 207:0.52995703 208:0.85551907 209:0.4733022 210:0.064627398 211:0.061888896 212:0.044607735 213:0.042300501 214:0.14283538 215:0.43833606 216:0.3637615 219:0.15106952 220:0.69437952 221:0.65579468 222:0.10565704 232:0.31836263 233:0.53852171 234:0.31763505 245:0.42735888 246:0.5283211 247:0.1053504 257:0.21229297 258:0.63371721 259:0.4212961 270:0.51673175 271:0.62853781 272:0.20717187 282:0.20049664 283:0.60044364 284:0.49102963 315:0.14153368 316:0.41627772 317:0.52998673 318:0.33754573 319:0.16002689 327:0.21423953 328:0.70683039 329:1 330:0.8696814 331:0.62825254 332:0.55267883 333:0.54244574 334:0.48155106 335:0.22105889 339:0.071266182 340:0.4524376 341:0.90579578 342:0.81572063 343:0.63047196 344:0.55405728 345:0.56792487 346:0.55730983 347:0.43624023 348:0.19866141 353:0.11295708 354:0.39059277 355:0.54130582 356:0.54308621 357:0.55667921 358:0.50888543 359:0.42947254 360:0.19656839 459:0.1171537 460:0.18846454 461:0.31518649 462:0.32437495 463:0.16097312 471:0.1171537 472:0.18846454 473:0.31357275 474:0.38619649 475:0.24125645 484:0.12627806 485:0.26407207 486:0.21918186 487:0.078693619 490:0.31537687 491:0.45431506 492:0.27306353 501:0.17587775 502:0.84418836 503:0.79745488 504:0.44843268 513:0.59779953 514:0.94451152 515:0.84882948 516:0.17189661 524:0.22697533 525:0.64300615 526:0.88977988 527:0.48938067 536:0.51142642 537:0.53513199 538:0.43642521 547:0.27688571 548:0.6804777 549:0.62407802 550:0.19050486 559:0.27451427 560:0.4964487 561:0.49093472 572:0.15556036 573:0.15248006 606:0.50753116 607:0.50248114 618:0.50248114 619:0.50248114 639:0.50499983 640:0.50499983 641:0.49500017 651:0.49500017 652:0.50499983 653:0.49500017 691:0.50248114 692:0.50248114 703:0.50248114 704:0.50753116 705:0.49748137 715:0.50753116 716:0.9999625 717:0.48763057 
-0.0105893282951792 -0.01288154222792794 -0.01296853814584849 -0.06622829509227279 0.02997392612364154 58:0.14638014 59:0.14348162 69:0.079007321 70:0.25250094 71:0.20061095 80:0.14362112 81:0.26175647 82:0.33048046 83:0.22475936 91:0.092422618 92:0.29796755 93:0.27038739 94:0.17129575 95:0.026511372 103:0.41522339 104:0.47215844 105:0.34593385 106:0.039303614 114:0.339812 115:0.79617296 116:0.71621519 117:0.18073774 126:0.86538916 127:0.99281826 128:0.77145241 137:0.076755682 138:0.77128313 139:0.94098524 140:0.3314303 182:0.37694933 183:0.88679579 184:0.64319408 185:0.25320153 186:0.245428 187:0.1256761 194:0.37415027 195:0.88063214 196:0.69063983 197:0.36468489 198:0.30905467 199:0.33172503 200:0.34801241 201:0.5037911 202:0.91953036 203:0.56879135 206:0.13097174 207:0.4002471 208:0.50269551 209:0.35746364 210:0.2455385 211:0.31727788 212:0.34677127 213:0.49381537 214:0.99859925 215:0.79247528 226:0.35333605 227:0.35333605 326:0.57549325 327:0.99965956 328:0.83958599 329:0.6861491 330:0.54825215 331:0.27219602 338:0.56926315 339:0.99041163 340:0.99422493 341:0.69051228 342:0.68549953 343:0.68643173 344:0.67553338 345:0.52923827 346:0.46793582 347:0.21387634 350:0.12274025 351:0.39065683 352:0.53766736 353:0.54165238 354:0.54119321 355:0.67826128 356:0.67285616 357:0.52923827 358:0.59643973 359:0.3340154 370:0.12595936 371:0.12595936 471:0.018114815 472:0.054617304 473:0.035779691 483:0.018114815 484:0.054617304 485:0.054255001 490:0.14515747 491:0.14228316 496:0.035779691 497:0.035424562 501:0.43274065 502:0.72091257 503:0.43027146 512:0.41202228 513:0.98489423 514:1 515:0.57020944 523:0.12717507 524:0.6649265 525:0.82692065 526:0.69952663 527:0.13998442 535:0.47011089 536:0.61814703 537:0.63531298 538:0.13283783 546:0.17342033 547:0.60679365 548:0.65435121 549:0.23527799 558:0.40931807 559:0.53834534 560:0.45439937 569:0.1213694 570:0.47796682 571:0.55484616 572:0.15434363 616:1 617:0.99004983 628:0.99004983 629:0.99004983 713:0.99501248 714:0.99501248 715:0.97530991 
-0 -0.0008080694021811314 -0 -0 0.00247143983448482 46:0.25168043 47:0.24669682 57:0.085378882 58:0.67580814 59:0.57873798 68:0.055913451 69:0.31015516 70:0.78127296 71:0.72253919 80:0.19442173 81:0.35942362 82:0.4473761 83:0.22204432 91:0.19972899 92:0.40200852 93:0.38025714 94:0.16442298 102:0.18553711 103:0.47741225 104:0.49068749 105:0.2376571 113:0.15787957 114:0.6613775 115:0.59088861 116:0.51068817 117:0.064393519 125:0.68811074 126:1 127:0.72219169 128:0.19411742 137:0.73159652 138:0.99519028 139:0.59652997 181:0.0058859614 182:0.63492217 183:0.63289472 184:0.01011953 185:0.00011878357 186:3.1833687e-06 187:1.1145137e-06 188:4.2867975e-08 189:3.2684776e-09 190:0.53168522 191:0.52115715 193:0.0058859614 194:0.63492217 195:0.64308027 196:0.32082179 197:0.005107708 198:6.1367104e-05 199:2.17462e-06 200:8.0585133e-08 201:6.0876197e-09 202:0.999669 203:0.99501248 206:0.31488835 207:0.63034642 208:0.31446909 209:0.0050065686 210:6.0151954e-05 211:2.1315596e-06 212:7.8989441e-08 213:5.9670768e-09 214:0.98448441 215:0.98448441 325:0.20531533 326:0.7050526 327:0.99676692 328:0.90882419 329:0.82299945 330:0.82300892 331:0.82300925 332:0.82300927 333:0.82300927 334:0.61674771 335:0.20319072 337:0.20531533 338:0.70331125 339:0.99905853 340:0.99920211 341:0.82711543 342:0.8271341 343:0.82713444 344:0.82713461 345:0.82713462 346:0.82713462 347:0.41150466 350:0.40553099 351:0.80730605 352:0.80915366 353:0.81073744 354:0.81075575 355:0.81075608 356:0.81075625 357:0.81075625 358:0.81075625 359:0.40335632 469:0.0044807276 470:0.29415548 471:0.38251939 472:0.18641878 481:0.0044807276 482:0.29228665 483:0.38896314 484:0.27939282 489:0.14490646 490:0.40197727 491:0.25198047 494:0.10381568 495:0.19670188 496:0.091133034 500:0.13983525 501:0.7121513 502:0.82125578 503:0.54200236 512:0.58107834 513:0.99697781 514:0.97751611 515:0.40904817 523:0.40783028 524:0.98811908 525:0.99554878 526:0.41738401 534:0.24981702 535:0.79180331 536:0.95745538 537:0.55764747 545:0.11903896 546:0.73146818 547:0.76429309 548:0.7719456 549:0.1314863 557:0.40076259 558:0.75928271 559:0.70106303 560:0.2436551 569:0.40643382 570:0.64321226 571:0.42518183 615:1 616:0.99004983 627:0.99004983 628:0.99004983 713:1 714:0.99004983 
-0 -0 -0 -0.01407956766803419 0 57:0.53964449 58:0.53964449 59:0.2651406 69:0.97750943 70:0.97174426 71:0.6806697 80:0.29055699 81:0.87425737 82:0.99591601 83:0.41025264 92:0.70073328 93:0.85351636 94:0.70844359 103:0.28265719 104:0.82881678 105:0.82745915 106:0.27517175 115:0.72800445 116:0.85781884 117:0.69342847 126:0.32804793 127:0.92742784 128:0.89870015 129:0.28316363 138:0.68835768 139:1 140:0.80115763 188:0.27324354 189:0.53671219 190:0.26034086 200:0.27324354 201:0.99961847 202:0.89246086 203:0.45374012 212:0.10550984 213:0.52980519 214:0.88395511 215:0.45374012 326:0.22792131 327:0.64251303 328:0.74454015 329:0.68954896 330:0.70507234 331:0.70576804 332:0.682185 333:0.43954741 334:0.11773194 337:0.16263695 338:0.75114052 339:0.99762255 340:0.87313939 341:0.77099847 342:0.70868056 343:0.70887748 344:0.70988544 345:0.62368733 346:0.34324079 347:0.081675434 349:0.15941652 350:0.51285878 351:0.8958714 352:0.76559372 353:0.66384107 354:0.69464774 355:0.69484076 356:0.69582876 357:0.61133749 358:0.33809412 359:0.081675434 470:0.23436189 471:0.60438667 472:0.41589661 473:0.12181801 474:0.068879403 475:0.068153998 476:0.022498557 477:2.6380881e-05 481:0.078597292 482:0.46113691 483:0.74790045 484:0.55520517 485:0.31374658 486:0.069342268 487:0.06933138 488:0.045509612 489:0.23640532 490:0.23637894 491:0.074104808 493:0.077040961 494:0.29725879 495:0.57686906 496:0.42310995 497:0.18812814 498:0.067969199 499:0.067958526 500:0.044608461 501:0.72261111 502:0.71616729 503:0.39237352 512:0.32837331 513:0.97218228 514:0.96470083 515:0.31511679 524:0.82849782 525:0.98420208 526:0.80768975 535:0.33332969 536:0.99792544 537:0.99667494 538:0.3259138 547:0.81621221 548:0.98820744 549:0.81738389 558:0.30795833 559:0.94286364 560:0.95406871 561:0.3199244 570:0.59184317 571:0.90719612 572:0.75583548 615:0.99501248 616:0.99501248 617:0.97530991 627:0.97530991 628:0.99501248 629:0.97530991 714:1 715:0.99004983 
-0 -0 -0 -0.0008131825924030499 0 27:0.19070936 28:0.18733495 39:0.75278186 40:0.80264386 41:0.092851615 46:0.1133915 47:0.1133915 51:0.79692041 52:1 53:0.4701162 58:0.36862489 59:0.36726973 60:0.22396655 63:0.34675056 64:0.88229612 65:0.69800012 69:0.068242313 70:0.45873169 71:0.43647095 72:0.29385456 75:0.10730882 76:0.61911612 77:0.62441546 78:0.09898979 81:0.2652761 82:0.40500464 83:0.41080993 84:0.070683077 88:0.38623608 89:0.48923535 90:0.2840221 92:0.13214053 93:0.39109417 94:0.45804754 95:0.20067808 100:0.085546336 101:0.46401541 102:0.37283908 104:0.34268047 105:0.40310924 106:0.32395794 113:0.46838198 114:0.54906721 115:0.24072467 116:0.4424323 117:0.42643413 118:0.13280754 125:0.18456229 126:0.54589434 127:0.59539059 128:0.39972607 129:0.30374886 138:0.35160702 139:0.5316948 140:0.262349 141:0.080574691 171:0.20795219 172:0.20740411 183:0.62599586 184:0.76510378 185:0.35606856 189:0.10446631 190:0.4539803 191:0.34698741 195:0.59903974 196:1 197:0.86532191 201:0.10239773 202:0.45066045 203:0.41393254 204:0.18012865 207:0.27599898 208:0.86855619 209:0.79022242 214:0.10231634 215:0.282445 216:0.17656187 219:0.090929289 220:0.60891739 221:0.58425375 222:0.099185887 232:0.42789973 233:0.54072755 234:0.32480684 244:0.11252845 245:0.55103932 246:0.44516161 257:0.54731618 258:0.66074023 259:0.21359617 269:0.22359452 270:0.68582371 271:0.56208842 282:0.46173509 283:0.57346127 284:0.11176335 315:0.23873541 316:0.23636586 326:0.11405673 327:0.71512741 328:1 329:0.65562018 330:0.53114021 331:0.54181202 332:0.54132188 333:0.53855083 334:0.50388977 335:0.25295146 338:0.11405673 339:0.47457097 340:0.91030314 341:0.87051504 342:0.59420678 343:0.53966156 344:0.53880856 345:0.53855083 346:0.57352248 347:0.36502272 348:0.065840511 351:0.2457613 352:0.49567441 353:0.37508021 354:0.12308813 358:0.09299156 359:0.15883207 360:0.064536782 459:0.034081792 460:0.033406928 470:0.052595922 471:0.36959979 472:0.55513202 473:0.29474032 474:0.14303735 475:0.052830144 476:0.053789808 477:0.036096501 478:0.093178774 479:0.092762323 482:0.052595922 483:0.33299239 484:0.51550892 485:0.4197055 486:0.16974533 487:0.051886994 488:0.05341242 489:0.036096501 490:0.51023739 491:0.50703878 492:0.22507758 495:0.13446687 496:0.23061659 497:0.1224907 498:0.026179126 501:0.1400643 502:0.83683224 503:0.68838578 504:0.36208094 513:0.57781226 514:0.85161706 515:0.83939361 516:0.13607304 524:0.28993686 525:0.86796066 526:1 527:0.41669188 536:0.7111062 537:0.86030696 538:0.71133337 547:0.26749844 548:0.82069874 549:0.83064651 550:0.27865128 559:0.39066841 560:0.66514617 561:0.53524977 571:0.12457303 572:0.25666037 573:0.12947184 616:0.49999375 617:0.49999375 618:0.49009321 628:0.99259319 629:0.99749377 630:0.49009321 640:0.49750002 641:0.49750002 702:0.49750002 703:1 704:0.49750002 714:0.49750002 715:1 716:0.99004983 
-0 -0.001067739593035574 -0.001707517466548091 -0.002112396262872119 0.003038943675572861 27:0.13127036 28:0.12867103 39:0.63333141 40:0.68256567 41:0.070601599 46:0.1289915 47:0.1289915 51:0.85682019 52:1 53:0.37101186 58:0.34692109 59:0.34560334 60:0.2063251 63:0.55991848 64:0.82299308 65:0.50774123 69:0.066938423 70:0.41816495 71:0.41329135 72:0.27426414 75:0.20296096 76:0.58540228 77:0.50227367 81:0.1928775 82:0.32998737 83:0.39787024 84:0.069072466 88:0.45935641 89:0.56154821 90:0.16844752 92:0.12967302 93:0.31768753 94:0.38260301 95:0.19258906 100:0.17607341 101:0.54464148 102:0.44250167 104:0.33624057 105:0.39552002 106:0.31788648 113:0.36641567 114:0.45613341 115:0.15462088 116:0.43362076 117:0.41828063 118:0.1303716 125:0.26427982 126:0.44078398 127:0.5841777 128:0.48539308 129:0.37742645 137:0.081850049 138:0.43037323 139:0.60792246 140:0.34287609 141:0.15868249 171:0.18564525 172:0.18196923 183:0.55450167 184:0.69044423 185:0.13854029 189:0.10598688 190:0.35154178 191:0.24431018 195:0.62518533 196:1 197:0.65111214 201:0.10388819 202:0.34738614 203:0.30963477 204:0.14026561 207:0.45780665 208:0.85074921 209:0.69794115 210:0.015365921 211:0.016950886 212:0.0015535811 215:0.14026561 216:0.13748816 219:0.19970371 220:0.63076526 221:0.49041229 222:0.015365921 223:0.017105316 224:0.016797993 232:0.55628928 233:0.65960641 234:0.22494516 235:0.016766608 236:0.01646537 244:0.22607836 245:0.66900959 246:0.55004133 257:0.43920297 258:0.54010286 259:0.10641843 269:0.33922458 270:0.57319767 271:0.45187061 281:0.11438339 282:0.57701501 283:0.57242802 315:0.013198213 316:0.10756388 317:0.094627014 326:0.1548393 327:0.76175648 328:1 329:0.72189983 330:0.73933666 331:0.67233769 332:0.66030558 333:0.6562613 334:0.58212233 335:0.24685371 338:0.1548393 339:0.7434148 340:0.90745334 341:0.86117725 342:0.73748156 343:0.67233769 344:0.65790056 345:0.6562613 346:0.58212233 347:0.32909252 348:0.080610371 351:0.31738403 352:0.47925641 353:0.1616425 354:0.16876074 355:0.50059416 356:0.66660646 357:0.33474921 359:0.080610371 360:0.079014179 366:0.16876074 367:0.50059416 368:0.67003394 369:0.50173444 370:0.16695199 379:0.33202085 380:0.65676638 381:0.49179943 382:0.16364612 459:0.083959008 460:0.1904762 461:0.1081797 470:0.096414874 471:0.5152197 472:0.73946385 473:0.45273471 474:0.25414656 475:0.040981905 476:0.061763261 477:0.043169589 478:0.14859072 479:0.14684104 482:0.096414874 483:0.42717953 484:0.62012859 485:0.48209611 486:0.25202577 487:0.040422631 488:0.060540266 489:0.043169589 490:0.63529911 491:0.63032494 492:0.30062521 495:0.19043497 496:0.22006985 497:0.03090079 498:0.1630852 499:0.33929506 500:0.18227598 501:0.17591565 502:0.98096188 503:0.80293453 504:0.4598873 510:0.1630852 511:0.33929506 512:0.34617972 513:0.51410545 514:0.82892105 515:0.98325449 516:0.15893021 523:0.24803871 524:0.33932491 525:0.84185948 526:0.99921823 527:0.48947153 536:0.82672219 537:1 538:0.82683358 547:0.31114199 548:0.95427394 549:0.96580439 550:0.32397055 559:0.73506317 560:0.91973557 561:0.76548193 571:0.42121687 572:0.57918836 573:0.29360711 604:0.49875 605:0.49875 616:0.49875 617:0.50376252 618:0.49378736 628:0.50376252 629:0.99253736 630:0.48400971 640:0.49875 641:0.49875 642:0.49875 643:0.49875 644:0.49875 645:0.49875 654:0.49875 655:0.50376252 656:0.49875 657:0.50376252 658:0.49378736 667:0.49378736 668:0.48400971 669:0.49378736 670:0.48400971 703:0.50125 704:0.49132458 714:0.50376252 715:1 716:0.50125 
-0.012655276953623 -0.02133872827433146 -0.02313423173853834 -0.02067321826356868 0.03178378223375396 45:0.31480256 46:0.31480256 57:0.84568303 58:0.8386691 59:0.484837 68:0.16132834 69:0.9900807 70:0.99208743 71:0.47866552 80:0.61236509 81:0.91135735 82:0.79518155 91:0.1440352 92:0.88215546 93:0.90534749 94:0.60719266 103:0.46588323 104:0.75329545 105:0.87417839 106:0.13983028 115:0.63492003 116:0.76847583 117:0.59872545 126:0.37936889 127:0.87519073 128:0.83277836 129:0.15577757 138:0.66327276 139:1 140:0.90040339 189:0.9982124 190:0.99004983 201:0.99004983 202:1 203:0.58015869 214:0.58015869 215:0.56867078 326:0.0033176018 327:0.0033176018 328:0.33400617 329:0.66149739 330:0.67491928 331:0.9191409 332:1 333:0.83396224 334:0.4289358 337:0.24248363 338:0.58092652 339:0.66984807 340:0.83369712 341:0.83218809 342:0.67491928 343:0.91154151 344:0.98391382 345:0.83396224 346:0.54837859 347:0.11707766 349:0.24098813 350:0.56947749 351:0.7417177 352:0.83018264 353:0.82225778 354:0.65822788 355:0.68995861 356:0.35576406 358:0.11707766 359:0.11475937 362:0.16529679 363:0.16202369 470:0.24165938 471:0.24165938 472:0.11455258 473:0.22980779 474:0.22219594 475:0.21338444 476:0.1388344 477:0.14540059 478:0.11316043 481:0.38676431 482:0.94781809 483:0.84053338 484:0.54066026 485:0.28612632 486:0.2327542 487:0.24293589 488:0.18454829 489:0.5025504 490:0.46611551 491:0.22347041 493:0.38227561 494:0.69534558 495:0.99418488 496:0.53480371 497:0.28269142 498:0.22814535 499:0.209584 500:0.13045286 501:0.74662355 502:0.60617667 503:0.22125237 506:0.15848477 507:0.15534656 512:0.53962127 513:0.79717767 514:0.65313652 523:0.13597591 524:0.81643913 525:0.804176 526:0.52360211 535:0.39608133 536:0.68054481 537:0.80970189 538:0.13191773 547:0.51711674 548:0.65880848 549:0.52207981 558:0.21639427 559:0.60371709 560:0.61584936 561:0.11979949 570:0.57387385 571:0.83116972 572:0.64484212 614:0.99004983 615:0.99004983 626:0.99004983 627:1 628:0.98019867 639:0.98019867 640:0.96078944 714:1 715:0.99004983 
-0.002761752212062431 -0.00606688515624921 -0.005848735327507315 -0.005001795574796529 0.009589687774365346 27:0.0048929502 28:0.0098104263 29:0.0048201036 34:0.23120129 35:0.23120129 38:0.36772778 39:0.49525802 40:0.24277609 41:0.014581844 46:0.71978862 47:0.71717537 48:0.45665996 50:0.45946334 51:0.81803296 52:0.7056455 53:0.014388549 57:0.11458893 58:0.84637357 59:0.8500522 60:0.57514469 62:0.094433762 63:0.66163492 64:0.73875941 65:0.080063775 66:0.044898707 67:0.044451957 69:0.35735217 70:0.61326452 71:0.73158045 72:0.12058136 75:0.32692703 76:0.52856708 77:0.32697567 78:0.044451957 79:0.044451957 81:0.57210983 82:0.69056296 83:0.57144903 87:0.081755507 88:0.48788954 89:0.48159995 90:0.07512744 92:0.23143134 93:0.66975861 94:0.66858307 95:0.22571459 100:0.23751869 101:0.49657625 102:0.25708575 104:0.47253509 105:0.57888361 106:0.56534227 113:0.4336451 114:0.51784628 115:0.22361503 116:0.61319105 117:0.4795434 118:0.23669703 125:0.17309497 126:0.52618809 127:0.77451332 128:0.65871506 129:0.62629339 138:0.36328979 139:0.77587832 140:0.86684355 141:0.66013045 178:0.30860454 179:0.30554151 182:0.32972213 183:0.44687305 184:0.17740037 190:0.3094959 191:0.31104279 192:0.15325873 194:0.46496964 195:0.87534627 196:0.71603036 202:0.151625 203:0.30490138 204:0.15024131 206:0.13608219 207:0.88764465 208:0.99372349 209:0.15065514 210:0.02826597 211:0.028011177 212:0.23012205 213:0.23012205 214:0.22556532 219:0.60694574 220:0.91546331 221:0.6021954 222:0.027706266 223:0.028011177 224:0.22556532 225:0.23012205 226:0.22556532 231:0.14893951 232:0.9338526 233:0.92416737 234:0.1556612 244:0.47011636 245:0.91383714 246:0.45934191 257:0.74022161 258:0.88203834 259:0.29366136 269:0.29338915 270:0.91479193 271:0.74138892 282:0.60614311 283:0.89660298 284:0.28764792 319:0.12559318 320:0.40358988 321:0.59312731 322:0.52957983 323:0.21167238 326:0.12222776 327:0.36492854 328:0.48127322 329:0.60267052 330:0.60091366 331:0.61793288 332:0.6541561 333:0.68635576 334:0.61654703 335:0.37279875 336:0.054500608 338:0.12222776 339:0.36492854 340:0.48537813 341:0.60257564 342:0.80732187 343:0.85730775 344:0.63028882 345:0.67521489 346:0.60433858 347:0.36541684 348:0.053421423 351:0.24141959 352:0.475767 353:0.47248709 354:0.53292802 355:1 356:0.94134608 357:0.47123842 358:0.1567204 366:0.31069583 367:0.83992377 368:0.93506125 369:0.47123842 370:0.1567204 459:0.20144744 460:0.40390464 461:0.19844828 463:0.043328702 464:0.11331291 465:0.096965167 466:0.02744552 467:0.0001258888 470:0.074835471 471:0.74757495 472:0.97293056 473:0.65020882 474:0.25225573 475:0.24147012 476:0.23297838 477:0.18240196 478:0.31522816 479:0.28600587 480:0.094184635 482:0.074824335 483:0.54210746 484:0.99493431 485:0.86033089 486:0.53653785 487:0.47988373 488:0.23124953 489:0.17963535 490:0.59998291 491:0.48974555 492:0.18884137 495:0.27198232 496:0.38623216 497:0.21376195 498:0.50705446 499:0.57835709 500:0.30689238 501:0.35409856 502:0.5250992 503:0.60348762 504:0.092782409 510:0.3077051 511:0.54078123 512:0.30385285 513:0.57443299 514:0.63724134 515:0.52042036 524:0.21731642 525:0.64978286 526:0.64868662 527:0.21194285 536:0.41718065 537:0.53251129 538:0.52622717 547:0.10255433 548:0.50926952 549:0.41188362 550:0.20217667 559:0.27782973 560:0.49432475 561:0.49060855 571:0.30650967 572:0.51165258 573:0.50352166 604:0.5 605:0.49009934 616:0.5 617:0.5 627:0.5 628:0.49009934 629:0.49009934 631:0.5 632:0.49009934 639:0.5 640:0.5 643:0.5 644:0.99009934 645:0.5 646:0.49009934 651:0.49009934 652:0.49009934 655:0.49009934 656:0.49009934 657:0.5 658:0.49009934 714:0.5 715:1 716:0.99009934 717:0.49009934 
-0.004531043920121688 -0.01026939077657164 -0.02734482071543026 -0.002578005878611997 0.01285708148278154 58:0.69919245 59:0.68534751 69:0.30895346 70:1 71:0.85934244 80:0.10369016 81:0.65634882 82:0.73387834 83:0.5863403 92:0.35760756 93:0.59844808 94:0.57107067 95:0.13721345 103:0.22214854 104:0.47140158 105:0.53452896 106:0.28559684 114:0.22971406 115:0.51526512 116:0.44674379 117:0.23651241 125:0.10844349 126:0.5053697 127:0.45721992 128:0.35840995 129:0.075510513 137:0.65189009 138:0.8935081 139:0.70832821 140:0.074060841 182:0.7901132 183:0.99795445 184:0.21695308 185:0.00010760902 186:1.2469109e-06 187:4.1080125e-07 189:0.3048318 190:0.61119157 191:0.30029344 194:0.78414026 195:0.99209978 196:0.4069985 197:0.072076611 198:5.4511057e-05 199:8.3196038e-07 201:0.3048318 202:0.91908697 203:0.91299024 206:0.29419599 207:0.62480667 208:0.39893939 209:0.070649398 210:5.3431666e-05 211:8.1548646e-07 214:0.90692391 215:0.90094789 326:0.50251488 327:0.9961221 328:0.99453827 329:0.99453761 330:0.96302652 331:0.89841395 332:0.92748247 333:0.99151164 334:0.50535616 335:0.010373379 338:0.50026207 339:0.9939139 340:0.99453827 341:0.99952308 342:0.99952243 343:0.93602626 344:0.92748247 345:0.99151164 346:0.77003963 347:0.26787507 350:0.19253097 351:0.62848065 352:0.92448841 353:0.9797312 354:0.97973056 355:0.9174917 356:0.8825653 357:0.94474338 358:0.75500033 359:0.26277929 474:0.043079167 475:0.087689951 476:0.069193716 477:0.024217319 478:6.0847663e-05 486:0.043079167 487:0.087689951 488:0.089111546 489:0.046918606 490:0.16821195 491:0.16482149 498:0.021165854 499:0.064566256 500:0.087347019 501:0.23257834 502:0.39951589 503:0.28181807 512:0.13786873 513:0.63087186 514:0.48780066 515:0.33386449 524:0.55664576 525:0.81122257 526:0.64858013 527:0.11257017 535:0.43136775 536:0.84176129 537:0.82050343 538:0.3980537 546:0.42793102 547:1 548:0.85851751 549:0.41974151 557:0.13799912 558:0.84398379 559:0.85769869 560:0.71303233 561:0.14055877 569:0.34141616 570:0.76031858 571:0.8209651 572:0.13666768 616:0.99501248 617:0.97530991 628:0.99501248 629:0.99501248 640:0.97530991 641:0.97530991 713:1 714:0.99004983 
