svm_type c_svc
kernel_type rbf
gamma 0.125
nr_class 10
total_sv 964
rho -0.618788 0.0214608 0.177279 -0.645359 0.499323 0.585101 -0.0874399 -0.259496 0.0356287 0.636393 0.708119 -0.0291462 0.847756 0.887391 0.569079 0.418352 0.640611 0.157905 -0.672385 0.47146 0.565939 -0.102074 -0.273436 0.016144 -0.721906 0.332785 0.451131 -0.254491 -0.405889 -0.141073 0.861462 0.883212 0.640816 0.457654 0.675862 0.140429 -0.564018 -0.658413 -0.465165 -0.639283 -0.723238 -0.565446 -0.190391 0.127919 0.290356
label 0 1 2 3 4 5 6 7 8 9
probA -6.43272 -7.08268 -11.6002 -5.50069 -9.51373 -19.0416 -6.4511 -4.56512 -7.35287 -4.74143 -10.125 -3.06878 -11.6543 -10.6604 -9.0985 -7.29438 -9.20792 -11.3223 -4.90662 -15.7332 -26.4595 -8.39131 -5.80401 -7.73106 -8.85168 -12.9572 -16.0547 -13.5119 -18.5548 -12.6014 -10.6096 -13.5663 -4.51918 -6.98294 -9.05528 -14.0772 -14.572 -7.53875 -10.5627 -16.1714 -11.0955 -7.84014 -3.27859 -6.24583 -9.80431
probB 2.01638 0.0626642 -2.31548 1.48245 -3.59723 -9.59633 0.163806 0.879365 -0.353933 -1.27203 -4.89496 -0.019104 -6.46865 -5.62657 -3.5482 -1.53919 -3.64041 -2.09527 1.01942 -6.6053 -13.9592 0.440008 1.34703 -0.39376 4.18189 -2.8568 -5.66898 3.13146 8.34352 1.92328 -5.77182 -7.96049 -0.829277 -1.26582 -3.53059 -1.40143 6.37906 3.45662 3.61975 8.28911 6.47806 2.86833 0.391532 -0.356445 -2.86561
nr_sv 63 16 65 128 17 222 288 60 29 76
SV
0.3443883822406079 0.824203754199584 0.9374098378972462 0.3228660454820227 1.569058460675692 1.348833052997987 0.8435567661277944 0.6793551270611153 0.8756454599731734 41:0.28341646 42:0.28341646 43:0.13767549 53:0.73053331 54:0.72452821 55:0.42293975 65:0.77154349 66:0.75911189 67:0.28246163 76:0.33937726 77:0.83109437 78:0.80683582 88:0.67945847 89:0.84352525 90:0.8319957 100:0.89521778 101:0.88765905 102:0.67415463 112:1 113:0.98356576 114:0.33629954 124:0.88420165 125:0.88420165 136:0.45678494 137:0.45678494 186:0.22533635 187:0.72244881 188:0.8867145 189:0.61641695 190:0.177174 191:0.005654749 198:0.22087439 199:0.70814336 200:0.8867145 201:0.61641695 202:0.177174 203:0.005654749 268:1 269:0.99004983 280:0.99004983 281:0.99004983 329:0.053309406 330:0.55188389 331:0.937663 332:0.91947191 333:0.98128917 334:1 335:0.98685162 336:0.96207527 341:0.052253809 342:0.54095586 343:0.91909603 344:0.91794947 345:0.96185835 346:0.99394055 347:0.98685162 348:0.96207527 412:0.093773128 413:0.09284007 424:0.09284007 425:0.09284007 473:0.4059009 474:0.64775042 475:0.51219993 477:0.0023803321 478:0.021827379 479:0.052883251 480:0.065840268 485:0.76267943 486:0.9950261 487:0.76033197 489:0.0023331983 490:0.021395168 491:0.051836092 492:0.065840268 497:0.5739471 498:0.59934361 499:0.24562986 508:0.18803014 509:0.52051864 510:0.51862783 520:0.36320719 521:0.47441762 522:0.46891367 532:0.43194606 533:0.44432987 534:0.35089696 544:0.337894 545:0.39268157 546:0.17212787 556:0.19794474 557:0.19794474 568:0.068133348 569:0.068133348 624:1 636:0.99004983 700:1 701:0.99004983 712:0.99004983 713:0.99004983 
0.3809602922957538 1.027717565873911 1.180294988444996 0.3577004993454489 1.51295625099598 1.587464783223366 0.9292870438026496 0.7501609027418898 1.050209868707707 230:0.19957738 231:0.59974227 232:0.7962612 233:0.79628619 234:0.79641185 235:0.39622173 242:0.19957738 243:0.59974227 244:0.8003499 245:0.8002693 246:0.99700778 247:1 248:0.99398915 249:0.8003654 250:0.80039141 251:0.59681108 252:0.19662525 255:0.39419761 256:0.78450191 257:0.78442291 258:0.78444199 259:0.98812299 260:0.99007619 261:0.79636458 262:0.7963909 263:0.59681108 264:0.19662525 326:0.42438264 327:0.83326737 328:0.82351127 329:0.82209509 330:0.82209509 331:0.82209502 332:0.82209491 333:0.8220952 334:0.82209537 335:0.61299028 336:0.2019529 338:0.4159793 339:0.81676757 340:0.82351127 341:0.81799533 342:0.81799487 343:0.81799435 344:0.81799482 345:0.81799525 346:0.817995 347:0.61299028 348:0.2019529 374:0.1995926 375:0.59979124 376:0.79642289 377:0.79642133 378:0.79641565 379:0.39621858 386:0.1995926 387:0.59979124 388:0.8004097 389:0.80041385 390:0.99700771 391:1 392:0.99402257 393:0.80040897 394:0.80040099 395:0.59681686 396:0.19661999 399:0.39423405 400:0.78456053 401:0.78456459 402:0.78456482 403:0.98812298 404:0.99010971 405:0.79641742 406:0.79641627 407:0.59681686 408:0.19661999 470:0.25043134 471:0.75315076 472:0.99976286 473:0.9994021 474:0.9997325 475:0.99998924 476:0.99966308 477:0.99940647 478:0.99970977 479:0.74556981 480:0.24542632 482:0.24547247 483:0.73823738 484:0.99482093 485:0.99445258 486:0.99472309 487:0.99501248 488:0.99470766 489:0.99439649 490:0.99473071 491:0.74556981 492:0.24542632 614:1 615:0.99501248 616:0.48887409 622:0.49875 623:0.49875 624:0.48887409 626:0.98019867 627:0.99501248 628:0.48887409 634:0.48887409 635:0.49875 636:0.48887409 662:0.49626248 663:0.49626248 674:0.49626248 675:0.50125 676:0.49132458 682:0.49875 683:0.49875 684:0.48887409 687:0.49132458 688:0.4815957 694:0.48887409 695:0.49875 696:0.48887409 
0.3770038739914233 1.002420759758151 1.135278880658164 0.350547528005363 1.457546253350615 1.5458682609468 0.9015932407964601 0.7225471189594469 1.029455851186251 16:0.24900243 17:0.24407185 21:0.26682648 22:0.26154296 28:0.50413672 29:0.49415414 33:0.5310046 34:0.52049 40:0.51983315 41:0.50953976 45:0.5310046 46:0.5283562 52:0.52619887 53:0.52241975 57:0.5310046 58:0.5283562 64:0.52040254 65:0.52040254 69:0.5310046 70:0.5283562 76:0.53528076 77:0.52518206 81:0.5310046 82:0.5283562 88:0.77586303 89:0.76550593 90:0.12099517 93:0.5310046 94:0.5283562 100:0.99931134 101:0.98879674 102:0.37653344 105:0.5310046 106:0.5283562 112:0.73722452 113:0.99970245 114:0.46201297 117:0.39594023 118:0.39594023 124:0.26286052 125:0.47334451 126:0.20631613 129:0.13044455 130:0.13044455 184:0.00075963784 185:0.000744596 196:0.019213314 197:0.018832865 208:0.058755821 209:0.057592378 220:0.63929084 221:0.632586 232:0.99797756 233:0.9920769 234:0.60341804 244:0.39312331 245:0.96143202 246:0.68405251 257:0.086529191 258:0.084815798 364:0.49626248 365:0.49626248 376:0.99501248 377:1 378:0.98019867 388:0.48887409 389:0.99007459 390:0.97046979 448:0.2302024 449:0.22564409 460:0.37500356 461:0.36757799 472:0.28811707 473:0.28811707 484:0.11653473 485:0.11653473 496:0.018298401 497:0.018298401 520:0.030059786 521:0.030059786 532:0.61013253 533:0.61013253 534:0.24188143 544:0.96229928 545:1 546:0.98019867 556:0.37885822 557:0.74655999 558:0.73177711 592:0.50125 593:0.49626248 597:0.50125 598:0.49626248 604:0.49626248 605:0.49626248 609:0.49626248 610:0.49626248 652:0.49875 653:0.48887409 664:0.49875 665:0.49875 676:0.48887409 677:0.48887409 681:0.49875 682:0.48887409 688:1 689:0.99501248 690:0.48887409 693:0.49875 694:0.49875 700:0.98019867 701:0.99501248 702:0.48887409 705:0.48887409 706:0.48887409 
0.3847695211109412 0.9796553904540302 1.122093911392567 0.346036101982112 1.441822075878951 1.51876969534642 0.9010638860344268 0.7140803964213892 1.003970920060006 16:0.10742241 17:0.13974824 18:0.031685738 21:0.077571514 22:0.076035495 28:0.2299812 29:0.2598802 30:0.13867937 33:0.34633636 34:0.33947844 40:0.37728473 41:0.38602941 42:0.13593334 45:0.53683052 46:0.52620056 52:0.52021503 53:0.50991409 57:0.5387411 58:0.53605411 64:0.53278662 65:0.52632241 69:0.5387411 70:0.53605411 76:0.52634332 77:0.52634332 81:0.5387411 82:0.53605411 88:0.65043948 89:0.64010214 93:0.5387411 94:0.53605411 100:0.90893331 101:0.89826552 102:0.25358422 105:0.5387411 106:0.53605411 112:0.73649598 113:0.99962509 114:0.45439165 117:0.4017089 118:0.4017089 124:0.26669028 125:0.47186652 126:0.20111348 129:0.13234507 130:0.13234507 162:0.014558812 163:0.081933489 164:0.51138136 165:0.78377384 166:0.336037 174:0.014270528 175:0.080311098 176:0.50683364 177:1 178:0.77894664 189:0.77215824 190:0.76663544 196:0.00053679595 197:0.00052616668 208:0.026312987 209:0.025791955 220:0.094888376 221:0.09300946 232:0.78869791 233:0.78017341 244:0.72929851 245:0.77587776 246:0.37077627 256:0.016144291 257:0.37110241 258:0.36375409 305:0.52176367 306:1 307:0.95261643 308:0.91347224 309:0.43719496 310:0.056713785 317:0.51254819 318:0.9812927 319:0.94769577 320:0.91347224 321:0.6332792 322:0.19334721 329:0.05525037 330:0.05525037 333:0.19220151 334:0.18951868 376:0.063464696 377:0.062354734 388:0.062354734 389:0.06298141 390:0.0073360441 401:0.0073360441 402:0.0071907806 448:0.30873515 449:0.96231726 450:0.65453248 451:0.037706551 460:0.35404849 461:1 462:0.969375 463:0.037706551 465:0.21378494 466:0.20955171 472:0.11021693 473:0.6957649 474:0.60693983 477:0.21294386 478:0.21294386 484:0.12994177 485:0.12994177 489:0.12669636 490:0.12669636 496:0.055109902 497:0.055109902 508:0.0074292994 509:0.0074292994 532:0.19025144 533:0.19025144 534:0.064201672 544:0.32495645 545:0.3275072 546:0.32102212 556:0.13330895 557:0.25951347 558:0.25437476 592:0.49626248 593:0.49626248 604:0.99501248 605:0.98513657 606:0.49132458 609:0.49875 610:0.48887409 616:0.49875 617:0.99007459 618:0.4815957 621:0.49875 622:0.49875 628:0.48887409 629:0.48887409 633:0.48887409 634:0.48887409 664:0.50125 665:0.49626248 676:0.49626248 677:0.49626248 681:0.49875 682:0.48887409 688:1 689:0.99501248 690:0.48887409 693:0.49875 694:0.49875 700:0.98019867 701:0.99501248 702:0.48887409 705:0.48887409 706:0.48887409 
0.3175998359723525 0.8438790444979446 0.9269842208629728 0.3061971033494265 2.444844132632204 1.557507205554929 1.36617369013921 1.027489467499819 1.233251263351812 52:0.18840166 53:0.25591227 54:0.066838875 64:0.64334002 65:0.70951384 66:0.47688831 76:0.96346763 77:0.96346763 78:0.88307025 88:0.99501248 89:0.99501248 90:0.97138835 100:0.9266218 101:0.96982952 102:0.95062561 112:0.85906297 113:0.89334571 114:0.87565628 124:0.41482068 125:0.83458883 126:0.82198708 137:0.40248116 138:0.39843571 220:0.046998876 221:0.046998876 232:0.3037119 233:0.3037119 234:0.15016435 244:0.65797743 245:0.65797743 246:0.48422569 256:0.9115002 257:0.9115002 258:0.77778962 268:0.50716681 269:1 270:0.98561199 281:0.54404262 282:0.53868317 321:0.19269275 322:0.58650815 323:0.78853801 324:0.80042491 329:0.14577231 330:0.48088358 331:0.68438987 332:0.7257642 333:0.94672791 334:0.9637943 335:0.9714844 336:1 341:0.41271193 342:0.74543839 343:0.79719302 344:0.71473991 345:0.74043243 346:0.94854586 347:0.9559366 348:0.78282723 353:0.26165386 354:0.57036262 355:0.78425105 356:0.33552182 465:0.084294539 466:0.24163469 467:0.30423488 468:0.28883819 473:0.13641166 474:0.38953518 475:0.46223252 476:0.3969135 477:0.43941572 478:0.42274825 479:0.39903775 480:0.36654474 484:0.23162995 485:0.7870718 486:0.80361771 487:0.66107092 488:0.42292716 489:0.37432908 490:0.41947057 491:0.39278057 492:0.29109963 496:0.35788376 497:0.76861659 498:1 499:0.6512642 500:0.21641358 508:0.16971289 509:0.39602633 510:0.38818449 520:0.044377065 521:0.084672175 522:0.082995553 533:0.0050722105 534:0.004971774 612:1 624:0.99004983 701:1 702:0.99004983 713:0.99004983 714:0.99004983 
0.3770472309144089 1.015046894900764 1.202032946075053 0.3374707783639107 1.539927004481914 1.635742519199372 0.9065513884054016 0.7071130921640816 1.026811749816769 27:0.26364245 28:0.26364245 29:0.22240718 30:0.21800322 39:0.53479439 40:0.53479439 41:0.73374244 42:0.46612312 51:0.54703116 52:0.54895634 53:0.92081484 54:0.43462788 55:0.080201379 63:0.54696647 64:0.55002942 65:0.67245098 66:0.36647531 67:0.22218332 68:0.14190774 75:0.53967975 76:0.54670454 77:0.67391928 78:0.47929279 79:0.4822596 80:0.38342431 81:0.21530004 87:0.52889755 88:0.66491885 89:0.66194185 90:0.51663793 91:0.75188961 92:0.614829 93:0.47089157 99:0.26016262 100:0.6637138 101:0.65586916 102:0.40527221 103:0.7989414 104:0.83218754 105:0.52052184 112:0.53032254 113:0.54125312 114:0.46028416 115:0.85813619 116:0.77707169 117:0.50690541 124:0.13495025 125:0.23715069 126:0.34924969 127:0.47059432 128:0.35800518 129:0.24171699 137:0.086960424 138:0.22238896 139:0.19016464 140:0.054736105 171:0.0011224208 172:0.0052810456 173:0.026186694 174:0.021632343 183:0.012614108 184:0.016690386 185:0.36285596 186:0.35462275 195:0.012116227 196:0.012602939 197:0.4830163 198:0.90159013 199:0.4221993 204:0.015340251 207:0.0062731514 208:0.0062731514 209:0.23936553 210:0.80849684 211:0.97881112 212:0.41471586 216:0.015187613 219:0.016646545 220:0.016646545 221:0.18419621 222:0.61173815 223:0.85711746 224:0.69988266 225:0.14417377 231:0.1436204 232:0.21583516 233:0.19886136 234:0.57402301 235:0.5743935 236:0.4687559 237:0.17952705 243:0.13228471 244:0.3596505 245:0.27221446 246:0.33942442 247:0.62889976 248:0.32880085 249:0.041745611 256:0.53599338 257:0.68579827 258:0.24047907 259:0.22398839 260:0.14491492 261:0.0046752814 268:0.37653534 269:0.58991249 270:0.42350044 271:0.063936266 281:0.21607235 282:0.277491 283:0.062670243 306:0.16716947 307:0.33433162 308:0.33774448 309:0.25461764 310:0.084015461 315:0.061083353 316:0.24195799 317:0.34910331 318:0.49631996 319:0.57270226 320:0.49234932 321:0.34075291 322:0.17014928 327:0.059873822 328:0.2371669 329:0.40428879 330:0.42175056 331:0.5674098 332:0.48566588 333:0.33400556 334:0.16678009 341:0.064576618 342:0.22895038 343:0.32530566 344:0.31631371 345:0.31220847 346:0.45376768 347:0.59478793 348:0.45559997 353:0.17927763 354:0.36722725 355:0.48946176 356:0.58058003 357:0.56744634 358:0.57920202 359:0.59164746 360:0.60357826 365:0.35035294 366:0.62890821 367:0.60292897 368:0.54201749 369:0.40572974 370:0.26268191 371:0.26125582 372:0.26089734 375:0.016174322 376:0.10196528 377:0.50983076 378:0.85153824 379:0.72995887 380:0.18858414 381:0.055532774 387:0.016174322 388:0.26336165 389:0.65520818 390:1 391:0.79874765 392:0.13187165 400:0.22184601 401:0.53296919 402:0.77740622 403:0.62450909 404:0.20955899 412:0.06304931 413:0.21988492 414:0.49331476 415:0.58924512 416:0.32953681 425:0.1006362 426:0.27659684 427:0.34579283 428:0.16915549 450:0.050247818 451:0.11511888 452:0.12345091 453:0.073375962 454:0.014921237 459:0.24153374 460:0.35532751 461:0.57986844 462:0.60451589 463:0.35548689 464:0.19675654 465:0.10570599 466:0.04320299 471:0.24882658 472:0.36036708 473:0.77464516 474:0.68897197 475:0.35382148 476:0.19435028 477:0.10361287 478:0.042347513 483:0.014457583 484:0.034702197 485:0.26244732 486:0.22843228 487:0.10931361 488:0.16739793 489:0.2183782 490:0.29240578 491:0.36060692 492:0.30952145 495:0.00286602 496:0.0077531123 497:0.27548162 498:0.32201216 499:0.31733253 500:0.5421165 501:0.51654029 502:0.47999683 503:0.38061021 504:0.40084953 508:0.00015128033 509:0.49026723 510:0.60078438 511:0.43223882 512:0.42160765 513:0.4076583 514:0.27590225 515:0.25980672 516:0.25710962 520:0.033456147 521:0.36888514 522:0.8516351 523:0.87803098 524:0.27367071 525:0.10068318 532:0.094295846 533:0.29061085 534:0.71982018 535:0.7922673 536:0.19477509 537:0.028690447 544:0.059634992 545:0.1396431 546:0.6063769 547:1 548:0.46753606 549:0.10246319 558:0.33036818 559:0.74704059 560:0.51104138 561:0.07337196 570:0.049333781 571:0.29922906 572:0.24953244 596:0.20099547 597:0.40299844 598:0.19800304 604:0.20301551 605:0.20099547 608:0.20099547 609:0.40501848 610:0.4009985 615:0.20200297 616:0.40299844 617:0.60007364 618:0.39699858 621:0.39699858 622:0.3930582 627:0.19800304 628:0.20200297 629:0.60100148 630:0.59506117 631:0.19800304 641:0.20099547 642:0.40299844 643:0.40000601 644:0.19800304 653:0.20099547 654:0.60601396 655:0.79999702 656:0.20200297 664:0.20099547 665:0.20099547 666:0.80601698 667:0.99705212 668:0.19800304 676:0.40401099 677:0.40401099 678:0.79999702 679:0.60100148 688:0.20099547 689:0.39999101 690:0.3930582 691:0.60302152 692:0.40299844 693:0.19800304 702:0.20200297 703:0.59500162 704:0.40299844 705:0.19800304 714:0.19800304 715:0.19800304 
0.2959848759613753 0.8338773114577296 0.9234519511040681 0.2819811893026973 1.481418541400148 1.36200415038311 0.7474093447256697 0.6950748735996422 0.9017596645377507 50:0.35950867 51:0.35238992 62:0.35797273 63:0.35797273 64:0.19632656 65:0.25317489 66:0.11172742 74:0.20108347 75:0.20108347 76:0.62292258 77:0.67864524 78:0.44002171 88:0.89296446 89:0.89296446 90:0.78765568 100:0.91605497 101:0.93535021 102:0.91682903 112:0.86617852 113:0.89857837 114:0.88078532 124:0.82274268 125:0.84544588 126:0.82870493 136:0.59869864 137:1 138:0.98398471 194:0.095802694 195:0.16886951 196:0.16624546 206:0.093905674 207:0.16814248 208:0.16624546 232:0.037512667 233:0.037512667 244:0.25628019 245:0.25628019 246:0.12800928 256:0.52577669 257:0.52577669 258:0.40382457 268:0.69509478 269:0.69509478 270:0.60251079 280:0.60978131 281:1 282:0.98479361 323:0.23286272 324:0.23054758 330:0.12286746 331:0.36653706 332:0.48172823 333:0.70676223 334:0.93558893 335:0.82024712 336:0.46951003 338:0.22809743 339:0.54411858 340:0.61215176 341:0.61756902 342:0.87267632 343:0.98891973 344:0.90327761 345:0.80825396 346:0.92617302 347:0.93649707 348:0.58037527 350:0.22358079 351:0.53334431 352:0.61215176 353:0.66403199 354:0.79629195 355:0.96123164 356:0.99118088 357:0.67854814 358:0.45594277 359:0.34204792 360:0.11321226 365:0.056541959 366:0.22562379 367:0.26507226 368:0.095624391 467:0.12972643 468:0.12843885 474:0.056200176 475:0.17256502 476:0.25198282 477:0.4009398 478:0.52008446 479:0.44933245 480:0.25727985 482:0.34495691 483:0.38045887 484:0.20061222 485:0.33030643 486:0.6704385 487:0.70170212 488:0.56869828 489:0.4865857 490:0.51514451 491:0.51464242 492:0.31776256 494:0.33975879 495:0.37452544 496:0.46129276 497:0.86826086 498:0.83140663 499:0.76158717 500:0.66224074 501:0.42075464 502:0.27943038 503:0.19510936 504:0.061815576 506:0.080810689 507:0.080810689 508:0.48384006 509:0.67327168 510:0.8874987 511:0.35525523 512:0.096204143 520:0.14710638 521:0.31643303 522:0.31016724 532:0.0098965824 533:0.05368406 534:0.052621045 545:0.0049357971 546:0.0048380618 611:0.49750002 612:0.49750002 623:1 624:1 626:0.49999375 627:0.49009321 635:0.49750002 636:0.99004983 638:0.49999375 639:0.49999375 650:0.49009321 651:0.49009321 713:0.50249998 714:0.49750002 
0.3476906057139045 0.9420283121670348 1.075679118983091 0.3275920925412806 1.48595108863795 1.487672651159172 0.8350171300201085 0.6848362363661209 0.9775629585236665 51:0.42260007 52:0.42260007 53:0.20018799 63:0.82464733 64:0.81678502 65:0.42523603 66:0.38211731 67:0.16827752 75:0.89889816 76:0.88127408 77:0.81758543 78:0.82356423 79:0.58405236 87:0.99305938 88:0.98233728 89:0.93559108 90:0.93559108 91:0.88578893 99:1 100:0.99249275 101:0.96763629 102:0.97192073 103:0.95267541 111:0.99763615 112:0.99501122 113:0.92639448 114:0.95433356 115:0.93543649 123:0.988478 124:0.988478 125:0.89272471 126:0.91234693 127:0.89428125 135:0.73496058 136:0.73496058 137:0.65328385 138:0.88133775 139:0.86388609 196:0.17964069 197:0.17785323 208:0.17785323 209:0.17785323 233:0.058320083 234:0.058320083 243:0.020567196 244:0.020159938 245:0.33462356 246:0.33462356 247:0.17462955 255:0.075209173 256:0.073719931 257:0.66510035 258:0.66510035 259:0.52116155 267:0.14650914 268:0.14360807 269:0.89083247 270:0.89083247 271:0.76382265 279:0.1251211 280:0.1251211 281:0.79954114 282:1 283:0.98019867 322:0.10509827 323:0.20969104 324:0.1025217 330:0.11717203 331:0.35937717 332:0.61030381 333:0.8253049 334:0.81842548 335:0.72638875 336:0.46842504 339:0.20003235 340:0.71456401 341:0.77830907 342:0.74953666 343:0.96558761 344:0.94230013 345:0.90998052 346:0.82949588 347:0.82362361 348:0.46429359 351:0.20027971 352:0.70844627 353:0.84912993 354:0.74273821 355:0.92284071 356:0.99169393 357:0.63952149 358:0.32008197 359:0.099399928 363:0.0033444003 364:0.13359212 365:0.23262488 366:0.19660352 367:0.24091555 368:0.14081118 466:0.059995777 467:0.12029228 468:0.059102556 474:0.051471442 475:0.15799259 476:0.30444595 477:0.44440035 478:0.42643297 479:0.35524521 480:0.23421123 483:0.30930261 484:0.57547432 485:0.37404047 486:0.49448888 487:0.75932761 488:0.64788299 489:0.535195 490:0.43409018 491:0.41625067 492:0.23184111 495:0.70273034 496:0.96301789 497:0.79124576 498:0.82528709 499:1 500:0.7259249 501:0.41752316 502:0.19894352 503:0.062143951 507:0.39765334 508:0.68552804 509:0.51785391 510:0.60727843 511:0.72798466 512:0.19414356 519:0.0760281 520:0.0760281 521:0.066567275 522:0.12174301 523:0.11933234 531:0.007089612 532:0.007089612 533:0.013509248 534:0.040107899 535:0.03931371 543:0.0015598605 544:0.0015598605 546:0.0022816484 547:0.0022364688 611:0.49875 612:0.48887409 623:1 624:0.99501248 627:0.49626248 628:0.49626248 635:0.98513657 636:0.98513657 639:0.49626248 640:0.50125 641:0.49132458 652:0.49132458 653:0.4815957 699:0.49875 700:0.48887409 711:0.49875 712:0.49875 713:0.49875 714:0.49875 715:0.48887409 
0.3768693094777285 1.020822622438894 1.173968407754202 0.3507697483345313 1.505973981687234 1.56768268677106 0.9069235099246707 0.7493699189004732 1.032416920170186 37:0.2085205 38:0.2085205 40:0.26552932 41:0.26199848 49:0.63292259 50:0.63292259 51:0.42253834 52:0.81780032 53:0.81015534 54:0.22226193 61:0.42003673 62:0.63289744 63:0.62036524 64:0.54541121 65:0.81340304 66:0.42434459 74:0.20191479 75:0.19791661 77:0.20379247 78:0.19975711 80:0.05196628 81:0.050937279 92:0.5625861 93:0.55493487 104:0.92033946 105:0.91377893 106:0.36556438 116:0.8321498 117:0.98195706 118:0.79238648 128:0.94175274 129:1 130:0.80878482 140:0.51576732 141:0.72336277 142:0.37877541 182:0.0017877713 183:0.0035845038 184:0.0035312258 193:0.032261799 194:0.03401417 195:0.017313953 196:0.29180378 197:0.28873258 198:0.096595736 205:0.031984085 206:0.032445082 207:0.031802626 208:0.41101057 209:0.8515176 210:0.61571882 211:0.16308952 218:0.0180553 219:0.017697781 220:0.12176945 221:0.55812423 222:1 223:0.86796525 224:0.4107322 225:0.13488009 234:0.47669443 235:0.8012328 236:0.69080701 237:0.36403466 247:0.081181263 248:0.49559916 249:0.4859439 250:0.071847039 260:0.057804865 261:0.14681928 262:0.092886465 273:0.021752537 274:0.021321808 325:0.15095725 326:0.51976017 327:0.76564411 328:0.95336039 329:0.93833609 330:0.76749405 331:0.77021159 332:0.77295672 333:0.77588702 334:0.77829839 335:0.58051011 336:0.19136625 337:0.15095725 338:0.51245738 339:0.75048334 340:1 341:0.9852732 342:0.92721923 343:0.76471748 344:0.76783828 345:0.77056179 346:0.77338948 347:0.58051011 348:0.19136625 350:0.1494552 351:0.14649579 352:0.1864478 353:0.47188858 354:0.52138643 355:0.055278977 364:0.12169755 365:0.33718418 366:0.47514435 367:0.50123705 368:0.436858 369:0.098355705 378:0.12624135 379:0.46422935 380:0.52621573 381:0.21440642 391:0.1134949 392:0.32591441 393:0.21016089 469:0.30848301 470:0.46783351 471:0.22384192 472:0.66789728 473:0.71432652 474:0.19993183 475:0.16314527 476:0.1350417 477:0.11836458 478:0.10859509 479:0.077660234 480:0.025478839 481:0.32962246 482:0.48581761 483:0.51747801 484:0.95602826 485:1 486:0.51203069 487:0.16314527 488:0.1350417 489:0.11836458 490:0.10859509 491:0.077660234 492:0.025478839 493:0.020720861 494:0.326553 495:0.32008682 496:0.29115582 497:0.83968098 498:0.53766363 509:0.21493249 510:0.21067655 536:0.005594205 537:0.005594205 548:0.09665892 549:0.09665892 550:0.033243093 560:0.3752511 561:0.37114015 562:0.17091808 572:0.28123226 573:0.34592351 574:0.1365535 614:0.49875 615:0.49875 616:0.48887409 622:1 623:0.99501248 624:0.48887409 625:0.49626248 626:0.98513657 627:0.49875 628:0.49626248 629:0.49626248 634:0.98019867 635:0.99501248 636:0.48887409 637:0.49626248 638:0.50125 639:0.49132458 640:0.49626248 641:0.50125 642:0.49132458 650:0.49132458 651:0.4815957 653:0.49132458 654:0.4815957 704:0.49875 705:0.48887409 716:0.49875 717:0.49875 
0.2616791452691559 0.6687424876047893 0.8142021327992267 0.2340444577918264 1.001534848361241 1.031522026922904 0.6185988617818099 0.4830760558588281 0.6909740168774828 27:0.17750358 28:0.17750358 29:0.079459965 30:0.079459965 39:0.60233809 40:0.60233809 41:0.40769053 42:0.61966073 43:0.2722031 51:0.84741836 52:0.84741836 53:0.79858226 54:0.83109752 55:0.82301433 63:0.84894598 64:0.85248814 65:0.83560774 66:0.5481717 67:0.54560771 69:0.12467459 70:0.12220587 75:0.8349132 76:0.84966146 77:0.83283704 81:0.45306712 82:0.44409579 87:0.80702171 88:0.99690182 89:0.80862827 93:0.74532539 94:0.73056696 99:0.39427029 100:0.9744363 101:0.96250562 105:0.80587703 106:0.7899196 112:0.64059594 113:0.67731312 114:0.083988951 116:0.0049532724 117:0.76136987 118:0.76136987 124:0.076290581 125:0.11628962 126:0.12404006 127:0.083153247 128:0.0049532724 129:0.35480883 130:0.35470977 138:0.083153247 139:0.081506703 141:0.0049039865 142:0.0048068811 172:0.00046465224 173:0.00093163355 174:0.00045773447 183:0.022825578 184:0.02329023 185:0.16383096 186:0.27967482 187:0.11401451 195:0.02286743 196:0.023012724 197:0.16157212 198:0.70820669 199:0.70651166 200:0.16211405 207:0.0096370857 208:0.022186304 209:0.021746986 210:0.42465827 211:0.95325562 212:0.83539962 213:0.46249812 214:0.16237057 219:0.029229813 220:0.029229813 221:0.017818124 223:0.4558817 224:0.79138372 225:0.67983095 226:0.34224114 231:0.16366297 232:0.27542017 233:0.10954425 236:0.081716661 237:0.50327549 238:0.41948834 243:0.1437512 244:0.67607644 245:0.52497417 249:0.089330873 250:0.089330873 256:0.58028018 257:0.91576994 258:0.50256036 259:0.084998058 260:0.004061319 261:0.0075862671 262:0.0075862671 268:0.15868558 269:0.56552723 270:0.63280782 271:0.23352252 272:0.016936038 282:0.13076379 283:0.14558348 284:0.016600682 315:0.11339484 316:0.40463658 317:0.58624782 318:0.58270708 319:0.57240476 320:0.857457 321:0.99901066 322:0.71877264 323:0.57925681 324:0.28893072 327:0.11339484 328:0.40463658 329:0.58624782 330:0.59405308 331:0.57762186 332:0.85170914 333:1 334:0.8543144 335:0.57925681 336:0.28893072 340:0.24965025 341:0.54583999 342:0.67126318 343:0.74457643 344:0.65065473 345:0.55528736 346:0.2717916 354:0.21772399 355:0.31634161 356:0.34352471 357:0.29874917 358:0.05669186 367:0.087873125 368:0.31787658 369:0.35429551 370:0.1404352 375:0.052579924 376:0.10542341 377:0.051797111 380:0.080549417 381:0.21983936 382:0.1376544 387:0.052579924 388:0.10595184 389:0.10490023 400:0.10385386 401:0.369212 402:0.59104567 403:0.58881359 404:0.56869248 405:0.26573848 412:0.063645575 413:0.36439979 414:0.58755418 415:0.65392765 416:0.59714483 417:0.41951462 418:0.12121443 426:0.26284946 427:0.55563777 428:0.58532057 429:0.41120767 430:0.11881422 459:0.13163814 460:0.2388973 461:0.40972572 462:0.63319092 463:0.39499467 464:0.16106622 465:0.15711372 466:0.10884932 467:0.085409538 468:0.041459549 471:0.1943095 472:0.30156865 473:0.59014326 474:0.99294934 475:0.82389432 476:0.16264773 477:0.16791046 478:0.13321956 479:0.085409538 480:0.041459549 483:0.074474237 484:0.27119169 485:0.32395604 486:0.97208826 487:0.99042276 488:0.14086517 489:0.10786148 490:0.049686142 495:0.012641923 496:0.025508399 497:0.025003298 498:0.17578969 499:0.17578969 508:0.0052316002 509:0.0051280076 520:0.043843605 521:0.042975444 525:0.020734814 526:0.020324237 532:0.087906977 533:0.08746854 537:0.12388038 538:0.12142739 544:0.086600378 545:0.086600378 547:0.011969601 548:0.34508799 549:0.71548628 550:0.40132999 559:0.011969601 560:0.34508799 561:0.69068787 562:0.61900342 571:0.00063204367 572:0.065664684 573:0.34026563 574:0.27000063 604:0.49875 605:0.48887409 611:0.50125 612:0.49626248 615:0.49626248 616:0.99501248 617:0.49875 618:0.49875 619:0.48887409 623:0.49626248 624:0.49626248 627:0.49626248 628:0.99012409 629:0.98019867 630:1 631:0.99501248 640:0.49132458 641:0.4815957 642:0.98513657 643:0.98513657 693:0.50125 694:0.49626248 705:0.49626248 706:0.49626248 
0.1896594967659449 0.4402676602611929 0.5219738624100928 0.1599829835368264 0.6433699998583998 0.6856875960036604 0.4271584741444185 0.3109667524348463 0.4757067474012524 27:0.19154795 28:0.19154795 29:0.12902698 30:0.12902698 39:0.61589645 40:0.61589645 41:0.45833348 42:0.67299848 43:0.32953288 51:0.84974567 52:0.84974567 53:0.81399883 54:0.78765595 55:0.7785812 63:0.85226002 64:0.85569915 65:0.83875517 66:0.44732715 67:0.44490719 69:0.12360787 70:0.12116027 75:0.83541913 76:0.85069399 77:0.83384912 81:0.64322227 82:0.63428622 87:0.79608624 88:0.99701172 89:0.80860646 93:0.9352393 94:0.92881155 95:0.39320196 99:0.38337372 100:0.96369116 101:0.95197893 105:0.79510876 106:0.98059674 107:0.7950909 112:0.6103129 113:0.65207207 114:0.044500807 117:0.54326578 118:0.754881 119:0.40150716 124:0.057077327 125:0.10193753 126:0.04397191 129:0.34169441 130:0.34169441 172:0.0051211397 173:0.0050703103 183:0.027433526 184:0.032554666 185:0.16566057 186:0.27825911 187:0.11533885 195:0.027332662 196:0.030163035 197:0.159115 198:0.58761624 199:0.58921129 200:0.16308865 207:0.010261829 208:0.024981249 209:0.024486587 210:0.36772754 211:0.67441732 212:0.56971358 213:0.39480778 214:0.16987172 219:0.0309554 220:0.0309554 221:0.018897791 223:0.16308865 224:0.42723646 225:0.61426287 226:0.35091538 231:0.16372451 232:0.28340943 233:0.117315 237:0.3978016 238:0.45003153 239:0.053197151 243:0.14263263 244:0.70280465 245:0.55223118 249:0.049321497 250:0.11029772 251:0.059768811 256:0.59789148 257:1 258:0.57055549 259:0.14811822 260:0.0010693792 262:0.0072568887 263:0.0071131927 268:0.15677678 269:0.57267243 270:0.76633313 271:0.35877596 272:0.014496517 282:0.19495915 283:0.20648643 284:0.014209466 315:0.1016525 316:0.36719309 317:0.52596203 318:0.51490399 319:0.75475823 320:1 321:0.75503575 322:0.51362361 323:0.51182871 324:0.25511101 327:0.1016525 328:0.36719309 329:0.52596203 330:0.52398618 331:0.74970464 332:0.98991298 333:0.87506233 334:0.63150635 335:0.51182871 336:0.25511101 340:0.23060073 341:0.4912166 342:0.59438706 343:0.66211294 344:0.56682726 345:0.35950501 346:0.11883176 354:0.15954666 355:0.22583193 356:0.21798225 357:0.19977277 358:0.052816327 367:0.041901863 368:0.18779135 369:0.24314085 370:0.12917841 375:0.047762519 376:0.090078051 377:0.30042655 378:0.51532775 379:0.51532751 380:0.25637852 381:0.12811145 382:0.12662051 387:0.047762519 388:0.090558073 389:0.30042655 390:0.51532775 391:0.5179108 392:0.38811238 393:0.12786559 400:0.088764903 401:0.34762234 402:0.5828983 403:0.57535099 404:0.51952803 405:0.26073069 406:0.0077850664 412:0.052094151 413:0.29624349 414:0.49972309 415:0.55673745 416:0.5316248 417:0.39615758 418:0.13017436 426:0.21846946 427:0.47935826 428:0.52109793 429:0.38068222 430:0.11996583 459:0.20295717 460:0.42160575 461:0.52627946 462:0.66809678 463:0.45832565 464:0.19866958 465:0.14144304 466:0.092859298 467:0.08861103 468:0.04254243 471:0.24913284 472:0.46778143 473:0.64521289 474:0.97460423 475:0.81642913 476:0.21932968 477:0.16957812 478:0.11579322 479:0.08861103 480:0.04254243 483:0.056258386 484:0.44044919 485:0.48533106 486:0.92934451 487:0.97415974 488:0.16146976 489:0.084861028 490:0.024485728 495:0.010574976 496:0.024027351 497:0.023551577 498:0.18385981 499:0.18385981 508:0.0027890065 509:0.0027337805 520:0.046196475 521:0.066248875 522:0.041724961 523:0.041723998 524:0.020758064 525:0.021966145 526:0.021966145 532:0.046196475 533:0.066248875 534:0.041724961 535:0.04193389 536:0.031424353 537:0.14089146 538:0.13951942 539:0.070399798 544:0.045281724 545:0.055583401 546:0.030955676 547:0.041103544 548:0.30878972 549:0.6992429 550:0.4187671 551:0.069969167 559:0.007967824 560:0.30878972 561:0.65554474 562:0.62133955 571:0.001993244 572:0.030185623 573:0.30340317 574:0.26987528 604:0.50125 605:0.49132458 611:0.50376252 612:0.49875 615:0.49875 616:1 617:0.50125 618:0.50125 619:0.49132458 623:0.49875 624:0.49875 627:0.49875 628:0.99508711 629:0.98511194 630:0.50125 631:0.50125 640:0.49378736 641:0.48400971 642:0.49132458 643:0.49132458 665:0.50125 666:0.49132458 667:0.49875 668:0.49875 677:0.50125 678:0.50125 679:0.49875 680:0.50376252 681:0.49378736 689:0.49132458 690:0.49132458 692:0.49378736 693:0.98275971 694:0.49875 705:0.49875 706:0.49875 
0.2697213869091907 0.6835797416615106 0.7970184229875749 0.2362268480135391 1.010508837144949 1.072328309339886 0.6563229490491491 0.4877030987527458 0.7406984034331331 27:0.17856347 28:0.1754767 29:0.1403919 30:0.1403919 39:0.83465173 40:0.82507435 41:0.37033544 42:0.54006296 43:0.28104376 51:0.98770564 52:1 53:0.51078086 54:0.53952055 55:0.53219816 63:0.66924882 64:0.82703194 65:0.65854913 66:0.25054585 67:0.24887899 69:0.10142823 70:0.099419813 75:0.65593878 76:0.6680301 77:0.65480222 81:0.50933081 82:0.50221244 87:0.52029041 88:0.67998633 89:0.63308528 91:0.1234497 92:0.1234497 93:0.74100348 94:0.73594067 95:0.31318086 99:0.19556658 100:0.60618566 101:0.59909234 103:0.1234497 104:0.12469039 105:0.76769382 106:0.77901801 107:0.63117292 112:0.31081907 113:0.32858064 114:0.099345728 115:0.079497356 116:0.12222136 117:0.55672235 118:0.72570074 119:0.45773167 124:0.022667759 125:0.079497356 126:0.098984504 127:0.079497356 129:0.25603638 130:0.39611869 131:0.13730849 172:0.0049705478 173:0.0049457571 174:0.0024299721 183:0.033599502 184:0.037806312 185:0.19881591 186:0.36458783 187:0.16721767 195:0.035118522 196:0.034458184 197:0.19223284 198:0.59410988 199:0.86940809 200:0.46620516 207:0.020491557 208:0.026323708 209:0.0057166668 210:0.3594675 211:0.8286008 212:0.89264989 213:0.47918041 214:0.16505126 219:0.035386092 220:0.035386092 221:0.021168902 223:0.16304172 224:0.56206563 225:0.80852975 226:0.411563 231:0.32569607 232:0.45838175 233:0.19647048 235:0.14626218 236:0.14626218 237:0.3801435 238:0.43329976 239:0.053854975 243:0.29760316 244:0.91668429 245:0.61022168 247:0.14626218 248:0.14773214 249:0.19684303 250:0.1063012 251:0.053190497 256:0.59388194 257:0.94831207 258:0.46471479 259:0.091546589 260:0.14480684 261:0.14193948 268:0.15674954 269:0.53025745 270:0.48792188 271:0.1333261 272:0.015000398 282:0.026046284 283:0.040952222 284:0.01470337 315:0.087109591 316:0.41338577 317:0.55272578 318:0.6312059 319:0.71411953 320:0.52684461 321:0.43028809 322:0.43186473 323:0.43312124 324:0.32321455 327:0.087109591 328:0.4089506 329:0.54394233 330:0.67944005 331:0.76136783 332:0.62348386 333:0.42724283 334:0.42885338 335:0.4303369 336:0.32321455 340:0.18651023 341:0.1848025 342:0.223805 343:0.51336579 344:0.28640023 354:0.13952 355:0.24473996 356:0.29234379 357:0.24031304 358:0.063457207 367:0.035652142 368:0.21974483 369:0.30418236 370:0.17881853 375:0.10508469 376:0.10508469 377:0.21768004 378:0.43319957 379:0.43319938 380:0.21551929 381:0.11427347 382:0.11307702 387:0.10404168 388:0.25149081 389:0.57475786 390:0.84799316 391:0.84509591 392:0.5280593 393:0.10748756 400:0.19912598 401:0.56724988 402:0.99319542 403:0.93073863 404:0.52206908 405:0.22084237 406:0.11178867 412:0.052686634 413:0.21211215 414:0.37401181 415:0.43856029 416:0.44344863 417:0.33378703 418:0.11178867 426:0.10432507 427:0.32312554 428:0.43466776 429:0.21581493 459:0.53874745 460:0.84523005 461:0.63407715 462:0.71766966 463:0.47635778 464:0.1481528 465:0.11619697 466:0.099491125 467:0.091762207 468:0.055429883 471:0.59262092 472:0.89518832 473:0.68350605 474:0.97085084 475:0.80408368 476:0.20587168 477:0.11619697 478:0.099491125 479:0.091762207 480:0.055429883 483:0.29110034 484:0.73098905 485:0.43391059 486:0.81905659 487:0.91503949 488:0.10136912 495:0.011467146 496:0.024248537 497:0.023768383 498:0.19718219 499:0.19718219 508:0.0030624132 509:0.0030017734 520:0.061967024 521:0.082233196 522:0.042771861 523:0.11797576 524:0.096483757 525:0.025885386 526:0.025885386 527:0.0039967683 532:0.084780919 533:0.15359481 534:0.15083142 535:0.23053015 536:0.19129224 537:0.22606344 538:0.22437186 539:0.076141997 544:0.060739995 545:0.11788382 546:0.13097825 547:0.17849797 548:0.37232707 549:0.81510637 550:0.77374679 551:0.13434416 559:0.011484729 560:0.31628001 561:0.70812991 562:0.69762359 563:0.061386376 571:0.00092168186 572:0.067919897 573:0.066791499 604:0.33388564 605:0.32727426 611:0.66944488 612:0.66610601 615:0.66777128 616:0.99504554 617:0.6611599 618:0.33388564 619:0.32727426 623:0.65618899 624:0.66610601 627:0.6611599 628:0.99504554 629:0.65454852 630:0.33388564 631:0.33388564 639:0.32727426 640:0.32727426 642:0.32727426 643:0.32727426 665:0.33388564 666:0.32727426 667:0.33222038 668:0.33222038 676:0.33388564 677:0.66777128 678:0.6611599 679:0.33222038 680:0.33555925 681:0.32891473 688:0.32727426 689:0.6611599 690:0.65454852 692:0.32891473 693:0.65462216 694:0.33222038 705:0.33222038 706:0.33222038 
0.3781319352709033 1.019777370655146 1.166739632518714 0.3507095379634276 1.4963009077724 1.581703556752634 0.9090134823821205 0.7366212804420847 1.027414686914232 4:0.11069539 5:0.40299467 6:0.28651137 15:0.15007753 16:0.35271411 17:0.94313772 18:0.73389673 19:0.14547014 27:0.55245827 28:0.64381743 29:0.96971971 30:0.90938309 31:0.52055009 39:0.83229575 40:0.83319816 41:0.82153814 42:0.82153814 43:0.79779892 51:0.86022836 52:0.86678256 53:0.84961911 54:0.92679859 55:0.91145373 63:0.86406228 64:0.86406228 65:0.84646966 66:0.85571879 67:0.82840845 75:0.8816792 76:0.8816792 77:0.86031121 78:0.81232053 79:0.7962355 87:0.8907771 88:0.89323639 89:0.87554913 90:0.82096882 91:0.82096882 99:0.87455598 100:0.89241211 101:0.87474116 102:0.81133803 103:0.73939497 111:0.5190281 112:0.74501569 113:0.73026339 114:0.75977621 115:0.75423006 123:0.089197363 124:0.29928425 125:0.39442837 126:0.68027945 127:0.6696233 137:0.12505145 138:0.2582457 139:0.25313209 149:0.192317 150:0.18850887 161:0.42212636 162:0.41669942 163:0.078329504 173:0.29025018 174:0.37554929 175:0.19476692 185:0.15576716 186:0.16828378 187:0.16495154 197:0.15896457 198:0.30340118 199:0.26577369 200:0.23258088 201:0.30072835 202:0.16803911 209:0.063467766 210:0.30981086 211:0.33457309 212:0.23136694 213:0.40823422 214:0.7277993 215:0.61207157 216:0.15951233 219:0.00059130603 220:0.00059130603 222:0.18337555 223:0.18337555 224:0.091581545 225:0.24883092 226:0.58313151 227:1 228:0.81575058 231:0.0061685001 232:0.0061685001 233:0.0030019425 234:0.070923422 235:0.070923422 237:0.0036443021 238:0.030763301 239:0.5076839 240:0.66260533 243:0.13692239 244:0.13692239 245:0.018371345 246:0.0064618439 247:0.0064618439 255:0.30891145 256:0.55484728 257:0.4697055 258:0.22516571 267:0.17424591 268:0.44707187 269:0.61758809 270:0.32009686 271:0.14270337 281:0.17287382 282:0.31375852 283:0.13987765 292:0.031294854 293:0.031294854 304:0.13518681 305:0.13498316 306:0.081773548 316:0.10183475 317:0.13435725 318:0.081160035 342:0.29359383 343:0.68891386 344:0.62372449 345:0.4042539 346:0.17640588 354:0.28778028 355:0.67763496 356:0.66341412 357:0.56825565 358:0.43897521 359:0.27746086 360:0.039167427 366:0.18918397 367:0.3970375 368:0.44697218 369:0.80208193 370:0.9799362 371:0.91494276 372:0.51477926 377:0.079054786 378:0.35231616 379:0.47945006 380:0.44223265 381:0.51076296 382:0.55946711 383:0.63779696 384:0.47422482 389:0.077489397 390:0.25030528 391:0.44683084 392:0.30300252 393:0.10474419 399:0.035633976 400:0.25507614 401:0.44503691 402:0.22440935 411:0.034928376 412:0.2527837 413:0.44348149 414:0.36597577 415:0.08631175 425:0.27514817 426:0.35872896 427:0.084602662 436:0.1836905 437:0.3560079 438:0.16890529 447:0.13868649 448:0.83217588 449:0.85724942 450:0.50263701 459:0.23732853 460:0.74035644 461:0.98552379 462:0.4232671 471:0.11414746 472:0.40908444 473:0.40424193 483:0.033671283 484:0.059806743 485:0.058622491 486:0.022762375 487:0.022598549 488:0.0061730434 495:0.031333253 496:0.033337357 497:0.032677233 498:0.02231165 499:0.022598549 500:0.0061730434 507:0.019026935 508:0.027071261 509:0.026535214 510:0.16118625 511:0.28439707 512:0.2166682 513:0.14763714 514:0.094583032 515:0.018038076 519:0.0046598723 520:0.011361194 521:0.090694303 522:0.40292195 523:0.43244764 524:0.25359443 525:0.1899038 526:0.094583032 527:0.018038076 532:0.00059353244 533:0.16374191 534:0.4538482 535:0.52882561 536:0.19719979 537:0.059319842 544:0.011870716 545:0.28401473 546:0.41096002 547:0.35086467 556:0.011870716 557:0.2913804 558:0.43798927 559:0.38538558 569:0.082123385 570:0.21163874 571:0.16302411 581:0.50125 582:0.49626248 593:0.49626248 594:0.49626248 630:0.50125 631:0.49626248 642:0.49626248 643:0.49626248 665:0.49875 666:0.49875 667:0.48887409 677:0.48887409 678:0.49875 679:0.48887409 689:0.49626248 690:0.49626248 701:0.99501248 702:1 703:0.98019867 713:0.48887409 714:0.99007459 715:0.97046979 
0.3787866409526834 1.01722107726074 1.162565060476049 0.3566523257653864 1.510171144626694 1.561933969501687 0.9422327964775798 0.7490848147010322 1.037108534241284 28:0.46685309 29:0.46336113 30:0.12815648 40:0.91145887 41:0.89911186 42:0.28632439 52:1 53:0.99452267 54:0.15503598 64:0.86251929 65:0.9442935 66:0.31193087 76:0.45860983 77:0.7945766 78:0.60735754 79:0.023478875 80:0.023013962 88:0.1488882 89:0.30153045 90:0.29555975 91:0.42441444 92:0.41601048 103:0.42189541 104:0.42189541 105:0.1069606 106:0.098713515 115:0.19064302 116:0.19064302 117:0.5365467 118:0.51979324 129:0.5322137 130:0.53209112 141:0.19680655 142:0.19680655 163:0.00030176898 164:0.00090681956 165:0.0027833966 166:0.00702902 167:0.013333068 168:0.0084667187 175:0.00030176898 176:0.00090681956 177:0.0027833966 178:0.00702902 179:0.013333068 180:0.05609721 184:0.010874488 185:0.010659159 188:0.00059604255 189:0.0019621184 190:0.004835638 191:0.008242103 192:0.055879811 196:0.15655429 197:0.1545018 208:0.2617836 209:0.25996197 210:0.10980361 220:0.24130582 221:0.39302297 222:0.4548119 223:0.44868968 224:0.15410976 232:0.12309115 233:0.22878088 234:0.41973857 235:0.91791879 236:0.61842935 246:0.07335425 247:0.69048647 248:0.99786196 249:0.49114235 250:0.15603803 259:0.15844323 260:0.53902303 261:0.88781698 262:0.50815412 273:0.40590606 274:0.40280082 306:0.48209443 307:0.97418459 308:0.99185081 309:0.99380331 310:0.98932548 311:0.98401715 312:0.48854832 316:0.17413934 317:0.62602588 318:0.92970485 319:0.97418459 320:0.99359695 321:1 322:0.99756345 323:0.99101328 324:0.98008184 328:0.17069115 329:0.61362974 330:0.85169221 331:0.94873104 332:0.97392241 333:0.98019867 334:0.97781037 335:0.97138991 336:0.96543724 364:0.20636892 365:0.59468186 366:0.83840428 367:0.45761792 368:0.0095372347 376:0.20228255 377:0.58290637 378:0.90557775 379:0.64098866 380:0.14390484 390:0.15190898 391:0.29856432 392:0.55832244 393:0.45541474 394:0.13543612 403:0.14032623 404:0.5232636 405:0.55132232 406:0.22989678 417:0.094460654 418:0.092590208 450:0.061020992 451:0.075283094 452:0.014720191 460:0.60986417 461:0.83592196 462:0.47890421 463:0.14044069 464:0.04507368 465:0.0073415119 472:0.78197784 473:1 474:0.70003331 475:0.13907877 476:0.044181161 477:0.0071961402 484:0.3329337 485:0.55466846 486:0.21734411 496:0.048190738 497:0.048190738 549:0.28336158 550:0.27775065 561:0.28262058 562:0.28262058 573:0.20475382 574:0.20475382 612:1 624:0.99004983 693:0.99501248 694:0.97530991 705:0.99501248 706:0.99501248 717:0.97530991 718:0.97530991 
0.4589645331456145 0.9272242176603911 1.063395963110185 0.4415487469541409 1.386981303341914 1.41912580336399 0.9262320183083308 0.676224353887001 0.9384659303292232 28:0.12621423 29:0.25728715 30:0.23588143 31:0.10633525 33:0.27783071 34:0.2723293 40:0.42905866 41:0.84707125 42:0.67631306 43:0.10633525 45:0.67766511 46:0.67006643 47:0.14440969 52:0.59957139 53:1 54:0.98839294 57:0.6909859 58:0.70805366 59:0.43394652 64:0.58064278 65:0.69562743 66:0.68431499 69:0.58490031 70:0.58783312 71:0.57619324 76:0.73210128 77:0.72587933 78:0.39487757 81:0.58490048 82:0.58783234 83:0.57619248 88:0.86115614 89:0.85567658 90:0.44569413 93:0.58489491 94:0.58783222 95:0.57619236 99:0.14918445 100:0.6805226 101:0.69215789 102:0.44371901 105:0.29098869 106:0.44050611 107:0.43178351 111:0.43333327 112:0.67202934 113:0.67527237 114:0.13002655 118:0.14512698 119:0.14225327 123:0.2809597 124:0.67793435 125:0.66935867 136:0.44214678 137:0.43973363 175:0.013685119 176:0.15964957 177:0.52876722 178:0.37604243 184:0.13922576 185:0.30896413 186:0.16637733 187:0.013414136 188:0.15648829 189:1 190:0.92936363 191:0.17210603 196:0.22073465 197:0.39148201 198:0.3870767 201:0.53070231 202:0.61843434 203:0.23135688 208:0.090965433 209:0.27959142 210:0.27592155 213:0.11969641 214:0.12029613 215:0.1179141 220:0.19024008 221:0.18888394 222:0.059819891 225:0.11969649 226:0.12029647 227:0.11791444 232:0.17749115 233:0.19006655 234:0.11993963 237:0.11969649 238:0.12029647 239:0.11791444 245:0.060119739 246:0.058929289 249:0.05954983 250:0.090148029 251:0.088362979 255:0.16922722 256:0.25910708 257:0.088100119 262:0.029699736 263:0.029111642 267:0.16764716 268:0.65326161 269:0.47599864 280:0.57061434 281:0.56886109 316:0.097575267 317:0.50200316 318:0.82932363 319:0.91254739 320:0.95114543 321:0.8780419 322:0.39305364 328:0.097575267 329:0.50200316 330:0.82083065 331:0.89447774 332:0.95114543 333:1 334:0.63758114 335:0.12014238 341:0.29530974 342:0.49309823 343:0.19574703 345:0.24088697 346:0.24452751 347:0.12014238 460:0.2546413 461:0.63886347 462:0.72025515 463:0.38682617 464:0.16613209 465:0.040801474 466:0.039993551 472:0.33132387 473:0.78325706 474:1 475:0.50082602 476:0.16613209 477:0.055171386 478:0.040801474 484:0.40503471 485:0.68652633 486:0.80605292 487:0.12431085 489:0.039993551 490:0.039993551 496:0.69674466 497:0.69524017 498:0.61210237 508:0.36581306 509:0.65499686 510:0.56755269 520:0.4925084 521:0.48571787 522:0.062188604 531:0.096308362 532:0.93362293 533:0.83976708 534:0.14742423 543:0.12213764 544:0.80567971 545:0.88855472 546:0.083623358 555:0.025317824 556:0.12117936 557:0.11877984 606:0.5088127 607:0.50374993 617:0.50627499 618:0.9949876 619:0.50374993 621:0.50627499 622:0.50627499 623:0.49625007 629:0.50627499 630:0.50627499 633:0.49625007 634:0.50627499 635:0.49625007 641:0.49625007 642:0.49625007 669:0.50374993 670:0.50374993 681:0.50374993 682:0.5088127 683:0.49873753 694:0.49873753 695:0.48886187 700:0.50627499 701:0.49625007 712:0.50627499 713:0.50627499 
0.3300809137445622 0.9149829391473417 1.058375372525105 0.3362384179842665 1.419123287971195 1.451981541717274 0.8356961703916762 0.6596267204887156 0.9645262635172291 34:0.12318581 35:0.12318581 43:0.14160438 44:0.14160438 45:0.13880043 46:0.5063775 47:0.5063775 48:0.34299649 51:0.10426523 52:0.10322778 55:0.13880043 56:0.14160438 57:0.13880043 58:0.37872647 59:0.5067366 60:0.49670254 63:0.10322778 64:0.18865652 65:0.25810301 66:0.16626466 71:0.15612102 72:0.15302962 76:0.57294708 77:0.73728641 78:0.39837456 88:0.914961 89:0.90275867 90:0.46697616 100:0.90094977 101:0.99655651 102:0.15210338 112:0.94455861 113:0.92706299 124:0.93588114 125:0.93588114 136:0.89292157 137:0.89292157 178:0.63218206 179:0.62948989 190:0.99501288 191:1 192:0.84693145 199:0.010968116 200:0.010968116 202:0.35564629 203:0.9873832 204:0.83720335 211:0.010968116 212:0.011078347 213:0.010858981 224:0.010858981 225:0.010643959 256:0.051102681 257:0.05009078 268:0.2005624 269:0.196591 280:0.27543624 281:0.27543624 320:0.16643837 321:0.44432829 322:0.54254802 323:0.26337624 329:0.12481716 330:0.33636676 331:0.39180162 332:0.38330133 333:0.48055111 334:0.60968447 335:0.41202151 336:0.11836912 339:0.26816993 340:0.54868232 341:0.65362369 342:0.84777314 343:0.93564777 344:0.85020458 345:0.5881042 346:0.91726084 347:0.64622288 348:0.18249369 351:0.26285981 352:0.53781768 353:0.65443428 354:0.89250329 355:1 356:0.71775063 357:0.60213311 358:0.4983565 359:0.24101719 360:0.06515227 365:0.13114524 366:0.37877573 367:0.58027672 368:0.53778857 369:0.38206899 370:0.10961639 464:0.28937018 465:0.34936438 466:0.062531353 467:0.00032141359 473:0.038069358 474:0.20642176 475:0.60194752 476:0.87484367 477:0.64778076 478:0.32669298 479:0.26448304 480:0.069460003 483:0.22932124 484:0.2573267 485:0.20646984 486:0.51725924 487:0.92252445 488:0.88719343 489:0.78096999 490:0.5386821 491:0.48116457 492:0.26083509 495:0.22478037 496:0.38485452 497:0.75935454 498:0.76306261 499:0.8604308 500:0.54639186 501:0.32047721 502:0.38758078 503:0.38703441 504:0.1875856 508:0.41691449 509:0.86863134 510:0.8632622 511:0.52286061 512:0.32461857 513:0.1165832 514:0.050607741 520:0.36069847 521:0.59852471 522:0.47030737 532:0.16275806 533:0.24406937 534:0.079701239 544:0.052292856 545:0.052292856 556:0.009920889 557:0.009920889 619:0.49875 620:1 621:0.98513657 627:0.50125 628:0.49626248 631:0.48887409 632:0.99501248 633:0.98513657 639:0.49626248 640:0.49626248 712:0.50125 713:0.49626248 
0.3674495115663381 1.014514644285081 1.167648418841042 0.3448889108950658 1.541127588725972 1.591098581051354 0.9195198362476328 0.7250358805028474 1.027722439135151 21:0.057640349 22:0.057640349 23:0.095693181 24:0.095693181 30:0.11542125 31:0.11542125 33:0.057640349 34:0.058219644 35:0.20532545 36:0.20628718 42:0.37389967 43:0.46788422 44:0.30580645 45:0.077002705 46:0.057066818 47:0.1074614 48:0.20437329 50:0.10516498 51:0.10886608 52:0.003627822 54:0.47983346 55:0.87479577 56:0.44995425 57:0.22051413 62:0.33728197 63:0.34098308 64:0.28139621 65:0.077882226 66:0.43665241 67:0.95231255 68:0.5328015 69:0.24691299 74:0.43343282 75:0.45257216 76:0.50623448 77:0.31771212 78:0.45241817 79:0.86554808 80:0.56572222 81:0.10241066 86:0.29008773 87:0.49737736 88:0.48924124 89:0.43789212 90:0.63799749 91:1 92:0.46605751 98:0.086980073 99:0.35669014 100:0.38054612 101:0.21041827 102:0.61898363 103:0.83909685 104:0.22644621 111:0.089113993 112:0.1558542 113:0.065722895 114:0.49186176 115:0.49013817 124:0.038577394 125:0.06878511 126:0.44817587 127:0.44684623 137:0.065819581 138:0.22339934 139:0.2220697 167:0.15011474 168:0.1500388 174:0.007437538 175:0.007437538 177:0.00075979521 178:0.00075979521 179:0.1835839 180:0.18505403 186:0.014912357 187:0.014987105 188:0.014690341 189:0.00075979521 190:0.00076743128 191:0.032806418 192:0.18205245 195:0.22794165 196:0.36964492 197:0.14071505 198:0.10013226 199:0.098294589 200:0.014544533 202:0.00075223512 203:0.00073733987 206:0.013288942 207:0.23937618 208:0.78145753 209:0.7101005 210:0.32367386 211:0.16745235 218:0.094568107 219:0.094568107 220:0.46718674 221:0.98116703 222:0.85964713 223:0.30063238 224:0.018111529 230:0.12611759 231:0.32700412 232:0.2160001 233:0.4600006 234:0.7673201 235:0.3716543 236:0.035705778 242:0.044693487 243:0.63746587 244:0.74370206 245:0.24994915 246:0.39073035 247:0.41682027 248:0.029921405 255:0.38845171 256:0.99646921 257:0.73177446 258:0.35502513 259:0.207934 268:0.45028856 269:0.87155242 270:0.55226103 271:0.1319927 281:0.26957573 282:0.37335672 283:0.10453081 309:0.034193 310:0.23057635 311:0.45520342 312:0.25768454 318:0.12004793 319:0.49464665 320:0.59711118 321:0.63357924 322:0.81283937 323:0.87031924 324:0.51413078 330:0.12004793 331:0.49226953 332:0.80850539 333:1 334:0.93501727 335:0.88710838 336:0.67844096 339:0.24434169 340:0.26107184 341:0.020073971 343:0.24405925 344:0.46721183 345:0.57556375 346:0.59073115 347:0.40832099 348:0.16848708 351:0.24189155 352:0.43978664 353:0.23307676 354:0.077703316 363:0.064312689 364:0.21771091 365:0.27257194 366:0.11823866 377:0.040167377 378:0.039732691 400:0.046027719 401:0.089915452 402:0.043190105 412:0.045640744 413:0.14649703 414:0.13774852 415:0.055837106 425:0.069411437 426:0.12585731 427:0.055837106 453:0.13870828 454:0.35816633 455:0.23008745 456:0.013120421 462:0.11641751 463:0.17522227 464:0.16502443 465:0.62877646 466:0.86396905 467:0.71262817 468:0.36693421 474:0.56045927 475:0.86006102 476:0.64681064 477:0.77460573 478:0.92247151 479:0.83305821 480:0.52449265 482:0.17541732 483:0.44421082 484:0.26347104 486:0.52177968 487:0.92738898 488:0.80674625 489:0.73751482 490:0.31808644 491:0.23431473 492:0.15854286 494:0.21187297 495:0.47883491 496:0.46498953 498:0.27713269 499:0.46673574 500:0.30413685 501:0.25791069 506:0.035982042 507:0.38305923 508:0.37889593 509:0.079743411 510:0.27176817 511:0.30557258 512:0.099027828 513:0.044473613 519:0.01241279 520:0.012167001 521:0.078830258 522:0.23187591 523:0.24317949 524:0.012889295 534:0.074898439 535:0.074239192 546:0.14848016 547:0.14554005 557:0.10386882 558:0.33248577 559:0.33042903 569:0.10181208 570:0.2564423 571:0.25438556 597:0.49626248 598:0.99501248 599:0.48887409 606:0.49626248 607:0.49626248 609:0.49626248 610:1 611:0.99007459 618:0.49626248 619:0.50125 620:0.49132458 622:0.98019867 623:0.97046979 631:0.49132458 632:0.4815957 666:0.50125 667:0.99257458 668:0.49626248 678:0.49626248 679:0.99252495 680:0.49626248 
0.3120072193730119 0.9918769957741562 0.8973698834694076 0.5235737440530751 1.573966829887792 1.338262301035261 0.9802082523582296 0.7057413060682116 1.241293451284237 52:0.09599002 53:0.29799145 54:0.19846142 55:0.022765192 59:0.34489463 60:0.33806526 64:0.40031088 65:0.60010746 66:0.43184224 67:0.022765192 71:0.34360604 72:0.34360604 76:0.85156241 77:0.84406231 78:0.6497651 83:0.21112602 84:0.21112602 88:1 89:0.98352183 90:0.32881914 100:0.92102609 101:0.90278855 112:0.95614941 113:0.93721638 124:0.96391324 125:0.96192162 136:0.71489227 137:0.71489227 188:0.048611574 189:0.21882917 190:0.61184999 191:0.43681516 200:0.047649 201:0.21449607 202:0.77673534 203:0.91201304 204:0.50479032 214:0.16744684 215:0.75402508 216:0.59361478 227:0.090035501 228:0.090035501 256:0.005224931 257:0.0051214705 268:0.026093898 269:0.025577205 280:0.025906657 281:0.025906657 329:0.10338091 330:0.43008428 331:0.78907921 332:1 333:0.98831799 334:0.78357633 335:0.30356987 341:0.1378308 342:0.46048628 343:0.77582773 344:0.98019867 345:0.98831799 346:0.87288231 347:0.54708202 348:0.15176453 353:0.033767734 354:0.25665936 355:0.2539505 358:0.087537601 359:0.2404741 360:0.15052001 473:0.16874486 474:0.39906845 475:0.31339447 476:0.21767713 477:0.061192783 484:0.12189559 485:0.76907692 486:0.86936964 487:0.61943389 488:0.21767713 489:0.061192783 491:0.024437647 492:0.02395375 496:0.32435338 497:0.79582145 498:1 499:0.45577356 503:0.024437647 504:0.024437647 508:0.3785924 509:0.56957434 510:0.50304401 515:0.02395375 516:0.02395375 520:0.22620512 521:0.29554189 522:0.14348188 532:0.11949167 533:0.11949167 544:0.050039054 545:0.050039054 556:0.020592696 557:0.020592696 568:0.00081458695 569:0.00081458695 635:0.99501248 636:0.97530991 647:0.99501248 648:0.99501248 659:0.97530991 660:0.97530991 700:0.99501248 701:0.97530991 712:0.99501248 713:0.99501248 
0.3774268593263762 1.022790050955942 1.172172546101689 0.3532966396785033 1.508592236553929 1.573551410693322 0.9164216402948741 0.7351534009376022 1.032709433386465 31:0.10744 32:0.10630722 33:0.024606797 36:0.23632757 42:0.19357188 43:0.55895424 44:0.35913214 45:0.04948582 48:0.23632757 51:0.036895739 52:0.036165155 54:0.63103355 55:0.88705653 56:0.73683882 57:0.024386386 60:0.23164797 62:0.32424297 63:0.48059186 64:0.27469452 66:0.89855525 67:1 68:0.98284615 74:0.46916217 75:0.7321537 76:0.71893861 78:0.46062389 79:0.69160447 80:0.67790978 86:0.14441654 87:0.49251102 88:0.499484 89:0.017159774 91:0.26751132 92:0.26299529 99:0.043735413 100:0.066531612 101:0.034913669 102:0.017920163 103:0.25526835 104:0.25526835 112:0.0087629545 113:0.017920163 114:0.036020428 115:0.24721243 116:0.21155041 126:0.035662018 127:0.035310706 166:0.045558377 167:0.073626966 168:0.027883358 178:0.045558377 179:0.23292567 180:0.43595304 190:0.018714111 191:0.15614438 192:0.46120388 195:0.06392164 196:0.3151636 197:0.24876033 204:0.13175064 206:0.055342264 207:0.1192639 208:0.44415731 209:0.7830666 210:0.41632222 211:0.016295239 212:0.0029489824 218:0.14005768 219:0.55309428 220:0.53417117 221:0.70415407 222:0.9778345 223:0.43375844 224:0.016103461 230:0.083037936 231:0.64033057 232:0.98844595 233:0.56882307 234:0.70369682 235:0.9983962 236:0.43830314 243:0.14456994 244:0.72618653 245:0.97388606 246:0.53084496 247:0.68952747 248:0.54558886 256:0.1447437 257:0.619379 258:0.7565874 259:0.49992437 260:0.21350706 269:0.077916567 270:0.36245483 271:0.56284929 272:0.49804374 273:0.228895 283:0.1713221 284:0.40000288 285:0.22732742 309:0.41342817 310:0.82809134 311:0.59855591 312:0.18077089 319:0.12150704 320:0.43571633 321:0.72498515 322:0.82809134 323:1 324:0.76768391 331:0.11910104 332:0.42708857 333:0.62499889 334:0.80332375 335:0.98377683 336:0.80966605 339:0.20077789 340:0.36135202 341:0.15848378 348:0.048475134 351:0.20077789 352:0.39356795 353:0.39936729 354:0.093490865 363:0.02110473 364:0.32314847 365:0.417991 366:0.16056946 367:0.04177202 375:0.0096393159 376:0.038079475 377:0.041272368 378:0.07743202 379:0.077727044 380:0.02532302 387:0.0033569802 388:0.072079089 389:0.38128006 390:0.31890879 391:0.035892556 392:0.025103146 400:0.039429836 401:0.35002021 402:0.57121019 403:0.47326243 404:0.20811903 413:0.10232386 414:0.28517674 415:0.58073694 416:0.61349503 417:0.32541993 427:0.19382168 428:0.51958842 429:0.32331049 453:0.067397719 454:0.073392769 455:0.0066818748 463:0.56249612 464:0.7405366 465:0.40816322 466:0.15794819 467:0.032454252 474:0.087928299 475:0.90748248 476:0.98883155 477:0.59159541 478:0.15647349 479:0.031811615 483:0.39258389 484:0.38853383 486:0.1483938 487:0.56804852 488:0.74981219 489:0.18060552 494:0.20453278 495:0.77436979 496:0.67179184 497:0.18617829 498:0.067629558 499:0.25525144 500:0.25216934 506:0.20247571 507:0.58151815 508:0.76362639 509:0.18249172 510:0.0077394298 511:0.03117408 512:0.030556791 519:0.099645652 520:0.097672536 612:0.99501248 624:0.99501248 636:0.97530991 642:0.99004983 643:0.99004983 654:0.99004983 655:1 656:0.98019867 667:0.99501248 668:0.97530991 679:0.99501248 680:0.99501248 691:0.97530991 692:0.97530991 704:1 705:0.99004983 716:0.99004983 717:0.99004983 
0.295515884966383 0.7595697243708796 0.8509301765105637 0.2768387510007455 1.351800604645297 1.211756369901796 0.8540173742783487 0.6621194453130387 0.7619421265166976 30:0.0066260353 31:0.0066260353 41:0.089880861 42:0.16654863 43:0.075280853 44:0.0065601051 53:0.42247997 54:0.48844641 55:0.32393177 56:0.0064302063 65:0.69305931 66:0.68247814 67:0.2801588 76:0.20494823 77:0.76279821 78:0.72494736 88:0.64104311 89:0.834818 90:0.79187032 100:0.90045222 101:0.90045222 102:0.85292924 112:0.96628731 113:0.96628731 114:0.91741198 124:0.7552662 125:1 126:0.98019867 136:0.25280733 137:0.5119889 138:0.50185084 176:0.0059860091 177:0.15399725 178:0.57608871 179:0.42301995 188:0.0058674782 189:0.1509479 190:0.57054547 191:0.92235492 192:0.67211043 202:0.1368067 203:0.49530837 204:1 216:0.50989549 318:0.10600258 319:0.60141268 320:0.99546737 321:1 322:0.8404208 323:0.33113636 330:0.10600258 331:0.59429556 332:0.97839514 333:0.98019867 334:0.9346845 335:0.5707633 336:0.20541231 343:0.23823898 344:0.23616087 346:0.092397154 347:0.23608804 348:0.32797073 360:0.1319579 462:0.19902428 463:0.49258349 464:0.3581887 465:0.13930863 466:0.010385411 473:0.17682235 474:0.75414471 475:0.85999041 476:0.54744803 477:0.13930863 478:0.010385411 485:0.39111517 486:0.76386801 487:1 488:0.31256506 497:0.35305871 498:0.63582644 499:0.47795434 508:0.052258552 509:0.27860119 510:0.27860119 520:0.13612283 521:0.22521277 522:0.22326969 532:0.1428456 533:0.16842459 534:0.16508956 544:0.092190533 545:0.11662633 546:0.11431698 556:0.037741999 557:0.065423506 558:0.064128034 568:0.0050494946 569:0.019624192 570:0.019235607 636:1 648:0.99004983 700:0.99501248 701:0.99501248 702:0.97530991 712:0.97530991 713:0.99501248 714:0.97530991 
0.3427017681494374 0.9394733327532495 1.078322728995471 0.3174220073203429 1.424457157937785 1.4730078827363 0.8360137371688648 0.6823020628069698 0.9451206900945084 25:0.20022861 26:0.19626381 37:0.33041029 38:0.32911496 49:0.32515017 50:0.32515017 54:0.41698272 55:0.41698272 56:0.20164901 66:0.89549869 67:0.89549869 68:0.64791518 78:0.83394565 79:0.99663123 80:0.88319518 90:0.35204969 91:0.92760114 92:0.91580068 103:0.88968217 104:0.88675573 115:0.70000384 116:0.70000384 127:0.28628763 128:0.28628763 169:0.22635288 170:0.3499737 171:0.18926505 172:0.062410935 181:0.56822414 182:0.68507546 183:0.25368435 184:0.25411603 185:0.25334887 186:0.13066093 187:0.12940683 188:0.12042244 189:0.11911343 190:0.094418116 191:0.045827098 192:0.011983996 193:0.49843813 194:0.62328821 195:0.24866106 196:0.25101373 197:0.25334887 198:0.16010082 199:0.12940683 200:0.12653705 201:0.11953324 202:0.11102713 203:0.076409964 204:0.024270154 210:0.056438548 211:0.098139253 212:0.12403145 213:0.11283136 214:0.095802031 215:0.066291558 216:0.023789573 222:0.50402324 223:0.81744396 224:0.30721457 234:0.44491177 235:1 236:0.9269612 247:0.96832906 248:0.96220081 259:0.23221309 260:0.23221309 313:0.1454021 314:0.28911037 315:0.21645442 316:0.071302268 325:0.17484948 326:0.31797465 327:0.29035537 328:0.2897794 329:0.38404807 330:0.57306351 331:0.6666476 332:0.67116027 333:0.67985581 334:0.60112387 335:0.34332087 336:0.084477013 337:0.10065855 338:0.24372295 339:0.28460594 340:0.28660293 341:0.37805917 342:0.56857813 343:0.74398227 344:0.91102993 345:1 346:0.84730554 347:0.51680188 348:0.17108402 354:0.16117055 355:0.32216667 356:0.48528198 357:0.64656733 358:0.49026264 359:0.33576583 360:0.16769633 366:0.022656604 367:0.045426776 368:0.022319292 378:0.022656604 379:0.045654478 380:0.045201339 391:0.044750459 392:0.044306292 402:0.04780567 403:0.047828166 404:0.00053594322 413:0.037583096 414:0.12031921 415:0.11998051 416:0.021924725 425:0.036838901 426:0.097849069 427:0.11849366 428:0.020965256 457:0.16035129 458:0.15717612 469:0.16035129 470:0.16035129 473:0.028304126 474:0.090111305 475:0.12231483 476:0.12451872 477:0.22152491 478:0.32764553 479:0.22970361 480:0.060168914 481:0.15717612 482:0.15717612 485:0.028097715 486:0.33937559 487:0.38831321 488:0.36953194 489:0.27476546 490:0.34344214 491:0.33858639 492:0.12185492 498:0.28298401 499:0.34049287 500:0.33485488 501:0.074496417 502:0.087352097 503:0.1684217 504:0.11944203 510:0.036695168 511:0.074002452 512:0.072537105 523:0.0053361586 524:0.0052304956 535:0.18090524 536:0.17732308 546:0.38025328 547:0.77425185 548:0.39568906 557:0.13309244 558:0.66805135 559:1 560:0.54719587 569:0.13045704 570:0.44786715 571:0.65846882 572:0.20901469 613:0.20200298 614:0.19999302 617:0.60299148 618:0.79998704 619:0.19701551 622:0.20200298 623:0.19999302 625:0.19999302 626:0.19999302 629:0.59501157 630:0.99308182 631:0.79700953 632:0.39801099 633:0.19701551 634:0.19999302 635:0.19999302 642:0.39501856 643:0.59209332 644:0.39801099 645:0.19701551 701:0.20099548 702:0.20099548 703:0.19701551 713:0.19701551 714:0.20099548 715:0.19701551 
0.3839358485874849 0.876737214537888 0.9724765046473097 0.5050251434856193 1.30540854908302 1.330713259850011 0.8693456183759841 0.6941835742540979 0.8836080665186195 33:0.00034587259 34:0.00033902386 40:0.36683566 41:0.37427175 42:0.14164492 45:0.16032855 46:0.15985997 47:0.035083185 52:0.78190194 53:0.78919078 54:0.59561638 57:0.15881222 58:0.44204418 59:0.27806722 64:0.41320502 65:0.84220389 66:0.82938828 70:0.73288045 71:0.71836845 76:0.16548422 77:1 78:0.83095972 82:0.75583057 83:0.75583057 88:0.44909726 89:0.96813034 90:0.96152737 94:0.38338211 95:0.38338211 100:0.64217235 101:0.83346531 102:0.69922805 112:0.80402184 113:0.78965854 114:0.19248412 124:0.85181166 125:0.83494465 136:0.63357301 137:0.63357301 175:0.088863337 176:0.36920928 177:0.47104858 178:0.18888713 187:0.087103725 188:0.366187 189:1 190:0.71525447 191:0.17042049 196:0.26798387 197:0.26798387 198:0.13455826 200:0.069361079 201:0.59435585 202:0.96918301 203:0.44035069 208:0.26526562 209:0.33516269 210:0.30202661 214:0.42227544 215:0.41908641 221:0.20401654 222:0.20145411 226:0.15795405 227:0.15795405 233:0.035925376 234:0.035925376 238:0.0070616349 239:0.0070616349 256:0.013779319 257:0.01350647 268:0.093235009 269:0.091388832 280:0.092609512 281:0.092609512 317:0.3625436 318:0.78487841 319:0.8550101 320:0.91866662 321:0.53992305 322:0.057074572 329:0.37591808 330:0.78953572 331:0.94080961 332:0.99662016 333:0.74174344 334:0.2091943 341:0.087385109 342:0.22020909 343:0.13019389 344:0.15837397 345:0.36641529 346:0.20505198 461:0.43692117 462:0.55519721 463:0.21942821 464:0.052304833 472:0.29127095 473:0.93158454 474:0.91644359 475:0.36490546 476:0.052304833 484:0.29005356 485:0.69088606 486:0.83052247 487:0.1425966 496:0.002770427 497:0.089013446 498:0.087250861 502:0.063824632 503:0.06256082 508:0.060777934 509:0.16680167 510:0.10392432 514:0.16124137 515:0.16027206 520:0.30713776 521:0.4122716 522:0.268377 526:0.15900825 527:0.15900825 532:0.62480768 533:0.64811708 534:0.50128216 544:0.4626254 545:0.58886526 546:0.27702303 556:0.1838739 557:0.1838739 568:0.017156508 569:0.017156508 658:1 659:0.99004983 670:0.99004983 671:0.99004983 700:0.99501248 701:0.97530991 712:0.99501248 713:0.99501248 
0.3827834227735758 1.031965363109886 1.184939623117542 0.3533704035788925 1.545882699111788 1.601415723773747 0.9567839727330268 0.7364219732378201 1.051820867758983 28:0.1935655 29:0.18973264 32:0.09810998 33:0.096167272 35:0.12124611 36:0.12003969 40:0.44247719 41:0.69526393 42:0.25636937 44:0.31678831 45:0.31051548 47:0.12003969 48:0.12003969 50:0.0086580706 51:0.0085719214 52:0.48451174 53:0.99541855 54:0.51019417 56:0.47571358 57:0.46629382 62:0.0085719214 63:0.0085719214 64:0.46647599 65:0.85458412 66:0.38810812 68:0.4827813 69:0.48272361 76:0.43702754 77:0.56262533 78:0.12786423 79:0.079383523 80:0.52028968 81:0.46432807 88:0.32961864 89:0.32961864 90:0.0095265863 91:0.27965805 92:0.49743274 93:0.49405002 100:0.10946803 101:0.10946803 102:0.10141367 103:0.38539476 104:0.47770199 105:0.47024632 113:0.019069712 114:0.11005541 115:0.18321409 116:0.20527279 117:0.20120811 125:0.018786271 126:0.018786271 161:0.016616567 162:0.051704261 163:0.034392912 166:0.1121529 167:0.11157199 173:0.016616567 174:0.12529862 175:0.47794153 176:0.53759664 177:0.16629895 178:0.20646826 179:0.31972728 180:0.28686605 184:0.009333498 185:0.0091486823 186:0.072137092 187:0.43775911 188:0.6583994 189:0.48012302 190:0.09244779 191:0.31749002 192:0.28524251 196:0.071911973 197:0.070488021 200:0.42327972 201:0.42031617 208:0.13325094 209:0.1306124 212:0.060393723 213:0.060393723 220:0.41401621 221:0.40890503 232:0.4825424 233:0.73738794 234:0.42963356 235:0.16997791 244:0.15357229 245:0.56388759 246:0.89291545 247:0.93645005 248:0.49094442 249:0.26902244 250:0.079352413 258:0.48216664 259:0.96335724 260:0.81997639 261:0.63332649 262:0.42329317 263:0.18705559 264:0.056320146 271:0.22215968 272:0.44709404 273:0.51813562 274:0.41995088 275:0.18705559 276:0.056320146 305:0.29779353 306:0.44284325 307:0.14484349 310:0.27293514 311:0.27022614 316:0.17430246 317:0.47086627 318:0.57466455 319:0.53636592 320:0.4976553 321:0.67208355 322:0.99872987 323:0.79250121 324:0.31546114 327:0.21826796 328:0.61884953 329:0.5169834 330:0.54829842 331:0.5302946 332:0.69963015 333:0.87197355 334:0.94062827 335:0.99684939 336:0.5372228 337:0.15389033 338:0.34876819 339:0.51820389 340:0.5512462 341:0.46059749 342:0.23375192 344:0.24269268 345:0.54964964 346:0.53142767 347:0.44715233 348:0.2199863 349:0.24298014 350:0.43220338 351:0.47740676 352:0.53149475 353:0.45147705 354:0.22912332 361:0.16740796 362:0.23976643 363:0.070925679 364:0.067301855 365:0.066779776 367:0.038702953 368:0.077599906 369:0.038126741 376:0.12932225 377:0.2575458 378:0.16884295 379:0.077232953 380:0.077988877 381:0.077214805 388:0.06079231 389:0.39174639 390:0.74905349 391:0.659419 392:0.41620726 393:0.27144602 394:0.094713926 400:0.087184708 401:0.38268451 402:0.68993257 403:0.75406812 404:0.76827855 405:0.83796572 406:0.7561133 407:0.46532626 408:0.15840184 412:0.085458335 413:0.27264096 414:0.50491116 415:0.4669046 416:0.54413161 417:0.7596658 418:0.75240459 419:0.46532626 420:0.15840184 449:0.10259818 450:0.10123923 454:0.097525576 455:0.09559444 460:0.42800897 461:0.52485945 462:0.23795279 463:0.033630762 464:0.3052426 465:0.64327702 466:0.56865981 467:0.45506105 468:0.22175153 471:0.15366195 472:0.75151478 473:0.65251702 474:0.23591445 475:0.032964828 476:0.59372369 477:0.92377792 478:0.78744572 479:0.61929322 480:0.29409497 481:0.31772902 482:0.61738686 483:0.53494624 484:0.51190843 485:0.38427403 486:0.12525751 488:0.31726028 489:0.56198879 490:0.38539953 491:0.28980585 492:0.16104635 493:0.42996327 494:0.72141736 495:0.65373928 496:0.39353488 497:0.2649838 498:0.12277724 500:0.098669627 501:0.096715837 505:0.23046219 506:0.42448563 507:0.19018152 511:0.20002613 512:0.48135551 513:0.27575869 523:0.3539609 524:0.56883353 525:0.530379 533:0.37438024 534:0.79560917 535:0.80000968 536:0.74393702 537:0.5610314 544:0.1029268 545:0.68458607 546:0.9953018 547:0.75819578 548:0.46554089 549:0.11511345 550:0.0017922843 551:0.0017833452 552:0.00087620133 556:0.10088871 557:0.51890044 558:0.74788081 559:0.40107509 560:0.16975168 562:0.0017567946 563:0.0017833452 564:0.00087620133 608:0.25093241 609:0.24596361 617:0.50312262 618:0.49316012 620:0.50312262 621:0.50061328 629:0.74906132 630:0.73422891 632:0.49564449 633:0.49564449 637:0.25219021 638:0.24968088 641:0.49689602 642:0.49689602 649:0.24968088 650:0.24968088 653:0.24596361 654:0.24596361 678:0.50187109 679:1 680:0.50061328 681:0.24596361 688:0.25093241 689:0.50312262 690:0.74532536 691:0.98514269 692:0.74780979 693:0.24596361 694:0.25093241 695:0.25093241 696:0.24596361 700:0.24596361 701:0.50061328 702:0.49564449 703:0.24719651 704:0.24230169 706:0.24596361 707:0.25093241 708:0.24596361 
0.3396199104739157 0.8425597356180715 1.035052249353299 0.3016635818371771 1.201526486689868 1.255246134677665 0.818590657535083 0.6203227771128181 0.8512166217155983 27:0.17083266 28:0.33588513 29:0.16178421 30:0.053031762 31:0.052723178 33:0.10753034 34:0.21559969 35:0.21239514 39:0.50799752 40:0.83935533 41:0.50247461 42:0.10376869 43:0.20679709 44:0.13808965 45:0.1054011 46:0.21452438 47:0.21239514 51:0.33376519 52:1 53:0.9899417 54:0.049732269 55:0.23505451 56:0.24733178 57:0.028711511 63:0.15361589 64:0.82605104 65:0.822807 67:0.079664203 68:0.13065379 69:0.05009421 70:0.029984934 75:0.39216708 76:0.74186243 77:0.73680097 80:0.021268411 81:0.21863228 82:0.21741777 83:0.057772429 87:0.67888227 88:0.81422378 89:0.67069986 93:0.48348325 94:0.48288653 95:0.32180813 99:0.71886801 100:0.74697366 101:0.26912406 105:0.41816353 106:0.52018795 107:0.50988754 111:0.3360125 112:0.44809821 113:0.10986626 114:0.16202877 115:0.16041655 117:0.12185116 118:0.25024164 119:0.24528652 124:0.10986626 125:0.10769076 126:0.16041655 127:0.16041655 164:0.010301508 165:0.053962962 166:0.0427969 172:0.0010863693 173:0.0064658327 174:0.34195278 175:0.33268657 176:0.010301508 177:0.1495474 178:0.20702226 179:0.1512691 183:0.012465295 184:0.026151834 185:0.018709556 186:0.46002181 187:0.68574329 188:0.36064614 189:0.093691739 190:0.20595575 191:0.1512691 195:0.012341572 196:0.045243509 197:0.037460123 198:0.14155355 199:0.76170014 200:0.78840622 201:0.14773686 208:0.038680999 209:0.038559118 211:0.40683611 212:0.97528903 213:0.71705433 214:0.14898006 220:0.0074449106 221:0.0074449106 224:0.43641786 225:0.98683354 226:0.67324926 227:0.12295259 237:0.41204802 238:0.69806518 239:0.28618698 243:0.18389659 244:0.18281487 249:0.064191536 250:0.16453115 251:0.16127322 255:0.29698323 256:0.42696825 257:0.39290067 258:0.1167027 259:0.035855303 267:0.11190768 268:0.31322991 269:0.39036646 270:0.1167027 271:0.035855303 307:0.094183954 308:0.33984155 309:0.35825686 310:0.11275962 316:0.29069739 317:0.53202032 318:0.48483882 319:0.60902307 320:0.79670203 321:0.78733101 322:0.37458901 323:0.10189629 328:0.28582007 329:0.52234707 330:0.59041476 331:0.83282254 332:0.98651539 333:0.9905195 334:0.58313537 335:0.1787203 340:0.043505493 341:0.043505493 342:0.1113497 343:0.31832929 344:0.50806502 345:0.44774343 346:0.24292793 347:0.075302787 356:0.044197229 357:0.05623749 358:0.01413947 368:0.037257286 369:0.056469828 370:0.038726586 381:0.024341861 382:0.024100258 387:0.030749898 388:0.030749898 392:0.17265746 393:0.29510339 394:0.12298133 395:0.009567035 399:0.096284723 400:0.27702779 401:0.41967775 402:0.47882362 403:0.47251238 404:0.52974668 405:0.44106407 406:0.2061525 407:0.060136731 411:0.064237149 412:0.24140126 413:0.41136757 414:0.46934228 415:0.47251238 416:0.52795591 417:0.43637348 418:0.19250337 419:0.049568349 451:0.067258447 452:0.12840286 453:0.059945771 459:0.012467042 460:0.34711923 461:0.32804976 462:0.18579049 463:0.46968132 464:0.50481576 465:0.72254636 466:0.73037242 467:0.44778825 471:0.015059026 472:0.34695483 473:0.34787283 474:0.20279034 475:0.53200044 476:0.64181783 477:0.65811155 478:0.81815652 479:0.62809008 483:0.0025406599 484:0.17794198 485:0.17764625 486:0.02026928 487:0.13366648 488:0.26594705 489:0.36743443 490:0.35805287 491:0.17673161 495:0.10871651 496:0.17908864 497:0.068978663 507:0.4316853 508:0.48826447 509:0.35259564 519:0.49923372 520:0.57971509 521:0.51025921 525:0.16122723 526:0.16122723 527:0.066911902 531:0.1823944 532:0.32698677 533:0.19885392 536:0.21149533 537:0.99844861 538:0.78564937 539:0.39336079 543:0.063225645 544:0.063225645 545:0.0070895151 546:0.22033312 547:0.29369958 548:0.36501554 549:0.90221415 550:0.84762317 551:0.56021167 557:0.0069491333 558:0.21597023 559:0.28788394 560:0.25290576 561:0.47928219 562:0.5062127 563:0.23092036 605:0.33444537 606:0.67056715 607:0.66060022 617:0.32782291 618:0.9917344 619:0.99504559 620:0.32782291 630:0.32782291 631:0.33444537 632:0.32782291 690:0.33612178 691:0.33277732 702:0.33277732 703:0.33277732 
0.2887139407482381 0.765538813110497 0.9305895088110484 0.2529733035517426 1.079196532360237 1.169044471837848 0.6743956949965657 0.5495636034178697 0.7554595898351686 26:0.18219162 27:0.17858398 28:0.20561238 29:0.20561238 30:0.0056651901 31:0.0056651901 34:0.16746359 35:0.16414759 38:0.18219162 39:0.18219162 40:0.64299794 41:0.64299794 42:0.41846478 43:0.25227583 44:0.20676045 46:0.16746359 47:0.16746359 50:0.17858398 51:0.17858398 52:0.85454223 53:0.85454223 54:0.83344001 55:0.35795301 56:0.35742522 57:0.13747469 58:0.16414759 59:0.16414759 64:0.83721957 65:0.8571765 66:0.84020326 67:0.11199328 68:0.31634366 69:0.24021288 70:0.0086321015 76:0.78057526 77:0.83139811 78:0.81493532 80:0.10311463 81:0.232232 82:0.21148149 83:0.062191742 88:0.71849302 89:0.74402465 90:0.38969862 93:0.31235047 94:0.72895324 95:0.48055263 100:0.76712532 101:0.75193522 105:0.43697358 106:1 107:0.9404 112:0.71866923 113:0.71866923 114:0.39971712 115:0.39971712 116:0.19639085 117:0.32514969 118:0.6886526 119:0.68211706 124:0.32738441 125:0.32738441 126:0.39574976 127:0.40172071 128:0.39376611 130:0.16216436 131:0.15895329 139:0.19737526 140:0.19346697 170:0.16884566 171:0.26676045 172:0.2206015 173:0.12369559 174:0.15356147 175:0.14931114 176:0.0047355476 177:0.22124502 178:0.31724754 179:0.099427018 182:0.42645917 183:0.68003097 184:0.42787719 185:0.22795996 186:0.30065668 187:0.63397755 188:0.41398725 189:0.21886262 190:0.32325069 191:0.28012413 194:0.29360975 195:0.50727748 196:0.46469115 197:0.3320144 198:0.14418253 199:0.72282963 200:0.74323761 201:0.22013708 202:0.19935242 203:0.19737376 208:0.086278953 209:0.12043214 210:0.034370479 211:0.24120452 212:0.82464561 213:0.77865424 214:0.1478351 220:0.0030745237 221:0.014545633 222:0.01425761 224:0.44047219 225:0.99448247 226:0.71468572 227:0.12807415 237:0.45277961 238:0.81866021 239:0.38204157 244:0.074244879 245:0.072774732 249:0.073500361 250:0.2680235 251:0.2644426 256:0.39892168 257:0.49850544 258:0.13883735 259:0.036048097 260:0.013221051 262:0.012322341 263:0.012322341 268:0.3199261 269:0.44962133 270:0.28908591 271:0.07189714 272:0.026508372 281:0.13534172 282:0.17865152 283:0.057252431 284:0.013024215 314:0.24364684 315:0.45815453 316:0.43872396 317:0.4987855 318:0.49722265 319:0.50580543 320:0.5398737 321:0.58418709 322:0.37364064 323:0.10489227 326:0.36450545 327:0.86712879 328:0.82919928 329:0.6001352 330:0.54871412 331:0.75079975 332:0.98426679 333:1 334:0.6993589 335:0.23660045 338:0.14255279 339:0.43594895 340:0.77551903 341:0.74845365 342:0.53784885 343:0.5653693 344:0.61555104 345:0.50926587 346:0.32307588 347:0.12910018 352:0.20130964 353:0.1993303 356:0.015856986 357:0.026024437 358:0.0099661211 368:0.015743322 369:0.026126112 370:0.025810109 381:0.019982198 382:0.019783866 393:0.12619888 394:0.1249449 400:0.19020248 401:0.42560504 402:0.5707578 403:0.59912133 404:0.514758 405:0.48123593 406:0.29662182 407:0.062245251 412:0.18794428 413:0.42336212 414:0.56809088 415:0.60013531 416:0.5770386 417:0.47998195 418:0.2941104 419:0.061012712 425:0.17937438 426:0.4430271 427:0.32487583 428:0.061047363 458:0.29609609 459:0.29162728 460:0.14413451 461:0.15080588 462:0.11936829 463:0.41911478 464:0.4228234 465:0.35988752 466:0.50577856 467:0.25777275 470:0.29470181 471:0.29609609 472:0.16287966 473:0.16998243 474:0.16674866 475:0.52342205 476:0.70031391 477:0.6668045 478:0.74792731 479:0.50336268 482:0.2212137 483:0.2212137 484:0.018394119 485:0.16799499 486:0.16479796 487:0.25240524 488:0.50041344 489:0.45180835 490:0.7012248 491:0.49339543 496:0.052133429 497:0.052133429 498:0.02272501 508:0.42027501 509:0.41655604 510:0.2285835 520:0.49729091 521:0.49095243 522:0.20625834 526:0.094026824 527:0.092164968 532:0.37265786 533:0.37265786 537:0.51342263 538:0.70286076 539:0.28611747 544:0.11836036 545:0.11836036 546:0.32781283 547:0.38629586 548:0.2848633 549:0.89343679 550:1 551:0.53921871 558:0.32761905 559:0.38488154 560:0.3122593 561:0.57826833 562:0.70552669 563:0.24991449 570:0.15625428 571:0.31329179 572:0.15392796 604:0.33166806 605:0.33166806 606:0.66499862 607:0.65839823 616:0.66499862 617:0.65839823 618:0.66499862 619:1 620:0.66003597 628:0.33333056 629:0.66169847 630:0.64859596 631:0.98676614 632:0.65353385 640:0.32673017 641:0.32673017 690:0.33333056 691:0.33333056 692:0.32673017 702:0.32673017 703:0.33333056 704:0.32673017 
0.3777508026634186 1.009936269456046 1.14436403321965 0.338304710854717 1.463134857455155 1.578087631958018 0.8909215011804172 0.7249219561026173 0.9989579983716824 15:0.078470182 16:0.076916368 19:0.0054368535 20:0.0053291966 26:0.24253666 27:0.35952216 28:0.40308988 29:0.4502239 30:0.16751416 31:0.15025608 32:0.082649644 38:0.23925285 39:0.35873918 40:0.80892243 41:0.98868797 42:0.4830405 43:0.35296343 44:0.082541987 51:0.11368838 52:0.77570154 53:0.86427709 54:0.51121843 55:0.50504106 59:0.12511862 60:0.12511862 64:0.66240353 65:0.66240353 66:0.3876189 67:0.45763426 68:0.071443851 71:0.36145891 72:0.36145891 76:0.65039502 77:0.65039502 78:0.14318871 79:0.43834994 80:0.31714974 83:0.23327616 84:0.36103402 88:0.6137463 89:0.6137463 91:0.5396243 92:0.52893902 96:0.080784131 99:0.33761283 100:0.94921981 101:0.76879327 103:0.60969035 104:0.59761767 111:0.33426188 112:0.94233268 113:0.93561399 114:0.16181358 115:0.47791165 116:0.47791165 124:0.51785882 125:0.84389928 126:0.32934152 127:0.16507156 128:0.16507156 136:0.054383054 137:0.38045572 138:0.32607266 159:0.095027709 160:0.093146034 162:0.070449809 163:0.2535551 164:0.17947956 170:0.24848764 171:0.65260495 172:0.54086683 173:0.52148633 174:0.44966588 175:0.56861349 176:0.43504616 182:0.24644682 183:0.67733731 184:1 185:0.76469612 186:0.60731821 187:0.75102127 188:0.43003932 195:0.32505615 196:0.55479009 197:0.25988413 198:0.43777651 199:0.43257148 203:0.12877566 204:0.12877566 208:0.019299213 209:0.019299213 210:0.45103455 211:0.55480944 212:0.12236366 215:0.17994669 216:0.18124091 220:0.0044282948 221:0.0044282948 222:0.24766691 223:0.57285571 224:0.46138849 227:0.050157778 228:0.17866536 235:0.46722964 236:0.46477316 243:0.018719651 244:0.043765029 245:0.024549446 247:0.14925247 248:0.14925247 255:0.018719651 256:0.49148729 257:0.48721211 258:0.020444554 259:0.019992992 260:0.019992992 268:0.5294313 269:0.62246665 270:0.27755044 280:0.16760539 281:0.44641089 282:0.27421843 303:0.15889822 304:0.15575182 306:0.27295148 307:0.37381658 308:0.10103756 315:0.29740957 316:0.61834446 317:0.56281972 318:0.67496761 319:0.65757887 320:0.31263359 327:0.21988649 328:0.62635888 329:0.76498607 330:0.87435675 331:1 332:0.44439826 339:0.081355055 340:0.22635281 341:0.22485695 342:0.37941502 343:0.51248482 344:0.13425316 345:0.10075914 346:0.35202807 347:0.55568473 348:0.30362325 355:0.15116325 356:0.40927303 357:0.55742196 358:0.55058312 359:0.60467712 360:0.44441272 366:0.046265164 367:0.25506858 368:0.46229202 369:0.52482251 370:0.4996103 371:0.68365422 372:0.58367209 378:0.045349052 379:0.29026296 380:0.50574251 381:0.50145588 382:0.41368353 383:0.37363162 384:0.20511214 391:0.1884151 392:0.44866798 393:0.44150141 394:0.47978708 395:0.28053473 396:0.056424733 400:0.12534953 401:0.27856207 402:0.44007481 403:0.29630022 404:0.34393291 405:0.26676579 406:0.08440869 412:0.26670983 413:0.58433474 414:0.69093775 415:0.45224144 416:0.15290709 424:0.13856119 425:0.42789986 426:0.68322315 427:0.37467505 428:0.082377213 447:0.1031177 448:0.10107583 450:0.17902838 451:0.17670021 458:0.1031177 459:0.20623539 460:0.31941913 461:0.44420961 462:0.66826388 463:0.70432912 464:0.30096077 470:0.10107583 471:0.20419353 472:0.37508464 473:0.46346522 474:0.58902868 475:0.94064869 476:0.49173976 484:0.056580939 485:0.056580939 486:0.19681467 487:0.45399322 488:0.25518545 489:0.074504722 490:0.20778466 491:0.17547458 492:0.043049293 496:0.023537122 497:0.023071056 499:0.23671732 500:0.51811794 501:0.51754684 502:0.4029338 503:0.45901326 504:0.32658797 508:0.16199731 509:0.15878955 510:0.13819479 511:0.51379961 512:0.70031254 513:0.54213775 514:0.66961315 515:1 516:0.83967373 520:0.18624789 521:0.18255994 522:0.13545835 523:0.43886411 524:0.59969631 525:0.58402403 526:0.71055011 527:0.76505338 528:0.77374399 531:0.015635129 532:0.15257045 533:0.15226335 535:0.36758029 536:0.63615273 537:0.47211374 538:0.61233489 539:0.46321403 540:0.13456132 543:0.015328028 544:0.05828077 545:0.057971149 546:0.42325478 547:0.77842628 548:0.81091682 549:0.26212574 550:0.089164168 556:0.00012478013 557:0.1537057 558:0.54224842 559:0.76761771 560:0.64530602 569:0.12846752 570:0.24294036 571:0.23763016 572:0.12117789 604:0.25408556 605:0.50313989 606:0.25155737 616:0.50313989 617:0.99504968 618:0.50437567 619:0.24781217 628:0.25155737 629:0.49193489 630:0.2528183 631:0.24781217 654:0.2528183 655:0.2528183 656:0.24781217 666:0.24781217 667:0.50063047 668:0.24781217 679:0.2528183 680:0.2528183 689:0.50437567 690:0.49936953 691:0.24781217 692:0.24781217 701:0.50437567 702:0.50690386 703:0.24905433 713:0.24781217 714:0.49686649 715:0.24412272 
0.3601146289510236 0.9539152722143152 1.105019438211755 0.3424844627364956 1.444997288304846 1.471656980032531 0.9688039544854726 0.6938279261037114 0.9997780099911461 27:0.38227037 28:0.38227037 29:0.18520769 31:0.033611946 32:0.032946385 36:0.15540039 39:0.82450091 40:0.82450091 41:0.59572235 42:0.1645668 43:0.29112933 44:0.12563766 48:0.15385413 51:0.83077445 52:0.83756173 53:0.8209769 54:0.61558725 55:0.7066973 56:0.50949886 63:0.78146947 64:0.98399254 65:0.79205065 66:0.75695081 67:0.89487722 68:0.77374821 75:0.39226574 76:1 77:0.97993631 78:0.30697795 79:0.79384013 80:0.78325643 88:0.99140359 89:0.987493 91:0.39248757 92:0.39685884 93:0.0069219055 100:0.7026267 101:0.7026267 104:0.0069219055 105:0.0067848426 106:0.37532767 107:0.36789568 112:0.36007604 113:0.52893901 114:0.21521618 118:0.37333218 119:0.37333218 124:0.096501678 125:0.21716564 126:0.21286547 130:0.17131835 131:0.17131835 165:0.0017172697 166:0.0099795905 167:0.18228855 168:0.17355042 177:0.0017172697 178:0.0099795905 179:0.18228855 180:0.37245097 183:0.03477841 184:0.03477841 185:0.003976512 189:0.0001654531 190:0.0032239402 191:0.034584494 192:0.36884336 195:0.11235947 196:0.11235947 197:0.072549343 198:0.057978124 199:0.057978124 200:0.0013766479 207:0.14581565 208:0.17405091 209:0.1424654 210:0.24507456 211:0.35553448 212:0.14932614 219:0.068194876 220:0.1626764 221:0.16054587 222:0.18526696 223:0.75772915 224:0.69686968 225:0.12859397 232:0.21095129 233:0.20677418 235:0.45740527 236:0.91554871 237:0.98969503 238:0.58311545 244:0.3943933 245:0.38924702 248:0.47966518 249:0.99342883 250:0.96988091 251:0.45017259 256:0.39965219 257:0.5598384 258:0.40800968 259:0.050274489 261:0.19214197 262:0.64231456 263:0.44588316 268:0.15170568 269:0.35981132 270:0.45059518 271:0.10147767 272:0.0058885346 282:0.044326773 283:0.050215308 284:0.0057719338 307:0.23298576 308:0.48117071 309:0.50932915 310:0.51838859 311:0.50097784 312:0.24130437 315:0.052280324 316:0.27243565 317:0.44141878 318:0.4505452 319:0.57128031 320:0.82742428 321:0.98262557 322:0.99980263 323:0.99811659 324:0.66185521 327:0.051245104 328:0.26704106 329:0.4326781 330:0.44340294 331:0.45288211 332:0.69069345 333:0.95190957 334:0.98560593 335:0.98787193 336:0.65446441 343:0.0006948822 344:0.22466956 345:0.22180744 367:0.058625871 368:0.12142729 369:0.061557869 379:0.058625871 380:0.24879318 381:0.29681831 382:0.11150959 392:0.18280731 393:0.32938435 394:0.23759322 395:0.048321849 400:0.091328695 401:0.30088987 402:0.46239481 403:0.48144922 404:0.42062729 405:0.42839715 406:0.37428232 407:0.15392552 412:0.089520266 413:0.29493185 414:0.45828575 415:0.4792523 416:0.45451196 417:0.39413047 418:0.30454805 419:0.11894488 426:0.12522913 427:0.36689631 428:0.23917505 451:0.061782388 452:0.10737521 453:0.049120775 454:0.0033666601 459:0.20226863 460:0.40394743 461:0.39715051 462:0.16262966 463:0.65520574 464:0.69237667 465:0.16550756 466:0.11955266 467:0.082789417 468:0.12236455 471:0.23743329 472:0.43511858 473:0.47849239 474:0.30714447 475:0.97238534 476:0.9090569 477:0.42909687 478:0.11912289 479:0.082789417 480:0.12236455 483:0.037535437 484:0.082100146 485:0.080474454 486:0.22691152 487:0.70771419 488:1 489:0.29170914 498:0.070283026 499:0.22536717 500:0.2209046 537:0.18355452 538:0.4990312 539:0.30922982 546:0.025742235 547:0.1282337 548:0.25485674 549:0.43107216 550:0.67005438 551:0.4965963 558:0.025742235 559:0.1270026 560:0.2505928 561:0.30826148 562:0.60080072 563:0.42741533 571:0.065006699 572:0.06450204 611:0.50250626 612:0.99506223 623:0.49750624 624:0.99501248 
0.3660628323488726 0.9336248244603348 1.075815181193536 0.3329326594717218 1.363658734200129 1.4365864136055 0.8502468950014586 0.6605562087151734 0.9503921424835188 26:0.16439626 27:0.41373272 28:0.24439927 31:0.0023382679 32:0.0023382679 34:0.017764583 35:0.017587823 38:0.30930081 39:0.99482716 40:0.71127908 43:0.3232002 44:0.31802412 45:0.060598958 46:0.017587823 47:0.017587823 50:0.14203525 51:0.81685445 52:0.99437759 53:0.23602886 55:0.51530807 56:0.50630757 57:0.060553118 63:0.23720034 64:0.51499569 65:0.35198088 67:0.34476417 68:0.34727305 69:0.021733919 70:0.021303559 75:0.27309881 76:0.29251446 77:0.28672228 79:0.02653668 80:0.028995883 81:0.32629654 82:0.32507486 83:0.096107283 87:0.26964903 88:0.46468609 89:0.28981067 93:0.63378625 94:0.62862609 95:0.36934328 100:0.47970733 101:0.47020849 105:0.32756816 106:0.49574491 107:0.26997088 112:0.45391125 113:0.45391125 117:0.10815577 118:0.10815577 124:0.13937467 125:0.13937467 170:0.035610227 171:0.035610227 172:0.036108851 173:0.039245737 174:0.040813691 175:0.040534702 176:0.018070302 177:0.0033687203 178:0.15979574 179:0.15817256 182:0.10412222 183:0.3276332 184:0.25564488 185:0.038468619 186:0.040005526 187:0.040534702 188:0.018070302 189:0.0033020152 190:0.15823926 191:0.15817256 194:0.067155363 195:0.40662982 196:0.3839406 197:0.11629467 199:0.48657678 200:0.48029031 207:0.11687998 208:0.2349378 209:0.1734322 211:0.61286841 212:0.99767881 213:0.55545227 214:0.16367814 219:0.2442811 220:0.40163556 221:0.15423863 223:0.1665819 224:0.5917802 225:1 226:0.71031389 227:0.13216884 231:0.24272311 232:0.62476923 233:0.54871414 237:0.45714577 238:0.66949563 239:0.21090894 244:0.62962548 245:0.62044259 250:0.078740097 251:0.077180939 256:0.54155641 257:0.67882904 258:0.38680978 259:0.026369512 268:0.16373014 269:0.52646908 270:0.38355794 271:0.026369512 315:0.26762684 316:0.55206142 317:0.57102253 318:0.56762206 319:0.65659814 320:0.88006272 321:0.90948313 322:0.56283521 323:0.27934418 327:0.32879009 328:0.60627643 329:0.56756272 330:0.56504553 331:0.64540101 332:0.86885814 333:0.99935164 334:0.80010036 335:0.27934418 339:0.065801296 340:0.065801296 343:0.035614804 344:0.19438302 345:0.42745372 346:0.23256698 355:0.071408129 356:0.21953028 357:0.17252168 358:0.049263582 363:0.012353021 364:0.030015631 365:0.017312867 367:0.035084569 368:0.18117316 369:0.24075336 370:0.11728497 375:0.012353021 376:0.12115654 377:0.12067375 378:0.05388417 381:0.067564972 382:0.066674472 388:0.12472939 389:0.12393538 390:0.05388417 391:0.058921122 392:0.19203127 393:0.15815455 394:0.064330249 400:0.12558534 401:0.3901525 402:0.54529676 403:0.53644814 404:0.47384965 405:0.27859889 406:0.064192654 412:0.088406224 413:0.3478248 414:0.53449916 415:0.53644814 416:0.42920696 417:0.16902714 458:0.045792565 459:0.29956227 460:0.25095066 461:0.026225622 462:0.0019632054 463:0.18671516 464:0.30382566 465:0.20296652 466:0.25106893 467:0.1888902 470:0.045792565 471:0.3995034 472:0.34886915 473:0.026225622 474:0.0019243313 475:0.59971485 476:0.71220335 477:0.54069097 478:0.29930516 479:0.1888902 483:0.21957864 484:0.21868091 487:0.43614541 488:0.68602817 489:0.50040615 490:0.078641632 495:0.07771731 496:0.07771731 499:0.13165349 500:0.13165349 507:0.040277197 508:0.040277197 509:0.039479655 513:0.089984676 514:0.089984676 519:0.039479655 520:0.52722827 521:0.48092633 522:0.14037578 525:0.43589262 526:0.43083393 527:0.17773429 532:0.48132946 533:0.48594797 534:0.14037578 535:0.11740813 536:0.54286273 537:0.93981555 538:0.76570064 539:0.17597021 544:0.1603317 545:0.1603317 546:0.032483075 547:0.36345295 548:0.74857577 549:1 550:0.50952537 558:0.031839867 559:0.24117281 560:0.48383144 561:0.3476546 610:0.33612178 611:0.33277732 615:0.67056715 616:0.65728903 622:0.33277732 623:0.33277732 627:0.99668881 628:0.98354248 639:0.33277732 640:0.66394469 641:0.32946613 651:0.33444537 652:0.66391149 653:0.65076517 663:0.32782291 664:0.99839006 665:0.99504559 666:0.32782291 676:0.65728903 677:0.66722268 678:0.32782291 690:0.33444537 691:0.67056715 692:0.66060022 702:0.32782291 703:0.66722268 704:0.66060022 
0.3176250320372398 0.807878446985568 0.9250371784114462 0.2919238866527861 1.485327273014214 1.292390101387898 0.9154888377378038 0.7243766817023192 0.8376822790560374 41:0.51540156 42:0.51155123 43:0.15015328 48:0.1771537 53:0.99815947 54:0.9918968 55:0.50872403 60:0.17539099 65:0.8160983 66:0.99165104 67:0.52121683 77:0.70956881 78:0.80636799 79:0.1626493 89:0.75706391 90:0.74676403 101:0.7667738 102:0.75684237 113:0.77781141 114:0.76867437 125:0.77823668 126:0.77823668 137:0.38938074 138:0.38938074 176:0.0027458833 177:0.037580971 178:0.24143827 179:0.44335248 180:0.40485912 185:0.083736612 186:0.082078516 188:0.0027458833 189:0.037580971 190:0.24143827 191:0.44335248 192:1 197:0.17157822 198:0.17157822 199:0.086102225 201:0.016921989 202:0.1326361 203:0.33335599 204:0.9897708 209:0.086102225 210:0.16992012 211:0.086102225 257:0.00030746792 258:0.00030137965 269:0.00061647704 270:0.00061340235 281:0.00060731407 282:0.00060731407 318:0.34952398 319:0.82224659 320:0.97275477 321:0.99501248 322:0.94090978 323:0.83935439 324:0.58225489 329:0.11699658 330:0.46652056 331:0.82224659 332:0.97275477 333:0.99501248 334:0.99412551 335:0.89338477 336:0.95682437 341:0.11467989 342:0.28320231 343:0.68990533 344:0.88839594 345:0.97526378 346:0.97444051 347:0.87569456 348:0.94118928 462:0.32776444 463:0.46006367 464:0.15960102 465:0.025064247 473:0.48829733 474:0.81498038 475:0.78080968 476:0.27864215 477:0.052916157 478:0.0067892028 485:0.99873365 486:0.99132834 487:0.90874145 488:0.27312466 489:0.051868347 490:0.0066547676 497:0.84141585 498:0.88444672 499:0.27660878 509:0.65867937 510:0.80032913 511:0.13884491 521:0.15135553 522:0.15135553 533:0.061180445 534:0.061180445 545:0.038507046 546:0.038507046 557:0.017339457 558:0.017339457 569:0.0032952629 570:0.0032952629 624:1 636:0.99004983 701:1 702:0.99004983 713:0.99004983 714:0.99004983 
0.2638454723278292 0.6993504555833108 0.8353564231659381 0.2405800916282365 1.032335805770405 1.086012473180409 0.6237818609806154 0.502766169064867 0.6989706420332573 26:0.18049197 27:0.17691799 30:0.0350777 31:0.070508049 32:0.035077811 38:0.44076576 39:0.43241929 42:0.0350777 43:0.12121199 44:0.25801645 45:0.18718381 46:0.013318952 47:0.0043810732 50:0.4163028 51:0.44598157 52:0.057628162 54:0.1286339 55:0.21342495 56:0.56986103 57:0.53388606 58:0.35664342 59:0.0087831729 62:0.075255132 63:0.25465379 64:0.29254803 65:0.40884222 66:0.4812049 67:0.17002834 68:0.68105516 69:0.68590763 70:0.67672785 71:0.0043149323 75:0.18469388 76:0.3642621 77:0.86185091 78:0.6706734 79:0.04203601 80:0.68878668 81:0.69274449 82:0.67902723 88:0.31189316 89:0.91133453 90:0.76454733 92:0.66023149 93:0.69034447 94:0.67667473 100:0.36262711 101:0.88377338 102:0.87574882 104:0.51235518 105:0.61158044 106:0.59947033 112:0.17657865 113:0.81340238 114:0.80625784 115:0.096494191 116:0.33035659 117:0.41910969 118:0.26982605 125:0.40155291 126:0.42576285 127:0.17367159 128:0.23938253 129:0.18067165 137:0.10633023 138:0.13016593 139:0.12019707 140:0.13361279 141:0.037571644 170:0.19814487 171:0.1961782 174:0.097161992 175:0.3742446 176:0.34212228 177:0.070689888 178:0.0051983702 179:0.0015076354 182:0.47365301 183:0.75766269 184:0.38114488 185:0.094329586 186:0.097161992 187:0.56766183 188:0.6279034 189:0.48561125 190:0.33465741 191:0.11154438 192:0.00048496266 194:0.38568123 195:0.98187246 196:0.89048786 197:0.465327 198:0.16893199 199:0.28907687 200:0.50236904 201:0.43329306 202:0.4357449 203:0.22038687 204:0.00047535976 206:0.10929903 207:0.59686419 208:0.89684292 209:0.67188142 210:0.37231889 211:0.16343016 212:0.053126762 213:0.12078658 214:0.22730034 215:0.10674902 219:0.17380784 220:0.60838874 221:0.71575646 222:0.38690964 223:0.1617969 224:0.039201476 225:0.053230079 226:0.052176053 232:0.32335278 233:0.51350524 234:0.20758865 236:0.0087848286 237:0.023903119 238:0.023429806 244:0.023415079 245:0.14250655 246:0.14005176 256:0.01825994 257:0.32537419 258:0.30320114 269:0.36869617 270:0.57121982 271:0.31824259 281:0.10786566 282:0.52280725 283:0.41857772 314:0.025567444 315:0.025330501 318:0.013335633 319:0.1645242 320:0.3352357 321:0.375307 322:0.38372822 323:0.38585992 324:0.19208953 326:0.025567444 327:0.071728449 328:0.063942681 329:0.017482466 330:0.032335262 331:0.22668549 332:0.55283541 333:0.9198919 334:0.89675379 335:0.62310058 336:0.36017146 338:0.011729108 339:0.091481857 340:0.14293346 341:0.1102493 342:0.11524677 343:0.10786419 344:0.23051882 345:0.69033083 346:0.99412664 347:0.71132544 348:0.35441182 350:0.0067545268 351:0.045491814 352:0.098446653 353:0.12172126 354:0.13767234 355:0.13335303 356:0.043391138 357:0.19130077 358:0.28529154 359:0.093990771 363:0.020192349 364:0.043640056 365:0.071153487 366:0.099890254 367:0.07192995 376:0.041905509 377:0.045702738 378:0.026380711 389:0.02436231 390:0.023879904 403:0.0028828142 404:0.0028257307 413:0.012103937 414:0.17569122 415:0.17819748 416:0.02951422 425:0.011864263 426:0.17494369 427:0.19215511 428:0.086919008 458:0.060410645 459:0.059214434 462:0.1242461 463:0.24974206 464:0.12424726 466:1.0427138e-05 467:0.12984608 468:0.12860218 470:0.17135621 471:0.17025228 474:0.2656105 475:0.68877036 476:0.44681367 477:0.096107813 478:0.15484545 479:0.22037085 480:0.17865049 482:0.16905607 483:0.16905607 485:0.14379759 486:0.70642496 487:0.85684609 488:0.69844352 489:0.094204751 490:0.15176908 491:0.18504106 492:0.17606592 497:0.55795802 498:0.96806191 499:0.99046848 500:0.42318123 509:0.45889977 510:0.70541855 511:0.40603561 512:0.032833307 513:0.032833307 514:0.012578494 520:0.019137635 521:0.22148118 522:0.22148118 524:0.11305349 525:0.11305349 526:0.065608958 532:0.019137635 533:0.067646868 534:0.067264109 536:0.30088147 537:0.29832811 538:0.18905469 545:0.018947212 546:0.018572032 547:0.41541862 548:0.76131519 549:0.5216906 550:0.13550327 558:0.31510143 559:0.87661027 560:0.94962647 561:0.51708988 570:0.31248017 571:0.61084563 572:0.68041463 573:0.13349644 606:0.16734909 607:0.33638007 608:0.33387187 609:0.16485759 611:0.16734909 612:0.16734909 618:0.16734909 619:0.67025194 620:1 621:0.83677468 622:0.33303303 623:0.16734909 624:0.16903098 631:0.33303303 632:0.66279779 633:0.83428317 634:0.66692159 635:0.16568394 636:0.16568394 641:0.16818793 642:0.16818793 643:0.16485759 645:0.16568394 646:0.32808712 647:0.16240318 652:0.16734909 653:0.33220668 654:0.16818793 655:0.16485759 664:0.16734909 665:0.16903098 666:0.16568394 677:0.16568394 678:0.16240318 702:0.16818793 703:0.16818793 704:0.16485759 714:0.16485759 715:0.16818793 716:0.16485759 
