svm_type c_svc
kernel_type rbf
gamma 0.125
nr_class 10
total_sv 495
rho -0.86167 -0.114668 0.0103876 -0.712182 0.298741 -0.0317576 -0.800889 0.238547 -0.694005 0.760911 0.80604 0.268312 0.919751 0.875925 0.0629906 0.905995 0.311841 0.129978 -0.637145 0.398754 0.0724086 -0.734165 0.348037 -0.605449 -0.697764 0.278856 -0.0527445 -0.782279 0.223302 -0.672949 0.835782 0.70977 -0.206959 0.809198 0.0365743 -0.327948 -0.893289 -0.0631017 -0.827342 -0.840327 0.273716 -0.704933 0.888048 0.291795 -0.802147
label 0 1 2 3 4 5 6 7 8 9
probA -1.21695 -4.88358 -10.0624 -3.70095 -4.52045 -2.73409 -10.7536 -5.85163 -1.88949 -4.51613 -7.09645 -1.56689 -5.83182 -1.14957 -3.53351 -4.28747 0.145073 -10.2385 -4.35086 -9.16224 -5.4814 -14.8539 -10.5673 -8.40105 -6.81055 -7.08223 -8.40205 -22.4328 -8.67286 -10.4017 -6.68125 -2.82653 0.518588 -7.07537 -1.44778 -2.89843 -1.66139 -6.23578 -3.32302 2.52755 -3.80661 -1.62002 -2.76679 3.38261 -6.00753
probB -1.34365 0.246907 -1.04087 0.521795 -0.776017 0.0350076 6.41271 -1.22886 -0.474534 -1.16507 -3.16099 0.123634 -1.94277 1.29327 0.0730067 -0.363402 0.588927 -2.00358 0.915063 -2.94235 -0.280025 9.18381 -3.6484 3.47701 2.85173 -0.532883 1.18565 16.4229 -1.03359 5.65775 -2.93114 -0.0334045 -0.750607 -2.9899 -0.0218306 0.134383 -1.63555 -0.17824 0.0536312 -4.28298 -0.567425 -0.593384 0.737083 1.60854 2.13035
nr_sv 51 5 42 88 9 113 46 5 127 9
SV
0.1388576647730755 0.884262160992847 1.013161843145553 0.3005927038509831 1.297691407952135 0.9740234656390101 0.1973303011551494 1.223408838203864 0.3015374447744974 21:0.37863741 22:0.37369659 31:0.029250192 32:0.054460896 33:0.91312533 34:0.88010831 35:0.29473662 42:0.063382409 43:0.20809145 44:0.16798428 45:0.86962202 46:0.97720237 47:0.62789485 54:0.24571341 55:0.36005157 56:0.30974356 57:0.67562911 58:0.68052838 59:0.66705301 61:0.3141772 62:0.46439318 63:0.22754997 66:0.40009844 67:0.39575052 68:0.29882226 69:0.67108747 70:0.67714048 71:0.6637322 73:0.31109406 74:0.5281181 75:0.52186544 78:0.69736211 79:0.68994744 80:0.24054978 81:0.66598877 82:0.67203429 83:0.65872712 86:0.29283961 87:0.28973284 90:0.84448641 91:0.93054552 92:0.47552781 93:0.33002333 94:0.50044813 95:0.4905386 101:0.3194436 102:0.68507792 103:0.689339 104:0.31994365 106:0.16414868 107:0.16089832 113:0.65295309 114:0.65295309 115:0.55093725 125:0.53061427 126:0.6536914 127:0.64074745 137:0.19433026 138:0.36938895 139:0.36221015 165:0.4126679 166:0.40650396 177:0.46044687 178:0.46195553 179:0.14830943 189:0.1438547 190:0.29541163 191:0.1485559 195:0.027148107 196:0.026610539 201:0.001114173 202:0.0022564386 203:0.0022117581 205:0.11374321 206:0.24147657 207:0.19723449 208:0.18688084 209:0.32572999 210:0.39662273 211:0.18285719 217:0.11374321 218:0.83554612 219:0.75529895 220:0.15709673 221:0.32072057 222:0.47727382 223:0.36753448 224:0.019877521 230:0.63821851 231:1 232:0.59595643 233:0.30659608 234:0.27382729 235:0.31261797 236:0.039420476 242:0.19672783 243:0.55690593 244:0.68968124 245:0.64307915 246:0.42870908 247:0.13357081 248:0.019155979 256:0.21229776 257:0.52047599 258:0.42931322 259:0.11849736 269:0.36944079 270:0.5696064 271:0.19620206 281:0.34182763 282:0.76604837 283:0.75878691 308:0.012108825 309:0.042723126 310:0.030008098 320:0.014328229 321:0.044898131 322:0.044612004 332:0.002175457 333:0.027853706 334:0.027572373 338:0.20955176 339:0.4201539 340:0.20643194 350:0.60504964 351:1 352:0.96816986 353:0.76440376 354:0.60432745 355:0.17272587 362:0.43378919 363:0.80942483 364:0.95989155 365:0.75204672 366:0.76365589 367:0.45062537 374:0.046082692 375:0.34535778 376:0.60424885 377:0.49213803 378:0.27514823 379:0.27239672 386:0.010472026 387:0.2956379 388:0.60039723 389:0.73026394 390:0.60145207 391:0.22832666 400:0.25277058 401:0.61822375 402:0.59349153 403:0.22566773 414:0.0025857047 415:0.0025345043 426:0.0051843704 427:0.0051585132 452:0.14552108 453:0.42399955 454:0.27296422 463:0.1353948 464:0.71451754 465:0.86442052 466:0.57971423 467:0.0010154721 474:0.096433068 475:0.61249036 476:0.9387327 477:0.98193472 478:0.4379025 479:0.0023981602 482:0.013569888 483:0.018195372 484:0.0045338936 486:0.2809562 487:0.65661207 488:0.83516127 489:0.38866695 490:0.0046700667 491:0.0037600825 493:0.095916898 494:0.22165004 495:0.21059157 496:0.031543794 498:0.45514519 499:0.55015514 500:0.40064541 501:0.0090585635 502:0.0090585635 503:0.006877331 505:0.09427906 506:0.20422133 507:0.22330053 508:0.031186176 510:0.27862438 511:0.36188388 512:0.089072799 513:0.013576321 514:0.013576321 515:0.011215789 518:0.013071955 519:0.012813113 521:0.10557989 522:0.3738385 523:0.26366419 524:0.035604211 525:0.0078267524 526:0.010941606 527:0.010724948 533:0.21560238 534:0.47255348 535:0.46729937 536:0.03542689 538:0.0040301307 539:0.0039503288 545:0.11429555 546:0.36296217 547:0.35858845 557:0.0060788337 558:0.018702117 559:0.018331791 597:0.50250626 598:0.49750624 609:0.99506223 610:0.99501248 621:0.49750624 622:0.49750624 642:0.5 643:0.49009934 654:0.5 655:0.5 657:0.49750624 658:0.49750624 666:0.49009934 667:0.49009934 669:0.49750624 670:0.50250626 671:0.49255597 677:0.5 678:0.5 679:0.49009934 682:0.49255597 683:0.48280271 689:0.49009934 690:0.5 691:0.49009934 714:0.50250626 715:0.49750624 
8 0.7996863128964568 0.9258965773168374 0.5554012277097889 8 8 1.416546584689641 2.211342884126868 5.382574382506803 22:0.33388564 23:0.32727426 33:0.66777128 34:0.99504554 35:0.6611599 45:0.6611599 46:0.99504554 47:0.65454852 55:0.63126856 56:0.62501858 57:0.63665856 58:0.32727426 67:0.62501858 68:0.63126856 69:0.3093843 77:0.60589738 78:0.59989859 79:0.6063342 80:0.3093843 89:0.59989859 90:0.60589738 91:0.2969499 99:0.57391714 100:0.56823498 101:0.57822631 102:0.2969499 111:0.56823498 112:0.57391714 113:0.28127641 123:0.28127641 124:0.28127641 310:0.52228969 311:0.51711868 312:0.25597383 321:0.24319604 322:0.75549911 323:0.52228969 324:0.25597383 332:0.50623911 333:0.74427612 334:0.74000432 335:0.25597383 343:0.47191734 344:0.9691057 345:1 346:0.47921489 354:0.51565639 355:0.97730936 356:0.98002064 357:0.51076091 365:0.44844173 366:0.95521838 367:0.97557154 368:0.45991515 376:0.49974928 377:0.93795555 378:0.93706887 379:0.50544571 387:0.42559205 388:0.91727857 389:0.94053771 390:0.42274342 398:0.33302527 399:0.75019003 400:0.8427568 401:0.50789859 410:0.3297281 411:0.49624073 412:0.32643093 422:0.16321546 423:0.16321546 454:0.50496361 455:0.49996414 456:0.24748233 465:0.50487344 466:0.99983801 467:0.75235312 468:0.24748233 476:0.50497204 477:0.99984833 478:0.99984255 479:0.49487184 487:0.50497633 488:0.99994909 489:0.9999413 490:0.49497355 498:0.50497702 499:0.99995438 500:0.99995713 501:0.49496863 509:0.50498226 510:0.99995972 511:0.99995482 512:0.4949893 520:0.50498659 521:0.99996978 522:0.9999652 523:0.4949663 531:0.50498803 532:0.99997485 533:0.99996922 534:0.49499958 542:0.5050114 543:1 544:0.99998118 545:0.49497024 554:0.50001146 555:0.75251716 556:0.49501151 566:0.24750575 567:0.24750575 598:0.99501248 599:0.99501248 600:0.97530991 610:0.97530991 611:0.99501248 612:0.97530991 686:0.99501248 687:0.97530991 698:0.99501248 699:0.99501248 710:0.97530991 711:0.97530991 
0.5237829149620965 0.7917436935702037 0.8579445375627679 0.3222129718676272 1.624215641792169 1.483750110775168 0.3975150667940569 1.825558587833902 0.380968790323459 22:0.4958919 23:0.48925504 24:0.15753705 33:0.33481941 34:0.82113901 35:0.66449352 36:0.15753705 44:0.49566732 45:0.82042133 46:0.66283576 47:0.34041765 55:0.34573886 56:0.8315913 57:0.82148445 58:0.31578824 66:0.33536095 67:0.67424224 68:0.67389129 69:0.33889277 77:0.33482182 78:0.83809953 79:0.84740537 80:0.32815243 88:0.33372215 89:0.6616899 90:0.83526022 91:0.51261235 99:0.49601637 100:0.99689964 101:0.83300529 102:0.31601796 111:0.65547491 112:1 113:0.67003208 123:0.32011405 124:0.47976694 125:0.15649155 398:0.66722268 399:0.99504559 400:0.65730547 410:0.65401079 411:0.99501248 412:0.65730547 454:0.5030027 455:0.49635709 456:0.16407339 465:0.33476812 466:0.82781076 467:0.66539754 468:0.16407339 476:0.50299941 477:0.82780751 478:0.66291205 479:0.32814211 487:0.33463548 488:0.82767507 489:0.82934422 490:0.32814109 498:0.33477534 499:0.66278435 500:0.66278184 501:0.32802135 509:0.33476565 510:0.83100446 511:0.82932294 512:0.32813427 520:0.33477524 521:0.66291203 522:0.8293318 523:0.49455968 531:0.50128642 532:0.99753333 533:0.82933271 534:0.32814332 543:0.6661849 544:1 545:0.65944226 555:0.33059847 556:0.49548033 557:0.16161698 598:0.5 599:0.5 600:0.49009934 610:0.49009934 611:0.5 612:0.49009934 686:0.50250626 687:0.99506223 688:0.49750624 698:0.49750624 699:0.99501248 700:0.49750624 
0.1149243986883958 0.7920467738467384 0.9225207817641559 0.2392319253698505 1.093150300760321 0.8075938874328253 0.1633724651970258 1.04276691558437 0.2508727299147218 20:0.0052322632 21:0.25962415 22:0.24945615 31:0.073303545 32:0.11919315 33:0.51003695 34:0.45457234 37:0.090779319 38:0.088981768 42:0.073635557 43:0.41811418 44:0.45103753 45:0.670079 46:0.49697446 49:0.14489938 50:0.14471051 53:0.0074817297 54:0.23480809 55:0.49555109 56:0.51095247 57:0.84913478 58:0.58702015 61:0.10777479 62:0.10777479 65:0.086175803 66:0.36274418 67:0.42961306 68:0.38183646 69:0.878165 70:0.65290785 75:0.085733899 76:0.085733899 77:0.31372932 78:0.45789042 79:0.51605084 80:0.43128443 81:0.88049613 82:0.54017712 87:0.40225135 88:0.39724612 89:0.33830502 90:0.30869582 91:0.49136565 92:0.49136565 93:0.97923491 94:0.50634796 99:0.3131912 100:0.39881522 101:0.25472735 102:0.12904839 103:0.49641499 104:0.5024006 105:1 106:0.50754759 111:0.12357386 112:0.12357386 113:0.28711273 114:0.32732098 115:0.42395733 116:0.4878152 117:0.98466578 118:0.50650997 125:0.11962881 126:0.19754465 127:0.19138086 128:0.29815838 129:0.83980968 130:0.54655864 140:0.065118303 141:0.3572956 142:0.29248002 165:0.23065706 166:0.22608975 174:0.0081467927 175:0.20504829 176:0.43376979 177:0.58758567 178:0.22910749 186:0.0082814728 187:0.31013061 188:0.55386251 189:0.5298692 190:0.13942105 193:0.042803162 194:0.042463007 195:0.008446608 198:0.47163128 199:0.68748076 200:0.45154632 201:0.23157365 202:0.069920577 205:0.041955603 206:0.042463007 207:0.008446608 209:0.17162549 210:0.92866991 211:0.86323278 212:0.86192859 213:0.13727109 214:0.0092639234 221:0.26605467 222:0.54917428 223:0.66652683 224:0.46106235 225:0.0075543878 226:0.0075543878 231:0.080170161 232:0.078582686 233:0.14846256 234:0.2628549 235:0.11212722 236:0.00050495329 237:0.0054677275 238:0.0054677275 241:0.11954572 242:0.11792087 243:0.080170161 244:0.30042308 245:0.74012045 246:0.51313592 247:0.047089101 248:0.047089101 249:0.021073761 250:0.0027616127 253:0.11954572 254:0.36186855 255:0.37944401 256:0.31040423 257:0.99541099 258:0.9759559 259:0.36595426 260:0.72875342 261:0.35980712 262:0.00056653273 265:0.080432559 266:0.2418437 267:0.30012639 268:0.15871904 269:0.40378917 270:0.74819417 271:0.35972509 272:0.8927518 273:0.93687824 274:0.43446916 284:0.33790425 285:0.77282813 286:0.430319 308:0.11953583 309:0.18844303 310:0.11557146 314:0.16215704 315:0.3437832 316:0.37148373 317:0.3604483 318:0.36349319 319:0.31706876 320:0.41689933 321:0.54220269 322:0.24890084 325:0.11828277 326:0.27956494 327:0.3437832 328:0.37148373 329:0.52189692 330:0.71306406 331:0.79782997 332:0.87845576 333:0.74567186 334:0.41524695 337:0.30934457 338:0.5010788 339:0.70404281 340:0.73458276 341:0.7341125 342:0.70100438 343:0.88879485 344:1 345:0.75448265 346:0.27905961 349:0.1895743 350:0.3783525 351:0.38442959 352:0.42942855 353:0.45126753 354:0.51193831 355:0.86875659 356:0.87149574 357:0.27476981 363:0.00012899411 364:0.069645185 365:0.4669816 366:0.62937183 367:0.54669278 368:0.28465396 369:0.0074678141 375:0.034616741 376:0.043235196 377:0.250251 378:0.4758645 379:0.30623829 380:0.056996746 381:0.0074678141 385:0.18086415 386:0.28232831 387:0.13637508 388:0.069669299 389:0.13366189 390:0.14978217 391:0.12832088 392:0.029890875 397:0.18086415 398:0.45588219 399:0.49729378 400:0.44767898 401:0.46504006 402:0.34147633 403:0.070572188 404:0.14267583 405:0.092387587 409:0.088266394 410:0.29552464 411:0.39238515 412:0.3801133 413:0.41231774 414:0.28946413 415:0.070572188 416:0.23474644 417:0.32628873 418:0.22334335 428:0.099264335 429:0.32346493 430:0.2225219 452:0.22176637 453:0.33705373 454:0.11486231 458:0.045976957 459:0.068063139 460:0.034586951 461:0.069187957 462:0.074252109 463:0.2786676 464:0.65956178 465:0.67925358 466:0.39038829 469:0.21663145 470:0.25940988 471:0.11347394 472:0.047059602 473:0.16127093 474:0.38588433 475:0.60449149 476:0.78347242 477:0.87031795 478:0.37228702 481:0.27187665 482:0.29964496 483:0.12098199 484:0.061104617 485:0.20505303 486:0.67705885 487:0.80182495 488:0.80184918 489:0.58292854 490:0.26476493 493:0.1272791 494:0.12963593 495:0.011895307 496:0.18711237 497:0.53472727 498:0.75339343 499:1 500:0.73835326 501:0.57133153 502:0.24822823 507:0.18118746 508:0.44583636 509:0.64322393 510:0.71657448 511:0.68919846 512:0.65846783 513:0.47404609 514:0.07058564 519:0.34460549 520:0.46969544 521:0.6063611 522:0.52073884 523:0.4741386 524:0.37173139 525:0.19686293 526:2.2635696e-05 529:0.13097362 530:0.32476927 531:0.35591969 532:0.3091711 533:0.29681573 534:0.38438248 535:0.29528355 536:0.090889008 537:0.01335863 538:0.0014358736 541:0.13097362 542:0.32219239 543:0.32651852 544:0.13781858 545:0.17266006 546:0.16477644 548:0.0021576284 549:0.0087592893 550:0.0085858437 553:0.064546772 554:0.19269819 555:0.13097055 556:0.010756573 557:0.0065288598 561:0.018141422 562:0.018141422 573:0.014949281 574:0.014949281 597:0.16847825 598:0.16680186 607:0.33527592 608:0.49959442 609:0.66556018 610:0.49792222 619:0.49959442 620:0.99339022 621:1 622:0.66224073 631:0.33527592 632:0.66639628 633:0.66556018 634:0.33112036 641:0.16680186 642:0.33443982 643:0.49875832 644:0.49627497 645:0.1643185 653:0.33443982 654:0.49875832 655:0.49709862 656:0.33279675 657:0.16514215 663:0.16763796 664:0.1643185 665:0.1643185 666:0.33278011 667:0.32619062 668:0.16514215 669:0.16187212 675:0.16763796 676:0.33195646 677:0.16763796 678:0.1643185 687:0.16763796 688:0.33195646 689:0.33195646 690:0.1643185 699:0.1643185 700:0.16763796 701:0.1643185 704:0.16763796 705:0.16763796 706:0.1643185 716:0.1643185 717:0.16763796 718:0.1643185 
0.1427517340333319 0.8734464907440559 1.01547705963723 0.3001533383883291 1.329241006878357 0.9715752192570868 0.1943235583142959 1.314897969421184 0.2948328828839847 21:0.45542048 22:0.45542048 23:0.22084247 31:0.07178278 32:0.076687483 33:0.8640926 34:0.85861815 35:0.66214587 42:0.11200926 43:0.22963123 44:0.17518083 45:0.70612323 46:0.80600382 47:0.79004388 53:0.025753735 54:0.29754971 55:0.31497906 56:0.27057875 57:0.59770506 58:0.59918179 59:0.34952948 65:0.069868842 66:0.22809495 67:0.26955607 68:0.26309668 69:0.54554893 70:0.48862876 77:0.043303181 78:0.11575681 79:0.15075575 80:0.3796969 81:0.47656443 82:0.24486918 86:0.11323992 87:0.11138347 89:0.0030499007 90:0.0030499007 91:0.15046148 92:0.26594038 93:0.23472659 97:0.22492579 98:0.64476069 99:0.41190746 100:0.019292124 103:0.028216361 104:0.089245011 105:0.059820202 109:0.41166139 110:0.98003091 111:0.99112683 112:0.21001568 113:0.079026014 121:0.18303799 122:0.7425104 123:0.73440327 124:0.21052994 125:0.20792599 136:0.12889997 137:0.12634758 165:0.90587665 166:0.90587665 167:0.85321187 177:0.88864063 178:0.90623272 179:0.88828811 190:0.035076236 191:0.03438168 241:0.26426512 242:0.26426512 253:0.63055223 254:0.99867537 255:0.98513003 265:0.35903414 266:0.992383 267:0.97994929 308:0.27986809 309:0.9598971 310:0.6749072 311:0.30279028 320:0.3213327 321:0.99034411 322:0.84374193 323:0.30279028 332:0.153514 333:0.48104959 334:0.32429826 352:0.028953116 353:0.058051359 354:0.02852206 363:0.22084371 364:0.4715167 365:0.28056286 366:0.14843174 374:0.047758864 375:0.31589031 376:0.48448888 377:0.40783729 378:0.24770663 379:0.29499135 380:0.11188971 386:0.046827175 387:0.1839021 388:0.31138596 389:0.44871048 390:0.59494978 391:0.41838351 392:0.18938864 399:0.00069994655 400:0.1433009 401:0.49052425 402:0.54958681 403:0.3015733 404:0.075964348 412:0.047178829 413:0.24560524 414:0.1965513 452:0.23590565 453:0.45242175 454:0.21618474 455:0.056629908 463:0.43626799 464:0.82175241 465:0.68797825 466:0.34492799 467:0.092180102 474:0.24360468 475:0.80977381 476:0.9751621 477:0.75021459 478:0.31929827 479:0.14428384 485:0.13724347 486:0.75924073 487:0.75480365 488:0.76837506 489:0.4431148 490:0.32481696 491:0.10808941 496:0.14076305 497:0.73043091 498:0.95963214 499:0.77575509 500:0.47193462 501:0.64945493 502:0.48867868 507:0.24432639 508:0.63578698 509:0.83837754 510:1 511:0.41072149 512:0.87560414 513:0.79249082 514:0.31874842 518:0.45133867 519:0.82644297 520:0.6403639 521:0.6520599 522:0.42545971 523:0.93118872 524:0.92529139 525:0.48232348 529:0.042681219 530:0.64606941 531:0.80733838 532:0.67742346 533:0.45244661 534:0.68741363 535:0.78394436 536:0.69233364 537:0.1319062 541:0.042681219 542:0.33665149 543:0.48846558 544:0.38735616 545:0.59902376 546:0.56563157 547:0.34162198 548:0.12043641 554:0.10332569 555:0.10248896 556:0.25475406 557:0.49090947 558:0.23559524 568:0.10045876 569:0.098469545 686:0.50753116 687:0.9999625 688:0.50248114 698:0.50248114 699:0.99011171 700:0.50753116 701:0.49748137 712:0.49748137 713:0.48763057 
0.1371191159083198 0.8696086696601191 0.9823236736037961 0.2851993884720672 1.272468299770719 0.9475639043480967 0.1932249368687568 1.215049348147962 0.2986136607109377 20:0.32703666 21:0.32703666 22:0.16412666 30:0.036398495 31:0.035771377 32:0.57988926 33:0.57988926 34:0.46113876 41:0.089991709 42:0.12564765 43:0.066799089 44:0.673452 45:0.66783643 46:0.49290235 52:0.0073141502 53:0.11157202 54:0.13859067 55:0.10801718 56:0.85562068 57:0.74311786 58:0.19677715 64:0.0071693204 65:0.049513193 66:0.079968857 67:0.17213976 68:0.80084009 69:0.73896891 73:0.083362529 74:0.082222879 78:0.048890053 79:0.10708778 80:0.80006525 81:0.69329688 85:0.36011234 86:0.35349268 87:0.02555151 90:0.014839517 91:0.048554227 92:0.83285563 93:0.81965977 97:0.44857453 98:0.47412604 99:0.14998104 100:0.067114533 104:0.99997712 105:0.99009724 106:0.32917602 109:0.27759189 110:0.27759189 111:0.15013257 112:0.1484887 116:0.83167159 117:0.99795368 118:0.49112657 123:0.081374172 124:0.079762855 128:0.65828885 129:0.8235024 130:0.1619421 140:0.32536931 141:0.32536931 164:0.3093802 165:0.3093802 166:0.30325406 176:0.30325406 177:0.3093802 178:0.30325406 188:0.038559554 189:0.037796024 200:0.073143522 201:0.071695183 212:0.068845464 213:0.068845464 224:0.056401368 225:0.056401368 229:0.49875 230:0.48887409 236:0.04422834 237:0.04422834 241:1 242:0.99501248 248:0.024270419 249:0.033740937 250:0.0092829895 253:0.98513657 254:0.98513657 260:0.004629891 261:0.014006411 262:0.009190852 271:0.13076532 272:0.2621861 273:0.12881847 283:0.13076532 284:0.26350031 285:0.26088496 306:0.025285697 307:0.46230408 308:1 309:0.76012293 310:0.29293759 318:0.032925476 319:0.46595019 320:0.98481702 321:0.88827807 322:0.29293759 330:0.0074885014 331:0.13646519 332:0.26397334 333:0.1256175 340:0.059609061 341:0.058902324 342:0.0035310957 350:0.16203177 351:0.46624502 352:0.42502596 353:0.26224095 354:0.023644221 361:0.082351346 362:0.3728223 363:0.58934164 364:0.56347514 365:0.33590006 366:0.45228285 367:0.17799885 368:0.011907086 373:0.081277171 374:0.20979498 375:0.52819768 376:0.56472947 377:0.87567261 378:0.74952447 379:0.30194109 380:0.011907086 386:0.027824122 387:0.18894064 388:0.63667904 389:0.86094239 390:0.66144254 391:0.20475613 399:0.07897836 400:0.32456478 401:0.24344625 415:0.33677626 416:0.90809296 417:0.56000387 427:0.33677626 428:0.90930265 429:0.90256701 450:0.15029811 451:0.50286537 452:0.4865906 453:0.21014317 454:0.042278825 462:0.60191878 463:0.94656052 464:0.71982999 465:0.39089642 466:0.11339432 473:0.39799449 474:0.84085599 475:0.86661611 476:0.6283266 477:0.41940999 478:0.22338235 484:0.45041989 485:0.99123547 486:0.8427355 487:0.40045758 488:0.75977735 489:0.57585397 490:0.15129328 494:0.10014294 495:0.32242874 496:0.80778297 497:1 498:0.71142037 499:0.64832434 500:0.72418835 501:0.46140326 505:0.42312198 506:0.65284137 507:0.46653295 508:0.60282799 509:0.55667918 510:0.77634799 511:0.69382245 512:0.66709027 513:0.12490736 517:0.57353078 518:0.69745618 519:0.61146249 520:0.41525682 521:0.60162503 522:0.72022311 523:0.67177653 524:0.2817155 529:0.28003913 530:0.42885174 531:0.36060118 532:0.5570926 533:0.60396312 534:0.51341886 535:0.23128131 536:0.0016380211 537:0.0016221839 538:4.1554029e-05 541:0.050369387 542:0.091773502 543:0.23969058 544:0.46310068 545:0.22288611 548:0.0072041986 549:0.0070781271 550:0.0008294548 555:0.09086034 556:0.089061185 560:0.13188047 561:0.12926906 562:0.00077229929 572:0.1294019 573:0.1294019 620:0.50753116 621:0.50248114 632:0.50248114 633:0.50248114 673:0.50753116 674:0.9999625 675:0.50248114 685:0.50248114 686:0.99011171 687:0.50753116 688:0.49748137 699:0.49748137 700:0.48763057 703:0.50248114 704:0.50248114 715:0.50248114 716:0.50753116 717:0.49748137 
0.1145226051226797 0.7490558905680043 0.8411392200823112 0.2367334659107554 1.074389632254239 0.8002694974106956 0.1622193639731923 1.025700496652453 0.2496684157657698 19:0.0014485113 20:0.0014485113 21:0.22484124 22:0.22038908 31:0.065863332 32:0.064889287 33:0.41683701 34:0.40858308 37:0.069605207 38:0.068226932 42:0.071292177 43:0.16501039 44:0.27206505 45:0.46212515 46:0.44444689 49:0.120041 50:0.11979932 53:0.014437512 54:0.13475491 55:0.16097197 56:0.51163528 57:0.55434893 58:0.44943665 61:0.092274623 62:0.092274623 65:0.02386175 66:0.073434302 67:0.18535296 68:0.69655716 69:0.59606192 70:0.43962195 75:0.060008584 76:0.059198937 77:0.0092376254 78:0.042383346 79:0.47751195 80:0.95501377 81:0.75935563 82:0.44015457 87:0.24467637 88:0.24020965 89:0.018919707 91:0.55901062 92:1 93:0.75392234 94:0.44081232 99:0.32203091 100:0.39364894 101:0.11700773 102:0.050088822 103:0.44247553 104:0.88272137 105:0.55172209 106:0.44189215 111:0.20865916 112:0.21107821 113:0.1176701 114:0.11534008 115:0.43759029 116:0.87046215 117:0.45123037 118:0.44229541 125:0.065251258 126:0.063959197 127:0.26989067 128:0.65396902 129:0.63726473 130:0.43911436 139:0.063687334 140:0.22493998 141:0.43518137 142:0.21700337 165:0.2387463 166:0.2340188 174:0.022144261 175:0.042104086 176:0.019608068 177:0.23642331 178:0.23642331 186:0.031907766 187:0.051867591 188:0.039710531 189:0.0051795151 190:0.0051795151 193:0.04494695 194:0.04449972 198:0.0097635052 199:0.051371555 200:0.048590567 201:0.0085736394 202:0.0058348729 205:0.04449972 206:0.04449972 211:0.0096663567 212:0.010061177 213:0.011021484 214:0.010803244 224:0.0084967963 225:0.0093917106 226:0.0092057423 231:0.042851824 232:0.042003301 236:0.0065648421 237:0.0074214333 238:0.0072744791 243:0.11322681 244:0.11252657 247:0.029065992 248:0.031820582 249:0.0051521821 250:0.005050162 255:0.11167805 256:0.11167805 259:0.20441437 260:0.20380807 261:0.0020124753 262:0.0019726256 271:0.44362048 272:1 273:0.67167886 283:0.26349765 284:0.92815192 285:0.95315659 286:0.032399572 307:0.010028788 308:0.2376653 309:0.34737575 310:0.2373477 314:0.21205518 315:0.44098198 316:0.45979925 317:0.44718581 318:0.45671038 319:0.36184331 320:0.34691536 321:0.35768863 322:0.2924382 325:0.18147959 326:0.49279204 327:0.5400275 328:0.45979925 329:0.55223608 330:0.80287037 331:0.59053112 332:0.29328099 333:0.11562575 334:0.053999633 337:0.42023694 338:0.75288242 339:0.98016854 340:0.91204959 341:0.88441569 342:0.9562601 343:0.88187285 344:0.34700129 349:0.23755201 350:0.46824534 351:0.47107682 352:0.52965733 353:0.52932638 354:0.53145152 355:0.4186706 356:0.11669945 363:0.0092392427 364:0.11730424 365:0.17222778 366:0.097167046 367:0.043211734 368:0.017281435 375:0.0090562935 376:0.075287075 377:0.14937317 378:0.16286793 379:0.12027826 380:0.042884042 388:0.0087360379 389:0.10672711 390:0.14635441 391:0.14183148 392:0.0349001 400:0.0085630528 401:0.038135961 402:0.067510268 403:0.028962216 415:0.062526638 416:0.35332293 417:0.28750932 418:0.015644017 427:0.061288528 428:0.35064247 429:0.35261269 430:0.1233998 451:0.13546878 452:0.41484484 453:0.28957254 454:0.07412739 458:0.042850167 459:0.06643664 460:0.050825786 461:0.12168764 462:0.10279851 463:0.51482955 464:0.77933712 465:0.58888161 466:0.1918063 469:0.27345794 470:0.34607838 471:0.1274142 472:0.052553017 473:0.20658078 474:0.40738494 475:0.69572893 476:0.82815248 477:0.66777869 478:0.2761927 481:0.35923647 482:0.42107394 483:0.14276328 484:0.0770921 485:0.38062605 486:0.79632569 487:0.77040704 488:0.50558205 489:0.45786287 490:0.31875469 493:0.18874457 494:0.19487121 495:0.020004758 496:0.24944442 497:0.87920988 498:0.8948634 499:0.77509734 500:0.56327122 501:0.54031258 502:0.15799287 507:0.38843614 508:0.71582424 509:0.71313533 510:0.72570248 511:0.69837179 512:0.66379539 513:0.48720542 519:0.52528202 520:0.70551484 521:0.70605251 522:0.56739256 523:0.62338335 524:0.60686334 525:0.20756432 531:0.25216204 532:0.3867942 533:0.53976301 534:0.57307163 535:0.57871252 536:0.27461524 537:0.01035098 538:2.6142355e-05 543:0.0499635 544:0.20412235 545:0.3329331 546:0.43109215 547:0.10808201 548:0.0078395838 549:0.004860959 550:0.0019258049 557:0.074576743 558:0.073100024 560:0.2431668 561:0.2431668 562:0.12216175 572:0.23657388 573:0.24301702 574:0.23820496 607:0.50125 608:0.49132458 618:0.49875 619:1 620:0.99007459 621:0.49875 630:0.49875 631:0.99508711 632:0.98511194 633:0.50376252 634:0.49378736 643:0.49875 644:0.49875 645:0.49378736 646:0.48400971 655:0.49875 656:0.50376252 657:0.49378736 668:0.49378736 669:0.48400971 675:0.50376252 676:0.99253736 677:0.49875 687:0.49875 688:0.98275971 689:0.50376252 690:0.49378736 701:0.49378736 702:0.48400971 704:0.50125 705:0.49132458 716:0.50125 717:0.50125 
0.06659167541275755 0.4268215946136712 0.4814132682267018 0.1391716153300543 0.6295751190040955 0.4645798224741367 0.09425881195421902 0.5930818833276936 0.1444930939569048 20:0.0064972875 21:0.26017164 22:0.24877737 31:0.046501868 32:0.052414881 33:0.4683955 34:0.45287812 37:0.092221418 38:0.090395311 42:0.072207522 43:0.15240125 44:0.2132824 45:0.59700648 46:0.52862831 49:0.14761172 50:0.1474119 53:0.0062479164 54:0.11240309 55:0.15888179 56:0.25356249 57:0.72648545 58:0.65559828 61:0.11027807 62:0.11027807 65:0.0073977878 66:0.041889398 67:0.18638118 68:0.2743374 69:0.72756076 70:0.61943762 75:0.11520095 76:0.11394549 77:0.021246206 78:0.017850688 79:0.4044316 80:0.43815636 81:0.84131441 82:0.50517405 87:0.35352738 88:0.38530679 89:0.051069016 91:0.50203588 92:0.50181904 93:0.97870917 94:0.50620917 99:0.29971238 100:0.35337843 101:0.18292225 102:0.11963602 103:0.49695089 104:0.50249881 105:1 106:0.50745133 111:0.11672144 112:0.11672144 113:0.29625612 114:0.29385427 115:0.43108441 116:0.48771035 117:0.9853387 118:0.50728566 125:0.17374575 126:0.17374575 127:0.18424843 128:0.30533613 129:0.86496558 130:0.56434029 140:0.072300747 141:0.38148773 142:0.30929666 165:0.051461519 166:0.050442513 174:0.011271593 175:0.027214344 176:0.015627063 177:0.051016292 178:0.051016292 186:0.016865428 187:0.032808179 188:0.02710219 189:0.009321877 190:0.009321877 193:0.032121 194:0.031801391 198:0.0055938349 199:0.032436556 200:0.032103706 201:0.010477916 202:0.010270439 205:0.031801391 206:0.031801391 211:0.0055381753 212:0.0054285121 213:0.0098727855 214:0.0098727855 225:0.0080706485 226:0.0080706485 231:0.094187481 232:0.092322444 235:0.00045893407 236:0.00045893407 237:0.0058879268 238:0.0058879268 243:0.093993398 244:0.55052535 245:0.70295954 246:0.23953903 247:0.049513148 248:0.049513148 249:0.020788588 250:0.0030354731 255:0.073203154 256:0.57253876 257:0.96716643 258:0.91260754 259:0.394387 260:0.81164669 261:0.41311822 262:0.00063093834 267:0.011130735 268:0.11616224 269:0.72788902 270:0.67797232 271:0.34333837 272:0.96509707 273:0.99540462 274:0.40648722 284:0.43006098 285:0.83614124 286:0.40240741 308:0.16392672 309:0.26281511 310:0.15642086 313:0.089456373 314:0.29469523 315:0.43060857 316:0.45192175 317:0.44140058 318:0.44943779 319:0.34587489 320:0.27408252 321:0.26337397 322:0.21034884 325:0.26941611 326:0.47286879 327:0.49512999 328:0.55544583 329:0.72814553 330:0.86078856 331:0.57371001 332:0.27935505 333:0.1036963 334:0.052860129 337:0.41265223 338:0.71741066 339:0.9489858 340:0.89341823 341:0.97833868 342:0.94667683 343:0.76530638 344:0.34047415 349:0.23157775 350:0.45788545 351:0.46191797 352:0.52165443 353:0.57607695 354:0.55089279 355:0.31693052 356:0.11314782 363:0.013825553 364:0.10532235 365:0.14586772 366:0.14334588 367:0.11495234 368:0.039080703 375:0.013551788 376:0.061397571 377:0.12944795 378:0.22098528 379:0.19613 380:0.073685283 388:0.081285239 389:0.22588234 390:0.18635988 391:0.15514374 392:0.033919364 399:0.11722758 400:0.41610077 401:0.60900784 402:0.37742598 403:0.063575647 404:0.15643866 405:0.091597821 411:0.11490631 412:0.32901888 413:0.56718954 414:0.33604187 415:0.063575647 416:0.2677664 417:0.36854872 418:0.23892752 428:0.12557219 429:0.36545779 430:0.23835961 452:0.30618878 453:0.39251088 454:0.15265412 457:0.036390941 458:0.094803316 459:0.081405724 460:0.047481826 461:0.12059674 462:0.10534953 463:0.27899733 464:0.57158005 465:0.57259429 466:0.289182 469:0.32360098 470:0.37704359 471:0.14626103 472:0.072170913 473:0.28043833 474:0.51260254 475:0.66302369 476:0.63056088 477:0.60971125 478:0.32929714 481:0.36938484 482:0.44526588 483:0.15930405 484:0.077769502 485:0.33185228 486:0.82911262 487:0.79780962 488:0.48567691 489:0.44076467 490:0.38506296 493:0.18756207 494:0.19276695 495:0.019677108 496:0.27288211 497:0.69026692 498:0.926206 499:0.81765644 500:0.569257 501:0.51923257 502:0.18976857 507:0.38071112 508:0.74583266 509:0.64630125 510:0.67104334 511:0.7600371 512:0.7409264 513:0.47025562 519:0.4531196 520:0.72554931 521:0.74961371 522:0.83067853 523:0.7080008 524:0.5510385 525:0.16050082 526:2.826477e-05 531:0.18557315 532:0.32378495 533:0.64362062 534:0.83562902 535:0.43547043 536:0.13918061 537:0.020072935 538:0.0011809782 543:0.0014724734 544:0.10379788 545:0.39632023 546:0.38992662 548:0.0033332669 549:0.011762643 550:0.011529727 555:0.0014433165 556:0.0014724734 557:0.0014433165 560:0.021017038 561:0.053071698 562:0.052655533 572:0.020600872 573:0.049285043 574:0.048868878 607:0.3383373 608:0.33163777 618:0.33664984 619:0.67498714 620:0.3383373 621:0.34003322 622:0.33664984 630:0.33664984 631:0.67167099 632:0.66493789 633:0.33664984 634:0.33664984 643:0.33664984 644:0.33664984 655:0.33664984 656:0.34003322 657:0.33330011 663:0.3383373 664:0.33163777 668:0.33330011 669:0.32670033 675:0.3383373 676:0.66997507 677:0.3383373 678:0.33163777 687:0.3383373 688:0.66997507 689:0.66997507 690:0.33163777 699:0.33163777 700:0.3383373 701:0.33163777 704:0.3383373 705:0.3383373 706:0.33163777 716:0.33163777 717:0.3383373 718:0.33163777 
0.07093871325562184 0.4278694771098459 0.4803784200062167 0.1384771467696056 0.6282373869972743 0.4698988940024085 0.09514472919439391 0.6016095264933118 0.1452558774561809 20:0.0085918002 21:0.2595282 22:0.24613429 25:0.0056003368 26:0.0056003368 31:0.092259431 32:0.10014386 33:0.45711207 34:0.43980573 37:0.14330321 38:0.14139239 39:0.045932018 42:0.036274993 43:0.1669498 44:0.18717134 45:0.51051092 46:0.44636907 49:0.13601113 50:0.14280736 51:0.045822227 54:0.080327961 55:0.14429412 56:0.17756706 57:0.63976034 58:0.56442571 61:0.051232032 62:0.051232032 64:0.0018143827 65:0.0017784555 66:0.043374859 67:0.2725445 68:0.35136488 69:0.78951733 70:0.59836896 75:0.14592094 76:0.18264018 77:0.09080192 78:0.0096130893 79:0.46809184 80:0.50770545 81:0.91904182 82:0.4989012 87:0.26920796 88:0.30755197 89:0.31502629 90:0.095639522 91:0.49044335 92:0.49044335 93:0.97319597 94:0.50001911 99:0.12192356 100:0.21387856 101:0.39126174 102:0.32033785 103:0.48492393 104:0.49569446 105:0.98703978 106:0.50116072 113:0.33140609 114:0.41693071 115:0.33927165 116:0.46731896 117:0.95792691 118:0.49986149 125:0.10502725 126:0.21270264 127:0.20849084 128:0.21807191 129:0.58903799 130:0.37514544 141:0.12496699 142:0.12483098 165:0.068291772 166:0.067612257 174:0.0057818549 175:0.022543593 176:0.022262323 177:0.067612257 178:0.067612257 181:0.15593294 182:0.15876928 183:0.0049322062 186:0.0056673665 187:0.027771363 188:0.027656874 189:0.0051563836 190:0.0050542803 193:0.15593294 194:0.16141761 195:0.049639582 199:0.0053945514 200:0.0053945514 201:0.0095373903 202:0.0093485373 205:0.10868138 206:0.15822133 207:0.048656653 213:0.0087212472 214:0.0087212472 225:0.0073343101 226:0.0073343101 231:0.065425292 232:0.065425292 233:0.091870311 234:0.090051157 235:0.0085050051 236:0.0085050051 237:0.0051461645 238:0.0051461645 241:0.08570501 242:0.29535426 243:0.36698738 244:0.21327562 245:0.92179861 246:0.85806951 247:0.26838577 248:0.080876082 249:0.038839618 250:0.0023855847 253:0.08570501 254:0.29535426 255:0.38574604 256:0.23868453 257:0.89557906 258:0.98303163 259:0.54036998 260:0.98013581 261:0.72051555 262:0.18243627 266:0.15981555 267:0.37810776 268:0.23395826 269:0.13184979 270:0.38796297 271:0.26806534 272:0.89551693 273:0.96996485 274:0.46380696 285:0.28152695 286:0.27640638 308:0.081616893 309:0.16770386 310:0.13849183 313:0.081489627 314:0.26203409 315:0.38512701 316:0.42721961 317:0.50390723 318:0.50430742 319:0.40906197 320:0.25006555 321:0.16739299 322:0.13849183 325:0.28849741 326:0.69323157 327:0.83040648 328:0.86478368 329:0.9113632 330:0.98995345 331:0.83105628 332:0.47028677 333:0.027285038 337:0.20700778 338:0.48628426 339:0.80436133 340:0.84888127 341:0.85993571 342:0.79983222 343:0.59480955 344:0.22077241 349:0.093625827 350:0.31566177 351:0.44004543 352:0.43485974 353:0.50005606 354:0.51324098 355:0.22791986 356:0.022518084 364:0.073982396 365:0.17388058 366:0.20247661 367:0.14634481 368:0.073112825 369:0.009732203 374:0.037924392 375:0.15234113 376:0.1136606 377:0.085713443 378:0.16773563 379:0.19173813 380:0.1084673 381:0.0095394924 385:0.14484915 386:0.44896867 387:0.63858839 388:0.55706624 389:0.5367695 390:0.31309552 391:0.16878225 392:0.035098362 397:0.14410336 398:0.40879 399:0.59678498 400:0.56954187 401:0.61027826 402:0.49966173 403:0.23378451 404:0.23482215 405:0.31862125 406:0.10243846 410:0.21170853 411:0.4009875 412:0.41203728 413:0.42161566 414:0.39277339 415:0.18954114 416:0.23223143 417:0.33940354 418:0.25896516 429:0.20539039 430:0.2033518 452:0.23812836 453:0.32781118 454:0.17586612 457:0.13194339 458:0.20685993 459:0.11302361 460:0.058397081 461:0.12550381 462:0.15619541 463:0.39400609 464:0.57809657 465:0.49620881 466:0.2341446 469:0.4490159 470:0.525315 471:0.358201 472:0.083875575 473:0.21390933 474:0.4757554 475:0.73731751 476:0.59730081 477:0.54888074 478:0.23474874 481:0.31258523 482:0.48685673 483:0.36295349 484:0.10112984 485:0.2246213 486:0.84344147 487:0.7856067 488:0.56333216 489:0.49477594 490:0.38424967 493:0.088666198 494:0.090315052 495:0.0090879939 496:0.36627638 497:0.70971178 498:0.87426556 499:0.86702732 500:0.65371939 501:0.55632872 502:0.25745438 507:0.17807104 508:0.6798047 509:0.80988705 510:0.70331467 511:0.81641421 512:0.80152597 513:0.43649376 518:0.092037295 519:0.54474438 520:0.58563303 521:0.78822177 522:0.79605066 523:0.79545413 524:0.61471253 525:0.15307535 526:3.9703654e-05 529:0.18662114 530:0.46475737 531:0.55897121 532:0.53614471 533:0.56552605 534:0.64204462 535:0.42940361 536:0.11141383 537:0.012899691 538:0.0020601641 541:0.18477431 542:0.36718824 543:0.55073707 544:0.36972503 545:0.27740838 546:0.18474081 547:0.0042751629 548:2.4067745e-05 549:0.029521158 550:0.0289366 554:0.092424281 555:0.090594157 556:0.0078603614 557:0.0077057961 558:0.0043615269 559:0.0042751629 561:0.028837177 562:0.028837177 573:0.020538 574:0.020538 607:0.20361575 608:0.20158974 619:0.40319963 620:0.40317947 621:0.20361575 622:0.20158974 631:0.20158974 632:0.20158974 633:0.20158974 634:0.20158974 643:0.20260021 644:0.20260021 645:0.19858846 655:0.19858846 656:0.20260021 657:0.19858846 663:0.20260021 664:0.20260021 665:0.20260021 666:0.19858846 675:0.40017819 676:0.6027784 677:0.60480441 678:0.40418995 687:0.20158974 688:0.40621596 689:0.80236229 690:0.40017819 692:0.20158974 693:0.20158974 700:0.39817234 701:0.39422032 704:0.20158974 705:0.20361575 706:0.19958389 717:0.19958389 718:0.19563186 
0.05587864685851406 0.3780096200450553 0.4313975089416517 0.1210530854411921 0.5427847083061643 0.4015823762782968 0.08104559800814103 0.5138661615250821 0.125721362847656 20:0.0074741263 21:0.25974476 22:0.24742041 31:0.082014936 32:0.088787742 33:0.4637892 34:0.4474245 37:0.13051159 38:0.12861732 39:0.034157666 42:0.036175236 43:0.27587562 44:0.30436944 45:0.6269175 46:0.45347958 49:0.12898197 50:0.1300897 51:0.034157666 53:0.0042664551 54:0.092188184 55:0.24228147 56:0.34235696 57:0.72586298 58:0.57836557 61:0.05220845 62:0.05220845 65:0.0042664551 66:0.055174092 67:0.28030058 68:0.39094994 69:0.83470431 70:0.64345106 75:0.141351 76:0.16912577 77:0.075983177 78:0.013421059 79:0.46827625 80:0.50735972 81:0.95396343 82:0.53383542 87:0.26550489 88:0.29490623 89:0.29095702 90:0.07276067 91:0.48741259 92:0.48741259 93:0.97127603 94:0.50036109 99:0.12265554 100:0.21610583 101:0.45450086 102:0.25544921 103:0.48749348 104:0.49342337 105:0.98510432 106:0.50145138 112:0.082767164 113:0.38129586 114:0.45456041 115:0.34265432 116:0.47039861 117:0.96130225 118:0.50021815 125:0.11352051 126:0.21435629 127:0.21011175 128:0.22092959 129:0.60486789 130:0.3879898 141:0.1375203 142:0.1372035 165:0.18164828 166:0.17863678 174:0.0079342461 175:0.023709713 176:0.023395636 177:0.17985295 178:0.17985295 181:0.098817215 182:0.10218169 183:0.0046239028 186:0.010492001 187:0.27730117 188:0.29433191 189:0.26639638 190:0.013031768 193:0.098817215 194:0.10384102 195:0.034910534 198:0.002714863 199:0.24913798 200:0.27387374 201:0.27869 202:0.016547798 205:0.066967708 206:0.10178483 207:0.03421926 211:0.0053622937 212:0.013912853 213:0.01702796 214:0.0084241781 225:0.0069386781 226:0.0069386781 231:0.053233492 232:0.053233492 233:0.052179398 235:0.0072185979 236:0.0072185979 237:0.0048691418 238:0.0048691418 241:0.082310892 242:0.32000659 243:0.34283433 244:0.24017039 245:0.85636431 246:0.7169765 247:0.21482188 248:0.069902694 249:0.0260679 250:0.0022853814 253:0.082310892 254:0.32000659 255:0.41423602 256:0.23929969 257:0.99124111 258:0.98438655 259:0.50111406 260:0.85425086 261:0.53479877 262:0.00060276096 266:0.1850324 267:0.40679932 268:0.23532697 269:0.17990307 270:0.45245814 271:0.28201709 272:0.78376146 273:0.83199281 274:0.22573259 284:0.14972432 285:0.37545691 286:0.22126279 308:0.13344217 309:0.25549358 310:0.17851026 313:0.088384266 314:0.2838784 315:0.41799812 316:0.46305096 317:0.55449243 318:0.55541756 319:0.45177647 320:0.27066265 321:0.25533296 322:0.22213291 325:0.36372806 326:0.80118778 327:0.89895274 328:0.93547226 329:1 330:0.99156839 331:0.82447551 332:0.71677035 333:0.43275185 334:0.15934322 337:0.27443837 338:0.57743276 339:0.91554327 340:0.91836346 341:0.93199286 342:0.7757814 343:0.55529587 344:0.60377555 345:0.47787239 346:0.11658435 349:0.10686612 350:0.34662109 351:0.47539974 352:0.46946553 353:0.5035614 354:0.51689794 355:0.48439246 356:0.35457445 357:0.11693 364:0.052096439 365:0.12227081 366:0.17851065 367:0.14147057 368:0.061304399 369:0.0091364812 374:0.041385341 375:0.1245341 376:0.085534845 377:0.064413158 378:0.15489586 379:0.16628703 380:0.10027953 381:0.0089555668 385:0.11454494 386:0.44878992 387:0.64148848 388:0.54585213 389:0.52692946 390:0.28726272 391:0.16502421 392:0.038384287 397:0.11454494 398:0.40575678 399:0.76271554 400:0.85603287 401:0.78530085 402:0.55982348 403:0.17780663 404:0.28561159 405:0.34199507 406:0.10525052 410:0.22373573 411:0.54346596 412:0.68438982 413:0.67416171 414:0.43944417 415:0.12452124 416:0.28343252 417:0.39256454 418:0.22062767 428:0.05996432 429:0.27846579 430:0.21625895 452:0.30803672 453:0.39140726 454:0.15200573 457:0.081841073 458:0.1515687 459:0.10465789 460:0.052093262 461:0.12801607 462:0.14769765 463:0.37154066 464:0.6397714 465:0.54776131 466:0.29657303 469:0.37363451 470:0.4446281 471:0.279471 472:0.077032959 473:0.25405738 474:0.45418944 475:0.7581339 476:0.78816872 477:0.84033896 478:0.25964901 481:0.2877398 482:0.40932469 483:0.28501606 484:0.094186141 485:0.25257805 486:0.79039923 487:0.75325511 488:0.78101692 489:0.72262287 490:0.35157798 493:0.085353571 494:0.08688185 495:0.0087748587 496:0.24629268 497:0.58652221 498:0.79490197 499:0.87134834 500:0.59065753 501:0.64301573 502:0.32513337 507:0.1812777 508:0.55861279 509:0.5850666 510:0.58212512 511:0.65366421 512:0.63739723 513:0.50210491 514:0.090811324 518:0.086250478 519:0.47351075 520:0.51399255 521:0.71397844 522:0.66885031 523:0.53581651 524:0.46868742 525:0.14356332 526:5.7704673e-05 529:0.087535171 530:0.34815529 531:0.46705664 532:0.45767954 533:0.50963959 534:0.52293809 535:0.30647115 536:0.1116892 537:0.015135416 538:0.0019085949 541:0.087535171 542:0.25845206 543:0.43049232 544:0.35007115 545:0.27631133 546:0.18181056 548:0.016893218 549:0.03834659 550:0.021028566 554:0.086664181 555:0.084974957 556:0.011123956 557:0.010894251 560:0.016893218 561:0.037907888 562:0.037570018 573:0.033366839 574:0.033035659 607:0.20381452 608:0.20178653 619:0.40257672 620:0.80121768 621:0.60639124 622:0.40056886 631:0.20279799 632:0.59734337 633:0.60637106 634:0.40056886 643:0.20279799 644:0.40158032 645:0.19878232 655:0.19878232 656:0.20279799 657:0.19878232 663:0.40458453 664:0.40458453 665:0.19878232 675:0.60235539 676:0.80515338 677:0.80314557 678:0.40056886 687:0.40458453 688:0.60639124 689:0.99896841 690:0.40056886 692:0.20178653 693:0.20178653 699:0.19878232 700:0.40257672 701:0.39460516 704:0.20178653 705:0.20381452 706:0.19977872 717:0.19977872 718:0.19582284 
0.1335593757812257 0.8672631334738535 0.9760285067759341 0.2880812920450249 1.255372691238552 0.9352746780535415 0.1935801880148677 1.219553046875188 0.298212929100558 31:0.023047401 32:0.25180048 33:0.22829442 43:0.022591032 44:0.73018763 45:0.70714702 46:0.42868699 56:0.92297645 57:0.92310326 58:0.90482459 68:0.84681641 69:1 70:0.88289243 77:0.16560409 78:0.16560409 80:0.39729134 81:0.61068423 82:0.40349164 86:0.20890442 87:0.20890442 89:0.16560409 90:0.16726843 91:0.1639563 92:0.09779399 93:0.09779399 98:0.84258957 99:0.83757571 100:0.40379255 102:0.1639563 103:0.16070975 110:0.6246923 111:0.83979579 112:0.57744176 123:0.17774464 124:0.17422506 161:0.0039848569 162:0.080831373 163:0.42801451 164:0.34936212 173:0.0039848569 174:0.080831373 175:0.6708696 176:0.95902697 177:0.72417863 186:0.022975792 187:0.23804624 188:0.89314571 189:0.88564666 190:0.16290063 200:0.071491223 201:0.18825841 202:0.18453064 212:0.39901021 213:0.39110928 214:0.023444792 224:0.39662692 225:0.39662692 236:0.15632941 237:0.15632941 242:0.33462421 243:0.43702662 244:0.10184831 254:0.33312084 255:0.62450167 256:0.63177156 257:0.32810914 258:0.15299988 267:0.4543513 268:0.62464243 269:0.4023844 270:0.22727514 281:0.072804515 282:0.072804515 304:0.2224959 305:0.66905839 306:0.87590548 307:0.73827903 308:0.3054273 316:0.2224959 317:0.66905839 318:0.89315409 319:0.8342659 320:0.70869045 321:0.34331729 329:0.4394654 330:0.87546845 331:0.81774633 332:0.69843574 333:0.49210925 334:0.17080036 345:0.17080036 346:0.16741828 355:0.11887712 356:0.42929759 357:0.30709225 358:0.13952154 365:0.27611531 366:0.6417005 367:0.74428987 368:0.68419022 369:0.55401563 370:0.13952154 374:0.11652154 375:0.5643445 376:0.78187963 377:0.80703015 378:0.83755407 379:0.62779992 380:0.60779591 381:0.34245302 386:0.25357994 387:0.83902804 388:0.90998926 389:0.80415006 390:0.70687479 391:0.23698558 398:0.1370584 399:0.67683807 400:0.98524761 401:0.6463194 402:0.32106973 411:0.42431609 412:0.73506423 413:0.79799119 414:0.48441858 425:0.16011433 426:0.16011433 448:0.0042238018 449:0.012692577 450:0.0083847194 460:0.0042238018 461:0.012692577 462:0.012693 463:0.0041817743 473:0.0083426919 474:0.012441662 475:0.0040989696 476:0.014805618 477:0.014805618 488:0.10346358 489:0.10346358 490:0.054280711 499:0.1347072 500:0.81927953 501:0.67639377 502:0.28179288 509:0.32348058 510:0.68410777 511:0.71667554 512:0.94639165 513:0.89082707 514:0.2268568 518:0.20264139 519:0.51371066 520:0.44487046 521:0.54975504 522:0.76699639 523:0.68460714 524:0.6985105 525:0.4770645 530:0.40293598 531:0.70848085 532:0.68506837 533:0.41625833 534:0.60217317 535:0.33502202 542:0.19632848 543:0.51731158 544:0.42442378 592:0.99004983 593:0.99004983 604:0.99004983 605:1 606:0.98019867 617:0.98019867 618:0.96078944 689:0.99501248 690:0.97530991 701:0.99501248 702:0.99501248 713:0.97530991 714:0.97530991 
0.06679159146754186 0.4715234955106132 0.5366275493627961 0.1499406121971259 0.6429564045300071 0.4728243970459415 0.0979084726350128 0.6449060309525116 0.1516301229997878 18:0.14069077 19:0.13790491 30:0.46726793 31:0.4580154 33:0.35613144 34:0.35613144 35:0.17497618 42:0.83483216 43:0.82521014 44:0.16408424 45:0.70872806 46:0.70872806 47:0.52580549 54:0.99992471 55:0.99014913 56:0.50125464 57:0.70872801 58:0.71228043 59:0.69817634 66:0.78130043 67:0.82581189 68:0.33361212 69:0.70872805 70:0.71228053 71:0.69817643 78:0.41035547 79:0.59071834 80:0.25517998 81:0.35259666 82:0.53376977 83:0.52320042 86:0.015147857 87:0.015147857 88:0.0055556466 89:0.0055556466 90:0.21152657 91:0.35087744 92:0.3439296 94:0.17585314 95:0.17237102 98:0.37337723 99:0.37337723 100:0.18857441 101:0.0055556466 102:0.091461669 103:0.093309317 104:0.091461669 110:0.64333623 111:0.64333623 112:0.54281784 122:0.28507413 123:0.46906081 124:0.45977278 135:0.10878361 136:0.10662955 163:0.19349675 164:0.58145595 165:0.3841085 174:0.33148284 175:0.51841579 176:0.77591836 177:0.98850064 178:0.77013634 179:0.19061025 186:0.65562631 187:0.64600546 188:0.47792249 189:0.95792014 190:0.80670465 191:0.23017263 198:0.45927675 199:0.49282624 200:0.16710585 201:0.079900921 202:0.080320656 203:0.078730201 210:0.63550341 211:0.62869 212:0.069957515 213:0.079871369 214:0.08029833 215:0.078708316 222:0.78729401 223:0.92653441 224:0.57559118 225:0.039736412 226:0.060145695 227:0.058954731 232:0.83482957 233:0.83482957 234:0.81829884 235:0.5813905 236:0.5698782 238:0.01980641 239:0.019414217 242:0.085691962 243:0.085691962 244:0.81829884 245:0.83482957 246:0.81829884 254:0.76509833 255:0.76509833 256:0.41864508 266:0.67318894 267:0.74162401 268:0.72693887 279:0.33574459 280:0.3290964 306:0.38505522 307:0.75137708 308:0.70913246 309:0.33963978 318:0.38505522 319:0.75137708 320:0.88108331 321:0.85719922 322:0.68098126 323:0.16854606 330:0.18340871 331:0.574375 332:0.72502302 333:0.84701827 334:0.67762709 335:0.16854606 354:0.14657527 355:0.29388525 356:0.14439305 364:0.062330511 365:0.22263279 366:0.54933864 367:0.62333653 368:0.41858385 374:0.03070577 375:0.43562093 376:0.76610822 377:0.64141674 378:0.86060665 379:0.69604536 380:0.48979519 386:0.03070577 387:0.50632279 388:1 389:0.9071709 390:0.71889904 391:0.55038891 392:0.21611887 398:0.28349363 399:0.57974912 400:0.73091563 401:0.56955741 402:0.57002335 403:0.46418405 404:0.13636239 410:0.28067984 411:0.49767797 412:0.6467315 413:0.29863202 414:0.074092758 423:0.13998557 424:0.13721367 450:0.091083866 451:0.10586703 452:0.015788622 462:0.12679984 463:0.14279524 464:0.040065776 474:0.10092107 475:0.14066789 476:0.03927242 486:0.14193975 487:0.14026429 488:0.056374704 498:0.18599812 499:0.23632285 500:0.056010264 508:0.11290046 509:0.32705908 510:0.44562653 511:0.41192072 512:0.18911747 518:0.14611837 519:0.45190896 520:0.65152706 521:0.65181209 522:0.74946101 523:0.48408238 524:0.28459545 530:0.32476043 531:0.73182345 532:0.94170287 533:0.82437548 534:0.82429312 535:0.46566608 536:0.19603658 542:0.28675598 543:0.60877831 544:1 545:0.69480582 546:0.56378767 547:0.36048953 548:0.09631759 554:0.10981449 555:0.30809673 556:0.55009477 557:0.4022834 558:0.098804116 567:0.054768607 568:0.053684116 595:0.66942265 596:0.66277835 607:0.66942265 608:0.67277814 609:0.3355481 610:0.3355481 611:0.3289038 619:0.3289038 620:0.65945624 621:0.3289038 622:0.3355481 623:0.3289038 643:0.3355481 644:0.3289038 645:0.33387455 646:0.33387455 654:0.3355481 655:0.6710962 656:0.6644519 657:0.33387455 658:0.33723004 659:0.33055244 666:0.6644519 667:1 668:0.9867114 670:0.33055244 671:0.32400706 678:0.3289038 679:0.3355481 680:0.3289038 
0.0674623357636983 0.4202643295530823 0.4909243061293344 0.1376247427173101 0.6310626181330636 0.4701792748457779 0.0955896703135929 0.5989114191951861 0.1461216763806288 18:0.16594383 19:0.16265793 30:0.54794976 31:0.53709963 33:0.41127929 34:0.41127929 35:0.20207168 42:0.98411105 43:0.97279076 44:0.19872213 45:0.81847645 46:0.81847645 47:0.6072278 54:1 55:0.9882856 56:0.4063168 57:0.61335085 58:0.82257898 59:0.80629082 66:0.72966308 67:0.7825111 68:0.20348403 69:0.20207157 70:0.82156475 71:0.81241408 78:0.46610737 79:0.67053905 80:0.2884294 82:0.61334951 83:0.61334951 86:0.036107967 87:0.036107967 90:0.249644 91:0.40575303 92:0.39771858 94:0.20207015 95:0.20207015 98:0.44344149 99:0.44344149 100:0.24153556 102:0.11232633 103:0.11459547 104:0.11232633 110:0.7057503 111:0.7057503 112:0.63496814 122:0.29855964 123:0.49900283 124:0.48912191 135:0.098851142 136:0.096893758 163:0.18325683 164:0.55068835 165:0.54796221 166:0.18053065 174:0.31968933 175:0.49661589 176:0.55068835 177:0.93642835 178:0.73304092 179:0.18052551 186:0.54660859 187:0.53783923 188:0.43190992 189:0.90359162 190:0.76448138 191:0.21843961 198:0.36241088 199:0.38910712 200:0.10200641 201:0.057397896 202:0.076974887 203:0.075450683 210:0.63618421 211:0.62920068 212:0.031424325 213:0.018905947 214:0.076837934 215:0.076002372 222:0.78051723 223:0.91910639 224:0.559966 226:0.057357493 227:0.057357493 232:0.72347381 233:0.72347381 234:0.70914807 235:0.56560789 236:0.5544081 238:0.018891543 239:0.018891543 242:0.13781933 243:0.13781933 244:0.70914807 245:0.72347381 246:0.70914807 254:0.99501248 255:0.99501248 256:0.55759962 266:0.85003949 267:0.93091806 268:0.91248465 279:0.4239466 280:0.41555189 306:0.43891914 307:0.85672991 308:0.80901323 309:0.58380893 310:0.19233866 318:0.43891914 319:0.85672991 320:0.84363159 321:0.97820427 322:0.78099573 323:0.1923387 330:0.20903974 331:0.65474788 332:0.82692656 333:0.96270063 334:0.77328258 335:0.1923387 354:0.16746355 355:0.33576652 356:0.16497035 364:0.074555731 365:0.25398665 366:0.47679857 367:0.56092889 368:0.33410023 374:0.030768972 375:0.35932329 376:0.72837643 377:0.69592026 378:0.91200816 379:0.88536339 380:0.65531461 386:0.030768972 387:0.44370254 388:1 389:0.87910944 390:0.73571168 391:0.77271527 392:0.48618646 398:0.27976247 399:0.56389492 400:0.65447338 401:0.54167601 402:0.55407904 403:0.43285457 404:0.15522079 410:0.27698571 411:0.46872736 412:0.64207905 413:0.34416497 414:0.085054711 423:0.13814317 424:0.13540775 450:0.092157912 451:0.10790292 452:0.016722728 462:0.12751617 463:0.1444834 464:0.042525243 474:0.10012819 475:0.14231561 476:0.041683187 486:0.11488277 487:0.11347711 488:0.043457939 498:0.14878659 499:0.20246979 500:0.053975402 508:0.12175423 509:0.3471291 510:0.40519857 511:0.35629486 512:0.13324415 518:0.15974966 519:0.39082173 520:0.58058219 521:0.67386643 522:0.69927979 523:0.49396456 524:0.28093086 530:0.34001719 531:0.67847495 532:0.88671108 533:0.75830302 534:0.76044923 535:0.43352071 536:0.24482235 542:0.34598639 543:0.68191818 544:1 545:0.64109576 546:0.49761605 547:0.2757261 548:0.092626049 554:0.16652471 555:0.37607539 556:0.63701178 557:0.42501142 558:0.10481916 567:0.07221648 568:0.070786498 595:0.50186327 596:0.49688207 607:0.50186327 608:0.50437887 609:0.25155896 610:0.25155896 611:0.24657776 619:0.24657776 620:0.4943915 621:0.24657776 622:0.25155896 623:0.24657776 643:0.25155896 644:0.24657776 646:0.25155896 647:0.24657776 654:0.25155896 655:0.50311793 656:0.49813673 658:0.25155896 659:0.25155896 666:0.49813673 667:1 668:0.9900376 670:0.24657776 671:0.24657776 678:0.24657776 679:0.50186327 680:0.49688207 
0.1203824192423137 0.7785588835505352 0.8989488195068898 0.2512281748932891 1.131738681812756 0.8431608999905581 0.1730087024064565 1.088483077146751 0.2650936471099435 18:0.2275261 19:0.22302078 22:0.22275866 23:0.21834774 30:0.62834196 31:0.61589996 34:0.6693925 35:0.65613764 42:0.85351109 43:0.84846723 46:0.88883466 47:0.88440159 54:0.89331978 55:0.87563086 58:0.88883445 59:0.88440138 66:0.92289676 67:0.99661084 68:0.15745572 70:0.88439992 71:0.88439992 78:0.47963206 79:0.69413584 80:0.30603153 82:0.43999384 83:0.43999384 86:0.22011814 87:0.21681535 90:0.37702774 91:0.37702774 92:0.3114818 98:0.66495185 99:0.65284076 100:0.052790969 102:0.75351851 103:0.75351851 104:0.5942799 110:0.82073368 111:0.87352465 112:0.051745638 114:0.37534288 115:0.58713697 116:0.57551088 122:0.42617466 123:0.42617466 127:0.15115332 128:0.14816028 162:0.064432405 163:0.29530034 164:0.46139587 165:0.46082819 166:0.24324377 167:0.013700749 174:0.29919877 175:0.52310817 176:0.45913176 177:0.46313785 178:0.37496858 179:0.14224566 186:0.37076691 187:0.37076691 188:0.22811661 189:0.45396711 190:0.39572757 191:0.16761287 198:0.24336242 199:0.23854352 202:0.0558421 203:0.055549822 210:0.72921399 211:0.72258527 212:0.18471316 214:0.055563516 215:0.055563516 220:0.99501248 221:0.98513657 222:0.55291013 223:0.68826975 224:0.38867151 226:0.027644944 227:0.027644944 232:0.99501248 233:1 234:0.49132458 235:0.38360742 236:0.37601149 242:0.085063578 243:0.083379206 244:0.48887409 245:0.98019867 246:0.4815957 247:0.37190398 248:0.36453979 254:0.32901781 255:0.32711287 258:0.046714664 259:0.1893917 260:0.18564149 266:0.27292225 267:0.27292225 306:0.27397207 307:0.75559834 308:0.78403341 309:0.61093356 310:0.30394334 318:0.27397207 319:0.75253607 320:0.81067447 321:0.61399568 322:0.46011696 323:0.15158808 330:0.097062011 331:0.44261513 332:0.64454316 333:0.60183775 334:0.45100604 335:0.14858643 353:0.08233176 354:0.32982723 355:0.37964713 356:0.13307976 364:0.22864608 365:0.46204712 366:0.48139994 367:0.64045024 368:0.38999642 374:0.13074962 375:0.43343763 376:0.80121236 377:0.93001783 378:0.70857497 379:0.89853419 380:0.52337788 381:0.13009557 386:0.21535602 387:0.73854788 388:0.94248443 389:0.92922066 390:0.62764054 391:0.58415926 392:0.38898812 393:0.1275195 398:0.33377189 399:0.55637212 400:0.55662689 401:0.45799828 402:0.32597284 403:0.087913475 410:0.24266104 411:0.41046781 412:0.35613693 413:0.071221615 450:0.21398656 451:0.2262367 452:0.014689979 462:0.21398656 463:0.22973494 464:0.090016297 474:0.135963 475:0.22568254 476:0.088233855 486:0.11878841 487:0.11820335 497:0.091483597 498:0.30231921 499:0.25666747 500:0.048262599 508:0.32291494 509:0.61170133 510:0.48223906 511:0.38680815 512:0.14529593 518:0.38179361 519:0.53834471 520:0.64669728 521:0.94282934 522:0.73582753 523:0.63010966 524:0.25862474 525:0.049104653 530:0.5579688 531:1 532:0.80290057 533:0.82978062 534:0.61964627 535:0.43310903 536:0.24487272 537:0.048132316 542:0.32062094 543:0.68048669 544:0.7058755 545:0.5643231 546:0.35923009 547:0.21749241 548:0.12982609 554:0.14016742 555:0.37137312 556:0.36224971 557:0.093769199 559:0.079894498 560:0.078312481 595:0.67390596 596:0.66056173 597:0.33443424 598:0.67054484 599:0.32945516 607:0.67054484 608:0.67054484 609:0.33443424 610:0.67390596 611:0.66721716 619:0.32945516 620:0.32945516 622:0.66056173 623:0.65400538 642:0.33443424 643:0.6722296 644:0.33443424 646:0.33779536 647:0.33443424 654:0.33443424 655:0.99997504 656:0.6655408 658:0.33443424 659:0.33443424 666:0.3361106 667:0.67054484 668:0.99180074 669:0.33110656 678:0.6638894 679:0.6638894 680:0.66056173 681:0.32455021 690:0.33443424 691:0.33779536 692:0.33110656 703:0.33110656 704:0.32455021 
0.1361408179415584 0.8753478889628319 0.9979601388227196 0.2828170926075247 1.278350705882492 0.9485574924950479 0.1946388970724207 1.233797933302982 0.3002341027274078 17:0.024219714 18:0.23884178 19:0.21037226 21:0.31683997 22:0.31056612 29:0.37330584 30:0.67452344 31:0.35877631 33:0.71662352 34:0.70243342 41:0.7466152 42:0.83974181 43:0.32323907 45:0.80018188 46:0.79619104 53:0.81453512 54:0.79840624 57:0.80018188 58:0.79619095 65:0.83402907 66:0.82344052 69:0.99972237 70:0.99673157 71:0.19656963 77:0.8292821 78:0.8292821 81:0.99697818 82:0.9987365 83:0.59069366 89:0.81106984 90:0.81106984 93:0.81261128 94:0.81352638 95:0.79741748 97:0.20928787 98:0.41499528 99:0.20163413 101:0.59226423 102:0.59226423 105:0.82589667 106:0.82290253 107:0.6038624 109:0.34638603 110:0.66923191 111:0.66233136 113:0.19137194 114:0.19137194 117:0.5996806 118:0.80031292 119:0.19665953 121:0.13438344 122:0.57332024 123:0.56650257 129:0.38872303 130:0.38872303 151:0.033329848 152:0.084242939 153:0.049904944 162:0.16759058 163:0.19760191 164:0.42301638 165:0.95395658 166:0.55681315 174:0.33602121 175:0.33434529 176:0.33206528 177:1 178:0.77466136 186:0.33102678 187:0.33102678 189:0.32184039 190:0.32184039 201:0.060808592 202:0.060505246 209:0.010480787 210:0.010273253 213:0.075966488 214:0.07574269 215:0.014935852 221:0.039594151 222:0.038810134 225:0.084946661 226:0.084649429 227:0.044888426 233:0.076871213 234:0.075349061 237:0.050166046 238:0.06572656 239:0.064425087 241:0.1046818 242:0.1046818 245:0.064824809 246:0.064824809 249:0.051292283 250:0.050482951 251:0.034287597 253:0.23907755 254:0.4192643 255:0.41376859 257:0.024561165 258:0.024561165 261:0.091856855 262:0.091396437 265:0.13173453 266:0.41642981 267:0.41171638 273:0.085875239 274:0.085875239 295:0.43611018 296:0.63733945 297:0.20142293 305:0.054098687 306:0.27755277 307:0.65847465 308:1 309:0.82187713 310:0.20410887 317:0.054098687 318:0.27420467 319:0.48801726 320:0.98725148 321:0.90156528 322:0.29219541 330:0.10685366 331:0.10579309 333:0.086342314 334:0.086342314 342:0.077905867 343:0.1594086 344:0.07988887 353:0.12564663 354:0.27031209 355:0.28002142 356:0.15863342 363:0.065460496 364:0.23319066 365:0.3967326 366:0.43512798 367:0.46073219 368:0.29443567 374:0.069800898 375:0.26021946 376:0.54494989 377:0.59086961 378:0.48971422 379:0.38378962 380:0.1389434 386:0.15694838 387:0.42590441 388:0.51625002 389:0.56334885 390:0.39173594 391:0.19809038 398:0.44346564 399:0.59607604 400:0.51950216 401:0.24444164 402:0.061536719 410:0.34930877 411:0.48572727 412:0.25774744 439:0.040681261 440:0.040039046 449:0.10903093 450:0.46293817 451:0.38993507 452:0.15731092 453:0.049057155 454:0.048085758 461:0.37446705 462:0.72068425 463:0.60564292 464:0.15650373 465:0.057061738 466:0.049057155 473:0.28080902 474:0.49714441 475:0.33221823 477:0.048085758 478:0.048085758 485:0.069791989 486:0.11081704 487:0.16318713 488:0.077323128 497:0.32418269 498:0.49781576 499:0.34939173 500:0.16234831 507:0.086537135 508:0.37070935 509:0.78532257 510:0.75862599 511:0.61829472 512:0.32382583 518:0.22187029 519:0.49155577 520:0.81125157 521:0.89575083 522:0.84338788 523:0.52154314 524:0.16469223 525:0.10722181 526:0.10722181 527:0.0042157345 529:0.053861182 530:0.55654552 531:1 532:0.84442544 533:0.79180101 534:0.50792512 535:0.24816047 537:0.21109193 538:0.2111771 539:0.10611257 541:0.053861182 542:0.45995985 543:0.89967035 544:0.76128769 545:0.35753836 546:0.084080489 549:0.10292091 550:0.20481775 551:0.09987914 554:0.17226005 555:0.45143655 556:0.27690394 594:0.49875 595:0.48887409 597:0.49875 598:0.48887409 606:1 607:0.99501248 609:0.49875 610:0.49875 618:0.98513657 619:0.98513657 621:0.48887409 622:0.48887409 631:0.49875 632:0.48887409 643:0.49875 644:0.49875 655:0.98513657 656:0.98513657 657:0.49626248 658:0.49626248 665:0.49875 666:0.48887409 667:0.49626248 668:0.49626248 669:0.49626248 670:0.50125 671:0.49132458 677:0.49875 678:0.49875 682:0.49132458 683:0.4815957 689:0.48887409 690:0.48887409 693:0.50125 694:0.49626248 705:0.49626248 706:0.49626248 
0.1414739484246593 0.9482630789539674 1.024722759394797 0.2988042499084247 1.38654544585727 1.00937843210096 0.2067739398631972 1.277982928570752 0.3059907247234804 34:0.40938157 35:0.4062473 46:0.73323558 47:0.73529229 48:0.49595542 53:0.080974684 54:0.079371278 58:0.31793299 59:0.70255571 60:0.49103285 64:0.38473427 65:0.46266456 66:0.17481403 76:0.82167345 77:0.80993953 78:0.30711683 88:0.92100061 89:0.95901149 90:0.13125468 100:0.99118432 101:0.97155756 112:0.99501248 113:0.99501248 124:0.96283646 125:0.96283646 136:0.46346118 137:0.46346118 177:0.019724798 178:0.99906993 179:0.96401555 189:0.019334221 190:0.9909954 191:0.99688022 192:0.20313425 199:0.0093928477 200:0.0092993873 202:0.37847134 203:0.58160558 204:0.19911192 211:0.0092993873 212:0.0092993873 244:0.020025897 245:0.019629358 256:0.092785024 257:0.090947758 268:0.14203209 269:0.14203209 280:0.09690461 281:0.09690461 319:0.039175522 320:0.33964034 321:0.60465922 322:0.58264502 323:0.29811147 331:0.039175522 332:0.4418615 333:0.89055671 334:0.76437484 335:0.34865969 341:0.30315245 342:0.56773417 343:0.56401542 344:0.65028132 345:0.69846857 346:0.53994495 347:0.21979614 353:0.30075808 354:0.56007057 355:0.63895958 356:0.53954861 357:0.58438106 358:0.48192948 359:0.16589659 365:0.075413675 366:0.17966193 367:0.102184 463:0.20445259 464:0.66302052 465:0.49861152 466:0.15146308 467:0.0043599724 475:0.20445259 476:0.75514449 477:0.83789826 478:0.92819838 479:0.62862078 480:0.19859222 485:0.49929906 486:0.70191079 487:0.42559345 488:0.8116831 489:0.83133211 490:0.86973526 491:0.76497075 492:0.19850675 496:0.48894063 497:0.9839364 498:0.74625158 499:0.56263144 500:0.40785616 501:0.42726454 502:0.60415664 503:0.30930341 508:0.64859461 509:0.86766354 510:0.75870404 511:0.13432445 520:0.31667292 521:0.48646661 522:0.16643155 532:0.10909482 533:0.10909482 544:0.02937292 545:0.02937292 607:0.99004983 608:0.99004983 619:0.99004983 620:1 621:0.98019867 632:0.98019867 633:0.96078944 700:1 701:0.99004983 712:0.99004983 713:0.99004983 
0.1528739540052655 0.871053867817567 0.9259259921282847 0.2976684174881907 1.234418221624163 0.9493404049645661 0.1910375358502464 1.190810035979089 0.3158319103321061 20:0.076075461 21:0.10181567 22:0.027246607 31:0.25427803 32:0.42145041 33:0.26531316 34:0.15046764 35:0.10152804 43:0.59582046 44:0.68511354 45:0.58040354 46:0.14979142 47:0.1485655 55:0.70816461 56:0.70816461 57:0.66447904 58:0.046629631 59:0.046629631 67:0.94379312 68:0.9398936 69:0.72057517 79:0.98579915 80:0.97377766 81:0.55832753 91:0.80802302 92:0.99689175 93:0.18512889 97:0.024268468 98:0.02378792 103:0.41058075 104:0.41058075 109:0.024268468 110:0.024268468 121:0.02378792 122:0.02378792 164:0.0035961821 165:0.44426519 166:0.43629519 176:0.0035961821 177:0.63678207 178:0.99293461 179:0.58992359 189:0.22007192 190:0.99239219 191:0.76426998 202:0.17511749 203:0.17511749 241:0.18905974 242:0.18718324 253:0.18905974 254:0.1900074 255:0.093355308 265:0.092889696 266:0.186245 267:0.091506749 308:0.15143278 309:0.26392796 310:0.11103036 320:0.15143278 321:0.26554861 322:0.22457429 323:0.00027886779 332:0.038237875 333:0.26029039 334:0.22012742 335:0.00027334583 366:0.096079409 367:0.19264042 368:0.094648973 374:0.13884086 375:0.29125146 376:0.32636003 377:0.3523957 378:0.57183428 379:0.59629449 380:0.28521035 385:0.22070435 386:0.69209627 387:0.79395233 388:0.6908155 389:0.74900072 390:0.88795266 391:1 392:0.60083817 397:0.21972026 398:0.54939444 399:0.77821967 400:0.6601447 401:0.46403047 402:0.41118363 403:0.52721969 404:0.31517738 409:0.064402589 410:0.26614438 411:0.2878992 412:0.086474878 452:0.37600804 453:0.37159549 463:0.25252742 464:0.77782063 465:0.65507465 466:0.15164285 475:0.35771286 476:0.68188746 477:0.82727984 478:0.14864012 487:0.1756947 488:0.26449582 489:0.25925845 499:0.13238684 500:0.13899092 501:0.13623871 510:0.03926674 511:0.15420681 512:0.1135263 513:0.074272034 518:0.20807466 519:0.37336434 520:0.29629785 521:0.23860391 522:0.25314096 523:0.25510003 524:0.17268466 525:0.019302029 529:0.48281064 530:1 531:0.82229842 532:0.5914993 533:0.44786826 534:0.32438209 535:0.31228449 536:0.16496284 541:0.47833847 542:0.78346783 543:0.92520171 544:0.57560948 545:0.26178858 546:0.11050913 547:0.091839035 548:0.046615366 553:0.22137986 554:0.30251654 555:0.14088465 556:0.05916263 610:0.33277732 611:0.32618788 622:0.33277732 623:0.33277732 634:0.32618788 635:0.32618788 655:0.33277732 656:0.32618788 667:1 668:0.98019867 679:0.99008278 680:0.99008278 691:0.32618788 692:0.32618788 
0.1704442863279439 1.008987194464492 0.9924702591907383 0.4055170666213148 5.420403299730257 1.235348268963706 0.3458666577120327 1.461837782188654 0.5571941028421997 43:0.009529195 44:0.0094346138 54:0.07597987 55:0.090309517 56:0.051660424 57:0.004705396 65:0.08439987 66:0.22142 67:0.14697486 68:0.088988687 69:0.0046122229 76:0.10517874 77:0.48634329 78:0.43753861 79:0.26540083 80:0.036774995 88:0.36175351 89:0.65205318 90:0.60214106 91:0.1650488 99:0.44882228 100:0.83600435 101:0.74248613 102:0.32442424 110:0.17297056 111:0.78493118 112:0.88218106 113:0.5550452 122:0.54138727 123:0.85950778 124:0.81370426 125:0.1412719 134:0.36112157 135:0.53782869 136:0.34796789 177:0.19779103 178:0.38174219 179:0.18058957 189:0.19779103 190:1 191:0.98103699 192:0.31508054 201:0.014185631 202:0.67012888 203:0.973795 204:0.31508054 320:0.1901791 321:0.64262628 322:0.58090665 323:0.13031761 331:0.02677823 332:0.40465561 333:0.82846157 334:1 335:0.56019223 336:0.070125596 343:0.026512445 344:0.21049405 345:0.62372689 346:0.98463512 347:0.55313578 348:0.070125596 356:0.013222751 357:0.012960923 464:0.088922552 465:0.11655857 466:0.027088792 475:0.43451014 476:0.75071417 477:0.48361203 478:0.20327245 486:0.28693352 487:0.86696521 488:0.86687512 489:0.62664622 490:0.20098195 497:0.13414688 498:0.55893612 499:0.71916677 500:0.71944049 501:0.14248158 508:0.12426431 509:0.64310325 510:0.65177729 511:0.5371907 512:0.13525757 520:0.3705721 521:0.74771538 522:0.76165049 523:0.25719411 531:0.34916954 532:0.7095144 533:0.72523929 534:0.36542026 542:0.1109665 543:0.57174236 544:0.69977704 545:0.46655069 554:0.32844729 555:0.55477834 556:0.55761113 557:0.11178674 566:0.21317438 567:0.32626957 568:0.21510132 622:0.99501248 623:0.99501248 624:0.97530991 634:0.97530991 635:0.99501248 636:0.97530991 698:1 699:0.99004983 710:0.99004983 711:0.99004983 
0.1385841763928837 0.882424041286672 0.9992899792367496 0.316957348110979 1.292047652973342 0.952783020412747 0.1939840293387253 1.275023170613154 0.2973048216077984 34:0.2318799 35:0.22728837 45:0.18790032 46:0.83898668 47:0.63819399 57:0.57516492 58:0.99853739 59:0.99152264 68:0.088627079 69:0.55447871 70:0.89202471 71:0.66642415 80:0.087747419 81:0.25974908 82:0.38801621 83:0.12745608 93:0.043762931 94:0.042896367 177:0.33796737 178:0.33513941 189:0.63076498 190:0.99839483 191:0.84587745 201:0.28699984 202:0.99166379 203:0.84205165 320:0.34196218 321:0.68444568 322:0.34214555 328:0.2307161 329:0.46880306 330:0.49100686 331:0.52633388 332:0.77040273 333:0.99813373 334:0.83742345 335:0.47366469 337:0.10040837 338:0.41730127 339:0.53659741 340:0.56260493 341:0.57888442 342:0.48599622 343:0.51591177 344:0.71363844 345:0.80610761 346:0.82703451 347:0.47041536 349:0.10040837 350:0.41516967 351:0.53007463 352:0.65351956 353:0.56610448 354:0.34991336 355:0.11633018 356:0.010514365 357:0.010514365 362:0.20126613 363:0.30357879 364:0.10221619 367:0.021018607 368:0.043042046 369:0.030144181 370:0.010409745 378:0.03548338 379:0.060643809 380:0.040823484 381:0.038012449 382:0.010203618 388:0.045408049 389:0.16270614 390:0.18052625 391:0.10596949 392:0.033506438 393:0.0079185931 399:0.17382572 400:0.42362637 401:0.36538947 402:0.26950741 403:0.1303603 404:0.012374929 410:0.10109009 411:0.2749158 412:0.41826881 413:0.37587802 414:0.18645049 415:0.037148472 422:0.099088371 423:0.19158317 424:0.34128891 425:0.15010962 464:0.035553265 465:0.035464831 466:0.056401606 467:0.054965589 472:0.11074583 473:0.21070334 474:0.1958896 475:0.17667255 476:0.17961505 477:0.14619142 478:0.27217227 479:0.18860881 481:0.065080344 482:0.25444322 483:0.30659079 484:0.29074104 485:0.27672387 486:0.20434371 487:0.18657248 488:0.1791944 489:0.42772028 490:0.5297966 491:0.36081294 493:0.065080344 494:0.2532287 495:0.3139867 496:0.35162019 497:0.27349012 498:0.15221151 499:0.047607462 500:0.27723643 501:0.72358489 502:0.72227086 503:0.34554102 506:0.12854421 507:0.18926605 508:0.06077006 511:0.43028622 512:0.84452126 513:0.80015572 514:0.62335745 515:0.10650621 522:0.42858558 523:1 524:0.86100172 525:0.56826287 526:0.14295019 532:0.11035594 533:0.47250531 534:0.91898645 535:0.97162639 536:0.71580106 537:0.13966637 543:0.16944 544:0.57672382 545:0.76484863 546:0.84865133 547:0.65227734 548:0.14044806 554:0.072478161 555:0.24191816 556:0.46221563 557:0.60881562 558:0.44949511 559:0.11683405 566:0.071042997 567:0.15191929 568:0.32507667 569:0.17285964 610:0.49875 611:0.48887409 622:1 623:0.99501248 625:0.49626248 626:0.49626248 634:0.98513657 635:0.98513657 637:0.49626248 638:0.50125 639:0.49132458 650:0.49132458 651:0.4815957 698:0.49875 699:0.49875 700:0.48887409 710:0.48887409 711:0.49875 712:0.48887409 
0.1323599480549252 0.8682355190100564 0.9487072967340352 0.2849100928101977 1.243215729343494 0.9193605786526092 0.1894948919906041 1.192170956135354 0.3010601395872481 18:0.092376332 19:0.24117709 20:0.25632758 21:0.10596904 30:0.67177957 31:0.81285074 32:0.56052719 33:0.33395309 42:0.9847719 43:0.97357796 44:0.98583846 45:0.56391668 53:0.087350695 54:0.6761193 55:0.81882051 56:0.64687799 57:0.62571193 58:0.25664661 65:0.32652431 66:0.50925376 67:0.48070095 68:0.56391373 69:0.657809 70:0.53344636 77:0.53396629 78:0.57121953 79:0.5615405 80:0.59181017 81:0.59181017 82:0.56861254 89:0.29362707 90:0.43308809 91:0.42451237 92:0.62242585 93:0.62242585 94:0.59801579 102:0.13370412 103:0.1310566 104:0.63605078 105:0.63605078 106:0.62331541 116:0.61858254 117:0.6339415 118:0.62138862 128:0.29999957 129:0.46063298 130:0.45151183 141:0.14764754 142:0.14472392 163:0.642124 164:0.78939181 165:0.26815162 174:0.098450663 175:0.73049377 176:0.9691481 177:0.71388844 186:0.098277885 187:0.098647248 188:0.65466975 189:0.62276618 198:0.060307689 199:0.088226222 200:0.36249181 201:0.41181438 202:0.14568206 212:0.18165385 213:0.30988883 214:0.22588515 221:0.11120745 222:0.11120745 223:0.045973985 224:0.12023396 225:0.14382142 226:0.14097356 229:0.23288244 230:0.29057207 231:0.059811894 233:0.11027871 234:0.11185372 235:0.10963887 236:0.068879388 237:0.095583389 238:0.093690711 241:0.23288244 242:0.40984253 243:0.29482737 244:0.17478233 245:0.070027237 246:0.067666508 247:0.062404237 248:0.019941569 249:0.041172845 250:0.040357568 253:0.16486746 254:0.349436 255:0.292351 256:0.17478233 257:0.070027237 258:0.0040016208 261:0.0064899775 262:0.0063614673 307:0.16246403 308:0.16137656 309:0.052120006 319:0.15924702 320:0.16137656 321:0.052120006 363:0.1960667 364:0.40641316 365:0.32166702 366:0.1092739 373:0.37870909 374:0.6613356 375:0.57346839 376:0.49941119 377:0.42389953 378:0.21854406 385:0.37514804 386:0.86168194 387:0.97426065 388:0.93541883 389:0.90989371 390:0.46287663 397:0.09681571 398:0.39602834 399:0.50868821 400:0.46968988 401:0.49438795 402:0.24866003 450:0.45577906 451:0.72070374 452:0.48972657 462:0.73890615 463:0.99872252 464:0.88771698 474:0.52166176 475:0.63785605 476:0.44221744 485:0.13626642 486:0.65198223 487:0.50630332 488:0.048450186 497:0.37050515 498:0.65248613 499:0.64717652 507:0.14652955 508:0.26019995 509:0.43457392 510:0.55183602 511:0.54361062 517:0.26973276 518:0.4304002 519:0.40183865 520:0.36497448 521:0.23010765 522:0.24471138 523:0.14497425 524:0.0033086431 525:0.0033086431 529:0.26623722 530:0.4236867 531:0.40034989 532:0.36083917 533:0.24206554 534:0.11124194 536:0.026848073 537:0.026848073 538:0.010997705 541:0.091357073 542:0.091357073 544:0.0081138949 545:0.016514327 546:0.016350416 548:0.073169468 549:0.073169468 550:0.048734376 560:0.049335625 561:0.065563404 562:0.064265162 573:0.026770658 574:0.026240564 606:0.3372328 607:0.33055514 618:0.3372328 619:0.3372328 630:0.33055514 631:0.33055514 653:0.67278364 654:0.66610599 665:0.67278364 666:0.67615599 667:0.33221206 677:0.66610599 678:0.99831804 679:0.32563382 689:0.33555084 690:0.33555084 692:0.33555084 693:0.33555084 704:0.33555084 705:0.33892319 706:0.33221206 717:0.33221206 718:0.32563382 
0.05588946978484746 0.3656635130071815 0.4198038516342923 0.1176291767154105 0.525118810720708 0.3963043593833865 0.0805719743114113 0.5042642448785902 0.1232438083124956 8:0.0052483988 9:0.0052483988 20:0.19698608 21:0.56742998 22:0.37180864 23:0.12353115 31:0.16408711 32:0.44999603 33:0.8892439 34:0.60186654 35:0.2476815 41:0.011484455 42:0.02428539 43:0.37549512 44:0.66720437 45:1 46:0.69725812 47:0.12169201 53:0.011484455 54:0.096246884 55:0.28218909 56:0.68558982 57:0.67965742 58:0.53379134 66:0.070536561 67:0.15866506 68:0.51750376 69:0.47064321 70:0.28953919 79:0.13375165 80:0.41412834 81:0.48306474 82:0.12442138 91:0.19601778 92:0.46665893 93:0.46346043 94:0.19995036 97:0.043340014 98:0.14856593 99:0.10314231 103:0.13641362 104:0.37210714 105:0.67604359 106:0.44267023 107:0.14716535 109:0.042481824 110:0.14804112 111:0.14718293 116:0.25877094 117:0.39790963 118:0.39064264 119:0.31843386 122:0.051442225 123:0.051442225 130:0.17126851 131:0.16787717 152:0.070091548 153:0.070091548 159:0.1104176 160:0.1104176 164:0.14053443 165:0.28177859 166:0.27898184 167:0.069050619 171:0.22220143 172:0.56737243 173:0.3406433 176:0.069048021 177:0.20993117 178:0.27760775 179:0.069050619 183:0.10957036 184:0.45247185 185:0.70799719 186:0.48680092 187:0.11993168 196:0.11178439 197:0.36476379 198:0.72499689 199:0.48738165 210:0.36508145 211:0.46969587 212:0.24235258 213:0.12276227 223:0.34044316 224:0.79811653 225:0.47335093 226:0.10541648 235:0.42229507 236:0.92107098 237:0.96760937 238:0.38892621 241:0.11510781 242:0.30615169 243:0.2106724 247:0.19684716 248:0.74073956 249:0.99895374 250:0.57985162 251:0.086462627 253:0.11282852 254:0.30516835 255:0.30288906 260:0.36983494 261:0.71056274 262:0.53266082 263:0.11292489 266:0.090390643 267:0.090390643 273:0.2073694 274:0.23138184 275:0.025938271 296:0.24950977 297:0.24950977 303:0.037431524 304:0.037431524 308:0.37462619 309:0.6254933 310:0.61928196 311:0.12264243 315:0.073423894 316:0.16613077 317:0.10637325 320:0.12263895 321:0.49663946 322:0.6143905 323:0.12264243 327:0.035279673 328:0.13632402 329:0.18666847 330:0.066923177 331:0.015402907 340:0.028659123 341:0.079868234 342:0.27924387 343:0.23028201 344:0.091026431 352:0.10142729 353:0.37806116 354:0.50142215 355:0.33248004 356:0.18250913 357:0.020781355 362:0.083232052 363:0.35669259 364:0.57025159 365:0.70245672 366:0.7408352 367:0.5743296 368:0.25989474 369:0.046673564 373:0.030780264 374:0.31302803 375:0.67460792 376:0.96305189 377:0.95715042 378:0.93466839 379:0.81674924 380:0.46656153 381:0.045840191 385:0.27389665 386:0.82776723 387:0.91716808 388:0.94696989 389:0.835998 390:0.76788463 391:0.80309659 392:0.41198513 393:0.59370667 394:0.49252761 397:0.23830236 398:0.59383435 399:0.79226569 400:0.72392175 401:0.48647512 402:0.12193123 404:0.095665977 405:0.59363053 406:0.59496124 407:0.22116709 410:0.11608635 411:0.23433729 412:0.11590941 417:0.36012033 418:0.57948584 419:0.21678768 440:0.14318259 441:0.14318259 452:0.36715213 453:0.51952215 454:0.19173399 455:0.048986497 463:0.18384305 464:0.48375327 465:0.64185332 466:0.35331138 467:0.10067882 475:0.47816617 476:0.68655242 477:0.73135729 478:0.35105711 479:0.050668742 486:0.23435311 487:0.52660916 488:0.65901878 489:0.52275403 490:0.33335707 496:0.095107355 497:0.39366391 498:0.52627362 499:0.43274304 500:0.5004964 501:0.40659932 502:0.22112183 506:0.10532423 507:0.40919065 508:0.59255541 509:0.66237435 510:0.52415474 511:0.28079024 512:0.44055376 513:0.42000254 514:0.075222284 517:0.14543803 518:0.6162028 519:0.85038722 520:0.81983242 521:0.74541919 522:0.68227517 523:0.35121384 524:0.29071662 525:0.17363719 529:0.16494295 530:0.78092246 531:0.90201167 532:0.82703223 533:0.58859729 534:0.4756401 535:0.34581795 536:0.11305487 537:0.16264727 538:0.16206631 541:0.019118696 542:0.37817182 543:0.62946233 544:0.497793 545:0.32409928 546:0.079141894 549:0.16264727 550:0.16398704 551:0.13198137 554:0.083934537 555:0.16806964 556:0.082469116 561:0.028758504 562:0.16073988 563:0.12936797 584:0.33166806 585:0.33166806 591:0.33166806 592:0.33166806 596:0.33166806 597:0.66499862 598:0.66169847 599:0.32673017 603:0.33166806 604:0.33500138 605:0.32836791 609:0.32836791 610:0.65519635 611:0.32673017 616:0.32836791 617:0.32186579 630:0.33333056 631:0.33333056 632:0.32673017 640:0.33166806 641:0.99832917 642:0.98679089 643:0.66006072 644:0.33166806 652:0.33166806 653:0.99172879 654:0.99502902 655:0.66499862 656:0.65839823 657:0.32836791 661:0.33166806 662:0.33166806 665:0.65509808 666:0.64859596 667:0.33333056 668:0.66169847 669:0.32186579 673:0.66499862 674:0.99832917 675:0.65509808 679:0.32673017 680:0.32673017 685:0.32673017 686:0.99502902 687:0.98192651 698:0.32673017 699:0.32673017 
0.07667985713035065 0.4729464845096764 0.5383015624306978 0.1506918420140468 0.6857457239707847 0.5113456479548689 0.1029496307689391 0.6618400361303585 0.1596870210601598 20:0.19849145 21:0.455544 22:0.25916856 23:0.12733588 27:0.059955079 28:0.059318677 31:0.07619381 32:0.45897242 33:1 34:0.62065829 35:0.37919858 39:0.086228796 40:0.10135618 41:0.053292433 42:0.015565589 43:0.29413373 44:0.46552738 45:0.77389124 46:0.61238576 47:0.36876845 51:0.031502936 52:0.10721777 53:0.076027944 54:0.076476489 55:0.34071039 56:0.46491797 57:0.84114522 58:0.66866524 59:0.11707474 64:0.021589999 65:0.029853313 66:0.11579397 67:0.25949223 68:0.51753023 69:0.65374254 70:0.49747634 77:0.022098574 78:0.055388862 79:0.080642257 80:0.39342673 81:0.39789231 82:0.2158538 91:0.089357646 92:0.32834613 93:0.47494855 94:0.23525988 97:0.019014112 98:0.11282853 99:0.09195677 103:0.039784865 104:0.37050655 105:0.61326196 106:0.45478593 107:0.16626933 109:0.018637607 110:0.11245485 111:0.11207835 116:0.21115348 117:0.38261635 118:0.57917689 119:0.43837926 122:0.055145043 123:0.055145043 129:0.11076269 130:0.30095868 131:0.27703202 153:0.067099908 154:0.065771241 159:0.10483525 160:0.10483525 165:0.20163654 166:0.20096554 167:0.065771526 171:0.30973559 172:0.52520865 173:0.32541306 174:0.10787556 177:0.13253667 178:0.19963687 179:0.065771526 183:0.31454575 184:0.64339038 185:0.78154536 186:0.56743353 187:0.11447562 195:0.10747428 196:0.54485742 197:0.88702309 198:1 199:0.57915028 200:0.11592002 208:0.23276741 209:0.54249769 210:0.88141548 211:0.8996431 212:0.2324211 213:0.10947704 221:0.1154529 222:0.41413463 223:0.43210791 224:0.65372727 225:0.52927925 226:0.11187403 235:0.31554386 236:0.82717526 237:0.92095954 238:0.3901808 241:0.10765872 242:0.31229738 243:0.21264871 247:0.10527675 248:0.59889009 249:0.94093477 250:0.62176896 251:0.15886592 253:0.10552694 254:0.31122079 255:0.309089 260:0.30919393 261:0.67039029 262:0.76220253 263:0.27044294 266:0.094530646 267:0.094530646 273:0.30201635 274:0.41269856 275:0.11193803 296:0.26511862 297:0.53156614 298:0.26117151 303:0.036405783 304:0.036405783 308:0.3889562 309:0.91698888 310:0.91059408 311:0.12788066 315:0.036405783 316:0.10080423 317:0.086770731 318:0.022608108 320:0.12138544 321:0.77730619 322:0.9001206 323:0.12788066 328:0.070670002 329:0.1456906 330:0.092470175 331:0.01698131 340:0.057759086 341:0.3169342 342:0.31544224 343:0.058858948 344:0.0024968192 352:0.056615379 353:0.51360458 354:0.60690421 355:0.31448352 356:0.058248198 357:0.018604386 363:0.093539251 364:0.39252059 365:0.65222563 366:0.75593912 367:0.51752675 368:0.26361622 369:0.037865774 374:0.20738867 375:0.38915523 376:0.73767177 377:0.92327709 378:0.84005304 379:0.92685797 380:0.59634477 381:0.03748994 385:0.25815317 386:0.58827633 387:0.79769776 388:0.9411246 389:0.83532554 390:0.53572467 391:0.8267752 392:0.55045956 393:0.12849019 394:0.082256072 397:0.25304139 398:0.50053484 399:0.87716673 400:0.83105891 401:0.64207831 402:0.25807553 404:0.044572431 405:0.58730488 406:0.5852282 407:0.28884413 410:0.12193015 411:0.36838623 412:0.24401852 417:0.44972955 418:0.5826927 419:0.28884413 440:0.097664128 441:0.11554012 442:0.017522026 452:0.35355461 453:0.48463638 454:0.3342282 455:0.055008135 463:0.10491913 464:0.55927467 465:0.7577787 466:0.45497209 467:0.17558482 475:0.43788489 476:0.63543207 477:0.63776222 478:0.33946989 479:0.18361566 486:0.30264366 487:0.77913368 488:0.83086263 489:0.7966479 490:0.44111405 491:0.062921584 497:0.22836555 498:0.6407771 499:0.67347876 500:0.75739811 501:0.6271666 502:0.42015615 507:0.11728032 508:0.45880361 509:0.67546155 510:0.56267532 511:0.37609937 512:0.34196995 513:0.37826533 514:0.1800386 518:0.42386022 519:0.66086389 520:0.76406793 521:0.81428804 522:0.62813422 523:0.53094137 524:0.33235633 525:0.097595496 529:0.16781892 530:0.68757687 531:0.92859211 532:0.99404637 533:0.70035616 534:0.37055257 535:0.4174807 536:0.23186694 538:0.070663315 539:0.069264088 541:0.16449588 542:0.42323046 543:0.84976931 544:0.71055446 545:0.46825183 546:0.18295931 549:0.11977209 550:0.19043541 551:0.18806376 554:0.098390176 555:0.29139152 556:0.19107247 561:0.11740045 562:0.18903618 563:0.18666453 585:0.33333056 586:0.32673017 591:0.33166806 592:0.33166806 597:0.66666111 598:0.66666111 599:0.32673017 603:0.66499862 604:0.65839823 605:0.32836791 609:0.32673017 610:0.66006072 611:0.32673017 615:0.33333056 616:0.66169847 617:0.32186579 627:0.32673017 628:0.32673017 631:0.33500138 632:0.33166806 641:0.33333056 642:0.66173155 643:0.66333612 644:0.65519635 645:0.32673017 653:0.33333056 654:0.66499862 655:0.65519635 656:0.66006072 657:0.33333056 665:0.32673017 666:0.32673017 667:0.33333056 668:0.66006072 669:0.32673017 673:0.33333056 674:0.66666111 675:0.32673017 679:0.32673017 680:0.32673017 685:0.32673017 686:0.99832917 687:0.99172879 698:0.65839823 699:0.65839823 
0.07667080023548975 0.4881122064569675 0.5583660187188617 0.1594083475495858 0.7147031347438487 0.5330123949240597 0.109434396819911 0.6796235234913496 0.1681897250219417 3:0.37370636 4:0.37370636 5:0.18361019 15:0.74370578 16:0.74370578 17:0.551755 20:0.088574692 21:0.22200768 22:0.13343299 27:0.55732104 28:0.74743588 29:0.73263566 32:0.4101263 33:0.80248869 34:0.46255409 35:0.26355174 39:0.24933355 40:0.42063374 41:0.38758071 43:0.14270759 44:0.53959881 45:0.89551014 46:0.7128479 47:0.51059146 51:0.064750186 52:0.083480929 53:0.057457344 54:0.021516147 55:0.31891284 56:0.47077954 57:0.63004304 58:0.4848276 59:0.24712557 64:0.03415064 65:0.033823485 66:0.058463647 67:0.21134611 68:0.51217207 69:0.65559908 70:0.52026455 78:0.044636956 79:0.079220566 80:0.39421067 81:0.53920901 82:0.37161921 90:0.026257069 91:0.047741299 92:0.29975674 93:0.46707632 94:0.21652436 98:0.072099557 99:0.07067189 103:0.03090844 104:0.37587386 105:0.57919366 106:0.42153772 107:0.18117111 110:0.071873573 111:0.071873573 116:0.20498884 117:0.36559484 118:0.56967102 119:0.40601198 122:0.04840999 123:0.04840999 129:0.019916802 130:0.30093585 131:0.28141343 165:0.11482014 166:0.17123369 167:0.056413553 171:0.090929314 172:0.36905334 173:0.27447117 177:0.11482014 178:0.17294886 179:0.11424995 183:0.38749362 184:0.86150547 185:0.76643631 186:0.29235138 189:0.056413926 190:0.16952425 191:0.11198765 195:0.29447955 196:0.80853378 197:0.98919563 198:0.70358355 199:0.31518046 208:0.31393931 209:0.7767788 210:0.9819865 211:0.62086836 212:0.10501413 221:0.26180992 222:0.67082741 223:0.51403482 224:0.4191057 225:0.40529153 226:0.10612022 234:0.10098188 235:0.20143416 236:0.69720342 237:0.82324531 238:0.38893697 242:0.19367972 243:0.1898446 247:0.097905552 248:0.54832684 249:0.89972792 250:0.60950278 251:0.15258226 254:0.19271374 255:0.19271374 260:0.26666572 261:0.61124469 262:0.7536423 263:0.29423134 266:0.094684996 267:0.094684996 273:0.27972393 274:0.42055363 275:0.14161728 308:0.084751301 309:0.412069 310:0.43735048 311:0.11200008 315:0.039211682 316:0.15201286 317:0.11126023 320:0.084751301 321:0.412069 322:0.52663108 323:0.22683416 327:0.038435239 328:0.18249726 329:0.22396782 330:0.096264378 333:0.29329296 334:0.51620308 335:0.22234255 340:0.072646684 341:0.2503167 342:0.42895451 343:0.25398816 352:0.040988847 353:0.41644276 354:0.72558269 355:0.38714233 356:0.23790411 363:0.083682868 364:0.35446716 365:0.7250033 366:0.77134021 367:0.60073367 368:0.25860869 369:0.041846036 370:0.01610529 374:0.11307675 375:0.35724653 376:0.6259541 377:0.90944498 378:0.79634883 379:1 380:0.53409767 381:0.041846036 382:0.01610529 385:0.21879865 386:0.66053059 387:0.92839389 388:0.82939518 389:0.90527842 390:0.78386302 391:0.85876085 392:0.50489055 393:0.092223253 394:0.070932016 397:0.21446615 398:0.53876711 399:0.76423327 400:0.62428113 401:0.67315611 402:0.4514542 403:0.11268519 404:0.019858316 405:0.42360549 406:0.5850051 407:0.39488564 411:0.21615179 412:0.32378162 413:0.10758856 417:0.32482043 418:0.58318287 419:0.39488564 435:0.032214371 436:0.032214371 437:0.015826918 447:0.064109117 448:0.064109117 449:0.047561682 452:0.15601491 453:0.31857387 454:0.16047395 459:0.048040005 460:0.064429067 461:0.063153286 464:0.42965683 465:0.71441824 466:0.4693609 467:0.11645932 471:0.015825562 472:0.032053215 473:0.031418519 475:0.21800482 476:0.59396649 477:0.74032594 478:0.59742226 479:0.24702662 486:0.15795406 487:0.76284904 488:0.79066293 489:0.68555957 490:0.30600364 491:0.13041927 497:0.10405455 498:0.3665848 499:0.64491347 500:0.75790287 501:0.64291349 502:0.42026516 507:0.10720083 508:0.4173381 509:0.62176727 510:0.5181215 511:0.62208559 512:0.50915155 513:0.56443998 514:0.35863799 518:0.27605052 519:0.60431463 520:0.72255671 521:0.85150794 522:0.7825111 523:0.66352383 524:0.38861903 525:0.29493655 526:0.094724955 529:0.15511658 530:0.67652227 531:1 532:0.7407246 533:0.84856123 534:0.60722485 535:0.4396692 536:0.18935724 538:0.083501304 539:0.081847867 541:0.15204507 542:0.44914164 543:0.75791521 544:0.57101844 545:0.51600827 546:0.33562758 547:0.081453753 549:0.053363637 550:0.28647294 551:0.28392765 555:0.1760704 556:0.2613643 557:0.085324065 561:0.052306966 562:0.28333088 563:0.28227421 579:0.33277732 580:0.33277732 581:0.32618788 591:0.32618788 592:0.33277732 593:0.32618788 597:0.6638949 598:0.99008278 599:0.32618788 603:0.33277732 604:0.33277732 605:0.32618788 609:0.6638949 610:1 611:0.66060022 615:0.66063325 616:0.6638949 617:0.32618788 621:0.32618788 622:0.98019867 623:0.64751946 627:0.33111758 628:0.33111758 631:0.66722268 632:0.65401079 642:0.33277732 643:0.98678811 644:0.6638949 653:0.33444537 654:0.6638949 655:0.99008278 656:0.99175083 657:0.33111758 665:0.33111758 666:0.65730547 667:0.6638949 668:0.99834027 669:0.65894049 673:0.33277732 674:0.99667221 675:0.65730547 679:0.32618788 680:0.65401079 681:0.32133158 685:0.32618788 686:0.99008278 687:0.99341057 688:0.32782291 698:0.32618788 699:0.65401079 700:0.32133158 
0.06231955385285589 0.4145808216046128 0.4782446987938201 0.1353357669551301 0.6066105184407468 0.4525250534094541 0.09306441732919753 0.5755909502528974 0.1431326119689889 4:0.17542319 5:0.17194958 15:0.17454829 16:0.7016972 17:0.51671067 20:0.072611974 21:0.072611974 27:0.34997199 28:0.87364729 29:0.86668264 32:0.36249755 33:0.60447426 34:0.41302532 35:0.24355783 39:0.22938426 40:0.56238641 41:0.53402397 43:0.062707422 44:0.49048202 45:1 46:0.74711375 47:0.47740527 51:0.056594346 52:0.073694322 53:0.051926971 54:0.008829481 55:0.18305106 56:0.35475333 57:0.66913063 58:0.6543024 59:0.34205527 64:0.030994802 65:0.030700326 66:0.030423375 67:0.14033536 68:0.27523059 69:0.57234734 70:0.49876271 71:0.10838165 78:0.025693944 79:0.079380785 80:0.27795349 81:0.33306478 82:0.25741515 90:0.021210324 91:0.035154224 92:0.24511671 93:0.34341553 94:0.18836635 98:0.11228521 99:0.11093167 103:0.022991473 104:0.34002706 105:0.46947252 106:0.39588321 107:0.23551502 110:0.11180589 111:0.11248585 112:0.043492163 116:0.20440965 117:0.2880151 118:0.54921086 119:0.43962107 122:0.043275245 123:0.086767408 124:0.042630961 129:0.011058163 130:0.26664535 131:0.25580616 165:0.10546138 166:0.10441465 172:0.17029099 173:0.16860475 177:0.15832377 178:0.21145113 179:0.15649045 183:0.2822064 184:0.63635097 185:0.62116691 186:0.26533273 189:0.051815641 190:0.20935239 191:0.15545928 195:0.27852785 196:0.75964729 197:0.9329322 198:0.75242741 199:0.29973556 208:0.29494381 209:0.73627882 210:1 211:0.76793594 212:0.20985233 221:0.25322641 222:0.62387056 223:0.58266906 224:0.40268597 225:0.37419742 226:0.095903713 234:0.097255076 235:0.19363088 236:0.6574145 237:0.74018643 238:0.36691181 242:0.25820525 243:0.25465018 247:0.094084297 248:0.52792517 249:0.79077096 250:0.5893744 251:0.22469625 254:0.25642327 255:0.25810044 256:0.077885394 260:0.25415974 261:0.55258754 262:0.70969867 263:0.3460838 266:0.087771035 267:0.16565643 268:0.07634316 273:0.26318319 274:0.38403459 275:0.12163735 291:0.44493917 292:0.66354374 293:0.21860467 303:0.44493917 304:0.67019022 305:0.44272612 308:0.082236107 309:0.40493501 310:0.31856418 315:0.21860955 316:0.65691956 317:0.43395955 320:0.082236107 321:0.51939319 322:0.63359687 323:0.33882414 328:0.12028401 329:0.21751128 330:0.11182278 333:0.28609378 334:0.62557216 335:0.33659144 340:0.074501154 341:0.2795825 342:0.2389288 343:0.073443308 344:0.005230325 352:0.036443481 353:0.4247454 354:0.75725471 355:0.6356337 356:0.41462513 364:0.27275198 365:0.73196636 366:0.79269754 367:0.8992413 368:0.63153891 369:0.067791017 370:0.028581696 374:0.1116539 375:0.35024451 376:0.62107299 377:0.79503655 378:0.67108892 379:0.88084247 380:0.71990316 381:0.25324213 382:0.03839009 386:0.43513079 387:1 388:0.90680143 389:0.82794377 390:0.66578568 391:0.735764 392:0.68343112 393:0.19120676 394:0.073560093 398:0.31922381 399:0.6466697 400:0.69722467 401:0.67274053 402:0.4511256 403:0.11287043 404:0.01624078 405:0.41229385 406:0.58830271 407:0.3972002 411:0.21636969 412:0.32428819 413:0.10787015 417:0.3146506 418:0.58649831 419:0.3972002 435:0.017729355 436:0.032758965 437:0.014904487 447:0.032858624 448:0.078371406 449:0.044784053 452:0.14173918 453:0.23825006 454:0.094599837 459:0.030331137 460:0.09318423 461:0.083696567 464:0.40188734 465:0.61221244 466:0.43854743 467:0.10961421 471:0.014900851 472:0.045084622 473:0.044487006 475:0.10264859 476:0.56086635 477:0.76616922 478:0.63189356 479:0.23015254 487:0.35588401 488:0.5509536 489:0.7160266 490:0.40716661 491:0.18544287 497:0.092916762 498:0.18629914 499:0.48811875 500:0.597283 501:0.61761873 502:0.37766048 503:0.064759037 508:0.27811548 509:0.55299134 510:0.45932935 511:0.56286355 512:0.48192668 513:0.35681554 514:0.25854939 518:0.25053633 519:0.55141173 520:0.65193656 521:0.68315297 522:0.62179938 523:0.51862999 524:0.29486175 525:0.21669579 526:0.089815991 530:0.46911984 531:1 532:0.76297976 533:0.66610336 534:0.46874225 535:0.3194221 536:0.19879239 537:0.029773527 538:0.076900967 539:0.075378226 542:0.26223635 543:0.64524071 544:0.61457198 545:0.46054094 546:0.29984993 547:0.073313863 549:0.036977346 550:0.25327155 551:0.25115237 555:0.15741673 556:0.23351528 557:0.076126655 561:0.036245146 562:0.25036182 563:0.24962962 579:0.33333056 580:0.66006072 581:0.32673017 591:0.33333056 592:0.66666111 593:0.33333056 597:0.33333056 598:0.32673017 603:0.33333056 604:0.98679089 605:0.65346034 609:0.33333056 610:0.66499862 611:0.33166806 615:0.66173155 616:0.99832917 617:0.66006072 621:0.32673017 622:0.65839823 623:0.33166806 627:0.33166806 628:0.65839823 629:0.32673017 631:0.33333056 632:0.32673017 642:0.33333056 643:0.66006072 644:0.33333056 653:0.66833194 654:0.99832917 655:0.98679089 656:0.66666944 657:0.33166806 665:0.65509808 666:0.99172879 667:0.65346034 668:0.66666944 669:0.66003597 674:0.66666944 675:0.66003597 680:0.32836791 681:0.32186579 686:0.66003597 687:0.66666944 688:0.32836791 699:0.32836791 700:0.32186579 
0.09301131933384491 0.562211555858728 0.6239442041423247 0.1777249593841349 0.8012209967911245 0.6046831959680818 0.1221008060963039 0.7899785733706151 0.187851341960347 3:0.14835611 4:0.14541846 15:0.44581858 16:0.71258288 17:0.27013502 27:0.58901653 28:1 29:0.53758888 32:0.13853559 33:0.23233056 34:0.28636159 35:0.18878382 39:0.29304118 40:0.71673986 41:0.4234066 44:0.31940423 45:0.59181209 46:0.58393522 47:0.37381564 51:0.02825667 52:0.17828633 53:0.17771828 54:0.0011829815 55:0.10464825 56:0.282645 57:0.59727763 58:0.67237251 59:0.44355833 64:0.028343937 65:0.028073443 66:0.016296333 67:0.1323318 68:0.24265325 69:0.43309338 70:0.45952982 71:0.16730334 78:0.015149083 79:0.046001296 80:0.20508894 81:0.36735692 82:0.32404267 90:0.014814087 91:0.014814087 92:0.20030149 93:0.28317061 94:0.17888757 98:0.044799031 99:0.044540434 103:0.011965697 104:0.22874855 105:0.33078553 106:0.32787611 107:0.18959016 110:0.044540434 111:0.044988073 112:0.031423603 116:0.092624822 117:0.19883894 118:0.52715554 119:0.37217468 123:0.031423603 124:0.030801374 129:0.017793506 130:0.26130685 131:0.24386568 172:0.082114517 173:0.08048854 177:0.10243981 178:0.15277109 179:0.10091794 183:0.18522088 184:0.53078825 185:0.59804913 186:0.25427583 189:0.10041136 190:0.15276599 191:0.10091794 195:0.18341161 196:0.74122689 197:0.99021001 198:0.72844023 199:0.29186573 208:0.29371651 209:0.74597248 210:0.90024173 211:0.72522693 212:0.28272406 221:0.27329392 222:0.54288114 223:0.55467034 224:0.28076521 225:0.28361714 226:0.092252629 234:0.096718353 235:0.097156025 236:0.53895298 237:0.69754921 238:0.3663134 242:0.18388666 243:0.18205696 247:0.095232207 248:0.53585548 249:0.77491121 250:0.66069333 251:0.22605312 254:0.18205696 255:0.18388666 256:0.090573342 260:0.18661726 261:0.51856305 262:0.79099824 263:0.36088725 267:0.090573342 268:0.08877987 273:0.26727059 274:0.40159208 275:0.1349658 291:0.22537013 292:0.45187005 293:0.22201492 303:0.22537013 304:0.45413506 305:0.44962758 316:0.44514258 317:0.44072436 321:0.33167485 322:0.44721476 323:0.23357524 328:0.13471364 329:0.24504892 330:0.11057893 333:0.32510724 334:0.44721476 335:0.23357524 340:0.10999099 341:0.29020713 342:0.23162395 343:0.093274555 352:0.023535322 353:0.28341144 354:0.42596165 355:0.4709057 356:0.26499074 364:0.18632904 365:0.66990982 366:0.68744159 367:0.6581787 368:0.2793753 369:0.055853262 370:0.031859026 374:0.066183382 375:0.23448518 376:0.44460738 377:0.8078232 378:1 379:0.83771232 380:0.50519527 381:0.24379863 382:0.054977324 386:0.43890745 387:0.83014563 388:0.71728706 389:0.92667909 390:0.90517882 391:0.7369742 392:0.50519527 393:0.21082899 394:0.070068057 398:0.47995678 399:0.74357039 400:0.75342623 401:0.58265398 402:0.58826778 403:0.23591696 404:0.00047302529 405:0.38958941 406:0.59854938 407:0.4403382 410:0.11016157 411:0.33556814 412:0.44484081 413:0.11145065 417:0.3113433 418:0.59712464 419:0.4403382 435:0.016006398 436:0.026108409 437:0.0100153 447:0.027716736 448:0.074029481 449:0.045736301 459:0.023184706 460:0.097613639 461:0.074229599 464:0.27450125 465:0.51570627 466:0.40419095 467:0.13145951 471:0.011535435 472:0.065609437 473:0.054074002 476:0.61361125 477:0.99902321 478:0.81943761 479:0.2731971 484:0.017813275 485:0.017813275 487:0.41405069 488:0.74905467 489:0.75090052 490:0.65933142 491:0.36562598 498:0.10769583 499:0.69094718 500:0.7918225 501:0.75637734 502:0.54466246 503:0.1582555 508:0.21524041 509:0.52891826 510:0.52762444 511:0.64754145 512:0.49140119 513:0.64607381 514:0.51465517 518:0.14264715 519:0.38317133 520:0.56481495 521:0.80973244 522:0.8459524 523:0.56274576 524:0.22839251 525:0.26485794 526:0.21701584 530:0.54592789 531:0.9639552 532:0.8355755 533:0.89310913 534:0.73051981 535:0.41748255 536:0.20189537 537:0.043458081 538:0.062368278 539:0.061133303 542:0.48967175 543:0.85167308 544:0.86500117 545:0.44368708 546:0.43338216 547:0.16959607 549:0.0215158 550:0.22015226 551:0.21837033 554:0.090720304 555:0.27402255 556:0.36031744 557:0.088152152 561:0.021089758 562:0.21756139 563:0.21713535 579:0.40421409 580:0.60281441 581:0.19860032 591:0.40421409 592:0.81045431 593:0.6038099 603:0.4002021 604:1 605:0.59584564 609:0.20362791 610:0.40322372 611:0.20160178 615:0.40220812 616:0.6068264 617:0.40121263 621:0.20160178 622:0.40320356 623:0.20160178 627:0.19860032 628:0.40121263 629:0.39720064 631:0.40421409 632:0.4002021 642:0.20261231 643:0.60281441 644:0.40624022 645:0.19959581 653:0.20261231 654:0.40522462 655:0.59981295 656:0.39819613 657:0.39825586 658:0.19860032 665:0.19860032 666:0.40121263 667:0.39720064 668:0.40121263 669:0.40121263 670:0.19860032 674:0.40522969 675:0.40119758 679:0.19860032 680:0.20261231 681:0.19860032 686:0.6038099 687:0.607842 688:0.39819613 698:0.19860032 699:0.40220812 700:0.39424386 
0.07180419423054218 0.4704884471895867 0.5258903444427265 0.1476980591303332 0.6734188573675614 0.517065514273264 0.1032945627777074 0.6489742431081087 0.1639726815384462 8:0.54080084 9:0.53737234 10:0.18583618 20:0.87738708 21:0.86721939 22:0.36213003 31:0.3035777 32:0.82198688 33:0.9952676 34:0.172803 43:0.70728113 44:0.8645512 45:0.76387134 55:0.64863641 56:0.68327898 57:0.41738121 66:0.10052505 67:0.50727857 68:0.59665746 69:0.18876892 78:0.27433881 79:0.58517349 80:0.6807959 81:0.36712399 90:0.17232507 91:0.57294993 92:0.86514026 93:0.65111474 94:0.24684091 103:0.43871711 104:0.57139147 105:0.92678972 106:0.78718827 115:0.044023574 116:0.081627947 117:0.61685731 118:0.57836226 199:0.13039127 200:0.12780935 210:0.22223408 211:0.68914842 212:0.56153636 213:0.11415947 222:0.42369754 223:0.84014256 224:0.86873278 225:0.40557955 234:0.19936276 235:0.63432767 236:0.87254981 237:0.54688947 238:0.17053549 247:0.46331033 248:0.82937627 249:0.72725794 250:0.2965083 259:0.11287889 260:0.45588988 261:0.46722223 262:0.12607636 343:0.014786664 344:0.014493869 352:0.15038991 353:0.59326881 354:0.69668443 355:0.26718946 356:0.014786664 362:0.141402 363:0.57523942 364:0.88105305 365:0.8899956 366:1 367:0.52566351 368:0.014493869 373:0.4114852 374:0.8305713 375:0.84998086 376:0.86002501 377:0.91603627 378:0.98313226 379:0.5010478 380:0.040763496 385:0.54345036 386:0.81291523 387:0.83024903 388:0.55895113 389:0.14051267 391:0.10779436 392:0.62540467 393:0.62157917 394:0.30121711 397:0.26747077 398:0.40309246 399:0.1329362 403:0.06570356 404:0.57306451 405:0.62078003 406:0.30121711 440:0.27216746 441:0.27033462 442:0.085773391 452:0.47140837 453:0.46559599 454:0.17695682 463:0.22888302 464:0.53925519 465:0.60076039 466:0.089377876 475:0.61609959 476:0.72260784 477:0.56142664 487:0.66833725 488:0.66011862 489:0.36660335 496:0.13334476 497:0.37518841 498:0.29641784 499:0.4110054 500:0.53732704 501:0.1238203 506:0.14101027 507:0.55843534 508:0.8231933 509:0.67786435 510:0.56591073 511:0.30158672 512:0.13760132 517:0.4337433 518:0.85893462 519:0.83992027 520:0.83560899 521:0.80997821 522:0.55735312 523:0.16073827 525:0.024137609 526:0.023659653 529:0.57841361 530:0.85398908 531:0.84609292 532:0.55182434 533:0.13471305 536:0.17131396 537:0.36762425 538:0.36251886 541:0.28952635 542:0.4317249 543:0.13938284 548:0.16792172 549:0.36543315 550:0.3620409 584:0.50250626 585:0.50250626 586:0.49255597 596:0.49255597 597:0.50250626 598:0.49255597 631:0.50250626 632:0.49255597 642:0.50250626 643:0.99506223 644:0.50250626 654:0.50250626 655:0.99506223 656:0.49255597 666:0.49255597 667:0.49255597 673:0.50502508 674:0.5 685:0.5 686:0.5 
