svm_type c_svc
kernel_type rbf
gamma 0.125
nr_class 2
total_sv 6
rho -0.297666
label 0 4
probA -0.943082
probB -1.00941
nr_sv 4 2
SV
0.6214828515217753 1:43 2:26 
0.5853122561982685 1:41 2:22 
1.754366005500023 1:46 2:25 
1.188505019693601 1:40 2:27 
-2.263909329148639 1:47 2:27 
-1.885756803765029 1:42 2:29 
