svm_type c_svc
kernel_type rbf
gamma 0.125
nr_class 2
total_sv 13
rho 1.27796
label 0 3
probA 0.131069
probB 1.82985
nr_sv 4 9
SV
8 1:53 2:80 
8 1:54 2:76 
1.461767608339117 1:52 2:78 
8 1:56 2:80 
-2.884441091927369 1:55 2:80 
-3.618504830524008 1:56 2:77 
-1.063153858579539 1:51 2:77 
-5.280850932710738 1:53 2:75 
-1.570945747064711 1:58 2:80 
-1.29727234732934 1:50 2:79 
-0.3138141723611454 1:52 2:83 
-8 1:54 2:80 
-1.432784627842266 1:56 2:81 
