svm_type c_svc
kernel_type rbf
gamma 0.125
nr_class 5
total_sv 28
rho 0.0655726 -0.633579 -0.310117 0.0412315 -0.671406 -0.368256 -0.02448 0.402486 0.65772 0.346903
label 3 5 6 7 9
probA -4.01541 4.02959 -2.83141 -5.90412 4.19902 -2.90465 -4.08622 2.28188 5.84673 -2.97436
probB -0.446682 -4.4982 -0.132876 -1.1157 -5.54071 0.0298206 0.0268759 3.16254 6.62482 -0.0765371
nr_sv 6 9 1 4 8
SV
0.8499892444349831 0.2922366770678074 0.5500589585465416 0.8301855363885129 1:68 2:64 
0.5917017321325266 0.2035431188590572 0.3837911384137913 0.5790473585018276 1:75 2:66 
0.9066062591340437 0.3115736794682585 0.5864942832361776 0.8860431388353313 1:78 2:63 
0.7486119683114482 0.2573184843712349 0.4847527750019512 0.7314034587491386 1:71 2:63 
0.6395365849984854 0.2199247055381101 0.4135083394427316 0.6241992372813099 1:77 2:67 
1.01465387758619 0.3490002448839671 0.6565704430737724 0.991351727884724 1:74 2:59 
-0.6569230779155615 0.2313963992276755 0.4440680243895149 0.6862061914102753 1:36 2:42 
-0.5290758783149947 0.1881896615926736 0.3558876623328485 0.5556691506867184 1:38 2:38 
-0.8832218949828508 0.3109063368855066 0.5974456455725136 0.9226994773844424 1:40 2:48 
-0.0396383948285432 0.01080649124014347 0.02898224409685228 0.03516220779805644 1:39 2:39 
-0.760846093510075 0.2684552522728654 0.5140034881025376 0.7955724780240528 1:45 2:41 
-0.4078070265811796 0.1417148517286617 0.2767386592213668 0.4221368923807437 1:43 2:39 
-0.6099288711804038 0.2135365498043622 0.4123567479090576 0.6355619037003415 1:40 2:36 
-0.6076248852414222 0.2137305776514476 0.411009059380938 0.6342577181228829 1:38 2:44 
-0.2560335440426456 0.0923047456884224 0.1717610514310328 0.2729296151166705 1:41 2:39 
-1.633596910188436 -1.671040866091759 1.40298962208764 1.658083671784615 1:59 2:70 
-0.9980595622838246 -1.041677615217053 -0.4552364986077567 1.026073829636706 1:31 2:66 
-1.014439471105311 -1.060105020289806 -0.4630855487896484 1.043751515827942 1:32 2:60 
-0.3816045018687666 -0.3982533714989027 -0.1736132148879933 0.3913727885083772 1:31 2:62 
-0.6810724024570631 -0.7122165754309002 -0.3110543598022418 0.7008738297913965 1:33 2:64 
-0.6730314185984978 -0.7188454561644436 -0.2407101563868492 -0.4584356786621679 1:47 2:63 
-0.7424315081799245 -0.7933288903605675 -0.2656056427308634 -0.5055607463574133 1:45 2:69 
-0.7448077688638949 -0.7950754925303745 -0.2659725607626764 -0.5068777475320762 1:53 2:64 
-0.5614754521438041 -0.6000783933642321 -0.2000074747932567 -0.3823650625190519 1:45 2:66 
-0.6181331576518116 -0.6611259244745776 -0.2209028719802992 -0.4211255649294295 1:50 2:68 
-0.7748938786028315 -0.8280076300899527 -0.2768384849124091 -0.5277829163564618 1:51 2:71 
-0.4700451586555526 -0.5025692443236327 -0.1676516436372714 -0.3203838035888033 1:50 2:63 
-0.05741211494452721 -0.06116460331640304 -0.02039483658098906 -0.03954044381901822 1:52 2:65 
