svm_type c_svc
kernel_type rbf
gamma 0.125
nr_class 2
total_sv 12
rho -0.098831
label 0 4
probA -2.30765
probB -0.389846
nr_sv 7 5
SV
2.0994810115556 1:53 2:70 
2.030531876996644 1:56 2:69 
0.01841550249381146 1:53 2:80 
0.7362356011855543 1:54 2:81 
0.3850509237331918 1:55 2:78 
0.7641723879355579 1:51 2:77 
0.6366209231090527 1:55 2:75 
-3.224208778651727 1:54 2:68 
-0.9233246377411098 1:50 2:64 
-0.8540393711814276 1:47 2:70 
-0.7084556187331817 1:49 2:68 
-0.960479820701966 1:55 2:63 
