svm_type c_svc
kernel_type rbf
gamma 0.125
nr_class 2
total_sv 12
rho 0.473127
label 1 3
probA 0.188208
probB 1.26668
nr_sv 4 8
SV
1.986898972390532 1:28 2:48 
8 1:22 2:47 
2.671854184589746 1:20 2:45 
4.479744114592028 1:23 2:43 
-1.950101718998536 1:18 2:44 
-0.6238549784876241 1:28 2:43 
-0.643459924455217 1:25 2:49 
-6.928782626013496 1:23 2:45 
-5.983306339432569 1:21 2:48 
-0.1418724792627628 1:23 2:52 
-0.8488654718913963 1:25 2:48 
-0.01825373303070467 1:23 2:49 
