svm_type c_svc
kernel_type rbf
gamma 0.125
nr_class 2
total_sv 5
rho -1.12992
label 1 4
probA 0.2155
probB -2.41488
nr_sv 3 2
SV
7.858272153295312 1:58 2:39 
1.508026010654724 1:62 2:34 
6.633701836049965 1:59 2:32 
-8 1:58 2:39 
-8 1:60 2:32 
