svm_type c_svc
kernel_type rbf
gamma 0.125
nr_class 5
total_sv 25
rho 0.110145 0.602817 0.0210844 0.26523 0.527802 -0.0893761 0.160594 -0.588578 -0.403224 0.244989
label 0 5 6 8 10
probA -2.36844 -3.20087 -4.51617 -2.61352 -3.1826 -0.356859 -2.55329 7.08851 -3.03013 -1.68657
probB 0.29893 0.343236 1.59949 0.233739 -0.190333 -0.409916 -0.171789 -5.65202 0.0735222 -0.103362
nr_sv 5 4 8 2 6
SV
0.4230161190994397 0.6110300255920421 0.3887866853563987 0.4844674657442842 20:0.014680686 21:0.26203124 22:0.24764125 23:0.12347537 25:0.0070648038 26:0.0070648038 31:0.094030343 32:0.10796535 33:0.5506045 34:0.5325623 35:0.3484497 37:0.10128974 38:0.099423965 39:0.0069945079 42:0.035488663 43:0.27546179 44:0.29297327 45:0.59296391 46:0.53525963 47:0.22258905 49:0.093808136 50:0.10080264 51:0.0068560073 53:0.0090662709 54:0.27406065 55:0.49451797 56:0.43700167 57:0.72705357 58:0.56387481 61:0.051299481 62:0.051299481 65:0.12508432 66:0.59555923 67:0.78198566 68:0.47444069 69:0.84954186 70:0.63335472 75:0.097497023 76:0.10813178 77:0.27435777 78:0.73845866 79:0.82655077 80:0.50725629 81:0.9538254 82:0.53371906 87:0.33215611 88:0.34258028 89:0.45982278 90:0.49789428 91:0.60516613 92:0.48745171 93:0.97117567 94:0.50046206 99:0.23280944 100:0.32308096 101:0.51270524 102:0.21662538 103:0.49124937 104:0.49639187 105:0.98816603 106:0.50160337 112:0.10779396 113:0.34085555 114:0.39697612 115:0.35473008 116:0.48267533 117:0.97351427 118:0.50039656 125:0.10324157 126:0.17994717 127:0.17638398 128:0.25785732 129:0.71477661 130:0.45969612 140:0.043842105 141:0.23741996 142:0.2082719 165:0.1708432 166:0.1707972 167:0.1629288 174:0.0017229949 175:0.029880768 176:0.029706213 177:0.16746028 178:0.1707972 179:0.1629288 181:0.1824016 182:0.1789452 186:0.0029221638 187:0.15092966 188:0.16420252 189:0.085548676 190:0.010604585 193:0.1824016 194:0.18248047 195:0.0077695412 198:0.34503261 199:0.73034074 200:0.51208339 201:0.15099693 202:0.014822278 205:0.17109757 206:0.17886712 207:0.007615694 209:0.1517015 210:0.83639439 211:0.9437288 212:0.81708028 213:0.081845889 214:0.0075415819 221:0.20433103 222:0.54129322 223:0.64482277 224:0.36712884 225:0.0062276043 226:0.0062276043 231:0.083142444 232:0.083142444 233:0.15358005 234:0.2804299 235:0.15650237 236:0.00068951912 237:0.0044068605 238:0.0044068605 241:0.11049032 242:0.18734668 243:0.15892118 244:0.2825728 245:0.79650606 246:0.58905532 247:0.040338685 248:0.040338685 249:0.016908467 250:0.0020743931 253:0.11049032 254:0.41394107 255:0.39773458 256:0.28093857 257:0.99309607 258:0.98542741 259:0.3137879 260:0.63081975 261:0.41458315 262:0.010301237 265:0.054286608 266:0.29770507 267:0.39511068 268:0.162261 269:0.2791011 270:0.58239105 271:0.30941115 272:0.74027313 273:0.77750013 274:0.38168497 284:0.18010589 285:0.56460158 286:0.37708614 308:0.062910843 309:0.25097072 310:0.23191641 311:0.09210763 313:0.071462561 314:0.22806643 315:0.33303895 316:0.36212623 317:0.44270539 318:0.44439363 319:0.37308639 320:0.29572699 321:0.24634208 322:0.23191641 323:0.09210763 325:0.25903937 326:0.6025995 327:0.70602872 328:0.72933219 329:0.78324786 330:0.85818073 331:0.99101014 332:0.73337027 333:0.38629802 334:0.090544069 337:0.18757681 338:0.42765246 339:0.68536042 340:0.71843905 341:0.72206722 342:0.6361905 343:1 344:0.76961585 345:0.44283288 346:0.090544069 349:0.090798323 350:0.27830521 351:0.36975985 352:0.36406635 353:0.39054207 354:0.66513467 355:0.75176537 356:0.55273334 357:0.16046812 364:0.047480811 365:0.4432468 366:0.68910588 367:0.61298452 368:0.19440007 369:0.011689323 375:0.064866281 376:0.066821019 377:0.23178327 378:0.52384077 379:0.35488748 380:0.061221113 381:0.011619648 385:0.16188088 386:0.3093305 387:0.21146235 388:0.097013138 389:0.18142346 390:0.19407155 391:0.11815243 392:0.029917567 397:0.16188088 398:0.4521246 399:0.50573419 400:0.45827243 401:0.51323464 402:0.38684926 403:0.093676771 404:0.14117842 405:0.23175391 406:0.089753756 409:0.071879176 410:0.30564849 411:0.405811 412:0.36857393 413:0.40951644 414:0.31429961 415:0.093171756 416:0.14117842 417:0.233661 418:0.18177055 428:0.049076794 429:0.2290342 430:0.17817125 452:0.20792282 453:0.28879347 454:0.15694605 455:0.0037855936 457:0.10852585 458:0.16348739 459:0.08197431 460:0.041519742 461:0.078138221 462:0.08818094 463:0.30543706 464:0.48548843 465:0.40196613 466:0.23810238 467:0.050650737 469:0.29615594 470:0.35259789 471:0.17866531 472:0.063595545 473:0.16987474 474:0.37204267 475:0.71471545 476:0.66018383 477:0.60490217 478:0.23213364 479:0.046510846 481:0.18600994 482:0.32509184 483:0.18422446 484:0.072475671 485:0.20646424 486:0.71046247 487:0.90396921 488:0.8778863 489:0.67162835 490:0.32491622 493:0.075949796 494:0.078808542 495:0.0089168319 496:0.21111068 497:0.59124296 498:0.78546789 499:1 500:0.69305843 501:0.57219942 502:0.29716521 507:0.19085348 508:0.51802307 509:0.68722769 510:0.7948564 511:0.70537791 512:0.5819431 513:0.48007917 514:0.080462659 519:0.39750984 520:0.50975758 521:0.75821162 522:0.76280807 523:0.64540077 524:0.432268 525:0.23127841 526:3.8188209e-05 529:0.15503616 530:0.38380743 531:0.43490226 532:0.36866651 533:0.54580154 534:0.59770244 535:0.3550476 536:0.1027951 537:0.013495395 538:0.0016493158 541:0.15503616 542:0.38076675 543:0.38242196 544:0.2346417 545:0.30739204 546:0.27932688 547:0.053464608 548:0.0023632076 549:0.065421527 550:0.064126094 553:0.076173075 554:0.22795912 555:0.15169503 556:0.0094968521 557:0.053464608 558:0.054544664 559:0.053464608 561:0.064922434 562:0.064922434 573:0.05998645 574:0.05998645 607:0.25184997 608:0.25184997 609:0.246863 619:0.49997538 620:0.99992575 621:0.99990069 622:0.49745687 631:0.49995038 632:0.99000108 633:0.99990069 634:0.49745687 642:0.50369994 643:0.99742594 644:0.75056294 645:0.49372601 654:0.49871297 655:0.74058901 656:0.49871297 657:0.246863 663:0.25059386 664:0.25059386 666:0.246863 667:0.246863 675:0.25059386 676:0.50244383 677:0.49995038 678:0.246863 687:0.25184997 688:0.49995038 689:0.74190067 690:0.246863 692:0.25059386 693:0.25059386 699:0.246863 700:0.25184997 701:0.246863 704:0.50244383 705:0.50496234 706:0.49496341 716:0.246863 717:0.49995038 718:0.4900507 
0.5644347963517209 0.8146636606362297 0.5188294399073988 0.6454843998118439 20:0.0075470078 21:0.25752284 22:0.25012527 23:0.12426368 31:0.083742504 32:0.10525173 33:0.57006216 34:0.54445736 35:0.35043562 37:0.11484351 38:0.11295724 39:0.019196333 42:0.035517587 43:0.28271257 44:0.31554726 45:0.61817097 46:0.54689906 47:0.22375372 49:0.11365458 50:0.11444093 51:0.019196333 53:0.003507945 54:0.18011627 55:0.44900321 56:0.4872085 57:0.72612819 58:0.56876799 61:0.053715379 62:0.053715379 65:0.11246716 66:0.48868261 67:0.71272371 68:0.49631273 69:0.82330887 70:0.63397531 75:0.090218534 76:0.097419953 77:0.26755587 78:0.60881102 79:0.82232354 80:0.50582103 81:0.95233726 82:0.53490056 87:0.44156579 88:0.44623933 89:0.44584311 90:0.46801318 91:0.60840453 92:0.48811194 93:0.97274857 94:0.5019041 99:0.34711585 100:0.43517558 101:0.48920991 102:0.19777744 103:0.49052667 104:0.49586593 105:0.98913248 106:0.50308535 112:0.11044436 113:0.3425507 114:0.38976761 115:0.41764404 116:0.48170659 117:0.97418439 118:0.50201623 125:0.11381148 126:0.19139519 127:0.18760531 128:0.29599409 129:0.70454997 130:0.41359543 140:0.063958687 141:0.22538432 142:0.16187873 165:0.20940114 166:0.20835674 167:0.10237079 174:0.0078166941 175:0.022355371 176:0.26941021 177:0.46041911 178:0.30102215 179:0.10237079 181:0.051838237 182:0.05100837 186:0.009163536 187:0.38520133 188:0.65208637 189:0.45361821 190:0.10361177 193:0.051838237 194:0.051938021 195:0.0098297914 198:0.31005154 199:0.88390402 200:0.76736607 201:0.42922996 202:0.015494631 205:0.041079788 206:0.050909579 207:0.0096351485 209:0.1566997 210:0.83879114 211:0.89127479 212:0.85463917 213:0.23234665 214:0.0082303467 221:0.39550167 222:0.78660042 223:0.61675007 224:0.27864855 225:0.0066807337 226:0.0066807337 231:0.10233069 232:0.10206013 233:0.33712936 234:0.4965191 235:0.18570266 236:0.0064348931 237:0.0050201194 238:0.0050201194 241:0.036385628 242:0.079509533 243:0.1439743 244:0.33483315 245:0.76835668 246:0.5287877 247:0.047345824 248:0.047345824 249:0.023519221 250:0.0025609981 253:0.036385628 254:0.32000994 255:0.33744923 256:0.32892523 257:0.99359447 258:0.97876528 259:0.33706207 260:0.7184503 261:0.37786194 262:0.00050769353 265:0.010523824 266:0.23573818 267:0.33608827 268:0.16564416 269:0.28945805 270:0.59805653 271:0.32174926 272:0.87979677 273:0.92201066 274:0.41823435 284:0.34998892 285:0.76879537 286:0.4142487 308:0.09348806 309:0.22485204 310:0.17846377 311:0.058093135 313:0.077340839 314:0.24699664 315:0.35907786 316:0.39077745 317:0.47248384 318:0.47521484 319:0.38880422 320:0.35869307 321:0.58287855 322:0.49887788 323:0.14902773 325:0.31455854 326:0.68634133 327:0.76147917 328:0.78708271 329:0.84008426 330:0.83705 331:0.79686605 332:0.86801255 333:0.65394423 334:0.41778027 335:0.090934595 337:0.23651933 338:0.49668402 339:0.77547122 340:0.77491883 341:0.77919695 342:0.64526992 343:0.92445216 344:0.8571526 345:0.59058497 346:0.097876272 349:0.097378589 350:0.3000231 351:0.39953904 352:0.39285745 353:0.42112038 354:0.70980435 355:0.92615117 356:0.81743256 357:0.28283996 364:0.059579435 365:0.47372342 366:0.81273989 367:0.73755874 368:0.20475171 369:0.012029086 375:0.035418809 376:0.044447752 377:0.24753766 378:0.63412888 379:0.46867145 380:0.063645434 381:0.011936403 385:0.19958362 386:0.3610521 387:0.23185599 388:0.11174234 389:0.22287785 390:0.21136759 391:0.12668968 392:0.031010693 397:0.19958362 398:0.53630466 399:0.60887103 400:0.49964734 401:0.55695458 402:0.46363872 403:0.12959848 404:0.12304405 405:0.10917031 406:0.014767254 409:0.097063313 410:0.37219713 411:0.46472299 412:0.39507369 413:0.43211414 414:0.3584011 415:0.12886829 416:0.21951336 417:0.33070845 418:0.24686535 428:0.094559091 429:0.3279709 430:0.24575018 452:0.28302161 453:0.36260408 454:0.14560032 455:0.0025868434 457:0.074291072 458:0.12816761 459:0.080038586 460:0.040559362 461:0.10901018 462:0.11498845 463:0.30202653 464:0.66873898 465:0.57722676 466:0.30842748 467:0.04447605 469:0.34408168 470:0.39969239 471:0.23664367 472:0.064056466 473:0.20842911 474:0.36305191 475:0.56602273 476:0.70889207 477:0.75293095 478:0.25972043 479:0.041527691 481:0.26598938 482:0.37271492 483:0.24351847 484:0.072556176 485:0.20973468 486:0.67116167 487:0.69453714 488:0.69755299 489:0.59721976 490:0.31269357 493:0.075774361 494:0.078518148 495:0.0095102206 496:0.19803624 497:0.58685062 498:0.84066626 499:0.94677554 500:0.54748776 501:0.52951631 502:0.29282327 507:0.19583637 508:0.50597944 509:0.6195825 510:0.72236467 511:0.67541257 512:0.56897902 513:0.4711734 514:0.079343129 519:0.33485365 520:0.4745831 521:0.65857558 522:0.51241911 523:0.4974234 524:0.42618261 525:0.2270352 526:2.3615603e-05 529:0.15192456 530:0.37509141 531:0.43646638 532:0.37655526 533:0.37426509 534:0.49181064 535:0.34820351 536:0.10245475 537:0.014386831 538:0.0016620979 541:0.15192456 542:0.37212468 543:0.44812647 544:0.23283835 545:0.24011715 546:0.22958426 548:0.0020908337 549:0.10096764 550:0.098968342 553:0.075510411 554:0.22303903 555:0.14883393 556:0.012362289 557:0.009398961 561:0.19671368 562:0.19671368 573:0.19109217 574:0.19109217 607:0.20301551 608:0.40201105 609:0.4009985 610:0.20200297 611:0.19800304 619:0.4009985 620:0.99707222 621:0.99707222 622:0.60100148 623:0.19800304 631:0.40400594 632:0.79700459 633:0.80199696 634:0.39899852 642:0.40400594 643:0.80001202 644:0.80001202 645:0.39600608 654:0.40000601 655:0.59400912 656:0.40000601 657:0.19800304 663:0.40299844 664:0.39899852 666:0.19800304 667:0.19800304 675:0.40299844 676:0.60100148 677:0.4009985 678:0.19800304 687:0.20200297 688:0.59900155 689:0.59506117 690:0.19800304 699:0.19800304 700:0.20200297 701:0.19800304 704:0.20200297 705:0.20200297 706:0.19800304 716:0.19800304 717:0.20200297 718:0.19800304 
0.6970774664965371 1.00483205445134 0.6389245914011565 0.7991017652948962 20:0.0074741263 21:0.25974476 22:0.24742041 31:0.082014936 32:0.088787742 33:0.4637892 34:0.4474245 37:0.13051159 38:0.12861732 39:0.034157666 42:0.036175236 43:0.27587562 44:0.30436944 45:0.6269175 46:0.45347958 49:0.12898197 50:0.1300897 51:0.034157666 53:0.0042664551 54:0.092188184 55:0.24228147 56:0.34235696 57:0.72586298 58:0.57836557 61:0.05220845 62:0.05220845 65:0.0042664551 66:0.055174092 67:0.28030058 68:0.39094994 69:0.83470431 70:0.64345106 75:0.141351 76:0.16912577 77:0.075983177 78:0.013421059 79:0.46827625 80:0.50735972 81:0.95396343 82:0.53383542 87:0.26550489 88:0.29490623 89:0.29095702 90:0.07276067 91:0.48741259 92:0.48741259 93:0.97127603 94:0.50036109 99:0.12265554 100:0.21610583 101:0.45450086 102:0.25544921 103:0.48749348 104:0.49342337 105:0.98510432 106:0.50145138 112:0.082767164 113:0.38129586 114:0.45456041 115:0.34265432 116:0.47039861 117:0.96130225 118:0.50021815 125:0.11352051 126:0.21435629 127:0.21011175 128:0.22092959 129:0.60486789 130:0.3879898 141:0.1375203 142:0.1372035 165:0.18164828 166:0.17863678 174:0.0079342461 175:0.023709713 176:0.023395636 177:0.17985295 178:0.17985295 181:0.098817215 182:0.10218169 183:0.0046239028 186:0.010492001 187:0.27730117 188:0.29433191 189:0.26639638 190:0.013031768 193:0.098817215 194:0.10384102 195:0.034910534 198:0.002714863 199:0.24913798 200:0.27387374 201:0.27869 202:0.016547798 205:0.066967708 206:0.10178483 207:0.03421926 211:0.0053622937 212:0.013912853 213:0.01702796 214:0.0084241781 225:0.0069386781 226:0.0069386781 231:0.053233492 232:0.053233492 233:0.052179398 235:0.0072185979 236:0.0072185979 237:0.0048691418 238:0.0048691418 241:0.082310892 242:0.32000659 243:0.34283433 244:0.24017039 245:0.85636431 246:0.7169765 247:0.21482188 248:0.069902694 249:0.0260679 250:0.0022853814 253:0.082310892 254:0.32000659 255:0.41423602 256:0.23929969 257:0.99124111 258:0.98438655 259:0.50111406 260:0.85425086 261:0.53479877 262:0.00060276096 266:0.1850324 267:0.40679932 268:0.23532697 269:0.17990307 270:0.45245814 271:0.28201709 272:0.78376146 273:0.83199281 274:0.22573259 284:0.14972432 285:0.37545691 286:0.22126279 308:0.13344217 309:0.25549358 310:0.17851026 313:0.088384266 314:0.2838784 315:0.41799812 316:0.46305096 317:0.55449243 318:0.55541756 319:0.45177647 320:0.27066265 321:0.25533296 322:0.22213291 325:0.36372806 326:0.80118778 327:0.89895274 328:0.93547226 329:1 330:0.99156839 331:0.82447551 332:0.71677035 333:0.43275185 334:0.15934322 337:0.27443837 338:0.57743276 339:0.91554327 340:0.91836346 341:0.93199286 342:0.7757814 343:0.55529587 344:0.60377555 345:0.47787239 346:0.11658435 349:0.10686612 350:0.34662109 351:0.47539974 352:0.46946553 353:0.5035614 354:0.51689794 355:0.48439246 356:0.35457445 357:0.11693 364:0.052096439 365:0.12227081 366:0.17851065 367:0.14147057 368:0.061304399 369:0.0091364812 374:0.041385341 375:0.1245341 376:0.085534845 377:0.064413158 378:0.15489586 379:0.16628703 380:0.10027953 381:0.0089555668 385:0.11454494 386:0.44878992 387:0.64148848 388:0.54585213 389:0.52692946 390:0.28726272 391:0.16502421 392:0.038384287 397:0.11454494 398:0.40575678 399:0.76271554 400:0.85603287 401:0.78530085 402:0.55982348 403:0.17780663 404:0.28561159 405:0.34199507 406:0.10525052 410:0.22373573 411:0.54346596 412:0.68438982 413:0.67416171 414:0.43944417 415:0.12452124 416:0.28343252 417:0.39256454 418:0.22062767 428:0.05996432 429:0.27846579 430:0.21625895 452:0.30803672 453:0.39140726 454:0.15200573 457:0.081841073 458:0.1515687 459:0.10465789 460:0.052093262 461:0.12801607 462:0.14769765 463:0.37154066 464:0.6397714 465:0.54776131 466:0.29657303 469:0.37363451 470:0.4446281 471:0.279471 472:0.077032959 473:0.25405738 474:0.45418944 475:0.7581339 476:0.78816872 477:0.84033896 478:0.25964901 481:0.2877398 482:0.40932469 483:0.28501606 484:0.094186141 485:0.25257805 486:0.79039923 487:0.75325511 488:0.78101692 489:0.72262287 490:0.35157798 493:0.085353571 494:0.08688185 495:0.0087748587 496:0.24629268 497:0.58652221 498:0.79490197 499:0.87134834 500:0.59065753 501:0.64301573 502:0.32513337 507:0.1812777 508:0.55861279 509:0.5850666 510:0.58212512 511:0.65366421 512:0.63739723 513:0.50210491 514:0.090811324 518:0.086250478 519:0.47351075 520:0.51399255 521:0.71397844 522:0.66885031 523:0.53581651 524:0.46868742 525:0.14356332 526:5.7704673e-05 529:0.087535171 530:0.34815529 531:0.46705664 532:0.45767954 533:0.50963959 534:0.52293809 535:0.30647115 536:0.1116892 537:0.015135416 538:0.0019085949 541:0.087535171 542:0.25845206 543:0.43049232 544:0.35007115 545:0.27631133 546:0.18181056 548:0.016893218 549:0.03834659 550:0.021028566 554:0.086664181 555:0.084974957 556:0.011123956 557:0.010894251 560:0.016893218 561:0.037907888 562:0.037570018 573:0.033366839 574:0.033035659 607:0.20381452 608:0.20178653 619:0.40257672 620:0.80121768 621:0.60639124 622:0.40056886 631:0.20279799 632:0.59734337 633:0.60637106 634:0.40056886 643:0.20279799 644:0.40158032 645:0.19878232 655:0.19878232 656:0.20279799 657:0.19878232 663:0.40458453 664:0.40458453 665:0.19878232 675:0.60235539 676:0.80515338 677:0.80314557 678:0.40056886 687:0.40458453 688:0.60639124 689:0.99896841 690:0.40056886 692:0.20178653 693:0.20178653 699:0.19878232 700:0.40257672 701:0.39460516 704:0.20178653 705:0.20381452 706:0.19977872 717:0.19977872 718:0.19582284 
0.2661722970245309 0.3865661650762433 0.2467817635302409 0.3034711637692522 20:0.0075827366 21:0.25960331 22:0.24717741 31:0.086167203 32:0.1067033 33:0.4759944 34:0.44614744 37:0.12295257 38:0.12112488 39:0.030044316 42:0.071967887 43:0.30328968 44:0.30584821 45:0.62779804 46:0.45238978 49:0.12156499 50:0.1225603 51:0.030044316 53:0.0026553382 54:0.2043898 55:0.38754396 56:0.41835625 57:0.70848875 58:0.57682352 61:0.051830691 62:0.051830691 65:0.0026553382 66:0.13071946 67:0.40022546 68:0.43110796 69:0.83262764 70:0.64203362 75:0.11230941 76:0.13078051 77:0.060067435 78:0.010892552 79:0.46830449 80:0.50703517 81:0.95378513 82:0.53402485 87:0.33627102 88:0.35437637 89:0.25075044 90:0.061391628 91:0.48769156 92:0.48769156 93:0.97172795 94:0.50068937 99:0.2223473 100:0.31267853 101:0.51439073 102:0.22726997 103:0.48842342 104:0.49360449 105:0.98563367 106:0.50180321 112:0.099654646 113:0.36041165 114:0.42347038 115:0.34492058 116:0.47278223 117:0.96394454 118:0.50052403 125:0.103892 126:0.19919715 127:0.19525278 128:0.22299545 129:0.59749549 130:0.37878141 141:0.12817997 142:0.12804838 165:0.17664177 166:0.17488416 174:0.0090182138 175:0.026233783 176:0.025883913 177:0.17488416 178:0.17488416 181:0.1700784 182:0.1668347 186:0.01381578 187:0.15755285 188:0.16415331 189:0.083357583 190:0.012931438 193:0.1700784 194:0.17014138 195:0.006203469 198:0.27531896 199:0.72251449 200:0.72657553 201:0.19771117 202:0.0182537 205:0.16056888 206:0.16677235 207:0.0060806321 210:0.26498967 211:0.58016537 212:0.6537336 213:0.11720634 214:0.0093665301 225:0.0075732671 226:0.0075732671 231:0.13963167 232:0.13963167 233:0.056555534 235:0.0076260778 236:0.0076260778 237:0.0053393571 238:0.0053393571 241:0.055179076 242:0.28616839 243:0.36760846 244:0.41727615 245:0.7923939 246:0.50901641 247:0.071811239 248:0.071811239 249:0.027300553 250:0.002493021 253:0.055179076 254:0.41755141 255:0.46681214 256:0.40628798 257:0.9922907 258:0.98297303 259:0.34821456 260:0.9498451 261:0.6105341 262:0.012126295 266:0.1471993 267:0.46112933 268:0.32223998 269:0.20540942 270:0.49644066 271:0.34293567 272:0.87710098 273:0.93905744 274:0.28047497 284:0.16208836 285:0.44231836 286:0.27492119 308:0.1359617 309:0.22163969 310:0.14575457 313:0.09182325 314:0.28687209 315:0.41849054 316:0.46393544 317:0.56160975 318:0.56394309 319:0.45841522 320:0.26824336 321:0.22181729 322:0.19013844 325:0.33969698 326:0.77512631 327:0.89744078 328:0.93525286 329:0.99858802 330:0.99006829 331:0.94177838 332:0.83475133 333:0.43409384 334:0.15987161 337:0.24777342 338:0.55294979 339:0.88007981 340:0.91702391 341:0.92723142 342:0.76756349 343:0.8646457 344:0.9994122 345:0.70132737 346:0.1163666 349:0.1180891 350:0.3592606 351:0.47570832 352:0.46757344 353:0.54282324 354:0.55331712 355:0.65004266 356:0.74549776 357:0.33593477 364:0.096058845 365:0.16852681 366:0.18101642 367:0.14092968 368:0.060418195 369:0.0084540712 374:0.041473571 375:0.12475641 376:0.086722413 377:0.06465959 378:0.1653461 379:0.167791 380:0.09936521 381:0.0082866693 385:0.11388275 386:0.43548304 387:0.52200359 388:0.46150584 389:0.40847651 390:0.17853926 391:0.11382979 392:0.038343214 397:0.11388275 398:0.49467374 399:0.74169369 400:0.83165558 401:0.82864576 402:0.54378414 403:0.11901236 404:0.29211602 405:0.35625362 406:0.11553815 410:0.22493686 411:0.52746927 412:0.66210717 413:0.68890451 414:0.44891153 415:0.11837489 416:0.28987423 417:0.40953517 418:0.23398946 428:0.060397212 429:0.29205264 430:0.22935616 452:0.28586071 453:0.35920316 454:0.13501923 457:0.11508947 458:0.17604344 459:0.091998951 460:0.047238604 461:0.10761579 462:0.11755541 463:0.32636596 464:0.69719223 465:0.61094588 466:0.27110361 469:0.40654194 470:0.46913601 471:0.30805819 472:0.071871572 473:0.21583068 474:0.47619515 475:0.73986107 476:0.87528207 477:0.84029131 478:0.23858384 481:0.28734295 482:0.43695877 483:0.3141177 484:0.085484938 485:0.22645902 486:0.80738655 487:0.92309851 488:0.98738422 489:0.75401145 490:0.32261029 493:0.081591775 494:0.084452429 495:0.0097181564 496:0.30796559 497:0.62005284 498:0.8071885 499:0.88314727 500:0.72711057 501:0.72437502 502:0.30203929 507:0.18271354 508:0.60925585 509:0.61941945 510:0.61691952 511:0.60475271 512:0.59170803 513:0.46631542 514:0.084019295 518:0.079457155 519:0.47316033 520:0.50995695 521:0.68284298 522:0.60926192 523:0.49585838 524:0.43756779 525:0.13658657 526:4.9869617e-05 529:0.080799819 530:0.32090843 531:0.45277173 532:0.44967339 533:0.54967491 534:0.53437717 535:0.28351857 536:0.1032863 537:0.014007081 538:0.0017881178 541:0.080799819 542:0.23827016 543:0.39829175 544:0.32697565 545:0.31936424 546:0.28057377 547:0.051139225 548:0.0024162513 549:0.028354905 550:0.02779344 554:0.079995847 555:0.079965626 556:0.014623712 557:0.051139225 558:0.052172306 559:0.051139225 561:0.027818744 562:0.027818744 573:0.023649559 574:0.023649559 607:0.25282463 608:0.25030898 619:0.49938203 620:0.9938819 621:0.75220666 622:0.49689135 631:0.50312733 632:0.99254677 633:0.998764 634:0.49689135 643:0.49814603 644:0.7497097 645:0.49316474 655:0.24658237 656:0.25156366 657:0.24658237 663:0.25030898 664:0.25030898 675:0.50061797 676:0.75218163 677:0.49938203 678:0.24658237 687:0.50187265 688:0.75220666 689:0.98887564 690:0.24658237 692:0.25030898 693:0.25030898 699:0.24658237 700:0.49938203 701:0.4894936 704:0.25030898 705:0.25282463 706:0.24781837 717:0.24781837 718:0.24291124 
0.1792361050603792 0.2585537741428796 0.1650292937977061 0.2048444876875368 20:0.012994696 21:0.26409073 22:0.25135335 23:0.12349608 25:0.014679711 26:0.014679711 31:0.081177924 32:0.093469028 33:0.45557684 34:0.43899838 35:0.24761118 37:0.13656018 38:0.13466533 39:0.040202432 42:0.035103298 43:0.27044151 44:0.30006988 45:0.50951462 46:0.44180502 47:0.12165746 49:0.12056028 50:0.13601129 51:0.039914646 53:0.0039890254 54:0.26933075 55:0.42963165 56:0.3771679 57:0.71701227 58:0.56910015 61:0.054115553 62:0.054115553 65:0.0039890254 66:0.35649881 67:0.59251534 68:0.40395149 69:0.8304543 70:0.64018218 75:0.11025689 76:0.12094323 77:0.042310521 78:0.22760691 79:0.58811209 80:0.50707392 81:0.95320842 82:0.53378088 87:0.33435952 88:0.34483425 89:0.24159594 90:0.05467462 91:0.48774551 92:0.48774551 93:0.97148464 94:0.50065676 99:0.22227553 100:0.31254557 101:0.51526259 102:0.21844411 103:0.48740825 104:0.49325725 105:0.98530933 106:0.50181923 112:0.099104497 113:0.37302926 114:0.42934979 115:0.35102795 116:0.47912641 117:0.97045332 118:0.50081425 125:0.11838564 126:0.21199938 127:0.20780151 128:0.22954647 129:0.62370808 130:0.39818346 141:0.14742756 142:0.14691445 165:0.2812619 166:0.27985911 167:0.13750166 174:0.0074169441 175:0.021441982 176:0.021155565 177:0.27569255 178:0.27985911 179:0.13750166 181:0.038680661 182:0.038068789 186:0.0073860311 187:0.12173843 188:0.1306327 189:0.096328753 190:0.010546628 193:0.038680661 194:0.038758852 195:0.0077027305 198:0.43042914 199:0.77711147 200:0.55808018 201:0.14034251 202:0.014756217 205:0.030288645 206:0.037991376 207:0.0075502063 210:0.68664444 211:0.92792044 212:0.8391195 213:0.047528432 214:0.0077242655 222:0.2552679 223:0.48070064 224:0.36498911 225:0.0063917236 226:0.0063917236 231:0.11758773 232:0.11758773 233:0.047274212 235:0.0071293228 236:0.0071293228 237:0.0047547957 238:0.0047547957 241:0.14823898 242:0.2596679 243:0.22729741 244:0.31641169 245:0.79631599 246:0.58920739 247:0.04763732 248:0.04763732 249:0.024948101 250:0.0024016162 253:0.14823898 254:0.37256815 255:0.33874783 256:0.30046128 257:0.99310349 258:0.97739041 259:0.29297301 260:0.57779827 261:0.37512583 262:0.014516367 265:0.072833455 266:0.25669667 267:0.33506283 268:0.16998336 269:0.30099055 270:0.57490321 271:0.28853503 272:0.5341608 273:0.5748559 274:0.20283392 284:0.17040223 285:0.3729429 286:0.19881754 308:0.083066922 309:0.20877404 310:0.17898582 311:0.045109635 313:0.085306259 314:0.26866293 315:0.39071261 316:0.43000726 317:0.52276776 318:0.52574328 319:0.42925749 320:0.25003777 321:0.20519266 322:0.17898582 323:0.045109635 325:0.30931707 326:0.7157794 327:0.83579056 328:0.86807962 329:0.93128274 330:0.92668638 331:0.76964228 332:0.55786156 333:0.36348821 334:0.10800348 337:0.22401081 338:0.50789418 339:0.81342162 340:0.85301045 341:0.86224004 342:0.71465742 343:0.89992873 344:0.71365623 345:0.43322884 346:0.10800348 349:0.10831475 350:0.3321032 351:0.44146421 352:0.43454992 353:0.46619247 354:0.67523589 355:1 356:0.6690846 357:0.097649306 364:0.059670409 365:0.11749848 366:0.35412814 367:0.47304286 368:0.2405342 369:0.0073038009 374:0.038653875 375:0.11627278 376:0.082812755 377:0.068674081 378:0.18932435 379:0.19056117 380:0.091297278 381:0.0071591759 385:0.18373068 386:0.39625415 387:0.28898446 388:0.15431207 389:0.21343815 390:0.22874557 391:0.14113661 392:0.035880057 397:0.18373068 398:0.45092391 399:0.56330066 400:0.58450906 401:0.59879737 402:0.44928195 403:0.1129929 404:0.19521388 405:0.27146483 406:0.10497915 409:0.076590261 410:0.27690303 411:0.40556582 412:0.43596284 413:0.47581687 414:0.36357354 415:0.11237152 416:0.19462615 417:0.30279702 418:0.21260523 428:0.057799256 429:0.26828377 430:0.20839536 452:0.18861774 453:0.26276929 454:0.13836491 455:0.0005226982 457:0.096479629 458:0.15131231 459:0.082563909 460:0.041819903 461:0.10373375 462:0.10970548 463:0.29747527 464:0.46311286 465:0.37565135 466:0.19009385 467:0.018442045 469:0.35638261 470:0.4126328 471:0.26179481 472:0.062681041 473:0.21615815 474:0.37651069 475:0.63834952 476:0.61948864 477:0.56472728 478:0.1867723 479:0.01756452 481:0.25625061 482:0.38414056 483:0.26694129 484:0.074910586 485:0.2189293 486:0.67506788 487:0.85166867 488:0.85072943 489:0.63478073 490:0.2996742 493:0.073350646 494:0.075956032 495:0.0082810852 496:0.19769353 497:0.4922693 498:0.70714572 499:1 500:0.75440107 501:0.61562471 502:0.27692596 507:0.18181788 508:0.48854903 509:0.4966459 510:0.52432869 511:0.63786469 512:0.60967493 513:0.42441317 514:0.076741897 518:0.072134627 519:0.43834794 520:0.47165716 521:0.62257804 522:0.63132224 523:0.52813271 524:0.39950999 525:0.12450885 526:2.4351846e-05 529:0.14691766 530:0.36330994 531:0.40195888 532:0.41014511 533:0.50737274 534:0.56787501 535:0.33296931 536:0.093415989 537:0.013027308 538:0.0015472592 541:0.14691766 542:0.28828995 543:0.36119744 544:0.29218616 545:0.29135379 546:0.2131958 548:0.0023257347 549:0.015079242 550:0.014780653 553:0.072184258 554:0.14473034 555:0.072337024 556:0.0087013656 557:0.0073259229 561:0.014567149 562:0.014567149 573:0.011015661 574:0.011015661 607:0.25282463 608:0.25030898 619:0.49938203 620:0.9938819 621:0.75220666 622:0.49689135 631:0.50312733 632:0.99254677 633:0.998764 634:0.49689135 642:0.25156366 643:0.7497097 644:0.99629206 645:0.49316474 654:0.24658237 655:0.49316474 656:0.49814603 657:0.24658237 663:0.25030898 664:0.25030898 675:0.25030898 676:0.50187265 677:0.49938203 678:0.24658237 687:0.25156366 688:0.49938203 689:0.74105727 690:0.24658237 692:0.25030898 693:0.25030898 699:0.24658237 700:0.25156366 701:0.24658237 704:0.25030898 705:0.25282463 706:0.24781837 717:0.24781837 718:0.24291124 
-0.8578981781101459 1.474053974445547 0.8786174187781706 1.128126543718289 28:0.066986885 29:0.066986885 40:0.52781842 41:0.52633329 42:0.26202957 43:0.2144315 44:0.2144315 52:0.85691852 53:0.84751205 54:0.44503094 55:0.60972702 56:0.60972702 57:0.42449911 64:0.81568891 65:0.86411825 66:0.18066493 67:0.74827113 68:0.74610425 69:0.72556003 76:0.84667003 77:0.82990827 78:0.11872079 79:0.69067355 80:0.63955175 81:0.41759921 88:0.86054198 89:0.84990823 90:0.39575561 91:0.61095482 92:0.68943621 93:0.11354612 100:0.85556367 101:0.85556367 102:0.65131899 103:0.68104588 104:0.66973701 112:0.83590166 113:0.83590166 114:0.9992978 115:0.9907698 116:0.50909479 124:0.61060763 125:0.61060763 126:0.62148051 127:0.82542839 128:0.38906317 136:0.19804352 137:0.19804352 138:0.20816263 139:0.4013466 140:0.18935867 184:0.76808747 185:0.76808747 186:0.5458419 187:0.43256569 188:0.43256569 196:0.75706073 197:0.77021025 198:0.75495907 199:0.99501248 200:0.99935984 201:0.97957119 209:0.20911717 210:0.20497637 211:0.5513096 212:0.99070838 213:0.97109104 232:0.047357412 233:0.046419672 244:0.19775228 245:0.19383653 256:0.3781082 257:0.37062115 258:0.33589815 259:0.33219805 268:0.30883748 269:0.30883748 270:0.33516397 271:0.33702707 272:0.14755397 280:0.11731752 281:0.11731752 282:0.14681804 283:0.29437202 284:0.14463221 309:0.21339359 310:0.44659541 311:0.4807566 312:0.37079286 316:0.082779892 317:0.31317488 318:0.47198978 319:0.47029496 320:0.45410744 321:0.5211407 322:0.54523895 323:0.60055826 324:0.61269479 328:0.082779892 329:0.31317488 330:0.46716284 331:0.51249456 332:0.6964123 333:0.84929683 334:0.97930988 335:0.92541113 336:0.95982425 341:0.18956118 342:0.30735445 343:0.11705152 344:0.26485061 345:0.43751224 346:0.45654095 347:0.46649005 348:0.47237112 356:0.050999506 357:0.049989648 453:0.1140476 454:0.19346827 455:0.13665671 456:0.078872925 460:0.2043771 461:0.33421549 462:0.19279497 463:0.15519679 464:0.21041374 465:0.29476673 466:0.28061338 467:0.16870681 468:0.14084427 472:0.68202951 473:0.80790595 474:0.5011533 475:0.35165377 476:0.59058809 477:0.51123351 478:0.44602362 479:0.30494275 480:0.24268882 484:0.69745251 485:0.96331105 486:0.59944947 487:0.31764972 488:0.49880096 489:0.45732539 490:0.16856318 491:0.14246297 492:0.12838271 496:0.42961518 497:0.56307405 498:0.13081621 499:0.42208129 500:0.4199553 501:0.40337798 508:0.049971245 509:0.049971245 510:0.099703988 511:0.62255396 512:0.51636658 513:0.27404374 520:0.02070136 521:0.02070136 522:0.27099711 523:0.51830226 524:0.61571332 525:0.099249635 532:0.0047887703 533:0.0047887703 534:0.28103445 535:0.44957653 536:0.44280122 546:0.12432575 547:0.20312102 548:0.18536877 558:0.014007552 559:0.053821774 560:0.039025847 600:0.5 612:1 624:0.99009934 636:0.49009934 688:0.5 689:0.49009934 690:0.49750624 691:0.49750624 700:0.5 701:0.5 702:0.49750624 703:0.50250626 704:0.49255597 712:0.49009934 713:0.49009934 715:0.49255597 716:0.48280271 
-0.5090287508818723 0.8737971070633683 0.5206405132990294 0.6750512351463663 28:0.2268328 29:0.22234121 39:0.22501874 40:0.65559589 41:0.42854986 43:0.49960101 44:0.49960101 45:0.24301878 51:0.6971875 52:0.89689744 53:0.87540085 55:0.91067237 56:0.90863952 57:0.68668499 63:0.96531374 64:0.96531374 65:0.92524742 66:0.10287183 67:0.69547679 68:0.75891658 69:0.55248087 75:0.99501248 76:0.99501248 77:0.96974026 78:0.51667521 79:0.6923887 80:0.61903905 81:0.11149617 87:0.97382484 88:0.99521199 89:0.97550547 90:0.88310388 91:0.87077419 92:0.44418721 99:0.70250511 100:0.9568701 101:0.93792281 102:0.8547651 103:0.99064346 104:0.13318778 111:0.22603831 112:0.463064 113:0.45389472 114:0.48538301 115:0.82102558 116:0.48812139 126:0.043271583 127:0.58313261 128:0.58139734 139:0.24345055 140:0.24345055 172:0.099245685 173:0.097280489 184:0.19898884 185:0.19799638 187:0.10172514 188:0.10172514 189:0.0041994119 196:0.19603118 197:0.19603118 199:0.10164031 200:0.10270444 201:0.10067076 212:0.096471344 213:0.094561084 219:0.010683504 220:0.010683504 221:0.0020746067 231:0.040118534 232:0.040118534 233:0.023157607 234:0.011081178 235:0.010861756 243:0.047661916 244:0.056565268 245:0.055445201 246:0.38165144 247:0.52201132 248:0.22898469 249:0.086921726 255:0.018074411 256:0.034895278 257:0.040186357 258:0.64396338 259:1 260:0.75511785 261:0.19446701 262:0.077671402 269:0.039390614 270:0.27226771 271:0.76046457 272:0.74314698 273:0.19152898 274:0.076855774 283:0.10069163 284:0.10069163 308:0.093858637 309:0.29097804 310:0.40473801 311:0.42616268 312:0.32759936 316:0.16619236 317:0.38011148 318:0.43111646 319:0.42809664 320:0.59805954 321:0.79720647 322:0.82353894 323:0.85037751 324:0.6486216 327:0.02105029 328:0.20664386 329:0.39482748 330:0.42257978 331:0.45513774 332:0.73531186 333:0.92746696 334:1 335:0.83389316 336:0.85617056 339:0.02105029 340:0.11310911 341:0.1126881 343:0.040212102 344:0.23432781 345:0.44107784 346:0.50979854 347:0.41543041 348:0.42076315 352:0.020840836 353:0.02042816 390:0.2229474 391:0.45211908 392:0.417305 393:0.18761411 401:0.09452577 402:0.47607834 403:0.73473698 404:0.7756135 405:0.53783528 406:0.21061896 413:0.092654034 414:0.2502184 415:0.60434847 416:0.73519964 417:0.53181421 418:0.20873651 427:0.058613554 428:0.058613554 452:0.059296693 453:0.17218311 454:0.19313759 455:0.1413389 456:0.082303948 460:0.33936971 461:0.42682227 462:0.22288794 463:0.15307091 464:0.30176376 465:0.39895816 466:0.33636955 467:0.27090826 468:0.1737212 471:0.2571547 472:0.85102663 473:0.67442027 474:0.22288794 475:0.41344047 476:0.73342517 477:0.78620824 478:0.47615293 479:0.30034489 480:0.24292024 483:0.30715099 484:0.77106566 485:0.76535446 487:0.72411597 488:0.94780202 489:0.70701364 490:0.20435087 491:0.13383694 492:0.1223002 495:0.071126954 496:0.31898257 497:0.31266629 498:0.17161859 499:0.98938817 500:0.80743308 501:0.34957354 507:0.022937872 508:0.044392469 509:0.043513439 510:0.57888017 511:0.92877652 512:0.99330455 513:0.15092683 519:0.0014897946 520:0.0089675881 521:0.0087900179 522:0.54874412 523:0.85837938 524:0.62350493 534:0.26097767 535:0.39152092 536:0.12795832 546:0.036814536 547:0.079528311 548:0.077953545 559:0.079471107 560:0.079471107 571:0.072318353 572:0.072318353 600:0.5 612:1 624:0.99009934 636:0.49009934 675:0.5 676:0.5 677:0.49009934 678:0.50250626 679:0.49750624 687:0.49009934 688:0.5 689:0.5 690:0.99750624 691:0.98760558 701:0.49009934 702:0.5 703:0.49009934 
-0.2581833408994528 0.4429568625453073 0.263292968521836 0.3483842972518299 28:0.23840658 29:0.23368581 39:0.21852326 40:0.66931741 41:0.44868086 43:0.39142662 44:0.39142662 45:0.19090637 51:0.68922648 52:0.89740849 53:0.88728237 55:0.71983658 56:0.71808802 57:0.51907662 63:0.97077951 64:0.97077951 65:0.92375602 66:0.11118375 67:0.60693789 68:0.60691309 69:0.43104377 75:0.99501248 76:0.99501248 77:0.97488416 78:0.59212994 79:0.75305047 80:0.59898261 81:0.1046156 87:0.95949829 88:0.98514564 89:0.96563845 90:0.9743416 91:0.96083356 92:0.48327093 99:0.46438565 100:0.71372516 101:0.69959245 102:0.67606848 103:0.83639205 104:0.15714895 112:0.22867221 113:0.37059825 114:0.61986341 115:0.6397115 116:0.27919767 117:0.24698503 125:0.18208203 126:0.36875908 127:0.38868037 128:0.27919767 129:0.24698503 172:0.08876193 173:0.087004326 184:0.13851555 185:0.13802049 187:0.17930193 188:0.17930193 189:0.088095444 196:0.13626289 197:0.13626289 199:0.17752228 200:0.18020068 201:0.17663247 207:0.0023375414 208:0.0023375414 212:0.088537025 213:0.086783874 219:0.018004992 220:0.018004992 221:0.0075506757 231:0.047368037 232:0.047368037 233:0.031680099 234:0.016856944 235:0.016523155 243:0.031524505 244:0.042205505 245:0.14584559 246:0.47235895 247:0.63113156 248:0.37908051 249:0.077236701 256:0.017396951 257:0.42185694 258:0.80355723 259:0.97934289 260:0.87944946 261:0.3263321 262:0.035722799 269:0.28807584 270:0.46667547 271:0.59214992 272:0.64822288 273:0.26697566 274:0.03501544 308:0.099977314 309:0.30561852 310:0.4191804 311:0.43757268 312:0.33670853 316:0.15520709 317:0.37485565 318:0.44343024 319:0.44307004 320:0.52533434 321:0.72822026 322:0.8522227 323:0.87630559 324:0.781857 327:0.023817485 328:0.20105556 329:0.39204021 330:0.43464973 331:0.46895841 332:0.56411427 333:0.75488839 334:0.83573831 335:0.86117729 336:0.99501506 339:0.023817485 340:0.099724167 341:0.099247809 343:0.035665072 344:0.13490751 345:0.34442273 346:0.42308779 347:0.43003645 348:0.43493741 352:0.023580497 353:0.023113572 389:0.013419119 390:0.33839708 391:0.72928812 392:0.65123276 393:0.24592598 401:0.096725266 402:0.48781901 403:0.96986824 404:0.95914218 405:0.54010963 406:0.12265252 413:0.081656575 414:0.18098745 415:0.53203375 416:0.71595038 417:0.44704958 418:0.12022383 452:0.053201768 453:0.15288768 454:0.17684125 455:0.13500211 456:0.080708393 460:0.38406623 461:0.4583842 462:0.24755926 463:0.13571174 464:0.23430357 465:0.32541427 466:0.3105398 467:0.25441948 468:0.19030229 471:0.22004305 472:0.82800889 473:0.67622813 474:0.24755926 475:0.44526951 476:0.67071223 477:0.65778258 478:0.34629585 479:0.27937865 480:0.25591438 483:0.27695055 484:0.71497278 485:0.70988983 487:0.79145167 488:0.96436737 489:0.71488909 490:0.15270378 491:0.12460691 492:0.11325696 495:0.071373735 496:0.28883401 497:0.28311471 498:0.16586591 499:1 500:0.82368168 501:0.41798137 507:0.014874056 508:0.037402479 509:0.03666186 510:0.51853485 511:0.86711839 512:0.98818043 513:0.15926495 520:0.0012881467 521:0.0012626397 522:0.42970172 523:0.75692387 524:0.59014273 533:0.067750544 534:0.16832 535:0.28718554 536:0.11651184 545:0.13595479 546:0.14819983 547:0.14549426 557:0.066853709 558:0.13528066 559:0.13260192 600:0.2006003 612:0.40220611 624:0.39622795 663:0.1995998 664:0.1995998 666:0.2006003 667:0.19662815 675:0.1995998 676:0.20160581 677:0.4002001 678:0.99903436 679:0.59087004 688:0.19761375 689:0.4002001 690:0.99903436 691:0.794442 701:0.19662815 702:0.59087004 703:0.39032888 
-0.5048265141411367 0.867954253687205 0.5161621361700686 0.6617441204201332 28:0.22859852 29:0.22407197 39:0.35303992 40:0.73695878 41:0.5042797 43:0.33432964 44:0.60095727 45:0.26134805 51:0.8259546 52:0.97819938 53:0.95141525 55:0.6256696 56:0.89030089 57:0.71053948 63:0.97466546 64:0.97466546 65:0.93784438 66:0.11621316 67:0.5847865 68:0.74433888 69:0.57866477 75:0.98981218 76:1 77:0.98019867 78:0.46840405 79:0.64224921 80:0.60438811 81:0.098972351 87:0.95196927 88:0.98024288 89:0.96083277 90:0.84732211 91:0.83746214 92:0.55005536 99:0.46124171 100:0.70630878 101:0.69232293 102:0.6757872 103:0.70863629 104:0.22549611 112:0.22562526 113:0.36662621 114:0.60682919 115:0.59953311 116:0.45438879 117:0.44539129 125:0.18010099 126:0.36480645 127:0.3575828 128:0.4498788 129:0.4409706 172:0.087264449 173:0.085536497 184:0.087264449 185:0.087264449 187:0.089600645 188:0.15605949 189:0.087826433 196:0.085536497 197:0.085536497 199:0.087826433 200:0.15605949 201:0.15428528 207:0.0023016767 208:0.0023016767 212:0.065142877 213:0.065142877 219:0.020230265 220:0.020230265 221:0.0099856756 231:0.051253663 232:0.051253663 233:0.035366048 234:0.18639284 235:0.18447422 243:0.17321466 244:0.17321466 245:0.27762369 246:0.71793809 247:0.85498839 248:0.48626174 249:0.12746215 250:0.032435236 255:0.14004621 256:0.15898629 257:0.3978158 258:0.64988302 259:0.98594614 260:0.89552383 261:0.34170062 262:0.032435236 268:0.13865272 269:0.27284531 270:0.44870704 271:0.62821593 272:0.53524978 273:0.21141046 308:0.2063561 309:0.40906183 310:0.41844096 311:0.43827707 312:0.33822076 316:0.14546338 317:0.36651875 318:0.44601196 319:0.44489419 320:0.61494693 321:0.81801209 322:0.85384401 323:0.87795011 324:0.78148858 327:0.0061117974 328:0.17589849 329:0.38592621 330:0.43718033 331:0.44489419 332:0.56116915 333:0.75543031 334:0.83970574 335:0.86305336 336:0.88384256 339:0.0059907757 340:0.035575089 341:0.035454067 344:0.13003164 345:0.34202563 346:0.42581387 347:0.43148314 348:0.43516577 378:0.1164136 379:0.11533742 387:0.10758508 388:0.32315336 389:0.35181759 390:0.55091956 391:0.7404892 392:0.56722266 393:0.36008108 394:0.11782867 399:0.10758508 400:0.32315336 401:0.43107405 402:0.47603302 403:0.75382687 404:0.84055557 405:0.43751558 406:0.11782867 412:0.21249793 413:0.42253821 414:0.38067376 415:0.39020597 416:0.29824052 417:0.077216106 452:0.072580239 453:0.14817925 454:0.13534853 455:0.10275345 456:0.060850935 460:0.49033324 461:0.56128908 462:0.20641968 463:0.10058193 464:0.31268349 465:0.37967808 466:0.23346423 467:0.19198704 468:0.14416236 471:0.28126909 472:0.95407587 473:0.90786134 474:0.20641968 475:0.37568031 476:0.78499118 477:0.69432533 478:0.27806587 479:0.21136464 480:0.17709997 483:0.31453884 484:0.67226486 485:0.66630962 487:0.66119503 488:0.92395859 489:0.85767917 490:0.13207881 491:0.091859842 492:0.085367725 495:0.043413487 496:0.13969264 497:0.13692654 498:0.1225215 499:0.77700361 500:0.7214989 501:0.43828883 507:0.0067687468 508:0.0251133 509:0.024616024 510:0.3112929 511:0.63103401 512:0.75969812 513:0.13054059 520:0.0012415231 521:0.0012169393 522:0.21952431 523:0.47045099 524:0.4318048 531:0.17189326 532:0.22404624 533:0.13099923 534:0.11101029 535:0.11622949 536:0.089262633 537:0.014397579 538:0.0070738847 543:0.17189326 544:0.22404624 545:0.24879457 546:0.15920091 547:0.10507481 548:0.069774676 549:0.068888244 550:0.0070738847 556:0.19575324 557:0.24386811 558:0.15710784 559:0.10403253 560:0.055591449 561:0.054490665 600:0.25218551 612:0.49937741 624:0.24967622 663:0.24967622 664:0.24967622 666:0.25092773 667:0.24595903 675:0.49935245 676:0.49935245 677:0.50060395 678:0.99749071 679:0.49191806 687:0.24967622 688:0.49937741 689:0.74041681 690:1 691:0.74407866 700:0.2471919 701:0.4882562 702:0.73910996 703:0.4882562 
-0.370981074208712 -0.4416602797614101 0.3804495744912951 0.5571380949678312 12:0.052868648 22:0.13783771 23:0.14508204 24:0.10370152 32:0.12824839 33:0.34162413 34:0.39979771 35:0.23852223 36:0.14544308 38:0.25382063 39:0.3456713 40:0.12770467 44:0.47686747 45:0.68743544 46:0.56841207 47:0.25482772 48:0.041941163 50:0.46297136 51:0.75329396 52:0.5561595 54:0.18643312 55:0.43777875 56:0.84866717 57:0.70413922 58:0.66455065 59:0.060398362 62:0.23059223 63:0.59244654 64:0.69408322 65:0.10653868 66:0.44089233 67:0.93902932 68:1 69:0.55901368 70:0.50410799 74:0.02092188 75:0.16056375 76:0.40712332 77:0.24551897 78:0.51081191 79:0.87333914 80:0.86347955 81:0.51429181 82:0.50410815 87:0.0019789657 88:0.3511149 89:0.41093708 90:0.51785443 91:0.63218559 92:0.6219801 93:0.51429165 94:0.504108 100:0.20942842 101:0.26983582 102:0.51824923 103:0.51732966 104:0.51172697 105:0.51429167 106:0.50410801 114:0.51501577 115:0.51701424 116:0.50677667 117:0.38540077 118:0.37776933 126:0.25700746 127:0.38905432 128:0.38135053 129:0.12697227 130:0.12445805 139:0.12817927 140:0.12564115 167:0.0017265969 168:0.0017265969 169:0.048345552 170:0.096934351 171:0.047626676 179:0.001692408 180:0.0017265969 181:0.048345552 182:0.42185176 183:0.58821663 184:0.31233873 185:0.14455996 186:0.047625601 194:0.44827149 195:0.86722856 196:0.58607142 197:0.28984676 198:0.2417357 199:0.098009476 200:0.0017629618 206:0.23435566 207:0.81543966 208:0.8826494 209:0.36941082 210:0.2398258 211:0.14905146 212:0.052077223 218:0.10531323 219:0.58690642 220:1 221:0.52711556 222:0.02193138 223:0.066392114 224:0.065127195 231:0.10563905 232:0.67854457 233:0.87622065 234:0.41378493 235:0.10776382 236:0.021943199 244:0.29082272 245:0.67209988 246:0.87932363 247:0.4492952 248:0.093194572 257:0.20434774 258:0.5561101 259:0.45824652 260:0.10568694 270:0.060033339 271:0.064426461 272:0.063150732 283:0.04276752 284:0.041920667 299:0.27716471 300:0.42884504 309:0.022335114 310:0.42576868 311:1 312:0.84733211 313:0.094806607 314:0.19008843 315:0.093395121 320:0.11693203 321:0.31151602 322:0.59235398 323:0.73383284 324:0.96499124 325:0.094806607 326:0.38319525 327:0.57045432 328:0.47404156 329:0.28348458 330:0.093395402 331:0.14495769 332:0.40407742 333:0.43082031 334:0.52439549 335:0.30685752 336:0.12373037 338:0.28206504 339:0.47238124 340:0.47657092 341:0.56838996 342:0.55618406 343:0.61778446 344:0.48282946 345:0.50604594 346:0.31739806 351:0.059743602 352:0.20871659 353:0.4674665 354:0.47029654 355:0.57643862 356:0.49835909 357:0.11147725 363:0.066366958 364:0.066761495 365:0.026672076 367:0.093863766 368:0.092005139 375:0.019699766 376:0.046510697 377:0.12768326 378:0.12415652 379:0.030232237 388:0.032953284 389:0.34250418 390:0.59560735 391:0.33898074 392:0.10132383 398:0.25327801 399:0.48975285 400:0.45289432 401:0.50394977 402:0.6850421 403:0.45597583 404:0.10132383 410:0.25327801 411:0.48975285 412:0.47594885 413:0.47506572 414:0.36233043 415:0.17409126 416:0.05716002 422:0.12509662 423:0.3684981 424:0.35736853 425:0.11412493 427:0.05716002 428:0.056028176 443:0.074522428 444:0.18024914 453:0.098684029 454:0.50408405 455:0.64260866 456:0.45264182 464:0.10494093 465:0.63747041 466:1 467:0.78466393 468:0.54184955 470:0.036670165 471:0.036670165 472:3.6591156e-06 475:0.29745216 476:0.70032767 477:0.82981891 478:0.89319247 479:0.58768932 480:0.090962493 482:0.071183351 483:0.071551929 484:0.070135106 486:0.13161224 487:0.61520307 488:0.77828485 489:0.80132373 490:0.3969477 491:0.10829217 494:0.033829852 495:0.070814855 496:0.069412627 498:0.25300538 499:0.55721571 500:0.64365916 501:0.30853489 502:0.0047780276 510:0.12957101 511:0.30643045 512:0.30289334 513:0.004874774 514:0.004778247 522:0.012817805 523:0.22531186 524:0.22298287 525:0.0048739843 526:0.0047774729 533:0.14805702 534:0.41485973 535:0.26474214 536:0.094518853 537:0.0048752988 538:0.0047787614 542:0.062907999 543:0.13686636 544:0.18231111 545:0.32370506 546:0.54694703 547:0.34371747 548:0.091427048 549:0.0036528057 550:0.0035804753 554:0.062907999 555:0.13686636 556:0.18016347 557:0.28125668 558:0.35753499 559:0.23660718 560:0.07562528 561:0.0012024226 562:0.0011786131 566:0.029322784 567:0.09657976 568:0.10547904 569:0.038099209 571:0.074133062 572:0.072665129 588:0.33333056 600:0.33333056 601:0.33166806 602:0.33166806 608:0.33166806 609:0.33166806 612:0.32673017 613:0.33166806 614:1 615:0.99336653 616:0.32673017 620:0.33166806 621:0.33500138 622:0.32836791 626:0.66003597 627:0.98686441 628:0.32673017 630:0.33166806 631:0.33166806 633:0.32836791 634:0.32186579 642:0.33166806 643:0.33500138 644:0.32836791 655:0.32836791 656:0.32186579 678:0.33333056 679:0.33333056 680:0.33166806 681:0.33166806 686:0.33333056 687:0.32673017 690:0.65839823 691:0.65839823 692:0.33166806 693:0.33500138 694:0.32836791 698:0.33333056 699:0.33333056 702:0.33166806 703:0.33500138 704:0.32836791 705:0.32836791 706:0.32186579 710:0.32673017 711:0.32673017 715:0.32836791 716:0.32186579 
-0.3949053541571864 -0.4695676005647701 0.4096031939232997 0.5928517322421274 66:0.40650771 67:0.39845832 78:0.90364233 79:0.88574901 90:0.99157371 91:0.97193924 102:0.99099927 103:0.9878258 114:0.99980566 115:0.99501248 126:0.9846669 127:0.9846669 138:0.64582525 139:0.64582525 181:0.49865913 182:0.49370973 193:0.49865913 194:0.99486878 195:0.99609768 196:0.99359909 197:0.49371102 205:0.24500349 206:0.73994213 207:0.98872115 208:0.99487009 209:0.99609909 210:0.99359144 211:0.49370416 220:0.4912376 221:0.98129972 222:1 223:0.50498844 234:0.12243434 235:0.12000998 246:0.10999552 247:0.10999552 258:0.028181698 259:0.027623663 270:0.59131524 271:0.57960641 282:0.58847728 283:0.58847728 310:0.155289 311:0.62169719 312:0.71522912 321:0.10292652 322:0.49008265 323:0.85246623 324:1 325:0.32521214 326:0.32198428 332:0.12084746 333:0.27146075 334:0.3777729 335:0.6476575 336:0.98265893 337:0.32521214 338:0.64882795 339:0.64963008 340:0.6479983 341:0.32198402 342:0.14669703 343:0.37056935 344:0.34048689 345:0.26947184 346:0.22545846 347:0.050723854 349:0.15978458 350:0.48257061 351:0.64481967 352:0.64882833 353:0.64962797 354:0.64799879 355:0.64191702 356:0.41138024 357:0.12871071 358:0.034648886 364:0.32037084 365:0.63997625 366:0.64481898 367:0.582012 368:0.25715042 454:0.10558814 455:0.23453871 456:0.14381806 465:0.32178598 466:0.70484299 467:0.51205108 468:0.36921477 476:0.51223467 477:0.998061 478:0.81428734 479:0.62572166 480:0.36425486 486:0.11496012 487:0.59725731 488:0.9848722 489:1 490:0.81864894 491:0.15531688 498:0.35042077 499:0.82161516 500:0.76239728 501:0.49834837 502:0.16537879 510:0.25815684 511:0.52591106 512:0.2655005 522:0.077113697 523:0.077113697 534:0.013392468 535:0.01312728 546:0.020540831 547:0.020329321 558:0.015310524 559:0.015310524 570:0.0012598726 571:0.0012598726 600:0.99501248 612:0.99501248 613:0.99501248 614:0.97530991 624:0.97530991 625:0.99501248 626:0.99501248 637:0.97530991 638:0.97530991 642:1 643:0.99004983 654:0.99004983 655:0.99004983 702:0.99501248 703:0.97530991 714:0.99501248 715:0.99501248 
-0.3664160768083278 -0.4356795916986812 0.3795032967882709 0.5519473998930843 54:0.37533661 55:0.37533661 56:0.16139435 66:0.87091401 67:0.87091401 68:0.61507117 78:0.98501886 79:0.98501886 80:0.93139728 90:0.98341769 91:0.99207368 92:0.9724293 102:0.98686746 103:1 104:0.98019867 114:0.6750653 115:0.92500265 116:0.90668637 126:0.18157421 127:0.4254961 128:0.41707071 181:0.16763464 182:0.67054578 183:0.83401047 184:0.49874777 185:0.16431248 193:0.16431526 194:0.66057094 195:0.83486213 196:1 197:0.83400568 198:0.66720418 199:0.33111013 207:0.32945669 208:0.82243848 209:0.82741635 210:0.70491312 211:0.50740205 212:0.17197741 222:0.16431526 223:0.41162884 224:0.24241644 234:0.061432266 235:0.099369448 236:0.097401801 246:0.14292933 247:0.14292933 248:0.041806281 258:0.40666789 259:0.40828208 260:0.40019756 270:0.25886994 271:0.38756163 272:0.37988739 310:0.12212048 311:0.53590447 312:0.65142029 321:0.20251615 322:0.51729407 323:0.7281005 324:0.88237639 325:0.16763472 326:0.67054468 327:0.83400823 328:0.49875019 329:0.16431588 331:0.072882485 332:0.20400494 333:0.38780582 334:0.44577856 335:0.63589993 336:0.86696434 337:0.16431533 338:0.66056985 339:0.8348604 340:1 341:0.834007 342:0.81936562 343:0.82177789 344:0.55783781 345:0.43333809 346:0.24669796 347:0.066806991 351:0.32945506 352:0.82243925 353:0.82741762 354:0.80976335 355:0.80398197 356:0.72011429 357:0.2507715 366:0.16431596 367:0.32945556 368:0.16186961 378:0.18939261 379:0.18745401 387:0.19136545 388:0.55422772 389:0.76180576 390:0.69525166 391:0.42331331 392:0.090580116 397:0.20855478 398:0.62209886 399:0.81460761 400:0.77751995 401:0.82746379 402:0.78035354 403:0.41954488 404:0.08878651 409:0.20442512 410:0.60978047 411:0.81460761 412:0.77001742 413:0.68199424 414:0.31088286 454:0.11799029 455:0.27894696 456:0.18719208 465:0.45210617 466:0.8484845 467:0.64887779 468:0.43685676 475:0.14451681 476:0.45509604 477:0.91453108 478:0.91101265 479:0.79234389 480:0.43078449 486:0.26401008 487:0.66622568 488:0.74654709 489:0.90355814 490:0.61116228 491:0.1449959 498:0.29319074 499:0.54578675 500:0.84189988 501:0.43133784 510:0.033752334 511:0.10193578 512:0.099917321 522:0.26661044 523:0.26404928 524:0.0084139937 531:0.058054839 532:0.21324601 533:0.47228061 534:0.71095078 535:0.51288222 536:0.14171713 541:0.040945432 542:0.13325196 543:0.20299315 544:0.26570249 545:0.46793139 546:0.65861287 547:0.49919062 548:0.13080709 553:0.040134658 554:0.1306134 555:0.18498046 556:0.21988878 557:0.30611437 558:0.18525908 600:0.50374993 612:0.50374993 613:0.50374993 614:0.50374993 615:0.49377501 624:0.49377501 625:0.49377501 626:0.50374993 627:0.49377501 630:0.50123747 631:0.50123747 642:0.50123747 643:0.50627499 644:0.49625007 655:0.49625007 656:0.48642366 666:0.50123747 667:0.50123747 678:0.50123747 679:0.50627499 680:0.49625007 685:0.50374993 686:0.50374993 687:0.49377501 690:0.50374993 691:1 692:0.98019867 697:0.49377501 698:0.50374993 699:0.49377501 702:0.49377501 703:0.50374993 704:0.49377501 
-0.3557045996543172 -0.4237389962847258 0.3681150338861912 0.5364942543810868 39:0.38783541 40:0.38015576 51:0.6412274 52:0.72240592 53:0.16916699 55:0.34171064 56:0.33494431 63:0.25467954 64:0.58366503 65:0.43128469 67:0.8361175 68:0.81956126 76:0.3417808 77:0.45630383 78:0.11432048 79:0.97949968 80:0.96010429 88:0.079808531 89:0.20974148 90:0.12807691 91:0.98291096 92:0.97771165 101:0.014596154 102:0.014596154 103:1 104:0.99303903 115:0.98585235 116:0.98585235 127:0.48595896 128:0.48595896 170:0.061894111 171:0.060668525 182:0.12378822 183:0.43574784 184:0.43168743 185:0.24573181 186:0.12225369 194:0.060668525 195:0.59027149 196:0.75146213 197:0.40889902 198:0.30854879 199:0.30670496 200:0.12225326 207:0.21737442 208:0.68088224 209:0.60748531 210:0.30488417 211:0.36739004 212:0.18414569 220:0.50112502 221:0.94749844 222:0.44481685 223:0.083278885 224:0.083278885 232:0.14021528 233:0.73612878 234:1 235:0.45802733 236:0.035400067 245:0.15266702 246:0.70520922 247:0.79355173 248:0.24445297 258:0.12446964 259:0.4443512 260:0.31755398 271:0.088095976 272:0.088095976 310:0.055132505 311:0.32688904 312:0.51623691 314:0.16258875 315:0.15936928 321:0.089019157 322:0.25441461 323:0.43358779 324:0.62476624 326:0.32517743 327:0.68654188 328:0.68495137 329:0.64551385 330:0.32114663 331:0.13547604 332:0.362598 333:0.36204788 334:0.24734353 335:0.31494906 336:0.21112987 338:0.15936928 339:0.52232734 340:0.68491631 341:0.80810233 342:0.81052652 343:0.92822794 344:0.82502555 345:0.59184269 346:0.24942136 347:0.045587744 351:0.037827452 352:0.19719704 353:0.47890709 354:0.8008999 355:0.96509908 356:0.87100893 357:0.4407473 358:0.05781445 365:0.028265465 366:0.027984919 367:0.15936978 368:0.15936978 377:0.069345809 378:0.25462432 379:0.18329631 389:0.34207891 390:0.74922971 391:0.4921153 392:0.25726181 398:0.20586123 399:0.81205689 400:0.97662749 401:0.90793122 402:0.84758178 403:0.58645158 404:0.25586429 410:0.20586123 411:0.80409047 412:0.99906908 413:0.90479804 414:0.77679715 415:0.25955399 423:0.40365439 424:0.39961863 454:0.15037171 455:0.41701263 456:0.3365568 465:0.32196061 466:0.77722289 467:0.71969441 468:0.6354744 475:0.11076914 476:0.56390942 477:0.933164 478:0.79170172 479:0.76259794 480:0.44183561 487:0.44873807 488:0.89448362 489:1 490:0.77750245 491:0.15592072 499:0.36606996 500:0.61929702 501:0.51836057 502:0.14503663 511:0.12687212 512:0.12687212 523:0.011533268 524:0.011304894 533:0.19093629 534:0.43548551 535:0.38967976 536:0.27099921 542:0.045860582 543:0.19727546 544:0.27289489 545:0.39182563 546:0.51003502 547:0.48808165 548:0.2665534 554:0.045860582 555:0.19521982 556:0.26841512 557:0.34040053 558:0.44365897 559:0.21463512 567:0.092063237 568:0.091164172 600:0.50250626 602:0.5 603:0.49009934 612:0.49750624 614:0.5 615:0.99750624 616:0.49750624 626:0.49009934 627:0.98760558 628:0.49750624 631:0.5 632:0.49009934 643:0.5 644:0.5 655:0.49009934 656:0.49009934 679:0.50250626 680:0.49750624 686:0.49750624 687:0.49750624 691:0.99506223 692:0.99501248 698:0.49750624 699:0.50250626 700:0.49255597 703:0.49750624 704:0.49750624 711:0.49255597 712:0.48280271 
-0.3954790579326985 -0.469826761436595 0.4089113477535631 0.5938606821640953 14:0.15242806 15:0.14940978 16:0.017991708 17:0.079141301 18:0.068755189 19:0.030340078 20:0.02228431 25:0.11107169 26:0.26161705 27:0.18023412 28:0.18929095 29:0.40849707 30:0.40111323 31:0.37688563 32:0.22605493 37:0.22270013 38:0.28002992 39:0.27559806 40:0.46692413 41:0.53868007 42:0.55343716 43:0.81741873 44:0.51435073 45:0.15281512 49:0.10941805 50:0.22159495 51:0.32735803 52:0.64792187 53:0.63751539 54:0.57925703 55:0.91954663 56:0.62752395 57:0.32776918 63:0.33141928 64:0.81391435 65:0.85551566 66:0.87773783 67:0.9806874 68:0.60917275 69:0.3818295 71:0.0042078481 72:0.0042078481 75:0.14780061 76:0.80462431 77:0.94976127 78:0.98019378 79:0.96132466 80:0.74930424 81:0.60570479 82:0.22103257 83:0.26904587 84:0.15665433 86:0.014751992 87:0.014751992 88:0.64797041 89:0.78852024 90:0.88759399 91:0.86945643 92:0.84171068 93:0.76290219 94:0.51211967 95:0.55147171 96:0.32451299 98:0.14012592 99:0.13930936 100:0.3423197 101:0.5727307 102:0.54759343 103:0.64156865 104:0.77779568 105:0.62305395 106:0.60951433 107:0.60166224 108:0.21745632 110:0.12289136 111:0.13901431 112:0.14436556 113:0.18428385 114:0.17891684 115:0.29534838 116:0.40056604 117:0.25863043 118:0.36569064 119:0.46814049 120:0.15161363 130:0.10611551 131:0.20707769 132:0.098962997 158:0.14824 159:0.253443 160:0.25645045 161:0.23690235 162:0.4231071 163:0.45388186 164:0.11983075 170:0.21948652 171:0.32766284 172:0.2592081 173:0.3450954 174:0.70208114 175:0.83353086 176:0.58240351 181:0.071905273 182:0.25006955 183:0.32082178 184:0.28256315 185:0.69801646 186:0.80935499 187:0.98608386 188:0.67626561 189:0.090530896 193:0.070481453 194:0.18631134 195:0.28387582 196:0.4911103 197:1 198:0.96878618 199:0.81146577 200:0.36531566 201:0.16627622 207:0.17497052 208:0.47827387 209:0.72301837 210:0.8114819 211:0.6690405 212:0.29049921 213:0.14936059 214:0.0072236783 215:0.191507 216:0.18312199 219:0.092108432 220:0.40921638 221:0.44358624 222:0.49767156 223:0.51472667 224:0.28102148 225:0.14410352 226:0.104182 227:0.33964173 228:0.33225 230:0.0052374108 231:0.094167028 232:0.48066209 233:0.79190409 234:0.74260114 235:0.49049612 236:0.25422509 237:0.12482741 238:0.11154523 239:0.14536856 240:0.32946948 242:0.20054152 243:0.289973 244:0.40179237 245:0.75829964 246:0.77146219 247:0.54445212 248:0.26638183 249:0.12025916 250:0.37218438 251:0.28696206 252:0.0010146548 254:0.19143683 255:0.23042318 256:0.30404261 257:0.38700106 258:0.46285624 259:0.47337261 260:0.27511566 261:0.11090292 262:0.35388373 263:0.33035821 264:0.11571893 270:0.071954086 271:0.13492754 272:0.10542802 273:0.05817723 274:0.13377938 275:0.23348553 276:0.11342754 302:0.29297545 303:0.63542028 304:0.68738209 305:0.67859159 306:0.62287326 307:0.28690706 308:0.034891813 313:0.078696507 314:0.5530018 315:0.90549766 316:0.81753058 317:0.72078431 318:0.69707396 319:0.4734874 320:0.11690472 325:0.13307939 326:0.56323814 327:0.9281561 328:0.87592954 329:0.71951669 330:0.60388495 331:0.30455854 332:0.080388942 337:0.053306027 338:0.29910883 339:0.83253281 340:0.877121 341:0.7744762 342:0.4725088 343:0.04431113 351:0.17668042 352:0.34830905 353:0.37401478 354:0.20055534 357:0.16108482 358:0.34721068 359:0.32857854 360:0.14101128 366:0.10013305 367:0.46546987 368:0.63926702 369:0.69788648 370:0.86209734 371:0.69814632 372:0.42792928 374:0.091227935 375:0.25762374 376:0.22187175 377:0.21720324 378:0.34698316 379:0.54748401 380:0.81048535 381:0.79439109 382:0.77955718 383:0.87483879 384:0.42323567 386:0.21027238 387:0.56650619 388:0.6915429 389:0.63891832 390:0.69262668 391:0.64168492 392:0.88575967 393:1 394:0.75075543 395:0.38576806 398:0.11668721 399:0.39381896 400:0.68531026 401:0.50638453 402:0.57498019 403:0.69113846 404:0.74860625 405:0.98459222 406:0.93542572 407:0.42496891 408:0.032782893 414:0.14062204 415:0.29006 416:0.31739982 417:0.346931 418:0.36340947 419:0.21558964 420:0.032133748 446:0.19627534 447:0.19517295 448:0.11019312 449:0.28319227 450:0.17067806 451:0.0080485449 457:0.085036901 458:0.29699209 459:0.30285539 460:0.64370347 461:0.82735287 462:0.49885887 463:0.055144211 469:0.085096425 470:0.10551742 471:0.21472305 472:0.72312343 473:1 474:0.58075791 475:0.046163109 481:5.8345185e-05 482:0.10342922 483:0.11336636 484:0.37702786 485:0.48875023 486:0.12453519 495:0.01137561 496:0.029381993 497:0.040171448 498:0.021976667 499:0.0090354718 500:0.0090354718 501:0.067601742 502:0.081106949 503:0.01414987 510:0.21268816 511:0.24795567 512:0.29219795 513:0.36574123 514:0.28703509 515:0.34732925 516:0.22925139 518:0.10338058 519:0.10338058 520:0.074567883 521:0.074567883 522:0.28788078 523:0.37417862 524:0.61047608 525:0.56116378 526:0.48775877 527:0.60946525 528:0.36153225 530:0.28732459 531:0.29212445 532:0.28012041 533:0.15510407 534:0.11487668 535:0.20875147 536:0.59141129 537:0.63452718 538:0.53720774 539:0.51073111 540:0.19411237 542:0.18030168 543:0.28659988 544:0.27809371 545:0.15361269 546:0.11260197 547:0.070233171 548:0.32667712 549:0.41812945 550:0.34833701 551:0.39330462 552:0.13485773 562:0.076013207 563:0.14898301 564:0.071589765 593:0.25155737 594:0.25155737 605:0.25155737 606:0.25408556 607:0.24905433 615:0.2528183 616:0.50690386 617:0.49936953 618:0.24905433 619:0.24412272 627:0.24781217 628:0.50437567 629:0.49936953 654:0.2528183 655:0.50563661 656:0.75218783 657:0.49936953 658:0.2528183 659:0.50690386 660:0.49936953 666:0.75344877 667:0.9962548 668:1 669:0.49936953 670:0.24781217 671:0.50437567 672:0.49936953 678:0.50063047 679:0.74844263 680:0.75218783 681:0.50187263 682:0.50563661 683:0.24781217 690:0.24781217 691:0.24781217 692:0.50437567 693:0.49936953 694:0.50563661 695:0.50063047 706:0.24781217 707:0.24781217 
-0.3982490579939774 -0.475917385014164 0.410772663317269 0.6005186515373299 15:0.019758753 16:0.080897988 17:0.059928598 18:0.040032076 19:0.081231628 20:0.16765718 21:0.12727343 22:0.059855344 27:0.13862412 28:0.32115625 29:0.18008584 30:0.14708239 31:0.18679086 32:0.30400341 33:0.26378001 34:0.19306861 35:0.16001448 36:0.15684598 39:0.2782804 40:0.51726318 41:0.32006811 42:0.19598159 43:0.24567635 44:0.13634884 45:0.20395617 46:0.19991757 47:0.32242701 48:0.31604253 51:0.31220648 52:0.48792636 53:0.35883175 54:0.40191651 55:0.2053178 57:0.068002286 58:0.066655751 59:0.32133815 60:0.32133815 63:0.37386291 64:0.59426714 65:0.63243425 66:0.49702104 67:0.19589039 69:0.082171066 70:0.08054397 71:0.21942188 72:0.21942188 75:0.38007003 76:0.70670513 77:0.80611944 78:0.49633499 79:0.16746324 81:0.24692508 82:0.24203564 83:0.059706197 84:0.059706197 87:0.3233799 88:0.667587 89:0.9686762 90:0.50985729 91:0.12935635 92:0.012416853 93:0.32623751 94:0.32623751 99:0.34741678 100:0.65133952 101:1 102:0.66108504 103:0.31602095 104:0.01239392 105:0.16230521 106:0.16230521 111:0.38082205 112:0.50877229 113:0.54943292 114:0.48924989 115:0.2968577 123:0.21528971 124:0.29991693 125:0.082951495 126:0.066177583 127:0.066177583 135:0.068996553 136:0.11448116 137:0.044583954 160:0.085039618 161:0.083355721 164:0.43180356 165:0.43135458 166:0.31779864 172:0.255543 173:0.25048291 176:0.5409954 177:0.54074253 178:0.46380804 179:0.001756816 180:0.0017393354 183:0.02897618 184:0.36686783 185:0.33804769 186:0.083355088 188:0.11480944 189:0.20084511 190:0.19687181 191:0.017207473 192:0.016866742 195:0.13781941 196:0.38810037 197:0.33889964 198:0.25048414 201:0.052523316 202:0.051486919 203:0.23403952 204:0.22940523 207:0.75408632 208:0.82888887 209:0.48457647 210:0.16547022 215:0.22985649 216:0.22985649 219:0.63310983 220:0.71687279 221:0.31576353 222:0.0048898809 225:0.065000446 226:0.063713351 227:0.12961556 228:0.12961556 231:0.0068855431 232:0.0068855431 233:0.72152116 234:0.71905585 235:0.26437688 237:0.13000089 238:0.13000089 239:0.063713351 243:0.13920356 244:0.13927276 245:0.8463525 246:0.99536422 247:0.81428252 249:0.063713351 250:0.1287138 251:0.063713351 255:0.55078261 256:0.60684388 257:0.19350935 258:0.61198813 259:0.60284839 267:0.42013678 268:0.48278764 269:0.28529278 270:0.058183867 271:0.058183867 279:0.14266626 280:0.42677312 281:0.27964361 307:0.36160497 308:0.75323639 309:0.58581162 310:0.18731502 318:0.06684181 319:0.42062474 320:0.8421366 321:0.8042 322:0.62423461 323:0.51350581 324:0.38473823 330:0.1987625 331:0.55248699 332:0.70181654 333:0.68256219 334:0.66098059 335:0.62394449 336:0.38473823 340:0.025624494 341:0.028479412 342:0.14487759 343:0.49142077 344:0.58828798 345:0.67642843 346:0.52834871 347:0.11994258 348:0.11865371 351:0.20188375 352:0.51235935 353:0.50357539 354:0.15627175 355:0.24787256 356:0.21069988 357:0.18291358 358:0.42612508 359:0.36169972 360:0.19585793 363:0.19788618 364:0.47709686 365:0.50300636 366:0.12062567 367:0.47585242 368:0.67719073 369:0.56471642 370:0.589287 371:0.39535345 372:0.19347199 376:0.15641055 377:0.17121292 378:0.023901666 379:0.50255176 380:0.90423547 381:0.97747067 382:0.86991576 383:0.33153762 387:0.11618887 388:0.50720914 389:0.47639264 390:0.28449999 391:0.24826768 392:0.58220058 393:0.67959573 394:0.49860626 395:0.16164378 399:0.28169633 400:0.8849471 401:0.82583766 402:0.41769062 403:0.2261567 404:0.195566 405:0.11904067 411:0.16722398 412:0.54051061 413:0.68919226 414:0.4914875 415:0.23601036 416:0.040403888 424:0.3586054 425:0.64748234 426:0.34871847 427:0.05883179 447:0.091350805 448:0.19176856 449:0.098429353 450:0.067458022 451:0.2961446 452:0.22914374 453:0.026715922 459:0.32599025 460:0.42508775 461:0.27496905 462:0.27283921 463:0.49706689 464:0.40385994 465:0.28813054 466:0.28884044 467:0.12859343 468:0.054065111 471:0.26993993 472:0.45446566 473:0.35252808 474:0.58943054 475:0.69367841 476:0.41981519 477:0.38673935 478:0.40712749 479:0.19925434 480:0.060559147 483:0.10205166 484:0.18338996 485:0.57103364 486:0.91896459 487:0.83319741 488:0.3518988 489:0.36313564 490:0.33226131 491:0.1674871 492:0.16581928 495:0.013661719 496:0.28474024 497:0.73935884 498:1 499:0.77486364 500:0.19829176 501:0.12959156 502:0.3446593 503:0.37957333 504:0.24252543 507:0.019534878 508:0.17642245 509:0.44674966 510:0.5964665 511:0.32692208 512:0.32894527 513:0.30680921 514:0.40276143 515:0.36141061 516:0.23922208 519:0.0072399299 520:0.1136026 521:0.26105714 522:0.55792773 523:0.71586442 524:0.68175471 525:0.57207245 526:0.46252845 527:0.13009588 531:0.25406194 532:0.56128501 533:0.51088853 534:0.60093365 535:0.7993496 536:0.84859265 537:0.63263126 538:0.2072843 543:0.27280772 544:0.53129631 545:0.58556406 546:0.6850099 547:0.57858914 548:0.48256858 549:0.28991805 555:0.08022692 556:0.19091683 557:0.31457168 558:0.4795836 559:0.44313049 560:0.090976279 568:0.015037364 569:0.13924657 570:0.2085551 571:0.083573546 592:0.16763516 593:0.16431576 596:0.16763516 597:0.16763516 598:0.16431576 604:0.16763516 605:0.16763516 608:0.33111484 609:0.33111484 610:0.16431576 611:0.16847544 612:0.16679908 616:0.16431576 617:0.16431576 618:0.16679908 619:0.16679908 620:0.16679908 621:0.16847544 622:0.1651394 623:0.16679908 624:0.16679908 628:0.16763516 629:0.33527032 630:0.33111484 631:0.16847544 632:0.1651394 633:0.1651394 634:0.16186942 635:0.33443424 636:0.33111484 639:0.16763516 640:0.50042636 641:0.66638516 642:0.33195092 643:0.1651394 644:0.16186942 645:0.16763516 646:0.16431576 647:0.33443424 648:0.3361106 651:0.16431576 652:0.33443424 653:0.4954306 654:0.16431576 655:0.16763516 656:0.16431576 657:0.16763516 658:0.16763516 659:0.16431576 660:0.32945516 665:0.3361106 666:0.32945516 667:0.16763516 668:0.33195092 669:0.50042636 670:0.49875 671:0.16431576 675:0.16763516 676:0.50374576 677:0.99998332 678:0.66554908 679:0.16431576 680:0.33195092 681:0.49377093 682:0.33443424 683:0.16431576 687:0.3327912 688:0.65891032 689:0.82986484 690:0.4954306 692:0.16431576 693:0.16431576 699:0.16679908 700:0.16679908 
-0.3969759046073661 -0.4722025788250116 0.41098297008972 0.5970675827977743 23:0.3218391 24:0.31546626 30:0.19416256 31:0.26122472 32:0.10242919 35:0.63026198 36:0.61778196 40:0.10749925 41:0.10632842 42:0.19209335 43:0.44055347 44:0.32499102 46:0.28937575 47:0.76372047 48:0.76080323 52:0.40289529 53:0.39587523 54:0.04788918 55:0.43763697 56:0.49279002 57:0.10711696 58:0.38780609 59:0.69266838 60:0.68490327 64:0.60752414 65:0.59549436 66:0.23835638 67:0.76677913 68:0.80696813 69:0.28935214 70:0.099340772 71:0.24198423 72:0.23719262 76:0.63520691 77:0.62331956 78:0.49404587 79:0.91577427 80:0.95419911 81:0.52922442 82:0.20775743 88:0.63176565 89:0.63176565 90:0.57649972 91:0.82183776 92:0.75638392 93:0.59892103 94:0.34953314 100:0.56775767 101:0.56775767 102:0.64129463 103:0.62859615 104:0.50693342 105:0.66969292 106:0.42453008 112:0.56213034 113:0.55750978 114:0.79407297 115:0.63253321 116:0.20943511 117:0.43107615 118:0.33142347 124:0.32552089 125:0.44561792 126:0.70658092 127:0.38269167 129:0.049962706 130:0.048973378 137:0.16234948 138:0.23673611 139:0.07760136 154:0.016347855 155:0.016328004 166:0.016347855 167:0.031847387 168:0.030537929 174:0.15618607 175:0.24478253 176:0.086842134 178:0.00098269464 179:0.031520624 180:0.030237095 184:0.0043679997 185:0.0043598706 186:0.15483896 187:0.53811883 188:0.37765674 196:0.0042815075 197:0.0043598706 198:0.0034807059 199:0.51409049 200:0.60832122 201:0.19885091 202:0.024519536 203:0.024303193 204:0.0087065069 211:0.31441247 212:0.67759971 213:0.48991393 214:0.024034017 215:0.024303193 216:0.0087065069 220:0.022187474 221:0.021748132 223:0.51066339 224:1 225:0.67486757 226:0.15449442 232:0.08317903 233:0.081531975 234:0.0012213228 235:0.41210736 236:0.89591057 237:0.79807003 238:0.18791665 244:0.18290016 245:0.1792785 246:0.023897788 247:0.02342458 248:0.47464601 249:0.66979327 250:0.19838275 256:0.24196216 257:0.24020621 258:0.084388014 259:0.041663178 260:0.21434961 261:0.36087957 262:0.26440049 268:0.12026093 269:0.18053379 270:0.15149085 271:0.031364611 273:0.1016417 274:0.099629058 281:0.077388792 282:0.075868752 297:0.1272591 298:0.39823415 299:0.26828551 307:0.1199941 308:0.36432947 309:0.58868388 310:0.61535804 311:0.63950612 312:0.25573367 317:0.071064648 318:0.21404104 319:0.31694216 320:0.41485104 321:0.45362844 322:0.5656932 323:0.63161873 324:0.25308418 325:0.09918362 326:0.31962432 327:0.4751737 328:0.5403469 329:0.46692073 330:0.32791847 331:0.29003753 332:0.29255755 333:0.12975827 337:0.09918362 338:0.31962432 339:0.47008772 340:0.52991046 341:0.47968461 342:0.28927448 343:0.22306111 344:0.42704549 345:0.47011274 346:0.52737047 347:0.39535775 348:0.12901839 350:0.23784454 351:0.47332847 352:0.23548393 353:0.013157044 354:0.017396466 355:0.23880353 356:0.42132562 357:0.48639457 358:0.51692783 359:0.39535775 360:0.12901839 362:0.45308523 363:0.90663544 364:0.6749357 365:0.55978244 366:0.58662542 367:0.54658557 368:0.64190684 369:0.45005774 370:0.12678696 373:0.096236855 374:0.41816912 375:0.87200537 376:0.78996007 377:0.55943033 378:0.56610181 379:0.57448008 380:0.49355397 381:0.38065268 382:0.12678696 385:0.094331238 386:0.29922423 387:0.51437213 388:0.43181416 389:0.43551326 390:0.43734661 391:0.47251655 392:0.51373632 393:0.39213445 394:0.12436893 398:0.21923575 399:0.54942681 400:0.59700511 401:0.52762874 402:0.61805024 403:0.60220961 404:0.50356366 405:0.39213445 406:0.12436893 410:0.2148946 411:0.43395974 412:0.59224981 413:0.59326257 414:0.53870777 415:0.26588401 425:0.26760301 426:0.43603267 427:0.16861119 441:0.020143694 442:0.03202029 443:0.011641424 451:0.21763077 452:0.47245291 453:0.3899517 454:0.2152884 455:0.091547576 456:0.017289942 461:0.27714896 462:0.65335263 463:0.70416512 464:0.63223896 465:0.4252143 466:0.21465035 467:0.11499159 468:0.047941663 469:0.049481825 470:0.13902097 471:0.13563792 472:0.51326433 473:0.88095757 474:0.84019675 475:0.73378293 476:0.53563269 477:0.1998552 478:0.09737595 479:0.14962274 480:0.08771947 481:0.049481825 482:0.13902097 483:0.16918602 484:0.64926486 485:0.87684721 486:0.86657752 487:0.33890454 488:0.47047918 489:0.25081166 490:0.27365017 491:0.28152598 492:0.26793038 494:0.097734609 495:0.13617773 496:0.32546742 497:0.44990852 498:0.45286115 499:0.78711123 500:0.58234962 501:0.34165593 502:0.17328904 503:0.21608089 504:0.20302903 506:0.13783486 507:0.2542938 508:0.22796897 509:0.20610593 510:0.77922289 511:0.84599125 512:0.64134251 513:0.13539564 514:0.0097330766 517:0.078429237 518:0.22396799 519:0.32710257 520:0.23737391 521:0.18261779 522:0.50820066 523:0.62424608 524:0.21951977 525:0.046350213 526:0.0097330766 529:0.076876234 530:0.18053885 531:0.25531796 532:0.14550773 533:0.1371407 534:0.23394131 535:0.23733481 536:0.097621311 537:0.026777407 542:0.15511837 543:0.36345398 544:0.32020177 545:0.18431348 546:0.42916458 547:0.34556498 548:0.097621311 549:0.026777407 554:0.15204682 555:0.29063596 556:0.31807877 557:0.19722529 558:0.35362522 559:0.3345622 569:0.014711105 570:0.2511796 571:0.23415483 599:0.50125 600:0.49626248 606:0.49875 607:0.49875 608:0.48887409 611:0.49626248 612:0.49626248 613:0.49626248 614:0.49626248 616:0.49875 617:0.49875 618:0.48887409 619:0.49875 620:0.48887409 625:0.49626248 626:0.50125 627:0.49132458 628:0.48887409 629:0.49875 630:0.48887409 631:0.49875 632:0.48887409 638:0.49875 639:0.98513657 640:0.49626248 643:0.49875 644:0.49875 650:0.49875 651:0.98513657 652:0.50125 653:0.49132458 655:0.48887409 656:0.99501248 657:0.99501248 658:0.48887409 661:0.49875 662:0.98762409 663:0.97774818 664:0.49132458 665:0.4815957 668:0.98513657 669:1 670:0.98019867 673:0.48887409 674:0.49875 675:0.48887409 676:0.49875 677:0.48887409 678:0.50125 679:0.49626248 680:0.99501248 681:0.99501248 682:0.97046979 686:0.50125 687:0.49626248 688:0.49875 689:0.49875 690:0.99257458 691:0.99252495 692:0.98513657 693:1 694:0.98019867 698:0.49626248 699:0.49626248 700:0.48887409 701:0.48887409 702:0.49626248 703:0.49626248 705:0.49132458 706:0.4815957 
-0.3969345545361494 -0.47016900415607 0.4088885729564536 0.5960817597724136 14:0.040127815 15:0.039333231 16:0.094895265 17:0.094895265 18:0.12254554 19:0.29686875 20:0.33434672 21:0.15953823 26:0.13645602 27:0.13549754 28:0.28762988 29:0.28678137 30:0.31304395 31:0.48582657 32:0.61508807 33:0.35108578 38:0.19266565 39:0.19161148 40:0.38191372 41:0.38195297 42:0.40884881 43:0.50562728 44:0.84685083 45:0.38492721 50:0.098244869 51:0.099232247 52:0.38559629 53:0.38315909 54:0.37097005 55:0.37200632 56:0.7557133 57:0.3910732 62:0.14601929 63:0.15701723 64:0.47899872 65:0.4775515 66:0.36511701 67:0.50378528 68:0.75287499 69:0.39113358 74:0.21862827 75:0.21848843 76:0.37598148 77:0.42520074 78:0.41708609 79:0.7049135 80:0.89460942 81:0.48130242 83:0.060968786 84:0.059761523 86:0.16854965 87:0.16711717 88:0.099686812 89:0.28055949 90:0.53000223 91:0.75719882 92:0.98865876 93:0.57572882 95:0.25489142 96:0.24984423 98:0.096207071 99:0.097173969 100:0.095249795 101:0.18244829 102:0.35797617 103:0.61771407 104:1 105:0.67810464 107:0.39017138 108:0.38244547 111:0.095249795 112:0.093363723 113:0.043284997 114:0.090280263 115:0.23856619 116:0.79793425 117:0.65955671 119:0.39152396 120:0.39016464 128:0.27369482 129:0.2717798 131:0.29123333 132:0.29123333 143:0.095277479 144:0.095277479 158:0.0099307526 159:0.019911283 160:0.0097829029 161:0.015896742 162:0.20611413 163:0.33561792 164:0.2611648 165:0.11362997 170:0.16546667 171:0.19638313 172:0.043882034 173:0.025361004 174:0.22576103 175:0.35497672 176:0.39614696 177:0.17860251 182:0.1748137 183:0.21569082 184:0.079891921 185:0.018164052 186:0.10919705 187:0.32867941 188:0.34506665 189:0.12704279 194:0.042098665 195:0.11758051 196:0.078729745 197:0.011747245 198:0.26420996 199:0.4020212 200:0.14560358 201:0.010069729 206:0.039948881 207:0.051697955 208:0.12210213 209:0.10928245 210:0.23726679 211:0.68184429 212:0.63927748 213:0.17401632 218:0.11177653 219:0.13532805 220:0.28984262 221:0.35295013 222:0.20224439 223:0.6625885 224:1 225:0.53208719 226:0.46978522 227:0.38729867 228:0.11047097 230:0.16381507 231:0.18959098 232:0.22906483 233:0.61283025 234:0.51816203 235:0.43033497 236:0.66085248 237:0.5821617 238:0.48742379 239:0.50466409 240:0.17208959 242:0.093394764 243:0.10735883 244:0.11961439 245:0.48593339 246:0.63832923 247:0.55041901 248:0.49852832 249:0.165785 250:0.10204912 251:0.27190705 252:0.16868199 255:0.1016458 256:0.10436739 257:0.12515876 258:0.35449475 259:0.60681207 260:0.7024116 261:0.46327315 262:0.33758847 263:0.11834428 264:0.0090810564 271:0.11609263 272:0.45909945 273:0.52913509 274:0.49256639 275:0.3817404 276:0.079166109 285:0.067872409 286:0.36682966 287:0.37255448 288:0.074324523 302:0.15484435 303:0.22868487 304:0.20319553 305:0.2849846 306:0.22635032 307:0.36504481 308:0.44014111 309:0.14788391 314:0.35268424 315:0.73613407 316:0.59159049 317:0.36415103 318:0.30232496 319:0.36195277 320:0.44221683 321:0.29755926 326:0.26530574 327:0.88805131 328:0.90419404 329:0.59353615 330:0.29633853 331:0.20904362 332:0.21103453 333:0.14671158 338:0.068600591 339:0.44232209 340:0.76702131 341:0.38760517 342:0.01298002 343:0.022560278 344:0.0093905562 350:0.10853901 351:0.33282962 352:0.60700911 353:0.37760893 354:0.072999505 355:0.22730551 356:0.28885234 357:0.075893437 362:0.24485727 363:0.55286504 364:0.68017629 365:0.44445585 366:0.072999505 367:0.34599659 368:0.4056252 369:0.29682092 370:0.27306455 371:0.21346698 372:0.061555778 374:0.26388091 375:0.72234673 376:0.8336005 377:0.51962492 378:0.16135649 379:0.16831382 380:0.32985567 381:0.26486583 382:0.27017264 383:0.26958705 384:0.14109435 386:0.12708783 387:0.43060168 388:0.59994131 389:0.60300687 390:0.44304579 391:0.22891794 392:0.078761503 394:0.046987409 395:0.18683825 396:0.1383005 399:0.14908827 400:0.29727799 401:0.30229191 402:0.30308831 403:0.24739868 404:0.19316333 405:0.2875064 406:0.20500433 407:0.03574344 415:0.020363375 416:0.13530862 417:0.28406545 418:0.32273866 419:0.21339144 420:0.09094745 429:0.052281792 430:0.1725335 431:0.21182588 432:0.09094745 446:0.13731166 447:0.13476065 448:0.22658594 449:0.24206182 450:0.016987697 451:0.20405143 452:0.20217645 453:0.0043963816 458:0.26678793 459:0.62769205 460:0.82648257 461:0.67324212 462:0.16091754 463:0.23302054 464:0.22161914 465:0.11096803 470:0.31774693 471:0.90463703 472:0.83716701 473:0.83956319 474:0.17896739 475:0.093100723 476:0.20548741 477:0.11528578 482:0.19083447 483:0.41788299 484:0.58219328 485:0.19012888 486:0.023048512 487:0.027855334 488:0.053295578 489:0.030104305 494:0.35975966 495:0.65008901 496:0.52927687 497:0.17061897 498:0.14498799 499:0.27786348 500:0.16214912 501:0.03460757 506:0.35432362 507:0.35839044 508:0.47839553 509:0.34405729 510:0.16667612 511:0.35257797 512:0.36554218 513:0.042364419 514:0.010051426 515:0.1350509 516:0.12252432 518:0.28287397 519:0.39956584 520:0.5731796 521:0.36416849 522:0.17157201 523:0.32973972 524:0.35395099 525:0.027116629 526:0.010051426 527:0.22596647 528:0.21775407 530:0.28006632 531:0.38858134 532:0.48501508 533:0.18032939 534:0.31504998 535:0.32527976 536:0.29475726 537:0.048821268 539:0.22520605 540:0.225009 543:0.13967959 544:0.24766555 545:0.15376 546:0.17262542 547:0.29223687 548:0.30963763 549:0.14552574 550:0.066060678 551:0.010141749 552:0.010141749 560:0.056422261 561:0.11781487 562:0.1992025 563:0.33465253 564:0.33003011 574:0.16360295 575:0.33298345 576:0.32967845 592:0.25061875 593:0.25061875 604:0.50375626 605:0.50375626 606:0.24812505 616:0.75313754 617:0.74936255 618:0.24321185 628:0.50249373 629:0.50249373 630:0.25061875 631:0.50249373 632:0.24688752 640:0.50374996 641:0.4987625 642:0.25061875 643:0.50501249 644:0.75190001 645:0.49501257 652:0.4987625 653:0.50374996 654:0.24688752 655:0.49501257 656:0.9925931 657:0.50249373 659:0.25187498 660:0.24688752 664:0.24688752 665:0.50501249 666:0.49501257 668:0.24688752 669:0.24688752 671:0.25187498 672:0.25187498 677:0.50249373 678:0.74197435 679:0.50249373 680:0.25061875 683:0.24688752 684:0.24688752 689:0.24688752 690:0.24688752 691:0.49750627 692:0.75064378 693:0.4987438 695:0.25187498 696:0.24688752 704:0.4987438 705:0.49383059 707:0.50501249 708:0.50249373 719:0.49750627 720:0.49750627 
-0.9794147773533589 -1.089709760867786 -1.588748687220174 1.246217219639937 45:0.29271175 46:0.29036715 47:0.09774119 56:0.11357367 57:0.40356181 58:0.36770396 59:0.17158872 67:0.23123295 68:0.34330682 69:0.33296514 70:0.26415185 71:0.072385251 79:0.53785932 80:0.53174638 81:0.26497586 90:0.21855074 91:0.7337775 92:0.63897734 93:0.12209742 102:0.7181457 103:0.92306539 104:0.84014876 114:0.99042958 115:0.99042958 116:0.94649679 126:0.74064064 127:1 128:0.98019867 138:0.24489822 139:0.90904355 140:0.97401252 141:0.073308917 185:0.012781038 186:0.057698101 187:0.20543109 188:0.16040809 189:0.13945104 190:0.13878918 197:0.012781038 198:0.057698101 199:0.45127895 200:0.55859003 201:0.53443376 202:0.14051662 203:0.10497139 210:0.034048545 211:0.24097975 212:0.55492379 213:0.53114946 214:0.1377342 215:0.10289282 246:0.020147647 247:0.020147647 258:0.061093875 259:0.061093875 260:0.04203512 270:0.13471084 271:0.38147865 272:0.24188148 282:0.09234532 283:0.98243809 284:0.99736712 285:0.34107379 328:0.19479166 329:0.62245944 330:0.84212578 331:0.82474534 332:0.47624158 333:0.54520354 334:0.47048247 335:0.030031728 337:0.4627038 338:0.79326869 339:0.69528537 340:0.74937852 341:0.81179578 342:0.84212578 343:0.97582922 344:0.97243852 345:0.94561634 346:0.62828267 347:0.23489275 349:0.45953056 350:0.78349075 351:0.81782663 352:0.72001925 353:0.77150707 354:0.81838092 355:0.82565461 356:0.98746722 357:0.95565012 358:0.57939255 359:0.2008045 361:0.14768051 362:0.29795612 363:0.14729995 368:0.02706971 369:0.054275108 370:0.026666695 415:0.1401849 416:0.13740906 427:0.1401849 428:0.1401849 472:0.016406351 473:0.035849072 474:0.019159693 476:0.10351682 477:0.54684995 478:0.43880174 479:0.11696996 481:0.1293903 482:0.19872151 483:0.14059894 484:0.10927136 485:0.075735 486:0.035737578 487:0.0050980546 488:0.56554386 489:1 490:0.6737652 491:0.2111807 493:0.12858106 494:0.19652111 495:0.18199873 496:0.10927136 497:0.075123839 498:0.035029926 499:0.19434814 500:0.65213093 501:0.78777737 502:0.55057184 503:0.092345245 505:0.045781782 506:0.087181577 507:0.040580023 511:0.33213491 512:0.39285196 513:0.43523265 514:0.11521576 522:0.026236296 523:0.20596979 524:0.25862684 525:0.077036585 534:0.053579877 535:0.15420161 536:0.15327464 546:0.026941346 547:0.053389475 548:0.052332292 559:0.0069601241 560:0.0068223044 621:0.99501248 622:0.99501248 623:0.97530991 625:0.99501248 626:0.97530991 633:0.97530991 634:0.99501248 635:0.97530991 637:0.99501248 638:0.99501248 649:0.97530991 650:0.97530991 715:0.99501248 716:0.99501248 717:0.97530991 
-0.9789369966395424 -1.089003275901318 -1.588477965985889 1.250824000277673 34:0.096744612 35:0.09482894 45:0.18035243 46:0.27566553 47:0.20266363 51:0.30033505 52:0.29438802 56:0.17821445 57:0.3811678 58:0.36161881 59:0.20074796 63:0.79778026 64:0.78872161 65:0.15962597 68:0.43917717 69:0.45823571 70:0.27117529 75:0.87399947 76:0.87089393 77:0.5162379 79:0.18704424 80:0.8061581 81:0.60685458 82:0.11162076 87:0.78614077 88:0.78614077 89:0.74729511 91:0.59583378 92:0.95154426 93:0.88930475 99:0.81812197 100:0.81812197 101:0.79473377 103:0.80964052 104:0.9968755 105:0.96304172 111:0.92136855 112:0.91910835 113:0.80645009 115:0.40093215 116:0.96378256 117:0.95178029 122:0.12871093 123:0.63762014 124:0.84602829 125:0.5937281 128:0.81481301 129:0.81086428 134:0.12616228 135:0.24059454 136:0.42976669 137:0.18792448 140:0.25818352 141:0.25818352 187:0.055046182 188:0.85262843 189:0.85259144 190:0.49167394 191:0.19165857 195:0.29997508 196:0.29403517 199:0.053956194 200:0.84175254 201:0.84171629 202:0.79203333 203:0.19165857 207:0.62527943 208:0.61707159 209:0.10747958 213:0.30035939 214:0.29441187 219:0.44495287 220:0.53656051 221:0.27378217 231:0.15686411 232:0.24929173 233:0.24435542 235:0.036520204 236:0.036520204 237:0.014804233 243:0.057330126 244:0.10099134 245:0.098991575 247:0.10496822 248:0.20485425 249:0.097908156 255:0.60442365 256:0.59922151 257:0.029694312 259:0.068330552 260:0.65915148 261:0.57912189 266:0.20217325 267:0.98926813 268:0.99634713 269:0.32767592 272:0.94911644 273:0.94818108 278:0.19816995 279:0.66085288 280:0.97484504 281:0.31169873 284:0.55779054 285:0.55779054 321:0.014293494 322:0.020777478 323:0.0063555928 327:0.13926086 328:0.44324135 329:0.82293268 330:0.92095112 331:0.81098309 332:0.92660478 333:1 334:0.67404652 335:0.41278571 339:0.27191642 340:0.57327016 341:0.81936668 342:0.90941722 343:0.95786521 344:0.91207061 345:0.97566799 346:0.99022429 347:0.4123771 351:0.13133561 352:0.41405179 353:0.59897408 354:0.48833361 355:0.16899414 357:0.37403304 358:0.37025716 399:0.39362574 400:0.38947636 404:0.21199403 405:0.20988465 410:0.11951075 411:0.68274039 412:0.68053632 413:0.18224393 416:0.20988465 417:0.20988465 422:0.11714428 423:0.49282792 424:0.67270538 425:0.17863526 465:0.12777837 466:0.25619723 467:0.125876 471:0.050019912 472:0.13566223 473:0.17122623 474:0.11955467 475:0.058993958 476:0.01835042 477:0.50694928 478:0.74313193 479:0.50292604 483:0.1025979 484:0.18719911 485:0.17075821 486:0.14705702 487:0.086769964 488:0.22637937 489:0.7121271 490:1 491:0.49787818 495:0.052054831 496:0.14601854 497:0.16698696 498:0.10098975 499:0.027226004 500:0.33028145 501:0.54128292 502:0.47503732 511:0.01637299 512:0.20087666 513:0.25418083 514:0.088918675 523:0.029657536 524:0.15152166 525:0.15093114 531:0.0024116643 532:0.0024116643 535:0.013021494 536:0.050328654 537:0.049744622 543:0.15283579 544:0.15038115 545:0.011301305 554:0.059912116 555:0.26370396 556:0.26472709 557:0.028448222 566:0.058725777 567:0.23443587 568:0.25044373 569:0.016853728 610:0.99501248 611:0.97530991 622:0.99501248 623:0.99501248 627:1 628:0.99004983 634:0.97530991 635:0.97530991 639:0.99004983 640:0.99004983 699:1 700:0.99004983 704:1 705:0.99004983 711:0.99004983 712:0.99004983 716:0.99004983 717:0.99004983 
-0.6978667680156505 -0.8264346699024513 -1.333943125005145 -0.7160534136967257 34:0.13905241 35:0.30287307 36:0.29848961 40:0.018572119 41:0.018572119 44:0.1711405 45:0.1711405 46:0.16775169 47:0.30124303 48:0.29848961 51:0.10720978 52:0.123659 53:0.018758771 54:0.23434058 55:0.23434058 56:0.16775169 57:0.1711405 58:0.16775169 62:0.2003672 63:0.62770961 64:0.44890174 65:0.018387323 66:0.61005727 67:0.61005727 68:0.42644147 74:0.35865845 75:1 76:0.8171766 78:0.75443586 79:0.77598745 80:0.76062187 86:0.26623618 87:0.80316927 88:0.78005534 90:0.76324549 91:0.76382916 92:0.74870433 98:0.1019185 99:0.51021931 100:0.79249561 101:0.37743856 102:0.38108979 103:0.7144264 104:0.70314399 111:0.18824748 112:0.38124141 113:0.37369233 115:0.54863811 116:0.58261943 117:0.036788082 127:0.22179378 128:0.25932503 129:0.036788082 167:0.023997475 168:0.023522293 178:0.088880674 179:0.16298431 180:0.16096457 190:0.087120719 191:0.13825187 192:0.16048939 198:0.044483402 199:0.044483402 206:0.030346838 207:0.075645635 208:0.044401821 210:0.09045998 211:0.090907046 212:0.089106966 218:0.10710566 219:0.17721203 220:0.099605454 222:0.16104752 223:0.16104752 224:0.14413954 230:0.21507996 231:0.69339157 232:0.47188445 234:0.28629336 235:0.28629336 236:0.13201049 242:0.13499318 243:0.73786359 244:0.96123831 245:0.45760869 246:0.26773831 247:0.4040301 248:0.3604347 255:0.15144012 256:0.71941064 257:0.8577865 258:0.37545613 259:0.6185841 260:0.66327811 261:0.12639893 268:0.12105682 269:0.41296233 270:0.37156598 271:0.33116045 272:0.43915658 273:0.18669497 284:0.0591021 285:0.0591021 311:0.15214533 312:0.14913265 318:0.20300787 319:0.43839976 320:0.49839909 321:0.72152768 322:0.87979308 323:0.88720811 324:0.619945 328:0.030199688 329:0.26889528 330:0.53453216 331:0.6173652 332:0.72855292 333:0.85947061 334:0.88611649 335:0.99590509 336:0.61693232 339:0.26830828 340:0.3704755 341:0.33727693 342:0.4562943 343:0.59001985 344:0.67254459 345:0.49868059 346:0.37230941 347:0.23558093 351:0.26651319 352:0.34218068 353:0.32401339 354:0.072290044 355:0.18817371 356:0.33160088 357:0.28769698 358:0.043886771 363:0.085718572 364:0.175024 365:0.087537066 366:0.018300407 367:0.018484329 368:0.018118315 375:0.055883811 376:0.054836449 378:0.026424802 379:0.026424802 380:0.017759548 387:0.072842486 388:0.23820132 389:0.2293509 390:0.090084555 391:0.026690376 392:0.026161871 399:0.022894862 400:0.18285604 401:0.48385986 402:0.60932152 403:0.60410781 404:0.48434371 405:0.15353354 412:0.06211253 413:0.31433241 414:0.53485694 415:0.59214567 416:0.58063511 417:0.27546878 428:0.11952076 429:0.11952076 455:0.068568712 456:0.06721096 462:0.16855354 463:0.29830833 464:0.2344066 465:0.49095384 466:0.64565431 467:0.46962209 468:0.35471351 472:0.18143386 473:0.56473436 474:0.63132297 475:0.48709281 476:0.82233428 477:0.96945733 478:0.73145168 479:0.62424791 480:0.35335576 483:0.38119828 484:0.73525486 485:0.7614853 486:0.80328529 487:0.81973318 488:0.92377377 489:0.92927077 490:0.69948223 491:0.17313435 494:0.055046551 495:0.52540961 496:0.70092338 497:0.70597586 498:0.54494899 499:0.8252473 500:0.89906951 501:0.49086175 502:0.15280548 506:0.20584291 507:0.52271504 508:0.48615063 509:0.090121381 510:0.2263647 511:0.38677045 512:0.37911188 518:0.15188636 519:0.38002856 520:0.37699078 522:0.095881454 523:0.2633736 524:0.25815845 531:0.30000013 532:0.2970225 534:0.069945965 535:0.071358967 536:0.069945965 610:0.33277732 611:1 612:0.99008278 622:0.32618788 623:0.98019867 624:0.99008278 691:0.33277732 692:0.66555463 693:0.32618788 703:0.32618788 704:0.66555463 705:0.6589652 716:0.32618788 717:0.32618788 
-0.4689632393706675 -0.5356147596026096 -0.8828420454062299 -0.4739734900656877 22:0.013984133 23:0.013707228 32:0.0083399067 33:0.097497105 34:0.1173607 35:0.059676986 39:0.0032752215 40:0.0032200666 41:0.048175341 42:0.12365007 43:0.24203277 44:0.22033547 45:0.37619764 46:0.33256472 47:0.18139064 50:0.048323883 51:0.063547594 52:0.078667858 53:0.227598 54:0.42674114 55:0.61197082 56:0.48449144 57:0.53900663 58:0.3888112 59:0.12087503 62:0.18328488 63:0.19316171 64:0.19895934 65:0.3020895 66:0.48510928 67:0.70821131 68:0.6737803 69:0.62967572 70:0.30502268 73:0.14250177 74:0.33500392 75:0.29638853 76:0.23657277 77:0.32630322 78:0.39814156 79:0.69475132 80:0.55099611 81:0.43199626 82:0.21352047 85:0.31702024 86:0.37484605 87:0.3274551 88:0.14985979 89:0.20648705 90:0.57057793 91:0.886499 92:0.57476428 93:0.3089655 94:0.088042643 97:0.34082833 98:0.43716405 99:0.36942312 100:0.1071225 101:0.068447713 102:0.5238057 103:0.87899845 104:0.68975961 105:0.32107377 109:0.16483822 110:0.4915742 111:0.53125255 112:0.19581414 114:0.16251721 115:0.51508064 116:0.6460925 117:0.33650591 122:0.2276226 123:0.38135436 124:0.15594449 127:0.16715242 128:0.47105669 129:0.30185742 134:0.067792442 135:0.067792442 139:0.028260287 140:0.16487354 141:0.13575353 166:0.08178763 167:0.080662466 178:0.08178763 179:0.082038532 180:0.024716562 189:0.016226707 190:0.055697498 191:0.080414061 192:0.024227142 198:0.002827962 199:0.037032761 200:0.0980955 201:0.088232714 202:0.024261264 210:0.002827962 211:0.03658304 212:0.19570019 213:0.16795812 214:0.087194932 223:0.033110093 224:0.13116451 225:0.17246288 226:0.062002445 229:0.011535711 230:0.011535711 234:0.076257112 235:0.12535497 236:0.12955566 237:0.12889345 241:0.15710365 242:0.15710365 243:0.032861978 246:0.4353215 247:0.70232425 248:0.26788429 249:0.08937273 253:0.1451348 254:0.33121042 255:0.28757818 258:0.3548498 259:0.99827422 260:0.7551543 261:0.18176613 266:0.30720716 267:0.30478223 271:0.50519995 272:0.84269663 273:0.3355826 278:0.051229899 279:0.051229899 283:0.12694124 284:0.33782753 285:0.20836008 310:0.22682608 311:0.22457474 316:0.059426701 317:0.23974491 318:0.49103182 319:0.75164341 320:0.90037775 321:0.70672381 322:0.53214662 323:0.40073066 324:0.11200385 327:0.071494329 328:0.24741717 329:0.42348072 330:0.70272088 331:0.9384089 332:1 333:0.80820395 334:0.63828247 335:0.39621669 336:0.10978603 339:0.070670277 340:0.18485964 341:0.32274292 342:0.42967234 343:0.54011707 344:0.51517959 345:0.31670013 346:0.10624098 352:0.029581024 353:0.028995281 354:0.0095542019 355:0.0093650161 356:0.13530654 357:0.13406623 358:0.071946182 367:0.10466329 368:0.1964468 369:0.16296593 370:0.078610687 375:0.016756248 376:0.016633371 377:0.0042895703 379:0.10466329 380:0.18780352 381:0.19396277 382:0.0080891354 387:0.016669593 388:0.016818303 389:0.010402669 390:0.020598841 391:0.041300935 392:0.1041722 393:0.10212035 398:0.12169292 399:0.11928324 400:0.012195708 401:0.0059920513 402:0.020598841 403:0.11489941 404:0.14488022 405:0.050415107 410:0.12161995 411:0.12161995 415:0.07325677 416:0.16565688 417:0.10210137 422:0.11209498 423:0.11209498 427:0.0050625332 428:0.10614545 429:0.10007963 454:0.11735177 455:0.11502805 460:0.082048412 461:0.22636816 462:0.27039121 463:0.30905617 464:0.47560982 465:0.61834782 466:0.57945889 467:0.38799177 471:0.38124577 472:0.64008412 473:0.80079242 474:0.91293275 475:0.8160579 476:0.85804913 477:0.86298116 478:0.81319481 479:0.52902492 482:0.24323211 483:0.75651324 484:0.7326981 485:0.78917795 486:0.85225882 487:0.82625161 488:0.91697919 489:0.67422097 490:0.3289449 491:0.14158646 494:0.48217753 495:0.67350962 496:0.72469417 497:0.49552854 498:0.49205813 499:0.52904264 500:0.39388628 501:0.38979499 502:0.25483656 505:0.091391967 506:0.3953185 507:0.47912972 508:0.40280087 509:0.40658225 510:0.4729274 511:0.8691255 512:1 513:0.79342772 514:0.46959376 517:0.14074481 518:0.26408463 519:0.46889389 520:0.79994891 521:0.60574754 522:0.37033721 523:0.64676119 524:0.94419059 525:0.83963048 526:0.32479998 529:0.04980064 530:0.27213204 531:0.75945817 532:0.87637354 533:0.48822875 534:0.077339067 535:0.24585077 536:0.51427389 537:0.32321196 542:0.33419811 543:0.5803621 544:0.64471048 545:0.12863425 547:0.010524287 548:0.03168092 549:0.020810691 554:0.11274904 555:0.21882989 556:0.13131082 559:0.0067638326 560:0.018696289 561:0.011932457 566:0.041696956 567:0.041696956 572:0.011696178 573:0.011696178 598:0.40019211 599:0.39622004 609:0.40219808 610:1 611:0.79841812 612:0.19760981 621:0.39423403 622:0.79641215 623:0.79045407 624:0.19369687 632:0.19959582 633:0.19959582 644:0.40019211 645:0.39622004 646:0.19760981 655:0.19959582 656:0.40019211 657:0.3982061 658:0.19369687 667:0.19959582 668:0.39822601 669:0.39423403 679:0.20059629 680:0.19760981 681:0.19369687 686:0.20160179 687:0.19959582 691:0.6017939 692:0.59382984 698:0.19959582 699:0.19959582 703:0.39720562 704:0.59782183 705:0.19760981 716:0.19760981 717:0.19369687 
-0.3496651462725802 -0.4013530607784014 -0.6722213949361657 -0.3591397817810494 22:0.015164386 23:0.015164386 32:0.0014803709 33:0.07381046 34:0.16473464 35:0.091148138 36:0.029952116 39:0.0023797764 40:0.0027754551 41:0.034973236 42:0.034577558 43:0.16665918 44:0.28411478 45:0.34013983 46:0.29964132 47:0.22711998 48:0.029654829 50:0.026868711 51:0.065669448 52:0.11004369 53:0.2634606 54:0.36464129 55:0.58527005 56:0.61476115 57:0.51556564 58:0.32575387 59:0.3199294 62:0.15394419 63:0.2792665 64:0.2128356 65:0.35054776 66:0.60197958 67:0.67957099 68:0.86541354 69:0.51172747 70:0.35372514 71:0.29814851 74:0.25751844 75:0.49426801 76:0.3486655 77:0.40633297 78:0.48135534 79:0.60003835 80:0.65730342 81:0.47752485 82:0.28995688 83:0.12470374 86:0.35521304 87:0.55540752 88:0.32254895 89:0.26664383 90:0.4752342 91:0.83517854 92:0.54308323 93:0.29347366 94:0.11179305 98:0.50262887 99:0.61339486 100:0.28759167 101:0.077375212 102:0.44041924 103:0.89693111 104:0.77077789 105:0.27089051 110:0.53257059 111:0.603223 112:0.31430314 113:0.013401637 114:0.17164086 115:0.58355531 116:0.83338274 117:0.41003177 122:0.25419276 123:0.41491618 124:0.24040637 127:0.17735125 128:0.60655259 129:0.48900565 134:0.052200941 135:0.13215464 136:0.078370506 140:0.25225384 141:0.25072976 166:0.086898752 167:0.086036246 178:0.086898752 179:0.087334334 180:0.042909505 189:0.016381322 190:0.042695493 191:0.085604999 192:0.04205984 198:0.0036490762 199:0.046451964 200:0.12551997 201:0.11521863 202:0.03300939 203:0.032355761 210:0.0036490762 211:0.046027127 212:0.29366026 213:0.26560416 214:0.09741574 215:0.032034616 223:0.033961519 224:0.3313434 225:0.36663729 226:0.24953761 234:0.04695791 235:0.10980469 236:0.18978167 237:0.32859577 238:0.18423847 242:0.092572828 243:0.090739763 246:0.29752968 247:0.48681519 248:0.27307044 249:0.088260992 254:0.37241125 255:0.36612577 258:0.24823328 259:0.80293106 260:0.85751992 261:0.31907304 266:0.29539628 267:0.35093264 268:0.05443667 271:0.49714818 272:1 273:0.63565213 278:0.092366248 279:0.14680292 280:0.053358751 283:0.10475109 284:0.34196118 285:0.3372694 310:0.18199283 311:0.18034897 317:0.12324828 318:0.40515422 319:0.68916049 320:0.82978422 321:0.73586247 322:0.62821507 323:0.42449935 324:0.12384824 327:0.00040067025 328:0.12560291 329:0.40670869 330:0.75179298 331:0.99661627 332:1 333:0.88339738 334:0.71215738 335:0.42087596 336:0.1219079 339:0.00040067025 340:0.12382268 341:0.27901192 342:0.54427236 343:0.69637285 344:0.57931156 345:0.45078965 346:0.19668135 352:0.033844502 353:0.050489618 354:0.066495954 355:0.049701739 356:0.17111931 357:0.17003866 358:0.061623498 367:0.091267068 368:0.32145389 369:0.22728991 370:0.12870133 375:0.0035848189 376:0.0035848189 379:0.091267068 380:0.23740256 381:0.31907311 382:0.081842593 387:0.0035848189 388:0.0036208469 389:0.0035491493 392:0.18026722 393:0.19308709 394:0.014319811 398:0.09788099 399:0.097792535 400:0.0035491493 401:0.0034788715 403:0.042253253 404:0.041945965 405:0.0022696181 410:0.097792535 411:0.098775366 412:0.09248436 415:0.078435327 416:0.13874501 417:0.1221232 423:0.09248436 424:0.090653047 427:0.035811765 428:0.12057703 429:0.11937486 454:0.14138748 455:0.14008482 461:0.11415438 462:0.20874918 463:0.19471843 464:0.30093903 465:0.45510631 466:0.62025938 467:0.37600041 468:0.14932385 471:0.090532889 472:0.40111048 473:0.73108586 474:0.71060834 475:0.6408339 476:0.68764971 477:0.65074359 478:0.60451017 479:0.53041694 480:0.14784175 482:0.07960063 483:0.42055932 484:0.88830539 485:0.99176809 486:0.93981732 487:0.74804711 488:0.68089508 489:0.50308696 490:0.34316314 491:0.19774464 494:0.24460729 495:0.58990797 496:0.77202118 497:0.84899577 498:0.61001281 499:0.36327788 500:0.29195719 501:0.22501983 502:0.21321193 503:0.11835675 506:0.24029701 507:0.46424411 508:0.52113495 509:0.37390917 510:0.24362888 511:0.42701839 512:0.51058248 513:0.4913855 514:0.35843418 515:0.075278094 518:0.14837513 519:0.40131115 520:0.54426495 521:0.33224398 522:0.19329089 523:0.34942225 524:0.536178 525:0.57791379 526:0.31496486 530:0.16175052 531:0.53509841 532:0.58534112 533:0.41725345 534:0.098583265 535:0.17221964 536:0.30585954 537:0.2515442 538:0.0799855 542:0.15965447 543:0.40231802 544:0.58581333 545:0.26603981 547:0.020372069 548:0.03755049 549:0.017233672 554:0.070038645 555:0.19584992 556:0.1933166 559:0.013464227 560:0.023479851 561:0.023210562 567:0.029260973 568:0.028681566 572:0.0231498 573:0.022885843 598:0.49875 599:0.4937997 609:0.24999844 610:1 611:0.9950497 612:0.24627645 621:0.24504814 622:0.74379814 623:0.98512428 624:0.24139985 632:0.24875157 633:0.24875157 644:0.49875 645:0.4937997 646:0.24627645 655:0.24875157 656:0.99874688 657:0.74627332 658:0.48644798 667:0.24875157 668:0.74629813 669:0.99132146 670:0.24504814 674:0.24999844 675:0.24999844 676:0.24504814 680:0.49132458 681:0.48644798 686:0.4962997 687:0.49875 688:0.24504814 691:0.75000156 692:0.74502645 693:0.24504814 698:0.24875157 699:0.24875157 703:0.74007615 704:0.75000156 705:0.49132458 716:0.24627645 717:0.24139985 
