svm_type c_svc
kernel_type rbf
gamma 0.125
nr_class 2
total_sv 17
rho -0.571245
label 0 6
probA -3.34636
probB -0.0490444
nr_sv 12 5
SV
0.258166511608007 17:0.17193723 18:0.16880596 19:0.092195396 20:0.092195396 22:0.058595935 23:0.058595935 29:0.18085877 30:0.18508126 31:0.29910373 32:0.29192605 33:0.18945385 34:0.11748558 35:0.11807448 36:0.11573645 41:0.077307696 42:0.13138219 43:0.45571443 44:0.3973048 45:0.3843287 46:0.057723556 47:0.11690254 48:0.11458772 49:0.070262118 50:0.068870835 52:0.033771272 53:0.14277763 54:0.3515699 55:0.63926158 56:0.53492371 57:0.39072495 61:0.18378398 62:0.18014481 64:0.21513276 65:0.26035954 66:0.56357028 67:0.90752314 68:0.72054573 69:0.38769408 73:0.18148548 74:0.18148548 76:0.35191291 77:0.45101382 78:0.64770353 79:0.89901491 80:0.75220575 81:0.38618413 83:0.054090785 84:0.054090785 85:0.021903427 86:0.021903427 88:0.35534578 89:0.45099015 90:0.60582788 91:0.79675372 92:0.63930832 93:0.36511002 95:0.06965372 96:0.070180759 100:0.37828574 101:0.37079518 102:0.55896083 103:0.87287612 104:0.43896965 105:0.2859927 107:0.015254769 108:0.069098925 112:0.31908182 113:0.31908182 114:0.45220053 115:0.6940232 116:0.42566596 117:0.11410054 124:0.12488545 125:0.12488545 126:0.22274388 127:0.48048328 128:0.25629795 138:0.031537892 139:0.0309134 161:0.37834343 162:0.46953192 163:0.34433067 164:0.2587269 165:0.058887127 166:0.12662252 167:0.077328283 173:0.55510924 174:1 175:0.75439999 176:0.35017914 177:0.25074961 178:0.12662252 179:0.10701393 180:0.041513175 185:0.17454769 186:0.8684581 187:0.83278212 188:0.3468419 189:0.24930999 190:0.091484623 191:0.10489492 192:0.040691159 193:0.012375651 194:0.083866004 195:0.16704957 196:0.14861056 197:0.052234367 198:0.41935505 199:0.46357803 200:0.28830048 201:0.0022950555 205:0.32711066 206:0.39236884 207:0.16704957 208:0.38207097 209:0.31560444 210:0.65229798 211:0.79621393 212:0.4829599 217:0.593073 218:0.76958083 219:0.25981014 220:0.29868381 221:0.3485594 222:0.7017167 223:0.84873905 224:0.60955458 225:0.33106354 226:0.28248513 227:0.33017631 228:0.17145423 229:0.31664166 230:0.55485015 231:0.38966416 232:0.32995499 233:0.21033834 234:0.70117159 235:0.72188867 236:0.52493162 237:0.32814986 238:0.27845975 239:0.32862372 240:0.2521472 242:0.10107651 243:0.25215516 244:0.33619393 245:0.21596773 246:0.65088756 247:0.64221659 248:0.11701732 251:0.13368505 252:0.24715435 256:0.64327937 257:0.73114625 258:0.64684604 259:0.69689941 260:0.2325508 268:0.50917848 269:0.7289818 270:0.42619466 271:0.40324277 272:0.23066934 280:0.17117556 281:0.42752824 282:0.25316676 305:0.23200434 306:0.55577133 307:0.55416537 308:0.48879009 309:0.49514922 310:0.44921508 311:0.21023072 317:0.2275002 318:0.57233527 319:0.59231287 320:0.65799263 321:0.91856766 322:0.88351046 323:0.59652482 324:0.17211215 329:8.8072681e-05 330:0.11519152 331:0.35581454 332:0.56600035 333:0.81747004 334:0.90902852 335:0.59004524 336:0.17008644 337:0.24820431 338:0.47193902 339:0.42257187 340:0.30907816 341:0.11044362 342:0.27672011 343:0.27672011 344:0.27522887 345:0.22847553 346:0.15436793 349:0.27226618 350:0.49552444 351:0.45467518 352:0.49001233 353:0.38779543 354:0.48949346 355:0.49296606 356:0.3774409 361:0.17504356 362:0.47356997 363:0.49945945 364:0.4799533 365:0.38368122 366:0.54149742 367:0.65260753 368:0.61600011 369:0.46312719 370:0.47386598 371:0.45920462 372:0.20808743 373:0.084824584 374:0.25224752 375:0.34263236 376:0.33836869 377:0.23430539 378:0.3920568 379:0.6292092 380:0.72348853 381:0.9305806 382:1 383:0.82337087 384:0.48661302 386:0.069581058 387:0.26127213 388:0.33453471 389:0.23349431 390:0.29357903 391:0.41881218 392:0.37369559 393:0.49184474 394:0.53130996 395:0.72251421 396:0.58201396 400:0.11423253 401:0.35695418 402:0.64222872 403:0.61102051 404:0.56537866 405:0.48210556 406:0.45275205 407:0.31952681 408:0.099945979 412:0.11334949 413:0.35366124 414:0.48680449 415:0.56377938 416:0.31410994 424:0.010653687 425:0.18469574 426:0.17589419 427:0.002944763 449:0.098896419 450:0.097912383 451:0.23104118 452:0.23108104 453:0.0023280439 454:0.0557588 455:0.0557588 461:0.097912383 462:0.36042942 463:0.62879946 464:0.49456466 465:0.27458846 466:0.35513312 467:0.24978065 468:0.13923064 473:0.36224424 474:0.80058105 475:0.75508609 476:0.55267518 477:0.35192094 478:0.2944909 479:0.24866545 480:0.13813753 481:0.12022584 482:0.11801357 484:0.13058536 485:0.58054072 486:0.73248414 487:0.62031831 488:0.17615648 489:0.17507188 490:0.10935547 493:0.16105689 494:0.16073606 495:0.0084178032 496:0.24645105 497:0.44554843 498:0.58235478 499:0.33661249 500:0.2022586 501:0.0087153842 505:0.14993593 506:0.15835374 507:0.0082511195 508:0.26665217 509:0.28270781 510:0.44484729 511:0.40021966 512:0.26826303 513:0.040031587 514:0.0019372479 515:0.11737717 516:0.11642535 520:0.34451505 521:0.35366761 522:0.49336875 523:0.53664401 524:0.31804121 525:0.11301822 526:0.17522262 527:0.52001439 528:0.4496986 532:0.1956195 533:0.32370384 534:0.50680997 535:0.83557397 536:0.35464774 537:0.24386852 538:0.17199885 539:0.3960273 540:0.48752543 544:0.021485074 545:0.40620379 546:0.87237068 547:0.87966352 548:0.65226924 549:0.16380775 550:0.077445546 551:0.089626136 552:0.039360251 557:0.39664466 558:0.53472758 559:0.83427752 560:0.43249317 569:0.13003241 570:0.26071662 571:0.12809648 595:0.33694179 596:0.33359751 606:0.16889207 607:0.67138165 608:0.67138165 609:0.33192538 618:0.33694179 619:0.49914529 620:0.66970953 621:0.49752296 630:0.50499151 631:0.50499151 632:0.49747317 633:0.16554779 640:0.16889207 641:0.16889207 642:0.50248958 643:0.67390039 644:0.66055627 652:0.16554779 653:0.16889207 654:0.33528643 655:0.66886718 656:0.66726161 657:0.33192538 664:0.16973865 665:0.16804972 666:0.50500832 667:0.83195028 668:0.50081746 669:0.32863089 676:0.16804972 677:0.16804972 678:0.66971375 679:1 680:0.33528643 681:0.1663776 688:0.33778837 689:0.33442732 690:0.33442732 691:0.50668044 692:0.50164727 693:0.1630831 700:0.33442732 701:0.33778837 702:0.1663776 703:0.33192538 704:0.32863089 713:0.1663776 714:0.1630831 
0.2604355628724779 17:0.13477899 18:0.13211019 19:0.039637585 20:0.039637585 29:0.25684973 30:0.25880381 31:0.31168611 32:0.30565865 33:0.16884448 34:0.086306152 35:0.085875698 36:0.042192841 41:0.20842595 42:0.28958024 43:0.55381376 44:0.53270114 45:0.43285054 46:0.084597175 47:0.085875698 48:0.042192841 53:0.22506006 54:0.59115957 55:0.9012678 56:0.66167062 57:0.52735976 61:0.23010877 62:0.22555231 64:0.036595441 65:0.37154135 66:0.79553157 67:0.99516532 68:0.90486577 69:0.52508746 73:0.24941443 74:0.24941443 76:0.035870803 77:0.46657377 78:0.53515035 79:0.64155379 80:0.77296122 81:0.51957615 85:0.11971245 86:0.11971245 88:0.16672002 89:0.4306849 90:0.42725244 91:0.48578204 92:0.5256274 93:0.51521928 95:0.073778056 96:0.073043953 100:0.43475081 101:0.43170498 102:0.17110513 103:0.48161466 104:0.51149727 105:0.42867554 107:0.073043953 108:0.073043953 112:0.51287814 113:0.51287814 114:0.046239042 115:0.41004284 116:0.45487752 117:0.17131294 124:0.28013596 125:0.29008808 126:0.090167011 127:0.33292856 128:0.25410887 136:0.026672503 137:0.036427559 138:0.089049052 139:0.12718049 140:0.049267285 161:0.10674185 162:0.17914718 163:0.30122406 164:0.22649785 173:0.57731024 174:0.82586477 175:0.76832118 176:0.53193777 177:0.34899096 178:0.15394116 179:0.12644897 180:0.044136159 185:0.46462764 186:0.96282651 187:0.94891233 188:0.55868294 189:0.38653268 190:0.15089292 191:0.12644897 192:0.044136159 194:0.061627514 195:0.061098963 198:0.60383603 199:0.69383189 200:0.21480519 201:0.040180451 205:0.19765534 206:0.29530912 207:0.19985217 208:0.31524886 209:0.34717231 210:0.62050118 211:0.49729935 212:0.4043222 213:0.00036715233 217:0.67182742 218:0.93149677 219:0.36118066 220:0.30900651 221:0.41861474 222:0.38903105 223:0.3149398 224:0.41327729 225:0.3117762 226:0.26027997 227:0.27067968 228:0.1257476 229:0.46851355 230:0.78146682 231:0.6938559 232:0.44130768 233:0.33068055 234:0.14917863 235:0.15051447 236:0.34329807 237:0.42384689 238:0.36241687 239:0.43987723 240:0.30482663 242:0.27859349 243:0.53558194 244:0.53486978 245:0.27815901 246:0.0013520776 248:0.0096809861 249:0.16426733 250:0.2854109 251:0.43369468 252:0.30131826 256:0.50394012 257:0.49744408 258:0.026360955 259:0.026017822 268:0.48361316 269:0.61470545 270:0.30223606 271:0.02645173 272:0.0089422889 280:0.16312783 281:0.44803509 282:0.29844494 283:0.02592795 284:0.0087652197 305:0.26681807 306:0.50385767 307:0.36914231 308:0.12964506 317:0.26681807 318:0.52761034 319:0.62358933 320:0.73433832 321:0.87272033 322:0.80575803 323:0.34468542 324:0.10673318 329:0.13109428 330:0.3870889 331:0.58760965 332:0.79416263 333:0.94307988 334:0.92672697 335:0.55019607 336:0.10673318 337:0.2740795 338:0.53865088 339:0.2643468 342:0.20626622 343:0.28004888 344:0.23991894 345:0.35710846 346:0.40574337 347:0.20144127 349:0.34839827 350:0.72841428 351:0.63772337 352:0.55929592 353:0.30597598 354:0.294493 355:0.29729182 356:0.29140505 361:0.22430894 362:0.53387394 363:0.65747804 364:0.55688241 365:0.30597598 366:0.095814769 367:0.2183976 368:0.4816873 369:0.6033273 370:0.5407014 371:0.37754916 372:0.10308245 373:0.080898556 374:0.30530668 375:0.42427052 376:0.42277814 377:0.22563644 378:0.057219602 379:0.12551734 380:0.45861696 381:0.85225215 382:1 383:0.62500509 384:0.28230959 386:0.10389783 387:0.35841463 388:0.48952069 389:0.2938343 390:0.057219602 391:0.14283548 392:0.41600827 393:0.74948528 394:0.98382383 395:0.88584505 396:0.36904654 400:0.06684745 401:0.17514708 402:0.39986667 403:0.50100245 404:0.49017831 405:0.54021539 406:0.49362624 407:0.32402831 408:0.089697326 412:0.054949953 413:0.40322255 414:0.62567839 415:0.5956599 416:0.2236351 425:0.22355927 426:0.5352226 427:0.58607289 428:0.21920683 449:0.0005151961 450:0.00050499453 451:0.1214183 452:0.1214183 461:0.0005151961 462:0.41196224 463:0.68297395 464:0.38916448 465:0.17918137 466:0.37729111 467:0.26063606 468:0.094439869 473:0.25664219 474:0.80150224 475:0.80138121 476:0.676554 477:0.39680729 478:0.37346592 479:0.31951396 480:0.094439869 481:0.081588169 482:0.083413717 483:0.0031366235 485:0.55549288 486:0.94406499 487:0.89898104 488:0.42040139 489:0.27034679 490:0.24343696 491:0.12477844 493:0.20887527 494:0.21093111 495:0.015255515 496:0.13730152 497:0.54208212 498:0.71331713 499:0.5282796 500:0.25898979 501:0.0066350359 505:0.19405761 506:0.20924977 507:0.014953436 508:0.13458276 509:0.34139778 510:0.38133003 511:0.16394289 512:0.16102007 513:0.041626742 520:0.2334896 521:0.33061485 522:0.22606152 523:0.1226387 524:0.1391903 525:0.085669129 526:0.23695719 527:0.32506779 528:0.1373584 532:0.23981479 533:0.33909696 534:0.22409751 535:0.30604936 536:0.32955202 537:0.21427564 538:0.23695719 539:0.35454312 540:0.27234955 544:0.029173517 545:0.12305071 546:0.19599469 547:0.49314772 548:0.429453 549:0.16404266 550:0.11325875 551:0.21288418 552:0.13231815 556:0.0012221507 557:0.26063676 558:0.34315028 559:0.58758044 560:0.33620239 569:0.1448407 570:0.2825889 571:0.41919338 572:0.1705239 595:0.16721712 596:0.16721712 607:0.67138722 608:0.66804282 609:0.33028086 618:0.16889768 619:0.83110656 620:0.83777868 621:0.65728355 630:0.5008257 631:0.66227511 632:0.49833616 633:0.32700269 640:0.1680553 641:0.1680553 642:0.3319447 643:0.33695298 644:0.33028086 652:0.16472758 653:0.1680553 654:0.16472758 655:0.1680553 656:0.33033041 657:0.16472758 664:0.33695298 665:0.33028086 667:0.16472758 668:0.1680553 669:0.16472758 676:0.33527242 677:0.33527242 679:0.3361106 680:0.33278288 681:0.16472758 688:0.16721712 689:0.16721712 691:0.33278288 692:0.3361106 693:0.16472758 700:0.16721712 701:0.16889768 702:0.16555328 703:0.16472758 704:0.16472758 713:0.16555328 714:0.16227511 
0.07231330147487702 17:0.10701551 18:0.10489646 19:0.052125586 20:0.052125586 29:0.19246428 30:0.19442308 31:0.2872694 32:0.28231752 33:0.16360129 34:0.048650244 35:0.048650244 36:0.047686905 41:0.15359927 42:0.21996636 43:0.47853166 44:0.46096304 45:0.39185607 46:0.047686905 47:0.048650244 48:0.047686905 53:0.16214643 54:0.3984364 55:0.70101122 56:0.57311826 57:0.45650369 61:0.20316106 62:0.1991382 64:0.031012851 65:0.24974528 66:0.75765115 67:1 68:0.78323024 69:0.45408183 73:0.21396844 74:0.21396844 76:0.030398755 77:0.36099564 78:0.64156745 79:0.77245897 80:0.78091702 81:0.4493145 85:0.099698995 86:0.099698995 88:0.25613116 89:0.47463175 90:0.47626128 91:0.42446851 92:0.56485372 93:0.44584482 95:0.077717042 96:0.076943745 100:0.48749224 101:0.47871511 102:0.15055262 103:0.41895966 104:0.44496089 105:0.37487535 107:0.076943745 108:0.076943745 112:0.44548489 113:0.44548489 114:0.039286801 115:0.35279881 116:0.3956357 117:0.15209681 124:0.24306077 125:0.25196665 126:0.077661144 127:0.28720884 128:0.21964217 136:0.022837726 137:0.031567256 138:0.076702538 139:0.10943451 140:0.042638026 161:0.12998409 162:0.19640732 163:0.31222195 164:0.25464975 165:0.012027772 173:0.59306101 174:0.83180943 175:0.65755937 176:0.44175979 177:0.33396275 178:0.14816036 179:0.12168339 180:0.04353262 185:0.45720696 186:0.96762115 187:0.85372541 188:0.45325937 189:0.37015444 190:0.14522659 191:0.12168339 192:0.04353262 193:0.0020517685 194:0.066792863 195:0.064224075 198:0.50652216 199:0.67463648 200:0.2078016 201:0.039025733 205:0.20049963 206:0.26131119 207:0.1601591 208:0.30585896 209:0.33833416 210:0.71673179 211:0.58821516 212:0.35830172 213:0.00036548632 217:0.65402185 218:0.86666793 219:0.31145908 220:0.29980254 221:0.40821218 222:0.42019405 223:0.42208337 224:0.47624747 225:0.28582646 226:0.22729354 227:0.22821079 228:0.097393649 229:0.45008725 230:0.75234332 231:0.6546992 232:0.42164286 233:0.32268212 234:0.26478008 235:0.22703086 236:0.33358063 237:0.41169635 238:0.33210189 239:0.35156968 240:0.23930461 242:0.26442879 243:0.5061197 244:0.51130502 245:0.26861266 248:0.0095269538 249:0.15925451 250:0.25808627 251:0.3465658 252:0.23652373 256:0.49178191 257:0.48544781 258:0.025031086 259:0.024700408 268:0.47177352 269:0.60144747 270:0.29688717 271:0.025114817 272:0.0082483978 280:0.15857036 281:0.43875774 282:0.29318652 283:0.02461751 284:0.0080850686 305:0.22753951 306:0.43458405 307:0.43233924 308:0.47473921 309:0.24907775 317:0.22753951 318:0.45514195 319:0.46888195 320:0.75379695 321:0.935804 322:0.69362247 323:0.30247203 324:0.092751928 329:0.11179575 330:0.33436236 331:0.45420628 332:0.68451937 333:0.97731204 334:0.9133794 335:0.48200476 336:0.092751928 337:0.24059943 338:0.47095858 339:0.2301732 342:0.17874659 343:0.24364945 344:0.27671752 345:0.36783624 346:0.34176168 347:0.17597774 349:0.30506299 350:0.53414568 351:0.45535703 352:0.38827416 353:0.26742708 354:0.40221946 355:0.3999588 356:0.17337197 361:0.19954794 362:0.47218112 363:0.47412724 364:0.3861697 365:0.26742708 366:0.22776497 367:0.33730528 368:0.45217764 369:0.52985976 370:0.46852572 371:0.32852712 372:0.09467876 373:0.079862763 374:0.28202974 375:0.37156429 376:0.37061917 377:0.1877407 378:0.16162062 379:0.22437399 380:0.40105996 381:0.7495786 382:0.88324947 383:0.60198936 384:0.26785278 386:0.092185731 387:0.32514759 388:0.43014762 389:0.24854827 390:0.049714089 391:0.12582831 392:0.36386775 393:0.65759624 394:0.85989245 395:0.83216066 396:0.38219861 400:0.08137435 401:0.18664253 402:0.34936134 403:0.43680823 404:0.42769013 405:0.472306 406:0.43302518 407:0.32329281 408:0.11622182 412:0.08137435 413:0.38016565 414:0.54096366 415:0.51660945 416:0.19379709 424:0.034206434 425:0.1896911 426:0.46102107 427:0.50825327 428:0.18995965 449:0.012092368 450:0.011852923 451:0.24359403 452:0.24272508 453:0.0015388927 461:0.012092368 462:0.42474446 463:0.80290952 464:0.51590899 465:0.24186596 466:0.3648036 467:0.24781065 468:0.091866084 473:0.25778064 474:0.80507734 475:0.92409997 476:0.85612276 477:0.45561103 478:0.36108266 479:0.30610502 480:0.091866084 481:0.081667111 482:0.080288313 485:0.46041299 486:0.80831019 487:0.79938599 488:0.48084253 489:0.33165673 490:0.23586837 491:0.11676975 493:0.21811122 494:0.21687453 495:0.011915777 496:0.13636978 497:0.34054305 498:0.48681565 499:0.3689311 500:0.24439505 501:0.0069896592 505:0.20333924 506:0.21525502 507:0.011679829 508:0.13366947 509:0.25172902 510:0.26138365 511:0.15602527 512:0.18305162 513:0.041718453 520:0.23430999 521:0.32902985 522:0.23663847 523:0.11737499 524:0.13379646 525:0.080362195 526:0.19475185 527:0.42377609 528:0.27107729 532:0.23941917 533:0.32761806 534:0.2125213 535:0.30286457 536:0.3263953 537:0.20827033 538:0.19475185 539:0.45261887 540:0.38396882 544:0.028012477 545:0.12519956 546:0.19885222 547:0.49485271 548:0.4316214 549:0.16312443 550:0.097603981 551:0.30820148 552:0.24091079 557:0.27815681 558:0.36014273 559:0.60168709 560:0.33727087 569:0.15875316 570:0.29878841 571:0.43362053 572:0.171953 595:0.40380603 596:0.39979809 607:0.60520429 608:0.60119635 609:0.19939431 618:0.20342234 619:0.60320034 620:0.80362426 621:0.59324018 630:0.60320034 631:0.7976519 632:0.60020191 633:0.39384587 640:0.20240777 641:0.20240777 642:0.60119635 643:0.60119635 644:0.39779414 652:0.19839983 653:0.20240777 654:0.20139826 655:0.40380603 656:0.59724812 657:0.19839983 664:0.40583012 665:0.39779414 667:0.19939431 668:0.39785381 669:0.19839983 676:0.40380603 677:0.40380603 679:0.40481554 680:0.4008076 681:0.19839983 688:0.40380603 689:0.39979809 691:0.4008076 692:0.40481554 693:0.19839983 700:0.40380603 701:0.40583012 702:0.19939431 703:0.19839983 704:0.19839983 712:0.19839983 713:0.39779414 714:0.19544604 
0.07931455861277563 17:0.082063088 18:0.08043813 19:0.071288006 20:0.071288006 29:0.14515484 30:0.14960887 31:0.30659702 32:0.29994971 33:0.18209204 34:0.0039683823 35:0.0039683823 36:0.003889803 41:0.14603449 42:0.17535866 43:0.47609991 44:0.45664102 45:0.40756554 46:0.003889803 47:0.0039683823 48:0.003889803 49:0.012099082 50:0.011859504 52:0.033522014 53:0.23104267 54:0.5232264 55:0.7831908 56:0.56923366 57:0.45084623 61:0.22280859 62:0.21839669 64:0.16499198 65:0.38088956 66:0.74254316 67:0.97942505 68:0.67840456 69:0.44798407 73:0.23263355 74:0.23263355 76:0.13088759 77:0.46063149 78:0.87877217 79:1 80:0.69414888 81:0.4433071 85:0.10748325 86:0.10748325 88:0.18082526 89:0.50061225 90:0.8051658 91:0.74566044 92:0.68231854 93:0.43388629 95:0.12413972 96:0.12352057 100:0.41052477 101:0.40583627 102:0.28843325 103:0.40968149 104:0.54256434 105:0.36473706 107:0.12168159 108:0.12352057 112:0.44064698 113:0.44064698 114:0.039349674 115:0.35959962 116:0.39676791 117:0.15073728 124:0.24182433 125:0.24848419 126:0.08255787 127:0.30183044 128:0.22730606 136:0.023382177 137:0.035566248 138:0.081641601 139:0.12164824 140:0.047895274 161:0.16716893 162:0.24567809 163:0.35259319 164:0.28449299 165:0.077756823 166:0.062863026 173:0.69813534 174:0.96808316 175:0.68601447 176:0.45456039 177:0.33916858 178:0.16053973 179:0.13287094 180:0.049627479 185:0.52415551 186:0.92521027 187:0.77284758 188:0.45976559 189:0.34637739 190:0.11977041 191:0.13216477 192:0.049627479 193:0.012058885 194:0.087114674 195:0.11804581 196:0.042753192 198:0.38147247 199:0.55415622 200:0.19003624 201:0.011464889 205:0.21738369 206:0.28837377 207:0.22766243 208:0.53835381 209:0.40766475 210:0.60383869 211:0.57749166 212:0.28887861 213:0.00030532447 217:0.70770545 218:0.93426664 219:0.33900059 220:0.48882441 221:0.48903462 222:0.88473748 223:1 224:0.50983092 225:0.32990019 226:0.27844432 227:0.32985867 228:0.16960617 229:0.49606471 230:0.82250079 231:0.71974427 232:0.464077 233:0.39186134 234:0.65853459 235:0.83872985 236:0.57110763 237:0.45960225 238:0.38726027 239:0.50289111 240:0.40614742 242:0.29078624 243:0.55480389 244:0.56453397 245:0.29929743 246:0.18382573 247:0.34288631 248:0.16690631 249:0.17913146 250:0.29817685 251:0.36048265 252:0.40153144 256:0.54976319 257:0.54271051 258:0.035967664 259:0.035571732 268:0.65616808 269:0.79257945 270:0.4519093 271:0.036128189 272:0.01581351 280:0.18007262 281:0.61449165 282:0.44771816 283:0.035412803 284:0.015500381 305:0.22386324 306:0.43234841 307:0.43268097 308:0.47424903 309:0.47956425 310:0.22759307 317:0.22386324 318:0.44925329 319:0.46458817 320:0.63312727 321:0.91214423 322:0.7174871 323:0.4027663 324:0.095239193 329:0.10998951 330:0.32656796 331:0.44381813 332:0.68155978 333:0.85516875 334:0.81544181 335:0.50588847 336:0.095239193 337:0.24375339 338:0.46793917 339:0.32338736 340:0.097294333 342:0.16410454 343:0.22932128 344:0.26358397 345:0.3616378 346:0.26307674 347:0.10318175 349:0.24375339 350:0.46793917 351:0.55110273 352:0.4870911 353:0.26744805 354:0.39958955 355:0.39724133 356:0.16192372 361:0.13716739 362:0.40614681 363:0.56755359 364:0.48303632 365:0.26744805 366:0.53595389 367:0.64336745 368:0.48634175 369:0.5292705 370:0.47269529 371:0.3444821 372:0.10000046 373:0.08318745 374:0.29535031 375:0.38007015 376:0.37598641 377:0.18594451 378:0.3125599 379:0.53342133 380:0.50135284 381:0.75145984 382:0.89182144 383:0.60796975 384:0.24164915 386:0.099880605 387:0.33677491 388:0.4354528 389:0.246699 390:0.16850416 391:0.24458777 392:0.36833097 393:0.76638257 394:0.97737052 395:0.82647717 396:0.38087537 400:0.081385601 401:0.2063653 402:0.37571868 403:0.43771104 404:0.42586125 405:0.59065471 406:0.55457997 407:0.35233846 408:0.14080477 412:0.13260177 413:0.4074537 414:0.52337904 415:0.48001927 416:0.18933856 424:0.05020202 425:0.24202152 426:0.49058084 427:0.47125509 428:0.1855894 449:0.13707419 450:0.13435994 451:0.24424084 452:0.24307279 453:0.0012559379 461:0.13707419 462:0.54506124 463:0.80747139 464:0.52347515 465:0.28128865 466:0.363202 467:0.26022982 468:0.13258699 473:0.35581852 474:0.89443971 475:0.91887957 476:0.86292839 477:0.46332893 478:0.35801413 479:0.30338789 480:0.13258699 481:0.13734201 482:0.13485868 484:0.10391261 485:0.65180602 486:0.89887836 487:0.73674038 488:0.42431626 489:0.33092171 490:0.16167489 491:0.042303474 493:0.26338323 494:0.26224899 495:0.011810724 496:0.23888677 497:0.52984627 498:0.68247574 499:0.35334387 500:0.20255734 501:0.0078355024 505:0.24771634 506:0.25952707 507:0.011576856 508:0.1323015 509:0.3388266 510:0.54334252 511:0.52248236 512:0.30096518 513:0.041947912 514:0.0018584123 520:0.225284 521:0.27841595 522:0.47245872 523:0.53709995 524:0.32818324 525:0.085920425 526:0.16621852 527:0.45884846 528:0.333314 532:0.23103539 533:0.28435768 534:0.26323376 535:0.29763286 536:0.34403997 537:0.22303809 538:0.17907535 539:0.45482881 540:0.41869435 544:0.028342507 545:0.14301629 546:0.20171682 547:0.49324095 548:0.44205965 549:0.17243138 550:0.10969061 551:0.27904665 552:0.21276962 556:0.00036553772 557:0.34716927 558:0.41337236 559:0.60778961 560:0.35996148 569:0.2093813 570:0.34651505 571:0.44694602 572:0.20179601 595:0.40340485 596:0.39940089 606:0.20220668 607:0.80280574 608:0.60059906 609:0.19919621 618:0.20220668 619:0.60160757 620:0.80282586 621:0.5926508 630:0.40340485 631:0.60160757 632:0.59960561 633:0.39345459 640:0.20220668 641:0.20220668 642:0.60059906 643:0.60059906 644:0.39739893 652:0.19820272 653:0.20220668 654:0.40441842 655:0.60361463 656:0.59665476 657:0.19820272 664:0.40542693 665:0.39739893 666:0.20119817 667:0.40039439 668:0.39745855 669:0.19820272 676:0.40340485 677:0.40340485 679:0.40441336 680:0.4004094 681:0.19820272 688:0.40340485 689:0.39940089 691:0.4004094 692:0.40441336 693:0.19820272 700:0.40340485 701:0.40542693 702:0.19919621 703:0.19820272 704:0.19820272 712:0.19820272 713:0.39739893 714:0.19525187 
0.1681531114803526 17:0.11777681 18:0.11544467 19:0.073972931 20:0.073972931 29:0.14266893 30:0.14781809 31:0.26073565 32:0.25341622 33:0.16064172 41:0.091092336 42:0.13251331 43:0.37532867 44:0.35842688 45:0.33741149 49:0.026665599 50:0.026137585 52:0.029484175 53:0.18237681 54:0.38480673 55:0.59113717 56:0.42706643 57:0.35404475 61:0.15906567 62:0.15591596 64:0.17063292 65:0.33775456 66:0.64083055 67:0.82920092 68:0.5937353 69:0.35169627 73:0.15768867 74:0.15768867 76:0.21362499 77:0.46680683 78:0.82952826 79:0.93029029 80:0.68161684 81:0.3480966 83:0.012713172 84:0.012713172 85:0.04614484 86:0.04614484 88:0.2467892 89:0.49278289 90:0.82361653 91:0.96996371 92:0.67947338 93:0.34058621 95:0.082405308 96:0.082241022 100:0.35152169 101:0.41678895 102:0.39495393 103:0.63930197 104:0.5970749 105:0.28083121 107:0.06831214 108:0.081986755 112:0.34448882 113:0.34448882 114:0.074155154 115:0.35095339 116:0.39035414 117:0.11303323 124:0.18694702 125:0.18694702 126:0.058172366 127:0.23236839 128:0.17534791 136:0.017001038 137:0.027008831 138:0.05756609 139:0.093295728 140:0.036869523 161:0.16310467 162:0.21781578 163:0.25066513 164:0.20288597 165:0.052877182 166:0.073269988 167:0.030360332 173:0.4296633 174:0.62305362 175:0.46186027 176:0.29782774 177:0.21467515 178:0.14223138 179:0.12498059 180:0.035297798 185:0.26462289 186:0.55767364 187:0.55135793 188:0.30095807 189:0.21927325 190:0.11263551 191:0.12386484 192:0.035297798 193:0.0054722959 194:0.060638091 195:0.090231723 196:0.034849672 198:0.26888574 199:0.38310335 200:0.12207255 201:0.007386753 205:0.20946693 206:0.26059336 207:0.13176727 208:0.2887724 209:0.22700362 210:0.42992898 211:0.41127761 212:0.20584586 217:0.55766567 218:0.7047496 219:0.20320383 220:0.2498112 221:0.28409104 222:0.61624717 223:0.69554451 224:0.37559685 225:0.25813353 226:0.26094621 227:0.27488639 228:0.16773431 229:0.35008266 230:0.57580752 231:0.49078693 232:0.33004593 233:0.21823241 234:0.90936415 235:1 236:0.51508899 237:0.32296142 238:0.28569536 239:0.39416655 240:0.32527076 242:0.19081699 243:0.37696823 244:0.33130162 245:0.1442973 246:0.46369442 247:0.68926911 248:0.34525419 249:0.063544209 250:0.16314616 251:0.18827629 252:0.32119188 256:0.4011133 257:0.39587023 258:0.09069182 259:0.20793373 260:0.11492036 268:0.47012345 269:0.56576547 270:0.31480188 271:0.025949004 272:0.011374571 280:0.13429962 281:0.43646289 282:0.3118452 283:0.025435179 284:0.01114934 305:0.35081941 306:0.56901047 307:0.45135499 308:0.49419022 309:0.50310824 310:0.34881699 311:0.10660694 317:0.34615382 318:0.58202879 319:0.58049956 320:0.66070688 321:0.85690956 322:0.75706382 323:0.53893668 324:0.099978954 330:0.22620106 331:0.4626482 332:0.63899913 333:0.82190801 334:0.85600681 335:0.53449731 336:0.099978954 337:0.25609723 338:0.49118056 339:0.33902053 340:0.10195877 342:0.17117011 343:0.23962299 344:0.20397666 345:0.30792926 346:0.16553573 349:0.25800881 350:0.49305428 351:0.47329965 352:0.40467731 353:0.27979346 354:0.531027 355:0.52858682 356:0.28178326 361:0.15035288 362:0.43716237 363:0.4937852 364:0.40047496 365:0.27979346 366:0.69017823 367:0.80213214 368:0.62146817 369:0.5446697 370:0.55761822 371:0.44193175 372:0.18853596 373:0.10596438 374:0.33357263 375:0.40532774 376:0.39909466 377:0.18840761 378:0.42619948 379:0.58183994 380:0.52666073 381:0.89646393 382:0.99870737 383:0.71496792 384:0.3252505 386:0.11734305 387:0.37173435 388:0.39773704 389:0.18840761 390:0.21644283 391:0.34652837 392:0.50477362 393:0.72090852 394:0.94076084 395:0.87307188 396:0.47548948 400:0.089128422 401:0.21213729 402:0.38104212 403:0.45176838 404:0.44362878 405:0.61786907 406:0.57810802 407:0.37555985 408:0.15339977 412:0.14432552 413:0.44966898 414:0.56086243 415:0.50329136 416:0.19943079 424:0.05410412 425:0.2687692 426:0.52856718 427:0.4944 428:0.1954818 449:0.17095691 450:0.16757174 451:0.24523459 452:0.24552001 453:0.0026881152 461:0.17010426 462:0.57941271 463:0.81103322 464:0.52716317 465:0.239781 466:0.30887302 467:0.24995681 468:0.12355245 473:0.36091056 474:0.89898817 475:0.92019451 476:0.80173691 477:0.39998047 478:0.30388885 479:0.24995681 480:0.12355245 481:0.10877366 482:0.10681402 484:0.12857855 485:0.67494196 486:0.89476039 487:0.73615927 488:0.35752959 489:0.26513052 490:0.11760868 493:0.20823452 494:0.20734345 495:0.0097112585 496:0.26288492 497:0.54876748 498:0.7052102 499:0.37439471 500:0.21916096 501:0.007984966 505:0.19547638 506:0.20518763 507:0.0095189627 508:0.2561431 509:0.36606609 510:0.54247242 511:0.53891702 512:0.31647045 513:0.041694506 514:0.0019005069 520:0.36268607 521:0.39810802 522:0.8589619 523:0.94633238 524:0.46834394 525:0.093477219 526:0.15818711 527:0.47874149 528:0.36001121 532:0.24337519 533:0.395265 534:0.53309131 535:0.70858071 536:0.59225772 537:0.2314267 538:0.1562866 539:0.4740909 540:0.44107634 544:0.028211395 545:0.14807482 546:0.21706917 547:0.49683229 548:0.45920181 549:0.17261291 550:0.10405188 551:0.26590218 552:0.20349396 557:0.35065325 558:0.42716398 559:0.62911663 560:0.35388888 569:0.20753488 570:0.35785311 571:0.46509523 572:0.19280812 595:0.40340485 596:0.39940089 606:0.20220668 607:0.80280574 608:0.60059906 609:0.19919621 618:0.20220668 619:0.60160757 620:0.80282586 621:0.5926508 630:0.40340485 631:0.60160757 632:0.59960561 633:0.39345459 640:0.20220668 641:0.20220668 642:0.60059906 643:0.60059906 644:0.39739893 652:0.19820272 653:0.20220668 654:0.40441842 655:0.60361463 656:0.59665476 657:0.19820272 664:0.20322025 665:0.20119817 666:0.60462314 667:0.80379924 668:0.59566127 669:0.19820272 676:0.20119817 677:0.20119817 678:0.39739893 679:0.79786795 680:0.4004094 681:0.19820272 688:0.40340485 689:0.39940089 691:0.4004094 692:0.40441336 693:0.19820272 700:0.40340485 701:0.40542693 702:0.19919621 703:0.19820272 704:0.19820272 712:0.19820272 713:0.39739893 714:0.19525187 
0.04051244165023588 17:0.16757685 18:0.16425861 19:0.075047072 20:0.075047072 29:0.18304404 30:0.18810954 31:0.26219064 32:0.25400519 33:0.16137187 34:0.018342438 35:0.018342438 36:0.017979233 41:0.081923981 42:0.17416471 43:0.45353147 44:0.35794857 45:0.33798122 46:0.017979233 47:0.018342438 48:0.017979233 49:0.045909067 50:0.045000007 52:0.029102487 53:0.17353794 54:0.46055462 55:0.67545166 56:0.51716531 57:0.35386293 61:0.17469472 62:0.17123553 64:0.17346015 65:0.33662111 66:0.73117025 67:0.92191113 68:0.68952017 69:0.35169635 73:0.17294581 74:0.17294581 76:0.21849533 77:0.47060251 78:0.89316802 79:0.9941296 80:0.70010394 81:0.34793537 83:0.044286366 84:0.044286366 85:0.043501614 86:0.043501614 88:0.24206767 89:0.48523654 90:0.79606287 91:0.94089673 92:0.68445936 93:0.33653419 95:0.10195856 96:0.10227266 100:0.34454263 101:0.40836482 102:0.44257733 103:0.71336135 104:0.58777882 105:0.27680628 107:0.056530207 108:0.10138692 112:0.34333874 113:0.34333874 114:0.15772498 115:0.4269234 116:0.38257398 117:0.11285739 124:0.1781873 125:0.1781873 126:0.029958046 127:0.16221107 128:0.13284623 136:0.010342373 137:0.010342373 138:0.029364837 139:0.028783375 161:0.20144619 162:0.25844989 163:0.28106975 164:0.23073755 165:0.0552165 166:0.11964429 167:0.074752422 173:0.5108807 174:0.7252793 175:0.52177878 176:0.33781137 177:0.2465622 178:0.15824634 179:0.14182972 180:0.075865035 185:0.30726108 186:0.65091017 187:0.62610678 188:0.33833674 189:0.24875157 190:0.089168368 191:0.13978567 192:0.075112043 193:0.011092931 194:0.072965183 195:0.14384019 196:0.081722133 198:0.37973088 199:0.45933278 200:0.1561846 201:0.0053930083 205:0.24684213 206:0.30404624 207:0.19015379 208:0.35832164 209:0.27016014 210:0.63967779 211:0.61768178 212:0.33322223 217:0.63131445 218:0.79246261 219:0.23266407 220:0.27204736 221:0.35031618 222:0.79919913 223:0.89169199 224:0.49541082 225:0.27915037 226:0.28765818 227:0.32046671 228:0.18965477 229:0.3916509 230:0.64227345 231:0.53767442 232:0.36290286 233:0.23859297 234:0.89235941 235:1 236:0.53570028 237:0.33992577 238:0.30370053 239:0.32046671 240:0.24353302 242:0.2092191 243:0.41069588 244:0.3646225 245:0.16207993 246:0.49236153 247:0.76327638 248:0.33249806 249:0.05957197 250:0.16755631 251:0.21442976 252:0.23871074 256:0.47334902 257:0.46705976 258:0.24765732 259:0.36200283 260:0.11208132 268:0.44997003 269:0.56131066 270:0.26033197 271:0.0230106 272:0.00799286 280:0.15341245 281:0.39888814 282:0.25698479 283:0.02255496 284:0.0078345908 305:0.33586972 306:0.54445182 307:0.43417174 308:0.47540297 309:0.48201417 310:0.43159728 311:0.19940327 317:0.3313452 318:0.56111214 319:0.55437672 320:0.70381846 321:0.89455995 322:0.87793932 323:0.59920616 324:0.18991391 330:0.21617326 331:0.44766261 332:0.6182454 333:0.8601163 334:0.87844197 335:0.59298388 336:0.18801703 337:0.24486066 338:0.46456927 339:0.41350824 340:0.19794822 341:0.006148405 342:0.18461066 343:0.18461066 344:0.21330182 345:0.28690614 346:0.14970075 349:0.2478585 350:0.46750774 351:0.50654389 352:0.4801086 353:0.36666041 354:0.5858577 355:0.58182646 356:0.29369067 361:0.14751825 362:0.41911407 363:0.46919218 364:0.47421387 365:0.36469284 366:0.62944879 367:0.73559978 368:0.63394769 369:0.54095423 370:0.5507327 371:0.4430614 372:0.19612748 373:0.10947361 374:0.34288522 375:0.41067274 376:0.3989578 377:0.1951917 378:0.4046384 379:0.63560874 380:0.70651254 381:1 382:0.97240176 383:0.74362086 384:0.36179096 386:0.11663178 387:0.37589033 388:0.39754695 389:0.19487149 390:0.22215866 391:0.34433376 392:0.36475337 393:0.57652315 394:0.79340552 395:0.89207006 396:0.51062853 400:0.094085028 401:0.19795861 402:0.39306508 403:0.38873809 404:0.30382978 405:0.47021698 406:0.43935901 407:0.36477458 408:0.15208516 412:0.094085028 413:0.30242605 414:0.45245028 415:0.45359962 416:0.22584893 424:0.040196468 425:0.19617286 426:0.37780336 427:0.41803753 428:0.1947966 451:0.21464335 452:0.2147953 453:0.0022733535 462:0.36278892 463:0.76153969 464:0.51095783 465:0.25546845 466:0.30423579 467:0.20631704 468:0.097297521 473:0.32803126 474:0.92086807 475:0.81189298 476:0.69465431 477:0.38689887 478:0.29920764 479:0.20631704 480:0.097297521 481:0.10327122 482:0.10137372 484:0.11774043 485:0.60898214 486:0.9477965 487:0.82552234 488:0.47121984 489:0.219084 490:0.10267981 493:0.16509206 494:0.16455175 495:0.0073699144 496:0.23607104 497:0.4939464 498:0.65678695 499:0.47488062 500:0.31101189 501:0.0073629005 505:0.15513545 506:0.16250536 507:0.0072239803 508:0.22407063 509:0.33252075 510:0.50623204 511:0.45028566 512:0.17032721 513:0.036968304 514:0.00029727467 515:0.063114327 516:0.063114327 520:0.31691566 521:0.35035124 522:0.5589219 523:0.61436312 524:0.33432015 525:0.088378764 526:0.1315093 527:0.47094242 528:0.37234881 532:0.21154614 533:0.34168107 534:0.4941126 535:0.51812755 536:0.42102291 537:0.20170782 538:0.13121203 539:0.40325597 540:0.4374891 544:0.020757098 545:0.10864101 546:0.25358283 547:0.5364518 548:0.38073971 549:0.14386277 550:0.078571386 551:0.1969377 552:0.14246355 557:0.20563449 558:0.27442634 559:0.43546688 560:0.31180542 569:0.10226907 570:0.22451802 571:0.26499428 572:0.14378147 595:0.40461688 596:0.40060089 606:0.20281421 607:0.80521777 608:0.60240356 609:0.1997947 618:0.20281421 619:0.40161243 620:0.60242374 621:0.3956332 630:0.40461688 631:0.40461688 632:0.39859292 633:0.1958385 640:0.20281421 641:0.20281421 642:0.60240356 643:0.60240356 644:0.39859292 652:0.19879822 653:0.20281421 654:0.40563349 655:0.60542819 656:0.59844741 657:0.19879822 664:0.20383082 665:0.20180267 666:0.60643973 667:0.9990483 668:0.59745093 669:0.19879822 676:0.20180267 677:0.20180267 678:0.60242374 679:0.9990483 680:0.40262904 681:0.1997947 688:0.40461688 689:0.40060089 690:0.20180267 691:0.40461688 692:0.40260891 693:0.1958385 700:0.40461688 701:0.40664503 702:0.1997947 703:0.19879822 704:0.19879822 712:0.19879822 713:0.39859292 714:0.1958385 
0.4222889490315354 6:0.019383579 7:0.17068449 8:0.14830496 17:0.015169507 18:0.10273324 19:0.61710334 20:0.5217477 25:0.083131808 26:0.081485688 28:0.057570615 29:0.14253216 30:0.15040967 31:0.6447775 32:0.72792452 33:0.19358496 37:0.25258653 38:0.24758499 40:0.33614223 41:0.40104181 42:0.20391308 43:0.20126752 44:0.72048615 45:0.61342154 49:0.24941315 50:0.24941315 52:0.61987585 53:0.60883759 54:0.15514976 56:0.74097837 57:0.73883759 61:0.015647621 62:0.015647621 64:0.70692868 65:0.69293055 68:0.71564915 69:0.70220595 70:0.036017517 76:0.68075289 77:0.68075289 78:0.045397008 79:0.045397008 80:0.75180357 81:0.73763005 82:0.036017517 83:0.013595222 84:0.013326019 88:0.6777488 89:0.72942136 90:0.12571932 91:0.045853255 92:0.76480679 93:0.71986149 95:0.28404063 96:0.28377143 100:0.5889712 101:0.67455417 102:0.35972702 103:0.087296512 104:0.7900293 105:0.71055636 107:0.26829513 108:0.28539807 112:0.20036576 113:0.50468034 114:0.49814943 115:0.43249075 116:1 117:0.69437352 120:0.16024212 125:0.29986453 126:0.37257947 127:0.44360403 128:0.7697872 129:0.34364587 137:0.034275348 138:0.046884465 139:0.13460288 140:0.11982286 163:0.25965191 164:0.25675249 169:0.009939803 170:0.14227348 171:0.2253939 172:0.092045915 175:0.45657014 176:0.5207652 177:0.22739138 181:0.41540117 182:0.61799575 183:0.39828956 184:0.50291173 185:0.41704448 186:0.42017996 187:0.5070413 188:0.61949633 189:0.39905867 193:0.40246433 194:0.61162352 195:0.63726292 196:0.87234089 197:0.82778307 198:0.86088832 199:0.53559771 200:0.38101689 201:0.21494218 205:0.14761798 206:0.38965913 207:0.40513305 208:0.59499712 209:1 210:0.95052226 211:0.47672548 212:0.50826565 213:0.63809545 214:0.18889 220:0.26206944 221:0.55688682 222:0.61476653 223:0.51802938 224:0.70045296 225:0.93925197 226:0.55981649 227:0.38379261 228:0.15941726 232:0.25370253 233:0.25100022 234:0.25625765 235:0.34566059 236:0.27293893 237:0.6790655 238:0.93629774 239:0.88619176 240:0.42874334 244:0.3336935 245:0.4199673 246:0.19577513 247:0.11425541 248:0.22675191 249:0.44633491 250:0.62261311 251:0.55130689 252:0.47950927 256:0.16601995 257:0.70276392 258:0.52931805 259:0.076830519 260:0.11206697 261:0.036075078 262:0.089420689 263:0.18805634 264:0.16406789 269:0.59481243 270:0.76656892 271:0.32106527 272:0.051608615 273:0.035360743 281:0.15038044 282:0.45848271 283:0.30200143 294:0.13144826 295:0.2635554 296:0.12949125 305:0.086734731 306:0.32772412 307:0.37092747 308:0.26224747 313:0.17321211 314:0.408598 315:0.29745026 316:0.062597758 317:0.086734731 318:0.19692496 319:0.45482181 320:0.25705462 325:0.30050646 326:0.62004451 327:0.44155598 328:0.28596193 329:0.21014806 330:0.38810524 331:0.37262906 332:0.12734772 337:0.12729434 338:0.60019268 339:0.83325111 340:0.56147011 341:0.42287677 342:0.69983228 343:0.69344558 344:0.52060502 349:0.050932828 350:0.2951758 351:0.40715147 352:0.40332123 353:0.55825302 354:0.74162379 355:0.89830147 356:0.61595471 357:0.24996966 358:0.14821752 364:0.12114898 365:0.29026959 366:0.6428807 367:0.7725226 368:0.6174782 369:0.38340131 370:0.31370386 371:0.18792123 372:0.048388447 378:0.32442903 379:0.58973125 380:0.52147552 381:0.31335125 382:0.52832148 383:0.68293054 384:0.31238308 390:0.11143127 391:0.364828 392:0.37622292 393:0.22955886 394:0.36311509 395:0.52878152 396:0.44199396 401:0.014313367 402:0.22568128 403:0.69350014 404:0.63393883 405:0.33248082 406:0.06732509 407:0.3274369 408:0.39289404 413:0.02869848 414:0.34792966 415:0.56766185 416:0.73562487 417:0.40726015 425:0.014100269 426:0.24054617 427:0.43678041 428:0.27449888 429:0.078159945 438:0.1690495 439:0.20277419 440:0.033056894 449:0.16936648 450:0.83294402 451:0.7246805 452:0.39685787 457:0.29914476 458:0.29579097 460:0.14663975 461:0.63951747 462:0.9742912 463:0.89446564 464:0.39287598 469:0.40151876 470:0.40180436 471:0.12848163 472:0.51333357 473:0.82872351 474:1 475:0.49358696 476:0.086756892 481:0.26737344 482:0.39585507 483:0.12593752 484:0.41590664 485:0.69818893 486:0.50489414 487:0.35581395 488:0.26269837 496:0.18516733 497:0.18516733 498:0.20763117 499:0.29906816 500:0.29340041 508:0.031901998 509:0.031901998 510:0.39938479 511:0.39938479 512:0.26001508 513:0.0056502024 522:0.25530428 523:0.27962259 524:0.28855149 525:0.023727035 527:0.16060446 528:0.16051185 534:0.04982149 535:0.18760144 536:0.21757652 537:0.039661838 539:0.16060446 540:0.16217156 546:0.1961481 547:0.75187382 548:0.75684908 549:0.35828615 551:0.0045839522 552:0.15896035 558:0.23874897 559:0.66900276 560:0.8937332 561:0.44913328 570:0.090555748 571:0.23133081 572:0.25105709 573:0.10933368 583:0.1257014 584:0.12321235 595:0.1257014 596:0.1257014 606:0.12507447 607:0.12507447 608:0.12321235 618:0.37585034 619:0.37585034 620:0.24704231 630:0.49968963 631:0.62663872 632:0.61670708 642:0.62539103 643:0.99627577 644:0.74302606 645:0.12507447 654:0.62476409 655:0.87742392 656:0.74610499 657:0.24459031 666:0.37336128 667:0.62228755 668:0.61733402 669:0.1257014 678:0.12507447 679:0.25016144 680:0.36842026 681:0.12321235 690:0.12507447 691:0.12507447 692:0.24707936 693:0.1257014 701:0.1257014 702:0.37710736 703:0.3746183 704:0.24704231 705:0.12321235 713:0.12321235 714:0.25077587 715:0.37211677 716:0.12137796 
0.3737293124577516 14:0.10461934 15:0.10254774 17:0.15438027 18:0.15313684 19:0.031244423 23:0.20476821 24:0.20071352 26:0.26469194 27:0.29148407 28:0.031188174 29:0.33446959 30:0.32964765 31:0.090359509 32:0.25896131 33:0.25896131 34:0.12401532 35:0.20374692 36:0.20374692 38:0.25070817 39:0.2946156 40:0.22886187 41:0.38992907 42:0.44610522 43:0.36152187 44:0.71847151 45:0.55628488 46:0.40245151 47:0.10010587 48:0.10010587 50:0.043190376 51:0.091308745 52:0.38029258 53:0.32909514 54:0.53554102 55:0.81647323 56:0.76186455 57:0.65715377 58:0.55088485 63:0.039312204 64:0.48453499 65:0.44522279 66:0.71499596 67:0.90834865 68:0.43255356 69:0.63550011 70:0.53569713 76:0.56435633 77:0.6492439 78:0.98940471 79:0.78821884 80:0.36964039 81:0.54803311 82:0.54700437 87:0.087551202 88:0.51376285 89:0.56957788 90:0.56963305 91:0.53195246 92:0.28042198 93:0.43178983 94:0.39510525 95:0.15078348 96:0.15078348 98:0.28917405 99:0.50360673 100:0.64318239 101:0.49684059 102:0.30891363 103:0.35493789 104:0.27673441 105:0.1500509 106:0.11337031 107:0.15078348 108:0.15229888 110:0.28630388 111:0.41067293 112:0.65159478 113:0.50043874 114:0.24845193 115:0.35508601 116:0.35282113 117:0.0037796219 118:0.0037796219 120:0.14928316 123:0.14279049 124:0.24841109 125:0.24365819 126:0.13521015 127:0.25679985 128:0.25457983 158:0.11315802 159:0.11253554 162:0.017287404 163:0.024543567 164:0.015820123 165:0.0016941086 166:0.0087692907 167:0.038753949 168:0.034698236 170:0.3783091 171:0.65736592 172:0.34613394 173:0.065612616 174:0.01694509 175:0.024057572 176:0.015820123 177:0.001660563 178:0.0085956471 179:0.038753949 180:0.034698236 182:0.363731 183:0.93255931 184:0.78916446 185:0.37996947 186:0.32816084 187:0.34844861 188:0.22556381 189:0.015919811 190:0.0010933067 194:0.098025366 195:0.57946497 196:1 197:0.67273374 198:0.45747675 199:0.66665494 200:0.55114617 201:0.22425704 202:0.080326861 207:0.097440601 208:0.4808139 209:0.69504354 210:0.61077927 211:0.59631834 212:0.39438149 213:0.35327559 214:0.25516932 220:0.091340761 221:0.43374437 222:0.57271449 223:0.44295654 224:0.23736409 225:0.2269088 226:0.40778822 227:0.24468353 232:0.0081044974 233:0.2289457 234:0.62162333 235:0.68233831 236:0.37903512 237:0.35335663 238:0.48535661 239:0.52622252 240:0.25163747 242:0.078936101 243:0.24428847 244:0.25948457 245:0.31519818 246:0.52855582 247:0.784425 248:0.49208049 249:0.29965684 250:0.37225866 251:0.37064335 252:0.35999943 254:0.15529021 255:0.41477796 256:0.48398479 257:0.40461244 258:0.28562732 259:0.41192822 260:0.25924575 261:0.096387509 262:0.19175409 263:0.11973173 264:0.10833697 266:0.074842192 267:0.21197642 268:0.39642406 269:0.24101053 270:0.055369275 271:0.041508154 272:0.041508154 302:0.14728216 303:0.14582032 305:0.064878835 306:0.21279511 307:0.30104441 308:0.30749583 309:0.30857713 310:0.41250488 311:0.3782861 312:0.14808985 314:0.14728216 315:0.19216103 316:0.087104068 317:0.089227043 318:0.20858148 319:0.29508333 320:0.34629642 321:0.45368181 322:0.56609471 323:0.56287299 324:0.24757894 326:0.072363344 327:0.19600874 328:0.20842371 329:0.21201497 330:0.26352734 331:0.2999355 332:0.18951338 333:0.14822067 334:0.25632795 335:0.25809003 336:0.097519075 338:0.015104991 339:0.039184137 340:0.1318998 341:0.20951382 342:0.38307216 343:0.49615578 344:0.36006635 345:0.0070038031 351:0.0027030095 352:0.03885552 353:0.092963312 354:0.36374651 355:0.59200237 356:0.42425943 357:0.048952314 358:0.047982993 364:0.011488405 365:0.12156146 366:0.52732667 367:0.5963222 368:0.34131742 369:0.091032563 370:0.13540967 371:0.056406376 375:0.11915217 376:0.27253226 377:0.34269202 378:0.53922491 379:0.52852858 380:0.28450895 381:0.24278001 382:0.24371083 383:0.18236065 384:0.078134957 386:0.056376659 387:0.27103561 388:0.58589192 389:0.7206637 390:0.61568344 391:0.55447244 392:0.40053938 393:0.23826707 394:0.29377759 395:0.4161503 396:0.31106553 398:0.088851851 399:0.29764509 400:0.63231461 401:0.99669479 402:0.96966648 403:0.6437103 404:0.30974638 405:0.090316608 406:0.21871038 407:0.32008639 408:0.26681758 410:0.032561378 411:0.14475364 412:0.34100935 413:0.54143383 414:0.53350537 415:0.2963255 416:0.062856706 446:0.077849186 447:0.076307669 449:0.27992105 450:0.29843499 451:0.13002559 452:0.0078151076 453:0.012203854 454:0.08960765 455:0.20511006 456:0.11834829 458:0.077849186 459:0.077849186 461:0.40846538 462:0.42399472 463:0.22369703 464:0.1443314 465:0.2389558 466:0.29005165 467:0.28199516 468:0.1654852 470:0.076307669 471:0.076307669 472:0.038051745 473:0.23948801 474:0.33240597 475:0.40963692 476:0.36975177 477:0.23842302 478:0.31489798 479:0.23936157 480:0.1237198 484:0.03729827 485:0.096679834 486:0.39190065 487:0.72678447 488:0.43079554 489:0.14247429 490:0.034097347 496:0.011735729 497:0.090140258 498:0.64715978 499:0.84421757 500:0.62100635 501:0.10555577 502:0.011538235 508:0.24205031 509:0.39158397 510:0.65131457 511:1 512:0.59426773 513:0.28413192 514:0.16379916 519:0.14391232 520:0.55128986 521:0.47593596 522:0.42702339 523:0.58562452 524:0.56805217 525:0.51016029 526:0.39373773 527:0.044267521 528:0.044267521 530:0.12446336 531:0.38148741 532:0.66626018 533:0.49989799 534:0.42733161 535:0.64492631 536:0.56302665 537:0.56104616 538:0.33508528 539:0.1004164 540:0.10074528 542:0.12210834 543:0.23583297 544:0.53396795 545:0.50052738 546:0.61549175 547:0.7564089 548:0.62552427 549:0.10741475 551:0.055037055 552:0.099859915 555:0.0054760844 556:0.069473017 557:0.199146 558:0.3081815 559:0.41213681 560:0.23566311 596:0.33667499 597:0.67503756 598:0.66500419 608:0.33000837 609:0.6716708 610:0.66500419 616:0.33667499 617:0.33667499 618:0.33000837 619:0.33836258 620:0.33499581 628:0.66500419 629:0.66500419 630:0.33000837 631:0.66833753 632:0.65510356 640:0.33499581 641:0.66999163 642:0.33499581 643:0.67334997 644:0.66001675 645:0.33667499 646:0.33000837 653:0.33499581 654:0.66345777 655:0.99834591 656:0.66668336 657:0.33667499 658:0.33667499 666:0.33166255 667:0.65510356 668:0.66837095 669:0.66500419 670:0.33000837 677:0.33667499 678:0.33000837 679:0.67334997 680:0.9916793 681:0.33499581 689:0.33667499 690:0.33667499 691:0.66668336 692:0.66668336 701:0.33000837 702:0.33000837 703:0.33000837 704:0.33000837 
0.3615247642406421 17:0.048139735 18:0.047186504 22:0.0082522774 23:0.0082522774 25:0.26315669 26:0.29310824 27:0.033853699 28:0.13259517 29:0.23280436 30:0.16111629 32:0.083287605 33:0.0816384 34:0.016545919 35:0.016628856 36:0.016299583 37:0.30826193 38:0.36743611 39:0.1598367 40:0.38930846 41:0.43664611 42:0.2990485 43:0.0769764 44:0.32317037 45:0.31677117 46:0.008129417 47:0.016463808 48:0.016137803 49:0.084528004 50:0.20839416 51:0.19949896 52:0.40641471 53:0.5269485 54:0.40430115 55:0.35057115 56:0.61717247 57:0.46737812 62:0.029857997 63:0.095895145 64:0.30455946 65:0.50746838 66:0.76699814 67:0.62832427 68:0.73487587 69:0.50211544 75:0.053709114 76:0.055963706 77:0.48613724 78:1 79:0.73087178 80:0.61751161 81:0.49039929 82:0.1927747 89:0.33479055 90:0.69242045 91:0.74150673 92:0.46333151 93:0.50814841 94:0.4217499 101:0.14928566 102:0.3627131 103:0.33788481 104:0.32756199 105:0.36912591 106:0.31159451 107:0.087244064 108:0.085516516 113:0.14695857 114:0.19633789 115:0.12510701 116:0.17219628 117:0.1796159 118:0.081492342 119:0.21011892 120:0.20889629 126:0.037354445 127:0.074915052 128:0.12016888 129:0.045275981 131:0.20716874 132:0.20716874 161:0.01773122 162:0.037784318 163:0.020789005 164:0.0010984236 165:0.0061446086 166:0.12234201 167:0.11615632 169:0.21485596 170:0.56351415 171:0.34606094 173:0.01773122 174:0.037784318 175:0.033131585 176:0.0087488045 177:0.0061446086 178:0.12234201 179:0.12150056 180:0.099008918 181:0.32418448 182:0.90361813 183:0.86149991 184:0.35418605 185:0.069832036 186:0.056536119 187:0.05636012 188:0.0085755665 189:0.0020524341 190:0.02221279 191:0.11909469 192:0.09704841 193:0.10863074 194:0.47898624 195:0.96667288 196:0.77068512 197:0.61516617 198:0.69678287 199:0.30080337 200:0.15775104 201:0.042591834 206:0.11826629 207:0.58741971 208:0.7810374 209:0.80091638 210:0.8382166 211:0.58846011 212:0.30421484 213:0.23932132 219:0.35383633 220:0.69446277 221:0.68725351 222:0.6377015 223:0.51224306 224:0.28941872 225:0.37917931 226:0.090949512 232:0.34190963 233:0.5561497 234:0.66221926 235:0.37444946 236:0.13410143 237:0.49632385 238:0.51364521 239:0.10930556 245:0.42184034 246:0.83650946 247:0.54585746 248:0.33817361 249:0.48986022 250:0.75119812 251:0.54962416 252:0.10919861 257:0.33488637 258:0.58166247 259:0.60966244 260:0.47641097 261:0.27643378 262:0.50261716 263:0.76559425 264:0.37442663 269:0.10967448 270:0.28083799 271:0.19760241 272:0.13837329 273:0.22346105 274:0.17382604 275:0.32453964 276:0.26091365 305:0.22684914 306:0.45369351 307:0.4638153 308:0.47028726 309:0.46915348 310:0.451096 311:0.21541479 313:0.15197864 314:0.24034294 315:0.19020151 317:0.22684914 318:0.45369351 319:0.4638153 320:0.61265717 321:0.84680453 322:0.82397624 323:0.54991847 324:0.16527119 325:0.14896926 326:0.26481009 327:0.23605593 328:0.16352763 329:0.11145656 330:0.33260653 331:0.45227139 332:0.52910828 333:0.76365871 334:0.84463171 335:0.54329757 336:0.16326177 338:0.03780236 339:0.14828849 340:0.27215765 341:0.2488871 342:0.60021403 343:0.53205117 344:0.21278543 345:0.21762327 346:0.15104845 350:0.0151766 351:0.058200156 352:0.2009054 353:0.28719054 354:0.85684309 355:0.78234782 356:0.37365264 363:0.0075280748 364:0.042887426 365:0.36874881 366:0.87444879 367:0.9749521 368:0.3046569 369:0.12944087 370:0.057294429 376:0.025239785 377:0.55377093 378:0.94562189 379:0.80541245 380:0.078371592 381:0.19502138 382:0.17610788 383:0.019067465 389:0.37981923 390:0.82351105 391:0.65586376 392:0.38103793 393:0.25982268 394:0.21384796 395:0.070646291 396:0.015694932 400:0.10352947 401:0.34038005 402:0.60467363 403:0.74371706 404:0.52710345 405:0.35691008 406:0.44275941 407:0.51506212 408:0.26622703 412:0.20757787 413:0.36812989 414:0.60046496 415:0.49675474 416:0.28835179 417:0.2294245 418:0.39774641 419:0.46344569 420:0.2541801 424:0.10198811 425:0.30384206 426:0.40248923 427:0.1015355 449:0.07704929 450:0.075523612 451:0.0040044564 452:0.013522575 453:0.0094386989 454:0.10684818 455:0.10684818 457:0.14738851 458:0.14665341 459:0.072054424 460:0.12650714 461:0.27549088 462:0.21519356 463:0.0040044564 464:0.17558346 465:0.29362677 466:0.38936534 467:0.30989871 468:0.21104243 469:0.14447002 470:0.14665341 471:0.072054424 472:0.27614249 473:0.37623873 474:0.3219742 475:0.082731114 476:0.21497868 477:0.33441344 478:0.27772416 479:0.30776171 480:0.20894775 484:0.16644626 485:0.23586125 486:0.45240783 487:0.37682958 488:0.27046844 489:0.25420668 490:0.089579298 496:0.064444219 497:0.28423263 498:0.8547881 499:0.65934591 500:0.19666988 501:0.014351255 509:0.57742066 510:1 511:0.67670324 512:0.1670142 513:0.014875516 521:0.49334691 522:0.80831356 523:0.66991104 524:0.23712703 525:0.23491132 526:0.052949824 533:0.20037872 534:0.51749005 535:0.51212793 536:0.65704698 537:0.45677073 538:0.12330848 544:0.019113125 545:0.14774029 546:0.47198775 547:0.66137273 548:0.72192821 549:0.50476829 550:0.069251314 551:0.092720651 552:0.091682131 556:0.033708651 557:0.16233581 558:0.39406604 559:0.52206682 560:0.38531509 561:0.10327614 562:0.011535566 563:0.091915165 564:0.091682131 568:0.014306515 569:0.087910995 570:0.23785285 571:0.14917179 596:0.40299844 597:0.39899852 608:0.40299844 609:0.40501848 610:0.19899554 620:0.19800304 621:0.39699858 622:0.19505516 628:0.20301551 629:0.20099547 630:0.20200297 631:0.20200297 632:0.19800304 640:0.20099547 641:0.20099547 642:0.60100148 643:0.60100148 644:0.39600608 653:0.20200297 654:1 655:0.79799703 656:0.39699858 657:0.20099547 665:0.20200297 666:0.60100148 667:0.60401402 668:0.3940507 669:0.20301551 670:0.19899554 677:0.19800304 678:0.39600608 679:0.59799405 680:0.5980536 681:0.39699858 682:0.19505516 690:0.20200297 691:0.59900155 692:0.60100148 693:0.19800304 700:0.20200297 701:0.20200297 702:0.19800304 703:0.20200297 704:0.19800304 712:0.19800304 713:0.20200297 714:0.19800304 
0.3226053105835272 17:0.051527488 18:0.050603538 19:0.0023910386 23:0.058667269 24:0.057505579 25:0.15271409 26:0.22466171 27:0.11711977 28:0.083165262 29:0.23160153 30:0.1672678 31:0.0047940623 32:0.10012341 33:0.10012341 35:0.058667269 36:0.058667269 37:0.15073977 38:0.23671752 39:0.25899051 40:0.29950046 41:0.38256093 42:0.32359431 43:0.15347422 44:0.47678945 45:0.41390316 46:0.19775994 47:0.057505579 48:0.057505579 50:0.11827004 51:0.18871252 52:0.30723958 53:0.36022854 54:0.52670941 55:0.49526481 56:0.80934629 57:0.61853171 58:0.2914648 63:0.092130397 64:0.31492817 65:0.31574522 66:0.67595706 67:0.80971545 68:0.69253462 69:0.48707681 70:0.2657133 76:0.4392513 77:0.6162758 78:0.71248883 79:1 80:0.43565278 81:0.46430724 82:0.36310618 87:0.067496471 88:0.4768988 89:0.70764396 90:0.49034862 91:0.55360356 92:0.20979648 93:0.46078565 94:0.45580929 99:0.21624057 100:0.41648718 101:0.56879896 102:0.23622373 103:0.17444372 104:0.21030006 105:0.29780112 106:0.26001457 107:0.22262613 108:0.22200701 111:0.2216354 112:0.49798311 113:0.63685857 114:0.19132074 115:0.14609024 116:0.13554196 117:0.035601844 118:0.0010571622 119:0.22035552 120:0.22340001 123:0.072470429 124:0.28185243 125:0.36993745 126:0.091432308 127:0.049290282 128:0.049290282 132:0.1068823 161:0.005437271 162:0.027365719 163:0.027602246 164:0.0057902105 165:0.0028986915 166:0.027529081 167:0.06400526 168:0.038677236 169:0.12526718 170:0.37797655 171:0.36139935 172:0.11266273 173:0.0053296058 174:0.027039862 175:0.032398077 176:0.0167004 177:0.0028986915 178:0.027529081 179:0.066550256 180:0.059051547 181:0.12402128 182:0.71310697 183:0.90498935 184:0.52696596 185:0.28168586 186:0.11456666 187:0.09724644 188:0.063166349 189:0.0084949662 190:0.0076204818 191:0.065232473 192:0.057882248 194:0.33487983 195:0.85524105 196:0.88470651 197:0.58684532 198:0.55346362 199:0.38656823 200:0.22228681 201:0.12037547 202:0.021531211 207:0.32591023 208:0.83009968 209:0.82765191 210:0.69546824 211:0.588918 212:0.2901186 213:0.22373188 214:0.17183038 220:0.34129569 221:0.75275448 222:0.61904343 223:0.37279342 224:0.16220897 225:0.35716632 226:0.24316631 232:0.004328802 233:0.38616854 234:0.5713159 235:0.34443117 236:0.20763815 237:0.29766742 238:0.55341085 239:0.41273642 240:0.10208415 243:0.04056464 244:0.04056464 245:0.3457987 246:0.59014419 247:0.62428476 248:0.4613262 249:0.44619606 250:0.45480883 251:0.68109959 252:0.4946709 255:0.15136079 256:0.32676458 257:0.42722417 258:0.482705 259:0.45878212 260:0.34099546 261:0.35681919 262:0.23980688 263:0.39916183 264:0.43964934 267:0.10860224 268:0.28083766 269:0.37523584 270:0.1060658 274:0.072290259 275:0.091402567 276:0.050128351 280:0.014080689 281:0.015101074 282:0.00100018 305:0.1111942 306:0.33388152 307:0.4523615 308:0.45941647 309:0.45955368 310:0.45526354 311:0.32003293 312:0.094808686 313:0.095927707 314:0.28630693 315:0.28331713 316:0.079202426 317:0.10899241 318:0.3294669 319:0.45019249 320:0.52801515 321:0.68498201 322:0.76133728 323:0.66471577 324:0.27806097 325:0.094028211 326:0.31778073 327:0.3242506 328:0.21808244 329:0.2063548 330:0.1810737 331:0.22341902 332:0.4484035 333:0.60002633 334:0.75379264 335:0.65604874 336:0.27396529 338:0.036743828 339:0.083553847 340:0.20379488 341:0.29150861 342:0.60160415 343:0.75385225 344:0.39368584 345:0.067916112 346:0.066571283 351:0.019800154 352:0.087280909 353:0.23124981 354:0.86070158 355:1 356:0.70761479 364:0.036036443 365:0.14268776 366:0.80066179 367:0.82056352 368:0.41896745 369:0.15456387 370:0.15204954 376:0.0305263 377:0.28644933 378:0.74034928 379:0.85818075 380:0.31707676 381:0.2169138 382:0.19635772 383:0.063401842 384:0.017746795 388:0.030222558 389:0.21530022 390:0.6123498 391:0.87152771 392:0.69665861 393:0.43573929 394:0.41559065 395:0.43224196 396:0.17405055 399:0.08752447 400:0.54727619 401:0.66700774 402:0.48182648 403:0.57293936 404:0.55694508 405:0.37794019 406:0.36904732 407:0.45786274 408:0.30235301 411:0.085791369 412:0.5410061 413:0.64721686 414:0.47774978 415:0.22132779 416:0.07413148 418:0.17740907 419:0.40105939 420:0.2488801 424:0.11331222 425:0.22719242 426:0.11162522 449:0.40187724 450:0.39922026 451:0.13152517 452:0.012353485 453:0.010809999 454:0.078442314 455:0.18153196 456:0.10196743 457:0.13165959 458:0.15612964 459:0.15327913 460:0.063872381 461:0.61122395 462:0.54176139 463:0.26370962 464:0.11796617 465:0.21850179 466:0.28740106 467:0.33460957 468:0.23568625 469:0.12905256 470:0.15588616 471:0.15327913 472:0.1510529 473:0.40651291 474:0.53616942 475:0.31512269 476:0.22609325 477:0.24949531 478:0.27939477 479:0.33099957 480:0.23210695 484:0.08593005 485:0.21619162 486:0.44562235 487:0.64341733 488:0.37851604 489:0.14879018 490:0.11812783 496:0.0016177239 497:0.13756319 498:0.63647228 499:0.89940965 500:0.5598203 501:0.012157621 508:0.0561771 509:0.3277013 510:0.92250899 511:1 512:0.33091106 513:0.091165968 514:0.045785774 519:0.085000622 520:0.29661468 521:0.53213402 522:0.71686928 523:0.80328405 524:0.45157496 525:0.49527435 526:0.22367765 531:0.2605111 532:0.41575831 533:0.50988611 534:0.32308511 535:0.46727713 536:0.72985631 537:0.6138946 538:0.34025318 539:0.21198556 540:0.20988151 543:0.17348552 544:0.43324444 545:0.60249899 546:0.35057826 547:0.50773287 548:0.55979491 549:0.39865418 550:0.13131987 551:0.21198556 552:0.21304814 556:0.25593392 557:0.43134868 558:0.41650616 559:0.35446471 560:0.20325756 563:0.10415372 564:0.2088295 569:0.065927896 570:0.064622436 596:0.33166806 597:0.33166806 608:0.33166806 609:0.33500138 610:0.32836791 616:0.33166806 617:0.33166806 619:0.33333056 620:0.32673017 621:0.32836791 622:0.32186579 628:0.33166806 629:0.33500138 630:0.32836791 631:0.33333056 632:0.33333056 640:0.33500138 641:0.66003597 642:0.32186579 643:0.65839823 644:0.65839823 652:0.33166806 653:0.99019773 654:0.99502902 655:0.99172879 656:0.65839823 657:0.33500138 658:0.33166806 665:0.65509808 666:0.97532613 667:0.66006072 668:0.66499862 669:0.65509808 670:0.33166806 679:0.66666944 680:1 681:0.66169847 688:0.33333056 689:0.66833194 690:0.65839823 691:0.33166806 692:0.98676614 693:0.64859596 700:0.32673017 701:0.66499862 702:0.65839823 
0.4256415224959194 5:0.14386098 6:0.28435344 7:0.13862445 17:0.28546354 18:0.52370977 19:0.40138596 20:0.09365454 26:0.12483695 27:0.16000354 28:0.035491194 29:0.14161885 30:0.43391451 31:0.57263135 32:0.24326444 38:0.28192698 39:0.42467295 40:0.19495641 42:0.33585497 43:0.59849758 44:0.26407879 50:0.26065994 51:0.43977643 52:0.37022807 53:0.07116053 54:0.28608423 55:0.5518408 56:0.41122092 57:0.29936932 58:0.19301931 59:0.036571801 62:0.23472464 63:0.30500069 64:0.33780399 65:0.10612425 66:0.32243949 67:0.56510532 68:0.64702291 69:0.77132978 70:0.45952895 71:0.25922051 72:0.1486275 74:0.20200336 75:0.25567946 76:0.20769083 77:0.061940655 78:0.40389719 79:0.69072044 80:0.83532716 81:0.87045735 82:0.70517158 83:0.43453432 84:0.27948548 86:0.24860995 87:0.35569177 88:0.23189775 89:0.054089123 90:0.37195944 91:0.67497404 92:0.53675308 93:0.60033171 94:0.41725076 95:0.20227141 96:0.20109163 98:0.24081784 99:0.3418585 100:0.20413989 101:0.026575316 102:0.34607759 103:0.5427375 104:0.27822554 105:0.21483571 106:0.16555891 107:0.025824995 108:0.025313626 110:0.10105241 111:0.15555125 112:0.053953872 114:0.45118212 115:0.54917472 116:0.25411616 125:0.073428379 126:0.52565974 127:0.55386017 128:0.25670447 137:0.14722482 138:0.43022864 139:0.5331928 140:0.10379718 149:0.10934007 150:0.37835854 151:0.26544388 161:0.16759975 162:0.60017099 163:0.4915425 164:0.17158754 170:0.28757714 171:0.39421216 172:0.10592096 173:0.059239934 174:0.36062443 175:0.61289758 176:0.40043342 182:0.50144249 183:0.93082945 184:0.49852826 186:0.19573582 187:0.54822876 188:0.37276899 194:0.35678561 195:0.89299956 196:0.8545907 197:0.21237308 198:0.11967096 199:0.46000056 200:0.3985115 201:0.13184768 202:0.32356243 203:0.30570051 206:0.52203075 207:0.73046843 208:0.64006272 209:0.31671792 210:0.44973233 211:0.73676867 212:0.54906296 213:0.39384228 214:0.36901254 215:0.45003467 216:0.28430312 218:0.50501654 219:0.63228499 220:0.7128319 221:0.47785738 222:0.53395428 223:0.82160645 224:0.83336856 225:0.81856777 226:0.41350157 227:0.32374218 228:0.32021788 230:0.12515711 231:0.37816261 232:0.68891312 233:0.60344045 234:0.39141431 235:0.37441817 236:0.50217628 237:0.71077853 238:0.5342404 239:0.056702282 240:0.038658116 242:0.28592125 243:0.28449521 244:0.29126518 245:0.31372932 246:0.22061128 247:0.093030496 248:0.13477637 249:0.43198832 250:0.34575632 251:0.017686867 254:0.28025963 255:0.28449521 256:0.13977949 293:0.071338016 294:0.14303362 295:0.14090764 305:0.069925429 306:0.14232023 307:0.14090764 314:0.036831935 315:0.036648237 316:0.018006408 326:0.036102614 327:0.036648237 328:0.018006408 340:0.23342592 341:0.43931823 342:0.41277347 343:0.2962414 344:0.59131757 345:0.65554713 346:0.39969172 347:0.20250519 350:0.18616521 351:0.18523053 352:0.22929822 353:0.43110379 354:0.66751196 355:0.83096426 356:0.93716578 357:0.99076595 358:0.76562713 359:0.30781339 360:0.032667615 362:0.18247889 363:0.21138317 364:0.19016236 365:0.35435747 366:0.651177 367:0.81546939 368:0.90627172 369:0.88677805 370:0.51811019 371:0.1727731 372:0.032020753 375:0.030119052 376:0.18894242 377:0.35375809 378:0.46812429 379:0.44178125 380:0.55739472 381:0.57597676 382:0.49139061 383:0.27758637 384:0.074901677 386:0.07203565 387:0.07203565 388:0.10072808 389:0.22334112 390:0.38452689 391:0.28400499 392:0.27710243 393:0.36697228 394:0.3817799 395:0.2720898 396:0.073418524 398:0.070609249 399:0.07203565 400:0.070609249 425:0.10396731 426:0.20845576 427:0.20535739 437:0.041196135 438:0.082583946 439:0.081356392 449:0.040380397 450:0.082172131 451:0.081356392 458:0.21662002 459:0.21553963 460:0.10589992 470:0.21233066 471:0.21553963 472:0.10589992 482:0.068323842 483:0.068323842 484:0.19991612 485:0.19595752 487:0.061567322 488:0.15919081 489:0.25155081 490:0.15035159 491:0.010928491 494:0.15187895 495:0.15241747 496:0.33386968 497:0.19891904 498:0.23401548 499:0.42473857 500:0.61613994 501:0.66484083 502:0.43426029 503:0.069039827 504:0.037028584 506:0.28020657 507:0.45727382 508:0.42480457 509:0.18486985 510:0.59216692 511:0.90768136 512:0.96656229 513:0.82619686 514:0.58870275 515:0.37311257 516:0.20659567 518:0.34699377 519:0.69905934 520:0.52191294 521:0.17471578 522:0.3911623 523:0.68717297 524:0.71108742 525:0.53459292 526:0.49872853 527:0.3796373 528:0.3339193 530:0.23747215 531:0.50726229 532:0.50092746 533:0.085845543 534:0.15406517 535:0.35247115 536:0.25337962 537:0.16994525 538:0.1566928 539:0.16858399 540:0.12553567 542:0.087137138 543:0.21369237 544:0.17427926 546:0.22447904 547:0.33353638 548:0.26104985 557:0.017651333 558:0.29548012 559:0.35614501 560:0.25094847 569:0.035390893 570:0.21554625 571:0.2833708 572:0.097680067 581:0.11209826 582:0.22475841 583:0.22141772 593:0.10987856 594:0.22363742 595:0.22141772 602:0.33685666 603:0.33240615 604:0.10987856 614:0.33240615 615:0.33573567 616:0.10987856 626:0.11153916 627:0.22307833 628:0.33629757 629:0.22030789 630:0.22475841 631:0.4445044 632:0.44561423 633:0.5571534 634:0.33351598 635:0.10987856 638:0.11153916 639:0.22307833 640:0.4467269 641:0.33406675 642:0.44728599 643:0.7747239 644:0.77913021 645:0.77857112 646:0.55716455 647:0.22030789 650:0.11209826 651:0.22419651 652:0.66206655 653:0.43953897 654:0.4450663 655:0.77250701 656:0.77802318 657:1 658:0.77027619 659:0.10824268 662:0.22197682 663:0.32963568 664:0.44561423 665:0.44617613 666:0.33406675 667:0.44008974 668:0.44008974 669:0.55603524 670:0.44232056 671:0.11042933 674:0.33685666 675:0.33573567 676:0.21975712 677:0.22030789 678:0.21812124 679:0.10987856 680:0.11042933 681:0.10824268 682:0.11042933 683:0.10824268 686:0.22141772 687:0.33351598 688:0.10987856 713:0.11209826 714:0.22475841 715:0.22141772 
0.4268232001278657 20:0.0052322632 21:0.25962415 22:0.24945615 31:0.073303545 32:0.11919315 33:0.51003695 34:0.45457234 37:0.090779319 38:0.088981768 42:0.073635557 43:0.41811418 44:0.45103753 45:0.670079 46:0.49697446 49:0.14489938 50:0.14471051 53:0.0074817297 54:0.23480809 55:0.49555109 56:0.51095247 57:0.84913478 58:0.58702015 61:0.10777479 62:0.10777479 65:0.086175803 66:0.36274418 67:0.42961306 68:0.38183646 69:0.878165 70:0.65290785 75:0.085733899 76:0.085733899 77:0.31372932 78:0.45789042 79:0.51605084 80:0.43128443 81:0.88049613 82:0.54017712 87:0.40225135 88:0.39724612 89:0.33830502 90:0.30869582 91:0.49136565 92:0.49136565 93:0.97923491 94:0.50634796 99:0.3131912 100:0.39881522 101:0.25472735 102:0.12904839 103:0.49641499 104:0.5024006 105:1 106:0.50754759 111:0.12357386 112:0.12357386 113:0.28711273 114:0.32732098 115:0.42395733 116:0.4878152 117:0.98466578 118:0.50650997 125:0.11962881 126:0.19754465 127:0.19138086 128:0.29815838 129:0.83980968 130:0.54655864 140:0.065118303 141:0.3572956 142:0.29248002 165:0.23065706 166:0.22608975 174:0.0081467927 175:0.20504829 176:0.43376979 177:0.58758567 178:0.22910749 186:0.0082814728 187:0.31013061 188:0.55386251 189:0.5298692 190:0.13942105 193:0.042803162 194:0.042463007 195:0.008446608 198:0.47163128 199:0.68748076 200:0.45154632 201:0.23157365 202:0.069920577 205:0.041955603 206:0.042463007 207:0.008446608 209:0.17162549 210:0.92866991 211:0.86323278 212:0.86192859 213:0.13727109 214:0.0092639234 221:0.26605467 222:0.54917428 223:0.66652683 224:0.46106235 225:0.0075543878 226:0.0075543878 231:0.080170161 232:0.078582686 233:0.14846256 234:0.2628549 235:0.11212722 236:0.00050495329 237:0.0054677275 238:0.0054677275 241:0.11954572 242:0.11792087 243:0.080170161 244:0.30042308 245:0.74012045 246:0.51313592 247:0.047089101 248:0.047089101 249:0.021073761 250:0.0027616127 253:0.11954572 254:0.36186855 255:0.37944401 256:0.31040423 257:0.99541099 258:0.9759559 259:0.36595426 260:0.72875342 261:0.35980712 262:0.00056653273 265:0.080432559 266:0.2418437 267:0.30012639 268:0.15871904 269:0.40378917 270:0.74819417 271:0.35972509 272:0.8927518 273:0.93687824 274:0.43446916 284:0.33790425 285:0.77282813 286:0.430319 308:0.11953583 309:0.18844303 310:0.11557146 314:0.16215704 315:0.3437832 316:0.37148373 317:0.3604483 318:0.36349319 319:0.31706876 320:0.41689933 321:0.54220269 322:0.24890084 325:0.11828277 326:0.27956494 327:0.3437832 328:0.37148373 329:0.52189692 330:0.71306406 331:0.79782997 332:0.87845576 333:0.74567186 334:0.41524695 337:0.30934457 338:0.5010788 339:0.70404281 340:0.73458276 341:0.7341125 342:0.70100438 343:0.88879485 344:1 345:0.75448265 346:0.27905961 349:0.1895743 350:0.3783525 351:0.38442959 352:0.42942855 353:0.45126753 354:0.51193831 355:0.86875659 356:0.87149574 357:0.27476981 363:0.00012899411 364:0.069645185 365:0.4669816 366:0.62937183 367:0.54669278 368:0.28465396 369:0.0074678141 375:0.034616741 376:0.043235196 377:0.250251 378:0.4758645 379:0.30623829 380:0.056996746 381:0.0074678141 385:0.18086415 386:0.28232831 387:0.13637508 388:0.069669299 389:0.13366189 390:0.14978217 391:0.12832088 392:0.029890875 397:0.18086415 398:0.45588219 399:0.49729378 400:0.44767898 401:0.46504006 402:0.34147633 403:0.070572188 404:0.14267583 405:0.092387587 409:0.088266394 410:0.29552464 411:0.39238515 412:0.3801133 413:0.41231774 414:0.28946413 415:0.070572188 416:0.23474644 417:0.32628873 418:0.22334335 428:0.099264335 429:0.32346493 430:0.2225219 452:0.22176637 453:0.33705373 454:0.11486231 458:0.045976957 459:0.068063139 460:0.034586951 461:0.069187957 462:0.074252109 463:0.2786676 464:0.65956178 465:0.67925358 466:0.39038829 469:0.21663145 470:0.25940988 471:0.11347394 472:0.047059602 473:0.16127093 474:0.38588433 475:0.60449149 476:0.78347242 477:0.87031795 478:0.37228702 481:0.27187665 482:0.29964496 483:0.12098199 484:0.061104617 485:0.20505303 486:0.67705885 487:0.80182495 488:0.80184918 489:0.58292854 490:0.26476493 493:0.1272791 494:0.12963593 495:0.011895307 496:0.18711237 497:0.53472727 498:0.75339343 499:1 500:0.73835326 501:0.57133153 502:0.24822823 507:0.18118746 508:0.44583636 509:0.64322393 510:0.71657448 511:0.68919846 512:0.65846783 513:0.47404609 514:0.07058564 519:0.34460549 520:0.46969544 521:0.6063611 522:0.52073884 523:0.4741386 524:0.37173139 525:0.19686293 526:2.2635696e-05 529:0.13097362 530:0.32476927 531:0.35591969 532:0.3091711 533:0.29681573 534:0.38438248 535:0.29528355 536:0.090889008 537:0.01335863 538:0.0014358736 541:0.13097362 542:0.32219239 543:0.32651852 544:0.13781858 545:0.17266006 546:0.16477644 548:0.0021576284 549:0.0087592893 550:0.0085858437 553:0.064546772 554:0.19269819 555:0.13097055 556:0.010756573 557:0.0065288598 561:0.018141422 562:0.018141422 573:0.014949281 574:0.014949281 597:0.16847825 598:0.16680186 607:0.33527592 608:0.49959442 609:0.66556018 610:0.49792222 619:0.49959442 620:0.99339022 621:1 622:0.66224073 631:0.33527592 632:0.66639628 633:0.66556018 634:0.33112036 641:0.16680186 642:0.33443982 643:0.49875832 644:0.49627497 645:0.1643185 653:0.33443982 654:0.49875832 655:0.49709862 656:0.33279675 657:0.16514215 663:0.16763796 664:0.1643185 665:0.1643185 666:0.33278011 667:0.32619062 668:0.16514215 669:0.16187212 675:0.16763796 676:0.33195646 677:0.16763796 678:0.1643185 687:0.16763796 688:0.33195646 689:0.33195646 690:0.1643185 699:0.1643185 700:0.16763796 701:0.1643185 704:0.16763796 705:0.16763796 706:0.1643185 716:0.1643185 717:0.16763796 718:0.1643185 
-0.9503451770433862 16:0.087177519 17:0.085451288 19:0.086687286 20:0.085637228 27:0.10408999 28:0.39377262 29:0.28739038 30:0.093864541 31:0.23384733 32:0.13979076 33:0.033322692 39:0.44747785 40:0.81921464 41:0.58640145 42:0.30426172 43:0.34136634 44:0.32346519 45:0.032662859 51:0.56965507 52:0.82662854 53:0.83959654 54:0.51969686 55:0.32570507 56:0.22936029 63:0.45939883 64:0.79028797 65:0.8297217 66:0.41654923 67:0.22184926 68:0.045802782 75:0.47125451 76:0.95969753 77:0.82417556 78:0.41340049 79:0.34427024 87:0.48038289 88:0.98121177 89:0.95595495 90:0.57420585 91:0.50794515 92:0.044026754 99:0.47011916 100:0.9692784 101:1 102:0.66810842 103:0.66143247 104:0.22071942 111:0.40575116 112:0.71296677 113:0.74337656 114:0.35252881 115:0.49185879 116:0.17504422 123:0.17612458 124:0.28780351 125:0.28210461 126:0.11063563 127:0.11063563 136:0.056972349 137:0.055844221 160:0.11521516 161:0.11293375 164:0.012147704 165:0.053002259 166:0.052355209 172:0.34506874 173:0.34278732 174:0.11293221 176:0.011907163 177:0.052595749 178:0.052355209 183:0.06928045 184:0.52612487 185:0.45915424 186:0.33936486 195:0.20192554 196:0.54413137 197:0.65729596 198:0.56525862 207:0.48034343 208:0.59856478 209:0.85983029 210:0.33882596 219:0.34167431 220:0.44122485 221:0.43259168 222:0.030283687 231:0.012123788 232:0.012123788 233:0.40807071 234:0.80387877 235:0.4002887 243:0.19213463 244:0.37312026 245:0.54770821 246:0.90941858 247:0.9013442 255:0.73795415 256:0.99759596 257:0.57090441 258:0.52501177 259:0.52501177 267:0.55725598 268:0.64719743 269:0.63601053 270:0.030582304 271:0.030582304 280:0.42741087 281:0.42054378 307:0.17691677 308:0.56484589 309:0.71891933 310:0.38584383 318:0.048412799 319:0.27138635 320:0.6022529 321:0.75194982 322:0.75196321 323:0.71874491 324:0.61472232 330:0.097307393 331:0.50241199 332:0.66976018 333:0.5579421 334:0.68947636 335:0.71040506 336:0.72040383 341:0.053217724 342:0.13653851 343:0.43896138 344:0.62132066 345:0.63343624 346:0.61160316 347:0.45586667 348:0.15288475 351:0.19656263 352:0.54530913 353:0.583983 354:0.2015012 355:0.2039403 356:0.3138226 357:0.11775251 358:0.39731467 359:0.53967251 360:0.41892555 363:0.19267043 364:0.53451129 365:0.58310121 366:0.19961821 367:0.19308021 368:0.61403085 369:0.7468041 370:0.61803801 371:0.59580504 372:0.51024423 376:0.12220278 377:0.24161111 378:0.148382 379:0.23156785 380:0.73718864 381:0.75022509 382:0.57761462 383:0.40421337 384:0.092492912 387:0.082482298 388:0.43891925 389:0.54563683 390:0.39189537 391:0.24710161 392:0.51030741 393:0.50387147 394:0.074697428 399:0.23831436 400:0.85547625 401:0.95782231 402:0.52770993 403:0.34191023 404:0.25124216 405:0.12842617 406:0.037321033 411:0.15746532 412:0.54503118 413:0.72854306 414:0.59754839 415:0.36307512 416:0.10797128 424:0.34680441 425:0.68041671 426:0.43658231 427:0.10161012 448:0.12833285 449:0.12579169 451:0.32925019 452:0.37091403 453:0.15084837 454:0.0063595076 459:0.21064897 460:0.45922583 461:0.35201744 462:0.11951592 463:0.57392672 464:0.49326282 465:0.27345697 466:0.33596404 467:0.31550931 468:0.18822268 471:0.27116125 472:0.5058514 473:0.50068301 474:0.5284938 475:0.94142187 476:0.64184237 477:0.33212443 478:0.39741395 479:0.40094024 480:0.25978603 483:0.061649504 484:0.16549041 485:0.3892022 486:1 487:0.90348705 488:0.77040718 489:0.3310774 490:0.29839167 491:0.25754827 492:0.17012548 495:0.013469775 496:0.14798498 497:0.58682697 498:0.7947589 499:0.88346655 500:0.4663452 501:0.11677475 502:0.27376587 503:0.44811796 504:0.3989786 507:0.021510592 508:0.15336222 509:0.28095122 510:0.70630064 511:0.47624708 512:0.39806882 513:0.33978755 514:0.39190683 515:0.41123643 516:0.46403997 519:0.0094794786 520:0.13839463 521:0.33190706 522:0.41590536 523:0.59328461 524:0.84470063 525:0.58879866 526:0.41152813 527:0.25831927 528:0.067090981 531:0.26218518 532:0.58750378 533:0.57954304 534:0.52199276 535:0.83316622 536:0.97438705 537:0.5793345 538:0.21086712 543:0.27124532 544:0.50061266 545:0.71149936 546:0.60028636 547:0.66306246 548:0.62704088 549:0.3106071 550:0.1036042 555:0.012758823 556:0.14539279 557:0.26084461 558:0.37665036 559:0.47086302 560:0.19079927 568:0.0035168032 569:0.097512328 570:0.16255852 571:0.067844586 592:0.20099548 593:0.19701551 597:0.20200298 598:0.19999302 604:0.20099548 605:0.20099548 609:0.19999302 610:0.19999302 612:0.20200298 616:0.19701551 617:0.19701551 619:0.20099548 620:0.19701551 624:0.19999302 629:0.20200298 630:0.19999302 631:0.20099548 632:0.20099548 636:0.20099548 639:0.20099548 640:0.40299846 641:0.59700154 642:0.19999302 643:0.19701551 644:0.19701551 648:0.20099548 651:0.19701551 652:0.4009885 653:0.39700852 655:0.19999302 656:0.19999302 660:0.19701551 664:0.19999302 665:0.60198398 666:0.39801099 667:0.19999302 668:0.4009885 669:0.39899854 670:0.19701551 676:0.60299148 677:0.99700254 678:0.79700953 679:0.19701551 680:0.19800305 681:0.39507781 682:0.19701551 687:0.20099548 688:0.59601404 689:0.99302256 690:0.58811334 699:0.19701551 700:0.20099548 701:0.19701551 
-0.6377664159073951 16:0.0893247 17:0.087555953 19:0.05922694 20:0.058054168 27:0.1172888 28:0.47458961 29:0.35375444 30:0.15411072 31:0.21147761 32:0.11645805 33:0.0023352551 34:0.002289014 35:0.23285288 36:0.22824209 39:0.34055705 40:0.78319094 41:0.66284227 42:0.45460093 43:0.30974145 44:0.11705544 45:0.0023352551 46:0.0023352551 47:0.47109818 48:0.46176981 51:0.44515191 52:0.71091223 53:0.78296163 54:0.6896663 55:0.33528211 56:0.014544911 57:0.002289014 58:0.002289014 59:0.54870349 60:0.53965725 63:0.45157542 64:0.78056083 65:0.78017752 66:0.52603561 67:0.32848086 68:0.012556148 71:0.33514728 72:0.42792329 75:0.46410795 76:0.94457012 77:0.82775999 78:0.42125839 79:0.35372235 83:0.10066439 84:0.19160332 87:0.4736497 88:0.96719331 89:0.94040126 90:0.50605258 91:0.43910015 92:0.037449409 99:0.46110427 100:0.95422232 101:1 102:0.506241 103:0.48459058 104:0.03738789 111:0.44004326 112:0.69803198 113:0.7434007 114:0.38445752 115:0.3301606 123:0.21669808 124:0.32438387 125:0.31796063 126:0.11457915 127:0.11457915 136:0.10080586 137:0.098809766 160:0.084057033 161:0.082392592 164:0.046627468 165:0.046531369 166:0.036237397 172:0.33622666 173:0.33288948 174:0.082391108 176:0.045704182 177:0.070553012 178:0.036237397 179:0.0017062635 180:0.0016892859 183:0.02897126 184:0.44549531 185:0.41861728 186:0.24758731 189:0.025036285 190:0.02516178 191:0.015114783 192:0.01481549 195:0.11281526 196:0.36289899 197:0.39597868 198:0.32875301 201:0.012300942 202:0.024663543 203:0.26105526 204:0.25833161 207:0.22803446 208:0.33910016 209:0.4480203 210:0.16355683 215:0.24665981 216:0.26155139 219:0.14196699 220:0.22401087 221:0.22013728 222:0.0072684991 227:0.074467026 228:0.19674475 231:0.0067042881 232:0.0067042881 233:0.61951416 234:0.88404035 235:0.29707635 243:0.135142 244:0.13521067 245:0.60638969 246:0.9989182 247:0.97508551 255:0.3980821 256:0.48134528 257:0.18019779 258:0.69964306 259:0.69343811 267:0.27121694 268:0.35769237 269:0.3522583 270:0.02620009 271:0.02620009 280:0.30268624 281:0.29830873 307:0.34563897 308:0.73475463 309:0.56990149 310:0.18988979 318:0.06294447 319:0.40227691 320:0.72124082 321:0.76359874 322:0.74095721 323:0.55759076 324:0.36171435 330:0.16728602 331:0.51983017 332:0.59797337 333:0.62749176 334:0.7354346 335:0.74741184 336:0.36171435 341:0.015036461 342:0.14583213 343:0.48158312 344:0.64170233 345:0.67158713 346:0.57588092 347:0.26664652 348:0.11853483 351:0.18212433 352:0.51101944 353:0.5204766 354:0.14692508 355:0.239616 356:0.34731471 357:0.18184387 358:0.42077276 359:0.42083872 360:0.25815234 363:0.17851802 364:0.50090058 365:0.52017886 366:0.1427602 367:0.36597775 368:0.5706122 369:0.4892415 370:0.54613143 371:0.45270545 372:0.25576915 376:0.14633167 377:0.30122748 378:0.15539056 379:0.39456787 380:0.62124945 381:0.57775995 382:0.4613072 383:0.16848389 387:0.12990024 388:0.49605146 389:0.58450529 390:0.41221222 391:0.225368 392:0.48231235 393:0.26004074 399:0.27629196 400:0.8726913 401:0.8510393 402:0.54350591 403:0.25915635 404:0.1990724 405:0.083472864 411:0.14782329 412:0.5287558 413:0.71712739 414:0.53226951 415:0.29243606 416:0.076779449 424:0.33876094 425:0.64813289 426:0.38804454 427:0.077822184 448:0.099035157 449:0.09707413 451:0.24655287 452:0.25217241 453:0.060494765 459:0.17176932 460:0.37033605 461:0.28197086 462:0.32409099 463:0.56597621 464:0.36550932 465:0.1895228 466:0.36582061 467:0.20921717 468:0.068157772 471:0.22224057 472:0.40518124 473:0.40103156 474:0.68778738 475:0.7870692 476:0.42294999 477:0.28553161 478:0.37607332 479:0.28099918 480:0.076262167 483:0.051444757 484:0.13714682 485:0.40484166 486:0.9642305 487:0.99404474 488:0.56474974 489:0.31210427 490:0.30461474 491:0.16806808 492:0.16639459 495:0.010440784 496:0.15591643 497:0.55673564 498:0.89552249 499:0.88732594 500:0.3574162 501:0.12915223 502:0.34553946 503:0.45875159 504:0.32094795 507:0.016972224 508:0.15956726 509:0.31481217 510:0.50088011 511:0.33480799 512:0.27665056 513:0.30244107 514:0.40270306 515:0.44008913 516:0.31723537 519:0.0082570644 520:0.12017019 521:0.27032809 522:0.46086993 523:0.56734286 524:0.47407502 525:0.28813459 526:0.31257651 527:0.13114735 531:0.1913228 532:0.4784125 533:0.46323722 534:0.50781572 535:0.80085023 536:0.77565487 537:0.3465009 543:0.20181287 544:0.42006798 545:0.57601184 546:0.69069678 547:0.67411159 548:0.57666286 549:0.29070294 555:0.013492609 556:0.12920197 557:0.28833811 558:0.46027821 559:0.53438307 560:0.18207085 568:0.0078927368 569:0.11284087 570:0.18959497 571:0.083710439 592:0.20260926 593:0.19859733 596:0.20260926 597:0.20260926 598:0.19859733 604:0.20260926 605:0.20260926 608:0.19859733 609:0.20260926 610:0.19859733 611:0.20362485 612:0.20159874 616:0.19859733 617:0.19859733 618:0.20159874 619:0.40420801 620:0.19859733 623:0.20159874 624:0.20159874 628:0.20260926 629:0.20260926 630:0.20159874 631:0.40623411 632:0.40220207 635:0.20159874 636:0.20159874 639:0.20260926 640:0.60483144 641:0.60280534 642:0.19859733 643:0.39819013 644:0.39423793 647:0.20159874 648:0.20362485 651:0.19859733 652:0.40420801 653:0.40019608 655:0.20260926 656:0.19859733 660:0.1995928 665:0.40521853 666:0.40120659 667:0.40120659 668:0.40120659 669:0.19859733 675:0.20260926 676:0.60884337 677:0.8054146 678:0.60381586 679:0.39719466 680:0.40120659 681:0.20260926 687:0.40120659 688:0.79939673 689:1 690:0.39719466 692:0.19859733 693:0.19859733 699:0.19859733 700:0.20260926 701:0.19859733 
-0.7851227241757228 16:0.068269324 17:0.066917501 19:0.041047241 20:0.11348992 21:0.073255466 22:0.0006255125 27:0.067283182 28:0.34036564 29:0.26902016 30:0.11642699 31:0.20117508 32:0.23235606 33:0.30156222 34:0.22170358 35:0.089877218 36:0.08809753 39:0.23424771 40:0.57208621 41:0.48057769 42:0.25279649 43:0.27581969 44:0.15442703 45:0.30005089 46:0.29713891 47:0.27539674 48:0.26994352 51:0.42349225 52:0.69100366 53:0.53478447 54:0.4925899 55:0.25641909 56:0.030908585 57:0.075961951 58:0.075961951 59:0.41642516 60:0.4093478 63:0.43092402 64:0.74976006 65:0.56564323 66:0.46084613 67:0.24900277 68:0.0047933327 71:0.26352908 72:0.32312876 75:0.35571628 76:0.72522245 77:0.78100974 78:0.40302245 79:0.24379532 83:0.080956218 84:0.13937575 87:0.36339071 88:0.73289689 89:0.98094012 90:0.55194325 91:0.20174937 92:0.012535707 99:0.35138289 100:0.73713512 101:0.94105925 102:0.49083688 103:0.30387027 104:0.033843912 111:0.32150306 112:0.62292729 113:0.64893578 114:0.29833775 115:0.28609759 116:0.020886274 123:0.15288912 124:0.32303523 125:0.31843609 126:0.079265916 127:0.079265916 136:0.067116402 137:0.065787408 160:0.10039197 161:0.098404074 164:0.78194558 165:0.78144936 166:0.37187645 172:0.40156807 173:0.39559447 176:0.85538692 177:0.99617137 178:0.89655364 179:0.0019662175 180:0.0019466533 183:0.025148467 184:0.52411153 185:0.49997186 186:0.19730083 188:0.079350746 189:0.61981932 190:0.5862519 191:0.010131592 192:0.0099309726 195:0.13977149 196:0.53707228 197:0.53707185 198:0.39264339 201:0.067609467 202:0.067609467 203:0.323794 204:0.32008924 207:0.34112305 208:0.54643756 209:0.60584102 210:0.2942344 215:0.31477398 216:0.32428445 219:0.22352745 220:0.2720838 221:0.36574061 222:0.096933652 227:0.13466246 228:0.26999992 231:0.0068025992 232:0.0068025992 233:0.5623533 234:0.56187301 235:0.17080251 243:0.37212215 244:0.37212215 245:0.55842257 246:0.85492055 247:0.77655785 255:0.79538024 256:0.872461 257:0.46544667 258:0.65472581 259:0.64759289 267:0.43168742 268:0.69450149 269:0.68227574 270:0.048000789 271:0.048000789 280:0.40496676 281:0.39844396 307:0.29000219 308:0.63720539 309:0.34605283 318:0.052273471 319:0.3419931 320:0.63720539 321:0.6894386 322:0.71543093 323:0.55575148 324:0.34240012 330:0.1489796 331:0.36875843 332:0.61659319 333:0.9975722 334:0.80935483 335:0.72437346 336:0.44901429 341:0.0087253488 342:0.19208175 343:0.40337541 344:0.54481048 345:0.60208048 346:0.63599857 347:0.37120335 348:0.10612439 351:0.17861386 352:0.48602439 353:0.50101242 354:0.15643781 355:0.28396843 356:0.38515239 357:0.16475573 358:0.38406829 359:0.38487672 360:0.23662947 363:0.17507707 364:0.47640046 365:0.50083965 366:0.14550695 367:0.32272362 368:0.61406219 369:0.54496238 370:0.49877744 371:0.41516626 372:0.23449599 376:0.14225034 377:0.20616212 378:0.066981209 379:0.35488529 380:0.66300524 381:0.62254074 382:0.42308551 383:0.15634484 387:0.12633727 388:0.47586865 389:0.46725967 390:0.30875782 391:0.2080858 392:0.53472721 393:0.33436081 399:0.26981397 400:0.81835082 401:0.77241004 402:0.3985999 403:0.2144068 404:0.19088797 405:0.080757943 411:0.14479909 412:0.49015934 413:0.67025715 414:0.43955189 415:0.22422287 416:0.074012061 424:0.31759807 425:0.60033555 426:0.33880877 427:0.055399154 451:0.14462639 452:0.15119152 453:0.008494234 459:0.17113948 460:0.27670964 461:0.18649155 462:0.30049417 463:0.5085189 464:0.29996417 465:0.19427273 466:0.35246356 467:0.18467503 468:0.057590234 471:0.25658046 472:0.35963748 473:0.33757999 474:0.63373349 475:0.75359315 476:0.45274102 477:0.40793054 478:0.46615624 479:0.25862535 480:0.11749573 483:0.085794993 484:0.17373787 485:0.31632863 486:0.83803129 487:0.9767385 488:0.49076512 489:0.38536284 490:0.42472599 491:0.19619855 492:0.16981637 495:0.020924798 496:0.15607882 497:0.58357735 498:0.93384031 499:0.88023165 500:0.33255533 501:0.13065302 502:0.35146186 503:0.46919878 504:0.32740658 507:0.018871176 508:0.16077844 509:0.48342977 510:0.67530275 511:0.29530488 512:0.33483232 513:0.36165985 514:0.41159257 515:0.45041656 516:0.32406032 519:0.0096287445 520:0.11978135 521:0.32513761 522:0.51893878 523:0.57441484 524:0.53521816 525:0.34807471 526:0.32111012 527:0.13457202 531:0.1785427 532:0.47399198 533:0.49555086 534:0.56565722 535:0.86134401 536:0.83276558 537:0.4039709 543:0.19328333 544:0.42233518 545:0.57945659 546:0.64984114 547:0.72596413 548:0.68187027 549:0.29470454 555:0.017935972 556:0.12410499 557:0.30027058 558:0.4097122 559:0.47423929 560:0.18455963 568:0.0087336589 569:0.12554107 570:0.19965453 571:0.081946723 592:0.20179864 593:0.19780276 596:0.4025908 597:0.4025908 598:0.19780276 604:0.4046088 605:0.4025908 608:0.39859492 609:0.60039356 610:0.39659701 611:0.4046088 612:0.39659701 616:0.39859492 617:0.39859492 618:0.20079216 619:0.4025908 620:0.19780276 621:0.40059289 622:0.3966565 623:0.4025908 624:0.4025908 628:0.20079216 629:0.20079216 630:0.20079216 631:0.4046088 632:0.40059289 633:0.19780276 634:0.19780276 635:0.20079216 636:0.20079216 639:0.20179864 640:0.60540096 641:0.60140508 642:0.19879425 643:0.39659701 644:0.39266062 647:0.20079216 648:0.20281016 651:0.19780276 652:0.4025908 653:0.59738917 654:0.19485786 655:0.20179864 656:0.19780276 660:0.19879425 665:0.60640743 666:0.59839564 667:0.3996014 668:0.3996014 669:0.19780276 675:0.20079216 676:0.60438944 677:0.99799704 678:0.8021922 679:0.39560552 680:0.3996014 681:0.20179864 687:0.4025908 688:0.8021922 689:0.99799704 690:0.39560552 692:0.19780276 693:0.19780276 699:0.19780276 700:0.59839564 701:0.59046337 
-0.144619909795402 16:0.067635254 17:0.066295986 18:0.044346006 19:0.067574046 20:0.15521534 21:0.13244724 22:0.058473934 27:0.076495101 28:0.2797397 29:0.19922008 30:0.17385925 31:0.19574267 32:0.30523451 33:0.28246642 34:0.20407803 35:0.17656825 36:0.17307196 39:0.24514641 40:0.57896688 41:0.4116343 42:0.271809 43:0.26949939 44:0.1497149 45:0.2240338 46:0.21959763 47:0.35803675 48:0.35094715 51:0.33777764 52:0.66624503 53:0.44661868 54:0.47837256 55:0.27874569 56:0.016535841 57:0.075420574 58:0.073927147 59:0.35738882 60:0.35738882 63:0.42488041 64:0.73673094 65:0.50311057 66:0.48500563 67:0.25390579 71:0.30559035 72:0.30559035 75:0.43179775 76:0.79481631 77:0.68372223 78:0.38398175 79:0.23046495 83:0.12708285 84:0.12708285 87:0.358969 88:0.74088845 89:0.96318184 90:0.5172349 91:0.18582136 92:0.0095624878 99:0.38838896 100:0.72364569 101:0.94160199 102:0.57436492 103:0.35584782 104:0.0095624878 111:0.43131067 112:0.56855915 113:0.44585247 114:0.39095115 115:0.34177477 123:0.24463754 124:0.34137681 125:0.094823696 126:0.074512298 127:0.074512298 135:0.079089012 136:0.13226982 137:0.052127758 160:0.089847859 161:0.088068752 164:0.4834869 165:0.48302741 166:0.33409176 172:0.26999134 173:0.26464515 176:0.60680768 177:0.60888019 178:0.51992622 179:0.0018004728 180:0.0017825578 183:0.029657151 184:0.47696507 185:0.44655556 186:0.088068021 188:0.12916412 189:0.25192335 190:0.24698489 191:0.014927984 192:0.01463239 195:0.10105216 196:0.54426395 197:0.44745592 198:0.2646466 201:0.063442015 202:0.062234747 203:0.21752741 204:0.21322008 207:0.66285512 208:0.83303852 209:0.55812463 210:0.26332883 215:0.35680787 216:0.35680787 219:0.58040343 220:0.62607763 221:0.37797907 222:0.086750387 227:0.27832441 228:0.27832441 231:0.0073908391 232:0.0073908391 233:0.76548284 234:0.76278795 235:0.28004439 237:0.066965557 238:0.066299239 243:0.15157018 244:0.15164446 245:0.87508323 246:0.99497681 247:0.80559297 249:0.066299239 250:0.066299239 255:0.59747288 256:0.65764128 257:0.18414498 258:0.58612847 259:0.57693363 267:0.45534342 268:0.52227293 269:0.33504297 270:0.056971839 271:0.056971839 279:0.1386957 280:0.47247584 281:0.32840868 307:0.48023038 308:0.85294487 309:0.5614236 310:0.17965452 318:0.077284854 319:0.54988206 320:0.8386462 321:0.66951541 322:0.70431637 323:0.59783382 324:0.37475065 330:0.18049311 331:0.53888143 332:0.59245676 333:0.55166339 334:0.69827497 335:0.70534473 336:0.37475065 340:0.016089229 341:0.024270326 342:0.17563519 343:0.52376522 344:0.6608154 345:0.66536322 346:0.50410793 347:0.20294295 348:0.11203025 351:0.19018377 352:0.49373919 353:0.49641425 354:0.1452569 355:0.27961744 356:0.36768867 357:0.17602619 358:0.41092905 359:0.40753063 360:0.24490959 363:0.18641788 364:0.46819186 365:0.49593047 366:0.1180545 367:0.32397093 368:0.51758638 369:0.47461808 370:0.53270041 371:0.44063859 372:0.24265702 376:0.15093638 377:0.16609469 378:0.028904691 379:0.38286084 380:0.77372543 381:0.81023062 382:0.68403458 383:0.1657868 387:0.15167033 388:0.52975008 389:0.46125812 390:0.2757897 391:0.2508551 392:0.57066158 393:0.56853888 394:0.23605339 399:0.30937378 400:0.88816703 401:0.79846549 402:0.41172798 403:0.22970326 404:0.22291715 405:0.14532601 411:0.159376 412:0.51552362 413:0.69796289 414:0.48353939 415:0.23842814 416:0.0405128 424:0.34137739 425:0.6202164 426:0.33839172 427:0.058555584 448:0.10439543 449:0.10232827 450:0.085320551 451:0.2497194 452:0.16617749 453:0.026943443 459:0.17438225 460:0.3836964 461:0.29513508 462:0.3886248 463:0.54987227 464:0.34461535 465:0.18481666 466:0.34823945 467:0.18068981 468:0.050776364 471:0.24110411 472:0.43300066 473:0.37797713 474:0.64356484 475:0.73689623 476:0.48169181 477:0.33841215 478:0.41225389 479:0.25383604 480:0.05909499 483:0.067958534 484:0.17574585 485:0.57749857 486:0.98454604 487:0.95310153 488:0.55166932 489:0.35802127 490:0.35158953 491:0.1700013 492:0.16828987 495:0.016080236 496:0.28498948 497:0.75262145 498:1 499:0.87210523 500:0.34399006 501:0.12985335 502:0.34926869 503:0.46537339 504:0.32546686 507:0.017716944 508:0.17884628 509:0.45149087 510:0.66813399 511:0.28967193 512:0.27624874 513:0.30755552 514:0.40757989 515:0.44622434 516:0.32213229 519:0.0088445711 520:0.11634368 521:0.32897258 522:0.63556261 523:0.6762737 524:0.63025347 525:0.51830553 526:0.46214897 527:0.1303481 531:0.23525278 532:0.54875018 533:0.51117426 534:0.61789317 535:0.81754708 536:0.85655004 537:0.57360864 538:0.14566443 543:0.25130793 544:0.51463109 545:0.57412264 546:0.69608324 547:0.58508207 548:0.48739133 549:0.29312341 555:0.078899073 556:0.19063402 557:0.31491647 558:0.47865242 559:0.44317749 560:0.091375042 568:0.015321299 569:0.13894708 570:0.20822033 571:0.083806951 592:0.20119819 593:0.1972142 596:0.20119819 597:0.20119819 598:0.1972142 604:0.20119819 605:0.20119819 608:0.39740891 609:0.39740891 610:0.1972142 611:0.2022067 612:0.20019471 616:0.1972142 617:0.1972142 618:0.20019471 619:0.20019471 620:0.20019471 621:0.2022067 622:0.19820274 623:0.20019471 624:0.20019471 628:0.20019471 629:0.20019471 630:0.20019471 631:0.2022067 632:0.19820274 633:0.19820274 634:0.19427806 635:0.20019471 636:0.20019471 639:0.20119819 640:0.6035996 641:0.59961561 642:0.19820274 643:0.19820274 644:0.19427806 647:0.40240141 648:0.40240141 651:0.1972142 652:0.4013929 653:0.59561165 654:0.19427806 655:0.20119819 656:0.1972142 659:0.20019471 660:0.39839745 665:0.40340489 666:0.39541694 667:0.4013929 668:0.5986071 669:0.3994209 670:0.20019471 675:0.20119819 676:0.60460308 677:1 678:0.5986071 679:0.20019471 680:0.60061909 681:0.59959564 682:0.20019471 687:0.3994209 688:0.79083388 689:0.7958213 690:0.3944284 692:0.39541694 693:0.39149226 699:0.20019471 700:0.20019471 
-0.6936543197140613 16:0.066411939 17:0.065096895 18:0.042873955 19:0.06503283 20:0.15151547 21:0.12979537 22:0.057284051 27:0.1272703 28:0.32573416 29:0.19561679 30:0.14951569 31:0.17042133 32:0.29935444 33:0.27763434 34:0.20085916 35:0.17261886 36:0.16920078 39:0.29669392 40:0.62329566 41:0.40058233 42:0.21849247 43:0.24497549 44:0.15028827 45:0.22315534 46:0.21873657 47:0.34911467 48:0.34220174 51:0.33632378 52:0.59267677 53:0.3904802 54:0.44079321 55:0.22690566 56:0.0027106209 57:0.076615068 58:0.075097988 59:0.34851685 60:0.34851685 63:0.41569362 64:0.65497741 65:0.48020972 66:0.3834092 67:0.22242833 69:0.089292466 70:0.087524357 71:0.24653187 72:0.24653187 75:0.42145697 76:0.77622272 77:0.66465876 78:0.32169252 79:0.18027118 81:0.26832498 82:0.26301179 83:0.072770747 84:0.072770747 87:0.3513525 88:0.72532773 89:1 90:0.3883865 91:0.086806356 92:0.0093241773 93:0.35451106 94:0.35451106 99:0.37598816 100:0.70778332 101:0.90634959 102:0.48576178 103:0.28776766 104:0.0093241773 105:0.17637147 106:0.17637147 111:0.40560672 112:0.55284866 113:0.4195105 114:0.36269174 115:0.32855356 123:0.22766764 124:0.31764675 125:0.088197403 126:0.072097747 127:0.070670116 135:0.06791374 136:0.1163135 137:0.04744138 160:0.10652247 161:0.10441318 164:0.58455793 165:0.58385138 166:0.39793217 172:0.32009865 173:0.31376027 176:0.72661911 177:0.74606051 178:0.61963813 179:0.0021955669 180:0.0021737206 183:0.028066518 184:0.55852926 185:0.5294305 186:0.10440704 188:0.14918588 189:0.31311674 190:0.30731529 191:0.021319029 192:0.020896884 195:0.12213222 196:0.54156924 197:0.53049715 198:0.31375598 201:0.088012216 202:0.086660242 203:0.25022244 204:0.24526771 207:0.60422876 208:0.7017237 209:0.46126726 210:0.20727107 215:0.24544769 216:0.24544769 219:0.50087024 220:0.55978291 221:0.24980903 222:0.0044208616 227:0.15752829 228:0.15752829 231:0.0084316731 232:0.0084316731 233:0.75127806 234:0.74450689 237:0.081642467 238:0.080830111 243:0.17987002 244:0.17995476 245:0.99830363 246:0.99175408 247:0.57687545 249:0.080830111 250:0.080830111 255:0.76258059 256:0.82746563 257:0.32379635 258:0.66430278 259:0.65114871 267:0.59268346 268:0.66720166 269:0.3812868 270:0.082297743 271:0.080668138 279:0.18326032 280:0.5631523 281:0.37373681 307:0.3767796 308:0.75445227 309:0.57201009 310:0.17871425 318:0.034311518 319:0.40333613 320:0.76507004 321:0.68922635 322:0.7029792 323:0.60734302 324:0.38025107 330:0.14136556 331:0.38284795 332:0.50093714 333:0.5726835 334:0.6965293 335:0.71193038 336:0.38025107 340:0.012951371 341:0.014629557 342:0.15288077 343:0.39004027 344:0.47155505 345:0.56842368 346:0.50798555 347:0.18650113 348:0.058647737 351:0.27172164 352:0.55350359 353:0.47362773 354:0.14020835 355:0.26421054 356:0.21836967 357:0.17789573 358:0.46394873 359:0.34453328 360:0.18536665 363:0.26634119 364:0.52984857 365:0.47333546 366:0.096179066 367:0.41725079 368:0.60930285 369:0.40263952 370:0.43889174 371:0.43005883 372:0.18301477 376:0.15149417 377:0.16718148 378:0.029804457 379:0.4717789 380:0.86440001 381:0.82206662 382:0.59695254 383:0.16166278 387:0.15367319 388:0.53347341 389:0.46949166 390:0.27744466 391:0.27842224 392:0.58392061 393:0.56245122 394:0.24278769 399:0.31661298 400:0.88835032 401:0.73028576 402:0.40714765 403:0.2523367 404:0.24642143 405:0.14113482 411:0.16474393 412:0.51269597 413:0.69046007 414:0.40221652 415:0.16877743 416:0.036794339 424:0.35279002 425:0.61727773 426:0.26468982 448:0.10510361 449:0.10302242 450:0.08541707 451:0.31547802 452:0.22751174 453:0.023701166 459:0.23971502 460:0.34367376 461:0.2014112 462:0.30720479 463:0.53257173 464:0.4238389 465:0.28097743 466:0.33649939 467:0.17948205 468:0.041464892 471:0.2923521 472:0.38620951 473:0.28214208 474:0.47370736 475:0.47679247 476:0.39092044 477:0.43982568 478:0.52107181 479:0.25285791 480:0.049625265 483:0.11082685 484:0.19363892 485:0.57839624 486:0.79583618 487:0.61757036 488:0.25821231 489:0.41390466 490:0.45002105 491:0.16627508 492:0.085044945 495:0.012728953 496:0.29872608 497:0.81015541 498:0.91404342 499:0.62519613 500:0.14365682 501:0.13282013 502:0.4349637 503:0.38493367 504:0.24140768 507:0.019306872 508:0.18921719 509:0.51471838 510:0.66468353 511:0.32730586 512:0.32955476 513:0.2488533 514:0.35237136 515:0.4519115 516:0.23817849 519:0.0079606702 520:0.11466615 521:0.1725785 522:0.48216621 523:0.72799926 524:0.6659756 525:0.51003801 526:0.40165247 527:0.13301194 531:0.2375466 532:0.54756189 533:0.40625571 534:0.64183061 535:0.91324412 536:0.93119097 537:0.55534676 538:0.14358359 543:0.25758569 544:0.52852869 545:0.48169006 546:0.62700793 547:0.70457403 548:0.56380721 549:0.27566642 555:0.082910162 556:0.2038422 557:0.25335765 558:0.42422802 559:0.38226496 560:0.091742986 568:0.024782315 569:0.15644219 570:0.13074135 592:0.20099548 593:0.19701551 596:0.20099548 597:0.20099548 598:0.19701551 604:0.20099548 605:0.20099548 608:0.39700852 609:0.39700852 610:0.19701551 611:0.20200298 612:0.19999302 616:0.19701551 617:0.19701551 618:0.19999302 619:0.19999302 620:0.19999302 621:0.20200298 622:0.19800305 623:0.19999302 624:0.19999302 628:0.20099548 629:0.20099548 630:0.19999302 631:0.20200298 632:0.19800305 633:0.19800305 634:0.19408233 635:0.20099548 636:0.19701551 639:0.20099548 640:0.60001397 641:0.59800401 642:0.19701551 643:0.19800305 644:0.19408233 645:0.20099548 646:0.19701551 647:0.20099548 648:0.20099548 651:0.19701551 652:0.4009885 653:0.39700852 655:0.20099548 656:0.19701551 657:0.20099548 658:0.20099548 659:0.19701551 660:0.19701551 664:0.19999302 665:0.40199599 666:0.19999302 667:0.4009885 668:0.39700852 669:0.39700852 670:0.39700852 675:0.20099548 676:0.80398696 677:1 678:0.59501157 679:0.19999302 680:0.39901849 681:0.39799607 682:0.19999302 687:0.39901849 688:0.79003712 689:0.79600706 690:0.39109784 692:0.19800305 693:0.19408233 699:0.19999302 700:0.19999302 
