svm_type c_svc
kernel_type rbf
gamma 0.125
nr_class 3
total_sv 40
rho -0.358129 -0.737268 -0.510945
label 2 3 7
probA -3.86041 -2.91918 -2.70345
probB -0.359586 -0.347577 -0.117301
nr_sv 20 15 5
SV
0.4705524531509175 0.1954584678171922 18:0.010748212 19:0.028183154 20:0.017089708 21:0.11004791 22:0.11004791 28:0.0060733603 29:0.082605711 30:0.16432102 31:0.17963707 32:0.028018181 33:0.29722504 34:0.29722504 35:0.21032614 40:0.073620092 41:0.32595305 42:0.33401852 43:0.24175652 44:0.1922742 45:0.62047597 46:0.50006143 47:0.34683899 51:0.21478185 52:0.28407843 53:0.46891273 54:0.5464432 55:0.35630489 56:0.51014473 57:1 58:0.81650557 59:0.48570413 62:0.10946015 63:0.32459096 64:0.28715313 65:0.39763693 66:0.59303217 67:0.62644616 68:0.41180466 69:0.69878998 70:0.91252324 71:0.51660649 73:0.035261267 74:0.25896102 75:0.24133937 76:0.22879177 77:0.17209395 78:0.45993484 79:0.46585052 80:0.21808891 81:0.29787709 82:0.35117452 83:0.25730127 85:0.034563047 86:0.34920491 87:0.53422488 88:0.22146703 89:0.03555962 90:0.11711625 91:0.1275855 92:0.12394419 93:0.11009178 94:0.39005303 95:0.3845526 96:0.11004912 97:0.19463515 98:0.46232531 99:0.64338996 100:0.37031246 101:0.22286577 102:0.14564168 106:0.26091831 107:0.35879527 108:0.11004912 109:0.19302665 110:0.36205184 111:0.46548123 112:0.30558768 113:0.36163559 114:0.31654924 118:0.14847187 119:0.14847187 122:0.11227478 123:0.11005159 124:0.15443332 125:0.33635029 126:0.30455286 127:0.0093069857 137:0.2288049 138:0.23677477 139:0.0093069857 162:0.27574434 163:0.41865426 164:0.18988525 165:0.41302192 166:0.36193706 167:0.13509812 173:0.11583786 174:0.50526383 175:0.63986845 176:0.42952512 177:0.40755909 178:0.39800705 179:0.27087343 184:0.19730821 185:0.40087987 186:0.44272387 187:0.59862727 188:0.47367237 189:0.71215904 190:0.53536564 191:0.24331158 195:0.025288001 196:0.22197298 197:0.41338267 198:0.47652567 199:0.5938776 200:0.74596891 201:1 202:0.80167606 203:0.41600531 207:0.024787265 208:0.15729473 209:0.28408986 210:0.57292948 211:0.66440014 212:0.59006987 213:0.66304529 214:0.69292106 215:0.30232322 217:0.098334025 218:0.24238438 219:0.19423046 221:0.18626739 222:0.51597513 223:0.55494227 224:0.17827591 225:0.32505943 226:0.53079182 227:0.33165901 229:0.096386881 230:0.23848034 231:0.26775888 232:0.12515477 233:0.039315511 234:0.36630665 235:0.3901184 236:0.049212168 237:0.069508238 238:0.42010979 239:0.37972752 240:0.020659331 241:0.017126183 242:0.017126183 243:0.17225285 244:0.16654011 245:0.027041998 246:0.038886411 247:0.014235992 250:0.030426048 251:0.051502726 252:0.020659331 253:0.017126183 254:0.017298304 255:0.12692338 256:0.14870041 257:0.27577835 258:0.13783172 259:0.013302001 266:0.016955775 267:0.016620028 268:0.1446877 269:0.25818694 270:0.28653543 271:0.038354312 281:0.19812309 282:0.22121983 283:0.024814423 306:0.20989662 307:0.44199468 308:0.38056417 309:0.28935701 310:0.16315596 311:0.02958606 316:0.075503613 317:0.219245 318:0.39778852 319:0.48387708 320:0.44403689 321:0.28935701 322:0.1643418 323:0.030748414 327:0.023684758 328:0.38858568 329:0.66470419 330:0.63757406 331:0.53899068 332:0.33420491 333:0.4042323 334:0.21316531 335:0.058054061 339:0.11353509 340:0.45623499 341:0.64626771 342:0.90808597 343:0.80710531 344:0.51511328 345:0.52721648 346:0.37064277 347:0.056914723 350:0.15927591 351:0.25736867 352:0.22470015 353:0.3500468 354:0.68878496 355:0.92995859 356:0.58159539 357:0.56822761 358:0.40167665 359:0.038474463 361:0.02430035 362:0.50437703 363:0.52265937 364:0.23412213 365:0.29034232 366:0.58641431 367:0.61907103 368:0.61563872 369:0.62609183 370:0.43937516 371:0.12717342 373:0.02381917 374:0.43744802 375:0.70117411 376:0.58113924 377:0.5329032 378:0.51922171 379:0.41277332 380:0.35859208 381:0.26739374 382:0.19209216 383:0.087118834 386:0.098626037 387:0.40531197 388:0.57389559 389:0.58794582 390:0.47354911 391:0.21857071 392:0.062588432 393:0.022607389 394:0.031485017 395:0.0090236723 398:0.010331636 399:0.11417242 400:0.26315189 401:0.48523997 402:0.40597403 403:0.11850384 404:0.15001723 405:0.14754675 406:0.082553961 407:0.019569612 412:0.022736839 413:0.3636948 414:0.61443223 415:0.44459165 416:0.19655687 417:0.18270372 418:0.10674618 419:0.010337116 425:0.17578927 426:0.48701195 427:0.42067483 428:0.18298841 429:0.11720082 430:0.032999043 450:0.12430763 451:0.20007328 452:0.10901606 453:0.011078722 454:0.011078722 460:0.19402522 461:0.34159941 462:0.32765748 463:0.30215638 464:0.15393851 465:0.093129849 466:0.093129849 467:0.039099931 471:0.085364479 472:0.60521913 473:0.84599373 474:0.61975585 475:0.41414926 476:0.23678896 477:0.50499985 478:0.31056306 479:0.17340484 483:0.37257854 484:0.87055173 485:0.96202506 486:0.80735109 487:0.64607363 488:0.56747215 489:0.78511706 490:0.51275861 491:0.21323596 494:0.30600697 495:0.69325472 496:0.76343468 497:0.63431756 498:0.50778368 499:0.76670879 500:0.83024203 501:0.89518451 502:0.73034466 503:0.32912643 505:0.073344961 506:0.72771683 507:0.83232444 508:0.54763343 509:0.1095601 510:0.15342919 511:0.51252307 512:0.82759413 513:0.84670733 514:0.62666636 515:0.24634086 517:0.071892634 518:0.78886504 519:0.99792266 520:0.66145418 521:0.28698656 522:0.19268682 523:0.30855247 524:0.42963221 525:0.32920688 526:0.0868117 527:0.07261631 528:0.02205331 529:0.0853526 530:0.53145665 531:0.7846812 532:0.59641108 533:0.50598056 534:0.32655668 535:0.067565544 536:0.042239682 537:0.18509987 538:0.35964699 539:0.17578233 540:0.02205331 541:0.084351912 542:0.26357374 543:0.35794863 544:0.19428276 545:0.65738854 546:0.62608557 547:0.14588046 548:0.25935967 549:0.48024237 550:0.50464943 551:0.24471262 554:0.034469771 555:0.033787224 556:0.085132744 557:0.58305777 558:0.84085084 559:0.5054304 560:0.30360582 561:0.43907214 562:0.41412934 563:0.090611085 569:0.28931402 570:0.52514229 571:0.45259218 572:0.20252907 573:0.17768087 574:0.064139091 617:0.11141307 618:0.22282614 619:0.2233846 620:0.33535613 621:0.44567174 622:0.22005884 627:0.33535613 628:0.33313895 629:0.11141307 630:0.55874353 631:0.66517212 632:0.77936083 633:0.88744814 634:0.44510216 638:0.11141307 639:0.44455202 640:0.33647585 641:0.22005884 642:0.33368909 643:0.66575527 644:0.66297683 645:0.88855672 646:0.5510053 650:0.11141307 651:0.22228714 652:0.33036333 653:0.10812032 654:0.10975435 655:0.33591739 656:0.55379206 657:0.66350228 658:0.33150492 663:0.22450432 664:0.22005884 667:0.22005884 668:0.33368909 669:0.32762901 670:0.10975435 675:0.2233846 676:0.2233846 687:0.10975435 688:0.10975435 
0.3710497506956688 0.1494386290666342 28:0.17339808 29:0.17120039 32:0.098749621 33:0.15311538 34:0.054215973 37:0.0012291943 38:0.0012291943 40:0.40898276 41:0.40447486 42:0.074908044 43:0.30179755 44:0.65672449 45:0.74114099 46:0.50620266 47:0.19357966 49:0.0012291943 50:0.0012415479 51:0.0012169636 52:0.57388071 53:0.63381585 54:0.32208116 55:0.39218485 56:0.64258342 57:0.71074488 58:1 59:0.53661176 62:0.0012169636 63:0.0011928661 64:0.42487406 65:0.52498141 66:0.28521383 67:0.31824108 68:0.35327839 69:0.26222193 70:0.54772573 71:0.34991102 76:0.15025391 77:0.19798367 78:0.096195315 79:0.098108429 80:0.096165752 82:0.36260173 83:0.35949792 84:0.09314506 85:0.0411791 86:0.040769361 87:0.070708816 88:0.070224866 89:0.031420358 90:0.0071617272 91:0.0029415409 92:0.0028832945 94:0.53430072 95:0.54137654 96:0.31204699 97:0.040769361 98:0.040769361 99:0.16559849 100:0.16322595 101:0.04556581 106:0.23972085 107:0.35233262 108:0.21672923 111:0.19056034 112:0.21201219 113:0.02102708 118:0.061476025 119:0.061476025 123:0.1734065 124:0.19866516 125:0.10017151 135:0.10017151 136:0.10219511 137:0.10017151 173:0.02222699 174:0.26280983 175:0.43851535 176:0.22384057 177:0.3463642 178:0.31616866 183:0.0025037904 184:0.17788839 185:0.29653387 186:0.59784338 187:1 188:0.76116039 189:0.87848239 190:0.78738352 191:0.33474674 195:0.002454212 196:0.34562021 197:0.46598838 198:0.36390963 199:0.67468698 200:0.99155798 201:0.96087494 202:0.87784726 203:0.45645981 208:0.60199853 209:0.75702352 210:0.36445574 211:0.37771512 212:0.58628915 213:0.44457705 214:0.34585628 215:0.22216115 220:0.42712907 221:0.6695026 222:0.44716425 223:0.031748425 224:0.11982016 225:0.21989725 226:0.48052694 227:0.38009248 228:0.041942683 229:0.11204073 230:0.1109259 231:0.13983086 232:0.139785 233:0.41457872 234:0.28444918 235:0.0054293859 238:0.23406707 239:0.31027389 240:0.074697826 241:0.1109259 242:0.1109259 243:0.14014432 244:0.14898906 245:0.13869727 251:0.032755143 252:0.032106548 255:0.12964932 256:0.13622013 257:0.03234672 267:0.14683086 268:0.14972628 269:0.04845481 279:0.022260518 280:0.02271021 281:0.022260518 316:0.10030388 317:0.2864605 318:0.37908537 319:0.28530606 320:0.25888162 321:0.29875754 322:0.13091348 325:0.0085237142 326:0.089141871 327:0.25514333 328:0.55359093 329:0.91953795 330:0.90232423 331:0.56206224 332:0.51953036 333:0.50228508 334:0.31615603 335:0.042835911 337:0.0085237142 338:0.088172432 339:0.25070565 340:0.61168308 341:0.96899297 342:0.95396775 343:0.58871789 344:0.68753191 345:0.65885838 346:0.36555599 347:0.041987703 350:0.0394719 351:0.039304799 352:0.18551844 353:0.54129161 354:0.6574637 355:0.61855686 356:0.73432447 357:0.73633908 358:0.41087098 359:0.088979662 364:0.024679177 365:0.21009792 366:0.38888424 367:0.43000686 368:0.57332135 369:0.56834687 370:0.3925328 371:0.12708377 373:0.19167135 374:0.38104857 375:0.37938067 376:0.28279721 377:0.20720699 378:0.27231998 379:0.21338756 380:0.056784016 382:0.037986479 383:0.037986479 385:0.18787601 386:0.3735033 387:0.60129419 388:0.56939884 389:0.28082081 392:0.037537685 393:0.089422633 394:0.074545995 395:0.046105601 399:0.40321861 400:0.72511789 401:0.49871 402:0.18925122 403:0.23059364 404:0.23408371 405:0.20738752 406:0.15225146 407:0.045967887 411:0.24952147 412:0.62242976 413:0.63868805 414:0.45033008 415:0.31058676 416:0.2159998 417:0.2060749 418:0.10452028 423:0.073943869 424:0.21802325 425:0.32884078 426:0.35426929 427:0.30575087 428:0.11267543 460:0.28134032 461:0.31551144 462:0.12693707 463:0.10408244 464:0.22233211 465:0.2577686 466:0.13993813 469:0.12739806 470:0.3320233 471:0.2876916 472:0.60003103 473:0.72209928 474:0.43603022 475:0.62803216 476:0.55461413 477:0.43925301 478:0.35592618 479:0.069792396 481:0.12739806 482:0.33030521 483:0.39391479 484:0.3751747 485:0.62220912 486:0.86497163 487:0.85480747 488:0.86104162 489:0.92627222 490:0.79745224 491:0.36132956 494:0.24165576 495:0.23915821 496:0.057680238 497:0.28157417 498:0.56449335 499:0.83816063 500:0.9440701 501:0.95935537 502:0.95330408 503:0.41324493 508:0.0063040269 509:0.03893611 510:0.34424029 511:0.50735162 512:0.72170039 513:0.51672702 514:0.33174722 515:0.12024851 517:0.002363785 518:0.0050202723 519:0.31976672 520:0.31501763 521:0.10375592 522:0.087770213 523:0.21422902 524:0.12470295 526:0.24236333 527:0.23876964 528:0.059740096 529:0.0023169789 530:0.0049208643 531:0.75203379 532:0.8288348 533:0.38472239 536:0.090734316 537:0.29607217 538:0.55705381 539:0.4665862 540:0.059601443 543:0.53294794 544:0.94147623 545:0.49762428 546:0.14603898 547:0.22398833 548:0.36502127 549:0.44550371 550:0.60990114 551:0.34315742 555:0.22963379 556:0.62534243 557:0.67627608 558:0.40701305 559:0.24512511 560:0.26999044 561:0.40060945 562:0.26089898 567:0.12668828 568:0.28170376 569:0.45531891 570:0.30437189 571:0.24107331 572:0.11073271 604:0.10104938 605:0.099048464 607:0.10104938 608:0.19959385 609:0.20159477 610:0.099048464 613:0.10054539 614:0.10054539 616:0.40420003 617:0.50123755 618:0.30264414 619:0.60328737 620:0.80338774 621:0.5032485 622:0.29964279 625:0.10054539 626:0.10155589 627:0.099544947 628:0.40018818 629:0.69987078 630:0.70133539 631:0.70284235 632:0.89892083 633:0.79938594 634:0.3952157 638:0.099544947 639:0.097573825 640:0.099048464 641:0.30113971 642:0.49726552 643:0.59828511 644:0.59681047 645:0.4987725 646:0.29616724 654:0.19959385 655:0.20260526 656:0.19859341 657:0.20059432 658:0.19662229 661:0.10155589 662:0.10054539 667:0.099544947 668:0.097573825 673:0.10054539 674:0.10054539 
0.3693571431354554 0.1507496826399698 28:0.19854939 29:0.19854939 30:0.06129959 32:0.2226845 33:0.30734102 34:0.15408832 35:0.066474604 38:0.0013975191 39:0.0013698464 40:0.46824958 41:0.46824958 42:0.32994425 43:0.27775382 44:0.79026761 45:0.84364723 46:0.67089416 47:0.3909524 50:0.0013975191 51:0.0013975191 52:0.50832482 53:0.54186403 54:0.5311344 55:0.38904709 56:0.67173086 57:0.836553 58:1 59:0.68943509 62:0.0013698464 63:0.0013698464 64:0.2899485 65:0.45732333 66:0.44887635 67:0.33348481 68:0.51724812 69:0.21523919 70:0.33887603 71:0.30531719 73:0.083774318 74:0.083774318 76:0.051486939 77:0.19010044 78:0.18699846 79:0.29772349 80:0.29628333 82:0.37771437 83:0.37705782 84:0.20622734 85:0.21896394 86:0.21980588 87:0.21545344 88:0.099009375 89:0.065059851 90:0.0026547284 91:0.0068775683 92:0.0067413833 94:0.52451856 95:0.52328313 96:0.46773111 97:0.13251269 98:0.21813037 99:0.29584051 100:0.29733809 101:0.1785206 106:0.27511074 107:0.41234382 108:0.34302306 111:0.28974154 112:0.3278586 113:0.24096145 118:0.061155812 119:0.14345167 120:0.080666288 123:0.16784598 124:0.24650126 125:0.20271339 135:0.077872655 136:0.15652794 137:0.15497046 172:0.020273823 173:0.030199555 174:0.11353631 175:0.39688509 176:0.50233918 177:0.64471625 178:0.5164914 179:0.14145064 184:0.12617643 185:0.27968541 186:0.56402303 187:0.84722423 188:0.89544804 189:1 190:0.96454471 191:0.55423279 196:0.23245169 197:0.41605593 198:0.48787003 199:0.5124499 200:0.75697453 201:0.8442974 202:0.81750805 203:0.41554866 208:0.24278587 209:0.61219335 210:0.52175416 211:0.11371228 212:0.35039621 213:0.35371546 214:0.54707396 215:0.40342246 219:0.0015032393 220:0.14225477 221:0.52696235 222:0.54316167 223:0.035353155 224:0.076734673 225:0.18406603 226:0.61400302 227:0.53074218 228:0.1567449 229:0.00095877866 230:0.00095877866 231:0.025722282 232:0.07678763 233:0.21961905 234:0.1913071 235:0.034653116 238:0.14494104 239:0.32950006 240:0.1809045 241:0.00093979357 242:0.00095877866 243:0.02983233 244:0.092225575 245:0.08934841 246:0.030106129 251:0.02637124 252:0.025849054 255:0.10077237 256:0.19613677 257:0.15636571 258:0.040918122 267:0.092951024 268:0.15013536 269:0.15078292 270:0.042370813 280:0.0036000184 281:0.035158838 282:0.030933913 315:0.079627419 316:0.26803835 317:0.35388716 318:0.32374106 319:0.28792025 320:0.2661517 321:0.30853925 322:0.16397852 323:0.035626884 326:0.077549773 327:0.27058498 328:0.52790013 329:0.82553762 330:0.92106601 331:0.6181713 332:0.48630998 333:0.5422384 334:0.41754951 335:0.080200025 338:0.07684383 339:0.18799844 340:0.33709294 341:0.79651388 342:1 343:0.59167373 344:0.57918949 345:0.63742935 346:0.45003066 347:0.043690534 350:0.01887437 351:0.041291875 352:0.076867444 353:0.39830355 354:0.58691113 355:0.55712893 356:0.68429322 357:0.74624314 358:0.4786753 359:0.14014207 361:0.024003365 362:0.16969234 363:0.31641189 364:0.34928413 365:0.49562753 366:0.48888059 367:0.49513597 368:0.5375417 369:0.53741362 370:0.40251442 371:0.13989871 373:0.1134727 374:0.4357267 375:0.66776644 376:0.66232848 377:0.58064117 378:0.47228137 379:0.30079737 380:0.070984463 382:0.0022265029 383:0.0021824152 385:0.087697721 386:0.26290532 387:0.54325296 388:0.63897086 389:0.42495942 390:0.083475094 393:0.060622178 394:0.079914715 395:0.037258251 399:0.27310568 400:0.82125328 401:0.55789805 402:0.17016023 403:0.2019732 404:0.22812413 405:0.15226503 406:0.11885179 407:0.054954016 411:0.15112542 412:0.64232327 413:0.61330227 414:0.42511037 415:0.25926859 416:0.24637902 417:0.20001867 418:0.08043366 419:0.017388579 423:0.069528121 424:0.23111503 425:0.44801103 426:0.33668257 427:0.22716729 428:0.1540765 429:0.04728739 459:0.038336652 460:0.24606404 461:0.34360969 462:0.24960748 463:0.01831746 464:0.15992875 465:0.39081728 466:0.23174836 467:0.080775453 470:0.34847612 471:0.53139084 472:0.52086492 473:0.6202945 474:0.51516659 475:0.45564239 476:0.39797211 477:0.58565813 478:0.47941531 479:0.22115014 482:0.34643006 483:0.48809158 484:0.40765587 485:0.39673087 486:0.67621284 487:0.73089749 488:0.6863502 489:0.92550687 490:0.91944369 491:0.55500924 494:0.13425789 495:0.24135805 496:0.10497943 497:0.14560862 498:0.54775774 499:0.89589656 500:0.86114956 501:0.82126179 502:0.95473116 503:0.54489882 505:0.13194458 506:0.38479233 507:0.31292649 508:0.12672166 509:0.10212035 510:0.42029574 511:0.73024144 512:0.88865083 513:0.48735091 514:0.31787126 515:0.12947174 517:0.18639705 518:0.43951132 519:0.5262477 520:0.38844204 521:0.24762685 522:0.1639275 523:0.39234832 524:0.25318356 526:0.27240322 527:0.26973132 528:0.060509585 529:0.053374238 530:0.28859595 531:0.51052263 532:0.92361119 533:0.61314678 534:0.092514066 537:0.33219903 538:0.73037072 539:0.51662631 540:0.13542873 543:0.39444968 544:0.96354603 545:0.75200431 546:0.094685217 547:0.26045851 548:0.37910068 549:0.50709048 550:0.6981872 551:0.55983 552:0.073561722 555:0.16041072 556:0.63630963 557:0.82670731 558:0.30576958 559:0.30846978 560:0.37418626 561:0.42298107 562:0.31579747 563:0.1068342 567:0.060062655 568:0.36370118 569:0.56956185 570:0.30111093 571:0.21628459 572:0.18724935 573:0.067145471 604:0.1001466 605:0.1001466 607:0.20079519 608:0.3995974 609:0.2994508 610:0.098655612 614:0.10064859 615:0.098655612 616:0.30094179 617:0.40159037 618:0.30144377 619:0.60039259 620:0.90284285 621:0.80119779 622:0.39860092 626:0.10064859 627:0.10064859 628:0.2994508 629:0.498755 630:0.69559393 631:0.49825301 632:0.79820834 633:0.99304428 634:0.39464464 638:0.098655612 639:0.098655612 640:0.098655612 641:0.19979871 642:0.39514663 643:0.59790512 644:0.59444336 645:0.29699552 646:0.099150125 654:0.19880221 655:0.40060389 656:0.39660795 657:0.099150125 658:0.097186821 661:0.10064859 662:0.10064859 663:0.098655612 667:0.099150125 668:0.097186821 673:0.098655612 674:0.10064859 675:0.098655612 
0.2712544132096165 0.1222742965796397 21:0.1014137 22:0.1014137 29:0.09689924 30:0.09519767 31:0.00021716361 32:0.00021286349 33:0.31151123 34:0.44956312 35:0.34759841 38:0.086825179 39:0.086825179 40:0.13163949 41:0.26218475 42:0.12817315 43:0.00021716361 44:0.11443078 45:0.45440475 46:0.53057044 47:0.51418359 50:0.099597345 51:0.10034287 52:0.39594696 53:0.65231677 54:0.43184698 55:0.16238357 56:0.57259117 57:0.92734485 58:0.84873904 59:0.47121139 62:0.012645081 63:0.098606334 64:0.48676516 65:0.91735682 66:0.90692594 67:0.38219062 68:0.68759635 69:0.85247213 70:1 71:0.60366062 76:0.22259453 77:0.6605071 78:0.65354884 79:0.30588933 80:0.53717079 81:0.32860412 82:0.34255685 83:0.31838725 85:0.18860969 86:0.18860969 87:0.055676845 88:0.020968221 89:0.13301428 90:0.13116525 91:0.1947098 92:0.20289249 93:0.008190676 94:0.39112774 95:0.39070422 96:0.23599112 97:0.18748494 98:0.18993438 99:0.18617343 100:0.15545963 101:0.068869965 103:0.00019811966 104:0.00019419663 106:0.37925431 107:0.49055927 108:0.43763808 110:0.13049658 111:0.26693939 112:0.26693939 113:0.2187752 118:0.11864298 119:0.24937802 120:0.20123253 123:0.13209145 124:0.25452752 125:0.25019391 136:0.18057111 137:0.17926661 161:0.089161126 162:0.24805244 163:0.17454108 164:0.092167597 165:0.31170986 166:0.23686544 173:0.31328422 174:0.64614911 175:0.43079245 176:0.20194417 177:0.31026077 178:0.34214512 179:0.1976896 182:0.090798145 183:0.23815786 184:0.14589346 185:0.22300528 186:0.49660845 187:0.5235481 188:0.32517257 189:0.42005553 190:0.4573027 191:0.19465977 194:0.18205142 195:0.33419955 196:0.42224427 197:0.5041184 198:0.62279014 199:0.72471899 200:0.75834016 201:0.89798709 202:0.85330709 203:0.50776329 206:0.089446337 207:0.18649009 208:0.45341552 209:0.7302923 210:0.68920751 211:0.50472857 212:0.88838655 213:0.92536714 214:0.9160909 215:0.5596335 219:0.00016965336 220:0.20224634 221:0.64880856 222:0.71175817 223:0.17200391 224:0.39964912 225:0.42097958 226:0.52807741 227:0.37461387 229:0.13868569 230:0.13868569 231:0.018628682 232:0.093033008 233:0.31562379 234:0.34658983 235:0.046525832 237:0.10835896 238:0.43248758 239:0.49907438 240:0.17772972 241:0.13868569 242:0.1400795 243:0.13789301 244:0.12478297 245:0.10420153 246:0.014718483 250:0.034892262 251:0.17843459 252:0.17490135 254:0.13730574 255:0.18347241 256:0.35175887 257:0.2180916 258:0.056695933 267:0.18053137 268:0.29051553 269:0.3999552 270:0.15681139 280:0.15078362 281:0.24917597 282:0.09923346 305:0.049482435 306:0.26735854 307:0.39285887 308:0.34332082 309:0.27079842 310:0.10467998 315:0.05804562 316:0.1823735 317:0.39752243 318:0.66325897 319:0.61735313 320:0.42868414 321:0.31150862 322:0.18741002 323:0.045665973 326:0.042317184 327:0.30584309 328:0.38535442 329:0.54569702 330:0.7604179 331:0.62249386 332:0.23560272 333:0.31296318 334:0.16972663 335:0.044761726 338:0.20190302 339:0.57265031 340:0.70792144 341:0.77295141 342:1 343:0.59873923 344:0.45663586 345:0.57048446 346:0.42422333 347:0.083960628 350:0.1570796 351:0.32547154 352:0.45012714 353:0.7514916 354:0.92252758 355:0.65566463 356:0.64500935 357:0.77678696 358:0.57945172 359:0.12018004 362:0.065251763 363:0.22082861 364:0.4084565 365:0.72872506 366:0.80016705 367:0.71674299 368:0.62387365 369:0.63455637 370:0.45062002 371:0.19469991 373:0.11884473 374:0.47128504 375:0.68529831 376:0.59347144 377:0.57154701 378:0.57326422 379:0.51921967 380:0.42294902 381:0.33723787 382:0.28653845 383:0.15568742 385:0.1182692 386:0.40332699 387:0.62410179 388:0.71468023 389:0.52261431 390:0.31809315 391:0.1981906 392:0.055436929 393:0.02561977 394:0.062010631 395:0.035670274 398:0.1773286 399:0.35247554 400:0.56325496 401:0.47471129 402:0.088653646 403:0.1098593 404:0.19912097 405:0.14958906 406:0.13633792 407:0.061627549 411:0.072566789 412:0.44350418 413:0.69658922 414:0.45110126 415:0.30095319 416:0.27594636 417:0.17764853 418:0.12260781 419:0.04790759 424:0.22711417 425:0.60041849 426:0.49980473 427:0.29983867 428:0.27277815 429:0.10061071 449:0.056852126 450:0.1613713 451:0.10877547 452:0.021969918 459:0.038339692 460:0.10736426 461:0.22935995 462:0.27198332 463:0.19449737 464:0.028183231 465:0.077160866 466:0.095918794 467:0.047709674 470:0.070639547 471:0.31158278 472:0.38327497 473:0.41678216 474:0.32337368 475:0.1476162 476:0.13072737 477:0.48572235 478:0.37325092 479:0.17818269 482:0.42851085 483:0.73641798 484:0.53507589 485:0.57922666 486:0.5121663 487:0.34906182 488:0.41339327 489:0.73850359 490:0.55335965 491:0.25723152 494:0.35465056 495:0.55298933 496:0.41720115 497:0.40143113 498:0.60886497 499:0.54744132 500:0.70189343 501:0.91246484 502:0.87054794 503:0.45632836 506:0.095915603 507:0.19231198 508:0.094487605 509:0.12692558 510:0.43477384 511:0.60905306 512:0.73328614 513:0.72682363 514:0.72308612 515:0.3856184 517:0.14959295 518:0.30534531 519:0.27482231 520:0.15178758 521:0.13620288 522:0.32179525 523:0.47074161 524:0.55030996 525:0.26968588 526:0.13618519 527:0.061949126 528:0.0052194762 529:0.14781637 530:0.26691068 531:0.33566066 532:0.37808437 533:0.22158981 534:0.076030393 535:0.16499447 536:0.098652013 537:0.075368848 538:0.38483372 539:0.30571292 540:0.11815878 542:0.060292508 543:0.25235572 544:0.56136644 545:0.55971959 546:0.074813196 547:0.08749981 548:0.20635386 549:0.2675154 550:0.40303572 551:0.37740197 552:0.11205087 555:0.099575596 556:0.56173367 557:0.76555183 558:0.40409073 559:0.19782554 560:0.24323045 561:0.23810056 562:0.29574601 563:0.15923428 568:0.28900339 569:0.50303025 570:0.38915954 571:0.1816391 572:0.21780322 573:0.099794259 616:0.091567389 617:0.091567389 619:0.18359376 620:0.27333891 621:0.18359376 622:0.090204128 626:0.18451403 627:0.18086041 628:0.18359376 629:0.46013416 630:0.5489682 631:0.63961532 632:0.73347307 633:0.64053559 634:0.36445417 638:0.18359376 639:0.18359376 640:0.090204128 641:0.54760494 642:0.82187295 643:0.63645694 644:0.82048256 645:1 646:0.45104094 650:0.090204128 651:0.090204128 653:0.18177152 654:0.36400202 655:0.54668467 656:0.63554583 657:0.45378345 658:0.18086041 661:0.091567389 662:0.091567389 666:0.18177152 667:0.36628555 668:0.36263192 669:0.090656278 670:0.088861164 673:0.091567389 674:0.092487657 675:0.090656278 679:0.090656278 680:0.088861164 686:0.090656278 687:0.088861164 
0.05952486904482256 0.01558349236394165 21:0.10406761 22:0.10406761 29:0.087055548 30:0.091782249 31:0.0064505165 32:0.0063227877 33:0.32736126 34:0.32736126 35:0.22855919 38:0.10055803 39:0.1337293 40:0.03284121 41:0.21158057 42:0.21371379 43:0.0064505165 44:0.11017771 45:0.46935609 46:0.41531241 47:0.39364126 50:0.10498627 51:0.13879404 52:0.13239867 53:0.38790581 54:0.41399382 55:0.16296841 56:0.55010856 57:0.90791715 58:0.82607489 59:0.45923647 62:0.0043841758 63:0.10394164 64:0.21934376 65:0.68649053 66:0.63964227 67:0.37283549 68:0.6515974 69:0.83213785 70:1 71:0.59945854 76:0.21679223 77:0.59932787 78:0.59496657 79:0.29616326 80:0.51398686 81:0.32220354 82:0.36098082 83:0.32205118 86:0.14181059 87:0.13900255 88:0.024562025 89:0.21056496 90:0.20879102 91:0.19107121 92:0.19521497 93:0.0041798155 94:0.4335114 95:0.43204264 96:0.22939578 98:0.1415091 99:0.24890148 100:0.1671043 101:0.099449402 103:0.0017844723 104:0.0017491374 106:0.38149345 107:0.54414117 108:0.42885829 110:0.10930266 111:0.23202887 112:0.29175356 113:0.25293328 118:0.12804424 119:0.25522148 120:0.19906234 123:0.12119855 124:0.2191327 125:0.23069229 126:0.017230681 136:0.11305794 137:0.12943979 138:0.017230681 161:0.13337568 162:0.44492401 163:0.32417303 164:0.076501699 165:0.38391095 166:0.32020936 173:0.25961445 174:0.73903612 175:0.6173031 176:0.35164757 177:0.41492773 178:0.40063559 179:0.19524586 182:0.084389573 183:0.17217355 184:0.086045737 185:0.12560914 186:0.4368113 187:0.78875055 188:0.47225002 189:0.45586154 190:0.44177181 191:0.19203194 194:0.084389573 195:0.19124665 196:0.18955883 197:0.24625831 198:0.63789019 199:0.8114013 200:0.85031918 201:0.90152602 202:0.81690353 203:0.48563268 207:0.18493759 208:0.1832832 209:0.5281624 210:0.69574294 211:0.43418669 212:0.92210538 213:0.93228397 214:0.87317909 215:0.53770171 220:0.13795609 221:0.65175514 222:0.67911498 223:0.28091422 224:0.43601952 225:0.4362106 226:0.61357692 227:0.39319925 230:0.16493674 231:0.17018898 232:0.088103426 233:0.42045113 234:0.54910493 235:0.18602837 237:0.10600319 238:0.56019513 239:0.57973265 240:0.12514498 242:0.16493674 243:0.1728741 244:0.12800609 245:0.11551461 246:0.072074275 247:0.046667953 250:0.13863165 251:0.26440913 252:0.12328692 254:0.16167078 255:0.16167078 256:0.29237368 257:0.2126653 258:0.051233553 267:0.12485123 268:0.33054235 269:0.34037298 270:0.11072827 280:0.31663822 281:0.37371263 282:0.059311048 305:0.04180339 306:0.23839515 307:0.37836955 308:0.35127382 309:0.3311987 310:0.16207621 315:0.055587562 316:0.17775636 317:0.37118602 318:0.62510471 319:0.59744349 320:0.44837615 321:0.37890768 322:0.24562912 323:0.041902885 326:0.044876426 327:0.35725053 328:0.51031773 329:0.56728335 330:0.71660355 331:0.65316342 332:0.28616117 333:0.3201984 334:0.17228044 335:0.041073152 338:0.21428926 339:0.6426999 340:0.7729844 341:0.80009108 342:1 343:0.65020196 344:0.52901901 345:0.61390221 346:0.43277948 347:0.084763562 349:0.046126314 350:0.25720737 351:0.480273 352:0.48246998 353:0.7561876 354:0.93638902 355:0.70410313 356:0.6783621 357:0.81419989 358:0.58468582 359:0.11549014 361:0.045613536 362:0.13584509 363:0.20027432 364:0.38444121 365:0.66224599 366:0.78644831 367:0.73860274 368:0.66004569 369:0.66842789 370:0.4477292 371:0.18715241 373:0.01173009 374:0.26452686 375:0.66713829 376:0.66940008 377:0.52888193 378:0.53803201 379:0.52936915 380:0.42831521 381:0.34104408 382:0.28682682 383:0.1536254 386:0.26292902 387:0.60052131 388:0.72314701 389:0.53377277 390:0.34245691 391:0.22199953 392:0.056922182 393:0.022155712 394:0.050366859 395:0.027652529 398:0.090506759 399:0.27163936 400:0.56589813 401:0.47250516 402:0.087788968 403:0.052314816 404:0.18339414 405:0.20606722 406:0.14075564 407:0.072652525 411:0.038662956 412:0.4025907 413:0.67167733 414:0.43398797 415:0.24832951 416:0.24019057 417:0.21379786 418:0.17588325 419:0.064829513 424:0.19547833 425:0.55097886 426:0.55073039 427:0.31473137 428:0.21916351 429:0.14296416 430:0.042108743 449:0.056214156 450:0.13829471 451:0.089461996 452:0.032746838 459:0.042431975 460:0.11990528 461:0.26623713 462:0.27446216 463:0.1909968 464:0.03342903 465:0.072631519 466:0.072631519 467:0.027453881 470:0.077488881 471:0.34903177 472:0.38257823 473:0.45293384 474:0.35813198 475:0.140785 476:0.13122199 477:0.48006521 478:0.3486533 479:0.15249676 482:0.40620201 483:0.84091025 484:0.66410397 485:0.62433225 486:0.54832125 487:0.33534894 488:0.40976226 489:0.72481399 490:0.54765301 491:0.24464451 493:0.28572402 494:0.683943 495:0.80041593 496:0.57102723 497:0.40429118 498:0.54676746 499:0.54272384 500:0.72599085 501:0.92838183 502:0.85489451 503:0.4354697 505:0.28386137 506:0.41497462 507:0.49261328 508:0.1755117 509:0.17763819 510:0.40244923 511:0.58212422 512:0.71671971 513:0.76009345 514:0.72352535 515:0.37951717 517:0.094165833 518:0.27251172 519:0.35700864 520:0.20799243 521:0.12150381 522:0.24479739 523:0.4044405 524:0.52654919 525:0.29977875 526:0.14948242 527:0.067568796 528:0.0033130626 530:0.23565619 531:0.42486992 532:0.44298217 533:0.29340212 534:0.0715083 535:0.16283612 536:0.098392941 537:0.079327767 538:0.37879371 539:0.29565804 540:0.10551565 542:0.078022311 543:0.28093769 544:0.5354093 545:0.56167548 546:0.080831227 547:0.047100375 548:0.23225503 549:0.41994461 550:0.49503776 551:0.45026306 552:0.10138394 555:0.13431736 556:0.44658339 557:0.63988676 558:0.40656965 559:0.16482374 560:0.27494081 561:0.33614736 562:0.45639037 563:0.24755836 568:0.21543461 569:0.46434352 570:0.4152867 571:0.17762585 572:0.18222944 573:0.15999893 574:0.059455614 617:0.10115057 618:0.099147656 619:0.10064608 620:0.20129216 621:0.20179665 622:0.099147656 626:0.20230367 627:0.20029072 629:0.30395873 630:0.50024362 631:0.40158288 632:0.60589698 633:0.60489553 634:0.40058894 637:0.10115057 638:0.29943837 639:0.20230367 640:0.099644636 641:0.40360337 642:0.70403312 643:0.60090948 644:0.80268382 645:1 646:0.49576059 649:0.10115057 650:0.10115057 651:0.099644636 652:0.09767154 653:0.19979374 654:0.40159039 655:0.50123503 656:0.59941106 657:0.49877501 658:0.19879229 661:0.099147656 662:0.10115057 663:0.099147656 666:0.10064608 667:0.30145133 668:0.29943837 669:0.099644636 670:0.09767154 674:0.10115057 675:0.10115057 679:0.099644636 680:0.09767154 686:0.099147656 687:0.099147656 
0.2324153680346608 0.1028157948849321 21:0.11636812 22:0.11636812 29:0.099341589 30:0.10559407 31:0.0082195739 32:0.0080568155 33:0.3654402 34:0.50871426 35:0.39679532 38:0.11157645 39:0.14899245 40:0.037043701 41:0.23811623 42:0.24145803 43:0.0082195739 44:0.12301617 45:0.52586758 46:0.6065791 47:0.58171362 50:0.18103765 51:0.21633734 52:0.14750995 53:0.43232187 54:0.46230609 55:0.18371455 56:0.49840001 57:0.9000118 58:0.84786644 59:0.51483274 62:0.069402658 63:0.17986891 64:0.14610695 65:0.71821089 66:0.71531778 67:0.41810467 68:0.61533553 69:0.81657729 70:1 71:0.67162973 74:0.062319037 75:0.062319037 76:0.14321384 77:0.58453627 78:0.58164316 79:0.33162063 80:0.57681016 81:0.36351876 82:0.40634606 83:0.36122365 86:0.12279104 87:0.12035962 88:0.028329562 89:0.15050166 90:0.15050166 91:0.21423497 92:0.21950487 93:0.0052698949 94:0.48497516 95:0.48331232 96:0.25599716 98:0.12279104 99:0.19511486 100:0.15326521 101:0.078010662 103:0.0024797018 104:0.0024797018 106:0.42734954 107:0.60925982 108:0.4791807 110:0.12035962 111:0.14361142 112:0.29844831 113:0.22031729 118:0.14449258 119:0.2864322 120:0.22273726 123:0.068856179 124:0.29565743 125:0.26642281 126:0.020336923 136:0.1545756 137:0.22524669 138:0.070594856 162:0.28342201 163:0.29393149 164:0.072540065 165:0.35169097 166:0.2898048 173:0.11579376 174:0.54976403 175:0.44641196 176:0.31668372 177:0.37918357 178:0.38775373 179:0.19642061 182:0.077611117 183:0.162734 184:0.083507679 185:0.11869836 186:0.35160004 187:0.59459195 188:0.42777508 189:0.41170302 190:0.41897544 191:0.19353815 194:0.077611117 195:0.17961273 196:0.17877665 197:0.22272708 198:0.57624653 199:0.84322733 200:0.87915517 201:0.83923618 202:0.75866188 203:0.43494788 207:0.17014494 208:0.16862342 209:0.42515086 210:0.63971842 211:0.5079782 212:0.94719921 213:0.87126217 214:0.80907793 215:0.48153683 220:0.063758298 221:0.5382248 222:0.56227468 223:0.3657236 224:0.50214661 225:0.3973434 226:0.55360959 227:0.3527969 230:0.14884933 231:0.15373324 232:0.080871349 233:0.38256649 234:0.43797125 235:0.16887327 237:0.096688969 238:0.50633827 239:0.52217859 240:0.1122054 242:0.14884933 243:0.15618489 244:0.11436075 245:0.10296096 246:0.065474396 247:0.042365756 250:0.12434072 251:0.2371115 252:0.11053777 254:0.14590192 255:0.14590192 256:0.28653911 257:0.21651206 258:0.047202361 267:0.11177714 268:0.4277303 269:0.35828031 270:0.10247703 280:0.31791193 281:0.46863056 282:0.15078417 306:0.20450445 307:0.38787219 308:0.35449484 309:0.33142396 310:0.16003634 315:0.055794976 316:0.17794506 317:0.33059554 318:0.59455011 319:0.56778539 320:0.45155448 321:0.38021293 322:0.24438737 323:0.041725302 326:0.044451949 327:0.36658879 328:0.52071039 329:0.5427685 330:0.69790172 331:0.62789586 332:0.27292056 333:0.30876552 334:0.17388695 335:0.040899085 338:0.16589928 339:0.60516145 340:0.78027509 341:0.78114296 342:1 343:0.76253774 344:0.60614218 345:0.60470042 346:0.43691679 347:0.085514225 349:0.041108421 350:0.20421222 351:0.42878562 352:0.47951851 353:0.73565924 354:0.93565815 355:0.82012866 356:0.77197394 357:0.80747071 358:0.58894984 359:0.11576102 361:0.040674246 362:0.084030986 363:0.19730346 364:0.36839896 365:0.64496999 366:0.7891971 367:0.8374068 368:0.81547942 369:0.73488035 370:0.44919884 371:0.18712247 373:0.011218381 374:0.26220415 375:0.66835517 376:0.67552078 377:0.53355303 378:0.54208044 379:0.53279482 380:0.49269235 381:0.40553134 382:0.28809837 383:0.15405571 386:0.2606897 387:0.60146092 388:0.72550929 389:0.53914729 390:0.34585654 391:0.22382806 392:0.057169752 393:0.021780618 394:0.048787133 395:0.02647175 398:0.091437861 399:0.2744375 400:0.57104421 401:0.48037804 402:0.091829029 403:0.052425371 404:0.18328109 405:0.20479375 406:0.13830946 407:0.070723522 412:0.29472344 413:0.60558178 414:0.439678 415:0.28948482 416:0.29298468 417:0.26502527 418:0.17413543 419:0.06368223 424:0.088298353 425:0.44669113 426:0.55514137 427:0.31494999 428:0.27250319 429:0.19469624 430:0.042026891 450:0.1361399 451:0.14345434 452:0.033671504 459:0.041937334 460:0.11851838 461:0.20759573 462:0.27047227 463:0.19002545 464:0.034095317 465:0.070399201 466:0.07300571 467:0.029179653 470:0.076422609 471:0.36452875 472:0.39786692 473:0.47619237 474:0.38231687 475:0.16809377 476:0.15396356 477:0.49264964 478:0.34108101 479:0.15051389 482:0.40172139 483:0.85034451 484:0.67563052 485:0.63950754 486:0.56739282 487:0.33113545 488:0.42885214 489:0.73171835 490:0.51728546 491:0.23725658 493:0.28112979 494:0.67904488 495:0.7945047 496:0.56319257 497:0.44397368 498:0.57830729 499:0.53561141 500:0.71393468 501:0.90759896 502:0.85627676 503:0.42299844 505:0.27929379 506:0.4151805 507:0.49212904 508:0.17292006 509:0.20640686 510:0.38968831 511:0.62085731 512:0.73957044 513:0.77696506 514:0.70737089 515:0.37053674 517:0.092324947 518:0.26796555 519:0.35557519 520:0.20326241 521:0.1137624 522:0.18642038 523:0.4427618 524:0.6012403 525:0.32852963 526:0.14817298 527:0.06683862 528:0.0031070307 530:0.23652987 531:0.34920333 532:0.35666268 533:0.23432129 534:0.065895179 535:0.20339783 536:0.14541542 537:0.078331678 538:0.37104147 539:0.28896254 540:0.10187728 542:0.081133399 543:0.1193024 544:0.36762366 545:0.39483263 546:0.079770606 547:0.046583322 548:0.22966791 549:0.41485978 550:0.488177 551:0.44175892 552:0.097979045 555:0.053025284 556:0.40130471 557:0.60035224 558:0.40074669 559:0.20730328 560:0.31612294 561:0.34943635 562:0.45081758 563:0.24448187 568:0.25421292 569:0.50105395 570:0.47194447 571:0.17577758 572:0.22449636 573:0.20161026 574:0.058802416 617:0.10115057 618:0.099147656 619:0.10064608 620:0.20129216 621:0.20179665 622:0.099147656 626:0.30345424 627:0.29943837 629:0.30395873 630:0.50024362 631:0.40158288 632:0.60589698 633:0.60489553 634:0.40058894 637:0.10115057 638:0.40058894 639:0.30345424 640:0.099644636 641:0.40360337 642:0.70403312 643:0.60090948 644:0.80268382 645:1 646:0.49576059 649:0.10115057 650:0.20029823 651:0.19879229 652:0.09767154 653:0.19979374 654:0.40159039 655:0.50123503 656:0.59941106 657:0.49877501 658:0.19879229 661:0.099147656 662:0.10115057 663:0.099147656 667:0.30094431 668:0.30094431 669:0.099644636 670:0.09767154 674:0.10115057 675:0.10115057 679:0.099147656 680:0.099147656 686:0.099147656 687:0.099147656 
0.3525468625590128 0.1462795728004707 5:0.061400578 6:0.16884502 7:0.24856838 8:0.30852614 9:0.16416504 17:0.31264175 18:0.47890415 19:0.38251875 20:0.50306549 21:0.3385915 28:0.17633086 29:0.5276176 30:0.52959539 31:0.45804021 32:0.55382075 33:0.40168263 40:0.30678229 41:0.51344176 42:0.56177047 43:0.29048117 44:0.47301345 45:0.45732157 49:0.32163513 50:0.31802682 51:0.051381982 52:0.13031283 53:0.42855788 54:0.70721988 55:0.63983022 56:0.47891867 57:0.38644605 58:0.41728249 59:0.2688302 60:0.052363433 61:0.50115774 62:0.49758525 63:0.23272211 65:0.38357997 66:0.84914366 67:0.88060098 68:0.71337231 69:0.84778397 70:1 71:0.69120477 72:0.24221345 73:0.45493102 74:0.51841988 75:0.32770145 76:0.067049693 77:0.44182431 78:0.8747318 79:0.83381771 80:0.53553781 81:0.71302723 82:0.92660358 83:0.92840945 84:0.2867155 85:0.27129843 86:0.35809369 87:0.17611228 88:0.22231652 89:0.49038466 90:0.8103801 91:0.990136 92:0.59147047 93:0.44466274 94:0.35086364 95:0.34947569 96:0.09724584 97:0.093598621 98:0.11147534 99:0.029128026 100:0.22023617 101:0.4105802 102:0.53966543 103:0.64574545 104:0.63352036 105:0.44137157 112:0.055407731 113:0.43927062 114:0.43426188 115:0.33387201 116:0.39100963 117:0.3572833 125:0.35359843 126:0.56851287 127:0.56519926 128:0.5960913 129:0.39649759 130:0.072007379 137:0.086837186 138:0.34811 139:0.72553921 140:0.54155232 141:0.31734328 142:0.15930203 150:0.081061636 151:0.37601259 152:0.34482592 153:0.05161204 161:0.07969855 162:0.2094254 163:0.42372547 164:0.3968358 165:0.15217456 173:0.16937129 174:0.32400805 175:0.26361557 176:0.25528263 177:0.10465917 182:0.026405339 183:0.11382635 184:0.19326472 185:0.32703323 186:0.73630698 187:0.61446573 188:0.17591845 189:0.10068226 190:0.026124647 193:0.22834371 194:0.25115432 195:0.20124735 196:0.40897812 197:0.4713055 198:0.89362076 199:0.95724953 200:0.44568599 201:0.59102932 202:0.63776604 203:0.21617092 204:0.10470505 205:0.35010029 206:0.34654372 207:0.24038059 208:0.22906995 209:0.45226568 210:0.77464393 211:0.91273582 212:0.54411323 213:0.68044748 214:0.91394864 215:0.54721194 216:0.22734917 217:0.43063985 218:0.54658118 219:0.22384055 220:0.24918093 221:0.40986365 222:0.4598586 223:0.53779989 224:0.53478324 225:0.53284679 226:0.66587653 227:0.62640192 228:0.21112197 229:0.30606722 230:0.45933253 231:0.35513686 232:0.48497414 233:0.71561594 234:0.52285872 235:0.48132802 236:0.62437503 237:0.42327892 238:0.25378518 239:0.29322954 240:0.089179285 241:0.10078449 242:0.31809408 243:0.22256587 244:0.23792605 245:0.56335669 246:0.65822605 247:0.42221673 248:0.30432815 249:0.13007966 256:0.10194961 257:0.44518378 258:0.44891014 259:0.10835062 260:0.19753638 261:0.087419763 269:0.24734811 270:0.38350567 271:0.51390607 272:0.67801776 273:0.37466403 274:0.076963454 281:0.092114644 282:0.33619642 283:0.61231674 284:0.81622681 285:0.57232297 286:0.10541015 293:0.064671703 294:0.15900146 295:0.20151696 296:0.18431643 297:0.089779493 305:0.20075243 306:0.29366913 307:0.25289673 308:0.21046206 309:0.089779493 317:0.31036895 318:0.34628359 319:0.21955748 320:0.025627914 326:0.16389408 327:0.23475815 328:0.13050799 329:0.43959118 330:0.51636443 331:0.31994234 332:0.3569801 333:0.26760132 334:0.090483152 337:0.35404093 338:0.51424224 339:0.31944608 340:0.38544452 341:0.63611516 342:0.82313996 343:0.51867691 344:0.77972722 345:0.67547368 346:0.36183705 347:0.12121746 348:0.073763789 349:0.42415788 350:0.44934014 351:0.42012328 352:0.32009599 353:0.46360127 354:0.67374076 355:0.91908539 356:0.90572438 357:0.93257454 358:0.54931385 359:0.27473641 360:0.1433577 361:0.28996413 362:0.46623964 363:0.3303125 364:0.39147754 365:0.51957607 366:0.69845952 367:0.93112202 368:0.97149428 369:0.83814776 370:0.61704558 371:0.44859317 372:0.21549473 373:0.21402826 374:0.39133109 375:0.32746074 376:0.54838842 377:0.79674205 378:0.75120327 379:0.84531222 380:0.80175947 381:0.6934273 382:0.44669046 383:0.29372369 384:0.14457702 385:0.074640941 386:0.16202655 387:0.18580059 388:0.2047297 389:0.53775181 390:0.92186999 391:0.68142292 392:0.37450411 393:0.26252293 394:0.07775819 400:0.079824149 401:0.28319231 402:0.44908113 403:0.27532488 404:0.046362637 405:0.045444596 413:0.16950896 414:0.22729255 415:0.1353408 416:0.13238848 417:0.10425925 425:0.057280118 426:0.21024712 427:0.33278252 428:0.45438619 429:0.27923679 430:0.0130115 437:0.10743286 438:0.22695805 439:0.40730147 440:0.45411077 441:0.21235968 449:0.25494119 450:0.4273374 451:0.45810161 452:0.65757327 453:0.43468784 460:0.039668204 461:0.45341919 462:0.46229213 463:0.32867942 464:0.37728749 465:0.24134132 470:0.13364712 471:0.13151044 472:0.19772375 473:0.79396667 474:0.76959357 475:0.39995253 476:0.25480841 477:0.10969423 481:0.29336964 482:0.42441988 483:0.23967491 484:0.18036282 485:0.54303102 486:0.95344526 487:0.70971451 488:0.51112887 489:0.25586266 490:0.30019231 491:0.29661412 492:0.067811702 493:0.39094783 494:0.41229303 495:0.30427511 496:0.027093943 497:0.23286927 498:0.61996772 499:0.80786434 500:0.77219499 501:0.68844474 502:0.7709352 503:0.50528271 504:0.18943315 505:0.38034034 506:0.47982162 507:0.38778879 508:0.46164217 509:0.36724408 510:0.66210971 511:0.96743425 512:0.82658196 513:0.78594275 514:0.89832932 515:0.67082324 516:0.29132621 517:0.30533847 518:0.37644274 519:0.39435429 520:0.53822298 521:0.28545026 522:0.62726393 523:1 524:0.80294973 525:0.5464635 526:0.60223111 527:0.34044793 528:0.1689968 529:0.10169565 530:0.10169565 531:0.21765984 532:0.36621238 533:0.23199229 534:0.47885648 535:0.74062308 536:0.5910017 537:0.28750385 538:0.076298959 545:0.14155244 546:0.3417944 547:0.4451277 548:0.21463199 549:0.10857929 557:0.10875024 558:0.33366038 559:0.23426008 560:0.11268555 561:0.099155415 570:0.23334818 571:0.35203408 572:0.31630852 573:0.19930736 574:0.098168802 616:0.10079989 617:0.20159977 618:0.30090895 619:0.39920011 620:0.19910106 625:0.10029714 626:0.10029714 628:0.1996038 629:0.40120357 630:0.70060177 631:0.50099797 632:0.40019809 633:0.29990094 634:0.40070083 635:0.29990094 636:0.098803914 637:0.30189692 638:0.29990094 639:0.19810308 640:0.098803914 641:0.29840771 642:0.59830866 643:0.70013878 644:0.90269932 645:0.70109703 646:0.50050274 647:0.40170883 648:0.19810308 649:0.30040369 650:0.40169883 651:0.29494074 652:0.10029714 653:0.2993982 654:0.49950474 655:0.795909 656:0.89524041 657:0.8977094 658:0.59384371 659:0.296907 660:0.097332915 661:0.098803914 662:0.1996038 663:0.098803914 664:0.10029714 665:0.30189944 666:0.60080241 667:0.59830117 668:0.50000252 669:0.3962284 670:0.097332915 677:0.29989346 678:0.59632743 679:0.39673112 680:0.19959631 681:0.097332915 689:0.10029714 690:0.10029714 
0.4016581538543174 0.1687353162720985 5:0.020672754 6:0.09565316 7:0.074255031 16:0.0057771786 17:0.13962568 18:0.27254957 19:0.21875188 20:0.10599733 26:0.025862369 27:0.038162671 28:0.12480519 29:0.25895766 30:0.48335381 31:0.55091821 32:0.3010283 33:0.001173756 34:0.001150514 37:0.15878112 38:0.24289819 39:0.10981326 40:0.13057462 41:0.2147263 42:0.68172069 43:0.94520212 44:0.54137149 45:0.044395641 46:0.088930666 47:0.086041989 49:0.49544433 50:0.54927685 51:0.24001513 52:0.02556156 53:0.11913845 54:0.73664312 55:0.92280048 56:0.6519689 57:0.38400049 58:0.58681496 59:0.41490638 60:0.082557776 61:0.51259527 62:0.58481196 63:0.33114032 66:0.55862229 67:0.73271398 68:0.75013865 69:0.80699453 70:0.91180598 71:0.66718193 72:0.26054458 73:0.33537449 74:0.42625217 75:0.34407205 78:0.45223772 79:0.72467685 80:0.77506383 81:1 82:0.89337611 83:0.66472153 84:0.32908421 85:0.28810607 86:0.45036942 87:0.44051014 88:0.11517767 89:0.037223312 90:0.4616996 91:0.68679053 92:0.45371094 93:0.59634476 94:0.62753933 95:0.41612805 96:0.15110204 97:0.13024241 98:0.39587339 99:0.46002464 100:0.28040681 101:0.16262794 102:0.55557132 103:0.85718874 104:0.39127318 105:0.20213698 106:0.18527188 107:0.12970576 110:0.11993265 111:0.18644303 112:0.31985866 113:0.2998125 114:0.50827875 115:0.63061549 116:0.52136395 117:0.19466003 118:0.022769495 119:0.019254198 124:0.15361579 125:0.26550188 126:0.34564798 127:0.40094381 128:0.37399321 129:0.061317767 137:0.085559226 138:0.084275319 139:0.15630737 140:0.15349769 150:0.23671986 151:0.23410833 162:0.46822714 163:0.63924766 164:0.29959656 171:0.24059713 172:0.40227315 173:0.33832137 174:0.80165534 175:0.9884741 176:0.66353212 177:0.28521241 178:0.19906462 181:0.26829057 182:0.26562768 183:0.37135441 184:0.68318967 185:0.81805754 186:0.89089785 187:0.94494709 188:0.62001275 189:0.46070748 190:0.59138842 191:0.32178058 193:0.52960643 194:0.52427634 195:0.23720712 196:0.48876198 197:0.7322293 198:0.58362982 199:0.55352431 200:0.61530002 201:0.58058704 202:0.85180648 203:0.65312567 204:0.042732871 205:0.2808687 206:0.53334 207:0.26177104 210:0.43201805 211:0.67833072 212:0.60014963 213:0.305765 214:0.39920354 215:0.45100773 216:0.12085465 217:0.10891355 218:0.28090286 219:0.1685837 222:0.33895755 223:0.52274316 224:0.66342957 225:0.55087125 226:0.17484299 227:0.11861751 228:0.077346388 229:0.21833622 230:0.3670126 231:0.21132811 232:0.19030978 233:0.31653004 234:0.39664615 235:0.32090868 236:0.51098068 237:0.65146417 238:0.24601404 241:0.13680171 242:0.46098674 243:0.47941457 244:0.19037054 245:0.44392056 246:0.76101986 247:0.65555056 248:0.36761778 249:0.23883933 250:0.12444168 254:0.28394007 255:0.30476205 256:0.17508965 257:0.432796 258:0.53976104 259:0.73827326 260:0.40501413 261:0.046707275 262:0.0058743175 268:0.1704731 269:0.67942961 270:0.7006012 271:0.36604275 272:0.14897038 273:0.039908091 281:0.3948156 282:0.66058085 283:0.263563 293:0.060000034 294:0.11923782 295:0.058064796 304:0.015975785 305:0.092552857 306:0.1871545 307:0.16214207 308:0.04263988 314:0.10092687 315:0.19468332 316:0.10876952 317:0.07663278 318:0.27838014 319:0.29568715 320:0.23650462 321:0.31250064 322:0.15897883 325:0.14809608 326:0.24744968 327:0.20496574 328:0.25537987 329:0.34388025 330:0.46301336 331:0.28922666 332:0.30022291 333:0.49768111 334:0.28387837 335:0.13322896 337:0.29546679 338:0.29231266 339:0.24109925 340:0.24257082 341:0.29471941 342:0.30274249 343:0.15341346 344:0.32087544 345:0.6499273 346:0.53566564 347:0.19928162 349:0.15771598 350:0.29388924 351:0.13347685 354:0.23101331 355:0.63016584 356:0.68317898 357:0.49649064 358:0.39493229 359:0.2059724 361:0.078255954 362:0.14511787 363:0.065537957 366:0.31099979 367:0.7955718 368:0.84567318 369:0.44831152 370:0.22430382 371:0.13687962 375:0.051817436 376:0.19144223 377:0.20329394 378:0.1779343 379:0.39437633 380:0.68663622 381:0.56693966 382:0.27131627 383:0.10949052 386:0.15382655 387:0.23477669 388:0.23822276 389:0.45806767 390:0.51530468 391:0.33036057 392:0.30268233 393:0.55789684 394:0.42441371 395:0.10797653 398:0.15078058 399:0.18438652 400:0.11085926 401:0.32240629 402:0.51202946 403:0.44492613 404:0.28363993 405:0.3396146 406:0.15467788 412:0.063212072 413:0.15766306 414:0.3418541 415:0.30817516 416:0.22188886 417:0.099813821 425:0.090418608 426:0.25128169 427:0.25008582 428:0.083151674 437:0.10422226 438:0.22610488 439:0.11946918 448:0.11818022 449:0.54136394 450:0.54069615 451:0.3213818 458:0.21025649 459:0.22432331 460:0.25312266 461:0.66527888 462:1 463:0.540616 464:0.23947963 465:0.041773249 466:0.031328333 469:0.080823074 470:0.38211344 471:0.31846814 472:0.15709852 473:0.42061775 474:0.80455715 475:0.67861813 476:0.42298322 477:0.197993 478:0.06324159 479:0.015624616 481:0.14592057 482:0.31913551 483:0.38449214 484:0.10113616 485:0.084863653 486:0.2319154 487:0.45662505 488:0.48991898 489:0.60131363 490:0.37742249 491:0.026789261 493:0.06985374 494:0.15014809 495:0.084789401 498:0.13471156 499:0.32373139 500:0.62530383 501:0.77897753 502:0.53259958 503:0.17962763 504:0.0051742252 505:0.046231438 506:0.087487289 507:0.040438931 510:0.2397285 511:0.75466866 512:0.6616777 513:0.5508649 514:0.73721582 515:0.39872678 516:0.097689574 517:0.075199997 518:0.11686841 519:0.32433435 520:0.45708936 521:0.28393021 522:0.22039686 523:0.58966098 524:0.65280027 525:0.82411279 526:0.88202569 527:0.65825762 528:0.091830376 529:0.033473696 530:0.11523047 531:0.48121744 532:0.75629997 533:0.6045565 534:0.43541849 535:0.40189085 536:0.6642629 537:0.63501785 538:0.68369401 539:0.43584469 542:0.078901119 543:0.28333713 544:0.36650048 545:0.50017852 546:0.50616047 547:0.69584761 548:0.68295824 549:0.59469377 550:0.25622252 551:0.1181496 557:0.060387956 558:0.34184188 559:0.67729931 560:0.66242617 561:0.1852428 570:0.23367389 571:0.46168914 572:0.3946072 594:0.10049673 595:0.10049673 605:0.10100047 606:0.40299439 607:0.40049071 608:0.10049673 613:0.10049673 614:0.10049673 617:0.20050726 618:0.6025017 619:0.6025017 620:0.39753063 621:0.2014972 622:0.099000526 625:0.20099345 626:0.20099345 627:0.099496768 629:0.10049673 630:0.29999398 631:0.39999449 632:0.29602389 633:0.6040054 634:0.59999549 635:0.19949725 637:0.10049673 638:0.2010035 639:0.19702337 642:0.10100047 643:0.40149819 644:0.60299539 645:0.70099595 646:0.79952251 647:0.40200446 648:0.099496768 650:0.10100047 651:0.099000526 654:0.20200094 655:0.60149919 656:0.80099896 657:1 658:0.69849227 659:0.29899402 660:0.0975266 662:0.20250721 663:0.2014972 665:0.10100047 666:0.29900152 667:0.29900152 668:0.49899502 669:0.69752461 670:0.39652062 674:0.19949725 675:0.19949725 677:0.20200094 678:0.60200545 679:0.39799455 681:0.099496768 682:0.0975266 689:0.20000099 690:0.50049872 691:0.40200446 692:0.20049724 693:0.099000526 701:0.099000526 702:0.19800105 703:0.19849729 704:0.19852707 705:0.099000526 
0.4346070352929922 0.1768061386372438 5:0.035040369 6:0.14233923 7:0.10652505 8:0.023613511 17:0.18865804 18:0.33087747 19:0.23459383 20:0.10851825 26:0.04134455 27:0.045655217 28:0.020148364 29:0.29233569 30:0.65110488 31:0.59330167 32:0.30210382 33:0.04623464 34:0.017602936 37:0.089480126 38:0.27360403 39:0.18684726 40:0.13826124 41:0.2388963 42:0.84859414 43:0.97919222 44:0.55467638 45:0.083833348 46:0.18020764 47:0.11216058 49:0.25935282 50:0.57991205 51:0.44749504 52:0.13705088 53:0.077216792 54:0.75704316 55:0.90385401 56:0.61695319 57:0.4511555 58:0.5183833 59:0.30978023 61:0.16809199 62:0.60802288 63:0.60288907 66:0.60891553 67:0.73485392 68:0.53363649 69:0.69258806 70:0.83433519 71:0.5284843 72:0.091034562 73:0.10741093 74:0.45296648 75:0.44012921 78:0.60142665 79:0.76302756 80:0.49861081 81:0.78557017 82:0.97925475 83:0.57539187 84:0.18252544 85:0.35433499 86:0.74912015 87:0.48118754 88:0.11117035 89:0.067273263 90:0.7674265 91:0.92399513 92:0.4597675 93:0.50736959 94:0.68765355 95:0.40352809 96:0.089679234 97:0.24503729 98:0.55124754 99:0.44156147 100:0.28195626 101:0.26722028 102:0.70816974 103:1 104:0.72650661 105:0.21006564 106:0.17083711 107:0.11889642 109:0.091475749 110:0.16862224 111:0.15346639 112:0.33001739 113:0.37747496 114:0.5042123 115:0.71985517 116:0.74651721 117:0.23068252 118:0.014455622 119:0.014169382 124:0.14402203 125:0.25114095 126:0.28264399 127:0.33634462 128:0.42177384 129:0.12281122 137:0.072648459 138:0.09288438 139:0.1609234 140:0.14239028 150:0.34997181 151:0.34805853 152:0.11032959 162:0.63140145 163:0.83183583 164:0.50509671 171:0.25289624 172:0.39749782 173:0.40979455 174:0.84445981 175:0.92902955 176:0.82691248 177:0.33895389 178:0.23983235 181:0.14191465 182:0.28454065 183:0.3905394 184:0.63068419 185:0.82343 186:0.78465818 187:0.84198515 188:0.56826491 189:0.48310818 190:0.58125604 191:0.24342984 193:0.31354677 194:0.57910151 195:0.30403372 196:0.42391091 197:0.62661659 198:0.40885463 199:0.50643895 200:0.43729188 201:0.55808593 202:0.88527447 203:0.62991766 205:0.17120981 206:0.58556095 207:0.57935036 210:0.4071859 211:0.64182746 212:0.58057258 213:0.35805986 214:0.51522602 215:0.47276497 216:0.03966758 218:0.3101822 219:0.30723558 222:0.28527442 223:0.51638506 224:0.61515553 225:0.52833971 226:0.25192883 227:0.086277117 228:0.03966758 229:0.10256481 230:0.48389667 231:0.37847286 232:0.085416352 233:0.51136824 234:0.60799342 235:0.22501538 236:0.37156357 237:0.57301167 238:0.35322944 241:0.10255926 242:0.52187417 243:0.52090857 244:0.28969656 245:0.66534541 246:1 247:0.7538983 248:0.32995974 249:0.21104489 250:0.17037324 253:0.077875632 254:0.17545328 255:0.33503574 256:0.23360057 257:0.48426411 258:0.73098371 259:0.97857862 260:0.50386912 261:0.072546258 262:0.0089944436 268:0.18041113 269:0.60018511 270:0.60245668 271:0.44516863 272:0.24341245 273:0.062115302 281:0.26978393 282:0.63014356 283:0.35996358 293:0.073591544 294:0.22358617 295:0.14783815 296:0.034082551 305:0.091911761 306:0.26595228 307:0.26552427 308:0.0828657 314:0.039109481 315:0.30733215 316:0.26527475 317:0.10926057 318:0.29163494 319:0.39281303 320:0.26421625 321:0.30910065 322:0.13957489 325:0.084697605 326:0.19833656 327:0.37670241 328:0.38923236 329:0.35442082 330:0.49532072 331:0.36587856 332:0.33366276 333:0.56640286 334:0.30484439 335:0.088077754 337:0.17201677 338:0.32308009 339:0.2516356 340:0.15458823 341:0.29079895 342:0.34940375 343:0.22041756 344:0.32077032 345:0.68193729 346:0.56898336 347:0.20529251 349:0.087319167 350:0.32163912 351:0.31823227 354:0.19282286 355:0.61843051 356:0.75400644 357:0.5774322 358:0.42485777 359:0.19236167 361:0.013891739 362:0.19650536 363:0.19451846 366:0.20320169 367:0.74125506 368:0.90229757 369:0.47808146 370:0.19881383 371:0.074260045 373:0.20798725 374:0.27987763 375:0.11962517 376:0.1724539 377:0.37770546 378:0.29216823 379:0.34990692 380:0.69686909 381:0.5630009 382:0.28945264 383:0.11504478 385:0.19370729 386:0.32574033 387:0.33865348 388:0.26035619 389:0.53359751 390:0.66099038 391:0.42316362 392:0.30246731 393:0.59197375 394:0.44834972 395:0.11630362 397:0.079041056 398:0.15847831 399:0.25221695 400:0.17272662 401:0.23921865 402:0.51140411 403:0.60079065 404:0.35304221 405:0.33748565 406:0.16203471 407:0.0041196088 412:0.016647234 413:0.13524958 414:0.29766831 415:0.40936192 416:0.30348856 417:0.096827532 425:0.078989593 426:0.23384485 427:0.23499384 428:0.1022962 437:0.12391868 438:0.34184121 439:0.21360737 449:0.49972986 450:0.71283639 451:0.44387791 458:0.13472762 459:0.27435297 460:0.13692414 461:0.39164262 462:0.7446215 463:0.62279408 464:0.29304393 465:0.038255059 466:0.0079919115 469:0.043672351 470:0.29888735 471:0.39276528 472:0.34651901 473:0.1885502 474:0.57508929 475:0.74481406 476:0.5191518 477:0.30114163 478:0.13715454 479:0.0079123906 481:0.076016785 482:0.22325253 483:0.39458598 484:0.28298897 485:0.08054718 486:0.22563665 487:0.4592966 488:0.53172325 489:0.76366366 490:0.46081332 491:0.028239776 493:0.032344434 494:0.15145655 495:0.14995349 498:0.25266094 499:0.4436168 500:0.70545025 501:0.95060006 502:0.64397235 503:0.16700923 504:0.00088693408 505:0.33774335 506:0.49541732 507:0.29182566 510:0.39107119 511:0.94335008 512:0.9360392 513:0.74424282 514:0.87711419 515:0.45977513 516:0.036747041 517:0.6228297 518:0.86229893 519:0.61914888 520:0.35472131 521:0.2663617 522:0.27549814 523:0.66107221 524:0.87975774 525:0.92829488 526:0.95828667 527:0.77788375 528:0.03515003 529:0.2843428 530:0.61380577 531:0.61354957 532:0.72792738 533:0.81007121 534:0.36628848 535:0.39823081 536:0.53936762 537:0.63777979 538:0.80249361 539:0.49663529 542:0.11355187 543:0.26158733 544:0.37157031 545:0.58928202 546:0.38266728 547:0.619289 548:0.76299656 549:0.60260794 550:0.29095796 551:0.12544026 557:0.037337492 558:0.21988855 559:0.59298338 560:0.68610108 561:0.26436715 570:0.21797761 571:0.3416961 572:0.28108789 594:0.11141551 595:0.11141551 605:0.11197398 606:0.44677897 607:0.44677897 608:0.33203763 609:0.10975675 614:0.11197398 615:0.10975675 617:0.22173073 618:0.66741221 619:0.77771912 620:0.54991706 621:0.22338949 622:0.22117225 626:0.22394796 627:0.21951349 629:0.10975675 630:0.3298204 631:0.44345314 632:0.21787943 633:0.67128821 634:0.66518386 635:0.22006365 638:0.22173073 639:0.22173073 642:0.11141551 643:0.33480499 644:0.55819448 645:0.7788166 646:0.88746475 647:0.32985341 650:0.22450923 651:0.22117225 654:0.22338949 655:0.44456174 656:0.66573399 657:1 658:0.88084606 659:0.10975675 662:0.44679012 663:0.44677897 664:0.10975675 665:0.11197398 666:0.330929 667:0.22228088 668:0.32818633 669:0.66411107 670:0.54935859 674:0.22117225 675:0.33314623 676:0.10975675 677:0.22338949 678:0.55653852 679:0.55652741 680:0.22117225 681:0.1103069 682:0.10812268 689:0.11141551 690:0.33370751 691:0.55653855 692:0.44293882 693:0.1103069 702:0.1103069 703:0.32818633 704:0.32818633 705:0.10812268 
0.5491681021787045 0.2207006953816221 17:0.028823421 18:0.066695996 19:0.037496673 28:0.095163331 29:0.16699604 30:0.34308 31:0.34398288 32:0.092406315 37:0.27764205 38:0.38252471 39:0.10642969 40:0.094281836 41:0.14532326 42:0.68770612 43:0.85028931 44:0.42890903 45:0.067508001 46:0.15905057 47:0.11354361 49:0.56097398 50:0.66334235 51:0.30006174 53:0.070694761 54:0.71727924 55:0.959697 56:0.71199485 57:0.66264779 58:0.76476377 59:0.5144578 60:0.096320184 61:0.5903006 62:0.72029119 63:0.49768793 64:0.019297085 66:0.58289985 67:0.77758666 68:0.63313681 69:0.81626307 70:0.95184143 71:0.61032899 72:0.19716101 73:0.35535581 74:0.59861284 75:0.42397848 76:0.16622598 77:0.12782382 78:0.66000953 79:0.96093248 80:0.61849911 81:0.59924983 82:0.5106354 83:0.30497122 84:0.098844046 85:0.14875098 86:0.3032497 87:0.17224136 88:0.21397556 89:0.28848446 90:0.61478571 91:0.77649948 92:0.85596478 93:0.40619503 100:0.066578748 101:0.34469332 102:0.50756028 103:0.57947823 104:0.74576528 105:0.4450656 113:0.26539228 114:0.65977189 115:0.60978019 116:0.43768012 117:0.40066201 125:0.080737812 126:0.68036873 127:0.78219047 128:0.53780276 129:0.47762772 130:0.17882253 138:0.35849615 139:0.70145002 140:0.76503208 141:0.66136694 142:0.30446918 162:0.30797081 163:0.30416313 171:0.15962136 172:0.26021518 173:0.25304013 174:0.78582787 175:0.91583443 176:0.32852456 177:0.12094181 178:0.072378204 181:0.27155657 182:0.26948242 183:0.26155017 184:0.44701518 185:0.60500075 186:0.74926516 187:1 188:0.73773892 189:0.51052164 190:0.66787688 191:0.22492523 193:0.43486332 194:0.43209016 195:0.33439454 196:0.32708372 197:0.59887274 198:0.6532114 199:0.87049842 200:0.78273626 201:0.53785185 202:0.76950924 203:0.52318391 204:0.050622456 205:0.36226916 206:0.44885713 207:0.26784981 208:0.12643351 209:0.23308345 210:0.38129451 211:0.47821563 212:0.72860052 213:0.67593778 214:0.54807577 215:0.32322405 216:0.058686156 217:0.26135935 218:0.4838185 219:0.37013663 220:0.16826824 221:0.46190402 222:0.56687713 223:0.43142014 224:0.56486042 225:0.52601661 226:0.17220951 227:0.0080637 228:0.007904028 229:0.1253345 230:0.40021006 231:0.28938061 232:0.15065333 233:0.61445754 234:0.76794578 235:0.41373721 236:0.32304086 237:0.13494235 238:0.0038216578 244:0.10666384 245:0.42667914 246:0.53023487 247:0.2609301 248:0.12410714 249:0.048547239 257:0.098685315 258:0.29695499 259:0.19484867 260:0.23031541 261:0.22780099 269:0.046575216 270:0.36524178 271:0.49426532 272:0.60204059 273:0.56006472 274:0.32283088 282:0.34485801 283:0.60458201 284:0.66006169 285:0.87420212 286:0.41817538 305:0.058215828 306:0.2133507 307:0.15310314 314:0.081104227 315:0.18350563 316:0.11103658 317:0.15212969 318:0.39363104 319:0.34017211 320:0.22859436 321:0.1905871 322:0.053644373 325:0.16464166 326:0.25182932 327:0.22245296 328:0.28048081 329:0.3717909 330:0.53221057 331:0.43902485 332:0.43963352 333:0.61205557 334:0.34945045 335:0.090383612 337:0.34598302 338:0.35051244 339:0.31647101 340:0.26179258 341:0.27325943 342:0.4123176 343:0.63051685 344:0.63716681 345:0.74598659 346:0.54895398 347:0.21943355 349:0.34857729 350:0.345692 351:0.21061151 352:0.17760984 353:0.13608387 354:0.29386684 355:0.72356456 356:1 357:0.84313115 358:0.48468633 359:0.20454814 361:0.21906227 362:0.35234334 363:0.30913914 364:0.25400452 365:0.4621526 366:0.55603641 367:0.541646 368:0.68594341 369:0.6644166 370:0.48782891 371:0.17837419 373:0.095143626 374:0.21302744 375:0.23156441 376:0.23453913 377:0.49377857 378:0.70503467 379:0.45991231 380:0.29456427 381:0.30258029 382:0.26379998 383:0.099732089 388:0.05949838 389:0.18026126 390:0.46144203 391:0.42403058 392:0.21217774 393:0.067595644 401:0.068870001 402:0.29054437 403:0.31684634 404:0.048465376 405:0.027969523 413:0.067506283 414:0.18331676 415:0.13603279 416:0.06613749 417:0.065938324 418:0.055244332 426:0.047965819 427:0.18893653 428:0.28307211 429:0.23960322 430:0.12665658 449:0.10387791 450:0.29486585 451:0.18720612 458:0.20379886 459:0.21344308 460:0.18393499 461:0.47834516 462:0.65199908 463:0.53849064 464:0.19939217 465:0.0052236677 469:0.10515971 470:0.48401937 471:0.38602784 472:0.18911079 473:0.41509625 474:0.77385965 475:0.80289728 476:0.45216672 477:0.25405131 478:0.099242359 479:0.0032252749 481:0.19427507 482:0.41877034 483:0.45650481 484:0.10513539 485:0.09962505 486:0.34609113 487:0.59727196 488:0.67323711 489:0.73868551 490:0.5266759 491:0.14548734 493:0.43964629 494:0.48463155 495:0.30331399 496:0.14277369 497:0.031388672 498:0.19602091 499:0.74432381 500:0.7641259 501:1 502:0.9462889 503:0.44973123 504:0.053360705 505:0.4331372 506:0.54045961 507:0.38503941 508:0.460989 509:0.32333487 510:0.37085437 511:0.90722691 512:0.80131953 513:0.73532851 514:0.887087 515:0.6016765 516:0.052304092 517:0.19594923 518:0.24484602 519:0.21064086 520:0.31370292 521:0.41176975 522:0.47415194 523:0.82895759 524:0.85731036 525:0.50570328 526:0.34779304 527:0.16829993 533:0.089433483 534:0.25839755 535:0.49754356 536:0.62091948 537:0.21748259 546:0.14614408 547:0.23985807 548:0.15743233 549:0.065574001 558:0.31448123 559:0.31046758 560:0.10961095 561:0.062497756 562:0.061260218 570:0.21351566 571:0.29853884 572:0.19662247 573:0.35349436 574:0.27276204 605:0.083504439 606:0.33485489 607:0.3331931 608:0.083504439 613:0.083504439 614:0.083504439 617:0.16784811 618:0.58413334 619:0.50229069 620:0.33153967 621:0.25093188 622:0.16576566 625:0.25093188 626:0.25093188 627:0.16493478 629:0.083504439 630:0.33194365 631:0.4969094 632:0.58496422 633:0.66929957 634:0.50021033 635:0.250101 636:0.08226122 637:0.2492701 638:0.41753678 639:0.32947572 642:0.16784601 643:0.41587289 644:0.66473277 645:1 646:0.8276036 647:0.24846396 648:0.08226122 649:0.083504439 650:0.33444467 651:0.33113751 653:0.16826668 654:0.49896711 655:0.41420487 656:0.41420487 657:0.58040761 658:0.32906339 662:0.16493478 663:0.16329773 665:0.250101 666:0.49690317 667:0.33030661 668:0.25052167 669:0.16617799 677:0.083504439 678:0.24886611 679:0.24760833 680:0.16371007 681:0.08103651 690:0.082673556 691:0.08103651 
0.2926069530110335 0.1184064313529458 6:0.089022089 7:0.21038391 8:0.38279649 9:0.26134872 10:0.11518161 17:0.28942926 18:0.44591674 19:0.38837939 20:0.75205596 21:0.56636321 22:0.31501926 29:0.50001098 30:0.57077559 31:0.50446154 32:0.61181758 33:0.63795538 34:0.29676574 40:0.10081774 41:0.4248312 42:0.54499564 43:0.24766693 44:0.48093843 45:0.56687606 46:0.097126751 49:0.39757508 50:0.39304782 51:0.058922962 52:0.10027114 53:0.32253102 54:0.80314219 55:0.82777259 56:0.65500603 57:0.44419292 58:0.37666674 59:0.25555208 61:0.616491 62:0.61200867 63:0.28063919 65:0.072484555 66:0.71232782 67:0.97538137 68:0.79738214 69:0.86056486 70:0.96899702 71:0.63854178 72:0.23793842 73:0.42415545 74:0.63678108 75:0.41220422 76:0.13820388 77:0.11919694 78:0.65008117 79:0.80595523 80:0.63599348 81:0.83770753 82:0.88524728 83:0.70858104 84:0.32240869 85:0.20022187 86:0.30808288 87:0.20809444 88:0.28282055 89:0.26170519 90:0.59662391 91:0.70484266 92:0.74566262 93:0.52498413 94:0.26549949 95:0.2368207 96:0.085112523 98:0.0090333912 99:0.017205432 100:0.23411442 101:0.34679806 102:0.49074749 103:0.52488102 104:0.82899781 105:0.52816329 113:0.3004772 114:0.74293876 115:0.59358016 116:0.50340313 117:0.42375255 118:0.04422267 125:0.09412581 126:0.69693375 127:0.86539557 128:0.52368583 129:0.50481634 130:0.20234439 138:0.25662378 139:0.62021768 140:0.64561772 141:0.55238677 142:0.25229337 150:0.10428719 151:0.19876425 152:0.16861179 153:0.073782416 154:0.072321427 161:0.061701558 162:0.2454347 163:0.2788099 164:0.25423281 165:0.16207948 166:0.072321427 173:0.061701558 174:0.32575993 175:0.262798 176:0.25744707 177:0.093243447 182:0.024929774 183:0.16443428 184:0.2386528 185:0.22041778 186:0.65413174 187:0.72323834 188:0.29911256 189:0.094340142 190:0.048871146 193:0.24345452 194:0.26576172 195:0.23692222 196:0.3384316 197:0.45025793 198:0.75434475 199:1 200:0.6157376 201:0.36557095 202:0.5508717 203:0.22090046 205:0.39015802 206:0.38756151 207:0.29370311 208:0.2593247 209:0.4450051 210:0.5337124 211:0.94164866 212:0.79524974 213:0.50756759 214:0.60978597 215:0.4768348 216:0.087038821 217:0.42759145 218:0.5296997 219:0.33412746 220:0.11207034 221:0.25939782 222:0.46873439 223:0.51338192 224:0.62270041 225:0.40829951 226:0.42503071 227:0.28123113 228:0.086361299 229:0.27818054 230:0.4324735 231:0.34856273 232:0.26252324 233:0.53214196 234:0.50206238 235:0.41406202 236:0.51374888 237:0.3178428 238:0.12907632 241:0.033780291 242:0.22670998 243:0.19658569 244:0.15115293 245:0.33282753 246:0.36506999 247:0.41327741 248:0.36549669 249:0.12195331 250:0.0020281732 257:0.14809938 258:0.3243678 259:0.17423859 260:0.18969398 261:0.28417866 262:0.09443497 269:0.067838304 270:0.30296297 271:0.50793477 272:0.53403408 273:0.43842141 274:0.25476297 282:0.18716787 283:0.55495608 284:0.57839719 285:0.55042562 286:0.27398427 294:0.14215908 295:0.3104037 296:0.25870395 297:0.090079835 298:0.058568386 305:0.12613489 306:0.28596816 307:0.32932983 308:0.28795536 309:0.17421314 310:0.058568386 317:0.24343642 318:0.36934808 319:0.30460827 320:0.25599699 321:0.085571299 326:0.1562636 327:0.25276655 328:0.15621347 329:0.3073446 330:0.53124432 331:0.4051709 332:0.29336879 333:0.34107926 334:0.17055781 337:0.28575529 338:0.45779491 339:0.33924859 340:0.40036734 341:0.53020279 342:0.81707527 343:0.64703862 344:0.64850824 345:0.89975688 346:0.5170099 347:0.17659525 349:0.39896608 350:0.41329348 351:0.35515531 352:0.33351901 353:0.37062537 354:0.58831568 355:0.86313287 356:0.95492808 357:0.99595159 358:0.82600278 359:0.34082436 361:0.31652397 362:0.4827829 363:0.30067101 364:0.34585783 365:0.41263678 366:0.65043696 367:0.84313866 368:0.9187006 369:0.87777433 370:0.6845134 371:0.31656972 373:0.1974009 374:0.39397775 375:0.34345221 376:0.4128852 377:0.58349934 378:0.59580949 379:0.61195736 380:0.71750192 381:0.73375537 382:0.53714893 383:0.15183802 385:0.05832812 386:0.14454593 387:0.19508408 388:0.10725972 389:0.26826571 390:0.74871929 391:0.6994706 392:0.3918621 393:0.33626357 394:0.16262813 401:0.17097009 402:0.54453047 403:0.49123171 404:0.063745767 405:0.047608179 413:0.080976465 414:0.16133225 415:0.15969641 416:0.22521036 417:0.2238636 418:0.04713447 426:0.033976977 427:0.21726483 428:0.33995311 429:0.31908263 430:0.15356057 438:0.11138826 439:0.29122227 440:0.54766188 441:0.36324352 442:0.078167208 449:0.25250834 450:0.41808952 451:0.41542215 452:0.72492928 453:0.52144556 454:0.21680995 461:0.51304018 462:0.65090517 463:0.51173535 464:0.42681435 465:0.37957079 466:0.16448964 470:0.11275993 471:0.11097548 472:0.17651228 473:0.62643401 474:0.71043995 475:0.36296587 476:0.32871891 477:0.1619325 478:0.026631807 481:0.20237346 482:0.42640745 483:0.33297671 484:0.18910768 485:0.43291286 486:0.76741023 487:0.70167475 488:0.69837499 489:0.52587717 490:0.090299267 491:0.00083296454 493:0.35081459 494:0.45798618 495:0.3994408 496:0.021972896 497:0.12050933 498:0.37177998 499:0.79283758 500:0.95207847 501:0.85493681 502:0.68133139 503:0.30871594 504:0.031906919 505:0.38270478 506:0.45907913 507:0.39257117 508:0.52124577 509:0.258593 510:0.44744229 511:0.98149249 512:0.83157346 513:0.85738542 514:0.89928197 515:0.55676035 516:0.12385784 517:0.25916383 518:0.36777414 519:0.41240422 520:0.52460499 521:0.34166609 522:0.48859285 523:0.81673754 524:0.93534038 525:0.60607874 526:0.56267379 527:0.42585935 528:0.090146177 529:0.061487895 530:0.061487895 531:0.19223855 532:0.30327076 533:0.25208514 534:0.29017226 535:0.4626989 536:0.73152243 537:0.45592625 538:0.063486486 545:0.057340606 546:0.24284328 547:0.31350379 548:0.19187807 549:0.082104251 557:0.056205186 558:0.38699148 559:0.4168832 560:0.16515822 561:0.23287217 562:0.14170808 570:0.20031043 571:0.33402715 572:0.2998369 573:0.34767159 574:0.23143807 617:0.20130119 618:0.4011014 619:0.29845655 620:0.19930569 621:0.098656349 625:0.10064934 626:0.10064934 627:0.098656349 629:0.30045206 630:0.69808915 631:0.60139358 632:0.40060437 633:0.49875872 634:0.1988037 637:0.29945304 638:0.29945304 639:0.1973127 641:0.10014735 642:0.49824926 643:0.79774198 644:0.89935562 645:0.89936561 646:0.59941058 647:0.29994755 648:0.098656349 649:0.29945304 650:0.30245252 651:0.29646356 653:0.20180319 654:0.49775477 655:0.69459515 656:0.79474997 657:0.89836913 658:0.69655847 659:0.29798424 660:0.098656349 661:0.098656349 662:0.19980021 663:0.1958439 665:0.20079669 666:0.39714257 667:0.39910589 668:0.69360614 669:0.5929568 670:0.1958439 677:0.10064934 678:0.29796204 679:0.29796204 680:0.29796204 681:0.1973127 689:0.098656349 690:0.10064934 691:0.098656349 
0.2015893054822517 0.08205252025358252 5:0.031872302 6:0.088983221 7:0.16370854 8:0.30926233 9:0.20359271 10:0.10689594 17:0.29896273 18:0.41584799 19:0.29844735 20:0.5441242 21:0.43464434 22:0.24420734 29:0.45777548 30:0.51992727 31:0.4025796 32:0.51996122 33:0.49595033 34:0.13545806 40:0.1052223 41:0.45811368 42:0.54397798 43:0.264071 44:0.43360857 45:0.41634907 49:0.36686208 50:0.36261083 51:0.053410128 52:0.1052223 53:0.3046605 54:0.60673559 55:0.59495007 56:0.55770238 57:0.43905868 58:0.4272693 59:0.33614608 60:0.10430431 61:0.57276641 62:0.56836242 63:0.25187198 65:0.10736817 66:0.61753196 67:0.81746612 68:0.60509697 69:0.86563432 70:0.98654743 71:0.8536781 72:0.41640755 73:0.37859031 74:0.56799888 75:0.36249446 76:0.081119961 77:0.3866243 78:0.9301114 79:0.80131395 80:0.51553699 81:0.65727065 82:0.88459989 83:0.93911671 84:0.41232771 85:0.16841936 86:0.27491613 87:0.18610523 88:0.1923281 89:0.38630108 90:0.80212905 91:0.94279373 92:0.64919937 93:0.44669291 94:0.18512864 95:0.12094097 98:0.014210682 99:0.021592905 100:0.17131388 101:0.29209343 102:0.50524467 103:0.63140665 104:0.76386891 105:0.49027625 113:0.39045156 114:0.67447736 115:0.56787126 116:0.47795277 117:0.38785189 125:0.20529242 126:0.63840913 127:0.74562393 128:0.5347853 129:0.45958832 130:0.12385105 138:0.26508496 139:0.53459018 140:0.61767071 141:0.51034872 142:0.18467863 150:0.15725329 151:0.29740958 152:0.2274237 153:0.086642385 154:0.08492675 161:0.06966867 162:0.3099309 163:0.38111 164:0.30824648 165:0.18599074 166:0.08492675 173:0.06966867 174:0.25923524 175:0.3135077 176:0.31070164 177:0.10431541 182:0.017073121 183:0.099112078 184:0.18651104 185:0.19678766 186:0.62322907 187:0.73524027 188:0.25835132 189:0.11029872 190:0.056034311 193:0.18411269 194:0.19790293 195:0.18115104 196:0.30682035 197:0.36519269 198:0.7441304 199:0.98771606 200:0.53806191 201:0.43158495 202:0.6093961 203:0.3012967 204:0.057721109 205:0.32410818 206:0.32085721 207:0.1980079 208:0.2143835 209:0.36224163 210:0.61266737 211:0.90938419 212:0.62847986 213:0.61232802 214:0.72758601 215:0.66052153 216:0.17697629 217:0.4634241 218:0.56807195 219:0.23226227 220:0.20425665 221:0.32848107 222:0.4737571 223:0.4933498 224:0.57571015 225:0.53121267 226:0.52380157 227:0.42072195 228:0.17466156 229:0.32001975 230:0.48522011 231:0.35865762 232:0.41456084 233:0.61885111 234:0.54777916 235:0.53784018 236:0.61529338 237:0.45974678 238:0.15523482 241:0.060897599 242:0.26661587 243:0.20609191 244:0.21052122 245:0.43439373 246:0.58729211 247:0.49050903 248:0.34663706 249:0.12242569 250:0.0023368819 257:0.21238902 258:0.36540158 259:0.17858864 260:0.29030575 261:0.28664017 269:0.11621913 270:0.34702961 271:0.44560943 272:0.63374472 273:0.4660441 274:0.18274354 282:0.32100846 283:0.64211429 284:0.73958648 285:0.57474285 286:0.18198688 294:0.093243873 295:0.23140823 296:0.24717414 297:0.10901438 298:0.066890287 305:0.12916288 306:0.22115117 307:0.23140823 308:0.2450074 309:0.16255078 310:0.066890287 317:0.26674325 318:0.35070579 319:0.24045669 320:0.16516472 321:0.052476308 326:0.15209748 327:0.22447931 328:0.13015091 329:0.36890974 330:0.57130405 331:0.41762142 332:0.31347915 333:0.31996295 334:0.16338976 337:0.25038841 338:0.39907467 339:0.30324121 340:0.36014206 341:0.56260043 342:0.88763992 343:0.65312875 344:0.70054271 345:0.76653987 346:0.40735481 347:0.14977194 348:0.039360668 349:0.3182121 350:0.33591609 351:0.31799037 352:0.29778256 353:0.36997595 354:0.62972374 355:0.86276332 356:0.94729918 357:0.86924589 358:0.76052607 359:0.51751878 360:0.15420136 361:0.25887937 362:0.42623386 363:0.30789982 364:0.36448916 365:0.38657726 366:0.54189555 367:0.80992944 368:0.93273787 369:0.92959145 370:0.79391324 371:0.51701529 372:0.15262293 373:0.1855854 374:0.35398384 375:0.30555071 376:0.43207582 377:0.67975935 378:0.68601069 379:0.72064285 380:0.76048287 381:0.82239821 382:0.57202755 383:0.15008928 385:0.051510476 386:0.13864549 387:0.1912189 388:0.10247951 389:0.37787452 390:0.8832695 391:0.70882498 392:0.39278518 393:0.35265309 394:0.14463991 401:0.16417046 402:0.46291216 403:0.36967863 404:0.040509101 405:0.040509101 413:0.079044248 414:0.17371613 415:0.17211933 416:0.23792015 417:0.21130531 418:0.040106029 426:0.0516223 427:0.19030385 428:0.31101016 429:0.26673088 430:0.12449436 437:0.11173765 438:0.28765708 439:0.37445226 440:0.4330643 441:0.23202268 442:0.058672072 449:0.32679838 450:0.55720009 451:0.51543711 452:0.58604208 453:0.47390844 454:0.19012908 461:0.45897975 462:0.56928269 463:0.53506388 464:0.40896046 465:0.33054712 466:0.1301594 470:0.12972823 471:0.12765176 472:0.19512004 473:0.64424332 474:0.67744044 475:0.32880048 476:0.25526455 477:0.15493467 481:0.20379844 482:0.33267722 483:0.23276672 484:0.20768119 485:0.45517118 486:0.91087793 487:0.79475549 488:0.58837937 489:0.51092697 490:0.13348204 491:0.047509988 493:0.31472697 494:0.31808427 495:0.29669439 496:0.024128336 497:0.13016994 498:0.54611166 499:0.82737268 500:0.76079995 501:0.87363598 502:0.70086951 503:0.31586764 504:0.17345791 505:0.37946859 506:0.4593978 507:0.3736457 508:0.48962204 509:0.26691864 510:0.47576102 511:0.86908807 512:0.73519255 513:0.83067753 514:0.9863074 515:0.66143423 516:0.17266099 517:0.30655625 518:0.36538336 519:0.37009774 520:0.54013877 521:0.32926086 522:0.6489144 523:0.98928638 524:0.81356089 525:0.57638927 526:0.64312636 527:0.34282139 529:0.10131245 530:0.10131245 531:0.19146454 532:0.34464617 533:0.25676146 534:0.44351638 535:0.64819585 536:0.64071339 537:0.41668942 538:0.090105469 545:0.080133393 546:0.28683085 547:0.38926522 548:0.19968328 549:0.097855302 557:0.064966027 558:0.35322313 559:0.38182247 560:0.19002346 561:0.14784571 562:0.047285559 570:0.18295938 571:0.37349269 572:0.33801329 573:0.26415018 574:0.14589939 617:0.25218628 618:0.49937894 619:0.37297057 620:0.24906525 621:0.12328734 625:0.12577791 626:0.12577791 627:0.12328734 629:0.3760916 630:0.75215817 631:0.50185699 632:0.37484315 633:0.37484315 634:0.24843793 635:0.12515059 637:0.37484315 638:0.37235258 639:0.24657468 641:0.24843793 642:0.62269402 643:0.74598135 644:0.74844418 645:1 646:0.87359477 647:0.50062421 648:0.24719266 649:0.37484315 650:0.37733372 651:0.24657468 652:0.12515059 653:0.25030118 654:0.62576231 655:0.74286032 656:0.86989601 657:0.98818973 658:0.74843167 659:0.49812115 660:0.24473917 661:0.12328734 662:0.24906525 663:0.12328734 664:0.12515059 665:0.37670955 666:0.74968011 667:0.99624231 668:0.86739293 669:0.49750317 670:0.12328734 677:0.24968323 678:0.74472357 679:0.74410559 680:0.37172527 681:0.12328734 689:0.12328734 690:0.12577791 691:0.12328734 
0.6107411152393741 0.2513885685343712 17:0.085777162 18:0.08407866 20:0.051975769 21:0.081829165 22:0.030432374 27:0.33160345 28:0.32778553 29:0.32574431 30:0.31867694 31:0.16438032 32:0.25543212 33:0.14958874 34:0.2856372 35:0.25015143 37:0.10733526 38:0.31390358 39:0.63923434 40:0.43901381 41:0.53408281 42:0.32274224 43:0.16301764 44:0.23294342 45:0.23485702 46:0.49462297 47:0.47828782 49:0.10520988 50:0.31283022 51:0.41324168 52:0.31599416 53:0.31664157 54:0.10741099 56:0.094611618 57:0.14929577 58:0.37415845 59:0.32387293 62:0.096740753 63:0.13128186 64:0.13128186 67:0.22975258 68:0.39058363 69:0.59093945 70:0.5489099 71:0.12129551 75:0.35084092 76:0.44623004 77:0.31744951 79:0.27607519 80:0.44143464 81:0.88942912 82:0.9439629 83:0.39401257 86:0.089723731 87:0.3109339 88:0.47754739 89:0.43828128 91:0.12899597 92:0.18642653 93:0.72482563 94:0.89949622 95:0.34695128 98:0.40279636 99:0.40361362 100:0.30840298 101:0.12096187 102:0.23369994 103:0.55030034 104:0.34328315 105:0.74305686 106:0.7122719 107:0.25464629 110:0.30913366 111:0.37290076 112:0.23596909 114:0.36041274 115:0.60640524 116:0.35939536 117:0.70078168 118:0.60532142 119:0.2521584 123:0.084474093 124:0.082801394 126:0.24884854 127:0.24884854 128:0.14896572 129:0.26088822 130:0.11473684 159:0.011543773 160:0.011543773 161:0.0076663174 162:0.19596735 163:0.28401484 164:0.10231657 165:0.25338249 166:0.2439119 171:0.25411056 172:0.40824225 173:0.36133031 174:0.38964735 175:0.55345403 176:0.3990663 177:0.25200495 178:0.33893552 179:0.19044094 181:0.029481618 182:0.19347341 183:0.4260068 184:0.41496099 185:0.4945615 186:0.38495446 187:0.37423785 188:0.45717841 189:0.23773933 190:0.27515536 191:0.19704861 193:0.028897842 194:0.25825335 195:0.42549488 196:0.46449057 197:0.25100969 198:0.085614851 200:0.060683077 201:0.059481472 202:0.0085186324 203:0.0085186324 206:0.094484065 207:0.28553298 208:0.40796941 209:0.21721288 210:0.019765415 211:0.1750649 212:0.45911389 213:0.52922146 214:0.24572497 215:0.10040528 219:0.14201051 220:0.29667141 221:0.29304506 222:0.025326991 223:0.27829971 224:0.74418217 225:1 226:0.75182372 227:0.271232 231:0.1014997 232:0.2288152 233:0.23156785 234:0.0058350811 235:0.19003246 236:0.371355 237:0.79644241 238:0.70156447 239:0.16895837 242:0.14756342 243:0.17423884 244:0.1300992 245:0.09585226 246:0.32100308 247:0.52027452 248:0.49628915 249:0.46533058 250:0.19911802 251:0.019996249 254:0.1461192 255:0.17280749 256:0.2502093 257:0.20419559 258:0.36260935 259:0.49125285 260:0.57119044 261:0.54372025 262:0.15015693 263:0.01971235 267:0.082995525 268:0.20838513 269:0.20335164 270:0.197357 271:0.27639974 272:0.27807516 273:0.23739111 274:0.11117774 303:0.10243769 304:0.10243769 305:0.24241724 306:0.46928139 307:0.23840248 308:0.11551383 309:0.2817231 310:0.19990342 315:0.28384303 316:0.43441198 317:0.39268368 318:0.50344037 319:0.44831049 320:0.12602144 321:0.27770502 322:0.27902881 323:0.031700588 326:0.28170673 327:0.6372145 328:0.64978441 329:0.46610717 330:0.29467929 331:0.24170279 332:0.054033025 333:0.068712154 334:0.077558609 335:0.031072874 338:0.32802387 339:0.66315036 340:0.47965698 341:0.12901482 344:0.035559438 345:0.11823637 346:0.088814845 347:0.027076119 350:0.049210362 351:0.27259441 352:0.49123371 353:0.4673242 354:0.40911134 355:0.40097046 356:0.55012256 357:0.43945967 358:0.2009649 359:0.088211379 363:0.28126457 364:0.81411957 365:0.8919091 366:0.82955439 367:0.83345602 368:0.89225632 369:0.73942071 370:0.41211691 371:0.16107966 375:0.21735899 376:0.56056305 377:0.7516694 378:0.42652577 379:0.44347185 380:0.5509253 381:0.4737109 382:0.29704035 383:0.09940826 386:0.098177589 387:0.31527443 388:0.30498601 389:0.40204892 390:0.3428655 391:0.22808092 392:0.1039795 393:0.17672797 394:0.071908456 398:0.098177589 399:0.31254409 400:0.48589322 401:0.45971668 402:0.37195585 403:0.35350723 404:0.30905695 405:0.37610513 406:0.24563403 411:0.20255222 412:0.47791897 413:0.4558377 414:0.37183068 415:0.35226122 416:0.29084457 417:0.37257902 418:0.24274948 447:0.031672513 448:0.031672513 449:0.23706726 450:0.23445588 451:0.019565081 452:0.40900495 453:0.40638572 454:0.13596397 459:0.13558478 460:0.13486915 461:0.29061423 462:0.29132929 463:0.19187827 464:0.71458922 465:0.62849065 466:0.27260946 467:0.036081056 469:0.029956558 470:0.1731574 471:0.3248333 472:0.23418221 473:0.25361825 474:0.267053 475:0.18980148 476:0.43770283 477:0.57053156 478:0.49823824 479:0.22285375 481:0.029363378 482:0.16972865 483:0.21856337 484:0.09994652 485:0.040208689 488:0.43263964 489:0.98904162 490:0.78247653 491:0.36677494 495:0.11388151 496:0.27605139 497:0.20901195 498:0.10662813 499:0.2342398 500:0.79783312 501:0.99837303 502:0.71048999 503:0.14178581 507:0.54521056 508:0.81805492 509:0.54684577 510:0.3878216 511:0.50379074 512:0.67789186 513:0.85834965 514:0.50413404 515:0.17467374 518:0.25928467 519:0.83474831 520:0.98627966 521:0.61475364 522:0.32846836 523:0.31278627 524:0.29148165 525:0.2985815 526:0.34746971 527:0.17387463 530:0.3381878 531:0.62820951 532:0.68751597 533:0.20861326 534:0.21434451 535:0.18941897 536:0.13001343 537:0.17779062 538:0.17465158 539:0.01888252 542:0.080944465 543:0.19532092 544:0.1125332 545:0.033866265 546:0.16286352 547:0.3977145 548:0.27247282 549:0.46211696 550:0.22458337 551:0.01888252 555:0.00040320409 556:0.00080842924 557:0.033195668 558:0.13464516 559:0.23626147 560:0.2698725 561:0.43764457 562:0.18339584 628:0.1439774 629:0.14112646 639:0.14325931 640:0.28723672 641:0.1439774 643:0.28723672 644:0.57447344 645:0.57306227 646:0.28723672 647:0.14112646 651:0.28723672 652:0.42980296 653:0.42408678 655:0.42836318 656:0.8595773 657:1 658:0.57019704 659:0.14112646 663:0.14112646 664:0.28581126 665:0.28015182 667:0.14112646 668:0.42693773 669:0.70708955 670:0.28015182 
0.2233042394708101 0.08693082979032833 5:0.039065886 6:0.076014781 7:0.083488678 8:0.045217441 16:0.044649281 17:0.23551387 18:0.29475011 19:0.29383622 20:0.18329446 26:0.038498223 27:0.0451441 28:0.19663637 29:0.49460195 30:0.48008761 31:0.58233541 32:0.48309487 33:0.070693593 38:0.25031108 39:0.26568235 40:0.23952059 41:0.52940058 42:0.52075511 43:0.54735737 44:0.59864732 45:0.21324022 46:0.24720478 47:0.14717259 50:0.43533246 51:0.44736305 52:0.28604465 53:0.30950797 54:0.28004137 55:0.34744891 56:0.53497881 57:0.50637926 58:0.60905585 59:0.28813829 61:0.029863446 62:0.49940846 63:0.52011248 64:0.3056693 65:0.070731392 66:0.20612861 67:0.51510264 68:0.78357933 69:0.89138092 70:0.86949693 71:0.4613848 73:0.029567778 74:0.51155679 75:0.47809179 76:0.34915736 77:0.29033646 78:0.32228022 79:0.52570529 80:0.71985055 81:0.88017189 82:1 83:0.59433607 84:0.071467166 85:0.014636055 86:0.37036553 87:0.41099332 88:0.34377303 89:0.28742275 90:0.24100779 91:0.43234467 92:0.53222332 93:0.62520394 94:0.71063877 95:0.64758047 96:0.21524695 97:0.011744368 98:0.27669835 99:0.30244547 100:0.14703779 101:0.13109649 102:0.22755877 103:0.46713324 104:0.43199098 105:0.32639225 106:0.30410809 107:0.38812253 108:0.14235271 109:0.011744368 110:0.279519 111:0.28002174 112:0.090746369 113:0.15895109 114:0.21887658 115:0.25961022 116:0.31944883 117:0.11859423 118:0.074852988 119:0.074852988 122:0.1409865 123:0.15343187 124:0.19239719 125:0.42898915 126:0.29104595 127:0.1380153 128:0.080922585 135:0.011701586 136:0.1495585 137:0.46467076 138:0.48518958 139:0.045141914 150:0.20448659 151:0.25475431 152:0.085240432 161:0.18716071 162:0.6053711 163:0.58232564 164:0.33274686 172:0.25238882 173:0.59972866 174:0.62872936 175:0.66021681 176:0.50520298 177:0.033951198 183:0.08963474 184:0.57740814 185:0.96462849 186:0.7590483 187:0.86788059 188:0.96612571 189:0.63736266 190:0.32763508 191:0.073446278 194:0.17774902 195:0.27142047 196:0.35029149 197:0.72785443 198:0.89586326 199:0.80276507 200:0.91416041 201:0.99093993 202:0.73705803 203:0.29681641 206:0.17484888 207:0.18459827 208:0.14129015 209:0.20070106 210:0.45176386 211:0.5887268 212:0.62192133 213:0.66091053 214:0.6965517 215:0.34676937 218:0.055910008 219:0.099529078 220:0.16208253 221:0.11195837 222:0.082881567 223:0.46175033 224:0.61413493 225:0.63026789 226:0.55412142 227:0.14806766 228:0.0063242062 229:0.040782254 230:0.14080396 231:0.15371894 232:0.14686755 233:0.11680921 234:0.028944869 235:0.26098845 236:0.53549211 237:0.75191115 238:0.66361644 239:0.31034799 240:0.036667472 241:0.068004978 242:0.15234936 243:0.094282093 244:0.039897465 245:0.062150444 246:0.10327735 247:0.24572138 248:0.37579204 249:0.28105298 250:0.38176187 251:0.31742763 252:0.029910744 253:0.054581901 254:0.23112602 255:0.23735307 256:0.2492702 257:0.22478239 258:0.10658974 259:0.18713203 260:0.17921029 262:0.043733529 263:0.043733529 265:0.02681743 266:0.16295274 267:0.27160005 268:0.38223063 269:0.3796105 270:0.19060724 271:0.03860495 272:0.03860495 279:0.14727181 280:0.23285595 281:0.41013482 282:0.31826004 293:0.038696312 294:0.18718757 295:0.16918172 296:0.065904288 305:0.20020671 306:0.46681291 307:0.33654381 308:0.11591165 315:0.15036333 316:0.33012165 317:0.3773116 318:0.31589977 319:0.28623842 320:0.20443701 321:0.076378941 326:0.040927777 327:0.35309786 328:0.74997989 329:0.56001496 330:0.34038581 331:0.41825636 332:0.64246715 333:0.49648121 334:0.20017888 335:0.035168276 337:0.07658688 338:0.34813264 339:0.59624853 340:0.74679018 341:0.77922781 342:0.6295264 343:0.72243622 344:0.91176179 345:0.9256248 346:0.61898541 347:0.26081351 349:0.15760631 350:0.46892849 351:0.55117618 352:0.39560014 353:0.57325279 354:0.60442704 355:0.70419064 356:0.71269091 357:0.57608858 358:0.60395101 359:0.30050391 361:0.079415137 362:0.31290631 363:0.52575007 364:0.37951317 365:0.36875848 366:0.31687556 367:0.4881962 368:0.75100592 369:0.78712514 370:0.66926428 371:0.30133141 372:0.069872875 373:0.14543648 374:0.24770993 375:0.48328146 376:0.82314873 377:0.81211018 378:0.601178 379:0.48157367 380:0.77327998 381:1 382:0.84176769 383:0.57651405 384:0.22465558 385:0.20393992 386:0.35838455 387:0.59323198 388:0.87226444 389:0.99923717 390:0.79368769 391:0.5364298 392:0.58673801 393:0.54425385 394:0.45480087 395:0.39388666 396:0.15319637 397:0.11730012 398:0.41664217 399:0.61475108 400:0.69328609 401:0.69072183 402:0.40896995 403:0.26893001 404:0.18925786 405:0.032871518 409:0.05763243 410:0.22179079 411:0.50815591 412:0.47569993 413:0.40008255 414:0.25762316 415:0.15415566 416:0.10671336 423:0.16015769 424:0.26958872 425:0.35937531 426:0.26292068 427:0.015512265 437:0.21753552 438:0.28040828 439:0.13124472 448:0.042550493 449:0.54947018 450:0.62217835 451:0.35626017 452:0.0305401 458:0.080633904 459:0.30215068 460:0.3601934 461:0.53164656 462:0.62875475 463:0.36840012 464:0.068269186 465:0.01786669 470:0.28060134 471:0.54508653 472:0.45173338 473:0.3745216 474:0.37588582 475:0.18102661 476:0.14375401 477:0.21155637 478:0.2481104 479:0.11385753 481:0.0074215927 482:0.28512571 483:0.48668394 484:0.44039898 485:0.17828496 486:0.12386669 487:0.44613585 488:0.53104929 489:0.47165597 490:0.5571391 491:0.26591606 493:0.14725246 494:0.45392704 495:0.5035025 496:0.36551874 497:0.082387837 498:0.17524216 499:0.58856486 500:0.60419425 501:0.52883501 502:0.85189926 503:0.54776472 505:0.13844645 506:0.53893233 507:0.53070896 508:0.3267101 509:0.093881714 510:0.21846066 511:0.47516273 512:0.54453043 513:0.72399733 514:0.82169276 515:0.62280903 516:0.045737769 517:0.068531015 518:0.4430797 519:0.64567818 520:0.36266005 521:0.43661451 522:0.69328403 523:0.82406173 524:0.74391396 525:0.6700625 526:0.72616146 527:0.61903965 528:0.14705189 529:0.10778213 530:0.57132441 531:0.64574435 532:0.49833542 533:0.66258145 534:0.85196443 535:1 536:0.84988643 537:0.56300829 538:0.47728855 539:0.3793045 540:0.10008879 541:0.12254908 542:0.5342594 543:0.88725105 544:0.73851148 545:0.71183315 546:0.78010354 547:0.87245072 548:0.59576089 549:0.12692003 550:0.067905761 551:0.067905761 553:0.048577492 554:0.2277074 555:0.61003926 556:0.69793813 557:0.64210827 558:0.70667778 559:0.6850997 560:0.22007017 567:0.081541011 568:0.23461118 569:0.34858552 570:0.50757865 571:0.30741508 593:0.084729223 594:0.16735811 595:0.16903586 596:0.1665234 603:0.084306634 604:0.25249942 605:0.41861073 606:0.41361907 607:0.50291737 608:0.33471619 609:0.082637251 614:0.16819279 615:0.25083004 616:0.25125052 617:0.41986589 618:0.25124426 619:0.41776766 620:0.49960345 621:0.25124426 622:0.16861538 623:0.083886153 625:0.083886153 626:0.41902493 627:0.33346103 628:0.24832597 629:0.24832597 630:0.16404419 631:0.25292201 632:0.58596884 633:0.7525171 634:0.66985499 635:0.33346103 637:0.16819279 638:0.5020743 639:0.41902495 640:0.24709567 641:0.083886153 642:0.25207894 643:0.50124798 644:0.66361443 645:0.83515435 646:0.92151971 647:0.49917461 649:0.084306634 650:0.25166474 651:0.33307168 652:0.16404419 653:0.16819279 654:0.42027173 655:0.58596045 656:0.66737365 657:0.75416789 658:0.91692367 659:0.3305676 661:0.084306634 662:0.24916065 663:0.1665234 665:0.16694388 666:0.33430199 667:0.57973664 668:0.58474479 669:0.75082075 670:0.66737365 671:0.25083004 673:0.16819279 674:0.5020743 675:0.33223698 676:0.083886153 677:0.1665234 678:0.16694388 679:0.41986589 680:0.66696156 681:0.41237017 682:0.24916065 683:0.1665234 685:0.083886153 686:0.41860234 687:0.42028012 688:0.25124426 689:0.25083004 690:0.1652745 691:0.25083004 692:0.33221213 693:0.081406942 698:0.16568872 699:0.41571104 700:0.33390636 701:0.50417253 702:0.33223698 711:0.083051472 712:0.1665234 713:0.50250315 714:0.41651876 
0.2442154051836974 0.1026241127967742 5:0.051663609 6:0.08406864 7:0.087058865 8:0.053116189 16:0.047324009 17:0.19818129 18:0.30210109 19:0.3440995 20:0.19627664 26:0.037644125 27:0.0479389 28:0.20212613 29:0.32834099 30:0.36368851 31:0.50217898 32:0.4190449 33:0.01856043 38:0.24321237 39:0.26153082 40:0.23866144 41:0.38206389 42:0.3814263 43:0.42863817 44:0.49907812 45:0.19087743 46:0.21468218 47:0.14271249 50:0.39461306 51:0.42532854 52:0.28428614 53:0.2125166 54:0.19077484 55:0.34253296 56:0.55255018 57:0.50265859 58:0.5730997 59:0.27942548 61:0.051240665 62:0.49977657 63:0.48806936 64:0.3176016 65:0.068793013 66:0.20096187 67:0.57576854 68:0.82005232 69:0.87613226 70:0.95337735 71:0.47535122 73:0.051240665 74:0.51951033 75:0.50788374 76:0.28079385 77:0.18375469 78:0.31222224 79:0.56801271 80:0.71797232 81:0.88337145 82:0.98529938 83:0.57832912 84:0.073074076 85:0.025175799 86:0.41088567 87:0.49421792 88:0.30725123 89:0.18131315 90:0.23592827 91:0.42718469 92:0.51782856 93:0.61764743 94:0.78982145 95:0.72649903 96:0.21676361 98:0.34039179 99:0.3436559 100:0.18560272 101:0.11370945 102:0.22095862 103:0.47242063 104:0.4275149 105:0.32797109 106:0.45428085 107:0.53656554 108:0.14223532 109:0.019190122 110:0.29856037 111:0.30452699 112:0.10156481 113:0.10311294 114:0.18036962 115:0.29424082 116:0.33900375 117:0.13118163 118:0.11329807 119:0.11329807 121:0.018810132 122:0.20805499 123:0.22884844 124:0.19192853 125:0.22528352 126:0.18732762 127:0.19315648 128:0.091956125 134:0.049454408 135:0.06140657 136:0.13524841 137:0.18611403 138:0.19793271 139:0.076466381 150:0.11760305 151:0.16676373 152:0.085377313 162:0.29411468 163:0.4966912 164:0.28069936 172:0.2625156 173:0.50376022 174:0.48550513 175:0.63943186 176:0.45566068 177:0.064565305 182:0.041461442 183:0.12982518 184:0.54357077 185:0.94161231 186:0.77299139 187:0.84399649 188:0.9536585 189:0.65044593 190:0.32183709 191:0.070136034 194:0.19172427 195:0.28494985 196:0.30670445 197:0.69626217 198:0.93164228 199:0.8090095 200:0.92866124 201:0.99426398 202:0.71658771 203:0.29104429 206:0.14775651 207:0.19839418 208:0.10140645 209:0.17239328 210:0.36967335 211:0.5006039 212:0.59503341 213:0.65361275 214:0.67311498 215:0.31961642 218:0.074356043 219:0.1137118 220:0.18191335 221:0.15477193 222:0.1732492 223:0.61596604 224:0.7500096 225:0.6297435 226:0.45701269 227:0.11718756 228:0.0015594962 230:0.096641321 231:0.14590151 232:0.22304461 233:0.18041372 234:0.04716692 235:0.33179202 236:0.60211319 237:0.72476182 238:0.71595659 239:0.36461913 240:0.028692823 241:0.043916947 242:0.10382124 243:0.074113412 244:0.10322372 245:0.11016828 246:0.10572254 247:0.21497173 248:0.35348621 249:0.24843972 250:0.47508133 251:0.41938413 252:0.026691582 253:0.072294232 254:0.30261669 255:0.22778648 256:0.11310698 257:0.13548117 258:0.088273122 259:0.16694716 260:0.13606726 261:0.0010328325 262:0.081887925 263:0.081887925 265:0.028667772 266:0.30053319 267:0.37847344 268:0.39115755 269:0.31585695 270:0.088428082 271:0.069384639 272:0.069384639 278:0.08174454 279:0.29913404 280:0.38155 281:0.42127141 282:0.24960042 293:0.02184523 294:0.1541883 295:0.15307481 296:0.062643981 305:0.077346835 306:0.33704213 307:0.38778638 308:0.16328605 315:0.13506021 316:0.30712373 317:0.26771121 318:0.22397633 319:0.28451525 320:0.24401156 321:0.085270276 326:0.042147009 327:0.33420751 328:0.674571 329:0.5210954 330:0.19403075 331:0.4527861 332:0.6816242 333:0.51765882 334:0.20309043 335:0.028551376 337:0.078801509 338:0.28136099 339:0.55180528 340:0.72442197 341:0.71605571 342:0.56886797 343:0.68581943 344:0.97478908 345:0.9762286 346:0.56477841 347:0.19841223 349:0.2224941 350:0.46652169 351:0.51341055 352:0.36079401 353:0.42612398 354:0.52914538 355:0.66265567 356:0.68821587 357:0.62170468 358:0.54021011 359:0.2163386 361:0.14203055 362:0.30582783 363:0.52038754 364:0.41390993 365:0.38325277 366:0.38379063 367:0.49616595 368:0.57593662 369:0.58351969 370:0.61367928 371:0.32800304 372:0.079820961 374:0.081821064 375:0.42248728 376:0.72140753 377:0.76084613 378:0.63288382 379:0.61076553 380:0.83498474 381:0.82025616 382:0.73028017 383:0.57607169 384:0.23342274 385:0.19487523 386:0.38724392 387:0.49556342 388:0.7116952 389:0.77610342 390:0.87216452 391:0.65581322 392:0.54061165 393:0.49223465 394:0.48841835 395:0.39786745 396:0.15195898 397:0.24999215 398:0.5283102 399:0.51301198 400:0.51893945 401:0.71331261 402:0.54795106 403:0.27557553 404:0.10511869 409:0.056952448 410:0.2308381 411:0.50070811 412:0.59310094 413:0.55904568 414:0.25995001 415:0.15109684 416:0.12617956 422:0.067541364 423:0.2431887 424:0.32978444 425:0.45053084 426:0.30721294 427:0.036063714 428:0.022245816 437:0.24254325 438:0.31079444 439:0.15955454 448:0.046028683 449:0.5924459 450:0.66800886 451:0.37026649 452:0.024248205 458:0.082527898 459:0.33128926 460:0.4081816 461:0.52078066 462:0.62138146 463:0.37251638 464:0.085893216 465:0.018243179 470:0.2830376 471:0.58035561 472:0.49259827 473:0.35246509 474:0.34263504 475:0.16088581 476:0.11492503 477:0.16732453 478:0.25975458 479:0.11803572 481:0.0084011877 482:0.28619463 483:0.54657849 484:0.51365771 485:0.12352054 486:0.13893617 487:0.50664886 488:0.5397871 489:0.46260648 490:0.54820726 491:0.32705925 493:0.15924678 494:0.47152068 495:0.5396983 496:0.43024681 497:0.061998203 498:0.20950741 499:0.66854642 500:0.65591177 501:0.5342828 502:0.82663958 503:0.57725548 505:0.15027629 506:0.46868115 507:0.52172137 508:0.32547566 509:0.049365907 510:0.24492394 511:0.47252701 512:0.46059079 513:0.6722882 514:0.79872114 515:0.55744597 516:0.0059439746 517:0.059988175 518:0.36789348 519:0.58859403 520:0.31259795 521:0.37789701 522:0.72352371 523:0.82048909 524:0.68709904 525:0.62878033 526:0.78573394 527:0.59005574 528:0.096420118 529:0.087080574 530:0.65700922 531:0.7467231 532:0.48377044 533:0.65023893 534:0.85347887 535:0.99602445 536:0.85660693 537:0.61093707 538:0.58784289 539:0.44069325 540:0.089501547 541:0.15544169 542:0.68746349 543:0.90771131 544:0.64754678 545:0.7008311 546:0.83137314 547:0.81475005 548:0.60870223 549:0.119675 550:0.12314875 551:0.12314875 553:0.067742154 554:0.30772538 555:0.69374866 556:0.7671012 557:0.71528973 558:0.91484583 559:0.72883645 560:0.32257482 567:0.21400491 568:0.43385176 569:0.57742736 570:0.75131552 571:0.47925127 572:0.089153392 594:0.09206863 595:0.18459876 596:0.18185499 603:0.09206863 604:0.2757467 605:0.27438511 606:0.27301209 607:0.45761084 608:0.36370997 609:0.090245549 614:0.18367807 615:0.27392362 616:0.27438281 617:0.36645374 618:0.18230734 619:0.36462152 620:0.45489421 621:0.27392362 622:0.18413956 623:0.091609436 625:0.091609436 626:0.45760398 627:0.36416233 628:0.27118901 629:0.18094346 630:0.088901968 631:0.27620819 632:0.54922028 633:0.64128891 634:0.63991819 635:0.36416233 637:0.18367807 638:0.54829959 639:0.45760401 640:0.26984542 641:0.091609436 642:0.2752875 643:0.5473972 644:0.7247125 645:0.82043643 646:0.91383264 647:0.45443502 649:0.09206863 650:0.27483517 651:0.36373714 652:0.17914752 653:0.18367807 654:0.45896557 655:0.63990903 656:0.72881783 657:0.8226824 658:0.81903624 659:0.27210053 661:0.090245549 662:0.27210053 663:0.18185499 665:0.18231418 666:0.36508072 667:0.6331122 668:0.63858144 669:0.72833835 670:0.82180715 671:0.45486707 673:0.092530126 674:0.45760171 675:0.3614617 676:0.091609436 677:0.18185499 678:0.18231418 679:0.36599225 680:0.63675836 681:0.45033652 682:0.45486707 683:0.3610025 685:0.18276654 686:0.54696285 687:0.45669699 688:0.27392362 689:0.18185499 690:0.090697907 691:0.18231418 692:0.27118901 693:0.088901968 697:0.090245549 698:0.27210053 699:0.45715849 700:0.45669015 701:0.27437597 702:0.088901968 711:0.18094346 712:0.3610025 713:0.18185499 
